word,0,1,2,3,4,5,6,7,8,9,10,11,12,13,14,15,16,17,18,19,20,21,22,23,24,25,26,27,28,29,30,31,32,33,34,35,36,37,38,39,40,41,42,43,44,45,46,47,48,49,50,51,52,53,54,55,56,57,58,59,60,61,62,63,64,65,66,67,68,69,70,71,72,73,74,75,76,77,78,79,80,81,82,83,84,85,86,87,88,89,90,91,92,93,94,95,96,97,98,99,100,101,102,103,104,105,106,107,108,109,110,111,112,113,114,115,116,117,118,119,120,121,122,123,124,125,126,127,128,129,130,131,132,133,134,135,136,137,138,139,140,141,142,143,144,145,146,147,148,149,150,151,152,153,154,155,156,157,158,159,160,161,162,163,164,165,166,167,168,169,170,171,172,173,174,175,176,177,178,179,180,181,182,183,184,185,186,187,188,189,190,191,192,193,194,195,196,197,198,199,200,201,202,203,204,205,206,207,208,209,210,211,212,213,214,215,216,217,218,219,220,221,222,223,224,225,226,227,228,229,230,231,232,233,234,235,236,237,238,239,240,241,242,243,244,245,246,247,248,249,250,251,252,253,254,255,256,257,258,259,260,261,262,263,264,265,266,267,268,269,270,271,272,273,274,275,276,277,278,279,280,281,282,283,284,285,286,287,288,289,290,291,292,293,294,295,296,297,298,299,300,301,302,303,304,305,306,307,308,309,310,311,312,313,314,315,316,317,318,319,320,321,322,323,324,325,326,327,328,329,330,331,332,333,334,335,336,337,338,339,340,341,342,343,344,345,346,347,348,349,350,351,352,353,354,355,356,357,358,359,360,361,362,363,364,365,366,367,368,369,370,371,372,373,374,375,376,377,378,379,380,381,382,383,384,385,386,387,388,389,390,391,392,393,394,395,396,397,398,399
电池组,-0.06904499977827072,-0.004273999948054552,0.10784900188446045,0.06074700132012367,-0.053925998508930206,-0.19825400412082672,-0.09799099713563919,0.07019300013780594,-0.16504999995231628,-0.020363999530673027,0.06466999650001526,0.16332200169563293,0.0771849974989891,-0.06804200261831284,-0.14454400539398193,-0.30632099509239197,0.06116199865937233,0.10870400071144104,-0.013505999930202961,-0.16982300579547882,0.0940610021352768,-0.32849499583244324,0.29113900661468506,0.14373600482940674,0.07911399751901627,0.17204299569129944,-0.03477099910378456,-0.09308099746704102,-0.040408000349998474,0.009616999886929989,-0.13534300029277802,0.0014140000566840172,-0.05415799841284752,-0.22007299959659576,-0.20240800082683563,-0.1662220060825348,0.16080300509929657,-0.07415500283241272,0.10908900201320648,0.09759099781513214,-0.08286400139331818,-0.2606920003890991,0.07273200154304504,0.12801499664783478,0.17922300100326538,-0.12240400165319443,0.02559100091457367,-0.04421199858188629,0.16794399917125702,-0.2134850025177002,-0.06742999702692032,0.0190420001745224,0.1785680055618286,-0.05914999917149544,0.19441400468349457,0.001491999952122569,-0.17291200160980225,-0.12968799471855164,-0.13438700139522552,0.3291270136833191,-0.16227999329566956,-0.10740800201892853,-0.2540700137615204,0.031060000881552696,-0.02855299971997738,-0.2963410019874573,0.11997999995946884,-0.02971399948000908,0.20510099828243256,0.05379899963736534,-0.17101599276065826,-0.1485150009393692,-0.08618699759244919,0.0438230000436306,0.16930100321769714,0.009445000439882278,0.0928260013461113,0.2735700011253357,0.2339940071105957,0.09925399720668793,-0.09410899877548218,-0.11113400012254715,-0.20460699498653412,0.01638299971818924,-0.041572000831365585,-0.0054779998026788235,0.053530000150203705,0.19157199561595917,-0.18472200632095337,-0.10094500333070755,-0.02871200069785118,-0.0984560027718544,-0.131290003657341,0.004362999927252531,0.1790730059146881,0.12974999845027924,-0.009831000119447708,-0.036097001284360886,0.08485499769449234,0.11510500311851501,-0.06695400178432465,-0.08721599727869034,0.06847099959850311,0.08717799931764603,-0.0058189998380839825,-0.07633599638938904,-0.06154000014066696,-0.04631799831986427,-0.25201699137687683,-0.15286000072956085,-0.00965800043195486,0.08993600308895111,0.1881600022315979,0.1741040050983429,0.023669999092817307,0.0038350000977516174,-0.14595100283622742,-0.14820900559425354,-0.07376199960708618,0.03358199819922447,0.007091000210493803,0.017489999532699585,-0.04442000016570091,0.029812999069690704,0.20344200730323792,0.027476999908685684,-0.09954799711704254,0.01686899922788143,0.04370199888944626,-0.0018939999863505363,0.25060999393463135,0.025380000472068787,0.1304440051317215,0.13531599938869476,-0.07915300130844116,0.10296200215816498,-0.15302099287509918,-0.02780899964272976,-0.2507820129394531,0.3813430070877075,-0.2076980024576187,0.2191140055656433,-0.04027999937534332,0.16800600290298462,-0.2005770057439804,0.01181699987500906,0.1339859962463379,0.1649480015039444,-0.09502100199460983,-0.005231000017374754,-0.09389399737119675,-0.2874409854412079,-0.10749699920415878,-0.060290999710559845,0.15861700475215912,-0.006517000030726194,0.13459999859333038,0.06620699912309647,0.2961390018463135,-0.33995699882507324,-0.12285099923610687,0.07898099720478058,-0.07719600200653076,-0.11059299856424332,-0.12863700091838837,-0.17594300210475922,-0.10427100211381912,0.07929199934005737,-0.0032049999572336674,-0.14428099989891052,0.029377000406384468,0.2129639983177185,-0.1513260006904602,0.007703000213950872,0.25629499554634094,0.11155799776315689,-0.12539100646972656,0.15657800436019897,-0.18870499730110168,-0.02680700086057186,-0.0574599988758564,-0.14763399958610535,-0.34325799345970154,0.23840899765491486,-0.049504999071359634,0.1860869973897934,0.004575000144541264,-0.02175999991595745,0.08855599910020828,0.1562650054693222,0.040518999099731445,0.09777899831533432,0.0995739996433258,0.21187099814414978,-0.15029700100421906,-0.0696130022406578,-0.01370100025087595,-0.13480199873447418,-0.19893600046634674,-0.048732999712228775,0.21544599533081055,-0.14250299334526062,-0.2858319878578186,0.16380800306797028,-0.016238000243902206,-0.3603369891643524,0.21515700221061707,-0.08155400305986404,0.3712419867515564,-0.27983999252319336,-0.19445300102233887,0.06267400085926056,-0.09125600010156631,0.11550600081682205,-0.09379199892282486,-0.10184399783611298,0.037494998425245285,-0.33226901292800903,0.34497499465942383,0.01181199960410595,-0.057721998542547226,0.22026999294757843,0.16203700006008148,-0.008156999945640564,-0.2705659866333008,0.14843599498271942,0.06598199903964996,-0.21277199685573578,0.054531000554561615,0.1965329945087433,-0.13749399781227112,-0.15202799439430237,-0.2753230035305023,0.018240999430418015,0.05551699921488762,-0.04910600185394287,0.07200700044631958,-0.03718499839305878,0.26884201169013977,-0.19118399918079376,-0.0722069963812828,-0.23427900671958923,0.10440000146627426,-0.07144799828529358,0.13666899502277374,-0.011206000111997128,0.11093500256538391,0.03714599832892418,-0.2816630005836487,-0.1688529998064041,-0.04100700095295906,-0.14930999279022217,-0.2393220067024231,0.1757809966802597,0.06877300143241882,-0.05205700173974037,0.014619999565184116,0.15520699322223663,0.12202700227499008,-0.03176499903202057,0.023900000378489494,0.3776339888572693,0.15723900496959686,0.07786399871110916,-0.1830970048904419,-0.22462399303913116,0.055876001715660095,0.12529100477695465,-0.13061900436878204,-0.030993999913334846,-0.1166210025548935,-0.06270799785852432,-0.03712800145149231,-0.1449590027332306,0.0335099995136261,0.13447299599647522,-0.051026999950408936,-0.053470999002456665,-0.03282599896192551,0.14267000555992126,-0.1917559951543808,-0.12528899312019348,0.2537519931793213,-0.17428900301456451,-0.2695089876651764,0.1999170035123825,0.07462900131940842,0.11340600252151489,0.16393299400806427,-0.08746399730443954,0.23105399310588837,-0.33719098567962646,0.06068899855017662,-0.19040900468826294,0.35862699151039124,-0.2797290086746216,-0.001196000026538968,0.18098099529743195,0.22905200719833374,0.03293199837207794,0.04440800100564957,0.23219400644302368,0.1577479988336563,-0.15800300240516663,-0.056588999927043915,-0.14223900437355042,-0.26785698533058167,0.06672299653291702,-0.11338800191879272,-0.13410399854183197,0.20510999858379364,0.02675499953329563,-0.2040950059890747,0.042847998440265656,0.019426999613642693,-0.013544999994337559,-0.006322000175714493,-0.19317999482154846,-0.013295000419020653,-0.14638599753379822,0.019749000668525696,-0.20061199367046356,-0.07223500311374664,0.10389599949121475,0.24321700632572174,0.026043999940156937,0.2572120130062103,0.027226999402046204,0.11530400067567825,-0.1916230022907257,0.42647600173950195,-0.08851800113916397,-0.1325709968805313,-0.053259000182151794,0.11323200166225433,0.20016400516033173,-0.4788169860839844,0.14216600358486176,0.031734999269247055,0.018022000789642334,0.23139099776744843,-0.0575609989464283,-0.1410530060529709,-0.04303399845957756,0.1077990010380745,0.02335900068283081,0.15071000158786774,0.4607299864292145,-0.04763999953866005,-0.13703100383281708,-0.09329400211572647,-0.020759999752044678,0.014454999938607216,-0.04557500034570694,-0.0391709990799427,-0.18845899403095245,-0.20474399626255035,0.20772899687290192,-0.003654999891296029,-0.03715299814939499,-0.07945500314235687,0.1603900045156479,0.07101999968290329,0.08310700207948685,-0.14420899748802185,-0.03306100144982338,-0.2974579930305481,-0.03303400054574013,-0.2689639925956726,-0.1527860015630722,-0.10806500166654587,-0.28569599986076355,-0.02423500083386898,-0.19247500598430634,-0.01685200072824955,-0.038995999842882156,-0.07483000308275223,-0.2100750058889389,-0.06602100282907486,-0.007402000017464161,-0.0009219999774359167,0.1412770003080368,-0.07021699845790863,-0.14781400561332703,-0.0680140033364296,0.044206999242305756,-0.19214299321174622,0.005659000016748905,0.07030399888753891,0.037769999355077744,-0.026486000046133995,0.3180379867553711,0.013460000045597553,0.06330099701881409,0.12602899968624115,0.3434180021286011,-0.6135370135307312,0.27578499913215637,0.1090259999036789,0.01485699974000454
方法,-0.02370999939739704,0.01142400037497282,0.02790299989283085,-0.06390500068664551,0.13582199811935425,0.11157800257205963,0.12834499776363373,0.09334699809551239,-0.19035999476909637,-0.10729700326919556,-0.007888000458478928,-0.17123299837112427,-0.022275999188423157,-0.07051800191402435,-0.09283699840307236,-0.034258998930454254,0.035287000238895416,-0.07516100257635117,-0.1693820059299469,-0.17639200389385223,0.07132700085639954,-0.13845700025558472,0.11153700202703476,0.16467200219631195,0.05359800159931183,0.028814999386668205,-0.058173999190330505,0.05637500062584877,-0.10795599967241287,0.0894249975681305,-0.002968000015243888,-0.007424000184983015,-0.07428299635648727,-0.06567800045013428,0.04590500146150589,-0.019639000296592712,0.16665099561214447,-0.008502000011503696,0.21191099286079407,-0.236627995967865,0.1322309970855713,-0.038033001124858856,-0.1328669935464859,0.032026998698711395,0.055452000349760056,-0.08637300133705139,-0.08231300115585327,0.0722389966249466,0.005166999995708466,-0.07226099818944931,0.06174999848008156,-0.13074900209903717,0.27921199798583984,-0.06206199899315834,0.037873998284339905,-0.2745569944381714,0.0539730004966259,0.14219099283218384,0.029908999800682068,0.03237500041723251,0.007792999967932701,-0.15175899863243103,0.07679100334644318,-0.09313900023698807,0.02751000039279461,-0.09666500240564346,0.02661599963903427,0.12596599757671356,0.03582800179719925,-0.032749999314546585,-0.08736799657344818,0.06215599924325943,-0.08726400136947632,0.05201900005340576,0.02066200040280819,-0.12874600291252136,0.1092350035905838,0.09507200121879578,0.12842999398708344,0.04549799859523773,0.016527999192476273,-0.03551299870014191,-0.05413400009274483,0.006306000053882599,-0.15010599792003632,-0.12530100345611572,0.16980299353599548,-0.022081999108195305,-0.10711800307035446,0.0018550000386312604,-0.013207999989390373,-0.1665779948234558,-0.13381999731063843,0.040608000010252,-0.08382699638605118,-0.1589599996805191,0.14773200452327728,0.1142750009894371,-0.1606059968471527,0.04836000129580498,0.27729201316833496,-0.04019999876618385,0.2690350115299225,0.013416999951004982,-0.012595999985933304,0.12927000224590302,-0.06291300058364868,0.11392000317573547,0.06332200020551682,-0.07164400070905685,0.01370800007134676,0.10075599700212479,-0.01785000041127205,0.027069000527262688,-0.03364599868655205,0.31790199875831604,-0.12462200224399567,-0.13106299936771393,0.12443400174379349,0.10192400217056274,0.09047699719667435,0.07626499980688095,0.07367700338363647,-0.08724500238895416,-0.15162299573421478,0.10551399737596512,-0.11331400275230408,-0.023930000141263008,-0.011067000217735767,-0.1531669944524765,-0.06482499837875366,0.06901499629020691,0.032329998910427094,0.1811870038509369,0.11351200193166733,-0.11771199852228165,0.02843499928712845,0.002736999886110425,-0.03283800184726715,0.035294000059366226,0.04912000149488449,0.04910700023174286,0.1368129998445511,-0.010350000113248825,-0.06244099885225296,-0.1112160012125969,-0.3278839886188507,0.2444320023059845,-0.06970000267028809,0.12315600365400314,0.011215000413358212,0.0856420025229454,0.15718799829483032,-0.005696999840438366,-0.2020300030708313,0.08238200098276138,-0.006310999859124422,0.08521699905395508,0.03729899972677231,-0.02157999947667122,0.04299499839544296,-0.08475799858570099,-0.11453299969434738,0.003573999973013997,-0.16287900507450104,0.06938900053501129,-0.002113000024110079,0.10904199630022049,0.10467399656772614,-0.165801003575325,-0.09791100025177002,0.20331600308418274,-0.20819500088691711,0.021407000720500946,-0.09759700298309326,-0.15926699340343475,-0.0330829992890358,0.1710900068283081,0.12228599935770035,0.02893799915909767,-0.0026000000070780516,-0.04454699903726578,-0.03410699963569641,0.10267200320959091,-0.1514980047941208,-0.07744699716567993,0.12461800128221512,0.09271399676799774,0.15689000487327576,0.10330399870872498,0.12710000574588776,-0.05955100059509277,-0.02079099975526333,-0.014372999779880047,0.1042179986834526,-0.11512500047683716,-0.1080550029873848,-0.023321999236941338,-0.07901199907064438,0.1504170000553131,0.047839000821113586,-0.019734999164938927,-0.00854399986565113,0.037115998566150665,-0.11560200154781342,-0.2144719958305359,0.23366600275039673,-0.1475829929113388,0.042433001101017,0.17430299520492554,-0.17644700407981873,0.15174500644207,-0.023990999907255173,0.13534599542617798,0.08750200271606445,0.08631400018930435,-0.019693000242114067,-0.07948099821805954,0.2175929993391037,0.09092599898576736,0.15605700016021729,0.12597300112247467,-0.01069399993866682,0.08455699682235718,0.06580399721860886,-0.17000900208950043,-0.1059269979596138,-0.035301998257637024,-0.19356900453567505,0.20213399827480316,-0.010305999778211117,-0.15167899429798126,0.013364000245928764,-0.01921599917113781,0.15851199626922607,-0.0929659977555275,-0.10652200132608414,0.011826000176370144,-0.20570099353790283,-0.14557300508022308,-0.09727200120687485,0.16617099940776825,-0.2280299961566925,0.13638299703598022,-0.29261499643325806,0.0849979966878891,-0.16148200631141663,0.05810699984431267,-0.11990399658679962,0.050930000841617584,0.09438099712133408,-0.32987600564956665,-0.09677299857139587,0.04833399876952171,-0.1865600049495697,0.10989899933338165,-0.012617000378668308,-0.07305099815130234,0.00967899989336729,0.06230099871754646,0.08687199652194977,0.08117599785327911,0.09621500223875046,-0.13200600445270538,0.05519599840044975,-0.09774000197649002,-0.1302659958600998,-0.09314099699258804,-0.036003001034259796,0.056306999176740646,-0.1450279951095581,-0.05255499854683876,0.018470000475645065,0.142084002494812,0.18251100182533264,0.01947700046002865,-0.1368439942598343,-0.05404200032353401,-0.004722000099718571,-0.14792299270629883,-0.1003590002655983,-0.028037000447511673,-0.07499299943447113,-0.022102000191807747,-0.053957998752593994,-0.03693300113081932,0.07817400246858597,-0.13155999779701233,0.005900000222027302,-0.08661500364542007,0.03545499965548515,-0.02196599915623665,0.07948199659585953,-0.13045799732208252,0.19844700396060944,-0.26783299446105957,0.17865100502967834,0.07852499932050705,0.2262679934501648,-0.03913300111889839,-0.12153200060129166,0.07184000313282013,-0.0712210014462471,-0.10776899755001068,-0.0811460018157959,-0.018240999430418015,0.020779000595211983,0.1879960000514984,0.09861700236797333,0.11163999885320663,-0.0587490014731884,-0.03752300143241882,-0.029503000900149345,0.002345999935641885,0.04194999858736992,-0.11756499856710434,-0.0044999998062849045,0.050988998264074326,0.09442199766635895,-0.05962499976158142,-0.06004299968481064,0.09153400361537933,0.013546000234782696,-0.0001740000006975606,-0.01594500057399273,-0.07365600019693375,-0.0055610002018511295,-0.03349899873137474,-0.017952000722289085,-0.038325000554323196,0.052021998912096024,0.11664800345897675,0.03700700029730797,-0.06325100362300873,0.14847800135612488,0.08038999885320663,0.26160499453544617,-0.08724799752235413,-0.17812199890613556,-0.22598400712013245,-0.1516689956188202,-0.09379000216722488,-0.02076300047338009,-0.0885939970612526,-0.05222199857234955,0.10673999786376953,0.20075799524784088,0.061980001628398895,-0.15366700291633606,-0.036931999027729034,-0.23329800367355347,-0.016672000288963318,0.02688400074839592,0.07303699851036072,0.09702800214290619,0.10941199958324432,0.008600999601185322,0.1953440010547638,0.04883100092411041,-0.022752000018954277,-0.24948300421237946,-0.026820000261068344,0.08867699652910233,0.06992299854755402,-0.04369499906897545,-0.1976580023765564,-0.03408300131559372,-0.06067800149321556,-0.2586210072040558,0.0026179999113082886,0.0345270000398159,0.09957200288772583,-0.048037998378276825,0.028992999345064163,0.14137199521064758,-0.09811100363731384,0.16112199425697327,-0.040794000029563904,-0.03723699972033501,0.06755100190639496,-0.07856299728155136,0.04073600098490715,-0.05284300073981285,0.15323400497436523,0.11980599910020828,0.03770099952816963,-0.15245500206947327,0.07767900079488754,0.12527300417423248,-0.03397800028324127,-0.120899997651577,0.19528299570083618,-0.1501529961824417,-0.043542999774217606,0.05975300073623657,0.2139340043067932,-0.13947199285030365,-0.07755199819803238,0.06074399873614311,0.05667300149798393
容量,-0.2062080055475235,-0.11980599910020828,0.5396530032157898,0.07802599668502808,0.06401900202035904,0.1471569985151291,-0.3233869969844818,-0.07314199954271317,0.09313099831342697,0.12277200073003769,-0.04477500170469284,0.1941000074148178,-0.141744002699852,-0.07649900019168854,-0.5172470211982727,-0.4893769919872284,-0.16610899567604065,0.20539799332618713,-0.25274598598480225,-0.24026399850845337,0.001496999990195036,-0.43693599104881287,-0.009398000314831734,-0.03785699978470802,0.29770201444625854,0.10399899631738663,-0.48973798751831055,-0.02477799914777279,0.0670119971036911,-0.3983759880065918,-0.011274999938905239,0.1670909970998764,-0.023422999307513237,0.38004499673843384,-0.24540500342845917,-0.4315339922904968,-0.21271799504756927,-0.10132499784231186,0.2697489857673645,0.1279119998216629,0.2912040054798126,0.02091600000858307,-0.03145400062203407,0.10760500282049179,0.2903229892253876,0.25709500908851624,-0.2644230127334595,-0.019576000049710274,0.16154399514198303,-0.16149500012397766,-0.04761600121855736,0.15067200362682343,0.08283399790525436,-0.3648749887943268,0.014189000241458416,0.07259900122880936,-0.06630299985408783,0.049880001693964005,0.05750900134444237,0.38851699233055115,-0.12064100056886673,-0.10735499858856201,-0.18132899701595306,-0.014012999832630157,0.04427900165319443,-0.4590109884738922,-0.18086199462413788,-0.1832219958305359,0.35139200091362,-0.18522700667381287,0.07945500314235687,-0.24158599972724915,-0.2960120141506195,0.06874799728393555,-0.05669200047850609,-0.11956900358200073,0.0706389993429184,0.25382399559020996,0.13890999555587769,-0.1824669986963272,-0.08716800063848495,-0.1944900006055832,-0.0032649999484419823,0.12091899663209915,0.3151080012321472,0.2473369985818863,0.17135199904441833,-0.0030350000597536564,-0.2847909927368164,-0.061337001621723175,0.14828500151634216,-0.06106099858880043,0.010041000321507454,-0.2841449975967407,0.20232200622558594,0.1699029952287674,-0.1227630004286766,-0.2253579944372177,0.035711999982595444,-0.08022599667310715,-0.6540229916572571,0.18177199363708496,-0.20555999875068665,0.2126699984073639,0.10388600081205368,0.06722600013017654,0.21399299800395966,0.3099539875984192,-0.23697100579738617,-0.083187997341156,-0.22888900339603424,0.3146350085735321,0.07830899953842163,-0.17265699803829193,-0.12230700254440308,-0.40978801250457764,-0.17901399731636047,-0.11478900164365768,-0.21075400710105896,0.24036000669002533,0.025296000763773918,-0.13047899305820465,-0.03750799968838692,0.11264800280332565,0.3327459990978241,0.039021000266075134,0.21271300315856934,0.11261899769306183,0.1591459959745407,0.3777100145816803,0.05479700118303299,0.02586900070309639,0.23728999495506287,0.18584999442100525,-0.06167599931359291,0.25301501154899597,-0.1275400072336197,0.15031099319458008,-0.025824999436736107,0.6477050185203552,-0.2924329936504364,0.5060930252075195,-0.2350659966468811,-0.016661999747157097,-0.18060900270938873,-0.14210200309753418,0.030268000438809395,0.10854999721050262,0.27480998635292053,0.04912099987268448,-0.047022998332977295,-0.08090300112962723,-0.29157501459121704,-0.04532599821686745,0.10002099722623825,-0.10638300329446793,0.5663059949874878,0.31074801087379456,0.5971860289573669,-0.36116498708724976,0.10441400110721588,-0.6023920178413391,0.1479630023241043,-0.177155002951622,0.17159399390220642,0.032055001705884933,-0.386911004781723,-0.32588401436805725,0.003011999884620309,-0.21691200137138367,0.29270800948143005,0.18734599649906158,0.24918200075626373,-0.14590699970722198,0.09019400179386139,-0.09716299921274185,-0.3769499957561493,-0.30813899636268616,-0.25167199969291687,-0.2324109971523285,0.06299000233411789,0.1441500037908554,-0.44598400592803955,-0.1506740003824234,0.16606999933719635,0.10067199915647507,0.09836900234222412,-0.09099599719047546,0.1797890067100525,0.206385999917984,0.17266200482845306,0.46020498871803284,0.36913999915122986,0.17219699919223785,-0.12469500303268433,-0.032774001359939575,0.3467459976673126,0.4455850124359131,-0.4649380147457123,-0.476967990398407,-0.13775399327278137,-0.0034169999416917562,-0.09649799764156342,0.3386799991130829,0.014561999589204788,-0.48980700969696045,-0.14266400039196014,0.15381799638271332,0.21558299660682678,-0.3333759903907776,-0.24201400578022003,0.623199999332428,-0.10063400119543076,0.08413200080394745,0.13607800006866455,-0.3992449939250946,-0.14773699641227722,-0.9320260286331177,0.24761800467967987,0.07336000353097916,0.0875530019402504,0.22976399958133698,0.05178900063037872,0.3838469982147217,0.18453900516033173,-0.04988899827003479,0.09043999761343002,-0.2924500107765198,0.18592600524425507,-0.3238210082054138,0.03616800159215927,-0.0349700003862381,-0.2522689998149872,-0.0003380000125616789,-0.2701230049133301,-0.19683900475502014,0.22315600514411926,0.02891400083899498,-0.0857739970088005,-0.3466230034828186,-0.04225200042128563,-0.1929280012845993,0.01647300086915493,0.08415199816226959,0.03277600184082985,0.00035700001171790063,-0.01631700061261654,-0.3815540075302124,-0.011346999555826187,-0.010443000122904778,0.23143500089645386,-0.24269600212574005,-0.7742850184440613,0.011458000168204308,-0.26723799109458923,-0.09041699767112732,-0.035367000848054886,-0.03413200005888939,0.41651299595832825,0.1658630073070526,-0.04535700008273125,0.5763949751853943,0.16373999416828156,-0.07008200138807297,-0.31927499175071716,-0.44518300890922546,0.18853899836540222,0.0160910002887249,0.2968989908695221,-0.2772729992866516,0.01413000002503395,0.2651430070400238,-0.331932008266449,-0.22939200699329376,0.008097999729216099,0.20021000504493713,-0.31768301129341125,0.1957949995994568,0.027761999517679214,0.12372499704360962,0.034085001796483994,0.027372999116778374,0.1973229944705963,-0.5174620151519775,0.036685001105070114,0.004373000003397465,0.07776500284671783,0.42799100279808044,0.03259899839758873,0.26268699765205383,-0.16791699826717377,0.18546299636363983,-0.20155100524425507,-0.3089919984340668,0.1475529968738556,-0.1606380045413971,-0.0502530001103878,0.0938040018081665,0.08294299989938736,0.14440800249576569,-0.32308998703956604,0.15137499570846558,0.1956849992275238,0.05591899901628494,-0.5457130074501038,-0.1984120011329651,-0.370386004447937,0.3762499988079071,-0.37141498923301697,-0.5097399950027466,0.5469269752502441,0.17303000390529633,-0.15935499966144562,0.21150699257850647,-0.21031999588012695,0.20380499958992004,0.10517100244760513,-0.28607800602912903,0.25697800517082214,0.16851100325584412,-0.15365299582481384,-0.06518600136041641,-0.13234399259090424,-0.07052300125360489,-0.04831700026988983,-0.2615169882774353,0.24150699377059937,0.22146999835968018,-0.03244800120592117,-0.4348579943180084,-0.13958700001239777,-0.34473899006843567,0.1865829974412918,-0.23014600574970245,-0.1902260035276413,0.18526899814605713,-0.25006499886512756,-0.1485549956560135,-0.25940099358558655,0.4660150110721588,0.20033100247383118,0.1838109940290451,-0.0792509987950325,0.09095700085163116,0.05282900109887123,0.11562199890613556,0.11742500215768814,0.28939300775527954,0.11312399804592133,-0.08176600188016891,-0.22537900507450104,-0.07154600322246552,-0.13494400680065155,-0.12502700090408325,0.2720159888267517,0.060906000435352325,-0.3214609920978546,0.42903798818588257,0.06231699883937836,-0.2882710099220276,-0.14130200445652008,0.13471199572086334,0.0117419995367527,-0.3061949908733368,0.26660099625587463,0.12259600311517715,-0.00017800000205170363,-0.20006099343299866,0.3095580041408539,-0.2620280086994171,0.1098800003528595,-0.21978400647640228,0.04642099887132645,-0.11279100179672241,-0.2921470105648041,-0.25159698724746704,0.11361899971961975,0.07144699990749359,-0.19466300308704376,-0.16495099663734436,-0.2884030044078827,0.07158300280570984,-0.08501099795103073,-0.15611900389194489,-0.21532300114631653,-0.15144799649715424,-0.005541999824345112,0.17657600343227386,-0.10913000255823135,0.27371400594711304,-0.08565100282430649,-0.025836000218987465,-0.030522000044584274,-0.29635098576545715,-0.22865499556064606,0.05837399885058403,-0.42496299743652344,-0.05525000020861626,0.08241800218820572,0.13915100693702698
操作,0.06412000209093094,0.10400400310754776,0.10052300244569778,-0.058260999619960785,0.08901000022888184,0.04121999815106392,0.1229339987039566,0.27865299582481384,-0.21730199456214905,0.020705999806523323,0.14895200729370117,0.03356499969959259,-0.05317600071430206,0.16195200383663177,-0.19215600192546844,-0.09213899821043015,0.17082999646663666,0.16783399879932404,-0.13718000054359436,-0.19212999939918518,0.013811999931931496,-0.15612800419330597,0.02573299966752529,0.1088389977812767,0.24969500303268433,0.028588000684976578,0.03779599815607071,-0.07002600282430649,-0.20448799431324005,0.047961000353097916,-0.07802099734544754,0.048225000500679016,-0.04163900017738342,-0.12429600208997726,0.08863499760627747,-0.15548300743103027,0.11782000213861465,-0.17534799873828888,0.2111770063638687,-0.00636200001463294,0.034407999366521835,-0.11010400205850601,-0.051867999136447906,0.14947199821472168,-0.05154399946331978,0.08993499726057053,-0.11414700001478195,-0.17284199595451355,0.14568400382995605,-0.007224999833852053,0.050324998795986176,-0.020754000172019005,0.011899000033736229,-0.15328800678253174,0.08433199673891068,0.07091499865055084,-0.286981999874115,0.0876849964261055,0.25075000524520874,0.16550800204277039,0.1562730073928833,0.068852998316288,-0.15825000405311584,0.0832500010728836,0.148935005068779,-0.0039019999094307423,0.04334300011396408,0.07781299948692322,0.14036999642848969,-0.03810499981045723,-0.1996999979019165,0.028880000114440918,-0.22261999547481537,-0.2732209861278534,0.1921290010213852,-0.0978040024638176,0.11416500061750412,0.09808900207281113,0.2376919984817505,0.09483300149440765,0.04060100018978119,-0.4274739921092987,-0.01272599957883358,-0.08124499768018723,0.0036879999097436666,-0.04320500046014786,-0.09972400218248367,0.1348160058259964,-0.21025699377059937,-0.12460099905729294,-0.06633400171995163,-0.10611899942159653,-0.10762599855661392,-0.14684399962425232,0.08050400018692017,-0.15097400546073914,0.11494600027799606,-0.018014999106526375,-0.053971998393535614,-0.05977899953722954,0.10448800027370453,-0.041673000901937485,0.005177000071853399,-0.10316500067710876,-0.22543799877166748,0.1778469979763031,-0.1564120054244995,0.00035099999513477087,-0.021510999649763107,-0.03892099857330322,0.02587299980223179,0.0568230003118515,0.01191799994558096,-0.16848400235176086,0.1630290001630783,0.1271049976348877,-0.13437199592590332,0.1296059936285019,0.09974700212478638,0.06667599827051163,-0.045885998755693436,0.016300000250339508,-0.08098900318145752,0.07059399783611298,0.2863059937953949,-0.068121999502182,-0.03696899861097336,-0.06960999965667725,-0.04382200166583061,0.00444599986076355,0.0068339998833835125,-0.0881740003824234,0.09167999774217606,0.14237700402736664,0.19427600502967834,-0.03226900100708008,0.15771600604057312,0.004300999920815229,-0.18535299599170685,0.014201000332832336,-0.12001899629831314,0.08412499725818634,0.20448000729084015,0.07375200092792511,-0.2863070070743561,-0.07020699977874756,-0.3215300142765045,-0.1486469954252243,-0.20791299641132355,-0.10335200279951096,-0.2256229966878891,-0.039048001170158386,0.02064399980008602,0.022252000868320465,0.036263998597860336,0.06789500266313553,0.14841100573539734,-0.06489799916744232,0.011335999704897404,0.0715700015425682,-0.10373199731111526,-0.024601999670267105,0.09732399880886078,0.029326999559998512,-0.041884999722242355,0.09387700259685516,0.062609001994133,0.029603999108076096,0.04862700030207634,-0.08124099671840668,0.12594899535179138,0.21285699307918549,-0.09780199825763702,-0.11962900310754776,0.058281999081373215,-0.08996699750423431,0.04299600049853325,-0.050755999982357025,0.112807996571064,-0.03074299916625023,-0.06450100243091583,-0.16853199899196625,-0.2433529943227768,0.08386299759149551,-0.10322000086307526,0.03653300181031227,0.23132899403572083,0.06715100258588791,0.0659089982509613,0.10761299729347229,0.2089579999446869,-0.07270900160074234,-0.09961000084877014,0.010412000119686127,-0.112015001475811,-0.060263000428676605,0.07324700057506561,-0.14039400219917297,-0.258092999458313,-0.07009399682283401,0.14159899950027466,-0.0017519999528303742,-0.042851999402046204,0.15203000605106354,0.08764199912548065,-0.13381899893283844,0.06902100145816803,0.024903999641537666,-0.16877999901771545,0.038152001798152924,-0.0759119987487793,0.2161179929971695,-0.053651999682188034,0.25709599256515503,0.0709730014204979,-0.07015399634838104,0.17535200715065002,-0.20688499510288239,0.46443501114845276,-0.166935995221138,0.1330379992723465,0.15831899642944336,-0.09822700172662735,0.13396799564361572,-0.023212000727653503,-0.2809770107269287,-0.08325199782848358,-0.012116000056266785,0.12089399993419647,0.03103799931704998,-0.01191799994558096,0.02438499964773655,0.09760399907827377,0.1191060021519661,0.12491299957036972,0.05985499918460846,0.02435299940407276,0.057346999645233154,-0.25113800168037415,-0.05561799928545952,-0.052441999316215515,-0.06528499722480774,-0.09631700068712234,-0.03892600163817406,-0.061622001230716705,-0.04100700095295906,-0.13155899941921234,-0.04938000068068504,0.002747999969869852,-0.13681499660015106,0.03207699954509735,-0.26891401410102844,-0.04710400104522705,0.015219000168144703,-0.16184499859809875,-0.12138699740171432,-0.10040099918842316,-0.15694500505924225,0.20972000062465668,0.10683400183916092,0.29807600378990173,0.15288199484348297,0.18824000656604767,-0.08916600048542023,0.04119100049138069,-0.20611800253391266,0.2526940107345581,-0.040623001754283905,-0.11517900228500366,0.08116500079631805,-0.09356000274419785,-0.072782002389431,0.12367399781942368,0.014690999872982502,0.22768999636173248,0.1485230028629303,0.04053499922156334,-0.07002799957990646,-0.08603300154209137,0.01232299953699112,0.11413399875164032,-0.10481300204992294,-0.010875999927520752,0.11073599755764008,-0.06785599887371063,-0.09068900346755981,0.06068800017237663,-0.017904000356793404,0.18321600556373596,-0.1532450020313263,0.08184099942445755,-0.09268199652433395,0.2542249858379364,-0.2233089953660965,0.08259599655866623,-0.4875339865684509,0.01155600044876337,0.21927699446678162,0.2123979926109314,0.14348900318145752,0.06630600243806839,0.26482298970222473,-0.027736999094486237,-0.29943498969078064,-0.10605599731206894,-0.007036999799311161,-0.09556200355291367,0.056630998849868774,-0.18133099377155304,-0.1101830005645752,0.12202899903059006,-0.054370999336242676,0.18041600286960602,0.127687007188797,-0.13449600338935852,0.08004800230264664,0.00278700003400445,-0.22719700634479523,-0.13673999905586243,-0.17322200536727905,-0.11564400047063828,-0.038224998861551285,0.12465400248765945,-0.13792100548744202,0.0069670001976192,-0.04168200120329857,0.2452709972858429,-0.13314999639987946,-0.07282300293445587,0.04918000102043152,0.1833830028772354,-0.0783429965376854,0.03643200173974037,-0.2286520004272461,0.12002000212669373,0.23603500425815582,-0.1971219927072525,-0.27716198563575745,-0.18039999902248383,-0.06440900266170502,0.005272999871522188,-0.046973999589681625,-0.07624000310897827,0.25847500562667847,-0.06444799900054932,4.099999932805076e-05,0.21139200031757355,0.048252999782562256,0.14711999893188477,0.13052299618721008,0.03342600166797638,-0.05832599848508835,-0.12139999866485596,0.1709430068731308,0.08639299869537354,0.1751910001039505,-0.15583999454975128,0.3550809919834137,0.05208799988031387,0.04175499826669693,0.0559069998562336,0.009166999720036983,0.114376001060009,0.09808500111103058,-0.013384999707341194,-0.10018400102853775,-0.03835200145840645,-0.025539999827742577,-0.14718200266361237,-0.024508999660611153,-0.166034996509552,-0.15120400488376617,-0.04195199906826019,0.15139399468898773,-0.019435999915003777,-0.07381600141525269,-0.13644300401210785,-0.11841200292110443,0.06639400124549866,-0.0061519998125731945,0.19418300688266754,-0.03307799994945526,-0.11875200271606445,0.07551699876785278,0.272801011800766,-0.07270999997854233,-0.016780000180006027,0.05316099897027016,-0.08126100152730942,0.1166670024394989,-0.06205900013446808,0.0679830014705658,-0.1662600040435791,-0.034949999302625656,0.005574999842792749,0.19636599719524384,-0.11406999826431274,-0.06223300099372864,-0.11696299910545349,-0.05514699965715408
计算,0.031053999438881874,-0.15103599429130554,0.09503500163555145,-0.0751890018582344,0.11042200028896332,-0.03209900110960007,0.06499399989843369,0.12172400206327438,-0.032517001032829285,-0.044123001396656036,-0.12954099476337433,0.004523999989032745,0.040995001792907715,0.08581700176000595,-0.0521790012717247,-0.14620700478553772,-0.0213600005954504,-0.1504330039024353,-0.21141399443149567,0.08076199889183044,0.14145800471305847,-0.030287999659776688,0.01823900081217289,-0.07210300117731094,-0.04580000042915344,-0.03264699876308441,-0.015445999801158905,-0.05116400122642517,-0.16100400686264038,-0.17921200394630432,-0.16128799319267273,-0.1373489946126938,0.18432800471782684,0.32047200202941895,0.14395399391651154,-0.06807299703359604,0.1427830010652542,-0.18475399911403656,0.12643200159072876,-0.12629200518131256,0.13483400642871857,-0.018611999228596687,-0.2475840002298355,0.07498200237751007,0.1063069999217987,-0.01768999919295311,-0.13211500644683838,-0.09845700114965439,0.0015739999944344163,-0.016745999455451965,-0.04832400009036064,-0.1068049967288971,0.18369300663471222,-0.12642300128936768,-0.1908400058746338,-0.1485069990158081,0.129953995347023,0.08782699704170227,0.030628999695181847,-0.0890830010175705,-0.06567800045013428,-0.11161299794912338,0.007942999713122845,-0.12744200229644775,-0.0640610009431839,-0.12477800250053406,-0.3905929923057556,-0.06350400298833847,-0.1370829939842224,-0.057551998645067215,-0.038718998432159424,-0.16518299281597137,-0.05425700172781944,-0.24511100351810455,0.09437700361013412,-0.2643899917602539,0.2128320038318634,0.04924999922513962,0.31195199489593506,-0.08062300086021423,0.2546750009059906,0.012796999886631966,0.04724700003862381,-0.12096899747848511,-0.16221599280834198,0.0009950000094249845,0.1608249992132187,-0.09639900177717209,0.00459699984639883,0.018357999622821808,0.05431099981069565,0.01016400009393692,-0.11601299792528152,-0.22344499826431274,0.19501900672912598,-0.16796399652957916,0.25619399547576904,0.003894000081345439,-0.20364999771118164,-0.12204600125551224,0.22098399698734283,0.14211499691009521,-0.02886500023305416,0.07193399965763092,-0.1131799966096878,-0.07103800028562546,-0.02064800076186657,0.024921000003814697,-0.17047999799251556,-0.03342200070619583,-0.05258600041270256,0.13533100485801697,0.016666999086737633,-0.12925800681114197,0.026484999805688858,0.15925799310207367,0.01981399953365326,-0.20303699374198914,-0.08405400067567825,0.06916200369596481,0.0014659999869763851,0.050581999123096466,-0.013706999830901623,-0.0964059978723526,-0.09544599801301956,0.2906239926815033,-0.12872600555419922,0.0699940025806427,-0.006684999912977219,-0.1053910031914711,-0.08331499993801117,0.14207400381565094,-0.054437000304460526,0.00784400012344122,0.16564799845218658,-0.22869400680065155,0.10150700062513351,0.014804000034928322,-0.013748000375926495,0.10667400062084198,0.08637399971485138,0.07341399788856506,0.13574300706386566,0.05845300108194351,-0.10102400183677673,-0.0999009981751442,-0.2619119882583618,0.14443300664424896,0.0325779989361763,0.07143200188875198,-0.04930099844932556,0.11824899911880493,0.23121599853038788,-0.10461699962615967,-0.0239889994263649,0.13917000591754913,0.03246000036597252,0.27923399209976196,0.010108999907970428,-0.3303079903125763,-0.15501199662685394,0.09136000275611877,-0.10724499821662903,-0.021933000534772873,-0.3566409945487976,0.06353799998760223,-0.16221299767494202,-0.04606299847364426,0.30325600504875183,-0.2475849986076355,-0.2633950114250183,0.25784701108932495,-0.006155999843031168,-0.1003509983420372,-0.03531299903988838,-0.32229799032211304,-0.16361699998378754,0.14671200513839722,0.16820600628852844,-0.06526999920606613,-0.12265600264072418,-0.22751300036907196,-0.23394900560379028,0.015538999810814857,-0.03075299970805645,0.15027999877929688,-0.09198900312185287,0.06341300159692764,0.1477999985218048,0.06740300357341766,0.22355499863624573,0.08742199838161469,0.1545259952545166,-0.11302000284194946,0.005739999935030937,-0.025759000331163406,0.2164119929075241,-0.19021299481391907,-0.10339800268411636,0.055066999047994614,0.04617999866604805,-0.09695100039243698,-0.057603999972343445,0.06156500056385994,0.08472199738025665,-0.2029609978199005,0.07928100228309631,-0.17204900085926056,-0.15405699610710144,-0.025366000831127167,0.07311899960041046,0.23900699615478516,-0.06267099827528,0.025857999920845032,0.3014630079269409,-0.041067998856306076,0.08343300223350525,-0.12212400138378143,0.049244001507759094,0.13663600385189056,-0.08348599821329117,-0.046865999698638916,0.1153390035033226,0.023194000124931335,0.10100399702787399,-0.12535899877548218,-0.040483999997377396,-0.1286959946155548,-0.06201599910855293,0.059140000492334366,0.004989000037312508,-0.12161599844694138,0.06207700073719025,0.05425899848341942,0.2071859985589981,-0.14147800207138062,-0.021967999637126923,0.004935000091791153,-0.19389499723911285,-0.11922799795866013,-0.16177399456501007,0.34701699018478394,-0.13595999777317047,0.13808700442314148,0.041464999318122864,0.19127799570560455,-0.07095199823379517,0.11782000213861465,-0.11014900356531143,0.12534600496292114,0.2653689980506897,-0.11306700110435486,0.03042599931359291,0.22653000056743622,-0.10786899924278259,0.04233299940824509,-0.030587000772356987,-0.13616600632667542,-0.010297000408172607,0.04972099885344505,0.11071000248193741,0.10679599642753601,-0.024164000526070595,-0.20028699934482574,-0.07745999842882156,0.1279350072145462,-0.0232900008559227,0.054868001490831375,-0.2072249948978424,0.12357500195503235,-0.07100699841976166,-0.18583400547504425,-0.0900690034031868,-0.01115300040692091,0.002409999957308173,0.012911000289022923,-0.2529970109462738,-0.12008699774742126,0.06755200028419495,0.007914000190794468,-0.20776699483394623,-0.30569300055503845,0.10828299820423126,-0.24263200163841248,0.05017499998211861,0.07430999726057053,0.227182999253273,-0.04769600182771683,0.060437001287937164,0.11107800155878067,0.21030700206756592,-0.3020319938659668,0.2545199990272522,-0.2897230088710785,0.1614139974117279,-0.08864700049161911,0.22572200000286102,0.05929499864578247,0.03782299906015396,-0.0329429991543293,-0.09882599860429764,0.05585100129246712,0.09755899757146835,0.028318999335169792,0.023733999580144882,-0.037762001156806946,0.15081900358200073,0.21507799625396729,-0.05337899923324585,-0.07513900101184845,-0.03208800032734871,0.06879699975252151,-0.1007160022854805,0.13827699422836304,0.04218199849128723,-0.01027899980545044,-0.19008299708366394,-0.1913370043039322,-0.1692270040512085,-0.22017499804496765,-0.1675100028514862,-0.06449300050735474,-0.31558099389076233,0.0984869971871376,0.08359300345182419,0.00027200000477023423,-0.1559170037508011,-0.09850200265645981,-0.16345499455928802,-0.05267300084233284,0.2909969985485077,0.20575299859046936,0.09166800230741501,-0.24787099659442902,0.16070300340652466,0.1403619945049286,0.41702601313591003,-0.31953999400138855,-0.35062500834465027,0.1014690026640892,0.059147000312805176,-0.2527880072593689,-0.10872399806976318,-0.04819900169968605,-0.1256999969482422,0.030585000291466713,0.1497820019721985,-0.06604500114917755,-0.1453610062599182,-0.061785001307725906,-0.15286099910736084,-0.06434699892997742,0.057851001620292664,-0.14149600267410278,-0.12090999633073807,0.058150000870227814,-0.16770300269126892,0.24953599274158478,-0.25113001465797424,0.09288600087165833,-0.022074000909924507,-0.04704499989748001,-0.035006001591682434,0.09585899859666824,-0.043744999915361404,-0.11149699985980988,0.091730996966362,-0.13807900249958038,-0.14900699257850647,-0.16485600173473358,0.19087600708007812,-0.22958099842071533,0.2542240023612976,-0.07217100262641907,0.0901229977607727,-0.17070500552654266,0.13286499679088593,-0.1834699958562851,0.003378000110387802,0.12381800264120102,0.190528005361557,0.09535499662160873,0.177046000957489,0.003513999981805682,0.25011101365089417,-0.008018000051379204,-0.13055400550365448,-0.05510000139474869,-0.013011000119149685,0.03359600156545639,-0.02513599954545498,0.0021389999892562628,-0.39201799035072327,0.12910500168800354,0.032572001218795776,0.10852999985218048,-0.3051629960536957,0.013105000369250774,0.1366710066795349,0.12201199680566788
系统,0.03576900064945221,0.1622759997844696,0.0007880000048317015,0.05579200014472008,0.2878429889678955,-0.26772698760032654,0.15590700507164001,0.27757900953292847,-0.07878299802541733,-0.07411199808120728,0.2781650125980377,-0.099993996322155,-0.08483800292015076,0.3455129861831665,0.08061599731445312,0.04310400038957596,-0.17145299911499023,-0.014445999637246132,-0.15311199426651,-0.36299198865890503,-0.24104300141334534,-0.163659006357193,0.36739298701286316,-0.008156999945640564,0.02902499958872795,0.19664199650287628,-0.039342001080513,-0.03620000183582306,0.21417200565338135,0.1461780071258545,0.04198100045323372,-0.042883001267910004,0.30945101380348206,-0.05529699847102165,-0.07813499867916107,-0.03924499824643135,0.15867500007152557,-0.3209269940853119,-0.12800100445747375,0.07167000323534012,-0.08310499787330627,-0.08066499978303909,-0.06720399856567383,0.3141550123691559,0.14695100486278534,-0.12432800233364105,-0.07625500112771988,-0.20142200589179993,0.13315199315547943,-0.140733003616333,-0.10143999755382538,0.22969700396060944,0.2797519862651825,-0.10589499771595001,-0.0007009999826550484,-0.08600299805402756,-0.005005999933928251,0.23718999326229095,-0.08778200298547745,0.07245899736881256,-0.15596899390220642,0.13887199759483337,-0.13530799746513367,0.08531100302934647,-0.11126700043678284,0.12691299617290497,0.16151699423789978,-0.21496200561523438,0.012993000447750092,0.26809000968933105,-0.3158999979496002,-0.17262299358844757,0.1812710016965866,-0.12313999980688095,-0.029850000515580177,-0.21027299761772156,0.12623600661754608,0.16880300641059875,0.17319700121879578,-0.031877998262643814,0.007732999976724386,-0.15377099812030792,-0.02847200073301792,-0.1524379998445511,-0.38816800713539124,-0.11207599937915802,0.02850399911403656,0.08016599714756012,-0.11229199916124344,0.01159099955111742,-0.0061240000650286674,0.18229800462722778,-0.3360919952392578,-0.0845159962773323,0.23718500137329102,0.03372599929571152,-0.08997000008821487,-0.21212199330329895,-0.24647900462150574,0.09616400301456451,0.02439800091087818,0.2843700051307678,0.17276699841022491,0.1581750065088272,-0.13367199897766113,0.06928300112485886,-0.21540600061416626,0.07349599897861481,-0.16899999976158142,-0.19683800637722015,-0.18151399493217468,0.034331001341342926,0.020867999643087387,0.01508800033479929,0.10788899660110474,0.005834000185132027,-0.04709099978208542,0.20799599587917328,-0.1685750037431717,-0.012067999690771103,0.12501299381256104,0.32047298550605774,-0.027070000767707825,-0.14479100704193115,0.1323930025100708,0.01012600027024746,-0.24821999669075012,0.08022800087928772,-0.1070529967546463,-0.27222898602485657,0.3284519910812378,-0.14460599422454834,0.1332789957523346,0.22758300602436066,0.08280900120735168,-0.09686499834060669,0.3481529951095581,-0.024430999532341957,-0.05140399932861328,-0.06670500338077545,-0.022283999249339104,-0.11444500088691711,0.13049699366092682,0.13831299543380737,-0.4026400148868561,0.15985000133514404,-0.11777099967002869,-0.13604199886322021,0.029562000185251236,-0.11935299634933472,0.27679699659347534,-0.21223199367523193,0.0030189999379217625,-0.025394000113010406,-0.03272499889135361,0.07591299712657928,0.29497599601745605,0.23239000141620636,-0.05976700037717819,-0.18845699727535248,0.22269000113010406,-0.01941699907183647,-0.17077399790287018,0.1864749938249588,-0.08286000043153763,-0.1350570023059845,0.14573200047016144,0.1547349989414215,-0.15727099776268005,0.09877800196409225,-0.013690999709069729,0.13030099868774414,0.01749200001358986,-0.024677999317646027,-0.0750650018453598,-0.18609599769115448,0.22234100103378296,0.15661700069904327,0.06868500262498856,0.11952599883079529,0.17345599830150604,-0.13180099427700043,-0.26370200514793396,0.1885180026292801,0.08196199685335159,-0.019368000328540802,0.4263029992580414,-0.19171899557113647,0.03383199870586395,-0.15059100091457367,-0.019816000014543533,0.17609600722789764,-0.08640799671411514,0.12370800226926804,0.05674400180578232,0.08045800030231476,0.10825899988412857,-0.012702000327408314,-0.2254049926996231,-0.3037790060043335,0.2471030056476593,-0.11219099909067154,-0.02518399991095066,0.3470500111579895,-0.0998309999704361,-0.1462080031633377,0.17498299479484558,-0.1727450042963028,0.18072499334812164,-0.10170000046491623,0.09973199665546417,0.037882000207901,0.10435499995946884,0.07060900330543518,-0.24090799689292908,0.04955200105905533,0.19653700292110443,0.039110999554395676,0.4491960108280182,-0.032917000353336334,0.26819899678230286,0.07420899718999863,-0.07974600046873093,-0.01459600031375885,0.10016900300979614,-0.22590699791908264,-0.21195000410079956,0.12437000125646591,-0.023892000317573547,-0.22439099848270416,-0.18309299647808075,0.17953400313854218,-0.06988599896430969,0.34936898946762085,-0.3718239963054657,-0.3767240047454834,-0.053665999323129654,0.061560001224279404,-0.0616299994289875,-0.1614619940519333,-0.06723099946975708,-0.14718300104141235,-0.15410900115966797,0.12689299881458282,-0.2888540029525757,-0.04636500030755997,-0.1339460015296936,-0.011033999733626842,-0.048615001142024994,-0.27049899101257324,-0.07769200205802917,-0.05702599883079529,-0.006647999864071608,0.02658900059759617,-0.09686700254678726,0.21865800023078918,0.041850000619888306,-0.01298999972641468,0.0032760000322014093,0.019192000851035118,-0.030511999502778053,0.12628799676895142,0.07535099983215332,0.14769800007343292,-0.02762800082564354,-0.4786120057106018,0.16489699482917786,0.35739800333976746,-0.07665400207042694,-0.26995399594306946,-0.06327100098133087,0.039267998188734055,-0.04605000093579292,-0.03073599934577942,0.19582499563694,-0.03945700079202652,-0.14615100622177124,0.2359520047903061,-0.1603669971227646,0.14872300624847412,0.10211300104856491,-0.03281800076365471,0.06842199712991714,-0.042879000306129456,0.05775900185108185,0.08843900263309479,-0.11252299696207047,0.22328899800777435,0.043515000492334366,-0.05818000063300133,-0.009279999881982803,-0.24310599267482758,0.42384201288223267,-0.14905999600887299,-0.1083260029554367,-0.03761500120162964,0.34116798639297485,-0.037710998207330704,-0.19097599387168884,-0.22217200696468353,0.07766299694776535,0.3689259886741638,0.18681499361991882,-0.2709850072860718,-0.14285700023174286,-0.13079699873924255,-0.06405100226402283,-0.011215999722480774,-0.2491150051355362,0.0599530003964901,0.19674600660800934,0.034961000084877014,0.1115259975194931,-0.05314299836754799,-0.29804301261901855,-0.12800900638103485,0.10988900065422058,0.03318699821829796,0.10833600163459778,-0.18192000687122345,-0.2231529951095581,-0.131413996219635,0.03354800119996071,0.14701400697231293,0.10294900089502335,-0.16680000722408295,0.4407149851322174,-0.2811090052127838,-0.06669799983501434,-0.2736000120639801,0.07377699762582779,0.1732410043478012,0.03499099984765053,-0.26838499307632446,0.05192999914288521,-0.01001300010830164,-0.03503800183534622,0.1290780007839203,-0.21845600008964539,-0.0009599999757483602,-0.20951800048351288,-0.18129600584506989,-0.11893600225448608,0.01280600018799305,-0.19905999302864075,-0.10137800127267838,-0.011528000235557556,0.28786200284957886,-0.09778100252151489,-0.04324299842119217,0.08382900059223175,0.046316999942064285,-0.2275719940662384,0.2274080067873001,0.16213400661945343,-0.18988999724388123,-0.2606160044670105,0.3509329855442047,0.046452999114990234,-0.19113999605178833,0.14343099296092987,0.00964600034058094,-0.23051699995994568,-0.197625994682312,-0.047463998198509216,-0.09319300204515457,0.1922679990530014,-0.2909500002861023,-0.2084449976682663,-0.10633700340986252,0.1324310004711151,-0.23059199750423431,-0.11530599743127823,-0.03283600136637688,0.08026500046253204,0.06364099681377411,-0.06502299755811691,0.07145500183105469,-0.1694680005311966,-0.11677099764347076,-0.10128799825906754,0.023461999371647835,0.09307000041007996,-0.08856300264596939,-0.02120400033891201,0.3532150089740753,0.15003399550914764,-0.19794400036334991,0.19982300698757172,-0.043939001858234406,-0.3011229932308197,0.10812299698591232,0.16010400652885437,0.06160299852490425,-0.05113000050187111,0.28325599431991577,-0.29485899209976196,-0.06914299726486206,0.055674001574516296,-0.18412700295448303
例,-0.12234000116586685,0.20054300129413605,-0.02782200090587139,0.04363400116562843,-0.03980899974703789,-0.1737319976091385,0.26825499534606934,0.4322899878025055,-0.0797640010714531,0.06039299815893173,-0.0017219999572262168,0.14566199481487274,0.08750999718904495,0.12223099917173386,-0.2703210115432739,-0.15280300378799438,-0.22179900109767914,0.09122700244188309,-0.18593400716781616,-0.3980390131473541,0.3742069900035858,0.2173130065202713,0.10395999997854233,-0.23252999782562256,0.08442100137472153,-0.32880300283432007,-0.03490599989891052,0.06323099881410599,-0.06081800162792206,0.2635290026664734,0.005135999992489815,-0.18175700306892395,-0.05008000135421753,-0.028436999768018723,-0.01933000050485134,0.14664100110530853,-0.17437200248241425,0.02263299934566021,0.017626000568270683,0.09007299691438675,-0.1576859951019287,-0.005166999995708466,-0.22722800076007843,0.116457998752594,0.19671200215816498,-0.04567699879407883,-0.13797500729560852,0.005042000208050013,0.14428499341011047,-0.09720800071954727,0.2873069941997528,0.10171999782323837,0.09707599878311157,0.1376039981842041,-0.04913200065493584,-0.09275499731302261,-0.06708600372076035,0.12886999547481537,0.34776198863983154,-0.04153599962592125,0.041818998754024506,0.008328000083565712,-0.014498000033199787,-0.3893429934978485,-0.2413720041513443,-0.2375050038099289,0.05840500071644783,0.12380799651145935,-0.15662799775600433,0.05462900176644325,0.09303399920463562,0.015223000198602676,-0.12561899423599243,-0.09247399866580963,0.038780998438596725,-0.0023930000606924295,0.06722400337457657,0.07418499886989594,-0.049890000373125076,-0.1296990066766739,0.12065800279378891,0.15159399807453156,-0.09572699666023254,-0.00266400002874434,-0.26511698961257935,-0.01026500016450882,-0.11509499698877335,-0.106734998524189,-0.13050700724124908,-0.14338600635528564,-0.021386999636888504,-0.2990410029888153,0.019487999379634857,0.0648690015077591,0.018931999802589417,0.04493299871683121,0.04299600049853325,-0.02278199978172779,-0.22962099313735962,0.21297000348567963,0.0021869998890906572,0.25830700993537903,0.04486899822950363,-0.01643200032413006,-0.17092199623584747,0.1653739959001541,0.04663499817252159,0.24857600033283234,-0.08575499802827835,-0.16386500000953674,-0.14395299553871155,0.31232398748397827,0.10374999791383743,-0.013182000257074833,0.24665099382400513,0.4169279932975769,-0.052549999207258224,-0.027695000171661377,0.1179329976439476,0.1823039948940277,-0.35355499386787415,0.03763800114393234,0.09403300285339355,-0.1876010000705719,-0.10199200361967087,0.04469100013375282,-0.20704799890518188,0.1689469963312149,0.05355500057339668,-0.04996899887919426,-0.09867200255393982,0.26342499256134033,-0.1599379926919937,-0.22648799419403076,0.14554500579833984,0.06596100330352783,-0.050808001309633255,0.08647400140762329,-0.27963098883628845,3.000000106112566e-06,0.16171400249004364,0.01807899959385395,0.06550899893045425,-0.012617000378668308,0.33386799693107605,-0.07972899824380875,-0.07308399677276611,0.2627429962158203,0.14820300042629242,0.000770999991800636,-0.03602299839258194,-0.16030600666999817,-0.08973699808120728,-0.026158999651670456,-0.15640699863433838,0.3813590109348297,0.28731998801231384,0.2970080077648163,-0.01514500007033348,-0.07177499681711197,0.14188900589942932,-0.10796400159597397,0.008917000144720078,-0.1792670041322708,0.05358799919486046,0.18129000067710876,-0.0899680033326149,0.23228099942207336,0.08890800178050995,0.2398190051317215,-0.17019900679588318,-0.08520100265741348,-0.05521500110626221,0.046730998903512955,-0.002102999947965145,0.02964100055396557,-0.1489260047674179,-0.0012629999546334147,0.1340789943933487,-0.07693599909543991,0.12915000319480896,-0.07957299798727036,0.1091580018401146,-0.08158300071954727,-0.08626999706029892,-0.013581999577581882,0.17146000266075134,0.25332099199295044,0.033190999180078506,-0.14732499420642853,0.0383169986307621,-0.039810001850128174,0.39159101247787476,0.007174000144004822,-0.059723999351263046,-0.2659820020198822,-0.20888599753379822,-0.17736700177192688,-0.04008699953556061,0.1038609966635704,0.2949239909648895,-0.10338699817657471,0.18467099964618683,0.10832200199365616,-0.09350500255823135,-0.26439398527145386,0.01423600036650896,-0.07682599872350693,0.07379800081253052,-0.007143999915570021,0.033663999289274216,0.426160991191864,0.015595000237226486,0.12120900303125381,-0.17462199926376343,-0.04263199865818024,-0.0758880004286766,0.04169800132513046,0.2587830126285553,0.14817899465560913,-0.24729199707508087,0.0388530008494854,-0.08435799926519394,0.08546199649572372,-0.007825000211596489,-0.18235599994659424,0.15868499875068665,0.005735000129789114,0.035172998905181885,0.29476499557495117,-0.004614000208675861,-0.02945699915289879,-0.008262000046670437,0.29276299476623535,0.037383001297712326,0.13854199647903442,-0.19161100685596466,-0.04843699932098389,0.000534999999217689,-0.17500899732112885,-0.029555000364780426,0.14963799715042114,-0.27911901473999023,-0.13933399319648743,-0.20021100342273712,-0.24656599760055542,-0.16493800282478333,-0.04826899990439415,0.1619109958410263,-0.062206998467445374,-0.1666409969329834,0.14656999707221985,0.09616000205278397,0.06996600329875946,0.10857100039720535,0.3304489850997925,-0.09740500152111053,0.16813600063323975,-0.08446100354194641,0.10868299752473831,-0.05173400044441223,0.1771010011434555,0.23290400207042694,-0.14544500410556793,-0.19317500293254852,-0.1941470056772232,0.017582999542355537,0.2105640023946762,-0.21839700639247894,-0.09173800051212311,-0.21852800250053406,0.09199800342321396,0.1558610051870346,-0.0968170017004013,-0.01385200023651123,-0.035656001418828964,0.01359300035983324,0.03172900155186653,-0.1194320023059845,-0.26026299595832825,0.020772000774741173,-0.004379999823868275,-0.05416100099682808,0.2659200131893158,0.10200899839401245,-0.1224529966711998,0.05328899994492531,-0.08532799780368805,-0.0025210001040250063,0.10735200345516205,0.4728260040283203,0.11467999964952469,0.012764000333845615,0.07947800308465958,0.33866798877716064,-0.18010200560092926,-0.13666599988937378,-0.029160000383853912,-0.10553599894046783,-0.041453998535871506,-0.06487700343132019,0.0021989999804645777,0.26528099179267883,0.05561999976634979,-0.14165900647640228,-0.014349999837577343,0.021066000685095787,0.10092200338840485,-0.11511799693107605,0.12624000012874603,0.020759999752044678,0.05206900089979172,0.04694800078868866,0.008466999977827072,0.044603001326322556,-0.027285000309348106,0.10626000165939331,-0.18272599577903748,-0.19465400278568268,-0.08926799893379211,-0.06907299906015396,-0.08262500166893005,0.0180830005556345,-0.06798999756574631,0.07492200285196304,-0.04304400086402893,0.023927999660372734,-0.14800800383090973,-0.06015799939632416,0.1360359936952591,0.301129013299942,0.2761490046977997,-0.027698000892996788,0.0021540001034736633,-0.040157001465559006,-0.058396998792886734,0.10098999738693237,0.31306400895118713,-0.07034499943256378,-0.06201599910855293,0.15051500499248505,0.10552500188350677,0.2832159996032715,-0.024224000051617622,-0.054301001131534576,-0.04721499979496002,0.1375489979982376,0.029239999130368233,0.2468239963054657,-0.05153299868106842,0.413100004196167,-0.045492999255657196,0.22173500061035156,-0.10976400226354599,0.2747209966182709,0.17135199904441833,-0.0055320002138614655,0.2060600072145462,-0.2449979931116104,-0.1934330016374588,-0.20449300110340118,-0.17019599676132202,0.09390799701213837,-0.004495000001043081,-0.13332399725914001,-0.13448399305343628,-0.043140001595020294,-0.07534199953079224,-0.0727979987859726,0.19330500066280365,0.18000400066375732,-0.050310999155044556,0.08542600274085999,0.23451100289821625,0.09239800274372101,0.11391499638557434,0.15120099484920502,-0.10390599817037582,-0.21125100553035736,-0.4985490143299103,-0.05194000154733658,-0.036476001143455505,-0.3358500003814697,0.04887299984693527,0.21435999870300293,0.05504800006747246,-0.08414799720048904,0.11707500368356705,-0.040153998881578445,-0.14974400401115417,-0.023670999333262444,0.3821699917316437,-0.1125049963593483,0.15661999583244324,-0.024147000163793564,0.12185700237751007,0.11551299691200256,-0.1861950010061264,0.062431998550891876,-0.058177001774311066
分析,-0.05664600059390068,-0.10488799959421158,-0.008233999833464622,-0.1452540010213852,0.1159529983997345,-0.05576600134372711,0.01744000054895878,-0.056464001536369324,-0.012318000197410583,0.033525001257658005,0.07060699909925461,-0.03522900119423866,0.029301999136805534,-0.02202799916267395,-0.017659999430179596,0.05830899998545647,-0.05870100110769272,-0.14436300098896027,-0.05957600101828575,0.09669899940490723,0.1000479981303215,-0.01821500062942505,0.011880000121891499,0.008949999697506428,0.15820200741291046,0.14986099302768707,-0.10383699834346771,-0.10000800341367722,0.013830999843776226,0.2136009931564331,0.1864369958639145,0.02808300033211708,-0.15222300589084625,0.06753700226545334,-0.13208700716495514,-0.20837999880313873,0.2239540070295334,-0.2122820019721985,0.08364000171422958,-0.1082639992237091,0.07917200028896332,-0.14132000505924225,-0.11738499999046326,0.3003630042076111,0.04848799854516983,-0.06796800345182419,-0.14236199855804443,-0.02236899919807911,-0.06504499912261963,0.04314799979329109,0.1304350048303604,-0.04153300076723099,0.1937739998102188,-0.1730719953775406,0.07253900170326233,-0.14446599781513214,-0.06794100254774094,-0.0017770000267773867,0.06315000355243683,0.09352999925613403,0.01375299971550703,-0.07015399634838104,-0.041958000510931015,-0.09232299774885178,0.17791099846363068,0.21203799545764923,0.01854499988257885,0.16211499273777008,0.003969000186771154,0.17322200536727905,-0.23671500384807587,0.0034809999633580446,0.06489899754524231,-0.06213200092315674,0.07990600168704987,-0.05481300130486488,0.08789700269699097,-0.013101999647915363,0.20632299780845642,0.013996000401675701,0.07906399667263031,-0.07682999968528748,0.056696999818086624,-0.08808500319719315,-0.25128498673439026,0.09640000015497208,0.010364999994635582,-0.0727740004658699,0.012292999774217606,-0.046824000775814056,-0.01523900032043457,-0.08741100132465363,-0.18916000425815582,0.03299500048160553,-0.16089299321174622,-0.19880299270153046,0.07766000181436539,-0.04895399883389473,-0.13699600100517273,0.07260700315237045,0.14851999282836914,0.09518499672412872,0.24856099486351013,-0.019331999123096466,-0.19439299404621124,0.08068499714136124,0.008182999677956104,0.07006700336933136,0.1630070060491562,-0.016100000590085983,0.05393600091338158,0.15208299458026886,0.008212000131607056,0.03111499920487404,0.04712500050663948,0.26507100462913513,0.1318099945783615,-0.07916799932718277,0.06229399889707565,0.11112400144338608,0.012853000313043594,-0.0016850000247359276,-0.07023599743843079,-0.06096800044178963,-0.1415719985961914,0.22044700384140015,-0.12783999741077423,-0.12659099698066711,0.08054099977016449,-0.010029000230133533,-0.04446699842810631,0.12053900212049484,-0.11396799981594086,0.2396329939365387,0.024195000529289246,-0.10968200117349625,0.17571599781513214,-0.10769999772310257,-0.20348399877548218,-0.07108499854803085,-0.03040499985218048,-0.01939000003039837,0.04327299818396568,0.08389600366353989,-0.01887499913573265,-0.09826800227165222,-0.22608500719070435,0.11691799759864807,-0.08558099716901779,-0.12964199483394623,-0.20619900524616241,-0.18800899386405945,-0.04577700048685074,-0.15961700677871704,-0.13325299322605133,0.18365700542926788,0.007606999948620796,0.07081200182437897,0.05901100113987923,-0.10669299960136414,0.011486000381410122,0.20718899369239807,-0.10998299717903137,0.05456199869513512,-0.14792099595069885,0.17415499687194824,0.05406099930405617,0.053502000868320465,0.23169299960136414,-0.05074099823832512,-0.07632199674844742,0.06164000183343887,-0.17859399318695068,0.0808899998664856,-0.1121629998087883,-0.16540400683879852,-0.07800699770450592,0.2493560016155243,0.0733020007610321,-0.1048320010304451,-0.044091999530792236,-0.11420000344514847,-0.11407200247049332,-0.10149099677801132,-0.008870000019669533,0.0631060004234314,0.2546370029449463,0.08034399896860123,0.08586099743843079,0.22381700575351715,0.10191600024700165,0.09715399891138077,0.03669799864292145,0.010532000102102757,0.057165998965501785,-0.1507049947977066,0.10470899939537048,-0.07652200013399124,-0.25167301297187805,0.16391399502754211,-0.015329999849200249,-0.05473000183701515,-0.017714999616146088,0.07397300004959106,-0.15050899982452393,-0.17294800281524658,0.22425000369548798,-0.11102200299501419,0.009488999843597412,-0.08088599890470505,-0.1415030062198639,0.13267700374126434,0.04294100031256676,-0.0281629990786314,0.12654200196266174,0.18605400621891022,0.0744590014219284,0.13154399394989014,0.18290600180625916,0.024424999952316284,0.19641399383544922,-0.101002998650074,0.004174999892711639,0.085548996925354,0.12924399971961975,-0.1322219967842102,0.09634599834680557,-0.127252995967865,-0.014229999855160713,0.01925100013613701,-0.04030799865722656,0.0637969970703125,0.03460000082850456,0.04566099867224693,0.0758109986782074,-0.0963210016489029,-0.16516299545764923,0.06803300231695175,-0.10033900290727615,-0.13945800065994263,0.007526000030338764,0.19042399525642395,-0.12996900081634521,0.1956299990415573,-0.10358700156211853,0.010987999849021435,-0.07312799990177155,0.014952999539673328,0.07893099635839462,-0.002749999985098839,0.12743599712848663,-0.0730070024728775,-0.08756600320339203,0.1394129991531372,-0.24169699847698212,0.0617079995572567,0.026907000690698624,0.019835999235510826,0.014708999544382095,-0.0517520010471344,0.05542699992656708,0.08458799868822098,0.033900998532772064,-0.11548200249671936,0.11678700149059296,-0.005117999855428934,-0.18947499990463257,0.06569000333547592,-0.2730030119419098,-0.08339399844408035,-0.19909000396728516,-0.01901400089263916,-0.08576899766921997,0.017132999375462532,0.26336899399757385,-0.17759199440479279,-0.055821001529693604,-0.08660899847745895,0.030590999871492386,-0.09187299758195877,-0.08406700193881989,-0.12588000297546387,-0.2238750010728836,0.042281001806259155,0.10803999751806259,-0.09763900190591812,0.11539900302886963,-0.0028699999675154686,0.10260999947786331,-0.07845599949359894,0.020748000591993332,0.021403999999165535,0.10795199871063232,-0.038763999938964844,0.09498400241136551,-0.14465300738811493,0.21315300464630127,0.17688800394535065,-0.12769900262355804,0.13200700283050537,0.10363899916410446,0.04070800170302391,0.03763800114393234,-0.025745000690221786,-0.14403900504112244,-0.02815300039947033,-0.10828600078821182,0.09333900362253189,-0.004906999878585339,0.1298779994249344,-0.06770399957895279,-0.03717400133609772,-0.061230000108480453,0.00901500042527914,0.07168900221586227,0.16869699954986572,-0.09690099954605103,-0.004189999774098396,-0.008454999886453152,-0.11504200100898743,-0.04635399952530861,0.09978300333023071,0.051816001534461975,-0.016687000170350075,0.11231599748134613,-0.0032740000169724226,-0.012849000282585621,-0.21903899312019348,-0.09278000146150589,-0.10828699916601181,0.052191998809576035,0.04796399921178818,-0.12739799916744232,-0.12135399878025055,0.2343119978904724,0.08493900299072266,0.1463019996881485,0.022763000801205635,-0.24905100464820862,-0.11859899759292603,-0.05701500177383423,-0.04329099878668785,-0.04012199863791466,-0.15398000180721283,0.16002699732780457,-0.03122599981725216,0.020044999197125435,-0.07100299745798111,0.022482000291347504,0.2264609932899475,-0.019849000498652458,-0.16994799673557281,0.015154999680817127,-0.025477999821305275,0.11677300184965134,0.09159699827432632,-0.07303699851036072,0.25162801146507263,-0.06423799693584442,0.0703750029206276,-0.12424299865961075,0.06519299745559692,0.023959999904036522,-0.04649899899959564,0.08254799991846085,-0.13439099490642548,0.025627000257372856,-0.09758999943733215,-0.27197301387786865,-0.013110999949276447,0.12658199667930603,-0.027970999479293823,0.11143799871206284,-0.17651599645614624,0.17642900347709656,-0.24452799558639526,0.040282998234033585,-0.14437900483608246,0.05195799842476845,-0.00948300026357174,-0.0795930027961731,-0.06364600360393524,0.0908380001783371,0.02065099962055683,0.06639599800109863,0.037606000900268555,-0.11214199662208557,-0.10519800335168839,-0.034933000802993774,0.008953999727964401,-0.058136001229286194,0.16846099495887756,-0.10306300222873688,-0.05374300107359886,-0.02308100089430809,0.13114799559116364,-0.022621000185608864,-0.027139000594615936,0.03480200096964836,-0.15508699417114258
利用,-0.08309300243854523,-0.10340999811887741,0.0029980000108480453,-0.06785400211811066,0.04192899912595749,0.013918000273406506,0.008863000199198723,0.07765699923038483,0.0498649999499321,-0.0324070006608963,-0.032924000173807144,-0.19381099939346313,0.024980999529361725,-0.1304749995470047,-0.04300900176167488,0.06349900364875793,0.04065300151705742,-0.00622999994084239,-0.09958399832248688,-0.014433000236749649,0.09883099794387817,-0.17891299724578857,0.08111599832773209,0.15052199363708496,-0.02281700074672699,0.0594400018453598,-0.06830500066280365,-0.12881800532341003,-0.009538000449538231,0.020552000030875206,-0.13318400084972382,-0.07099200040102005,0.06923100352287292,0.011921999976038933,-0.005652999971061945,-0.06329300254583359,0.0773480013012886,0.02415500022470951,0.15264500677585602,0.02407499961555004,-0.008394000120460987,-0.09236499667167664,-0.28239500522613525,0.06272900104522705,0.029978999868035316,0.04095600172877312,-0.12365099787712097,-0.01759300008416176,-0.07665099948644638,-0.13772399723529816,-0.10176700353622437,-0.04873599857091904,0.025803999975323677,0.02112399972975254,0.029221000149846077,-0.07844500243663788,-0.19739100337028503,0.0830409973859787,0.0908999964594841,0.053335998207330704,0.0626399964094162,-0.10559900104999542,-0.012517999857664108,-0.015123999677598476,0.0002800000074785203,0.0854019969701767,-0.08443500101566315,-0.027142999693751335,0.040532998740673065,0.08960799872875214,-0.1301639974117279,-0.1177000030875206,0.022823000326752663,0.03180500119924545,0.0778219997882843,-0.15898700058460236,-0.07579299807548523,0.06280499696731567,0.05400799959897995,-0.08715400099754333,0.15382300317287445,-0.12706300616264343,0.12520700693130493,0.02430799975991249,-0.0817049965262413,-0.07356499880552292,-0.0026940000243484974,-0.04826800152659416,0.03779499977827072,-0.01358999963849783,0.16316699981689453,0.011082000099122524,-0.03736000135540962,-0.0344420000910759,-0.15605899691581726,-0.07566600292921066,0.003942999988794327,0.1132190003991127,-0.10587099939584732,-0.0008110000053420663,0.2021629959344864,-0.05833899974822998,0.10078000277280807,-0.05123399943113327,-0.057089000940322876,0.040713999420404434,-0.23827800154685974,-0.041788000613451004,0.19490699470043182,0.14281299710273743,0.08079999685287476,0.04937300086021423,-0.018907999619841576,0.09066899865865707,-0.004397000186145306,0.1341399997472763,0.04203300178050995,-0.05963899940252304,0.029776999726891518,0.09872599691152573,-0.03767300024628639,0.1109049990773201,0.05893599987030029,-0.09972099959850311,-0.1355230063199997,0.18362000584602356,-0.035934001207351685,0.0221950002014637,0.12240900099277496,0.02914699912071228,0.03199800103902817,-0.11763600260019302,0.22064700722694397,-0.041023001074790955,0.10029400140047073,-0.04381600022315979,-0.033952001482248306,-0.004000999964773655,-0.10962799936532974,0.142412006855011,0.015956999734044075,0.030781999230384827,0.010212000459432602,0.08930400013923645,-0.03017999976873398,0.046792998909950256,-0.20213299989700317,0.10455500334501266,-0.13604900240898132,-0.07072299718856812,-0.07308000326156616,-0.09850700199604034,0.007069000042974949,0.08839300274848938,-0.1449809968471527,0.006068000104278326,-0.05418799817562103,-0.026283999904990196,0.01413000002503395,-0.01656300015747547,-0.12478099763393402,0.0645890012383461,0.09876400232315063,-5.500000042957254e-05,-0.19781799614429474,-0.11082900315523148,-0.00839100033044815,-0.053279001265764236,0.13319100439548492,-0.1306380033493042,-0.04031100124120712,0.08764400333166122,0.04911699891090393,-0.01422400027513504,-0.1229650005698204,0.02429099939763546,-0.05230100080370903,-0.03627699986100197,0.007007999811321497,-0.055330000817775726,0.06502600014209747,-0.17479200661182404,-0.2461549937725067,0.1222739964723587,-0.15285299718379974,0.03963400050997734,-0.034602999687194824,0.0053530000150203705,0.11403299868106842,0.16763199865818024,0.13085900247097015,-0.0790719985961914,-0.09951899945735931,0.12316200137138367,-0.009968999773263931,-0.07349500060081482,0.04876299947500229,-0.03585100173950195,-0.10882499814033508,-0.12297800183296204,0.09424400329589844,0.053738001734018326,-0.08303599804639816,0.011117000132799149,-0.2540169954299927,-0.15752500295639038,0.0533519983291626,-0.029134999960660934,0.1840279996395111,0.06013699993491173,0.05874599888920784,-0.029069000855088234,-0.05383700132369995,0.23488199710845947,0.2125989943742752,-0.009116999804973602,0.08510299772024155,0.031606998294591904,0.14517399668693542,-0.09620299935340881,0.08241300284862518,-0.02845899946987629,0.10025700181722641,-0.0639130026102066,-0.07931099832057953,-0.08937200158834457,0.11101000010967255,0.021415000781416893,-0.06294699758291245,0.13863800466060638,-0.1045759990811348,0.01576700061559677,-0.08668799698352814,0.020736999809741974,0.04884900152683258,0.0376800000667572,-0.06431300193071365,-0.034341000020504,-0.08417999744415283,-0.2713249921798706,-0.1504260003566742,0.069582998752594,-0.1327980011701584,0.06948000192642212,-0.05348199978470802,0.1994819939136505,0.004277000203728676,0.08074799925088882,0.017201000824570656,-0.01191100012511015,-0.007052000146359205,-0.18209600448608398,-0.09519200026988983,0.08817899972200394,-0.06908199936151505,0.025803999975323677,-0.02301499992609024,-0.05378900095820427,0.1610569953918457,-0.05326800048351288,-0.07977300137281418,0.24483099579811096,0.0069610001519322395,0.03428500145673752,-0.060844000428915024,-0.10240600258111954,-0.02394000068306923,0.01548099983483553,-0.007943999953567982,0.09483899921178818,-0.11948899924755096,-0.01155100017786026,-0.0669189989566803,0.01990699954330921,-0.01058799959719181,0.07429300248622894,0.03484699875116348,-0.043255001306533813,-0.0948140025138855,0.0092569999396801,-0.12534700334072113,0.06778600066900253,-0.07793500274419785,-0.0019749999046325684,-0.04034100100398064,0.08260200172662735,-0.0010819999733939767,-0.09933000057935715,0.1000640019774437,-0.008825000375509262,0.13166199624538422,-0.07120700180530548,0.059039000421762466,-0.07411199808120728,0.22057799994945526,-0.06570400297641754,-0.006684999912977219,0.12748800218105316,-0.03723200038075447,0.04835499823093414,-0.05468599870800972,0.14904800057411194,0.06349200010299683,-0.019269000738859177,-0.08216600120067596,-0.09816599637269974,-0.06513600051403046,0.026683000847697258,-0.23056800663471222,0.09419900178909302,-0.08995600044727325,0.20250700414180756,0.07577099651098251,-0.00395999988541007,-0.058139998465776443,0.12655700743198395,0.05867699906229973,-0.044746000319719315,-0.04801899939775467,-0.11162800341844559,0.048273999243974686,0.020152999088168144,0.052925001829862595,-0.0009720000089146197,0.05658699944615364,0.025157000869512558,-0.043237000703811646,-0.15921400487422943,0.10741700232028961,-0.13578000664710999,0.0486689992249012,-0.0658240020275116,0.052466001361608505,-0.12149100005626678,0.13788700103759766,0.09417500346899033,0.0066269999369978905,-0.0771770030260086,0.015297999605536461,-0.16272200644016266,-0.1339540034532547,-0.10751199722290039,-0.07969599962234497,0.012783999554812908,-0.04691300168633461,-0.15226200222969055,0.1596509963274002,0.18476200103759766,-0.10688400268554688,-0.0868619978427887,-0.12247499823570251,0.11734700202941895,0.09177500009536743,0.045878998935222626,0.27904799580574036,-0.1136310026049614,0.02634499967098236,0.11463399976491928,-0.03986800089478493,0.017628999426960945,0.041064999997615814,0.02349800057709217,-0.05684199929237366,-0.10080400109291077,-0.018312999978661537,-0.06160200014710426,-0.06066900119185448,0.07070799916982651,-0.13344000279903412,0.027594000101089478,-0.092399001121521,0.040807001292705536,0.0481720007956028,-0.04836700111627579,0.06406400352716446,0.0800509974360466,0.10504399985074997,-0.05957600101828575,-0.0704519972205162,0.09340299665927887,0.0858049988746643,0.09640199691057205,-0.042374998331069946,0.14245399832725525,-0.053936999291181564,0.00430600019171834,0.08568400144577026,-0.0560699999332428,0.04215500131249428,-0.00876300036907196,0.007536999881267548,0.04105199873447418,-0.1857600063085556,0.004966000095009804,0.05368499830365181,0.11586199700832367,0.08984799683094025,-0.09012600034475327,-0.11036600172519684,0.04868900030851364
控制系统,0.09825699776411057,0.2769320011138916,0.10838499665260315,0.032614998519420624,-0.2506600022315979,-0.12792600691318512,-0.030567999929189682,0.36759400367736816,0.006397999823093414,0.28816500306129456,-0.20681600272655487,-0.11029800027608871,-0.006978000048547983,0.09072200208902359,-0.11509200185537338,-0.16127100586891174,-0.18554699420928955,-0.002193999942392111,-0.04008699953556061,-0.268779993057251,-0.022847000509500504,-0.4536759853363037,0.12151499837636948,0.2304619997739792,0.3529660105705261,0.2589940130710602,-0.047717999666929245,0.1274919956922531,0.1498890072107315,0.3336780071258545,0.11324600130319595,0.20685799419879913,0.09181399643421173,-0.1456650048494339,-0.20969000458717346,-0.13005200028419495,0.4823459982872009,-0.2010679990053177,0.1728769987821579,0.013539000414311886,0.024575000628829002,-0.4395880103111267,0.01612599939107895,0.5173720121383667,0.00267699989490211,0.10531499981880188,-0.2539899945259094,-0.08656799793243408,0.1531369984149933,-0.16868099570274353,-0.4216200113296509,0.22089800238609314,0.17379799485206604,-0.26299700140953064,0.07754000276327133,-0.10941199958324432,-0.2678219974040985,-0.04016000032424927,0.08892899751663208,0.2963840067386627,-0.012303999625146389,-0.04893599823117256,-0.19249799847602844,-0.06776700168848038,-0.16133999824523926,-0.3068310022354126,-0.07003899663686752,-0.2516910135746002,0.3846049904823303,0.15920299291610718,-0.3956010043621063,-0.061372000724077225,0.2179259955883026,-0.4527899920940399,-0.0006440000142902136,-0.02825300022959709,-0.05868000164628029,0.2635270059108734,0.21920600533485413,0.5002750158309937,-0.017611000686883926,-0.07649700343608856,-0.06839100271463394,0.10949099808931351,-0.24943600594997406,0.16754800081253052,0.18549999594688416,0.2814890146255493,-0.14813800156116486,-0.1365240067243576,-0.13639900088310242,0.0160520002245903,-0.1357470005750656,0.1433829963207245,0.18908800184726715,-0.028473999351263046,-0.09428100287914276,0.00911800004541874,-0.23607000708580017,0.02091600000858307,0.25731900334358215,-0.027344999834895134,0.1784919947385788,-0.24048000574111938,-0.046215999871492386,-0.19769799709320068,-0.19086399674415588,-0.026776999235153198,-0.2727699875831604,-0.28626999258995056,-0.044374000281095505,0.15918299555778503,0.1957249939441681,0.07816199958324432,0.09356199949979782,0.088127002120018,0.12396799772977829,0.10474500060081482,-0.15109899640083313,0.05078100040555,0.02542399987578392,0.1384509950876236,-0.056533001363277435,-0.06806199997663498,0.32013198733329773,0.052181001752614975,-0.2715680003166199,0.025110000744462013,0.13176000118255615,-0.43724000453948975,0.013632000423967838,-0.14037899672985077,0.04707600176334381,-0.02681400068104267,-0.3628000020980835,-0.25294798612594604,0.25819501280784607,0.11271800100803375,-0.3346169888973236,0.2405029982328415,-0.36360201239585876,-0.2094539999961853,0.21743200719356537,0.2783530056476593,-0.5254960060119629,-0.16774499416351318,-0.07151799649000168,-0.34235700964927673,-0.21246199309825897,-0.07469800114631653,0.14797000586986542,-0.2895919978618622,0.0915829986333847,-0.010235999710857868,0.13027800619602203,0.29241400957107544,0.2586809992790222,0.19963499903678894,0.3193010091781616,-0.1112150028347969,0.060867998749017715,0.14576999843120575,0.011354999616742134,0.12080100178718567,-0.035833001136779785,-0.07762300223112106,-0.03533099964261055,-0.23233899474143982,-0.163223996758461,-0.20177200436592102,-0.041503001004457474,0.258525013923645,-0.016770999878644943,0.027101999148726463,0.019272999837994576,0.0434500016272068,-0.0010600000387057662,0.24999499320983887,0.031401000916957855,-0.3300909996032715,0.14430800080299377,0.022297000512480736,-0.37557899951934814,0.17208799719810486,-0.15172900259494781,0.05778200179338455,0.015452000312507153,-0.12442699819803238,0.3510180115699768,-0.13665099442005157,-0.10501900315284729,0.29584801197052,-0.17423899471759796,-0.016134999692440033,-0.09644199907779694,0.09523899853229523,-0.11863400042057037,-0.10956600308418274,0.18069200217723846,0.06954699754714966,0.10723400115966797,-0.18348099291324615,-0.10560999810695648,0.3565860092639923,0.049497999250888824,-0.4023300111293793,0.2722710072994232,-0.26392099261283875,0.47542500495910645,-0.26846399903297424,-0.0979819968342781,0.22653299570083618,0.1062610000371933,0.253574013710022,0.11030299961566925,0.003942000214010477,0.25837498903274536,-0.4987010061740875,0.5185509920120239,-0.1700260043144226,-0.07148099690675735,0.1952269971370697,0.035294998437166214,-0.2400449961423874,0.09789899736642838,-0.007253000047057867,-0.16348500549793243,-0.15251800417900085,0.16719800233840942,0.04250200092792511,-0.23729300498962402,-0.002535999985411763,-0.04213099926710129,0.2766999900341034,0.01331000030040741,-0.4705989956855774,0.23355600237846375,-0.05677200108766556,0.07956899702548981,-0.15315300226211548,-0.17258599400520325,-0.022041000425815582,0.37168699502944946,-0.03432999923825264,0.026815999299287796,0.08653900027275085,-0.01038500014692545,0.21679699420928955,-0.08448699861764908,-0.3981480002403259,-0.06840399652719498,-0.08658599853515625,-0.03412900120019913,0.11125200241804123,-0.00266100000590086,0.07586000114679337,0.2641800045967102,-0.05404999852180481,0.4233720004558563,-0.007042999844998121,-0.05677499994635582,-0.10206799954175949,0.06715899705886841,0.13664300739765167,-0.09119000285863876,-0.33816298842430115,-0.06990599632263184,0.25172901153564453,-0.12434600293636322,-0.32214099168777466,0.0008360000210814178,-0.13772200047969818,-0.11178400367498398,-0.12410800158977509,-0.03289100155234337,-0.11240000277757645,-0.005656000226736069,0.4281710088253021,-0.14115700125694275,0.17796899378299713,0.2018679976463318,-0.08162400126457214,0.17412100732326508,-0.03305700048804283,-0.018093999475240707,-0.19688400626182556,-0.17644299566745758,0.3796379864215851,0.0927010029554367,-0.21151599287986755,0.04129999876022339,-0.29317501187324524,0.28622499108314514,-0.596875011920929,-0.3198319971561432,-0.13596799969673157,0.10873600095510483,0.19375599920749664,0.1323460042476654,-0.023646999150514603,0.13312600553035736,0.057054001837968826,-0.09653300046920776,-0.2717359960079193,0.1199679970741272,-0.03323499858379364,0.0022009999956935644,0.04679099842905998,-0.17872300744056702,0.10613799840211868,0.24559399485588074,0.1611649990081787,0.4203670024871826,-0.11791499704122543,0.16662999987602234,0.34640300273895264,0.027518000453710556,-0.4579789936542511,-0.11739999800920486,-0.1312119960784912,0.06792200356721878,-0.12636899948120117,-0.27173200249671936,-0.0696839988231659,0.13393700122833252,-0.08860500156879425,0.3155210018157959,-0.27819499373435974,-0.32394498586654663,-0.2112479954957962,0.28475600481033325,0.07800599932670593,-0.04304400086402893,-0.09400799870491028,0.14722299575805664,0.1525219976902008,-0.7889509797096252,-0.2418770045042038,-0.3566409945487976,0.2340950071811676,0.030269000679254532,-0.12356200069189072,-0.36652401089668274,0.21245799958705902,0.07673799991607666,0.08600100129842758,0.32318198680877686,0.3665179908275604,-0.07119999825954437,-0.17212800681591034,-0.1342570036649704,-0.39216700196266174,-0.29052600264549255,-0.12632699310779572,0.2914330065250397,0.19616000354290009,0.014380999840795994,0.3183329999446869,0.1155489981174469,-0.0636179968714714,0.11968500167131424,0.33925101161003113,0.012052999809384346,-0.16665199398994446,-0.1698099970817566,-0.12644900381565094,-0.2965629994869232,-0.139164000749588,-0.19683299958705902,-0.1360670030117035,0.10732100158929825,-0.19729100167751312,-0.08956000208854675,0.2321919947862625,0.17073999345302582,0.12132000178098679,-0.06300400197505951,0.1449979990720749,0.15784400701522827,-0.041166000068187714,-0.19392800331115723,-0.04264099895954132,0.015894999727606773,-0.044853001832962036,0.05596400052309036,0.4508259892463684,-0.10890299826860428,-0.08595799654722214,0.12543000280857086,0.0447469986975193,0.3021250069141388,0.14197500050067902,-0.024721000343561172,0.2286909967660904,0.09995699673891068,0.357481986284256,-0.24188199639320374,0.12712199985980988,0.007584999781101942,-0.07545600086450577
独立,-0.14549200236797333,-0.02910800091922283,-0.17596200108528137,0.02336299978196621,-0.0041069998405873775,-0.17906300723552704,0.11921700090169907,0.04187000170350075,-0.21793800592422485,-0.10962499678134918,0.12670999765396118,0.2528580129146576,-0.4518350064754486,-0.04275500029325485,-0.0779929980635643,-0.1856130063533783,-0.3071550130844116,0.20722199976444244,0.05760699883103371,0.03812500089406967,-0.13300399482250214,0.004263999871909618,0.09786099940538406,0.10039299726486206,-0.15670600533485413,-0.16270799934864044,-0.3321880102157593,-0.08795300126075745,0.32499799132347107,-0.04563499987125397,-0.030559999868273735,0.41263601183891296,0.09520799666643143,-0.06155899912118912,-0.14977900683879852,-0.030386000871658325,0.010586000047624111,0.07192599773406982,-0.18499299883842468,0.33490699529647827,0.015173999592661858,-0.2351139932870865,0.14101199805736542,-0.07208900153636932,0.11673499643802643,-0.012372000142931938,-0.19092600047588348,-0.10047599673271179,-0.13269899785518646,0.04677100107073784,0.008116000331938267,-0.16773900389671326,0.09397099912166595,0.08977600187063217,-0.06575100123882294,-0.1679839938879013,-0.049198001623153687,0.08297599852085114,-0.11723099648952484,-0.08458500355482101,-0.07750499993562698,-0.1245189979672432,-0.05386300012469292,-0.27468299865722656,0.06346499919891357,-0.23151500523090363,-0.01218899991363287,0.1500300019979477,0.024358000606298447,-0.11395599693059921,-0.2696489989757538,0.22543199360370636,0.15698300302028656,0.008937000297009945,0.07295899838209152,-0.047947000712156296,0.16876499354839325,0.005950000137090683,0.028403999283909798,0.16134700179100037,0.32283100485801697,-0.14711999893188477,0.14379100501537323,0.049890000373125076,-0.09250999987125397,0.0700170025229454,-0.04606299847364426,-0.18035000562667847,-0.030348999425768852,0.29636499285697937,-0.11619599908590317,-0.04828700050711632,0.21610499918460846,0.07634200155735016,-0.04785500094294548,-0.3742600083351135,-0.10208000242710114,-0.02994699962437153,0.04240899905562401,-0.022335000336170197,0.02019299939274788,0.2051669955253601,0.1398870050907135,-0.12392500042915344,-0.018292000517249107,-0.004991999827325344,-0.030609000474214554,-0.08250299841165543,-0.1931309998035431,0.05678600072860718,0.3046959936618805,0.07154799997806549,0.02654300071299076,-0.13698700070381165,-0.03574800118803978,0.10640200227499008,0.13218499720096588,0.025815000757575035,-0.03886999934911728,-0.1034189984202385,-0.17484599351882935,-0.17278499901294708,0.18234099447727203,0.12013199925422668,-0.010861000046133995,0.06947000324726105,-0.055890001356601715,0.2714160084724426,-0.0803849995136261,-0.007189000025391579,0.11278299987316132,-0.14125199615955353,-0.2030860036611557,-0.07807700335979462,0.3546310067176819,-0.08198300004005432,0.09765700250864029,0.13884200155735016,-0.14382900297641754,-0.015627000480890274,-0.029611000791192055,-0.029751000925898552,-0.1650480031967163,-0.04483100026845932,-0.08248399943113327,0.13211800158023834,0.08076000213623047,-0.10040900111198425,-0.045159000903367996,-0.27088800072669983,0.07484100013971329,-0.16247400641441345,0.1479319930076599,0.07111299782991409,0.07485000044107437,-0.1407420039176941,-0.085548996925354,0.08992599695920944,-0.13911299407482147,-0.0363520011305809,-0.10460799932479858,-0.06213599815964699,0.01905200071632862,-0.013894000090658665,0.0759660005569458,0.02503499947488308,-0.03447899967432022,0.01836100034415722,-0.07838299870491028,-0.05628399923443794,0.1329219937324524,0.057020001113414764,-0.08321499824523926,-0.05243600159883499,0.06944599747657776,-0.18023599684238434,0.09556899964809418,0.032774001359939575,-0.20041300356388092,-0.11549700051546097,0.030935000628232956,-0.07965400069952011,0.008577999658882618,-0.2658480107784271,0.02535399980843067,-0.04055999964475632,-0.01981000043451786,0.2701689898967743,-0.08076199889183044,-0.010003999806940556,0.07846099883317947,-0.382515013217926,-0.02390100061893463,0.15894000232219696,-0.028449999168515205,-0.07513800263404846,0.15481099486351013,0.230662003159523,-0.12129800021648407,0.2325119972229004,-0.06705299764871597,0.06359200179576874,0.0016799999866634607,-0.16995899379253387,0.22764700651168823,-0.29672399163246155,0.0270370002835989,0.09018900245428085,-0.064519003033638,0.07007899880409241,0.18180599808692932,0.0029770000837743282,0.33309900760650635,0.05039199814200401,0.08764000236988068,-0.050845999270677567,-0.10492999851703644,0.009980999864637852,-0.10482200235128403,-0.19552500545978546,0.06705600023269653,0.14472299814224243,0.07306700199842453,0.1995069980621338,0.14549900591373444,-0.185698002576828,0.10060399770736694,-0.06531800329685211,0.07509899884462357,0.09421700239181519,-0.118476003408432,-0.06598199903964996,-0.0422700010240078,0.10675600171089172,0.16390599310398102,-0.026093000546097755,-0.0004079999926034361,-0.06952500343322754,0.15498200058937073,0.122980996966362,0.013182999566197395,-0.04183400049805641,-0.011235999874770641,0.1165120005607605,0.0523109994828701,-0.16122999787330627,-0.03701699897646904,-0.15622200071811676,0.20512500405311584,-0.15152199566364288,0.10044600069522858,-0.056425999850034714,-0.025026999413967133,-0.04300599917769432,-0.27617499232292175,0.16171200573444366,0.06394899636507034,-0.15977199375629425,-0.1786630004644394,0.15528400242328644,0.14094799757003784,0.0454230010509491,-0.20319600403308868,-0.08626499772071838,-0.1156810000538826,-0.08428200334310532,0.15164700150489807,-0.1391880065202713,-0.02017899975180626,0.008051999844610691,-0.10185699909925461,-0.016481000930070877,-0.127020001411438,-0.11588899791240692,0.039322998374700546,-0.23563699424266815,-0.11410699784755707,-0.022565999999642372,-0.008054999634623528,-0.0663520023226738,-0.13346800208091736,0.13120399415493011,-0.022238999605178833,0.13441500067710876,0.17406600713729858,0.21625100076198578,0.05816299840807915,0.054381001740694046,-0.1511639952659607,-0.04891899973154068,0.012303999625146389,0.20065100491046906,0.25886398553848267,0.266838014125824,0.11952000111341476,-0.14173699915409088,0.017859000712633133,0.042068000882864,-0.08474999666213989,-0.10227499902248383,0.2636210024356842,0.11360500007867813,-0.14343899488449097,-0.15238800644874573,0.10324399918317795,-0.16724100708961487,0.2878189980983734,-0.021668000146746635,0.028636999428272247,0.07116200029850006,-0.07515200227499008,0.03763100132346153,-0.006732000038027763,0.10916599631309509,-0.05399300158023834,0.0706619992852211,0.16322000324726105,-0.09153400361537933,0.019241999834775925,-0.11135400086641312,-0.04672800004482269,0.14012399315834045,0.11549299955368042,0.08633200079202652,-0.039845000952482224,0.1739010065793991,-0.09061899781227112,-0.18126800656318665,-0.19746200740337372,-0.1742289960384369,0.019140999764204025,0.20188699662685394,0.21428099274635315,0.13856400549411774,-0.013105999678373337,0.06517399847507477,-0.1730159968137741,0.17930099368095398,0.09231899678707123,0.05278800055384636,0.08284299820661545,0.19958600401878357,0.009789999574422836,0.033713001757860184,-0.13499699532985687,0.01433899998664856,0.42835599184036255,-0.1596599966287613,-0.15363800525665283,0.27167901396751404,-0.024170000106096268,-0.21521499752998352,0.1935500055551529,-0.020198000594973564,0.22045500576496124,0.0657769963145256,-0.17641200125217438,0.09327200055122375,0.13266099989414215,0.26287999749183655,-0.11661899834871292,0.01790199987590313,0.014537000097334385,-0.07448700070381165,-0.11302500218153,0.29599300026893616,-0.1680230051279068,-0.18116800487041473,-0.23205900192260742,0.0007929999846965075,-0.009302999824285507,0.10513199865818024,-0.05847400054335594,-0.051263000816106796,-0.08975300192832947,0.16863800585269928,0.054614000022411346,-0.006014000158756971,-0.04514700174331665,0.11438100039958954,0.1121940016746521,0.13108399510383606,0.023194000124931335,-0.21447700262069702,-0.07472500205039978,0.05161000043153763,-0.06377299875020981,0.15375399589538574,-0.019991999492049217,-0.0468129999935627,0.026249000802636147,-0.17876200377941132,0.02160700038075447,0.06169399991631508,0.12100599706172943,-0.023277999833226204,-0.2364570051431656,0.2153410017490387,0.056412000209093094,0.09570000320672989
参数,-0.25005000829696655,0.04273099824786186,-0.2728689908981323,-0.20625799894332886,-0.15372900664806366,0.12780499458312988,-0.37860599160194397,0.32409700751304626,-0.07135800272226334,0.12240900099277496,0.17008499801158905,0.17769800126552582,0.14296600222587585,0.05322900041937828,0.09471199661493301,-0.08793800324201584,-0.15024499595165253,-0.2744849920272827,-0.5066059827804565,0.15001800656318665,0.17035700380802155,-0.4553160071372986,0.044773001223802567,-0.02308100089430809,0.07292599976062775,0.07979000359773636,-0.03618999943137169,-0.18840999901294708,-0.24417999386787415,-0.10988099873065948,-0.02853900007903576,0.06440799683332443,0.20641300082206726,-0.12189000099897385,0.023128999397158623,-0.2187490016222,0.1563500016927719,0.019107000902295113,0.4548270106315613,0.005450000055134296,-0.102913998067379,-0.16382800042629242,-0.015975000336766243,0.17390500009059906,-0.22457200288772583,0.06658399850130081,-0.25996899604797363,-0.16047699749469757,-0.19830699265003204,-0.16725899279117584,-0.3952009975910187,-0.04653700068593025,0.1825069934129715,-0.6342750191688538,-0.02702699974179268,0.004248000215739012,-0.16918300092220306,0.12400899827480316,0.09137199819087982,0.4634220004081726,-0.0009689999860711396,-0.12702099978923798,-0.41383299231529236,-0.10231799632310867,-0.0404449999332428,-0.0008229999803006649,-0.36439499258995056,0.1801919937133789,-0.1307539939880371,-0.10650800168514252,0.24925099313259125,0.10730200260877609,-0.038791000843048096,-0.5810530185699463,-0.1002269983291626,0.03743299841880798,0.25901100039482117,0.16053999960422516,0.22686299681663513,0.07500100135803223,0.125233992934227,-0.14043399691581726,-0.029503999277949333,-0.006386999972164631,-0.3057920038700104,0.1344739943742752,-0.0629270002245903,0.11159799993038177,0.018546000123023987,-0.05581099912524223,-0.36903300881385803,-0.06605999916791916,0.09768100082874298,-0.037119001150131226,0.1441749930381775,-0.17726099491119385,0.19402900338172913,-0.06880500167608261,-0.22430500388145447,-0.13090099394321442,0.32116401195526123,0.24438999593257904,0.2201399952173233,-0.28903600573539734,-0.1218390017747879,0.23881399631500244,0.1096860021352768,0.14862599968910217,-0.15542100369930267,0.040571000427007675,0.14091899991035461,0.16851100325584412,0.0026100000832229853,0.2649019956588745,0.1903730034828186,0.07920800149440765,-0.186599999666214,-0.2304610013961792,0.031700000166893005,0.22318300604820251,0.2766929864883423,-0.017016999423503876,0.12074899673461914,-0.22101399302482605,-0.07934899628162384,0.16283799707889557,-0.2404879927635193,0.2936230003833771,-0.10389800369739532,-0.05959799885749817,-0.24643699824810028,0.07847999781370163,0.23770800232887268,0.40635499358177185,0.1956080049276352,0.05229499936103821,0.3848879933357239,0.007007000036537647,0.018511999398469925,0.1934950053691864,-0.15181100368499756,0.36283499002456665,0.1492539942264557,0.4438689947128296,-0.16269700229167938,-0.15238000452518463,-0.16891400516033173,0.21534399688243866,-0.1017720028758049,0.03741399943828583,0.08384200185537338,0.19846899807453156,0.08744099736213684,0.14070500433444977,0.23352600634098053,0.5258190035820007,-0.16571800410747528,-0.22258999943733215,0.147707000374794,-0.13642700016498566,-0.11125999689102173,0.024399999529123306,-0.32162800431251526,-0.16459499299526215,-0.14388200640678406,0.26145800948143005,0.05853100121021271,0.20295600593090057,0.21806499361991882,-0.2772600054740906,-0.0786760002374649,0.2875779867172241,-0.48546499013900757,-0.22623099386692047,-0.1913360059261322,-0.15287500619888306,-0.11151999980211258,0.04251699894666672,0.26477500796318054,-0.028064999729394913,0.25811299681663513,-0.23735499382019043,0.06468299776315689,0.08851999789476395,-0.07520999759435654,0.3124470114707947,0.2663240134716034,0.014758000150322914,0.3953079879283905,0.11000899970531464,0.397132009267807,0.06992799788713455,-0.23914800584316254,0.1456640064716339,-0.06453000009059906,0.16519999504089355,0.04091399908065796,-0.2834070026874542,-0.2683129906654358,0.020878000184893608,-0.00433199992403388,-0.08746399730443954,-0.1589300036430359,0.4214639961719513,-0.5368469953536987,-0.4628239870071411,0.05168600007891655,-0.06238900125026703,0.03742099925875664,-0.32165300846099854,-0.19140499830245972,0.21752899885177612,-0.15442700684070587,0.3133470118045807,0.305961012840271,0.010375999845564365,0.13374599814414978,0.006281999871134758,0.4621039927005768,0.25446999073028564,-0.2548919916152954,-0.12709400057792664,0.05399300158023834,0.25552400946617126,-0.22978700697422028,-0.07822699844837189,-0.17438800632953644,-0.19114600121974945,0.00033000000985339284,0.1261720061302185,-0.22157399356365204,-0.09835399687290192,0.159293994307518,-0.1801449954509735,-0.04095200076699257,-0.32948800921440125,-0.08027800172567368,-0.06162000074982643,-0.0025909999385476112,0.18642599880695343,-0.08919999748468399,0.07942599803209305,0.010095999576151371,0.09391900151968002,0.020337000489234924,-0.2692190110683441,0.2669230103492737,0.20766299962997437,0.13634200394153595,-0.3056449890136719,0.06681399792432785,-0.32523399591445923,0.06035900115966797,0.16122600436210632,-0.019294999539852142,0.13908199965953827,-0.07086700201034546,-0.2802160084247589,0.5269920229911804,0.11160600185394287,-0.14489400386810303,0.10373599827289581,0.3989329934120178,-0.2675279974937439,-0.16174399852752686,0.23817799985408783,0.12881000339984894,-0.10491999983787537,-0.07621700316667557,0.018563000485301018,-0.01003700029104948,0.19111500680446625,-0.23691800236701965,0.025957999750971794,0.40470901131629944,-0.25300300121307373,-0.1329369992017746,0.2040649950504303,-0.0557899996638298,-0.012848000042140484,0.21336500346660614,-0.14575299620628357,-0.023089999333024025,-0.08778200298547745,0.163442000746727,0.144678995013237,0.04936100170016289,-0.12235800176858902,-0.06269799917936325,0.08550699800252914,0.22922800481319427,-0.45513999462127686,0.1412220001220703,-0.3912949860095978,0.2306859940290451,-0.4118120074272156,0.4456329941749573,0.1264220029115677,0.08665599673986435,-0.14388999342918396,-0.1159290000796318,0.201897993683815,0.1482750028371811,-0.39491501450538635,-0.16223299503326416,-0.21158500015735626,0.2613930106163025,0.21143600344657898,0.11836700141429901,-0.274387001991272,-0.29356300830841064,-0.26802700757980347,-0.2734540104866028,0.35710400342941284,0.2100919932126999,0.2369610071182251,-0.4047810137271881,-0.07636299729347229,-0.1707170009613037,-0.42172500491142273,-0.3400929868221283,-0.3284110128879547,-0.1625249981880188,0.09927699714899063,-0.2644850015640259,-0.010905000381171703,0.16091300547122955,-0.032802000641822815,0.010096999816596508,-0.2342890053987503,0.10918000340461731,0.009291999973356724,-0.05478600040078163,-0.25356701016426086,0.4430690109729767,-0.12432900071144104,0.4074369966983795,-0.34334999322891235,-0.28461000323295593,0.2806360125541687,0.032568998634815216,-0.1584489941596985,0.10687199980020523,0.09769599884748459,-0.036504000425338745,-0.039792999625205994,-0.06889200210571289,0.3585839867591858,-0.1791509985923767,-0.11036500334739685,0.07095800340175629,0.02680700086057186,0.12143599987030029,0.05276000127196312,-0.3383060097694397,0.12886400520801544,-0.22096900641918182,0.09776899963617325,-0.05077200010418892,-0.0368180014193058,-0.036313001066446304,0.09687700122594833,0.02931099943816662,0.1799740046262741,-0.26124000549316406,0.09180700033903122,-0.029201000928878784,-0.3294239938259125,0.13343100249767303,-0.0138349998742342,-0.1167680025100708,-0.3320930004119873,0.07991699874401093,-0.05099700018763542,0.32801899313926697,-0.3037390112876892,0.3412730097770691,-0.06815099716186523,0.06340000033378601,-0.08986099809408188,0.037404000759124756,-0.1485069990158081,-0.11476200073957443,0.11022800207138062,0.04875300079584122,0.19053199887275696,-0.09484600275754929,0.2886190116405487,-0.042479000985622406,-0.03435499966144562,0.11398600041866302,0.3089450001716614,0.08167199790477753,0.12854799628257751,-0.0853710025548935,0.2044380009174347,-0.3566420078277588,0.11418899893760681,0.20928099751472473,0.15862199664115906
