word,0,1,2,3,4,5,6,7,8,9,10,11,12,13,14,15,16,17,18,19,20,21,22,23,24,25,26,27,28,29,30,31,32,33,34,35,36,37,38,39,40,41,42,43,44,45,46,47,48,49,50,51,52,53,54,55,56,57,58,59,60,61,62,63,64,65,66,67,68,69,70,71,72,73,74,75,76,77,78,79,80,81,82,83,84,85,86,87,88,89,90,91,92,93,94,95,96,97,98,99,100,101,102,103,104,105,106,107,108,109,110,111,112,113,114,115,116,117,118,119,120,121,122,123,124,125,126,127,128,129,130,131,132,133,134,135,136,137,138,139,140,141,142,143,144,145,146,147,148,149,150,151,152,153,154,155,156,157,158,159,160,161,162,163,164,165,166,167,168,169,170,171,172,173,174,175,176,177,178,179,180,181,182,183,184,185,186,187,188,189,190,191,192,193,194,195,196,197,198,199,200,201,202,203,204,205,206,207,208,209,210,211,212,213,214,215,216,217,218,219,220,221,222,223,224,225,226,227,228,229,230,231,232,233,234,235,236,237,238,239,240,241,242,243,244,245,246,247,248,249,250,251,252,253,254,255,256,257,258,259,260,261,262,263,264,265,266,267,268,269,270,271,272,273,274,275,276,277,278,279,280,281,282,283,284,285,286,287,288,289,290,291,292,293,294,295,296,297,298,299,300,301,302,303,304,305,306,307,308,309,310,311,312,313,314,315,316,317,318,319,320,321,322,323,324,325,326,327,328,329,330,331,332,333,334,335,336,337,338,339,340,341,342,343,344,345,346,347,348,349,350,351,352,353,354,355,356,357,358,359,360,361,362,363,364,365,366,367,368,369,370,371,372,373,374,375,376,377,378,379,380,381,382,383,384,385,386,387,388,389,390,391,392,393,394,395,396,397,398,399
产品,0.04646499827504158,0.2560119926929474,-0.18444199860095978,0.1470559984445572,0.051538001745939255,-0.2002429962158203,0.0695749968290329,0.13220900297164917,0.05381099879741669,-0.1511330008506775,0.19722799956798553,0.13306200504302979,-0.004900000058114529,-0.10834400355815887,-0.024782000109553337,0.013507000170648098,-0.11134400218725204,-0.05787099897861481,-0.2936739921569824,0.012249000370502472,0.01919100061058998,-0.14266300201416016,-0.1720139980316162,0.12215600162744522,0.20905600488185883,0.06643400341272354,0.07956700026988983,-0.1317089945077896,-0.09432599693536758,-0.06640999764204025,0.1314370036125183,-0.09366600215435028,0.08326099812984467,-0.05487300083041191,-0.16608500480651855,-0.14946800470352173,-0.13472600281238556,-0.034474000334739685,-0.08928900212049484,0.01923000067472458,-0.17371700704097748,-0.11437399685382843,-0.09473700076341629,0.11988099664449692,-0.024968000128865242,-0.21862800419330597,-0.10919400304555893,0.10877300053834915,-0.1596660017967224,-0.2161950021982193,-0.22114500403404236,0.18495500087738037,0.10021600127220154,-0.09682100266218185,0.23022399842739105,-0.07466199994087219,-0.02430799975991249,-0.01860100030899048,-0.11493699997663498,0.14628399908542633,0.018091000616550446,-0.11719799786806107,-0.10200899839401245,-0.11548800021409988,0.029617000371217728,-0.024981999769806862,-0.16177399456501007,0.1413549929857254,0.18820400536060333,-0.04205700010061264,-0.1952269971370697,-0.13866600394248962,0.035757001489400864,0.12147799879312515,0.13327699899673462,-0.22401000559329987,0.10688400268554688,0.19652999937534332,-0.06419400125741959,0.09481900185346603,0.011002999730408192,0.04679900035262108,0.013780999928712845,-0.13587899506092072,-0.23837999999523163,-0.18603399395942688,0.28031599521636963,-0.10853800177574158,-0.09394100308418274,-0.07573500275611877,0.005863000173121691,0.1614069938659668,-0.1775200068950653,0.15225300192832947,-0.15847599506378174,0.06439399719238281,0.06782399863004684,0.05721300095319748,0.011770999990403652,0.006790999788790941,-0.2096720039844513,0.06978899985551834,0.06010200083255768,-0.11384899914264679,-0.06828799843788147,0.16595299541950226,-0.033337999135255814,-0.1269019991159439,-0.1592389941215515,-0.030202999711036682,0.11017899960279465,0.39569100737571716,0.007872000336647034,0.0012290000449866056,0.2011670023202896,0.15384800732135773,0.02379000000655651,-0.04331199824810028,-0.12162300199270248,0.03995100036263466,-0.22178800404071808,0.046929001808166504,0.0727510005235672,-0.20752300322055817,-0.04520599916577339,-0.1736930012702942,-0.13841800391674042,-0.16142000257968903,0.27694299817085266,-0.07974199950695038,0.14596900343894958,-0.09811100363731384,-0.05662300065159798,0.08524499833583832,0.019917000085115433,-0.13723400235176086,0.00011100000119768083,3.600000127335079e-05,0.11978200078010559,0.07503099739551544,-0.0892689973115921,0.0871720016002655,-0.08349999785423279,0.11328300088644028,-0.4235909879207611,-0.1469009965658188,0.02403399907052517,-0.02387399971485138,-0.12907199561595917,-0.028849000111222267,-0.17568400502204895,-0.41377100348472595,0.007199000101536512,-0.2662079930305481,-0.06434600055217743,-0.06254000216722488,-0.0819929987192154,-0.30803701281547546,-0.0685880035161972,-0.13342499732971191,-0.06067899987101555,-0.0302910003811121,0.132533997297287,0.1425430029630661,-0.24645499885082245,0.06225299835205078,-0.15297499299049377,-0.26043498516082764,0.02108599990606308,0.04412199929356575,0.11701399832963943,-0.08078800141811371,-0.13100600242614746,-0.17973199486732483,-0.03982900083065033,-0.13175000250339508,0.11852899938821793,0.34107300639152527,-0.057670000940561295,-0.33821699023246765,-0.12306199967861176,-0.004025000147521496,-0.1497890055179596,-0.058122001588344574,-0.0018970000091940165,0.06432799994945526,0.14707699418067932,-0.1987770050764084,-0.06473000347614288,0.10130099952220917,0.049545999616384506,-0.08066800236701965,-0.01790199987590313,0.030045000836253166,0.048705000430345535,0.08883000165224075,0.011401999741792679,0.1136619970202446,-0.21411600708961487,-0.20871099829673767,-0.016742000356316566,0.005291000008583069,0.07135400176048279,-0.222243994474411,-0.03464199975132942,-0.2144560068845749,-0.02047399990260601,0.056488998234272,0.2599250078201294,-0.08659300208091736,-0.08700200170278549,0.4722000062465668,-0.1775050014257431,-0.16794799268245697,0.17634700238704681,0.046936001628637314,0.20103199779987335,0.07301999628543854,0.25089898705482483,0.1902720034122467,-0.3796760141849518,-0.1654060035943985,-0.016428999602794647,-0.20992299914360046,-0.021361999213695526,0.03598500043153763,0.029729999601840973,0.13035400211811066,-0.03899800032377243,-0.03634899854660034,0.1739320009946823,-0.17664499580860138,0.03321800008416176,-0.06794600188732147,0.04740700125694275,-0.2652769982814789,0.16759000718593597,0.19900000095367432,0.0623369999229908,-0.18899400532245636,0.02409599907696247,0.044440001249313354,-0.01848199963569641,0.08329299837350845,-0.012823999859392643,-0.3013240098953247,0.0278949998319149,-0.12046799808740616,0.2089730054140091,-0.04216400161385536,0.006994999945163727,-0.2515519857406616,-0.11002899706363678,-0.056334998458623886,0.22091299295425415,0.33548301458358765,-0.2639800012111664,0.08820900321006775,0.21491700410842896,0.024483999237418175,0.12869000434875488,0.0078039998188614845,0.09764000028371811,-0.013190999627113342,0.10070200264453888,-0.1420699954032898,0.013247000053524971,0.05115500092506409,-0.07260800153017044,0.2961849868297577,-0.09107399731874466,-0.09036900103092194,-0.08853600174188614,0.21244500577449799,0.11612199991941452,0.09298399835824966,-0.10356300324201584,0.012532999739050865,-0.21668900549411774,0.19694800674915314,0.06975899636745453,-0.04606899991631508,-0.005200999788939953,-0.1556439995765686,-0.22588799893856049,-0.010861000046133995,-0.09937799721956253,-0.03999200090765953,0.04526599869132042,-0.02321000024676323,0.25165998935699463,0.08991599828004837,-0.006029999814927578,-0.09080900251865387,-0.061253998428583145,-0.24736200273036957,0.11570999771356583,0.13813599944114685,0.03742599859833717,-0.03555700182914734,0.01663699932396412,-0.07348799705505371,-0.1439869999885559,0.03766399994492531,0.02028599940240383,0.03250600025057793,-0.16637499630451202,-0.11483199894428253,0.07720199972391129,0.0754380002617836,-0.15466800332069397,0.06667999923229218,-0.025162000209093094,-0.10406699776649475,-0.17806899547576904,0.11152700334787369,-0.07339499890804291,-0.1220410019159317,-0.0494219996035099,0.11060400307178497,-0.2235269993543625,0.010579999536275864,-0.16055600345134735,-0.001585999969393015,0.021407000720500946,0.08511299639940262,-0.0972289964556694,-0.09794099628925323,-0.02860100008547306,0.05840099975466728,0.1600559949874878,-0.18692299723625183,-0.3342530131340027,-0.10533399879932404,0.1478790044784546,0.05978599935770035,-0.15586599707603455,-0.18949399888515472,-0.2292640060186386,0.07819800078868866,-0.17629100382328033,-0.010412000119686127,-0.08155400305986404,-0.13539400696754456,-0.16658100485801697,-0.16026799380779266,-0.05854300037026405,0.30057498812675476,-0.1375270038843155,0.14932499825954437,0.12655700743198395,-0.012268999591469765,-0.008596000261604786,0.05017400160431862,0.005545000080019236,0.16974200308322906,-0.14561200141906738,0.029701000079512596,0.10931599885225296,-0.12603799998760223,0.0347680002450943,0.03801799938082695,-0.082505002617836,0.15393100678920746,0.05897999927401543,0.12314499914646149,0.2836909890174866,-0.25491198897361755,-0.230771005153656,-0.25970301032066345,-0.025614000856876373,-0.168953999876976,-0.1629129946231842,0.14107200503349304,-0.21506300568580627,-0.20023700594902039,-0.1551859974861145,-0.1619260013103485,-0.14017300307750702,0.0593549981713295,0.08383800089359283,0.3447610139846802,0.044119998812675476,0.09555000066757202,0.16937099397182465,0.10398100316524506,0.07676900178194046,-0.0003980000037699938,-0.06987900286912918,0.13763399422168732,0.07580500096082687,0.0395749993622303,-0.10093999654054642,0.10924600064754486,0.061889998614788055,0.1286800056695938,-0.5490509867668152,0.14673100411891937,0.24218399822711945,0.051454998552799225
方法,-0.02370999939739704,0.01142400037497282,0.02790299989283085,-0.06390500068664551,0.13582199811935425,0.11157800257205963,0.12834499776363373,0.09334699809551239,-0.19035999476909637,-0.10729700326919556,-0.007888000458478928,-0.17123299837112427,-0.022275999188423157,-0.07051800191402435,-0.09283699840307236,-0.034258998930454254,0.035287000238895416,-0.07516100257635117,-0.1693820059299469,-0.17639200389385223,0.07132700085639954,-0.13845700025558472,0.11153700202703476,0.16467200219631195,0.05359800159931183,0.028814999386668205,-0.058173999190330505,0.05637500062584877,-0.10795599967241287,0.0894249975681305,-0.002968000015243888,-0.007424000184983015,-0.07428299635648727,-0.06567800045013428,0.04590500146150589,-0.019639000296592712,0.16665099561214447,-0.008502000011503696,0.21191099286079407,-0.236627995967865,0.1322309970855713,-0.038033001124858856,-0.1328669935464859,0.032026998698711395,0.055452000349760056,-0.08637300133705139,-0.08231300115585327,0.0722389966249466,0.005166999995708466,-0.07226099818944931,0.06174999848008156,-0.13074900209903717,0.27921199798583984,-0.06206199899315834,0.037873998284339905,-0.2745569944381714,0.0539730004966259,0.14219099283218384,0.029908999800682068,0.03237500041723251,0.007792999967932701,-0.15175899863243103,0.07679100334644318,-0.09313900023698807,0.02751000039279461,-0.09666500240564346,0.02661599963903427,0.12596599757671356,0.03582800179719925,-0.032749999314546585,-0.08736799657344818,0.06215599924325943,-0.08726400136947632,0.05201900005340576,0.02066200040280819,-0.12874600291252136,0.1092350035905838,0.09507200121879578,0.12842999398708344,0.04549799859523773,0.016527999192476273,-0.03551299870014191,-0.05413400009274483,0.006306000053882599,-0.15010599792003632,-0.12530100345611572,0.16980299353599548,-0.022081999108195305,-0.10711800307035446,0.0018550000386312604,-0.013207999989390373,-0.1665779948234558,-0.13381999731063843,0.040608000010252,-0.08382699638605118,-0.1589599996805191,0.14773200452327728,0.1142750009894371,-0.1606059968471527,0.04836000129580498,0.27729201316833496,-0.04019999876618385,0.2690350115299225,0.013416999951004982,-0.012595999985933304,0.12927000224590302,-0.06291300058364868,0.11392000317573547,0.06332200020551682,-0.07164400070905685,0.01370800007134676,0.10075599700212479,-0.01785000041127205,0.027069000527262688,-0.03364599868655205,0.31790199875831604,-0.12462200224399567,-0.13106299936771393,0.12443400174379349,0.10192400217056274,0.09047699719667435,0.07626499980688095,0.07367700338363647,-0.08724500238895416,-0.15162299573421478,0.10551399737596512,-0.11331400275230408,-0.023930000141263008,-0.011067000217735767,-0.1531669944524765,-0.06482499837875366,0.06901499629020691,0.032329998910427094,0.1811870038509369,0.11351200193166733,-0.11771199852228165,0.02843499928712845,0.002736999886110425,-0.03283800184726715,0.035294000059366226,0.04912000149488449,0.04910700023174286,0.1368129998445511,-0.010350000113248825,-0.06244099885225296,-0.1112160012125969,-0.3278839886188507,0.2444320023059845,-0.06970000267028809,0.12315600365400314,0.011215000413358212,0.0856420025229454,0.15718799829483032,-0.005696999840438366,-0.2020300030708313,0.08238200098276138,-0.006310999859124422,0.08521699905395508,0.03729899972677231,-0.02157999947667122,0.04299499839544296,-0.08475799858570099,-0.11453299969434738,0.003573999973013997,-0.16287900507450104,0.06938900053501129,-0.002113000024110079,0.10904199630022049,0.10467399656772614,-0.165801003575325,-0.09791100025177002,0.20331600308418274,-0.20819500088691711,0.021407000720500946,-0.09759700298309326,-0.15926699340343475,-0.0330829992890358,0.1710900068283081,0.12228599935770035,0.02893799915909767,-0.0026000000070780516,-0.04454699903726578,-0.03410699963569641,0.10267200320959091,-0.1514980047941208,-0.07744699716567993,0.12461800128221512,0.09271399676799774,0.15689000487327576,0.10330399870872498,0.12710000574588776,-0.05955100059509277,-0.02079099975526333,-0.014372999779880047,0.1042179986834526,-0.11512500047683716,-0.1080550029873848,-0.023321999236941338,-0.07901199907064438,0.1504170000553131,0.047839000821113586,-0.019734999164938927,-0.00854399986565113,0.037115998566150665,-0.11560200154781342,-0.2144719958305359,0.23366600275039673,-0.1475829929113388,0.042433001101017,0.17430299520492554,-0.17644700407981873,0.15174500644207,-0.023990999907255173,0.13534599542617798,0.08750200271606445,0.08631400018930435,-0.019693000242114067,-0.07948099821805954,0.2175929993391037,0.09092599898576736,0.15605700016021729,0.12597300112247467,-0.01069399993866682,0.08455699682235718,0.06580399721860886,-0.17000900208950043,-0.1059269979596138,-0.035301998257637024,-0.19356900453567505,0.20213399827480316,-0.010305999778211117,-0.15167899429798126,0.013364000245928764,-0.01921599917113781,0.15851199626922607,-0.0929659977555275,-0.10652200132608414,0.011826000176370144,-0.20570099353790283,-0.14557300508022308,-0.09727200120687485,0.16617099940776825,-0.2280299961566925,0.13638299703598022,-0.29261499643325806,0.0849979966878891,-0.16148200631141663,0.05810699984431267,-0.11990399658679962,0.050930000841617584,0.09438099712133408,-0.32987600564956665,-0.09677299857139587,0.04833399876952171,-0.1865600049495697,0.10989899933338165,-0.012617000378668308,-0.07305099815130234,0.00967899989336729,0.06230099871754646,0.08687199652194977,0.08117599785327911,0.09621500223875046,-0.13200600445270538,0.05519599840044975,-0.09774000197649002,-0.1302659958600998,-0.09314099699258804,-0.036003001034259796,0.056306999176740646,-0.1450279951095581,-0.05255499854683876,0.018470000475645065,0.142084002494812,0.18251100182533264,0.01947700046002865,-0.1368439942598343,-0.05404200032353401,-0.004722000099718571,-0.14792299270629883,-0.1003590002655983,-0.028037000447511673,-0.07499299943447113,-0.022102000191807747,-0.053957998752593994,-0.03693300113081932,0.07817400246858597,-0.13155999779701233,0.005900000222027302,-0.08661500364542007,0.03545499965548515,-0.02196599915623665,0.07948199659585953,-0.13045799732208252,0.19844700396060944,-0.26783299446105957,0.17865100502967834,0.07852499932050705,0.2262679934501648,-0.03913300111889839,-0.12153200060129166,0.07184000313282013,-0.0712210014462471,-0.10776899755001068,-0.0811460018157959,-0.018240999430418015,0.020779000595211983,0.1879960000514984,0.09861700236797333,0.11163999885320663,-0.0587490014731884,-0.03752300143241882,-0.029503000900149345,0.002345999935641885,0.04194999858736992,-0.11756499856710434,-0.0044999998062849045,0.050988998264074326,0.09442199766635895,-0.05962499976158142,-0.06004299968481064,0.09153400361537933,0.013546000234782696,-0.0001740000006975606,-0.01594500057399273,-0.07365600019693375,-0.0055610002018511295,-0.03349899873137474,-0.017952000722289085,-0.038325000554323196,0.052021998912096024,0.11664800345897675,0.03700700029730797,-0.06325100362300873,0.14847800135612488,0.08038999885320663,0.26160499453544617,-0.08724799752235413,-0.17812199890613556,-0.22598400712013245,-0.1516689956188202,-0.09379000216722488,-0.02076300047338009,-0.0885939970612526,-0.05222199857234955,0.10673999786376953,0.20075799524784088,0.061980001628398895,-0.15366700291633606,-0.036931999027729034,-0.23329800367355347,-0.016672000288963318,0.02688400074839592,0.07303699851036072,0.09702800214290619,0.10941199958324432,0.008600999601185322,0.1953440010547638,0.04883100092411041,-0.022752000018954277,-0.24948300421237946,-0.026820000261068344,0.08867699652910233,0.06992299854755402,-0.04369499906897545,-0.1976580023765564,-0.03408300131559372,-0.06067800149321556,-0.2586210072040558,0.0026179999113082886,0.0345270000398159,0.09957200288772583,-0.048037998378276825,0.028992999345064163,0.14137199521064758,-0.09811100363731384,0.16112199425697327,-0.040794000029563904,-0.03723699972033501,0.06755100190639496,-0.07856299728155136,0.04073600098490715,-0.05284300073981285,0.15323400497436523,0.11980599910020828,0.03770099952816963,-0.15245500206947327,0.07767900079488754,0.12527300417423248,-0.03397800028324127,-0.120899997651577,0.19528299570083618,-0.1501529961824417,-0.043542999774217606,0.05975300073623657,0.2139340043067932,-0.13947199285030365,-0.07755199819803238,0.06074399873614311,0.05667300149798393
侧,0.01423600036650896,-0.19258500635623932,-0.019430000334978104,-0.13308100402355194,0.21832500398159027,0.025985000655055046,0.16247700154781342,0.037335000932216644,-0.02596599981188774,0.0957920029759407,0.03084000013768673,0.06168600171804428,-0.1713559925556183,-0.20300500094890594,-0.14295899868011475,-0.12605899572372437,-0.07132899761199951,0.1347150057554245,0.2793090045452118,0.20237599313259125,-0.04502499848604202,-0.3089500069618225,0.07009799778461456,0.05774199962615967,-0.15266500413417816,-0.13774700462818146,-0.42546799778938293,0.16957299411296844,-0.4275510013103485,0.46446898579597473,-0.12462200224399567,-0.04154599830508232,0.3039959967136383,0.0050119999796152115,0.039765000343322754,0.02416200004518032,0.04202299937605858,0.347790002822876,0.3966839909553528,0.25641700625419617,-0.10631400346755981,-0.3023799955844879,0.08395200222730637,-0.05327000096440315,0.047129999846220016,-0.3772610127925873,-0.05830100178718567,-0.027840999886393547,-0.017146000638604164,-0.10249499976634979,-0.022975999861955643,-0.24975399672985077,0.2333970069885254,0.04327100142836571,0.0005830000154674053,0.11370600014925003,-0.14902199804782867,0.15036000311374664,-0.11261100322008133,-0.0816819965839386,0.2501800060272217,0.06838999688625336,0.019161999225616455,0.018084999173879623,-0.3906489908695221,0.061657000333070755,-0.12680000066757202,0.16087299585342407,0.015153000131249428,0.17603699862957,-0.06288500130176544,0.26435598731040955,0.25665101408958435,0.018138999119400978,-0.1809699982404709,0.20993299782276154,0.28945499658584595,-0.0314750000834465,0.1155959963798523,-0.057551998645067215,0.10734999924898148,-0.23466899991035461,-0.32950499653816223,0.13960599899291992,-0.12162099778652191,-0.0021989999804645777,-0.08163399994373322,0.0019280000124126673,0.10356499999761581,0.26996201276779175,0.3108290135860443,0.17474600672721863,0.12251599878072739,-0.21005700528621674,0.05073700100183487,-0.29365798830986023,-0.08958899974822998,0.01126800011843443,-0.1492069959640503,0.28321099281311035,0.1421010047197342,0.33378100395202637,-0.10970199853181839,-0.03974800184369087,-0.0038660001009702682,0.2069309949874878,0.2466209977865219,0.003957999870181084,0.20403599739074707,-0.08338599652051926,-0.038975998759269714,-0.32751500606536865,-0.36983999609947205,-0.03137800097465515,0.08861800283193588,-0.17095200717449188,-0.17506399750709534,-0.008651000447571278,-0.06160400062799454,0.29952600598335266,-0.0003060000017285347,0.03999299928545952,0.15313099324703217,0.038325000554323196,-0.13095399737358093,0.09532800316810608,-0.1571809947490692,-0.16532400250434875,-0.3012790083885193,0.041861001402139664,0.20622199773788452,0.19990800321102142,0.3263700008392334,-0.14496299624443054,0.10809200257062912,0.1888349950313568,0.09213799983263016,-0.2053530067205429,0.08633100241422653,0.22021299600601196,-0.29860201478004456,-0.47620800137519836,0.33650699257850647,-0.1627350002527237,0.011624000035226345,0.09607700258493423,0.011525999754667282,0.08809799700975418,0.3372899889945984,-0.3997209966182709,0.29026299715042114,-0.22062599658966064,-0.030688999220728874,-0.17948099970817566,-0.06841900199651718,-0.038001999258995056,-0.21437999606132507,0.17879900336265564,0.3114050030708313,-0.08937299996614456,0.2870909869670868,0.052386000752449036,-0.11469700187444687,0.17756199836730957,0.0007350000087171793,-0.07204599678516388,0.09747699648141861,-0.13719899952411652,0.016256000846624374,0.10527800023555756,0.0338129997253418,-0.07329700142145157,-0.12429899722337723,-0.11413899809122086,0.07676400244235992,-0.21555200219154358,0.13524800539016724,-0.04769600182771683,0.010897999629378319,-0.019361000508069992,-0.06413400173187256,-0.05052400007843971,0.05855000019073486,0.0020039998926222324,-0.27595800161361694,-0.09606900066137314,-0.11993400007486343,-0.19966599345207214,-0.10538800060749054,-0.11083599925041199,0.05693100020289421,0.09974300116300583,-0.26524800062179565,0.09458500146865845,0.23069100081920624,0.08942800015211105,-0.24068200588226318,-0.4427570104598999,0.1809449940919876,-0.3126029968261719,0.15664400160312653,0.01459600031375885,-0.3672490119934082,0.24647000432014465,0.07366299629211426,-0.2104319930076599,-0.10354699939489365,0.21265999972820282,-0.09220899641513824,-0.3516339957714081,0.07699300348758698,-0.06126600131392479,-0.12458399683237076,0.19752199947834015,-0.33233800530433655,0.026489000767469406,-0.16296899318695068,-0.3062419891357422,0.2588059902191162,0.33479800820350647,0.0800430029630661,0.2573859989643097,-0.02597999945282936,-0.3405910134315491,-0.09369300305843353,0.14784899353981018,0.03277700021862984,-0.2930150032043457,-0.06064600124955177,0.36861899495124817,-0.21065600216388702,0.08668500185012817,0.15892399847507477,0.29279398918151855,-0.03353700041770935,0.037073999643325806,-0.0007999999797903001,0.13553300499916077,-0.34578800201416016,0.10765600204467773,-0.4503600001335144,-0.17274999618530273,0.28177499771118164,-0.3224110007286072,0.09056200087070465,-0.1358100026845932,-0.2601790130138397,0.2158229947090149,0.005805999971926212,-0.04938400164246559,0.25368601083755493,-0.20864999294281006,-0.15954500436782837,-0.15566900372505188,-0.15636800229549408,-0.4816550016403198,-0.038669999688863754,-0.03418099880218506,0.40602201223373413,-0.017903000116348267,0.15624600648880005,-0.030451999977231026,-0.12982699275016785,0.03233199939131737,-0.43091899156570435,-0.16457900404930115,-0.3439309895038605,0.4976060092449188,-0.19133900105953217,-0.06993500143289566,-0.29992300271987915,0.17702899873256683,-0.2457669973373413,-0.10139299929141998,-0.12370499968528748,0.1862179934978485,-0.1255439966917038,-0.23716500401496887,-0.20650599896907806,0.06162500008940697,0.007160999812185764,-0.35887300968170166,0.32839301228523254,-0.1957319974899292,-0.13317599892616272,0.005363000091165304,-0.1773969978094101,0.23100900650024414,0.055041998624801636,-0.17537300288677216,-0.04265899956226349,-0.4054279923439026,-0.4157539904117584,-0.13080599904060364,0.18438400328159332,-0.09885100275278091,-0.21082699298858643,-0.06052299961447716,0.13488399982452393,-0.11905200034379959,-0.0026489999145269394,0.09610699862241745,-0.19489000737667084,0.03555399924516678,0.04427700117230415,0.4455699920654297,-0.16667799651622772,0.020197000354528427,0.11533799767494202,0.1120539978146553,0.25679001212120056,0.01155299972742796,0.4574750065803528,0.24814599752426147,0.1393740028142929,-0.1206739991903305,0.22536499798297882,-0.15339499711990356,-0.1489419937133789,0.0845789983868599,0.11256299912929535,0.4238379895687103,0.42036300897598267,0.1880279928445816,0.06611700356006622,0.07390400022268295,0.20722900331020355,-0.1858389973640442,0.04373199865221977,0.14901499450206757,0.07626499980688095,-0.05919500067830086,0.002509000012651086,0.021717000752687454,-0.6649100184440613,0.330951988697052,-0.16511300206184387,0.10822200030088425,0.07340499758720398,-0.1813109964132309,0.014162000268697739,0.19640399515628815,0.05348299816250801,0.14591200649738312,-0.08955699950456619,0.24531899392604828,0.4250679910182953,-0.08074399828910828,-0.1667660027742386,-0.1270499974489212,0.4549880027770996,-0.1454170048236847,-0.017371999099850655,-0.05980699881911278,-0.03458100184798241,-0.1423960030078888,0.4801110029220581,-0.04993399977684021,0.13128699362277985,0.036076001822948456,0.14597399532794952,-0.1759980022907257,-0.38969698548316956,-0.11059500277042389,-0.08030500262975693,0.1671060025691986,-0.43929100036621094,-0.061420001089572906,-0.09575600177049637,-0.21187199652194977,-0.2729560136795044,-0.10487700253725052,0.39704200625419617,-0.4015749990940094,0.034345000982284546,-0.3279930055141449,-0.037122998386621475,0.1341239959001541,-0.07748299837112427,-0.138387992978096,0.28438299894332886,-0.04261799901723862,0.04679099842905998,-0.010389000177383423,-0.2091280072927475,0.22980700433254242,-0.22834299504756927,0.2970300018787384,-0.10860899835824966,0.14508000016212463,0.06269799917936325,-0.13213400542736053,-0.16699999570846558,0.3161199986934662,-0.00101500004529953,-0.004273000173270702,0.06482499837875366,-0.1786540001630783,0.23587800562381744,0.09519100189208984
变型,0.1849379986524582,-0.17063599824905396,-0.14069800078868866,0.21597300469875336,0.02618500031530857,-0.12832599878311157,-0.16482000052928925,0.3247779905796051,0.0691479966044426,0.2343119978904724,0.18402999639511108,0.0649849995970726,-0.11416599899530411,-0.2522920072078705,-0.05570700019598007,-0.06296499818563461,-0.09699399769306183,-0.0769829973578453,-0.40854400396347046,-0.04596100002527237,-0.06791800260543823,-0.12477900087833405,0.312703013420105,-0.05702799931168556,0.26838698983192444,0.12031500041484833,0.09036099910736084,-0.1952580064535141,-0.2672779858112335,0.11018099635839462,0.12037699669599533,-0.002495999913662672,0.08678100258111954,-0.02476700022816658,0.003745000110939145,-0.0279690008610487,0.34639599919319153,0.19395999610424042,0.4092389941215515,0.024779999628663063,-0.006430999841541052,-0.1521420031785965,-0.18901899456977844,0.2892250120639801,-0.18200300633907318,0.13661900162696838,0.040428999811410904,0.09290099889039993,-0.018989000469446182,0.17412200570106506,0.05240099877119064,-0.029552999883890152,-0.1753380000591278,0.03830400109291077,0.13696199655532837,0.07541300356388092,0.01637299917638302,0.112185999751091,0.03209700062870979,-0.08960100263357162,0.19221100211143494,-0.2638370096683502,-0.07212100178003311,-0.010943000204861164,-0.0801130011677742,0.1251010000705719,0.05195799842476845,0.13524200022220612,0.1405870020389557,0.10115999728441238,-0.12991200387477875,-0.16079699993133545,-0.10988199710845947,-0.35901498794555664,-0.15958000719547272,-0.14108499884605408,0.07804399728775024,-0.07050900161266327,0.18500599265098572,0.21950599551200867,-0.1673949956893921,-0.3602069914340973,0.014821999706327915,-0.17285099625587463,-0.19032800197601318,-0.06138100102543831,0.09824000298976898,0.0516120009124279,0.06620199978351593,0.09533700346946716,-0.05342299863696098,0.04245400056242943,-0.030124999582767487,-0.039746999740600586,-0.10178100317716599,-0.08783099800348282,-0.20054000616073608,-0.13012200593948364,-0.014306999742984772,-0.3021259903907776,0.11894900351762772,-0.1093909963965416,-0.10433200001716614,0.11023999750614166,0.1759590059518814,0.37292999029159546,-0.1472959965467453,0.07904399931430817,-0.1668729931116104,-0.09657800197601318,0.07746800035238266,-0.154666006565094,0.32627901434898376,-0.25488001108169556,0.13857600092887878,-0.10128699988126755,-0.028932999819517136,0.015437999740242958,0.058722998946905136,0.08944500237703323,0.09558399766683578,-0.1837410032749176,0.14464400708675385,-0.005820999853312969,0.07967600226402283,0.019372999668121338,0.1286199986934662,-0.0928340032696724,0.2571040093898773,-0.4063270092010498,0.14885999262332916,0.046177998185157776,0.3301050066947937,0.01772800087928772,0.1582770049571991,0.06137700006365776,0.22405800223350525,0.06643100082874298,-0.053630001842975616,0.21114900708198547,-0.05880400165915489,0.1371929943561554,-0.13563700020313263,0.12751400470733643,0.0051009999588131905,-0.09196200221776962,-0.04145599901676178,0.14947199821472168,0.21475400030612946,0.19489000737667084,0.0860000029206276,-0.31746700406074524,-0.035339001566171646,0.08364599943161011,0.04840900003910065,-0.13641299307346344,0.23578199744224548,0.02609900012612343,0.008729999884963036,-0.09246499836444855,-0.04739300161600113,-0.06576699763536453,-0.30065301060676575,0.04797599837183952,0.2286590039730072,-0.21915799379348755,0.13993899524211884,-0.22750000655651093,0.06098499894142151,0.22408799827098846,0.1551699936389923,0.0016550000291317701,0.11593200266361237,-0.052560001611709595,0.12660300731658936,-0.22940300405025482,-0.012891000136733055,-0.06675499677658081,-0.06854499876499176,0.025981999933719635,-0.07588999718427658,-0.36676299571990967,-0.32140299677848816,-0.034685999155044556,-0.42385199666023254,0.10115599632263184,0.2086150050163269,-0.16442899405956268,0.11942700296640396,0.1556359976530075,-0.2605949938297272,-0.2962850034236908,0.13113999366760254,-0.05591399967670441,0.14213800430297852,-0.10220099985599518,-0.062157001346349716,0.028567999601364136,0.014841999858617783,-0.2612929940223694,-0.24493899941444397,-0.2664479911327362,-0.12611700594425201,-0.0843299999833107,-0.10004500299692154,-0.17818300426006317,0.03258199989795685,-0.0937189981341362,-0.07394099980592728,0.07405199855566025,-0.050606001168489456,-0.030786000192165375,-0.05624900013208389,0.07411500066518784,0.16926200687885284,0.07114800065755844,-0.08053000271320343,-0.16767199337482452,0.4875740110874176,-0.09978300333023071,0.032416000962257385,0.21461400389671326,-0.13738000392913818,-0.17754299938678741,-0.016573000699281693,0.1592559963464737,0.06413300335407257,-0.060398999601602554,0.12022099643945694,-0.1136230006814003,-0.5123400092124939,0.1367119997739792,0.15563100576400757,0.10858000069856644,0.1956920027732849,-0.21521300077438354,-0.021491000428795815,0.0014750000555068254,-0.040943000465631485,0.12010499835014343,-0.17566999793052673,0.04022099822759628,-0.0036810000892728567,-0.14928899705410004,-0.2889699935913086,0.19096100330352783,-0.22958500683307648,-0.13421499729156494,0.0003150000120513141,-0.1761229932308197,0.1648080050945282,0.07638300210237503,-0.07782799750566483,-0.28305599093437195,-0.29353201389312744,-0.13853299617767334,-0.10354000329971313,-0.17180000245571136,0.09797199815511703,0.178507998585701,-0.0014430000446736813,0.15882399678230286,-0.19933800399303436,-0.3269299864768982,0.0021619999315589666,0.16335700452327728,0.39263099431991577,0.10220900177955627,-0.2430039942264557,0.08854600042104721,-0.16576799750328064,0.09715300053358078,0.06796400249004364,-0.03608600050210953,0.0613039992749691,0.09235300123691559,-0.10328199714422226,-0.025439999997615814,0.11642300337553024,0.1664620041847229,0.06973499804735184,-0.1557369977235794,0.060635000467300415,0.2618449926376343,0.13120999932289124,-0.18024100363254547,-0.10342100262641907,-0.15012100338935852,0.014902000315487385,0.170197993516922,0.11149299889802933,0.037161000072956085,-0.055332001298666,-0.06072400137782097,0.23623399436473846,0.0170889999717474,-0.0494530014693737,0.15597400069236755,-0.03983600065112114,0.03943299874663353,-0.14315399527549744,0.26521798968315125,0.07056999951601028,-0.27840399742126465,0.02232000045478344,0.2122740000486374,-0.153889998793602,0.22349199652671814,-0.09437700361013412,-0.17006699740886688,-0.054733000695705414,-0.0015559999737888575,0.20248399674892426,-0.13340100646018982,0.08235599845647812,0.08268000185489655,-0.07336500287055969,-0.3589150011539459,-0.2580989897251129,-0.3051680028438568,-0.1809460073709488,-0.11705800145864487,-0.07658399641513824,-0.05824299901723862,-0.13960899412631989,-0.16364599764347076,0.01561800017952919,0.25909700989723206,0.1032710000872612,-0.02252900041639805,-0.024156000465154648,0.08646199852228165,-0.18626700341701508,0.005588999949395657,0.11134699732065201,-0.10158299654722214,-0.12518100440502167,-0.12721100449562073,0.16459999978542328,-0.079475998878479,0.23236599564552307,-0.1892230063676834,-0.2604219913482666,-0.06258899718523026,-0.11795999854803085,0.05103300139307976,-0.01970900036394596,0.003907000180333853,0.12751099467277527,0.3570129871368408,0.1953829973936081,-0.2739199995994568,-0.12898699939250946,0.29799801111221313,-0.15189999341964722,-0.04307800158858299,0.10461399704217911,-0.17370399832725525,0.0067349998280406,-0.0037249999586492777,-0.1336199939250946,0.05672900006175041,-0.15040500462055206,0.03447100147604942,-0.10933200269937515,0.17664200067520142,0.05482099950313568,-0.08131600171327591,0.12465599924325943,0.3428240120410919,-0.21719999611377716,0.11531300097703934,-0.04802599921822548,-0.14726899564266205,0.04728199914097786,-0.19152800738811493,-0.023794999346137047,-0.041839998215436935,-0.24528999626636505,-0.49954700469970703,-0.16714699566364288,0.29045501351356506,-0.16658300161361694,0.18057699501514435,-0.11025500297546387,0.02144799940288067,-0.05392700061202049,0.01089600007981062,0.3271610140800476,0.0899759978055954,-0.1693039983510971,0.060903001576662064,0.20814700424671173,0.25901299715042114,0.270440012216568,0.2270430028438568,0.10878700017929077,-0.35597699880599976,0.17297500371932983,-0.7957180142402649
系统,0.03576900064945221,0.1622759997844696,0.0007880000048317015,0.05579200014472008,0.2878429889678955,-0.26772698760032654,0.15590700507164001,0.27757900953292847,-0.07878299802541733,-0.07411199808120728,0.2781650125980377,-0.099993996322155,-0.08483800292015076,0.3455129861831665,0.08061599731445312,0.04310400038957596,-0.17145299911499023,-0.014445999637246132,-0.15311199426651,-0.36299198865890503,-0.24104300141334534,-0.163659006357193,0.36739298701286316,-0.008156999945640564,0.02902499958872795,0.19664199650287628,-0.039342001080513,-0.03620000183582306,0.21417200565338135,0.1461780071258545,0.04198100045323372,-0.042883001267910004,0.30945101380348206,-0.05529699847102165,-0.07813499867916107,-0.03924499824643135,0.15867500007152557,-0.3209269940853119,-0.12800100445747375,0.07167000323534012,-0.08310499787330627,-0.08066499978303909,-0.06720399856567383,0.3141550123691559,0.14695100486278534,-0.12432800233364105,-0.07625500112771988,-0.20142200589179993,0.13315199315547943,-0.140733003616333,-0.10143999755382538,0.22969700396060944,0.2797519862651825,-0.10589499771595001,-0.0007009999826550484,-0.08600299805402756,-0.005005999933928251,0.23718999326229095,-0.08778200298547745,0.07245899736881256,-0.15596899390220642,0.13887199759483337,-0.13530799746513367,0.08531100302934647,-0.11126700043678284,0.12691299617290497,0.16151699423789978,-0.21496200561523438,0.012993000447750092,0.26809000968933105,-0.3158999979496002,-0.17262299358844757,0.1812710016965866,-0.12313999980688095,-0.029850000515580177,-0.21027299761772156,0.12623600661754608,0.16880300641059875,0.17319700121879578,-0.031877998262643814,0.007732999976724386,-0.15377099812030792,-0.02847200073301792,-0.1524379998445511,-0.38816800713539124,-0.11207599937915802,0.02850399911403656,0.08016599714756012,-0.11229199916124344,0.01159099955111742,-0.0061240000650286674,0.18229800462722778,-0.3360919952392578,-0.0845159962773323,0.23718500137329102,0.03372599929571152,-0.08997000008821487,-0.21212199330329895,-0.24647900462150574,0.09616400301456451,0.02439800091087818,0.2843700051307678,0.17276699841022491,0.1581750065088272,-0.13367199897766113,0.06928300112485886,-0.21540600061416626,0.07349599897861481,-0.16899999976158142,-0.19683800637722015,-0.18151399493217468,0.034331001341342926,0.020867999643087387,0.01508800033479929,0.10788899660110474,0.005834000185132027,-0.04709099978208542,0.20799599587917328,-0.1685750037431717,-0.012067999690771103,0.12501299381256104,0.32047298550605774,-0.027070000767707825,-0.14479100704193115,0.1323930025100708,0.01012600027024746,-0.24821999669075012,0.08022800087928772,-0.1070529967546463,-0.27222898602485657,0.3284519910812378,-0.14460599422454834,0.1332789957523346,0.22758300602436066,0.08280900120735168,-0.09686499834060669,0.3481529951095581,-0.024430999532341957,-0.05140399932861328,-0.06670500338077545,-0.022283999249339104,-0.11444500088691711,0.13049699366092682,0.13831299543380737,-0.4026400148868561,0.15985000133514404,-0.11777099967002869,-0.13604199886322021,0.029562000185251236,-0.11935299634933472,0.27679699659347534,-0.21223199367523193,0.0030189999379217625,-0.025394000113010406,-0.03272499889135361,0.07591299712657928,0.29497599601745605,0.23239000141620636,-0.05976700037717819,-0.18845699727535248,0.22269000113010406,-0.01941699907183647,-0.17077399790287018,0.1864749938249588,-0.08286000043153763,-0.1350570023059845,0.14573200047016144,0.1547349989414215,-0.15727099776268005,0.09877800196409225,-0.013690999709069729,0.13030099868774414,0.01749200001358986,-0.024677999317646027,-0.0750650018453598,-0.18609599769115448,0.22234100103378296,0.15661700069904327,0.06868500262498856,0.11952599883079529,0.17345599830150604,-0.13180099427700043,-0.26370200514793396,0.1885180026292801,0.08196199685335159,-0.019368000328540802,0.4263029992580414,-0.19171899557113647,0.03383199870586395,-0.15059100091457367,-0.019816000014543533,0.17609600722789764,-0.08640799671411514,0.12370800226926804,0.05674400180578232,0.08045800030231476,0.10825899988412857,-0.012702000327408314,-0.2254049926996231,-0.3037790060043335,0.2471030056476593,-0.11219099909067154,-0.02518399991095066,0.3470500111579895,-0.0998309999704361,-0.1462080031633377,0.17498299479484558,-0.1727450042963028,0.18072499334812164,-0.10170000046491623,0.09973199665546417,0.037882000207901,0.10435499995946884,0.07060900330543518,-0.24090799689292908,0.04955200105905533,0.19653700292110443,0.039110999554395676,0.4491960108280182,-0.032917000353336334,0.26819899678230286,0.07420899718999863,-0.07974600046873093,-0.01459600031375885,0.10016900300979614,-0.22590699791908264,-0.21195000410079956,0.12437000125646591,-0.023892000317573547,-0.22439099848270416,-0.18309299647808075,0.17953400313854218,-0.06988599896430969,0.34936898946762085,-0.3718239963054657,-0.3767240047454834,-0.053665999323129654,0.061560001224279404,-0.0616299994289875,-0.1614619940519333,-0.06723099946975708,-0.14718300104141235,-0.15410900115966797,0.12689299881458282,-0.2888540029525757,-0.04636500030755997,-0.1339460015296936,-0.011033999733626842,-0.048615001142024994,-0.27049899101257324,-0.07769200205802917,-0.05702599883079529,-0.006647999864071608,0.02658900059759617,-0.09686700254678726,0.21865800023078918,0.041850000619888306,-0.01298999972641468,0.0032760000322014093,0.019192000851035118,-0.030511999502778053,0.12628799676895142,0.07535099983215332,0.14769800007343292,-0.02762800082564354,-0.4786120057106018,0.16489699482917786,0.35739800333976746,-0.07665400207042694,-0.26995399594306946,-0.06327100098133087,0.039267998188734055,-0.04605000093579292,-0.03073599934577942,0.19582499563694,-0.03945700079202652,-0.14615100622177124,0.2359520047903061,-0.1603669971227646,0.14872300624847412,0.10211300104856491,-0.03281800076365471,0.06842199712991714,-0.042879000306129456,0.05775900185108185,0.08843900263309479,-0.11252299696207047,0.22328899800777435,0.043515000492334366,-0.05818000063300133,-0.009279999881982803,-0.24310599267482758,0.42384201288223267,-0.14905999600887299,-0.1083260029554367,-0.03761500120162964,0.34116798639297485,-0.037710998207330704,-0.19097599387168884,-0.22217200696468353,0.07766299694776535,0.3689259886741638,0.18681499361991882,-0.2709850072860718,-0.14285700023174286,-0.13079699873924255,-0.06405100226402283,-0.011215999722480774,-0.2491150051355362,0.0599530003964901,0.19674600660800934,0.034961000084877014,0.1115259975194931,-0.05314299836754799,-0.29804301261901855,-0.12800900638103485,0.10988900065422058,0.03318699821829796,0.10833600163459778,-0.18192000687122345,-0.2231529951095581,-0.131413996219635,0.03354800119996071,0.14701400697231293,0.10294900089502335,-0.16680000722408295,0.4407149851322174,-0.2811090052127838,-0.06669799983501434,-0.2736000120639801,0.07377699762582779,0.1732410043478012,0.03499099984765053,-0.26838499307632446,0.05192999914288521,-0.01001300010830164,-0.03503800183534622,0.1290780007839203,-0.21845600008964539,-0.0009599999757483602,-0.20951800048351288,-0.18129600584506989,-0.11893600225448608,0.01280600018799305,-0.19905999302864075,-0.10137800127267838,-0.011528000235557556,0.28786200284957886,-0.09778100252151489,-0.04324299842119217,0.08382900059223175,0.046316999942064285,-0.2275719940662384,0.2274080067873001,0.16213400661945343,-0.18988999724388123,-0.2606160044670105,0.3509329855442047,0.046452999114990234,-0.19113999605178833,0.14343099296092987,0.00964600034058094,-0.23051699995994568,-0.197625994682312,-0.047463998198509216,-0.09319300204515457,0.1922679990530014,-0.2909500002861023,-0.2084449976682663,-0.10633700340986252,0.1324310004711151,-0.23059199750423431,-0.11530599743127823,-0.03283600136637688,0.08026500046253204,0.06364099681377411,-0.06502299755811691,0.07145500183105469,-0.1694680005311966,-0.11677099764347076,-0.10128799825906754,0.023461999371647835,0.09307000041007996,-0.08856300264596939,-0.02120400033891201,0.3532150089740753,0.15003399550914764,-0.19794400036334991,0.19982300698757172,-0.043939001858234406,-0.3011229932308197,0.10812299698591232,0.16010400652885437,0.06160299852490425,-0.05113000050187111,0.28325599431991577,-0.29485899209976196,-0.06914299726486206,0.055674001574516296,-0.18412700295448303
降低,0.17494100332260132,0.2248300015926361,0.20129099488258362,0.015938999131321907,0.0785290002822876,-0.07269799709320068,0.1368429958820343,0.10169699788093567,-0.06671299785375595,-0.0931989997625351,0.03418299928307533,-0.27432700991630554,0.174685999751091,-0.18274900317192078,-0.1493919938802719,-0.07118300348520279,0.020990999415516853,0.18970000743865967,-0.0994729995727539,-0.13589400053024292,0.04776399955153465,-0.18984399735927582,-0.009114000014960766,-0.11955899745225906,-0.011819000355899334,0.11928699910640717,-0.049929000437259674,-0.057985998690128326,0.10790599882602692,0.0765170007944107,-0.06625399738550186,-0.06256700307130814,0.03140399977564812,0.0024399999529123306,-0.08468899875879288,0.004635999910533428,0.048211000859737396,0.008843000046908855,0.16314400732517242,0.1823039948940277,0.0007489999989047647,-0.16786900162696838,-0.12981200218200684,0.27240198850631714,-0.006225999910384417,0.055410001426935196,0.14780400693416595,-0.15052799880504608,-0.07126200199127197,-0.17115500569343567,-0.13079699873924255,-0.05646299943327904,0.14476899802684784,-0.19399000704288483,0.11326699703931808,0.05773000046610832,-0.02283499948680401,0.11941000074148178,0.03146599978208542,0.25864800810813904,-0.058765001595020294,0.031252000480890274,-0.03977600112557411,-0.1024240031838417,0.09468899667263031,-0.1394300013780594,-0.022752000018954277,-0.03564700111746788,0.19851799309253693,-0.22585900127887726,-0.11473900079727173,-0.11569900065660477,-0.06511499732732773,-0.05036399886012077,0.0393729992210865,-0.1727599948644638,0.0019209999591112137,0.13285300135612488,-0.030734000727534294,-0.16965100169181824,-0.035406000912189484,-0.11637800186872482,-0.0482649989426136,0.05596200004220009,-0.18068599700927734,0.12152799963951111,0.08874800056219101,-0.020583000034093857,-0.021057000383734703,-0.1357100009918213,0.09367600083351135,0.044422999024391174,0.0005510000046342611,-0.010688000358641148,-0.04835499823093414,-0.07996899634599686,-0.042709000408649445,0.17885400354862213,-0.12349200248718262,0.03665599972009659,0.0940990000963211,0.14189499616622925,0.1411910057067871,0.005690000019967556,-0.030431000515818596,0.044137001037597656,-0.14525599777698517,-0.14205899834632874,-0.031658999621868134,-0.14477500319480896,-0.05566500127315521,0.15101900696754456,-0.10357800126075745,0.03858799859881401,0.011607999913394451,-0.2629610002040863,0.013869999907910824,-0.12476599961519241,-0.20888300240039825,0.1087149977684021,-0.10019300132989883,0.0340769998729229,-0.28208601474761963,-0.28460198640823364,0.15085400640964508,0.17070800065994263,0.07175400108098984,0.05255600064992905,0.06967899948358536,0.013578999787569046,0.3213860094547272,0.1651969999074936,-0.03181299939751625,-0.029280999675393105,-0.03246299922466278,-0.07288599759340286,0.2408760040998459,-0.2464970052242279,-0.22435300052165985,-0.10100100189447403,-0.07069399952888489,-0.08152800053358078,0.009019999764859676,0.10142699629068375,-0.0731860026717186,-0.0394739992916584,0.004116999916732311,0.08881700038909912,-0.07857800275087357,-0.11467699706554413,0.014286999590694904,-0.20336200296878815,-0.0368800014257431,0.13058200478553772,-0.06976400315761566,-0.08218400180339813,-0.1685509979724884,-0.0449410006403923,0.11823000013828278,-0.1244949996471405,-0.07333999872207642,0.024373000487685204,-0.14186200499534607,-0.18973800539970398,-0.05437900125980377,0.061792999505996704,-0.09174100309610367,-0.054311998188495636,-0.07157599925994873,-0.05222500115633011,-0.10717099905014038,-0.018125999718904495,-0.06820199638605118,0.03995199874043465,-0.08439800143241882,0.05867199972271919,-0.045635998249053955,0.016471000388264656,0.11733999848365784,-0.024977000430226326,0.046897999942302704,-0.0734810009598732,-0.3601050078868866,0.024999000132083893,-0.04494699835777283,-0.009569000452756882,0.17136399447917938,-0.018326999619603157,0.35382699966430664,0.25082600116729736,0.14101099967956543,0.07846199721097946,0.012834000401198864,0.21522800624370575,-0.021277999505400658,-0.12714999914169312,0.16297000646591187,-0.04496600106358528,-0.0948529988527298,-0.016025999560952187,-0.0278680007904768,-0.20337100327014923,-0.12120500206947327,-0.0774959996342659,-0.202114999294281,-0.16852900385856628,0.13471800088882446,-0.12741899490356445,0.08591099828481674,-0.11511000245809555,0.1504870057106018,0.07266200333833694,0.04320799931883812,0.22712799906730652,0.12746000289916992,-0.1073400005698204,0.06091799959540367,-0.12653300166130066,0.11949200183153152,-0.11735600233078003,0.052581001073122025,0.02762800082564354,-0.0016329999780282378,0.07270699739456177,-0.1726360023021698,0.11295100301504135,0.1077599972486496,-0.04215199872851372,-0.020512999966740608,0.08892899751663208,-0.14724400639533997,-0.06072099879384041,-0.19544899463653564,-0.025179000571370125,0.1755940020084381,-0.10975400358438492,-0.3481839895248413,0.30187299847602844,-0.18129600584506989,-0.10788500308990479,-0.06157299876213074,-0.09992600232362747,-0.011222000233829021,-0.030997000634670258,0.046599000692367554,-0.045531000941991806,0.21377000212669373,-0.1471319943666458,-0.06588699668645859,-0.10681299865245819,0.044879000633955,-0.11990799754858017,-0.32287898659706116,0.2057410031557083,-0.21007700264453888,-0.34626901149749756,0.04488399997353554,0.07874699681997299,0.17555800080299377,-0.0014750000555068254,0.23463299870491028,0.0633620023727417,0.041113998740911484,0.036688998341560364,-0.274848997592926,-0.1019119992852211,0.04717399924993515,0.08038999885320663,-0.1194550022482872,0.015735000371932983,-0.3973909914493561,-0.18971100449562073,-0.20989200472831726,0.15247200429439545,-0.02963300049304962,0.24720799922943115,-0.21630600094795227,-0.01006999984383583,0.0038350000977516174,0.006723999977111816,0.11170999705791473,-0.2525179982185364,-0.021151000633835793,-0.20413200557231903,-0.05821799859404564,0.05406399816274643,-0.07681500166654587,0.04632699862122536,-0.017548000440001488,0.08458399772644043,0.07421199977397919,-0.050592001527547836,0.1395689994096756,-0.04483100026845932,0.05239500105381012,0.13230599462985992,0.1831820011138916,0.048806000500917435,-0.01620900072157383,0.02091600000858307,-0.12053299695253372,-0.01372199971228838,0.26045000553131104,-0.32664400339126587,-0.09852500259876251,-0.19046500325202942,-0.16436100006103516,-0.04371799901127815,-0.2191700041294098,-0.014693999662995338,0.2512750029563904,-0.00043700000969693065,-0.14821100234985352,0.13550299406051636,-0.19268900156021118,0.09583000093698502,-0.024153999984264374,-0.23813000321388245,-0.16946299374103546,-0.179749995470047,0.18182800710201263,-0.13523000478744507,0.16757600009441376,-0.04646199941635132,-0.1512649953365326,-0.011780999600887299,0.05013300105929375,-0.13891799747943878,0.028931999579072,-0.043650999665260315,0.2834149897098541,0.11644099652767181,-0.018519999459385872,-0.17586900293827057,0.012423999607563019,0.2630850076675415,-0.07823900133371353,-0.2246900051832199,-0.13729800283908844,0.15449699759483337,0.008050000295042992,-0.15594600141048431,0.02570199966430664,-0.09345600008964539,0.1145709976553917,-0.10459300130605698,0.1291009932756424,0.060311999171972275,0.08624999970197678,-0.02124599926173687,-0.1629360020160675,0.07306300103664398,-0.13544000685214996,0.055590998381376266,0.3743950128555298,-0.1449279934167862,-0.145688995718956,0.3620949983596802,-0.06718699634075165,-0.018626999109983444,-0.06810399889945984,0.09083300083875656,0.008712000213563442,0.09708800166845322,-0.09318699687719345,-0.2313160002231598,0.07827199995517731,-0.205377995967865,-0.32832199335098267,-0.05443200096487999,-0.19823800027370453,-0.4208039939403534,0.00039999998989515007,-0.04859999939799309,-0.1087149977684021,-0.4361090064048767,0.08211299777030945,0.06862500309944153,-0.12928099930286407,0.07801300287246704,0.09466099739074707,0.3109950125217438,-0.0873740017414093,0.05289499834179878,0.3094030022621155,0.17235399782657623,-0.19710400700569153,-0.20339199900627136,0.21970300376415253,0.004918999969959259,-0.15196600556373596,0.4200569987297058,-0.0632070004940033,-0.07685799896717072,0.01702599972486496,0.37446099519729614,-0.20157399773597717,-0.0035550000611692667,0.18671199679374695,-0.10525599867105484
提供,0.002455000067129731,0.045531000941991806,0.004046000074595213,0.023377999663352966,0.01757900044322014,0.11446099728345871,0.11270900070667267,0.13097800314426422,0.014530000276863575,-0.22962400317192078,0.12921899557113647,-0.021150000393390656,-0.027046000584959984,-0.10646700114011765,-0.18408100306987762,-0.0493989996612072,-0.04067699983716011,-0.009978000074625015,-0.10078299790620804,-0.05992700159549713,0.12195400148630142,-0.009630000218749046,-0.06541799753904343,-0.026151999831199646,0.13285300135612488,0.2137790024280548,-0.14190199971199036,-0.022262999787926674,-0.13903500139713287,0.14546899497509003,0.07455900311470032,0.02510100044310093,0.037445999681949615,-0.06325100362300873,-0.08329299837350845,-0.2474440038204193,-0.17119699716567993,-0.10952399671077728,0.10894399881362915,0.12199100106954575,-0.08070400357246399,-0.12818199396133423,0.10157699882984161,0.18948400020599365,0.11191599816083908,-0.010595999658107758,-0.09369999915361404,0.16875800490379333,-0.012660999782383442,-0.17773400247097015,-0.0328340008854866,-0.00941499974578619,-0.04323200136423111,0.01432000007480383,0.026388999074697495,0.018843999132514,-0.20457300543785095,0.0959170013666153,0.17888300120830536,0.1807750016450882,-0.043772000819444656,-0.14669199287891388,-0.031293001025915146,-0.11085200309753418,0.2132679969072342,0.051649000495672226,-0.0020039998926222324,-0.07220599800348282,0.15405899286270142,0.13812300562858582,-0.12606200575828552,-0.10562600195407867,0.10123000293970108,0.10034800320863724,0.20756100118160248,-0.24317599833011627,0.039115000516176224,0.14870400726795197,0.2045460045337677,-0.1567469984292984,0.021161999553442,0.040105000138282776,0.05389099940657616,-0.13043899834156036,-0.09379100054502487,0.16772699356079102,0.21076899766921997,0.01612200029194355,-0.13613399863243103,0.16084599494934082,-0.07303199917078018,-0.08519700169563293,0.013636999763548374,0.020527999848127365,0.048503000289201736,-0.06316299736499786,-0.03247499838471413,0.03175799921154976,-0.0737060010433197,-0.09543000161647797,0.05906299874186516,0.13180099427700043,0.11523599922657013,0.04637200012803078,-0.05970799922943115,-0.015845999121665955,-0.13693499565124512,-0.14402399957180023,-0.03363899886608124,0.10431700199842453,0.001285000005736947,0.08585499972105026,0.05898499861359596,0.06268700212240219,0.07263500243425369,0.19646500051021576,-0.11571600288152695,-0.042980000376701355,-0.04303999990224838,0.07452700287103653,-0.015038999728858471,-0.14455300569534302,0.17107799649238586,-0.0013360000448301435,-0.09723799675703049,-0.013786000199615955,-0.08374299854040146,-0.06672900170087814,0.16377800703048706,0.11865299940109253,0.102122001349926,-0.15056699514389038,0.10741300135850906,0.05553299933671951,0.152320995926857,-0.10159199684858322,0.05529100075364113,0.056467000395059586,0.11947900056838989,0.012369000352919102,-0.03453399986028671,0.07584600150585175,0.05897299945354462,-0.09625399857759476,-0.17371200025081635,-0.04886399954557419,-0.1882150024175644,0.04972299933433533,-0.08919700235128403,-0.07321500033140182,-0.018668999895453453,-0.018334999680519104,0.0009800000116229057,-0.20003099739551544,-0.20104199647903442,0.07925699651241302,-0.0068259998224675655,0.013555999845266342,-0.029201000928878784,-0.2513970136642456,0.06407900154590607,-0.05552700161933899,0.03778399899601936,-0.010475999675691128,-0.07199899852275848,-0.08793999999761581,-0.23243999481201172,-0.0361189991235733,0.027164999395608902,-0.005369999911636114,0.19252100586891174,-0.04241500049829483,0.00570000009611249,-0.20238399505615234,-0.1015859991312027,-0.14369900524616241,-0.07839199900627136,0.06605199724435806,0.07906399667263031,-0.09650900214910507,0.06577199697494507,-0.11098700016736984,-0.06359100341796875,-0.08688200265169144,-0.10524000227451324,-0.07074400037527084,0.15388700366020203,0.025127999484539032,0.05618000030517578,0.15381699800491333,0.11041700094938278,0.015410000458359718,-0.020608000457286835,0.1710589975118637,0.03317200019955635,-0.056922998279333115,-0.0017239999724552035,-0.1863590031862259,-0.023528000339865685,-0.18112100660800934,-0.11470899730920792,-0.1150600016117096,0.08332200348377228,-0.08231599628925323,0.03387700021266937,-0.18878699839115143,0.13432000577449799,-0.09357299655675888,-0.03615399822592735,0.01838500052690506,0.07648299634456635,0.1801609992980957,-0.17978200316429138,0.016750000417232513,0.094930000603199,-0.09707900136709213,0.14006899297237396,-0.19831399619579315,0.33392098546028137,-0.08470799773931503,0.000493000028654933,0.22888100147247314,0.21695800125598907,0.08625499904155731,0.05017999932169914,-0.12515200674533844,0.08811599761247635,-0.10113099962472916,0.010764000006020069,-0.0531499981880188,0.04944099858403206,0.21093399822711945,-0.10394900292158127,0.010092999786138535,-0.00828499998897314,-0.20183899998664856,-0.09118200093507767,0.14753399789333344,-0.007625999860465527,-0.12297999858856201,0.12063000351190567,-0.02297000028192997,-0.0841590017080307,0.00876499991863966,-0.10653900355100632,-0.09445399791002274,0.08275599777698517,0.03071100078523159,0.14570100605487823,0.08797299861907959,0.009084000252187252,-0.12303300201892853,-0.09088300168514252,0.04544299840927124,-0.1678050011396408,-0.011959999799728394,-0.18362300097942352,-0.00688599981367588,0.083235003054142,0.13258199393749237,0.06408300250768661,0.0419979989528656,-0.04711500182747841,0.09583500027656555,-0.09704600274562836,-0.11403200030326843,-0.00039900001138448715,0.07543099671602249,-0.06592199951410294,0.10964400321245193,-0.1915760040283203,-0.26170599460601807,0.07434199750423431,0.005950999911874533,0.08979299664497375,0.0660799965262413,-0.11098500341176987,0.0030529999639838934,-0.05152000114321709,0.009236999787390232,0.21830600500106812,0.013233000412583351,-0.021400999277830124,-0.0466339997947216,0.006568000186234713,0.24835099279880524,0.007360999938100576,-0.1524049937725067,0.023295000195503235,0.16530099511146545,-0.07775600254535675,-0.12044999748468399,-0.02444699965417385,0.055296000093221664,0.17951400578022003,0.15807999670505524,-0.027389999479055405,0.0916609987616539,-0.00445199990645051,0.12132199853658676,0.20994199812412262,0.03348600119352341,-0.02861900068819523,0.06887000054121017,-0.10893499851226807,0.07392600178718567,-0.10666599869728088,0.017666000872850418,-0.17428100109100342,0.018360000103712082,0.07632099837064743,-0.0933379977941513,0.08173199743032455,-0.06024400144815445,-0.17790600657463074,0.305757999420166,-0.06202299892902374,-0.00043700000969693065,-0.12136700004339218,0.04578699916601181,-0.11342199891805649,0.13449999690055847,0.025560999289155006,-0.013829000294208527,0.10175000131130219,-0.043797001242637634,0.003106999909505248,-0.06823199987411499,-0.020570000633597374,0.016978999599814415,0.036201998591423035,0.08099500089883804,0.029696999117732048,0.1125589981675148,-0.07417000085115433,0.11278799921274185,-0.047874998301267624,-0.14242500066757202,-0.09226799756288528,-0.10641799867153168,-0.1258379966020584,-0.020155999809503555,0.039441999047994614,-0.029205000028014183,0.06578399986028671,-0.04141699895262718,0.12168099731206894,0.031348999589681625,-0.027533000335097313,-0.1426520049571991,0.18813300132751465,-0.23863600194454193,0.09271299839019775,-0.0031399999279528856,0.14581599831581116,-0.16329100728034973,-0.10648799687623978,0.22338999807834625,0.14680199325084686,-0.027410000562667847,0.1966879963874817,0.03316599875688553,-0.07938399910926819,0.005979000125080347,0.04971399903297424,-0.051562000066041946,0.16488899290561676,-0.16959500312805176,-0.08041299879550934,-0.15599800646305084,-0.17165599763393402,-0.18215100467205048,-0.022127000615000725,-0.10661300271749496,0.04844300076365471,-0.18170499801635742,0.10282900184392929,-0.08422599732875824,0.06231899932026863,-0.04602399840950966,-0.0006779999821446836,0.15698100626468658,0.21846699714660645,0.013265999965369701,0.07215400040149689,-0.04590800032019615,-0.17648500204086304,0.07009299844503403,-0.042511001229286194,0.0437530018389225,-0.03930500149726868,-0.08719699829816818,-0.006186999846249819,0.029769999906420708,-0.1053370013833046,0.1359899938106537,-0.08746299892663956,-0.04123200103640556,-0.014732000418007374,0.003843999933451414
布置,0.2308190017938614,0.03757600113749504,0.026599999517202377,0.12987999618053436,-0.10322199761867523,-0.023941000923514366,0.07058600336313248,-0.11693800240755081,0.05785699933767319,-0.0018370000179857016,-0.12811599671840668,-0.044551998376846313,-0.14796499907970428,0.08869100362062454,0.014093000441789627,0.155116006731987,0.17737899720668793,0.2403849959373474,-0.03504300117492676,0.014992999844253063,0.00894199963659048,-0.10096000134944916,0.23687300086021423,0.30136099457740784,0.26677799224853516,0.2533549964427948,0.004395999945700169,0.02455499954521656,-0.024424999952316284,0.08776900172233582,-0.10867299884557724,0.05615900084376335,-0.05574899911880493,0.11343400180339813,-0.12831899523735046,-0.25964200496673584,0.15798699855804443,0.1387300044298172,0.03531000018119812,0.29249200224876404,-0.31255200505256653,0.054836999624967575,0.010425999760627747,0.0424019992351532,0.08323000371456146,0.008851000107824802,0.03333299979567528,-0.060162998735904694,-0.08476000279188156,-0.15230800211429596,-0.17166100442409515,-0.025887999683618546,0.3989329934120178,-0.21001000702381134,0.16332000494003296,0.19023099541664124,-0.15992799401283264,-0.05217700079083443,-0.0873669981956482,-0.12928099930286407,-0.23503300547599792,0.14815500378608704,-0.24419599771499634,0.08135899901390076,-0.00037399999564513564,-0.11328999698162079,0.06863100081682205,0.068572998046875,-0.012028999626636505,0.04150199890136719,-0.06201799958944321,0.18927399814128876,0.21125200390815735,-0.18055200576782227,-0.05935300141572952,-0.250901997089386,-0.01016599964350462,-0.22550000250339508,0.18975099921226501,0.20839500427246094,0.027008000761270523,-0.1293189972639084,-0.15649400651454926,0.0021510000806301832,-0.008906000293791294,0.15235400199890137,0.24024100601673126,0.1205739974975586,0.15696300566196442,-0.047669000923633575,0.1595579981803894,-0.1665479987859726,0.24635300040245056,-0.0816589966416359,0.16543300449848175,-0.1705159991979599,-0.1450600028038025,0.024971000850200653,-0.21455299854278564,0.01310999970883131,0.08151499927043915,0.3228980004787445,-0.16656599938869476,0.2291709929704666,-0.006318999920040369,-0.0016189999878406525,-0.07917500287294388,0.3182690143585205,-0.04319699853658676,-0.021591000258922577,0.07006099820137024,-0.12246599793434143,-0.061973001807928085,0.031637001782655716,0.016083000227808952,-0.025023000314831734,-0.006000999826937914,-0.07603099942207336,-0.007538999896496534,0.3287000060081482,0.16181999444961548,-0.011978000402450562,0.19337399303913116,-0.008545000106096268,-0.19986000657081604,-0.304749995470047,-0.20301899313926697,0.054496001452207565,-0.019315000623464584,-0.1375270038843155,-0.08454199880361557,-0.2711620032787323,0.12918899953365326,-0.012786000035703182,0.10034599900245667,0.27077800035476685,-0.026141999289393425,-0.01883300021290779,0.053456999361515045,-0.037668999284505844,-0.15710000693798065,-0.18516500294208527,0.0982310026884079,0.019752999767661095,-0.02095700055360794,0.11212799698114395,-0.21632200479507446,-0.15190699696540833,-0.007797999773174524,-0.1323550045490265,-0.13098099827766418,-0.04575100168585777,-0.3073579967021942,-0.20490799844264984,-0.06940799951553345,0.13888199627399445,-0.08296500146389008,-0.12531700730323792,0.19547100365161896,-0.011354000307619572,0.002833999926224351,0.09223499894142151,-0.08183000236749649,-0.15591399371623993,-0.033459000289440155,-0.20370499789714813,-0.2300020009279251,-0.03234399855136871,-0.21976199746131897,0.08527400344610214,-0.1182669997215271,0.16494999825954437,-0.2075210064649582,0.04776600003242493,0.25572699308395386,0.06621500104665756,-0.09907399863004684,-0.06389600038528442,-0.40206998586654663,0.032343000173568726,-0.20233500003814697,0.20396800339221954,-0.2109210044145584,0.14832299947738647,-0.20304399728775024,-0.07150699943304062,-0.25547000765800476,-0.04542800039052963,0.22758899629116058,0.41104400157928467,-0.08513200283050537,-0.10922800004482269,-0.001854000031016767,0.3357580006122589,-0.25185298919677734,0.019395999610424042,-0.2479429990053177,0.007350999861955643,0.10518299788236618,-0.2972800135612488,0.1830890029668808,-0.06654000282287598,-0.14517199993133545,0.35808199644088745,0.054023999720811844,-0.4856269955635071,-0.02200400084257126,-0.028696000576019287,0.09637600183486938,-0.30915701389312744,0.20380499958992004,-0.07828299701213837,-0.079025998711586,0.05077400058507919,-0.055289000272750854,0.08448799699544907,-0.026572000235319138,-0.35273000597953796,-0.10354000329971313,-0.13283699750900269,-0.20830799639225006,0.11547400057315826,0.35730499029159546,-0.18592000007629395,0.1771949976682663,0.23914499580860138,0.28072500228881836,-0.2799220085144043,-0.07885199785232544,0.09166599810123444,-0.3743099868297577,-0.09612900018692017,-0.14451800286769867,0.22655700147151947,0.17054300010204315,0.04772200062870979,0.2392670065164566,-0.10882700234651566,-0.11868300288915634,-0.10451100021600723,-0.007683000061661005,0.043501000851392746,-0.08969499915838242,-0.05375500023365021,-0.09074100106954575,-0.09716100245714188,-0.37861499190330505,-0.03140199929475784,-0.003774000098928809,-0.09147799760103226,0.21601000428199768,0.12194500118494034,-0.3612309992313385,-0.2799620032310486,-0.0011889999732375145,-0.14101499319076538,0.05697999894618988,-0.0067349998280406,0.25032898783683777,-0.0879260003566742,-0.04113199934363365,0.046390000730752945,0.10277199745178223,-0.34233900904655457,-0.2980540096759796,-0.16245900094509125,-0.20680199563503265,0.057440001517534256,0.027993999421596527,-0.08651799708604813,-0.13686899840831757,-0.005894999951124191,-0.08440600335597992,0.07506400346755981,0.038440998643636703,0.1247820034623146,-0.19051499664783478,-0.38378599286079407,-0.2365570068359375,0.013425000011920929,0.02239600010216236,-0.09068000316619873,0.14554500579833984,-0.20392900705337524,-0.18725000321865082,-0.14537400007247925,-0.18234699964523315,0.12286099791526794,-0.18528999388217926,-0.025759000331163406,-0.008801000192761421,-0.16425099968910217,-0.1783750057220459,-0.10689999908208847,0.0731699988245964,-0.30575600266456604,0.018062999472022057,-0.07806199789047241,-0.0018599999602884054,-0.08427199721336365,0.035735998302698135,0.10144499689340591,0.07849100232124329,-0.014643999747931957,0.16031500697135925,-0.07392899692058563,-0.34745800495147705,0.24407599866390228,-0.12313900142908096,-0.25571998953819275,0.22334499657154083,-0.011905999854207039,-0.1326889991760254,0.09443899989128113,-0.24463599920272827,0.15116100013256073,0.19893400371074677,0.06978999823331833,-0.16051800549030304,-0.11479300260543823,0.0689689964056015,0.20570500195026398,0.3148060142993927,0.2232159972190857,-0.0584149993956089,0.2307009994983673,0.23045200109481812,0.05872099846601486,0.02705099992454052,-0.11415299773216248,-0.1250620037317276,-0.1018029972910881,-0.005807999987155199,-0.013950999826192856,-0.17438200116157532,0.18390800058841705,-0.3791370093822479,-0.08720999956130981,-0.22360999882221222,-0.09619200229644775,-0.3110550045967102,0.06349900364875793,-0.12826000154018402,0.09991200268268585,-0.1541759967803955,0.5018280148506165,0.1814669966697693,0.3283979892730713,-0.2623859941959381,0.05971600115299225,-0.1784760057926178,-0.17522600293159485,0.21410000324249268,-0.17964999377727509,0.2014710009098053,0.01592000015079975,0.1646369993686676,0.2586210072040558,0.16234900057315826,-0.0674860030412674,0.15328599512577057,-0.06267099827528,-0.11164599657058716,0.060520000755786896,-0.0034080001059919596,-0.1476539969444275,-0.3028689920902252,0.10679300129413605,-0.08396100252866745,-0.07367300242185593,-0.3638859987258911,0.05283199995756149,0.32708001136779785,-0.1785620003938675,-0.12216900289058685,-0.2885049879550934,0.2849859893321991,-0.1516440063714981,0.12529799342155457,-0.01594099961221218,-0.015224999748170376,0.11320099979639053,0.08250600099563599,-0.0957999974489212,0.2912740111351013,0.1798889935016632,-0.058678001165390015,0.16929300129413605,-0.06525100022554398,-0.21792900562286377,0.2518469989299774,0.1265140026807785,0.1593959927558899,-0.042031001299619675,-0.11175999790430069,0.0689850002527237,-0.07974299788475037,-0.3872950077056885,0.016011999920010567,0.047377001494169235
涉及,0.044537000358104706,-0.12461499869823456,0.008453999646008015,-0.014259000308811665,0.20503799617290497,0.10113699734210968,0.023370999842882156,-0.0014019999653100967,-0.1602959930896759,-0.09306299686431885,0.1282929927110672,-0.13424000144004822,0.0061969999223947525,-0.12070000171661377,-0.05271599814295769,0.08109399676322937,0.1672389954328537,-0.23564599454402924,-0.2980239987373352,-0.26930299401283264,0.024557000026106834,-0.024217000231146812,0.001970000099390745,0.06357000023126602,0.03452099859714508,0.2197130024433136,-0.054269999265670776,0.00458399998024106,-0.09042199701070786,0.09070499986410141,0.12368699908256531,-0.027932999655604362,-0.003398000029847026,0.004172000102698803,0.02184000052511692,0.014929999597370625,-0.06164800003170967,-0.26535099744796753,-0.14021599292755127,0.2458299994468689,-0.008407000452280045,-0.14439399540424347,-0.09476900100708008,0.4052479863166809,0.04590199887752533,0.014125999994575977,-0.0858680009841919,0.00482399994507432,0.026993999257683754,-0.03288999944925308,-0.07707100361585617,0.14303900301456451,0.011145000346004963,-0.08376500010490417,0.11123199760913849,0.15289999544620514,-0.11445900052785873,-0.16661399602890015,-0.04941000044345856,0.1391730010509491,0.055073998868465424,0.12434999644756317,0.17584100365638733,-0.08254600316286087,0.15731999278068542,-0.16705399751663208,0.12073300033807755,-0.13937200605869293,-0.01662999950349331,0.09847400337457657,-0.05280200019478798,-0.1469690054655075,-0.035232000052928925,-0.0913579985499382,-0.05263200029730797,0.009875999763607979,0.0757950022816658,0.07906900346279144,-0.01092700008302927,-0.06286600232124329,-0.07838299870491028,-0.003965000156313181,-0.08753599971532822,-0.1458580046892166,-0.11349199712276459,-0.046153999865055084,0.022791000083088875,-0.04546000063419342,-0.045228999108076096,-0.07039099931716919,-0.0844850018620491,0.022690000012516975,-0.11658000200986862,0.11677200347185135,-0.23340800404548645,-0.11846999824047089,0.031599998474121094,0.03028400056064129,0.018213000148534775,-0.1350259929895401,0.0003760000108741224,-0.007391999941319227,-0.008306999690830708,0.11569300293922424,0.0691630020737648,0.013144999742507935,-0.11972100287675858,0.025713000446558,0.002553999889642,-0.02042200043797493,0.03099600039422512,0.1712139993906021,-0.026796000078320503,-0.03392300009727478,0.06700900197029114,0.2667529881000519,-0.10922200232744217,-0.1193460002541542,0.11118700355291367,-0.25039300322532654,-0.12554199993610382,-0.058848001062870026,0.12682099640369415,0.09234999865293503,-0.21253499388694763,-0.037776000797748566,-0.23729799687862396,-0.01411100011318922,-0.11424899846315384,0.03690199926495552,0.1516769975423813,-0.11650899797677994,0.009643999859690666,0.14545799791812897,-0.016901999711990356,-0.02243800088763237,0.05393199995160103,-0.12420400232076645,-0.2589080035686493,0.24766799807548523,0.23685400187969208,0.007865999825298786,0.14389100670814514,-0.06776999682188034,0.0124080004170537,-0.08024699985980988,-0.0757099986076355,0.10692299902439117,-0.010486000217497349,-0.055167000740766525,-0.1395770013332367,-0.0996830016374588,-0.026531999930739403,-0.11685200035572052,-0.1392270028591156,0.053449999541044235,0.046307001262903214,0.14235299825668335,-0.07259099930524826,0.07087600231170654,0.013737999834120274,0.048927001655101776,0.07401400059461594,-0.09504300355911255,-0.07962600141763687,0.10539600253105164,-0.128493994474411,-0.008321999572217464,0.072564996778965,-0.13913899660110474,-0.014883999712765217,-0.05873600021004677,0.09079799801111221,-0.02185700088739395,-0.06453000009059906,-0.07564599812030792,-0.08143799751996994,0.05012299865484238,-0.08569800108671188,-0.11643300205469131,-0.06868299841880798,0.07985299825668335,-0.18651199340820312,-0.21270300447940826,0.116457998752594,0.0640840008854866,0.16336099803447723,0.010351999662816525,0.2325810045003891,0.09098900109529495,-0.09374900162220001,-0.04290499910712242,-0.03024199977517128,-0.004449999891221523,0.031304001808166504,-0.25415098667144775,-0.03583899885416031,-0.08973400294780731,0.004397000186145306,0.1308560073375702,-0.09763599932193756,-0.09685000032186508,0.03537299856543541,-0.14739499986171722,-0.03322000056505203,-0.2555600106716156,0.045618001371622086,-0.15895600616931915,0.12541800737380981,0.18824300169944763,0.01567699946463108,0.10539799928665161,0.08853799849748611,0.07610899955034256,0.1701669991016388,0.11396200209856033,0.06097700074315071,0.04062800109386444,0.11828400194644928,-0.1006999984383583,-0.1088239997625351,-0.022359000518918037,0.18475699424743652,-0.07698100060224533,-0.02817700058221817,-0.19144999980926514,0.03720900043845177,-0.1314930021762848,0.10245800018310547,-0.06910300254821777,-0.12279900163412094,0.07315299659967422,0.021562999114394188,0.05438699945807457,0.06401699781417847,-0.05369200184941292,-0.27285200357437134,0.030712999403476715,0.054092999547719955,-0.16200800240039825,0.17398400604724884,0.15257999300956726,-0.16086100041866302,0.20210400223731995,-0.006697999779134989,-0.1102989986538887,-0.002733000088483095,-0.04492500051856041,0.2025279998779297,0.0693809986114502,0.08905699849128723,-0.07890799641609192,-0.16288000345230103,-0.03817500174045563,-0.1375429928302765,0.11573600023984909,-0.011896000243723392,0.16867099702358246,0.023189999163150787,0.008191999979317188,-0.04928800091147423,-0.08518899977207184,0.031060000881552696,0.04212300106883049,0.033018000423908234,-0.2118539959192276,0.22452500462532043,0.17152300477027893,-0.15000200271606445,0.007914000190794468,-0.19856800138950348,0.05443999916315079,-0.14091399312019348,0.09214600175619125,0.04457300156354904,0.08701500296592712,0.03881800174713135,-0.12941999733448029,-0.06185600161552429,-0.06625799834728241,-0.18126699328422546,-0.03308099880814552,-0.11952400207519531,0.07068599760532379,-0.026283999904990196,0.07360000163316727,0.16653400659561157,-0.22533799707889557,-0.03266900032758713,0.07996799796819687,0.20502999424934387,-0.07405800372362137,-0.23317399621009827,0.03462500125169754,0.1787170022726059,-0.023920999839901924,0.05635499954223633,0.1475670039653778,-0.33586499094963074,0.10108599811792374,0.05207600072026253,0.10318300127983093,0.03295300155878067,0.14755800366401672,-0.16918599605560303,-0.033181000500917435,-0.20973800122737885,-0.13563400506973267,0.0311840008944273,0.2228270024061203,-0.1784130036830902,0.018756000325083733,0.0558909997344017,-0.04022999852895737,0.040022000670433044,0.2640889883041382,-0.031201999634504318,0.15679100155830383,-0.1344580054283142,-0.1613750010728836,0.23532499372959137,0.10308899730443954,0.05288499966263771,-0.0096859997138381,0.02760300040245056,0.12422599643468857,-0.09643200039863586,-0.25077301263809204,-0.04704099893569946,0.06776600331068039,0.1568170040845871,-0.12379299849271774,-0.17488500475883484,-0.011126000434160233,0.03540400043129921,-0.06417299807071686,0.16832000017166138,-0.08481799811124802,-0.06494800001382828,0.05401799827814102,-0.0662430003285408,-0.026395000517368317,0.03757699951529503,-0.1204719990491867,-0.06985899806022644,-0.06791199743747711,-0.01645899936556816,0.12047799676656723,-0.07344000041484833,0.11564099788665771,-0.047988999634981155,-0.10490400344133377,0.12575599551200867,0.04363799840211868,0.2017810046672821,0.12526200711727142,-0.12825199961662292,0.13478299975395203,0.055358000099658966,0.1827930063009262,-0.08614999800920486,-0.02877099998295307,0.16689500212669373,0.08611399680376053,0.1958480030298233,-0.06492599844932556,0.023375000804662704,0.03292499855160713,-0.028516000136733055,-0.13937300443649292,0.09229099750518799,0.03344300016760826,-0.05029299855232239,-0.17010800540447235,0.23273900151252747,-0.12600700557231903,0.020179999992251396,-0.027941999956965446,0.08008000254631042,-0.15492500364780426,0.20181100070476532,-0.07164499908685684,-0.008775000460445881,-0.04907599836587906,0.28210198879241943,-0.028030000627040863,-0.0721530020236969,-0.06347700208425522,-0.04567699879407883,-0.10324200242757797,-0.17666399478912354,-0.06900300085544586,-0.0034050000831484795,0.10757700353860855,-0.10452499985694885,-0.17850899696350098,0.1036359965801239,-0.0248819999396801,0.12773600220680237,-0.0770770013332367
货箱,0.19718000292778015,-0.05116700008511543,0.20061899721622467,-0.18005399405956268,0.15557000041007996,0.17424100637435913,0.13578200340270996,0.006453999783843756,-0.27552899718284607,0.13450199365615845,0.45375001430511475,0.32305899262428284,0.1813639998435974,-0.0818990021944046,0.12554800510406494,-0.06094000115990639,-0.019776999950408936,0.03401799872517586,-0.14621999859809875,0.012892000377178192,0.3021470010280609,0.06142299994826317,0.01627499982714653,0.2555609941482544,0.22889399528503418,0.07842899858951569,0.046296000480651855,-0.04377400130033493,-0.009531999938189983,0.06258899718523026,-0.10473799705505371,-0.17103399336338043,0.023225000128149986,0.15657299757003784,0.09781000018119812,-0.30226999521255493,-0.05486299842596054,0.11830700188875198,-0.2227019965648651,0.11361400038003922,-0.017865000292658806,0.08492200076580048,-0.36759600043296814,0.2686519920825958,0.0006929999799467623,-0.12354599684476852,-0.038398999720811844,0.05048200115561485,-0.008615000173449516,-0.12985199689865112,-0.25131699442863464,-0.04335299879312515,0.014395000413060188,0.036100998520851135,0.19098800420761108,0.28840699791908264,0.22042199969291687,-0.29322099685668945,-0.15713299810886383,-0.04284200072288513,0.31016799807548523,0.019460000097751617,-0.4406850039958954,-0.026078000664711,-0.19401699304580688,-0.1544879972934723,0.11389599740505219,0.04903300106525421,-0.15542200207710266,-0.21403999626636505,0.029247000813484192,0.026732999831438065,-0.1426679939031601,-0.08990900218486786,-0.24702900648117065,-0.17728400230407715,0.3155980110168457,-0.032958000898361206,0.01813800074160099,0.1345909982919693,0.14280399680137634,-0.036122001707553864,-0.048514001071453094,-0.2672309875488281,-0.10819000005722046,-0.015751000493764877,0.1258379966020584,0.17496199905872345,0.014882000163197517,0.08901199698448181,0.013028999790549278,0.010506999678909779,-0.21667200326919556,-0.17900699377059937,0.3649339973926544,-0.20979900658130646,-0.08564399927854538,-0.29111599922180176,-0.10591299831867218,-0.1658809930086136,0.06462500244379044,0.06415300071239471,-0.07546400278806686,-0.02557400055229664,0.020124999806284904,-0.1771399974822998,0.14209699630737305,-0.1117670014500618,-0.16008900105953217,0.03365600109100342,-0.24296200275421143,-0.06000199913978577,0.26019200682640076,0.07477899640798569,-0.07045900076627731,-0.2770189940929413,-0.11105400323867798,0.258650004863739,0.1608390063047409,0.16449500620365143,-0.4277060031890869,0.02113799937069416,0.24193599820137024,0.4563150107860565,0.2011909931898117,0.030868999660015106,0.03471300005912781,0.26848798990249634,-0.033403001725673676,0.1320679932832718,0.16098299622535706,-0.09040399640798569,0.06295999884605408,0.25506898760795593,-0.13632099330425262,0.04014499858021736,-0.31193798780441284,-0.03930699825286865,-0.23636400699615479,0.0381769984960556,0.06784400343894958,0.14344200491905212,0.21850800514221191,-0.036389999091625214,-0.19746500253677368,-0.030540000647306442,0.07747899740934372,0.16908800601959229,0.05979200080037117,0.07133500277996063,0.33983200788497925,-0.10849399864673615,0.09358999878168106,-0.07630699872970581,0.11133600026369095,-0.08695299923419952,0.3635239899158478,-0.20740899443626404,-0.028968999162316322,-0.019155999645590782,0.2189060002565384,0.1643339991569519,0.04887399822473526,0.03274400159716606,-0.0763619989156723,0.15064899623394012,-0.07066000252962112,0.05478699877858162,0.15467199683189392,0.1544869989156723,0.20544999837875366,0.14600400626659393,0.03790900111198425,-0.08958599716424942,0.0385730005800724,0.01000600028783083,-0.016719000414013863,0.22969099879264832,-0.22669799625873566,-0.019567999988794327,-0.03066899999976158,-0.0554330013692379,-0.29981398582458496,-0.08907900005578995,-0.1491290032863617,0.06333799660205841,-0.02509699948132038,0.0785830020904541,0.133760005235672,-0.024015000090003014,0.12313999980688095,0.0949539989233017,-0.07242000102996826,0.006587000098079443,0.17079100012779236,0.18623100221157074,-0.0051750000566244125,-0.05560600012540817,0.23940399289131165,-0.056547001004219055,-0.304051011800766,-0.12226100265979767,-0.09246300160884857,-0.210534006357193,-0.11078500002622604,-0.28179600834846497,0.3553679883480072,0.12995000183582306,-0.03401099890470505,0.22539299726486206,-0.2090359926223755,0.11862599849700928,-0.1821029931306839,-0.007677000015974045,-0.05232900008559227,-0.0730459988117218,-0.05405699834227562,-0.2481199949979782,0.038325998932123184,0.04346499964594841,-0.14530399441719055,-0.0825129970908165,0.1124270036816597,0.02044999971985817,0.014456000179052353,0.1490820050239563,0.21948200464248657,-0.09385199844837189,-0.24449199438095093,0.2911840081214905,-0.11698800325393677,-0.05859399959445,-0.10732000321149826,-0.1605280041694641,0.160288006067276,-0.13372400403022766,0.08070900291204453,-0.23398199677467346,0.09397199749946594,-0.06656300276517868,0.055077001452445984,-0.25000301003456116,0.09754899889230728,-0.24626100063323975,0.24675999581813812,0.063571996986866,0.0901700034737587,-0.34552299976348877,0.08400300145149231,0.3280259966850281,-0.016227999702095985,0.08798599988222122,-0.1686290055513382,0.026096999645233154,-0.16425199806690216,0.08849799633026123,0.007668999955058098,0.21897900104522705,0.13180400431156158,0.07128500193357468,-0.07160300016403198,-0.04966000095009804,-0.01997699961066246,0.10466299951076508,-0.08510000258684158,-0.39368098974227905,0.05948299914598465,0.000910000002477318,-0.1003429964184761,-0.008415999822318554,0.04029799997806549,-0.08696199953556061,0.045673999935388565,0.09084299951791763,0.3784349858760834,0.11515700072050095,0.031096000224351883,0.011428999714553356,-0.1692180037498474,0.009336000308394432,0.1875779926776886,-0.24530699849128723,0.029805000871419907,0.07349800318479538,-0.4109239876270294,0.1216920018196106,0.3063949942588806,0.10783799737691879,0.02943499945104122,-0.09273599833250046,-0.05670199915766716,-0.27536800503730774,-0.1349630057811737,-0.19404199719429016,0.2933189868927002,-0.08146800100803375,-0.07691500335931778,0.34580299258232117,0.15037399530410767,-0.04943300038576126,-0.17556999623775482,0.03264499828219414,0.20150700211524963,0.009185000322759151,-0.4467810094356537,0.1456959992647171,-0.2712399959564209,-0.09960699826478958,0.18871599435806274,0.3866479992866516,0.1533679962158203,0.14512600004673004,0.10339300334453583,-0.08779300004243851,-0.243027001619339,0.27571699023246765,0.06925500184297562,-0.12703900039196014,-0.3604460060596466,-0.2610760033130646,-0.06525799632072449,-0.11931999772787094,0.004929000046104193,0.08147300034761429,-0.013489999808371067,0.1974480003118515,-0.07679200172424316,-0.3353250026702881,0.08946599811315536,0.007553999777883291,-0.019943000748753548,-0.10098700225353241,-0.05291200056672096,-0.22745999693870544,0.19569900631904602,0.2164269983768463,-0.15704800188541412,0.11618500202894211,-0.22618600726127625,0.17284999787807465,-0.18565399944782257,-0.11559099704027176,-0.09841399639844894,-0.01966799981892109,0.11278100311756134,-0.23543000221252441,0.06325399875640869,-0.21682299673557281,-0.1424199938774109,-0.10572700202465057,-0.010568000376224518,0.12037000060081482,0.20470699667930603,-0.05815799906849861,-0.1695529967546463,0.09113799780607224,0.029666999354958534,0.3155440092086792,0.029155999422073364,0.035193998366594315,-0.02304599992930889,0.22498199343681335,0.08206500113010406,-0.3472749888896942,-0.2038629949092865,-0.24081499874591827,0.021275000646710396,-0.27803000807762146,0.29656898975372314,-0.041478000581264496,-0.009417000226676464,-0.09195999801158905,-0.1005920022726059,0.10407400131225586,-0.1735379993915558,-0.386011004447937,-0.15648099780082703,-0.00036800000816583633,-0.07822900265455246,-0.28682899475097656,0.13635100424289703,0.24450600147247314,0.014162999577820301,-0.05796800181269646,-0.09177800267934799,-0.03258199989795685,-0.01759600080549717,0.3270590007305145,0.11952900141477585,0.012261999770998955,-0.34946098923683167,-0.03282799944281578,-0.24486100673675537,-0.0800200030207634,-0.3230710029602051,-0.14145100116729736,-0.22323200106620789,-0.22105400264263153,0.10943900048732758,0.06333500146865845
最靠近,-0.008275999687612057,0.011032000184059143,-0.11047600209712982,-0.27453500032424927,0.14332599937915802,-0.13505299389362335,-0.20521000027656555,-0.048767998814582825,-0.19382800161838531,0.2745169997215271,-0.17530399560928345,-0.038701001554727554,-0.18303899466991425,0.07734400033950806,0.023607999086380005,-0.178615003824234,-0.1010890007019043,-0.012299999594688416,0.052041999995708466,0.14941400289535522,0.00801599957048893,-0.0602709986269474,0.20141999423503876,-0.133200004696846,-0.03915899991989136,-0.37682101130485535,-0.04074300080537796,-0.2772049903869629,-0.07979399710893631,0.17456400394439697,0.1173660010099411,0.10388399660587311,0.08433300256729126,-0.04946200177073479,0.1264829933643341,-0.4027999937534332,-0.005413999781012535,0.06437399983406067,0.08701200038194656,0.048760998994112015,-0.024133000522851944,-0.07960200309753418,0.09419400244951248,-0.07432299852371216,-0.13655099272727966,-0.05936799943447113,0.19466599822044373,-0.11259999871253967,0.22445499897003174,0.0968180000782013,-0.21691200137138367,-0.17111200094223022,-0.1252630054950714,-0.04150800034403801,-0.040091998875141144,0.1798669993877411,0.09196499735116959,0.138605996966362,-0.010513000190258026,0.004763000179082155,-0.09285999834537506,-0.09273900091648102,-0.1306460052728653,-0.12610800564289093,-0.1527629941701889,-0.015502999536693096,-0.11096499860286713,0.08267399668693542,0.03445199877023697,0.24435800313949585,-0.007943999953567982,-0.21097099781036377,-0.001673000049777329,-0.2591949999332428,0.18516899645328522,-0.015238000079989433,0.16031399369239807,0.02331399917602539,0.2774890065193176,-0.026384999975562096,0.252344012260437,-0.005760999862104654,0.20782800018787384,-0.054680000990629196,0.028193000704050064,-0.16091099381446838,-0.033966001123189926,0.3848089873790741,-0.25611698627471924,0.08786000311374664,0.2646870017051697,0.14873099327087402,0.2232159972190857,0.026624999940395355,0.05183799937367439,-0.09137099981307983,0.05218299850821495,0.22595199942588806,-0.18595300614833832,0.015359999611973763,-0.01321099977940321,0.09913799911737442,0.1901549994945526,-0.0716330036520958,-0.0351639986038208,0.08233500272035599,0.3246850073337555,0.2361229956150055,-0.09884700179100037,-0.03995800018310547,0.05558700114488602,0.166920006275177,-0.1812860071659088,-0.05515800043940544,0.11027800291776657,-0.1944960057735443,-0.15257300436496735,0.06147199869155884,0.0666700005531311,0.22723400592803955,0.24463599920272827,0.10749299824237823,0.0627330020070076,-0.02361300028860569,0.015778999775648117,0.1900400072336197,-0.10279600322246552,0.28972598910331726,-0.09265799820423126,0.14712199568748474,0.13279399275779724,0.1527010053396225,0.07128799706697464,-0.020827999338507652,-0.0926629975438118,-0.17895999550819397,0.047745998948812485,0.05726199969649315,-0.03196199983358383,-0.032152000814676285,0.00862099975347519,0.3221539855003357,0.2767859995365143,0.04963900148868561,-0.05839399993419647,0.11370799690485,-0.16772200167179108,-0.1986439973115921,-0.1292169988155365,-0.14403599500656128,0.017316000536084175,0.05506199970841408,0.010603999719023705,0.029725000262260437,0.046229999512434006,-0.05818000063300133,-0.17159299552440643,0.002280999906361103,0.27012699842453003,-0.10858400166034698,-0.14224199950695038,0.10399899631738663,0.0948920026421547,-0.11694099754095078,-0.0745600014925003,0.005834000185132027,-0.0342940017580986,0.020762000232934952,-0.020747000351548195,0.17559799551963806,-0.3495829999446869,0.2546760141849518,-0.06137099862098694,0.04583200067281723,0.44364500045776367,-0.1244560033082962,-0.23767000436782837,-0.06335999816656113,-0.04926000162959099,0.07002999633550644,0.016537999734282494,-0.20649099349975586,-0.11485400050878525,0.059404000639915466,-0.22917799651622772,-0.01956699974834919,0.11576800048351288,0.038346998393535614,0.04058799892663956,0.05438600108027458,-0.043056998401880264,0.3027470111846924,0.014518000185489655,0.06580100208520889,-0.20965099334716797,0.10240399837493896,0.010998999699950218,-0.06205200031399727,-0.32114800810813904,-0.1327420026063919,0.04365000128746033,0.11644700169563293,-0.07239100337028503,0.08890800178050995,-0.12172199785709381,-0.13269400596618652,-0.1067660003900528,0.2506760060787201,-0.38137900829315186,0.18360400199890137,0.09249900281429291,-0.015886999666690826,-0.28594300150871277,-0.16701099276542664,-0.056575000286102295,0.0880270004272461,-0.2949109971523285,-0.11875399947166443,0.03663000091910362,-0.16267900168895721,-0.09067600220441818,-0.4390209913253784,-0.04048600047826767,0.07668399810791016,-0.09151799976825714,-0.14324599504470825,0.16589100658893585,0.13658300042152405,-0.2550570070743561,-0.16034400463104248,-0.10934299975633621,-0.20338700711727142,-0.02158699929714203,0.044342998415231705,0.1693129986524582,-0.07010699808597565,0.17906400561332703,0.1914149969816208,-0.006543000228703022,-0.08394300192594528,-0.3119809925556183,-0.18883700668811798,-0.21224600076675415,0.24003900587558746,0.15289099514484406,0.006146000232547522,-0.035183001309633255,-0.3116089999675751,-0.29302000999450684,0.04805700108408928,0.17461200058460236,0.3290880024433136,0.22279800474643707,-0.1439480036497116,0.08133599907159805,0.011220999993383884,0.06541799753904343,-0.06423500180244446,0.059842001646757126,-0.1255829930305481,-0.2446420043706894,-0.044440001249313354,-0.05719799920916557,-0.09258700162172318,-0.13494400680065155,-0.1460220068693161,0.14987799525260925,0.31310799717903137,-0.15477100014686584,-0.22121299803256989,0.08236400038003922,-0.24670499563217163,0.09440500289201736,0.0007820000173524022,0.11314000189304352,0.30281201004981995,0.15210799872875214,0.4080730080604553,-0.04539699852466583,0.014990000054240227,0.06577300280332565,-0.08524999767541885,-0.14849500358104706,0.048888999968767166,-0.03789599984884262,0.09260299801826477,0.13629600405693054,0.06389500200748444,0.08823800086975098,0.17789100110530853,0.08306200057268143,-0.5363820195198059,0.0016329999780282378,-0.17134900391101837,0.07827000319957733,0.0448479987680912,-0.11033499985933304,0.03894000127911568,0.23252199590206146,-0.15687499940395355,0.24491800367832184,0.3595980107784271,-0.018415000289678574,-0.036593999713659286,-0.058194998651742935,-0.15636000037193298,0.023761000484228134,0.1531970053911209,-0.20625099539756775,0.084368996322155,-0.049396999180316925,0.09193400293588638,-0.19620199501514435,0.018105000257492065,-0.16092999279499054,-0.1699730008840561,-0.09623900055885315,0.03669000044465065,-0.11987199634313583,-0.10701300203800201,0.22101600468158722,0.47156399488449097,0.2621619999408722,-0.19823800027370453,0.18329599499702454,0.5582069754600525,-0.18538400530815125,0.05000599846243858,-0.06642600148916245,0.20038500428199768,0.45521101355552673,0.027806000784039497,0.22380800545215607,0.12403800338506699,-0.027705999091267586,-0.19837400317192078,0.10294800251722336,0.3535889983177185,0.10917200148105621,-0.010759999975562096,0.030267000198364258,-0.2966659963130951,-0.0187389999628067,-0.26808100938796997,-0.014986000023782253,0.16423800587654114,0.12631100416183472,0.004993000067770481,-0.18850000202655792,-0.2652069926261902,0.17962099611759186,0.07610899955034256,-0.17564399540424347,0.09015999734401703,0.1550379991531372,-0.023469999432563782,-0.14686299860477448,-0.09088800102472305,0.11290699988603592,0.6136119961738586,0.08206299692392349,0.133760005235672,-0.022665999829769135,0.20733299851417542,-0.048142001032829285,-0.12703600525856018,0.07800599932670593,-0.1852409988641739,-0.05588399991393089,-0.21343399584293365,-0.1356229931116104,-0.21035200357437134,0.002005999907851219,-0.43553200364112854,-0.03329100087285042,-0.3741160035133362,-0.1253110021352768,0.08202099800109863,0.18119500577449799,0.11890999972820282,0.1438560038805008,-0.1549450010061264,-0.1276790052652359,-0.11405199766159058,-0.3156920075416565,0.16173100471496582,0.16772499680519104,0.11833100020885468,0.015627000480890274,-0.18468500673770905,-0.1921509951353073,0.22549299895763397,0.04767100140452385,-0.08174200356006622,-0.06286700069904327,0.10590899735689163,-0.1259319931268692,-0.3714889883995056,0.03009900078177452,-0.28853198885917664
邻近,-0.359607994556427,0.20492400228977203,-0.06388799846172333,-0.07888200134038925,-0.03187499940395355,-0.15856300294399261,0.01756799966096878,0.03448399901390076,-0.29985201358795166,-0.2453940063714981,0.5109000205993652,0.2461400032043457,-0.1662680059671402,-0.08222199976444244,-0.2101220041513443,0.10684099793434143,-0.3096640110015869,0.0964139997959137,-0.03374899923801422,0.04040199890732765,0.2917580008506775,-0.25127801299095154,0.043995000422000885,0.11514800041913986,0.24519899487495422,-0.05746600031852722,0.06898300349712372,-0.019758999347686768,0.1098560020327568,0.13980400562286377,-0.16524100303649902,-0.1753470003604889,0.05585100129246712,0.22002899646759033,-0.08797399699687958,0.033626001328229904,0.21038299798965454,0.4234960079193115,-0.06267800182104111,0.06066799908876419,0.11140500009059906,0.1156499981880188,-0.4742400050163269,0.10029599815607071,-0.13072699308395386,-0.10832499712705612,-0.14001600444316864,-0.13259699940681458,-0.06280999630689621,-0.1132429987192154,-0.013778000138700008,-0.32487499713897705,-0.2708199918270111,-0.03624200075864792,0.13197200000286102,0.2018350064754486,0.1548060029745102,0.08797299861907959,0.1271660029888153,0.2967039942741394,-0.2661130130290985,-0.05004800111055374,-0.1719290018081665,-0.28294000029563904,0.1783279925584793,-0.32739201188087463,0.07919599860906601,0.08977100253105164,-0.04901000112295151,0.07966200262308121,-0.01243599969893694,-0.18675799667835236,0.3717400133609772,-0.14849600195884705,0.08465699851512909,-0.10253600031137466,-0.0642549991607666,-0.18052299320697784,-0.10789000242948532,-0.3743619918823242,0.1792609989643097,-0.0995979979634285,0.2997330129146576,0.09594699740409851,-0.03914999961853027,0.24266000092029572,-0.10584600269794464,-0.000981000019237399,-0.05335899814963341,-0.09414499998092651,0.08603599667549133,-0.20302699506282806,0.09122999757528305,-0.21831199526786804,-0.02928300015628338,0.0018500000005587935,-0.08698800206184387,-0.14001299440860748,0.12061099708080292,0.30994299054145813,0.21099500358104706,0.01722400076687336,0.057930998504161835,0.11639399826526642,0.07851900160312653,-0.15237100422382355,0.09455099701881409,0.15456600487232208,-0.05268700048327446,-0.07484299689531326,-0.006916999816894531,-0.2818889915943146,-0.049605999141931534,0.0036170000676065683,0.054409001022577286,-0.17355099320411682,-0.22679099440574646,0.025944000110030174,-0.19922800362110138,-0.08808699995279312,0.09865199774503708,0.21964000165462494,0.1408970057964325,0.049536000937223434,-0.17558999359607697,0.2912349998950958,-0.1220950037240982,0.41757500171661377,-0.14987100660800934,0.11499100178480148,-0.11548200249671936,-0.2203039973974228,0.12342800199985504,-0.41494399309158325,0.08175399899482727,-0.15679599344730377,0.14311499893665314,0.1378529965877533,0.01858000084757805,0.02253199927508831,0.056717999279499054,-0.2773660123348236,0.053332000970840454,0.3732599914073944,-0.13974900543689728,-0.04782800003886223,0.08921100199222565,-0.15973900258541107,-0.220333993434906,-0.12620800733566284,0.13797199726104736,0.02593499980866909,0.2146500051021576,0.0605509988963604,-0.12236099690198898,0.06059399992227554,0.0017869999865069985,0.2147040069103241,0.26874101161956787,-0.19338299334049225,-0.22161799669265747,-0.0065100002102553844,0.14882799983024597,-0.14223699271678925,-0.23629100620746613,-0.37206798791885376,0.17252400517463684,-0.14371000230312347,0.4162369966506958,0.20956499874591827,-0.1806579977273941,0.010784000158309937,0.24741500616073608,0.09836000204086304,-0.041503001004457474,0.005882999859750271,0.062125999480485916,-0.0741640031337738,0.05826700106263161,0.1044899970293045,0.0952180027961731,-0.1752150058746338,0.31216898560523987,0.06332799792289734,-0.11613500118255615,0.020255999639630318,-0.34179601073265076,-0.053925998508930206,-0.16723500192165375,-0.046911999583244324,0.01182200014591217,0.16433599591255188,0.24227799475193024,0.08626600354909897,-0.05094100162386894,0.020927000790834427,-0.00038400001358240843,-0.13502399623394012,-0.14253999292850494,-0.324398010969162,0.07541400194168091,0.09378000348806381,-0.14943000674247742,-0.06666000187397003,0.09254100173711777,-0.2987770140171051,-0.25958800315856934,0.19025300443172455,0.21379700303077698,-0.11238899827003479,-0.17197899520397186,0.23826700448989868,0.07561100274324417,0.11270000040531158,0.21905599534511566,-0.17771799862384796,-0.011070000007748604,0.11383700370788574,-0.015668999403715134,-0.344074010848999,0.1966259926557541,0.04206399992108345,0.05243200063705444,-0.3264999985694885,-0.21000300347805023,-0.16940100491046906,0.0881429985165596,0.16117900609970093,0.0276699997484684,0.15668900310993195,0.1280979961156845,-0.05653199926018715,-0.07987699657678604,-0.1747869998216629,-0.18237900733947754,-0.26559698581695557,0.154558002948761,-0.4102439880371094,0.04461300000548363,-0.00509499991312623,-0.15427599847316742,-0.09720899909734726,0.05607900023460388,-0.06867899745702744,0.08519899845123291,-0.1502390056848526,0.16736599802970886,-0.3654089868068695,0.07717200368642807,0.028483999893069267,-0.043202001601457596,-0.004342000000178814,-0.1441980004310608,-0.19527100026607513,0.05934600159525871,-0.019152000546455383,-0.13313600420951843,0.20140600204467773,-0.1027510017156601,0.08014699816703796,0.015812000259757042,0.22125199437141418,-0.08160199970006943,-0.14274799823760986,-0.0020759999752044678,0.10474500060081482,0.18053099513053894,0.08258099853992462,-0.015946999192237854,-0.07870499789714813,-0.11332999914884567,-0.2538680136203766,-0.1654379963874817,0.21687999367713928,0.026041999459266663,0.1226940006017685,-0.19094400107860565,0.09283299744129181,0.026798000559210777,0.041248999536037445,0.02251799963414669,-0.21491700410842896,-0.14558899402618408,0.10250499844551086,-0.16331499814987183,0.029160000383853912,0.12947000563144684,-0.06464400142431259,0.436924010515213,0.48701000213623047,-0.02366499975323677,-0.06282299757003784,-0.3498370051383972,-0.023736000061035156,0.10272199660539627,0.0046720001846551895,0.1274919956922531,0.13020199537277222,-0.07008499652147293,-0.09926199913024902,-0.30333998799324036,0.3978239893913269,-0.2878530025482178,0.08805999904870987,0.15598000586032867,-0.212008997797966,0.011424999684095383,0.02731500007212162,-0.05675699934363365,0.05616699904203415,-0.1262660026550293,-0.07437500357627869,0.15127000212669373,0.11408299952745438,-0.1445399969816208,0.1449420005083084,0.25732898712158203,-0.015468999743461609,-0.03524800017476082,-0.04024000093340874,0.12388399988412857,0.18591199815273285,0.14735600352287292,-0.1692589968442917,-0.09777099639177322,0.304841011762619,0.19300900399684906,-0.1036899983882904,0.12292400002479553,0.19421499967575073,0.07598099857568741,0.21838100254535675,-0.011691000312566757,-0.13568200170993805,0.15358200669288635,-0.14880600571632385,0.03930699825286865,0.018571000546216965,-0.15458400547504425,0.157259002327919,-0.08184599876403809,-0.05464499816298485,-0.08972600102424622,-0.08337900042533875,0.07639999687671661,-0.5254639983177185,0.17115899920463562,0.15078400075435638,-0.23285099864006042,-0.19985300302505493,-0.10979299992322922,0.18949200212955475,0.013609999790787697,-0.06554999947547913,0.37802600860595703,0.18521299958229065,0.1165200024843216,0.11118900030851364,-0.08817099779844284,-0.29844701290130615,0.06598199903964996,0.2031320035457611,0.29688501358032227,0.03997499868273735,0.07804299890995026,0.3767879903316498,-0.20444799959659576,-0.0715709999203682,-0.08417399972677231,-0.14506900310516357,-0.02195199951529503,-0.13905300199985504,0.15591900050640106,-0.2821989953517914,-0.17968299984931946,0.25359800457954407,0.06622900068759918,0.08018200099468231,-0.23755399882793427,0.23465900123119354,0.12410499900579453,-0.26968300342559814,0.11139900237321854,-0.05428500100970268,-0.3217509984970093,-0.380158007144928,-0.2586100101470947,0.1897139996290207,-0.40610000491142273,0.11107300221920013,-0.09828200191259384,-0.0837709978222847,-0.05067500099539757,0.007031000219285488,0.1273680031299591,0.10855899751186371,0.20464900135993958,-0.14116500318050385,-0.173007994890213,0.08293300122022629
