word,0,1,2,3,4,5,6,7,8,9,10,11,12,13,14,15,16,17,18,19,20,21,22,23,24,25,26,27,28,29,30,31,32,33,34,35,36,37,38,39,40,41,42,43,44,45,46,47,48,49,50,51,52,53,54,55,56,57,58,59,60,61,62,63,64,65,66,67,68,69,70,71,72,73,74,75,76,77,78,79,80,81,82,83,84,85,86,87,88,89,90,91,92,93,94,95,96,97,98,99,100,101,102,103,104,105,106,107,108,109,110,111,112,113,114,115,116,117,118,119,120,121,122,123,124,125,126,127,128,129,130,131,132,133,134,135,136,137,138,139,140,141,142,143,144,145,146,147,148,149,150,151,152,153,154,155,156,157,158,159,160,161,162,163,164,165,166,167,168,169,170,171,172,173,174,175,176,177,178,179,180,181,182,183,184,185,186,187,188,189,190,191,192,193,194,195,196,197,198,199,200,201,202,203,204,205,206,207,208,209,210,211,212,213,214,215,216,217,218,219,220,221,222,223,224,225,226,227,228,229,230,231,232,233,234,235,236,237,238,239,240,241,242,243,244,245,246,247,248,249,250,251,252,253,254,255,256,257,258,259,260,261,262,263,264,265,266,267,268,269,270,271,272,273,274,275,276,277,278,279,280,281,282,283,284,285,286,287,288,289,290,291,292,293,294,295,296,297,298,299,300,301,302,303,304,305,306,307,308,309,310,311,312,313,314,315,316,317,318,319,320,321,322,323,324,325,326,327,328,329,330,331,332,333,334,335,336,337,338,339,340,341,342,343,344,345,346,347,348,349,350,351,352,353,354,355,356,357,358,359,360,361,362,363,364,365,366,367,368,369,370,371,372,373,374,375,376,377,378,379,380,381,382,383,384,385,386,387,388,389,390,391,392,393,394,395,396,397,398,399
覆盖,-0.10708499699831009,0.07108700275421143,0.15042099356651306,0.10622800141572952,0.05356999859213829,0.06717599928379059,-0.1344269961118698,-0.0142639996483922,-0.15244899690151215,0.037262000143527985,-0.08550799638032913,0.03297099843621254,-0.09251599758863449,-0.039462000131607056,-0.11754599958658218,0.026184000074863434,-0.12839700281620026,-0.034299999475479126,0.1459980010986328,-0.03505700081586838,-0.12078999727964401,-0.15312600135803223,-0.1628209948539734,-0.10804799944162369,0.23408299684524536,-0.08667399734258652,-0.20233400166034698,-0.07552800327539444,-0.05999099835753441,0.02375599928200245,-0.027243999764323235,-0.22434599697589874,0.2701970040798187,0.035659998655319214,-0.3059470057487488,-0.37777000665664673,0.22044900059700012,-0.28666698932647705,-0.003068000078201294,-0.013093000277876854,-0.14804500341415405,-0.12032800167798996,0.06138800084590912,-0.16939599812030792,-0.04605799913406372,0.0638279989361763,0.03210100159049034,-0.08449800312519073,-0.030350999906659126,-0.20449000597000122,-0.08360700309276581,-0.03211800009012222,0.23038800060749054,0.14185699820518494,0.06826700270175934,-0.04486899822950363,0.0980449989438057,-0.03255299851298332,-0.12989799678325653,0.18199999630451202,0.14893800020217896,-0.13880999386310577,-0.13393299281597137,0.10192800313234329,0.05126100033521652,-0.08474600315093994,-0.1276489943265915,-0.05966100096702576,-0.0006769999745301902,0.24289099872112274,-0.12677399814128876,0.034616000950336456,0.020501000806689262,-0.08830499649047852,0.13049599528312683,-0.1349470019340515,0.25837400555610657,-0.10775800049304962,0.1087929978966713,0.026861000806093216,0.15605899691581726,-0.05254000052809715,0.005483000073581934,0.12218800187110901,0.043710000813007355,-0.13124699890613556,0.1533910036087036,-0.012143000029027462,0.04256400093436241,0.01837499998509884,-0.12648800015449524,-0.18967999517917633,0.07306300103664398,-0.02329700067639351,-0.025488000363111496,0.09495099633932114,0.008445000275969505,0.16661199927330017,-0.18790599703788757,0.24365800619125366,0.1593639999628067,-0.06448899954557419,-0.15500299632549286,-0.1454090029001236,0.047012001276016235,0.017294999212026596,0.060871999710798264,0.27498099207878113,-0.2548240125179291,0.03789399936795235,0.2684989869594574,0.05937600135803223,0.22356800734996796,-0.012126999907195568,0.1301950067281723,-0.20823900401592255,-0.031026000156998634,0.020222000777721405,-0.032892998307943344,-0.08908700197935104,-0.05709400027990341,-0.012094000354409218,-0.3961719870567322,0.24797900021076202,0.16364899277687073,-0.052935000509023666,-0.2752299904823303,0.16279800236225128,-0.20309799909591675,-0.04170899838209152,0.17088599503040314,0.11975999921560287,-0.19179099798202515,-0.08876000344753265,0.23070700466632843,0.10193400084972382,0.16175200045108795,0.10247000306844711,0.12470100075006485,0.3751649856567383,0.066771000623703,0.014104999601840973,0.017676999792456627,0.1971990019083023,-0.0804160013794899,0.04751100018620491,-0.14496199786663055,-0.37158501148223877,0.1257459968328476,0.03149300068616867,0.0729760006070137,-0.09603899717330933,-0.10996100306510925,0.016457999125123024,-0.2657729983329773,-0.015410000458359718,-0.14151500165462494,-0.09864699840545654,-0.07450299710035324,0.11351999640464783,0.0922740027308464,0.19915899634361267,-0.17150099575519562,-0.3330180048942566,-0.06475300341844559,0.1784220039844513,-0.21408799290657043,-0.06418599933385849,-0.12019900232553482,0.24906300008296967,-0.2961589992046356,0.062213998287916183,0.06064099818468094,-0.16299299895763397,0.04999300092458725,0.10326699912548065,0.045816998928785324,-0.04996800050139427,0.2815670073032379,0.0630749985575676,-0.13646699488162994,-0.18525399267673492,-0.1412470042705536,0.08328399807214737,-0.02857000008225441,-0.07058499753475189,0.20580600202083588,0.08658900111913681,0.15958799421787262,0.07794799655675888,0.032760001718997955,0.01961600035429001,0.1093280017375946,0.034644000232219696,0.05181000009179115,0.2184540033340454,0.08043999969959259,0.0228860005736351,-0.2520500123500824,0.0733880028128624,0.08877100050449371,-0.021189000457525253,0.00241199997253716,0.0896880030632019,-0.058928001672029495,-0.025916999205946922,-0.1070450022816658,-0.21351300179958344,0.0313819982111454,0.2518540024757385,-0.08640500158071518,0.021012000739574432,-0.07793299853801727,-0.1751600056886673,0.252360999584198,0.1636890023946762,-0.01705300062894821,-0.3222750127315521,0.2572779953479767,-0.14587000012397766,-0.06961099803447723,0.007774000056087971,0.05467100068926811,-0.015293000265955925,-0.250093013048172,0.1400350034236908,0.17515499889850616,-0.3607589900493622,-0.18353499472141266,0.09521599858999252,-0.023048000410199165,-0.10366299748420715,-0.008471000008285046,0.11218199878931046,0.1050809994339943,-0.17546799778938293,0.04169199988245964,0.32141900062561035,-0.166252002120018,-0.2147199958562851,-0.11852499842643738,-0.05330599844455719,-0.15018799901008606,-0.08605899661779404,0.18192599713802338,0.14126700162887573,0.09673400223255157,-0.024310000240802765,0.022096000611782074,0.25699201226234436,0.04669100046157837,0.19023099541664124,0.18416400253772736,0.12945400178432465,-0.15289999544620514,-0.04011699929833412,-0.1330759972333908,-0.08376400172710419,-0.08626499772071838,0.12454000115394592,-0.0376489982008934,-0.1674329936504364,-0.001066999975591898,-0.11089500039815903,-0.15655800700187683,-0.19168700277805328,-0.0076870000921189785,-0.07531200349330902,0.1391409933567047,-0.15276400744915009,-0.16025200486183167,0.10496199876070023,-0.06178100034594536,0.00803999975323677,-0.1323460042476654,0.13665300607681274,0.12693600356578827,0.24153399467468262,-0.09475100040435791,0.1514420062303543,0.11360999941825867,-0.12658900022506714,0.16768400371074677,-0.0012600000482052565,0.10991799831390381,-0.13459700345993042,0.1677989959716797,-0.16425399482250214,-0.11288999766111374,0.09141100198030472,-0.1502089947462082,0.1067890003323555,-0.07360400259494781,0.20280799269676208,0.00043799998820759356,0.05075500160455704,-0.07439400255680084,0.18149499595165253,-0.10045900195837021,0.10657499730587006,-0.026173999533057213,0.19826899468898773,0.2993839979171753,0.18241700530052185,-0.1355540007352829,0.15818800032138824,0.055649999529123306,-0.06792599707841873,0.0631060004234314,-0.11026900261640549,-0.0851840004324913,-0.05814500153064728,0.16579200327396393,-0.15224599838256836,-0.07840199768543243,0.38365399837493896,-0.10906299948692322,-0.037849001586437225,-0.016033999621868134,-0.09814299643039703,-0.060036998242139816,0.11684100329875946,-0.08209100365638733,-0.0027030000928789377,0.0839420035481453,0.2863529920578003,0.08970700204372406,0.10335399955511093,0.014386000111699104,-0.16074900329113007,-0.06529399752616882,-0.18389900028705597,-0.3008350133895874,0.10960599780082703,0.22937700152397156,0.21348600089550018,0.05968200042843819,-0.0509289987385273,-0.171083003282547,-0.11033900082111359,-0.15857699513435364,-0.02662000060081482,0.11594100296497345,-0.12943999469280243,0.09113200008869171,-0.11937999725341797,0.24899600446224213,0.35541200637817383,0.25842300057411194,-0.00801599957048893,0.05875999853014946,-0.17211799323558807,-0.04532000049948692,-0.08071999996900558,0.1436610072851181,-0.055399999022483826,0.0487929992377758,0.3260979950428009,0.15056400001049042,-0.12363900244235992,-0.06158600002527237,-0.030855000019073486,0.12429600208997726,-0.020235000178217888,-0.083467997610569,-0.24037300050258636,-0.024569999426603317,-0.17704099416732788,0.05371300131082535,-0.17122900485992432,-0.06521899998188019,-0.18538300693035126,-0.08068700134754181,-0.48916199803352356,-0.022252000868320465,-0.3743480145931244,0.08777999877929688,-0.21170100569725037,0.07218900322914124,-0.08119499683380127,-0.02687999978661537,0.13331200182437897,0.00305499997921288,0.033195000141859055,0.016773000359535217,0.14166699349880219,0.096049003303051,-0.07369299978017807,0.13400399684906006,-0.20129099488258362,-0.08035200089216232,0.018665999174118042,-0.026480000466108322,0.03762400150299072,-0.1308709979057312,0.06828799843788147,-0.1558389961719513,0.040731001645326614,0.0667250007390976,-0.08778999745845795
交叉,0.06319499760866165,0.12182900309562683,-0.07191400229930878,-0.19105899333953857,0.05542200058698654,0.06849700212478638,-0.004019000101834536,0.041790999472141266,0.255607008934021,0.13634400069713593,0.22235800325870514,-0.11303699761629105,0.22452899813652039,-0.03816699981689453,0.07630600035190582,0.1465359926223755,0.1225539967417717,0.14344799518585205,-0.03531099855899811,-0.009673000313341618,0.1247590035200119,-0.11056099832057953,0.2098030000925064,0.19033099710941315,-0.1770550012588501,0.03841099888086319,0.14013899862766266,-0.1528719961643219,-0.09465699642896652,0.04781299829483032,0.0067819999530911446,-0.2689040005207062,-0.07250899821519852,-0.11982599645853043,-0.061650000512599945,-0.1613049954175949,0.14773200452327728,0.05022599920630455,0.3368310034275055,-0.09828100353479385,0.42518800497055054,-0.13063299655914307,-0.02980099990963936,0.010188999585807323,0.028239000588655472,0.11710599809885025,0.0420060008764267,0.020173000171780586,-0.0707470029592514,0.12526600062847137,-0.011026999913156033,0.02542099915444851,0.12116699665784836,0.0009079999872483313,0.1972689926624298,-0.19791699945926666,-0.09861499816179276,0.17640100419521332,-0.30821600556373596,-0.09052299708127975,0.2550260126590729,0.12500999867916107,0.07643699645996094,0.0566370002925396,0.17004500329494476,-0.00018400000408291817,0.08011899888515472,0.014329000376164913,0.17905299365520477,0.18867899477481842,-0.06559400260448456,0.11766000092029572,0.17340700328350067,-0.3130809962749481,-0.12618699669837952,-0.15868699550628662,0.1702120006084442,0.20106199383735657,0.15246599912643433,0.06187500059604645,-0.19514599442481995,-0.15421099960803986,0.03263099864125252,-0.04423600062727928,-0.03982299938797951,-0.2092200070619583,-0.04176200181245804,0.14115500450134277,0.12332399934530258,0.024435000494122505,-0.005355999805033207,-0.02226400002837181,-0.023408999666571617,0.008441000245511532,-0.052590999752283096,-0.2703059911727905,-0.10728800296783447,-0.13835099339485168,-0.17828699946403503,0.11910700052976608,-0.02445800043642521,-0.11854299902915955,-0.023869000375270844,0.1393350064754486,0.0967089980840683,-0.061921000480651855,-0.12768299877643585,0.27637699246406555,0.22134800255298615,0.06335099786520004,0.1836179941892624,-0.008523999713361263,-0.10941299796104431,-0.06812100112438202,-0.08446100354194641,-0.29135799407958984,-0.015227999538183212,0.07930800318717957,-0.12026800215244293,0.09670600295066833,-0.008249999955296516,0.24403800070285797,-0.1527079939842224,-0.119439996778965,-0.045058999210596085,-0.1821269989013672,-0.1218630000948906,-0.16762800514698029,0.08487299829721451,-0.15760700404644012,-0.04364899918437004,0.15940499305725098,0.005189999938011169,-0.04632499814033508,0.20336799323558807,0.3169189989566803,-0.1869949996471405,-0.20160800218582153,-0.06932300329208374,0.020952999591827393,0.14341400563716888,0.050978001207113266,0.17990000545978546,0.08064199984073639,-0.02595899999141693,-0.09469500184059143,0.03637100011110306,0.018564999103546143,-0.24237200617790222,-0.24347800016403198,-0.015293999575078487,-0.133869007229805,0.07162400335073471,-0.18015000224113464,-0.18157300353050232,0.23083099722862244,-0.0032430000137537718,-0.17143100500106812,-0.009980999864637852,-0.1756490021944046,0.10322999954223633,0.09779199957847595,-0.046824000775814056,-0.09149999916553497,-0.2982270121574402,-0.003375000087544322,-0.0976720005273819,0.07658399641513824,-0.031116999685764313,-0.01902100071310997,-0.0429919995367527,0.24668100476264954,-0.20233500003814697,0.13565799593925476,-0.2467239946126938,-0.22423000633716583,0.16957899928092957,0.1869789958000183,0.09665600210428238,-0.06593699753284454,0.017103999853134155,-0.019449999555945396,0.03143399953842163,0.06537400186061859,-0.05647899955511093,0.047210998833179474,0.19974400103092194,-0.14051400125026703,0.17820000648498535,0.21804599463939667,0.051902998238801956,0.014359000138938427,0.04152299836277962,-0.1411450058221817,-0.062150999903678894,-0.13235199451446533,0.02761100046336651,-0.055355001240968704,-0.49904200434684753,0.09546200186014175,0.27101200819015503,0.04500399902462959,-0.05792199820280075,0.09663499891757965,-0.046973999589681625,-0.3526749908924103,-0.03663799911737442,0.039329998195171356,-0.15146100521087646,-0.04680300131440163,0.2896049916744232,-0.1078609973192215,-0.12473399937152863,0.10103099793195724,0.005824999883770943,0.20087699592113495,0.15484699606895447,-0.2726219892501831,0.11013200134038925,0.03738600015640259,-0.03414500132203102,-0.18370699882507324,-0.022461000829935074,-0.10299400240182877,0.04469500109553337,0.060054000467061996,-0.13549000024795532,-0.1543239951133728,-0.23017600178718567,0.07638999819755554,-0.17998099327087402,0.14059700071811676,-0.0899759978055954,-0.1228180006146431,0.0007469999836757779,-0.04704799875617027,-0.157027006149292,-0.05115300044417381,0.1932069957256317,-0.08856599777936935,-0.1375270038843155,0.2552570104598999,-0.12743499875068665,-0.1942169964313507,0.06784900277853012,-0.08633100241422653,-0.31520500779151917,-0.010340999811887741,-0.07783100008964539,-0.13607800006866455,-0.12127400189638138,0.3747810125350952,-0.24329400062561035,0.11309800297021866,-0.03640900179743767,-0.04104999825358391,0.058451998978853226,-0.22955599427223206,0.05714999884366989,-0.262813001871109,-0.016837000846862793,-0.006444999948143959,0.022384999319911003,-0.024454999715089798,0.18543200194835663,-0.03666200116276741,0.11948300153017044,0.3133560121059418,-0.5072609782218933,0.027573000639677048,-0.2123119980096817,0.1478389948606491,-0.20822300016880035,0.11819300055503845,0.13428300619125366,0.4368880093097687,0.36084499955177307,0.1883230060338974,-0.2592790126800537,0.15554499626159668,-0.20442600548267365,-0.005429999902844429,-0.052278999239206314,-0.05474900081753731,0.12699100375175476,0.05833299830555916,0.19602900743484497,0.1340080052614212,-0.0909229964017868,-0.09744200110435486,-0.07618000358343124,-0.12618200480937958,-0.22972899675369263,-0.1038770005106926,0.3666459918022156,-0.23948800563812256,-0.08034899830818176,-0.11598499864339828,0.03816799819469452,-0.07680600136518478,-0.014511999674141407,0.10736700147390366,0.2930760085582733,-0.10470499843358994,-0.00646999990567565,0.09720399975776672,-0.1461780071258545,0.008973999880254269,-0.10298600047826767,0.09402099996805191,-0.07203599810600281,-0.28488799929618835,0.06244799867272377,0.3175790011882782,0.07714000344276428,0.04826800152659416,0.08884900063276291,-0.06742899864912033,-0.11188499629497528,-0.17248299717903137,0.28073498606681824,0.4595470130443573,0.2183230072259903,-0.07127799838781357,0.023989999666810036,0.19601300358772278,0.10761599987745285,-0.01853800006210804,-0.34225600957870483,-0.05165800079703331,-0.09124100208282471,0.2708739936351776,-0.06654399633407593,0.013492999598383904,-0.13580399751663208,0.19124199450016022,0.022746000438928604,0.048037998378276825,-0.30912500619888306,-0.17272800207138062,-0.3537909984588623,-0.013078000396490097,0.0014609999489039183,-0.05343399941921234,0.02871900051832199,-0.1842530071735382,0.12972299754619598,0.07340200245380402,0.12771399319171906,-0.0840580016374588,0.03096099942922592,-0.10016199946403503,0.03386399894952774,0.22967199981212616,0.03494200110435486,0.08108100295066833,0.08211900293827057,0.3869810104370117,0.12476900219917297,0.037264999002218246,0.16538399457931519,-0.04886399954557419,-0.08076699823141098,0.2478870004415512,-0.060642000287771225,-0.2054699957370758,-0.15113599598407745,-0.027504000812768936,0.0027389999013394117,-0.1356469988822937,-0.08632300049066544,0.21767699718475342,0.10301099717617035,-0.1737930029630661,0.3106189966201782,-0.14897899329662323,0.024112999439239502,0.039549000561237335,-0.02966500073671341,0.0785830020904541,0.03758300095796585,0.12443500012159348,-0.11411000043153763,0.055142998695373535,-0.12979300320148468,0.08961000293493271,-0.1013450026512146,-0.0062939999625086784,-0.16304099559783936,-0.08884099870920181,-0.27044299244880676,0.09569700062274933,0.09048199653625488,-0.0882909968495369,-0.04051100090146065,0.22510600090026855,-0.19659200310707092,0.13609899580478668,0.28759199380874634,0.12216000258922577
结构,-0.10387799888849258,0.19047999382019043,0.007884999737143517,0.23587100207805634,-0.07377900183200836,0.07393199950456619,0.12839099764823914,0.03238299861550331,0.02906000055372715,0.13836699724197388,0.10149600356817245,0.016200000420212746,-0.1070299968123436,-0.007094999775290489,-0.11910299956798553,-0.19546900689601898,-0.12357799708843231,-0.21452899277210236,0.06391900032758713,-0.07276500016450882,-0.11603400111198425,-0.1465959995985031,0.2909800112247467,0.041012998670339584,0.23337900638580322,-0.007526000030338764,-0.11818099766969681,-0.0301900003105402,0.009575000032782555,0.1315930038690567,-0.030402999371290207,-0.040251001715660095,0.08240500092506409,-0.08298499882221222,0.012647000141441822,0.08403600007295609,0.1283629983663559,-0.007619999814778566,-0.0037070000544190407,0.15565699338912964,-0.06659100204706192,0.07191099971532822,-0.055410001426935196,0.06673700362443924,-0.09569499641656876,-0.16024400293827057,-0.05352399870753288,-0.008918000385165215,-0.0827770009636879,-0.1192530021071434,0.08794700354337692,7.300000288523734e-05,0.04438700154423714,-0.05553999915719032,0.12155400216579437,-0.03711400181055069,-0.11902199685573578,0.020646000280976295,-0.12375099956989288,0.08680900186300278,-0.020339999347925186,0.09387099742889404,-0.19592000544071198,-0.03541199862957001,0.08448299765586853,0.04224099963903427,-0.15518200397491455,0.06519799679517746,0.12429399788379669,0.22128300368785858,-0.22972600162029266,-0.09946499764919281,0.24435199797153473,-0.14662499725818634,0.1324000060558319,-0.22610700130462646,0.1992730051279068,-0.15137599408626556,0.09254200011491776,0.03675999864935875,0.033163998275995255,-0.2429399937391281,-0.059425000101327896,0.0114139998331666,-0.10440299659967422,0.0020240000449121,0.05067700147628784,-0.07207699865102768,-0.02884400077164173,0.2591240108013153,0.02319600060582161,-0.154898002743721,-0.2189989984035492,-0.21241599321365356,-0.12033600360155106,-0.08506699651479721,-0.010367999784648418,-0.06106200069189072,-0.1591310054063797,0.08631599694490433,0.17983099818229675,0.12513099610805511,-0.09564000368118286,0.16106000542640686,0.0075079998932778835,-0.04838699847459793,-0.038256000727415085,0.1771019995212555,-0.11774300038814545,-0.15312400460243225,0.06698399782180786,-0.0015950000379234552,-0.12154600024223328,-0.12143900245428085,0.17367799580097198,-0.17521199584007263,-0.27675899863243103,-0.07982999831438065,-0.15218199789524078,0.02615799941122532,0.12071199715137482,0.09132900089025497,0.18736900389194489,-0.032283999025821686,-0.24444499611854553,-0.058079998940229416,-0.35445499420166016,0.21758699417114258,-0.3086960017681122,-0.04879999905824661,0.06468299776315689,-0.09585099667310715,-0.12592999637126923,-0.09738700091838837,-0.03620300069451332,0.15463599562644958,0.014392999932169914,-0.27619999647140503,-0.03669299930334091,-0.11776500195264816,-0.1912669986486435,-0.0454769991338253,0.2966899871826172,0.07730899751186371,-0.14033900201320648,0.008061000145971775,-0.15071600675582886,-0.030598999932408333,-0.15188799798488617,-0.24206799268722534,0.19924600422382355,-0.27371901273727417,-0.2247229963541031,-0.07770200073719025,-0.06662900000810623,0.18659499287605286,-0.045462001115083694,0.11180999875068665,0.04298900067806244,-0.09106600284576416,0.047242000699043274,-0.006324999965727329,-0.06456899642944336,-0.17736800014972687,-0.05916899815201759,-0.224262997508049,-0.06805700063705444,0.07549700140953064,-0.007368999999016523,-0.002234000014141202,-0.08775799721479416,0.06348499655723572,-0.20086100697517395,0.1490669995546341,-0.13011600077152252,0.003452999982982874,0.14226199686527252,0.10008999705314636,0.06135400012135506,-0.23638500273227692,-0.20663100481033325,-0.10427100211381912,-0.021681999787688255,0.25183698534965515,-0.12553399801254272,-0.009180000051856041,0.0924139991402626,-0.14368000626564026,0.24244199693202972,0.2101999968290329,0.060770999640226364,0.2329780012369156,-0.09478099644184113,0.1469620019197464,0.08917699754238129,-0.051709000021219254,0.05651700124144554,-0.23735499382019043,-0.29229098558425903,0.06762199848890305,0.0982460007071495,0.09869600087404251,0.011487999930977821,0.2658360004425049,-0.005394000094383955,-0.3262070119380951,0.10465600341558456,-0.12680600583553314,0.12814299762248993,-0.026153000071644783,0.03730100020766258,-0.15775400400161743,-0.02248300053179264,-0.015506000258028507,-0.0706230029463768,0.0812079980969429,-0.01689000055193901,-0.1977510005235672,0.2633419930934906,-0.31321901082992554,0.03158999979496002,0.07498600333929062,0.0373230017721653,-0.05232999846339226,-0.011938000097870827,-0.17496299743652344,0.042298998683691025,-0.1462630033493042,-0.03561199828982353,0.06908199936151505,-0.22721999883651733,-0.03407200053334236,-0.09256400167942047,-0.010352999903261662,0.19079400599002838,0.06291399896144867,0.00660100020468235,0.12742699682712555,-0.01472499966621399,0.06554099917411804,-0.034616000950336456,0.01232299953699112,-0.03248300030827522,-0.0879959985613823,-0.17198899388313293,-0.021201999858021736,-0.1073869988322258,-0.07915700227022171,0.004567000083625317,-0.09053800255060196,0.07756199687719345,0.19401000440120697,-0.3614419996738434,0.11694300174713135,-0.08389399945735931,-0.19610899686813354,-0.04224399849772453,-0.047467999160289764,0.10668499767780304,0.2253189980983734,-0.01129900012165308,0.00020199999562464654,0.042906999588012695,-0.16061000525951385,-0.19081799685955048,-0.09408800303936005,-0.01942799985408783,0.12352699786424637,-0.2818849980831146,-0.17748500406742096,-0.16217300295829773,-0.14891600608825684,-0.24388399720191956,0.2445569932460785,0.08282499760389328,0.0874750018119812,-0.18144600093364716,-0.246411994099617,0.024764999747276306,-0.0021730000153183937,0.0011739999754354358,-0.21557499468326569,-0.14358100295066833,-0.06771299988031387,0.004062999971210957,-0.11117299646139145,-0.004234000109136105,0.009685000404715538,0.024514000862836838,-0.2417439967393875,0.06337600201368332,-0.16319400072097778,-0.1178169995546341,-0.004133000038564205,0.13326899707317352,-0.10305000096559525,0.07445599883794785,-0.3130039870738983,-0.02558699995279312,0.02637699991464615,0.04400999844074249,0.35801199078559875,0.23281699419021606,-0.02539999969303608,-0.05590000003576279,-0.10066600143909454,-0.08584199845790863,-0.01934799924492836,-0.10924500226974487,-0.1992889940738678,0.07553000003099442,0.13243499398231506,0.1373700052499771,-0.2013929933309555,-0.05343399941921234,0.14123399555683136,-0.041687000542879105,0.10322300344705582,-0.12714000046253204,0.001554999966174364,0.0935870036482811,0.17427200078964233,0.2654849886894226,-0.014592999592423439,-0.07353100180625916,0.16568000614643097,-0.05539499968290329,-0.10043200105428696,0.005177999846637249,-0.20380300283432007,-0.01231599971652031,0.15119799971580505,-0.05559200048446655,-0.07869599759578705,-0.004102000035345554,-0.011467999778687954,-0.0591760016977787,-0.12193600088357925,-0.12757299840450287,-0.08956900238990784,0.022153999656438828,-0.01405400037765503,-0.013131000101566315,0.022577999159693718,-0.052035000175237656,0.10606499761343002,0.3076370060443878,0.00915099959820509,-0.131181001663208,0.1622290015220642,0.048183001577854156,-0.09982799738645554,0.026093000546097755,0.025178000330924988,0.23737700283527374,-0.024080999195575714,0.13921800255775452,0.10886599868535995,-0.18140800297260284,-0.15930700302124023,0.03172300010919571,-0.1193849965929985,0.07578399777412415,0.06995099782943726,-0.25532200932502747,0.15534600615501404,-0.22662299871444702,-0.4506779909133911,-0.17705799639225006,-0.09722600132226944,-0.26242899894714355,-0.24496200680732727,0.14813299477100372,-0.24658800661563873,-0.0341930016875267,-0.16801400482654572,0.14407500624656677,-0.31435298919677734,-0.14970499277114868,-0.22102999687194824,0.231345996260643,0.14876200258731842,-0.25106701254844666,-0.0675709992647171,-0.03264300152659416,0.12041699886322021,-0.13175800442695618,-0.06503300368785858,0.06751099973917007,0.018641000613570213,-0.19486300647258759,0.09323199838399887,-0.009050000458955765,0.11298800259828568,-0.11795900017023087,0.18568600714206696,-0.14773499965667725,-0.2097810059785843,0.04362399876117706,-0.17069600522518158
安排,0.23853899538516998,-0.03702300041913986,0.02862199954688549,-2.099999983329326e-05,0.07530499994754791,0.18197700381278992,0.12091299891471863,0.30250900983810425,-0.006010000128298998,-0.08365800231695175,0.06581299751996994,0.021397000178694725,0.04415600001811981,-0.16978900134563446,0.03125600144267082,0.06604199856519699,0.10434599965810776,0.09510000050067902,-0.13248200714588165,0.0694890022277832,-0.007552000228315592,0.057665999978780746,0.002713999943807721,0.036896999925374985,0.09739000350236893,0.24032500386238098,-0.10253500193357468,-0.05637200176715851,0.1996680051088333,-0.0267730001360178,0.09052799642086029,-0.0480629988014698,-0.08197300136089325,0.2212579995393753,0.10365699976682663,-0.03491299971938133,-0.1119450032711029,-0.07358399778604507,0.048523999750614166,0.05329500138759613,0.06738200038671494,-0.22916899621486664,0.08551699668169022,0.1344349980354309,0.1418980062007904,-0.06488499790430069,0.2921940088272095,0.0984020009636879,-0.067951999604702,-0.037539999932050705,-0.006333999801427126,-0.16064700484275818,-0.06603100150823593,-0.009371000342071056,0.010212999768555164,-0.0820309966802597,-0.15535999834537506,0.1024560034275055,0.1893550008535385,0.22741299867630005,-0.06433100253343582,-0.10659000277519226,0.1613910049200058,-0.20041100680828094,0.007557000033557415,-0.03200500085949898,0.059567999094724655,0.014781000092625618,-0.06266800314188004,0.1390250027179718,0.11206100136041641,-0.11266700178384781,0.03614500164985657,-0.010022999718785286,0.1771250069141388,-0.07996200025081635,-0.1765419989824295,-0.18176999688148499,0.04983299970626831,-0.01081399992108345,0.1139649972319603,0.06035200133919716,0.008369999937713146,-0.07503999769687653,-0.0846640020608902,0.2396710067987442,0.11717800050973892,0.20283900201320648,0.05584900081157684,0.018316999077796936,0.014949999749660492,0.0676179975271225,-0.13197800517082214,-0.11555799841880798,0.07131300121545792,0.02132900059223175,0.020005999132990837,-0.2436710000038147,-0.22195500135421753,-0.02667500078678131,0.03203900158405304,0.001221999991685152,-0.18071499466896057,0.03734299913048744,-0.1339309960603714,0.05536000058054924,-0.05998700112104416,0.03708599880337715,-0.10217700153589249,-0.16805399954319,0.07832899689674377,0.12337800115346909,-0.20648999512195587,-0.18037499487400055,0.09179499745368958,0.10111399739980698,-0.15936200320720673,0.001905999961309135,-0.09554699808359146,0.012400999665260315,0.10269899666309357,-0.07301600277423859,0.1120079979300499,-0.052239999175071716,-0.14706499874591827,-0.04801199957728386,-0.029179999604821205,0.009173000231385231,0.04564199969172478,0.11447499692440033,0.014553000219166279,-0.05964900180697441,-0.0455860011279583,0.1165819987654686,0.07019200176000595,-0.18399199843406677,0.10734699666500092,0.20756599307060242,-0.07319100201129913,0.26225000619888306,0.15986500680446625,-0.14612500369548798,-0.003930000122636557,-0.20813800394535065,0.25385499000549316,-0.03235600143671036,-0.0265670008957386,0.01900400035083294,0.025960000231862068,0.038725998252630234,-0.14461900293827057,0.1774049997329712,0.017938999459147453,-0.221327006816864,0.0636420026421547,0.02181600034236908,0.03279599919915199,0.10565999895334244,-0.14258499443531036,-0.019488999620079994,-0.1282300055027008,-0.010878999717533588,-0.1905049979686737,0.013306000269949436,-0.02101599983870983,0.15136000514030457,-0.12909899652004242,0.002254999941214919,-0.1533759981393814,-0.08683399856090546,0.013937000185251236,0.09028799831867218,0.21774600446224213,0.07063300162553787,0.02001499943435192,0.07377299666404724,-0.0017549999756738544,0.07035599648952484,0.03541199862957001,-0.012742999941110611,-0.02586900070309639,-0.11960799992084503,-0.16223500669002533,0.026684999465942383,-0.0947209969162941,0.017278000712394714,-0.013288999907672405,0.14140400290489197,-0.0823189988732338,-0.16755999624729156,0.21028000116348267,-0.008879000321030617,0.07513699680566788,0.17423999309539795,-0.11067000031471252,-0.00405400013551116,-0.08110900223255157,0.0017350000562146306,-0.08827199786901474,-0.0006360000115819275,-0.19334599375724792,-0.17765100300312042,0.11456400156021118,0.01437699981033802,-0.10659199953079224,-0.16083499789237976,0.2226240038871765,-0.104312002658844,-0.009073000401258469,0.058320000767707825,0.0702660009264946,0.0667639970779419,-0.13882599771022797,-0.008274000138044357,0.05721699818968773,-0.01659500040113926,-0.03838000074028969,-0.2809869945049286,-0.020323000848293304,-0.2218479961156845,-0.07712200284004211,-0.027374999597668648,0.05291600152850151,-0.015494000166654587,0.12238200008869171,-0.11817900091409683,0.07855299860239029,-0.06973599642515182,-0.002761000068858266,-0.1245419979095459,0.09535200148820877,0.08567100018262863,-0.028853999450802803,-0.13334999978542328,0.2188889980316162,-0.006115000229328871,0.006006999872624874,0.07015000283718109,0.07030099630355835,-0.12120000272989273,0.014391000382602215,0.060137998312711716,0.023770000785589218,0.18854700028896332,-0.1077369973063469,0.14814700186252594,-0.004005999770015478,-0.31817299127578735,0.04448699951171875,0.11643300205469131,0.11135999858379364,-0.2810229957103729,-0.12480100244283676,-0.03704899922013283,-0.023646999150514603,0.2671450078487396,0.09332499653100967,-0.027073999866843224,-0.24140200018882751,0.06194600090384483,0.10559800267219543,-0.12449699640274048,-0.20294499397277832,0.007656999863684177,0.009959000162780285,-0.02929599955677986,0.007946999743580818,0.024901999160647392,-0.14389300346374512,-0.037351999431848526,-0.043021999299526215,-0.12067600339651108,0.16387200355529785,0.26855799555778503,-0.16878700256347656,-0.026016000658273697,-0.1554819941520691,-0.21140900254249573,-0.09866199642419815,-0.17830300331115723,-0.21378099918365479,0.08826400339603424,0.17911900579929352,0.06329900026321411,0.037696998566389084,-0.00020199999562464654,-0.012020000256597996,-0.16833899915218353,-0.03986699879169464,0.18066999316215515,-0.005429000128060579,-0.10555800050497055,-0.0265050008893013,-0.019356999546289444,0.2027290016412735,0.2073490023612976,-0.10235299915075302,0.009871000424027443,-0.035617001354694366,0.14329299330711365,-0.18937300145626068,-0.10403600335121155,-0.008553000167012215,-0.02449199929833412,0.125559002161026,0.041804999113082886,-0.011620000004768372,0.16923899948596954,-0.10353299975395203,-0.1596509963274002,-0.05943800136446953,0.1372399926185608,-0.11118800193071365,0.013965999707579613,0.06208200007677078,0.07326299697160721,-0.011486999690532684,-0.04907400161027908,-0.024819999933242798,-0.07537499815225601,-0.0055599999614059925,0.1050650030374527,0.12069199979305267,0.21268700063228607,0.09480100125074387,-0.05471799895167351,-0.11064500361680984,0.0729919970035553,-0.11694300174713135,-0.048257000744342804,0.057408999651670456,0.22782400250434875,0.05263400077819824,-0.08528400212526321,-0.1693200021982193,-0.025129999965429306,0.007286000065505505,-0.10281100124120712,0.05303499847650528,0.014879000373184681,-0.07724999636411667,-0.10160999745130539,-0.08185800164937973,0.14666099846363068,-0.018417000770568848,-0.17718200385570526,0.11290399730205536,0.09863799810409546,-0.1858139932155609,0.01180499978363514,0.0478379987180233,-0.04243899881839752,0.115447998046875,-0.1356389969587326,0.19863399863243103,-0.08374900370836258,-0.09767100214958191,0.18028099834918976,0.04340500012040138,0.0018090000376105309,0.08171100169420242,-0.011524000205099583,0.02660899981856346,-0.006105999927967787,-0.18764600157737732,-0.24811600148677826,-0.013294000178575516,-0.005113000050187111,0.16045799851417542,-0.10249900072813034,-0.1609880030155182,0.019185999408364296,0.001766999950632453,-0.09946499764919281,0.04017199948430061,-0.07662499696016312,0.12889400124549866,0.07709000259637833,0.1307229995727539,0.049233999103307724,-0.10905300080776215,-0.09506600350141525,-0.01199399959295988,-0.025138000026345253,-0.06247299909591675,-0.03769199922680855,-0.053043000400066376,0.09505999833345413,-0.02695699967443943,-0.22537900507450104,0.057844001799821854,-0.1806029975414276,-0.12680399417877197,0.07241600006818771,-0.1348779946565628,-0.058917999267578125,0.1009650006890297,-0.04302100092172623,-0.19450299441814423,0.05909999832510948
元件,-0.19882099330425262,-0.00443999981507659,-0.10644499957561493,0.0717260017991066,0.09822099655866623,-0.17577899992465973,-0.1334950029850006,0.0071669998578727245,-0.09043800085783005,0.010967000387609005,0.044815000146627426,0.16891899704933167,-0.15361499786376953,-0.1703840047121048,-0.21635200083255768,-0.28422099351882935,-0.08150400221347809,0.11135300248861313,-0.051190998405218124,-0.3719690144062042,0.18336600065231323,-0.26058799028396606,0.06908900290727615,-0.10771600157022476,0.2297309935092926,0.09961699694395065,0.14050300419330597,-0.08738800138235092,0.153997004032135,0.056056998670101166,-0.05814399942755699,-0.13512499630451202,-0.14892099797725677,-0.1570490002632141,-0.3305189907550812,-0.0806950032711029,-0.044978998601436615,-0.14800700545310974,-0.051555998623371124,-0.0010610000463202596,0.11213099956512451,-0.21405400335788727,-0.2063640058040619,0.1757259964942932,-0.011714000254869461,0.1948689967393875,-0.441554993391037,-0.24905100464820862,0.183445006608963,-0.09158200025558472,-0.36444199085235596,0.14309599995613098,-0.1893710047006607,-0.29442501068115234,0.1689939945936203,0.0006680000224150717,-0.35541000962257385,-0.022492999210953712,0.0571569986641407,0.11913499981164932,-0.076603002846241,-0.038398999720811844,-0.027475999668240547,-0.2711679935455322,0.24163299798965454,-0.07099799811840057,-0.03044999949634075,0.090549997985363,0.32630300521850586,0.38096800446510315,-0.18085700273513794,-0.012144999578595161,-0.13222399353981018,-0.13559499382972717,0.09846100211143494,0.29211100935935974,0.14627200365066528,0.15764400362968445,0.5815280079841614,0.3655250072479248,0.048622000962495804,-0.07721400260925293,-0.22518299520015717,-0.10507100075483322,-0.027413999661803246,-0.17169000208377838,-0.0359329991042614,0.18177899718284607,-0.22972999513149261,0.004745999816805124,-0.13596999645233154,-0.24852100014686584,-0.046202000230550766,0.08010199666023254,-0.0588890016078949,-0.05347200110554695,0.1491210013628006,-0.010526999831199646,-0.09699799865484238,0.0568230003118515,-0.03458400070667267,0.1882150024175644,-0.1367190033197403,-0.16053900122642517,0.23798200488090515,0.10730600357055664,-0.015483000315725803,0.06677500158548355,-0.11356399953365326,0.04317200183868408,-0.0861319974064827,0.1975570023059845,-0.1698800027370453,0.20113599300384521,0.1189190000295639,0.07291299849748611,0.09672799706459045,-0.13644300401210785,-0.23503300547599792,-0.0003370000049471855,0.16794699430465698,-0.034671999514102936,0.2256460040807724,-0.08883299678564072,0.10572899878025055,0.10741499811410904,-0.13602100312709808,0.23049099743366241,0.24426999688148499,-0.4846549928188324,0.2797499895095825,0.13262100517749786,-0.21793299913406372,-0.11343000084161758,-0.331928014755249,-0.05120899900794029,0.1244560033082962,-0.11136200278997421,-0.2932789921760559,0.041992999613285065,-0.3501960039138794,-0.038458000868558884,-0.04678000137209892,0.33171600103378296,-0.163782998919487,-0.13091899454593658,0.2115039974451065,0.028888000175356865,-0.22070400416851044,-0.12516100704669952,0.19208499789237976,-0.4893690049648285,0.23527200520038605,0.008191999979317188,0.21345999836921692,0.1279579997062683,0.14131799340248108,0.32456299662590027,0.1784760057926178,-0.19740399718284607,0.10221099853515625,-0.010878000408411026,-0.043095000088214874,0.14135999977588654,-0.17033199965953827,0.011603999882936478,-0.2816709876060486,0.027208000421524048,0.05891700088977814,-0.08903100341558456,-0.08115799725055695,0.05475199967622757,-0.46025899052619934,-0.18173100054264069,0.31338998675346375,-0.32080599665641785,0.25297099351882935,0.16255900263786316,-0.1979600042104721,-0.01119299978017807,-0.42190900444984436,-0.23816999793052673,-0.46136200428009033,-0.013929000124335289,0.08869999647140503,0.1727209985256195,0.138606995344162,0.20381200313568115,0.1414559930562973,-0.1951649934053421,0.05500200018286705,0.4117240011692047,-0.19926899671554565,0.01562800072133541,-0.2140139937400818,0.14768199622631073,-0.022948000580072403,0.01753699965775013,-0.012432999908924103,-0.1365939974784851,0.30495700240135193,0.10301800072193146,-0.36289501190185547,0.3021419942378998,-0.1304820030927658,-0.20784300565719604,0.3743770122528076,-0.3386029899120331,0.21346700191497803,-0.21399299800395966,-0.26431500911712646,-0.03777400031685829,0.009324000217020512,0.1766359955072403,0.2705110013484955,-0.16419999301433563,0.2290859967470169,-0.25778600573539734,0.17221400141716003,-0.09472999721765518,-0.28142601251602173,0.23957200348377228,-0.037397000938653946,-0.14878199994564056,-0.24796900153160095,-0.0826449990272522,0.11818300187587738,-0.06183300167322159,0.1453550010919571,0.26996898651123047,-0.23339200019836426,-0.20115500688552856,-0.0789019986987114,0.0021299999207258224,-0.09837400168180466,-0.19192400574684143,-0.1167059987783432,0.44034498929977417,-0.08163599669933319,-0.32714900374412537,0.06315600126981735,0.13809700310230255,0.471904993057251,0.12955999374389648,-0.03846000134944916,-0.11780200153589249,-0.08321700245141983,-0.005487999878823757,-0.25684601068496704,-0.5246109962463379,-0.1268710047006607,-0.35923200845718384,-0.011668000370264053,0.3931420147418976,0.32313498854637146,0.21760199964046478,-0.20341600477695465,-0.28936100006103516,0.3981519937515259,0.3148519992828369,0.08011599630117416,0.4336180090904236,0.15518499910831451,0.10787999629974365,0.1139409989118576,-0.2909420132637024,0.09125199913978577,-0.04976300150156021,-0.1510629951953888,0.023517999798059464,-0.4352329969406128,-0.2794159948825836,-0.5518720149993896,-0.09142900258302689,0.2087240070104599,0.1362690031528473,0.1153239980340004,0.07557199895381927,-0.08034499734640121,0.010386000387370586,-0.18199799954891205,-0.0686580017209053,0.13790899515151978,-0.2089949995279312,-0.139491006731987,-0.07496300339698792,0.16864299774169922,0.09911099821329117,0.17111100256443024,0.02562600001692772,0.20020200312137604,-0.03455499932169914,-0.23354999721050262,-0.1071069985628128,0.10105399787425995,-0.36378300189971924,-0.027240000665187836,0.16800299286842346,0.03314200043678284,0.03690199926495552,0.2163809984922409,0.3107930123806,-0.2130119949579239,-0.18617600202560425,0.07066600024700165,-0.1926019936800003,0.022895999252796173,0.3442389965057373,-0.29362499713897705,-0.32218000292778015,0.048496998846530914,0.017000000923871994,0.028257999569177628,0.03172900155186653,-0.06287600100040436,0.23879200220108032,0.051013000309467316,-0.2845740020275116,-0.18007899820804596,-0.04840100184082985,-0.19479399919509888,-0.04531500115990639,-0.0927330031991005,0.13375699520111084,0.15467099845409393,-0.160289004445076,-0.13958099484443665,-0.14173899590969086,0.11730699986219406,0.0010580000234767795,0.04923800006508827,-0.259674996137619,-0.344539999961853,-0.1594959944486618,-0.11653199791908264,0.01940999925136566,-0.1470620036125183,-0.322284996509552,-0.27663201093673706,0.042128000408411026,-0.06670399755239487,-0.20587700605392456,-0.14930899441242218,-0.11475899815559387,0.0709649994969368,-0.10791800171136856,0.19694100320339203,0.5701580047607422,-0.2458910048007965,-0.002107999986037612,-0.19631999731063843,-0.4780089855194092,-0.3329859972000122,-0.046339001506567,0.11481399834156036,-0.0735969990491867,0.03344399854540825,0.06552799791097641,0.24262599647045135,-0.1395139992237091,-0.1437080055475235,0.17416299879550934,-0.14439700543880463,0.17754599452018738,0.04470499977469444,-0.0022780001163482666,-0.24608799815177917,-0.2792850136756897,-0.13958300650119781,-0.36258000135421753,-0.2435780018568039,-0.23848199844360352,0.0674780011177063,-0.12060099840164185,0.05736900120973587,-0.18247100710868835,0.09192200005054474,-0.022242000326514244,-0.06468100100755692,0.05341099947690964,0.013069000095129013,0.3253679871559143,0.0945649966597557,0.3739120066165924,-0.14458799362182617,0.16052499413490295,0.057516999542713165,0.15924899280071259,0.01030499953776598,-0.18713699281215668,0.06285099685192108,0.09771999716758728,-0.28835099935531616,-0.14470499753952026,0.24163700640201569,0.21330200135707855,-0.4157769978046417,0.19905999302864075,0.22142699360847473,-0.09310399740934372
乘车,-0.2651669979095459,-0.3870530128479004,0.30714699625968933,0.2422720044851303,0.23620399832725525,-0.10381200164556503,-0.11962299793958664,-0.024210000410676003,0.07435999810695648,-0.04558100178837776,0.4854640066623688,-0.19754600524902344,-0.3062880039215088,-0.2948879897594452,-0.052111998200416565,-0.014161000028252602,-0.03263600170612335,0.5169079899787903,0.03033900074660778,0.06940899789333344,0.16248099505901337,-0.4109320044517517,-0.09825800359249115,-0.08359699696302414,0.19854900240898132,0.25275900959968567,-0.1395290046930313,-0.06447400152683258,-0.008833000436425209,0.16476599872112274,0.0023900000378489494,-0.10779300332069397,0.43801799416542053,0.23229199647903442,-0.1524379998445511,0.09846299886703491,-0.26845699548721313,0.11647100001573563,0.2541149854660034,-0.036653999239206314,-0.2788490056991577,-0.17408299446105957,-0.26856398582458496,-0.4157029986381531,0.17526300251483917,0.15838900208473206,0.4730069935321808,-0.15596500039100647,-0.005867999978363514,-0.32965201139450073,-0.37034299969673157,-0.17984899878501892,-0.10702600330114365,-0.09177999943494797,0.38843101263046265,0.2903450131416321,0.01474399957805872,0.1528400033712387,0.11501900106668472,0.025117000564932823,0.06673499941825867,-0.060155998915433884,0.0532039999961853,0.13668200373649597,-0.08222900331020355,0.042146001011133194,-0.12396200001239777,-0.07802300155162811,0.1690949946641922,0.11319600045681,0.2767229974269867,0.15157899260520935,0.4354749917984009,-0.1002030000090599,-0.03649599850177765,0.042862001806497574,0.0484590008854866,-0.2072950005531311,-0.12499299645423889,-0.05814699828624725,-0.015713000670075417,-0.23657600581645966,0.11782500147819519,-0.008324000053107738,-0.2826719880104065,0.28605398535728455,0.3613789975643158,0.06317800283432007,-0.15587599575519562,-0.06619100272655487,0.1400260031223297,0.17668099701404572,-0.054409001022577286,-0.23195800185203552,-0.1303730010986328,0.27055099606513977,-0.08481299877166748,0.155472993850708,-0.12692999839782715,0.15563100576400757,0.3799090087413788,-0.28042298555374146,-0.05545099824666977,-0.32076799869537354,-0.21620100736618042,-0.1720069944858551,-0.1820880025625229,-0.03569300100207329,-0.3937149941921234,0.00494900019839406,-0.2920689880847931,-0.4202989935874939,-0.1716880053281784,0.06544099748134613,-0.40699198842048645,0.019075000658631325,-0.3054159879684448,0.18501000106334686,0.012943999841809273,0.18824400007724762,0.10813499987125397,-0.021709000691771507,0.13151699304580688,0.3721340000629425,-0.1416269987821579,0.47112101316452026,-0.0815109983086586,0.19673100113868713,0.21447500586509705,0.24275699257850647,-0.10372799634933472,-0.3424859941005707,0.12473700195550919,0.033987998962402344,0.27104899287223816,0.28063899278640747,0.2714560031890869,0.19179299473762512,0.15353800356388092,0.18145500123500824,0.12960700690746307,-0.3596000075340271,0.09578400105237961,-0.26184600591659546,0.22110700607299805,0.4339269995689392,-0.29104599356651306,-0.21291899681091309,0.2006019949913025,-0.17003099620342255,-0.0021569998934865,-0.1768220067024231,0.1634099930524826,-0.33086299896240234,-0.3119660019874573,0.16618600487709045,0.09342200309038162,0.48172900080680847,0.1404390037059784,-0.5151969790458679,-0.30291101336479187,0.17949999868869781,-0.04822099953889847,0.15229199826717377,-0.304966002702713,0.057294998317956924,-0.06047099828720093,-0.14280499517917633,0.4756790101528168,-0.25252899527549744,0.14972400665283203,-0.17779600620269775,0.40824198722839355,0.005688000004738569,0.1256050020456314,0.010075000114738941,-0.0719589963555336,0.05481699854135513,-0.13877099752426147,0.07414799928665161,-0.19714699685573578,-0.23902300000190735,0.22316299378871918,-0.11769299954175949,-0.18007999658584595,0.26888999342918396,-0.2947700023651123,-0.1773809939622879,-0.08969900012016296,0.08775600045919418,-0.1445160061120987,0.16012999415397644,0.14150500297546387,0.08827699720859528,-0.1976809948682785,-0.18831999599933624,-0.423880010843277,-0.11497599631547928,-0.01827700063586235,-0.25949299335479736,-0.03101399913430214,-0.2772060036659241,-0.2679780125617981,0.06416700035333633,-0.06248300150036812,-0.16206499934196472,-0.19527700543403625,0.13224400579929352,0.20082800090312958,-0.35381099581718445,0.08372800052165985,0.31790998578071594,0.003894000081345439,0.0264040008187294,-0.058692000806331635,-0.10182999819517136,-0.020161999389529228,0.11331500113010406,0.10296899825334549,-0.32309600710868835,0.19937799870967865,0.1643269956111908,0.3138960003852844,0.061795998364686966,-0.02420100010931492,-0.13698400557041168,-0.20325200259685516,0.12306900322437286,-0.1490830034017563,0.015224000439047813,0.024908000603318214,-0.02329700067639351,-0.0744279995560646,0.22019599378108978,-0.18599200248718262,-0.2192080020904541,0.21512800455093384,-0.05249100178480148,0.056786999106407166,-0.22319699823856354,-0.3842320144176483,0.05278899893164635,-0.12702499330043793,-0.4115990102291107,0.10384900122880936,-0.375916987657547,-0.11764299869537354,-0.09834799915552139,0.22067299485206604,0.038784999400377274,-0.14897699654102325,-0.1200449988245964,-0.1576170027256012,-0.16349199414253235,-0.051173001527786255,0.13208599388599396,-0.14665499329566956,0.14626899361610413,0.2092210054397583,0.14559899270534515,-0.16793200373649597,-0.06687799841165543,-0.26257801055908203,-0.15850499272346497,-0.5060030221939087,-0.11399800330400467,0.065699003636837,0.009889000095427036,0.08338399976491928,0.15251100063323975,-0.37449100613594055,-0.3627699911594391,-0.044390998780727386,0.2207310050725937,-0.07367599755525589,0.08418300002813339,-0.41332998871803284,0.07659299671649933,0.08409900218248367,-0.12470699846744537,-0.07889200001955032,-0.5728999972343445,-0.16476300358772278,-0.18248200416564941,-0.14435699582099915,0.05560300126671791,-0.0803460031747818,-0.06602899730205536,0.44672301411628723,0.29182401299476624,0.24577300250530243,-0.2650560140609741,0.02657799981534481,-0.2963689863681793,0.11007200181484222,-0.3542110025882721,0.22884899377822876,-0.11022000014781952,0.24376200139522552,0.006136999931186438,-0.1298370063304901,0.38354000449180603,-0.05929400026798248,0.23788900673389435,0.05177199840545654,0.0008319999906234443,0.18262100219726562,-0.13772299885749817,-0.07452099770307541,-0.20884600281715393,-0.00419999985024333,0.232246994972229,0.5833020210266113,0.17399099469184875,-0.005594999995082617,-0.3230220079421997,0.12553200125694275,-0.036570001393556595,0.15208299458026886,0.1244020015001297,-0.020163999870419502,0.0817359983921051,-0.07186900079250336,0.1980080008506775,-0.1176529973745346,0.18762899935245514,0.144569993019104,-0.3066360056400299,-0.25181400775909424,-0.1624550074338913,0.3940719962120056,0.33939099311828613,-0.07819899916648865,-0.20545899868011475,-0.00585100008174777,0.43012499809265137,0.38977599143981934,0.10300400108098984,0.12936000525951385,-0.3303849995136261,-0.054864998906850815,-0.10116899758577347,-0.01979600079357624,-0.2414799928665161,0.08470100164413452,-0.3072650134563446,0.027587000280618668,-0.04322199895977974,-0.47577300667762756,-0.46712198853492737,0.3798080086708069,0.295958012342453,0.3536050021648407,-0.16107000410556793,0.26293298602104187,0.001728000002913177,-0.19144900143146515,-0.14045099914073944,0.09751500189304352,0.26590898633003235,0.26128798723220825,0.03272400051355362,-0.5523520112037659,-0.07439299672842026,-0.01043500006198883,0.007437000051140785,-0.17695599794387817,0.4514540135860443,0.10995499789714813,0.0529480017721653,0.1965399980545044,-0.5675979852676392,0.25184500217437744,-0.25422200560569763,0.27026599645614624,-0.07976599782705307,-0.21401099860668182,-0.17130500078201294,0.20305800437927246,0.1578350067138672,0.11841999739408493,0.040980998426675797,0.2806920111179352,0.6189060211181641,0.050214000046253204,0.16800400614738464,-0.4674000144004822,0.06355799734592438,0.10206200182437897,-0.17588399350643158,-0.1158050000667572,-0.20402100682258606,-0.3355729877948761,-0.1435839980840683,0.3704020082950592,0.24560600519180298,0.24177999794483185,0.047488998621702194,-0.03096500039100647,0.3911229968070984
增加,0.018175000324845314,0.16762499511241913,0.23900799453258514,-0.04467900097370148,0.09913899749517441,-0.13341200351715088,0.05216899886727333,0.1831440031528473,-0.01279900036752224,-0.14398199319839478,0.055656999349594116,-0.15643000602722168,0.06112299859523773,-0.05955599993467331,-0.14481599628925323,-0.02245499938726425,0.056432001292705536,0.15683600306510925,-0.1373399943113327,-0.13451999425888062,0.025877999141812325,-0.06935799866914749,-0.09895499795675278,-0.11746499687433243,0.10277500003576279,0.022929999977350235,-0.07048799842596054,-0.1371929943561554,0.05040200054645538,-0.07587499916553497,-0.071322001516819,-0.04836500063538551,0.13618500530719757,0.023821000009775162,0.0496239997446537,-0.07866500318050385,0.033966999500989914,-0.09551800042390823,0.12627699971199036,0.1944900006055832,0.06446199864149094,0.014952999539673328,-0.056356001645326614,0.19825400412082672,-0.04592600092291832,0.06526900082826614,0.18302799761295319,0.01407300028949976,-0.012095999903976917,-0.2710390090942383,-0.053603000938892365,-0.00912499986588955,0.004734999965876341,-0.03620300069451332,0.036111000925302505,0.12408500164747238,0.13899999856948853,-0.042399998754262924,0.14233799278736115,0.16878600418567657,0.04659299924969673,-0.11952099949121475,-0.07636100053787231,0.003269999986514449,0.07271900027990341,-0.04658700153231621,-0.09676399827003479,-0.13846099376678467,0.14263300597667694,-0.0888729989528656,0.003166999900713563,0.013989999890327454,-0.02740499936044216,0.13809999823570251,0.12052799761295319,-0.23850899934768677,-0.06125099956989288,0.14159800112247467,-0.027298999950289726,-0.23704899847507477,0.05743600055575371,-0.15276700258255005,-0.02576499991118908,0.00923100020736456,-0.008243000134825706,0.00868299975991249,0.061501000076532364,-0.10751300305128098,-0.043866001069545746,-0.08850599825382233,-0.00762900011613965,-0.09292600303888321,-0.017938999459147453,0.07885000109672546,0.07161899656057358,-0.11906400322914124,-0.09384699910879135,0.001724999980069697,-0.11997199803590775,-0.0667949989438057,0.12480399757623672,0.16681799292564392,-0.10796400159597397,-0.04110100120306015,-0.08483800292015076,-0.02601899951696396,-0.12065000087022781,-0.15630599856376648,-0.1373160034418106,-0.03885800018906593,-0.10336799919605255,0.037376001477241516,-0.0038759999442845583,0.054347001016139984,0.0029750000685453415,-0.0318479984998703,0.10271299630403519,-0.12564699351787567,-0.1726759970188141,-0.06005199998617172,-0.0348300002515316,0.0519770011305809,-0.13688300549983978,-0.19818100333213806,0.10958100110292435,0.16146600246429443,-0.13769599795341492,0.14263899624347687,0.24959099292755127,0.13155899941921234,0.38130998611450195,0.0648759976029396,-0.04963599890470505,-0.006794999819248915,0.06356500089168549,-0.0030580000020563602,0.08416300266981125,-0.14810499548912048,-0.04216200113296509,0.05098799988627434,0.011307000182569027,0.07272099703550339,-0.005623999983072281,-0.07486400008201599,-0.006560000125318766,0.07922700047492981,-0.09810400009155273,0.04229800030589104,-0.038913000375032425,-0.08763399720191956,0.027096999809145927,0.003387999953702092,0.02000500075519085,-0.012858999893069267,-0.14566799998283386,-0.035401999950408936,-0.12989500164985657,0.17378400266170502,0.07013300061225891,-0.10961800068616867,-0.18805600702762604,0.03353999927639961,-0.02015100046992302,-0.08186300098896027,-0.0877629965543747,0.08352100104093552,-0.23528699576854706,-0.1751140058040619,0.06270799785852432,-0.14563700556755066,0.02645600028336048,-0.06727000325918198,0.06907100230455399,0.0812389999628067,-0.01669199950993061,0.045736998319625854,-0.07297100126743317,-0.009336999617516994,0.026523999869823456,-0.021561000496149063,0.001373999984934926,-0.12092500180006027,-0.17305900156497955,-0.0893229991197586,-0.07144200056791306,0.03546300157904625,0.14996999502182007,0.00813400000333786,0.24260500073432922,0.20938900113105774,0.31352299451828003,-0.006792999804019928,0.041023001074790955,0.09044799953699112,0.06807100027799606,-0.03989100083708763,0.09176799654960632,-0.01975099928677082,-0.08266399800777435,0.020256999880075455,-0.09715399891138077,0.07617100328207016,-0.053084999322891235,-0.12365800142288208,-0.22804699838161469,-0.14526699483394623,-0.042149998247623444,-0.13353200256824493,-0.05085200071334839,-0.18356700241565704,0.10130900144577026,0.08901900053024292,-0.019153999164700508,0.11088500171899796,0.02575800009071827,-0.00853899959474802,-0.0029730000533163548,-0.19016699492931366,0.2047789990901947,-0.08064199984073639,0.0007650000043213367,0.012779000215232372,0.0968559980392456,0.13094699382781982,-0.04810599982738495,0.003897000104188919,-0.07604599744081497,-0.07972200214862823,-0.0758880004286766,-0.012582000344991684,-0.07871600240468979,0.052156001329422,-0.14235800504684448,-0.010313999839127064,0.1774590015411377,-0.16535800695419312,-0.21105900406837463,0.2389799952507019,-0.1302099972963333,-0.26549801230430603,-0.04568500071763992,-0.09237799793481827,0.04916200041770935,0.019078999757766724,-0.15645000338554382,0.12015999853610992,0.13144700229167938,-0.1883459985256195,0.1351490020751953,-0.02031099982559681,0.11814799904823303,0.01097199972718954,-0.3732280135154724,0.04133300110697746,-0.025293000042438507,-0.11348900198936462,-0.11281199753284454,0.004238999914377928,0.0593079999089241,0.14926600456237793,0.1390479952096939,0.10645599663257599,0.02558399923145771,-0.00012199999764561653,-0.219309002161026,-0.20706099271774292,-0.020387999713420868,-0.040869999676942825,-0.0037799999117851257,-0.06291799992322922,-0.3918919861316681,-0.1222279965877533,-0.1136389970779419,0.10581500083208084,-0.06825099885463715,0.12857399880886078,-0.05570099875330925,-0.04764999821782112,0.0011390000581741333,-0.043974000960588455,-0.023145999759435654,-0.06951200217008591,0.0012169999536126852,-0.17281900346279144,-0.004867000039666891,0.11456499993801117,-0.06089499965310097,0.07992400228977203,-0.023514000698924065,0.217071995139122,0.17475399374961853,-0.11076100170612335,-0.13029499351978302,-0.1462399959564209,0.19574199616909027,0.07027599960565567,0.10967600345611572,-0.03614300116896629,-0.07161000370979309,-0.035332001745700836,-0.26689401268959045,0.07131899893283844,0.1701200008392334,-0.15359100699424744,-0.11818800121545792,-0.20096200704574585,-0.03474599868059158,-0.10868799686431885,-0.2119619995355606,-0.15707899630069733,0.1231210008263588,0.0478300005197525,-0.05308299884200096,0.12640100717544556,-0.12657399475574493,0.10330899804830551,-0.1070609986782074,-0.2294279932975769,-0.0780469998717308,-0.043928999453783035,0.1660420000553131,-0.021547000855207443,0.002067999914288521,-0.0068339998833835125,0.0023870000150054693,-0.039751000702381134,-0.0039809998124837875,-0.10297299921512604,-0.019912000745534897,0.05664300173521042,0.15622800588607788,-0.0014189999783411622,-0.03510899841785431,-0.11715500056743622,0.046512000262737274,0.03703700006008148,-0.054416999220848083,-0.019375000149011612,-0.0437919981777668,0.06460099667310715,-0.1274619996547699,-0.022072000429034233,0.1509220004081726,-0.08249100297689438,-0.05705900117754936,-0.12664400041103363,0.2126380056142807,0.01075000036507845,0.09257300198078156,-0.0047969999723136425,-0.048478998243808746,-0.044426001608371735,0.022370999678969383,0.06017199903726578,0.20806600153446198,-0.09535600244998932,-0.16433699429035187,0.15651200711727142,0.006556999869644642,0.05704599991440773,0.12404300272464752,0.060940999537706375,0.05511799827218056,0.08465000241994858,-0.014840999618172646,-0.2545520067214966,0.1425420045852661,-0.09907300025224686,-0.1977269947528839,-0.10273300111293793,-0.11638399958610535,-0.22494399547576904,0.009320000186562538,-0.07261200249195099,-0.025544000789523125,-0.19527499377727509,0.09049499779939651,-0.02501099929213524,-0.2432350069284439,0.09177999943494797,0.20892800390720367,0.16938699781894684,-0.08896300196647644,0.07422299683094025,0.2631489932537079,0.12894900143146515,-0.08684299886226654,-0.1700039952993393,0.014152999967336655,-0.06724700331687927,-0.08626899868249893,0.1854410022497177,-0.06408099830150604,-0.02605300024151802,-0.0087890001013875,0.24962499737739563,-0.11235599964857101,-0.02727399952709675,0.056657999753952026,-0.05567700043320656
提供,0.002455000067129731,0.045531000941991806,0.004046000074595213,0.023377999663352966,0.01757900044322014,0.11446099728345871,0.11270900070667267,0.13097800314426422,0.014530000276863575,-0.22962400317192078,0.12921899557113647,-0.021150000393390656,-0.027046000584959984,-0.10646700114011765,-0.18408100306987762,-0.0493989996612072,-0.04067699983716011,-0.009978000074625015,-0.10078299790620804,-0.05992700159549713,0.12195400148630142,-0.009630000218749046,-0.06541799753904343,-0.026151999831199646,0.13285300135612488,0.2137790024280548,-0.14190199971199036,-0.022262999787926674,-0.13903500139713287,0.14546899497509003,0.07455900311470032,0.02510100044310093,0.037445999681949615,-0.06325100362300873,-0.08329299837350845,-0.2474440038204193,-0.17119699716567993,-0.10952399671077728,0.10894399881362915,0.12199100106954575,-0.08070400357246399,-0.12818199396133423,0.10157699882984161,0.18948400020599365,0.11191599816083908,-0.010595999658107758,-0.09369999915361404,0.16875800490379333,-0.012660999782383442,-0.17773400247097015,-0.0328340008854866,-0.00941499974578619,-0.04323200136423111,0.01432000007480383,0.026388999074697495,0.018843999132514,-0.20457300543785095,0.0959170013666153,0.17888300120830536,0.1807750016450882,-0.043772000819444656,-0.14669199287891388,-0.031293001025915146,-0.11085200309753418,0.2132679969072342,0.051649000495672226,-0.0020039998926222324,-0.07220599800348282,0.15405899286270142,0.13812300562858582,-0.12606200575828552,-0.10562600195407867,0.10123000293970108,0.10034800320863724,0.20756100118160248,-0.24317599833011627,0.039115000516176224,0.14870400726795197,0.2045460045337677,-0.1567469984292984,0.021161999553442,0.040105000138282776,0.05389099940657616,-0.13043899834156036,-0.09379100054502487,0.16772699356079102,0.21076899766921997,0.01612200029194355,-0.13613399863243103,0.16084599494934082,-0.07303199917078018,-0.08519700169563293,0.013636999763548374,0.020527999848127365,0.048503000289201736,-0.06316299736499786,-0.03247499838471413,0.03175799921154976,-0.0737060010433197,-0.09543000161647797,0.05906299874186516,0.13180099427700043,0.11523599922657013,0.04637200012803078,-0.05970799922943115,-0.015845999121665955,-0.13693499565124512,-0.14402399957180023,-0.03363899886608124,0.10431700199842453,0.001285000005736947,0.08585499972105026,0.05898499861359596,0.06268700212240219,0.07263500243425369,0.19646500051021576,-0.11571600288152695,-0.042980000376701355,-0.04303999990224838,0.07452700287103653,-0.015038999728858471,-0.14455300569534302,0.17107799649238586,-0.0013360000448301435,-0.09723799675703049,-0.013786000199615955,-0.08374299854040146,-0.06672900170087814,0.16377800703048706,0.11865299940109253,0.102122001349926,-0.15056699514389038,0.10741300135850906,0.05553299933671951,0.152320995926857,-0.10159199684858322,0.05529100075364113,0.056467000395059586,0.11947900056838989,0.012369000352919102,-0.03453399986028671,0.07584600150585175,0.05897299945354462,-0.09625399857759476,-0.17371200025081635,-0.04886399954557419,-0.1882150024175644,0.04972299933433533,-0.08919700235128403,-0.07321500033140182,-0.018668999895453453,-0.018334999680519104,0.0009800000116229057,-0.20003099739551544,-0.20104199647903442,0.07925699651241302,-0.0068259998224675655,0.013555999845266342,-0.029201000928878784,-0.2513970136642456,0.06407900154590607,-0.05552700161933899,0.03778399899601936,-0.010475999675691128,-0.07199899852275848,-0.08793999999761581,-0.23243999481201172,-0.0361189991235733,0.027164999395608902,-0.005369999911636114,0.19252100586891174,-0.04241500049829483,0.00570000009611249,-0.20238399505615234,-0.1015859991312027,-0.14369900524616241,-0.07839199900627136,0.06605199724435806,0.07906399667263031,-0.09650900214910507,0.06577199697494507,-0.11098700016736984,-0.06359100341796875,-0.08688200265169144,-0.10524000227451324,-0.07074400037527084,0.15388700366020203,0.025127999484539032,0.05618000030517578,0.15381699800491333,0.11041700094938278,0.015410000458359718,-0.020608000457286835,0.1710589975118637,0.03317200019955635,-0.056922998279333115,-0.0017239999724552035,-0.1863590031862259,-0.023528000339865685,-0.18112100660800934,-0.11470899730920792,-0.1150600016117096,0.08332200348377228,-0.08231599628925323,0.03387700021266937,-0.18878699839115143,0.13432000577449799,-0.09357299655675888,-0.03615399822592735,0.01838500052690506,0.07648299634456635,0.1801609992980957,-0.17978200316429138,0.016750000417232513,0.094930000603199,-0.09707900136709213,0.14006899297237396,-0.19831399619579315,0.33392098546028137,-0.08470799773931503,0.000493000028654933,0.22888100147247314,0.21695800125598907,0.08625499904155731,0.05017999932169914,-0.12515200674533844,0.08811599761247635,-0.10113099962472916,0.010764000006020069,-0.0531499981880188,0.04944099858403206,0.21093399822711945,-0.10394900292158127,0.010092999786138535,-0.00828499998897314,-0.20183899998664856,-0.09118200093507767,0.14753399789333344,-0.007625999860465527,-0.12297999858856201,0.12063000351190567,-0.02297000028192997,-0.0841590017080307,0.00876499991863966,-0.10653900355100632,-0.09445399791002274,0.08275599777698517,0.03071100078523159,0.14570100605487823,0.08797299861907959,0.009084000252187252,-0.12303300201892853,-0.09088300168514252,0.04544299840927124,-0.1678050011396408,-0.011959999799728394,-0.18362300097942352,-0.00688599981367588,0.083235003054142,0.13258199393749237,0.06408300250768661,0.0419979989528656,-0.04711500182747841,0.09583500027656555,-0.09704600274562836,-0.11403200030326843,-0.00039900001138448715,0.07543099671602249,-0.06592199951410294,0.10964400321245193,-0.1915760040283203,-0.26170599460601807,0.07434199750423431,0.005950999911874533,0.08979299664497375,0.0660799965262413,-0.11098500341176987,0.0030529999639838934,-0.05152000114321709,0.009236999787390232,0.21830600500106812,0.013233000412583351,-0.021400999277830124,-0.0466339997947216,0.006568000186234713,0.24835099279880524,0.007360999938100576,-0.1524049937725067,0.023295000195503235,0.16530099511146545,-0.07775600254535675,-0.12044999748468399,-0.02444699965417385,0.055296000093221664,0.17951400578022003,0.15807999670505524,-0.027389999479055405,0.0916609987616539,-0.00445199990645051,0.12132199853658676,0.20994199812412262,0.03348600119352341,-0.02861900068819523,0.06887000054121017,-0.10893499851226807,0.07392600178718567,-0.10666599869728088,0.017666000872850418,-0.17428100109100342,0.018360000103712082,0.07632099837064743,-0.0933379977941513,0.08173199743032455,-0.06024400144815445,-0.17790600657463074,0.305757999420166,-0.06202299892902374,-0.00043700000969693065,-0.12136700004339218,0.04578699916601181,-0.11342199891805649,0.13449999690055847,0.025560999289155006,-0.013829000294208527,0.10175000131130219,-0.043797001242637634,0.003106999909505248,-0.06823199987411499,-0.020570000633597374,0.016978999599814415,0.036201998591423035,0.08099500089883804,0.029696999117732048,0.1125589981675148,-0.07417000085115433,0.11278799921274185,-0.047874998301267624,-0.14242500066757202,-0.09226799756288528,-0.10641799867153168,-0.1258379966020584,-0.020155999809503555,0.039441999047994614,-0.029205000028014183,0.06578399986028671,-0.04141699895262718,0.12168099731206894,0.031348999589681625,-0.027533000335097313,-0.1426520049571991,0.18813300132751465,-0.23863600194454193,0.09271299839019775,-0.0031399999279528856,0.14581599831581116,-0.16329100728034973,-0.10648799687623978,0.22338999807834625,0.14680199325084686,-0.027410000562667847,0.1966879963874817,0.03316599875688553,-0.07938399910926819,0.005979000125080347,0.04971399903297424,-0.051562000066041946,0.16488899290561676,-0.16959500312805176,-0.08041299879550934,-0.15599800646305084,-0.17165599763393402,-0.18215100467205048,-0.022127000615000725,-0.10661300271749496,0.04844300076365471,-0.18170499801635742,0.10282900184392929,-0.08422599732875824,0.06231899932026863,-0.04602399840950966,-0.0006779999821446836,0.15698100626468658,0.21846699714660645,0.013265999965369701,0.07215400040149689,-0.04590800032019615,-0.17648500204086304,0.07009299844503403,-0.042511001229286194,0.0437530018389225,-0.03930500149726868,-0.08719699829816818,-0.006186999846249819,0.029769999906420708,-0.1053370013833046,0.1359899938106537,-0.08746299892663956,-0.04123200103640556,-0.014732000418007374,0.003843999933451414
形,-0.19425299763679504,0.006895000115036964,0.08254899829626083,0.06478600203990936,-0.16989600658416748,-0.11318899691104889,-0.05812299996614456,0.05733799934387207,0.16563299298286438,0.05389000102877617,-0.07203099876642227,0.23796899616718292,-0.0798880010843277,-0.15428300201892853,-0.06350699812173843,-0.07823000103235245,-0.15782199800014496,-0.019888000562787056,0.13509100675582886,-0.030727000907063484,0.10418900102376938,0.010444000363349915,0.02863899990916252,0.1388390064239502,-0.10928600281476974,0.019582999870181084,0.06773799657821655,-0.11437100172042847,0.10690800100564957,-0.10390599817037582,-0.11656200140714645,-0.2082349956035614,0.05578700080513954,0.06628499925136566,0.01464799977838993,0.24498000741004944,0.16861699521541595,0.10399600118398666,0.2509840130805969,-0.057346999645233154,0.0726030021905899,0.08176299929618835,-0.07852400094270706,-0.07324899733066559,-0.32607799768447876,-0.35337498784065247,0.07110200077295303,-0.1603890061378479,0.006409999914467335,-0.05381299927830696,-0.0804620012640953,0.1413870006799698,0.2731260061264038,0.2612839937210083,-0.10905800014734268,-0.09856799989938736,0.045763999223709106,0.012109999544918537,-0.131865993142128,-0.048454999923706055,0.19452999532222748,-0.02810399979352951,-0.10064800083637238,0.020553000271320343,-0.03981500118970871,-0.08489300310611725,-0.19581900537014008,0.18459099531173706,0.13102799654006958,0.18129000067710876,0.03305700048804283,0.1284330040216446,0.012171000242233276,0.33606600761413574,0.22548100352287292,-0.22540000081062317,0.30723199248313904,0.1488880068063736,0.27310800552368164,0.09422899782657623,-0.10249599814414978,-0.3029699921607971,-0.0914359986782074,-0.19358299672603607,0.12408799678087234,-0.14102399349212646,0.2095859944820404,0.05213199928402901,0.3212609887123108,0.18396000564098358,0.0061889998614788055,0.10791900008916855,0.38229599595069885,-0.1382959932088852,-0.05151199921965599,-0.032660000026226044,0.09054099768400192,-0.03499799966812134,-0.06777899712324142,0.13791799545288086,0.02878599986433983,0.013969000428915024,-0.15404999256134033,0.031821999698877335,-0.059404000639915466,0.08563400059938431,0.2851189970970154,0.364888995885849,-0.07091499865055084,-0.03817899897694588,0.015479999594390392,-0.1992350071668625,-0.21376000344753265,0.129940003156662,0.1996760070323944,-0.09266000241041183,-0.021049000322818756,-0.0862710028886795,0.09578300267457962,0.212335005402565,0.09319800138473511,0.0018629999831318855,0.12770600616931915,0.012236000038683414,-0.00877899955958128,-0.043177999556064606,0.08081399649381638,0.013407999649643898,-0.17246399819850922,0.06969799846410751,-0.04001900181174278,0.0066109998151659966,0.012041999958455563,-0.09852699935436249,0.013531999662518501,0.3986699879169464,-0.03825699910521507,-0.035705000162124634,0.04288699850440025,0.194474995136261,0.13106900453567505,-0.08630099892616272,0.1126129999756813,-0.04940199851989746,-0.08043999969959259,-0.1688529998064041,0.044036999344825745,0.0392099991440773,-0.04205000028014183,-0.16040900349617004,0.1780730038881302,-0.07221399992704391,-0.22645099461078644,0.07158000022172928,-0.24781300127506256,0.1367180049419403,0.11757499724626541,-0.012269999831914902,0.024783000349998474,0.11660800129175186,0.07512599974870682,-0.24703100323677063,-0.0691630020737648,-0.0489640012383461,-0.06339500099420547,-0.22283099591732025,-0.16726399958133698,0.22225800156593323,-0.2289460003376007,-0.07757499814033508,0.06535500288009644,-0.01147099956870079,-0.10477100312709808,0.09462899714708328,0.12845900654792786,-0.18235699832439423,0.018224000930786133,0.08666499704122543,-0.09073899686336517,0.04030900076031685,-0.23748700320720673,-0.10108800232410431,0.003951000049710274,-0.048409998416900635,-0.13806800544261932,0.17472900450229645,0.05539099872112274,0.04347499832510948,0.03825199976563454,-0.06749600172042847,-0.13507799804210663,0.07776500284671783,-0.08797899633646011,-0.032356999814510345,-0.050641000270843506,-0.15201100707054138,-0.14140400290489197,0.03680200129747391,-0.22495199739933014,0.2701190114021301,-0.08733899891376495,0.13958600163459778,-0.12501700222492218,0.05228399857878685,0.07918199896812439,-0.2619769871234894,-0.25754499435424805,0.14211200177669525,-0.022815000265836716,-0.05242700129747391,0.339044988155365,-0.12463399767875671,-0.09038600325584412,0.2458450049161911,-0.09668000042438507,-0.03281300142407417,-0.07676800340414047,0.01245300006121397,0.14781799912452698,0.018535999581217766,0.0014299999456852674,0.16986499726772308,0.12919199466705322,0.10001900047063828,0.15691600739955902,0.1924850046634674,0.13677699863910675,-0.01892700046300888,0.09194699674844742,0.07537800073623657,-0.0562409982085228,0.003106999909505248,0.04263700172305107,0.15808099508285522,0.2121559977531433,0.23249800503253937,-0.004490000195801258,-0.043859001249074936,-0.028286000713706017,-0.18328799307346344,-0.17997999489307404,-0.055445000529289246,-0.19839100539684296,-0.23069000244140625,0.09621500223875046,0.11929500102996826,-0.1013529971241951,-0.11350300163030624,-0.1271599978208542,-0.3065679967403412,-0.21693000197410583,0.09685199707746506,-0.005061999894678593,0.1136149987578392,-0.02559500001370907,-0.29243800044059753,0.05432499945163727,-0.0341930016875267,0.042068000882864,0.055142998695373535,0.17344799637794495,-0.07422000169754028,0.08216899633407593,-0.12765899300575256,-0.06654299795627594,0.0968329980969429,0.1300390064716339,0.05155999958515167,-0.18882900476455688,-0.16534100472927094,0.040665000677108765,0.10045599937438965,-0.09529799968004227,-0.05614199861884117,-0.2261819988489151,0.18074500560760498,-0.005181000102311373,-0.1677439957857132,0.03783100098371506,0.06705299764871597,-0.07141300290822983,-0.09083600342273712,-0.02996000088751316,0.1602019965648651,-0.020679999142885208,0.15407299995422363,-0.09678000211715698,0.005741000175476074,-0.07139100134372711,-0.2172269970178604,0.174576997756958,-0.1615689992904663,-0.32709699869155884,-0.16158699989318848,0.2291170060634613,-0.19016499817371368,0.03245899826288223,0.04914399981498718,0.13717399537563324,0.13675899803638458,-0.0024949999060481787,0.3299869894981384,-0.12120000272989273,-0.07461299747228622,0.14217999577522278,0.02650200016796589,-0.041009001433849335,0.2824769914150238,0.002297000028192997,-0.13295799493789673,-0.04039499908685684,-0.23965199291706085,-0.007302999962121248,-0.19295799732208252,0.22197900712490082,0.035471998155117035,0.09622199833393097,-0.17868399620056152,-0.0923369973897934,0.2660990059375763,0.007038000039756298,-0.12507900595664978,-0.04437699913978577,0.11564099788665771,-0.2373879998922348,0.20179499685764313,-0.03295399993658066,0.040509000420570374,0.053387001156806946,-0.15776899456977844,0.22057700157165527,-0.048840999603271484,-0.3052879869937897,0.10756699740886688,-0.006105999927967787,-0.1601870059967041,-0.10615699738264084,-0.16350799798965454,0.09115300327539444,-0.08256399631500244,-0.07794199883937836,-0.2917569875717163,0.09651000052690506,0.1920730024576187,-0.16450099647045135,0.22668799757957458,-0.03592799976468086,0.12863799929618835,-0.03010299988090992,0.011939000338315964,0.07559099793434143,-0.03700900077819824,0.017911000177264214,0.0014100000262260437,0.16356900334358215,-0.13865099847316742,0.21555599570274353,0.176938995718956,-0.014698999933898449,0.026979999616742134,-0.08097600191831589,0.037057001143693924,0.12292200326919556,-0.14220699667930603,-0.21555499732494354,0.03012399934232235,-0.1458660066127777,0.12098599970340729,-0.13721300661563873,-0.1828400045633316,0.038256000727415085,-0.0028899998869746923,0.03386799991130829,-0.33469000458717346,0.11880800127983093,-0.13684900104999542,0.22561000287532806,-0.3011539876461029,-0.0990540012717247,-0.3206520080566406,0.14360299706459045,0.19983799755573273,0.008570999838411808,0.04128500074148178,0.01697699911892414,0.19390100240707397,0.17486199736595154,-0.1482740044593811,-0.12040600180625916,-0.09322600066661835,-0.07935299724340439,0.16055700182914734,-0.09193599969148636,0.10881199687719345,-0.03993399813771248,0.16478799283504486,0.12420400232076645,-0.18303699791431427,-0.1236639991402626,-0.0036299999337643385
特别,-0.133309006690979,-0.07804799824953079,-0.18684899806976318,-0.10127300024032593,0.18211700022220612,0.11532499641180038,0.13340899348258972,0.11826000362634659,0.09171099960803986,-0.031099999323487282,0.07690100371837616,0.007885999977588654,-0.06769700348377228,0.006424999795854092,-0.05077100172638893,-0.0865510031580925,0.20634999871253967,-0.12173400074243546,0.08203399926424026,0.14646999537944794,-0.13478100299835205,0.060173001140356064,-0.11391899734735489,-0.04492399841547012,0.02956799976527691,0.12916299700737,-0.11687599867582321,0.11975400149822235,-0.02505899965763092,-0.0860069990158081,-0.018557000905275345,-0.07434599846601486,-0.05016100034117699,0.01825699955224991,-0.12882199883460999,0.09994900226593018,0.1259779930114746,-0.20090700685977936,0.0031270000617951155,-0.00446499977260828,-0.051878999918699265,0.020517999306321144,0.05378999933600426,0.015500999987125397,0.10915099829435349,0.07703600078821182,0.08848699927330017,0.05031599849462509,0.08139699697494507,0.27355700731277466,0.03274499997496605,0.003258999902755022,-0.00906199961900711,0.14256499707698822,0.03176200017333031,-0.11111599951982498,-0.2851549983024597,0.05538000166416168,0.11521100252866745,0.09173399955034256,0.1276639997959137,-0.043129000812768936,0.11212699860334396,-0.11511199921369553,0.009566999971866608,-0.028984999284148216,-0.05965900048613548,0.06775200366973877,0.11420600116252899,0.23441000282764435,0.06292600184679031,0.07866399735212326,0.0014130000490695238,-0.10718099772930145,0.056713998317718506,-0.029329000040888786,0.015506000258028507,-0.025456000119447708,0.11566700041294098,-0.13189800083637238,-0.07649199664592743,0.05651199817657471,-0.2427700012922287,-0.04419900104403496,-0.2968289852142334,-0.13424299657344818,-0.10012000054121017,0.16606199741363525,0.12134899944067001,-0.023723000660538673,-0.23448599874973297,-0.04438300058245659,0.24209000170230865,0.06395000219345093,0.027652999386191368,0.006068999879062176,-0.22959700226783752,-0.2111230045557022,-0.08865299820899963,-0.21750399470329285,-0.0016959999920800328,-0.029447000473737717,0.17028899490833282,-0.295181006193161,-0.20828600227832794,-0.14599700272083282,-0.17918400466442108,-0.17160099744796753,-0.04560200124979019,-0.11518800258636475,-0.190994992852211,0.25377899408340454,0.09836799651384354,-0.028738999739289284,0.14520199596881866,0.07723700255155563,-0.07092399895191193,-0.08953899890184402,-0.1341180056333542,-0.11493299901485443,-0.1284160017967224,-0.07562900334596634,0.0038930000737309456,-0.10674600303173065,-0.1007860004901886,0.1439400017261505,-0.2142760008573532,0.025210000574588776,-0.06630100309848785,0.029419999569654465,0.16268199682235718,-0.08402399718761444,-0.04002700001001358,0.12290400266647339,0.10604500025510788,-0.10121999680995941,-0.13752399384975433,0.09033499658107758,0.16576500236988068,0.13354900479316711,0.058208998292684555,-0.11283300071954727,-0.06804200261831284,-0.09220100194215775,-0.05181499943137169,-0.050951000303030014,0.06810099631547928,-0.1232289969921112,-0.012248000130057335,0.18577300012111664,0.16912400722503662,0.08436299860477448,0.12987299263477325,-0.15991899371147156,0.047926001250743866,0.06122000142931938,-0.05851399898529053,-0.02850699983537197,0.005667000077664852,0.142535999417305,-0.18253600597381592,0.061184000223875046,0.03450699895620346,-0.18288500607013702,-0.1018730029463768,-0.09289500117301941,-0.15319600701332092,0.04666300117969513,0.03376999869942665,0.10509400069713593,-0.06355299800634384,-0.07660999894142151,-0.02895900048315525,0.011501999571919441,0.05505700036883354,0.0646589994430542,-0.15838900208473206,-0.17138700187206268,-0.11575300246477127,-0.2331179976463318,-0.01904899999499321,0.04354399815201759,-0.15148000419139862,-0.15777799487113953,-0.04170000180602074,-0.08585699647665024,0.09418699890375137,0.042973000556230545,-0.03649599850177765,0.04696200042963028,0.007052000146359205,-0.1068200021982193,-0.20086699724197388,0.04029500111937523,-0.14987699687480927,-0.21217000484466553,0.08609700202941895,-0.0702349990606308,-0.08616700023412704,-0.019852999597787857,-0.13829800486564636,-0.11778099834918976,0.18367999792099,-0.16319799423217773,-0.0016609999584034085,-0.09619399905204773,0.033229999244213104,0.036090999841690063,0.053589001297950745,0.04460199922323227,0.26712098717689514,-0.04735700041055679,-0.07312899827957153,0.025429999455809593,-0.07398299872875214,-0.03197399899363518,-0.03390299901366234,-0.1250009983778,0.2402079999446869,-0.06567499786615372,0.2003449946641922,-0.08378800004720688,0.08384399861097336,0.18883900344371796,0.11130999773740768,-0.10724599659442902,0.057569000869989395,-0.17406000196933746,-0.0143630001693964,0.07568000257015228,-0.07019799947738647,-0.053488001227378845,0.18767699599266052,-0.17361299693584442,-0.050680000334978104,0.22625699639320374,0.025908000767230988,-0.06652700155973434,-0.05268000066280365,-0.032017000019550323,0.07711300253868103,0.0078039998188614845,-0.027208000421524048,-0.13808700442314148,-0.049267999827861786,0.013783999718725681,0.011919000186026096,-0.10967600345611572,0.1355219930410385,0.03941600024700165,0.21793800592422485,-0.11919499933719635,-0.12578099966049194,-0.08442500233650208,0.054478999227285385,-0.3685609996318817,-0.024979999288916588,0.06663200259208679,-0.07129699736833572,0.1931769996881485,0.12268199771642685,0.002535999985411763,0.04627799987792969,-0.2001650035381317,0.21069499850273132,-0.23977600038051605,0.06707599759101868,0.15484000742435455,0.022810999304056168,-0.11966600269079208,-0.2048110067844391,-0.00941300019621849,-0.08142100274562836,0.15751199424266815,-0.08622600138187408,0.25175100564956665,-0.02164600044488907,-0.14675700664520264,0.014038999564945698,0.014919999986886978,-0.2240930050611496,0.12807199358940125,-0.0814640000462532,0.18951700627803802,0.07290399819612503,0.09487000107765198,-0.20513999462127686,-0.30581900477409363,0.19049400091171265,0.07198899984359741,-0.0006000000284984708,-0.053644999861717224,0.03802099823951721,0.03897700086236,-0.051350999623537064,0.024839000776410103,0.02066499926149845,-0.0029150000773370266,0.08490700274705887,0.1412220001220703,-0.03004400059580803,-0.0005389999714680016,-0.055622998625040054,0.22457599639892578,0.22199900448322296,0.014108999632298946,-0.09323500096797943,-0.0380919985473156,0.10217200219631195,-0.04516499862074852,0.08732599765062332,0.13037200272083282,-0.07523500174283981,0.136572003364563,0.08177100121974945,-0.020746000111103058,0.3024600148200989,-0.045336998999118805,0.08344399929046631,-0.05990999937057495,-0.19917699694633484,0.008446999825537205,0.027494000270962715,0.07133600115776062,0.02250700071454048,-0.09015700221061707,0.0614439994096756,0.061191000044345856,-0.12114600092172623,0.05606500059366226,-0.09837400168180466,0.08830399811267853,0.09859299659729004,0.126009002327919,-0.12381400167942047,-0.05443599820137024,-0.03759700059890747,-0.06440100073814392,-0.0019229999743402004,0.10368900001049042,-0.13780200481414795,0.03037099912762642,-0.033351000398397446,0.058448001742362976,0.04928399994969368,0.0807889997959137,0.18791000545024872,-0.12119600176811218,-0.04291300103068352,-0.12296000123023987,-0.07189600169658661,-0.14886699616909027,-0.10701800137758255,0.003657999914139509,0.20558899641036987,0.007226999849081039,-0.16242699325084686,-0.11684300005435944,0.07687900215387344,-0.04502100124955177,-0.08882799744606018,-0.13731199502944946,-0.16301199793815613,-0.03692200034856796,-0.12975899875164032,0.07594200223684311,0.1495870053768158,0.03494599834084511,-0.09358599781990051,-0.049352001398801804,0.007000000216066837,0.0016880000475794077,0.2456659972667694,0.05464499816298485,0.042941998690366745,-0.05263499915599823,-0.2321780025959015,0.08657500147819519,-0.05195099860429764,0.10608600080013275,0.1714009940624237,-0.08477000147104263,-0.02092999964952469,-0.015312000177800655,0.06493200361728668,0.08572199940681458,-0.40692800283432007,-0.02761399932205677,-0.08134900033473969,-0.07993000000715256,-0.10412199795246124,-0.07427900284528732,-0.014902000315487385,0.1131030023097992,0.06917800009250641,0.13369399309158325,-0.0004020000051241368,-0.05979600176215172,-0.048872001469135284,0.017666000872850418
吸收,-0.17954200506210327,0.010494000278413296,0.05251400172710419,0.2238209992647171,0.13821500539779663,-0.1178859993815422,0.05685000121593475,-0.0739469975233078,-0.0271380003541708,-0.17245300114154816,0.017024999484419823,-0.2546350061893463,0.03331800177693367,-0.0897969976067543,-0.0978970006108284,-0.17824099957942963,0.007567000109702349,0.06715500354766846,-0.1693280041217804,-0.016457000747323036,-0.023034000769257545,-0.05877099931240082,0.10849999636411667,0.10376600176095963,-0.058403000235557556,0.08116500079631805,-0.1103300005197525,-0.018716000020503998,0.15672600269317627,-0.001145999995060265,-0.0322440005838871,0.07346499711275101,0.07862299680709839,-0.09031400084495544,-0.1346299946308136,-0.038610998541116714,-0.2042360007762909,0.050661999732255936,-0.010685999877750874,-0.007930000312626362,-0.12183299660682678,-0.1170009970664978,-0.0918779969215393,0.2655070126056671,0.27848100662231445,0.05183099955320358,0.1199679970741272,-0.05077999830245972,-0.11699099838733673,-0.11681599915027618,0.07513800263404846,-0.12208399921655655,0.21533900499343872,-0.020906999707221985,0.17828600108623505,-0.13726599514484406,0.017664000391960144,0.07222200185060501,-0.023148000240325928,0.2449679970741272,0.10507400333881378,0.12174200266599655,0.11981800198554993,-0.06401599943637848,0.05873199924826622,-0.040890999138355255,0.10627199709415436,-0.0579879991710186,0.13659000396728516,-0.09279599785804749,-0.15031099319458008,-0.291826993227005,-0.029541000723838806,0.017176000401377678,-0.05575200170278549,-0.17206700146198273,-0.07196100056171417,-0.005690999794751406,0.20565900206565857,-0.012667999602854252,-0.09299500286579132,0.10036999732255936,0.06139799952507019,0.022179000079631805,-0.027953999117016792,-0.02519799955189228,0.09737399965524673,0.05426599830389023,-0.1317259967327118,0.13519099354743958,0.18564000725746155,-0.13253100216388702,-0.2315090000629425,0.014375999569892883,-0.1637369990348816,-0.05162300169467926,0.021389000117778778,-0.07096199691295624,-0.08624599874019623,-0.0064210002310574055,0.21647199988365173,0.002877000020816922,0.09855599701404572,0.19004400074481964,0.037689998745918274,-0.05052800104022026,-0.3208720088005066,-0.060051001608371735,-0.08096099644899368,0.07139500230550766,0.11115700006484985,0.057718999683856964,0.06514299660921097,0.04778600111603737,0.13583000004291534,-0.08193100243806839,0.29343000054359436,0.2403859943151474,-0.1843709945678711,-0.2066269963979721,-0.16315600275993347,-0.05309399962425232,-0.1297840029001236,0.0164209995418787,0.08943799883127213,0.16032999753952026,-0.23588399589061737,-0.024080999195575714,0.12939800322055817,0.06672599911689758,0.08625199645757675,0.05626099929213524,-0.0397690013051033,-0.07977599650621414,0.0753450021147728,0.25418001413345337,-0.1485770046710968,-0.11147300153970718,0.15186600387096405,0.19738100469112396,0.05446900054812431,0.1431100070476532,-0.15770399570465088,0.06395799666643143,0.03449099883437157,0.160738006234169,-0.1575320065021515,0.1570490002632141,0.15107199549674988,-0.09561099857091904,0.0641150027513504,-0.16646000742912292,-0.06499800086021423,0.056873999536037445,0.02120799943804741,-0.09737599641084671,0.05874200165271759,-0.08292900025844574,0.13905100524425507,0.01016900036484003,-0.2626340091228485,0.1057559996843338,-0.05758599936962128,0.02938699908554554,-0.059985000640153885,-0.03396499902009964,0.11356599628925323,0.24608400464057922,-0.006529000122100115,-0.09624800086021423,-0.0012240000069141388,-0.010293000377714634,0.23698000609874725,-0.18887899816036224,0.09011100232601166,0.022506000474095345,-0.08522100001573563,0.1471959948539734,0.1898909956216812,-0.10054200142621994,0.03481400012969971,-0.2925879955291748,-0.14256300032138824,0.16453500092029572,-0.16512900590896606,-0.08486399799585342,-0.011490000411868095,0.03120799921452999,0.2980090081691742,0.007872000336647034,0.27367401123046875,-0.03798000141978264,-0.08817300200462341,0.20662200450897217,0.14308500289916992,-0.1674710065126419,0.16592900454998016,0.16246800124645233,-0.14510199427604675,0.05197399854660034,0.13950799405574799,-0.1001179963350296,0.04546299949288368,-0.08475299924612045,-0.24483099579811096,0.06718599796295166,0.21200799942016602,0.005206000059843063,0.06666599959135056,0.1115259975194931,-0.0025690000038594007,-0.17215900123119354,0.041436001658439636,0.11078500002622604,0.04445900022983551,0.029649000614881516,0.05511600151658058,0.11542599648237228,0.03432700037956238,-0.24034999310970306,0.0924689993262291,0.07427100092172623,0.3574160039424896,-0.062286000698804855,-0.11227300018072128,0.12938499450683594,0.006655000150203705,-0.0030449999030679464,-0.01076200045645237,-0.20146900415420532,-0.1268550008535385,0.17537499964237213,-0.22069799900054932,0.055876001715660095,-0.03435700014233589,0.017178000882267952,-0.1133899986743927,0.17505699396133423,-0.10894200205802917,0.04212399944663048,-0.10873399674892426,-0.13297399878501892,-0.1424809992313385,-0.12947100400924683,-0.03050599992275238,0.06045300140976906,0.136026993393898,-0.18053999543190002,-0.022110000252723694,-0.05080899968743324,-0.08769399672746658,0.07772599905729294,0.0033050000201910734,0.1384350061416626,-0.0032160000409930944,-0.13067199289798737,-0.05178999900817871,0.09327299892902374,0.06139399856328964,0.047178998589515686,0.044971998780965805,0.34764400124549866,0.018871000036597252,0.0969569981098175,-0.0675790011882782,-0.18480199575424194,0.018578000366687775,-0.02112100087106228,-0.001978999935090542,-0.08317200094461441,-0.158502995967865,-0.20036299526691437,-0.2154420018196106,0.0841120034456253,0.024839000776410103,0.14229799807071686,0.020596999675035477,-0.11370600014925003,-0.12457100301980972,0.1464110016822815,0.024147000163793564,-0.03857700154185295,-0.0048699998296797276,0.13019800186157227,0.0248780008405447,-0.05646999925374985,0.07632800191640854,0.054042998701334,0.06521599739789963,-0.23685400187969208,-0.1809380054473877,-0.051134999841451645,0.010641999542713165,-0.10110799968242645,-0.06154999881982803,-0.07069399952888489,0.0011149999918416142,-0.01196299958974123,-0.04174099862575531,-0.1527400016784668,0.051229000091552734,0.020208999514579773,0.16655200719833374,-0.1456259936094284,-0.07173299789428711,0.06463800370693207,-0.10971599817276001,0.08179599791765213,-0.09652700275182724,0.09187199920415878,-0.02095700055360794,-0.040803998708724976,-0.23748600482940674,0.1585880070924759,0.023121999576687813,0.05271400138735771,0.027067000046372414,-0.09242299944162369,-0.0653349980711937,-0.011939999647438526,0.09858900308609009,-0.0621969997882843,0.17274999618530273,-0.07951799780130386,-0.051663998514413834,-0.031874001026153564,-0.18326200544834137,-0.00977499969303608,0.07418899983167648,0.09491200000047684,0.01671699993312359,0.04854699969291687,0.03153499960899353,-0.2808629870414734,0.3588379919528961,-0.2435390055179596,0.08808799833059311,-0.04910900071263313,0.009591000154614449,-0.13797199726104736,-0.11076399683952332,-0.07013499736785889,0.08132799714803696,-0.09919700026512146,0.10298199951648712,-0.1325490027666092,0.18264900147914886,0.15846100449562073,-0.030206000432372093,-0.17487500607967377,-0.027199000120162964,0.13379299640655518,-0.07205399870872498,0.27035000920295715,0.15808700025081635,-0.2165360003709793,-0.18306800723075867,0.27988800406455994,-0.09934999793767929,0.012132000178098679,-0.25409600138664246,0.012090000323951244,0.08627200126647949,-0.20826800167560577,-0.15210600197315216,-0.21126200258731842,0.07779999822378159,-0.23320800065994263,-0.28947699069976807,-0.16304999589920044,-0.4062660038471222,-0.12095800042152405,0.023979999125003815,-0.2929820120334625,0.0065310001373291016,-0.10913299769163132,-0.19392700493335724,-0.27203500270843506,0.06064999848604202,0.2164440006017685,-0.10129799693822861,-0.04166899994015694,-0.2190289944410324,-0.076603002846241,0.1648239940404892,-0.03719199821352959,0.06503000110387802,-0.2901889979839325,0.02612300030887127,0.0986270010471344,-0.010753000155091286,0.1109979972243309,0.03270599991083145,-0.1576790064573288,0.17182399332523346,0.181550994515419,0.03642300143837929,-0.07026100158691406,0.10255499929189682,-0.24416999518871307
