word,0,1,2,3,4,5,6,7,8,9,10,11,12,13,14,15,16,17,18,19,20,21,22,23,24,25,26,27,28,29,30,31,32,33,34,35,36,37,38,39,40,41,42,43,44,45,46,47,48,49,50,51,52,53,54,55,56,57,58,59,60,61,62,63,64,65,66,67,68,69,70,71,72,73,74,75,76,77,78,79,80,81,82,83,84,85,86,87,88,89,90,91,92,93,94,95,96,97,98,99,100,101,102,103,104,105,106,107,108,109,110,111,112,113,114,115,116,117,118,119,120,121,122,123,124,125,126,127,128,129,130,131,132,133,134,135,136,137,138,139,140,141,142,143,144,145,146,147,148,149,150,151,152,153,154,155,156,157,158,159,160,161,162,163,164,165,166,167,168,169,170,171,172,173,174,175,176,177,178,179,180,181,182,183,184,185,186,187,188,189,190,191,192,193,194,195,196,197,198,199,200,201,202,203,204,205,206,207,208,209,210,211,212,213,214,215,216,217,218,219,220,221,222,223,224,225,226,227,228,229,230,231,232,233,234,235,236,237,238,239,240,241,242,243,244,245,246,247,248,249,250,251,252,253,254,255,256,257,258,259,260,261,262,263,264,265,266,267,268,269,270,271,272,273,274,275,276,277,278,279,280,281,282,283,284,285,286,287,288,289,290,291,292,293,294,295,296,297,298,299,300,301,302,303,304,305,306,307,308,309,310,311,312,313,314,315,316,317,318,319,320,321,322,323,324,325,326,327,328,329,330,331,332,333,334,335,336,337,338,339,340,341,342,343,344,345,346,347,348,349,350,351,352,353,354,355,356,357,358,359,360,361,362,363,364,365,366,367,368,369,370,371,372,373,374,375,376,377,378,379,380,381,382,383,384,385,386,387,388,389,390,391,392,393,394,395,396,397,398,399
方法,-0.02370999939739704,0.01142400037497282,0.02790299989283085,-0.06390500068664551,0.13582199811935425,0.11157800257205963,0.12834499776363373,0.09334699809551239,-0.19035999476909637,-0.10729700326919556,-0.007888000458478928,-0.17123299837112427,-0.022275999188423157,-0.07051800191402435,-0.09283699840307236,-0.034258998930454254,0.035287000238895416,-0.07516100257635117,-0.1693820059299469,-0.17639200389385223,0.07132700085639954,-0.13845700025558472,0.11153700202703476,0.16467200219631195,0.05359800159931183,0.028814999386668205,-0.058173999190330505,0.05637500062584877,-0.10795599967241287,0.0894249975681305,-0.002968000015243888,-0.007424000184983015,-0.07428299635648727,-0.06567800045013428,0.04590500146150589,-0.019639000296592712,0.16665099561214447,-0.008502000011503696,0.21191099286079407,-0.236627995967865,0.1322309970855713,-0.038033001124858856,-0.1328669935464859,0.032026998698711395,0.055452000349760056,-0.08637300133705139,-0.08231300115585327,0.0722389966249466,0.005166999995708466,-0.07226099818944931,0.06174999848008156,-0.13074900209903717,0.27921199798583984,-0.06206199899315834,0.037873998284339905,-0.2745569944381714,0.0539730004966259,0.14219099283218384,0.029908999800682068,0.03237500041723251,0.007792999967932701,-0.15175899863243103,0.07679100334644318,-0.09313900023698807,0.02751000039279461,-0.09666500240564346,0.02661599963903427,0.12596599757671356,0.03582800179719925,-0.032749999314546585,-0.08736799657344818,0.06215599924325943,-0.08726400136947632,0.05201900005340576,0.02066200040280819,-0.12874600291252136,0.1092350035905838,0.09507200121879578,0.12842999398708344,0.04549799859523773,0.016527999192476273,-0.03551299870014191,-0.05413400009274483,0.006306000053882599,-0.15010599792003632,-0.12530100345611572,0.16980299353599548,-0.022081999108195305,-0.10711800307035446,0.0018550000386312604,-0.013207999989390373,-0.1665779948234558,-0.13381999731063843,0.040608000010252,-0.08382699638605118,-0.1589599996805191,0.14773200452327728,0.1142750009894371,-0.1606059968471527,0.04836000129580498,0.27729201316833496,-0.04019999876618385,0.2690350115299225,0.013416999951004982,-0.012595999985933304,0.12927000224590302,-0.06291300058364868,0.11392000317573547,0.06332200020551682,-0.07164400070905685,0.01370800007134676,0.10075599700212479,-0.01785000041127205,0.027069000527262688,-0.03364599868655205,0.31790199875831604,-0.12462200224399567,-0.13106299936771393,0.12443400174379349,0.10192400217056274,0.09047699719667435,0.07626499980688095,0.07367700338363647,-0.08724500238895416,-0.15162299573421478,0.10551399737596512,-0.11331400275230408,-0.023930000141263008,-0.011067000217735767,-0.1531669944524765,-0.06482499837875366,0.06901499629020691,0.032329998910427094,0.1811870038509369,0.11351200193166733,-0.11771199852228165,0.02843499928712845,0.002736999886110425,-0.03283800184726715,0.035294000059366226,0.04912000149488449,0.04910700023174286,0.1368129998445511,-0.010350000113248825,-0.06244099885225296,-0.1112160012125969,-0.3278839886188507,0.2444320023059845,-0.06970000267028809,0.12315600365400314,0.011215000413358212,0.0856420025229454,0.15718799829483032,-0.005696999840438366,-0.2020300030708313,0.08238200098276138,-0.006310999859124422,0.08521699905395508,0.03729899972677231,-0.02157999947667122,0.04299499839544296,-0.08475799858570099,-0.11453299969434738,0.003573999973013997,-0.16287900507450104,0.06938900053501129,-0.002113000024110079,0.10904199630022049,0.10467399656772614,-0.165801003575325,-0.09791100025177002,0.20331600308418274,-0.20819500088691711,0.021407000720500946,-0.09759700298309326,-0.15926699340343475,-0.0330829992890358,0.1710900068283081,0.12228599935770035,0.02893799915909767,-0.0026000000070780516,-0.04454699903726578,-0.03410699963569641,0.10267200320959091,-0.1514980047941208,-0.07744699716567993,0.12461800128221512,0.09271399676799774,0.15689000487327576,0.10330399870872498,0.12710000574588776,-0.05955100059509277,-0.02079099975526333,-0.014372999779880047,0.1042179986834526,-0.11512500047683716,-0.1080550029873848,-0.023321999236941338,-0.07901199907064438,0.1504170000553131,0.047839000821113586,-0.019734999164938927,-0.00854399986565113,0.037115998566150665,-0.11560200154781342,-0.2144719958305359,0.23366600275039673,-0.1475829929113388,0.042433001101017,0.17430299520492554,-0.17644700407981873,0.15174500644207,-0.023990999907255173,0.13534599542617798,0.08750200271606445,0.08631400018930435,-0.019693000242114067,-0.07948099821805954,0.2175929993391037,0.09092599898576736,0.15605700016021729,0.12597300112247467,-0.01069399993866682,0.08455699682235718,0.06580399721860886,-0.17000900208950043,-0.1059269979596138,-0.035301998257637024,-0.19356900453567505,0.20213399827480316,-0.010305999778211117,-0.15167899429798126,0.013364000245928764,-0.01921599917113781,0.15851199626922607,-0.0929659977555275,-0.10652200132608414,0.011826000176370144,-0.20570099353790283,-0.14557300508022308,-0.09727200120687485,0.16617099940776825,-0.2280299961566925,0.13638299703598022,-0.29261499643325806,0.0849979966878891,-0.16148200631141663,0.05810699984431267,-0.11990399658679962,0.050930000841617584,0.09438099712133408,-0.32987600564956665,-0.09677299857139587,0.04833399876952171,-0.1865600049495697,0.10989899933338165,-0.012617000378668308,-0.07305099815130234,0.00967899989336729,0.06230099871754646,0.08687199652194977,0.08117599785327911,0.09621500223875046,-0.13200600445270538,0.05519599840044975,-0.09774000197649002,-0.1302659958600998,-0.09314099699258804,-0.036003001034259796,0.056306999176740646,-0.1450279951095581,-0.05255499854683876,0.018470000475645065,0.142084002494812,0.18251100182533264,0.01947700046002865,-0.1368439942598343,-0.05404200032353401,-0.004722000099718571,-0.14792299270629883,-0.1003590002655983,-0.028037000447511673,-0.07499299943447113,-0.022102000191807747,-0.053957998752593994,-0.03693300113081932,0.07817400246858597,-0.13155999779701233,0.005900000222027302,-0.08661500364542007,0.03545499965548515,-0.02196599915623665,0.07948199659585953,-0.13045799732208252,0.19844700396060944,-0.26783299446105957,0.17865100502967834,0.07852499932050705,0.2262679934501648,-0.03913300111889839,-0.12153200060129166,0.07184000313282013,-0.0712210014462471,-0.10776899755001068,-0.0811460018157959,-0.018240999430418015,0.020779000595211983,0.1879960000514984,0.09861700236797333,0.11163999885320663,-0.0587490014731884,-0.03752300143241882,-0.029503000900149345,0.002345999935641885,0.04194999858736992,-0.11756499856710434,-0.0044999998062849045,0.050988998264074326,0.09442199766635895,-0.05962499976158142,-0.06004299968481064,0.09153400361537933,0.013546000234782696,-0.0001740000006975606,-0.01594500057399273,-0.07365600019693375,-0.0055610002018511295,-0.03349899873137474,-0.017952000722289085,-0.038325000554323196,0.052021998912096024,0.11664800345897675,0.03700700029730797,-0.06325100362300873,0.14847800135612488,0.08038999885320663,0.26160499453544617,-0.08724799752235413,-0.17812199890613556,-0.22598400712013245,-0.1516689956188202,-0.09379000216722488,-0.02076300047338009,-0.0885939970612526,-0.05222199857234955,0.10673999786376953,0.20075799524784088,0.061980001628398895,-0.15366700291633606,-0.036931999027729034,-0.23329800367355347,-0.016672000288963318,0.02688400074839592,0.07303699851036072,0.09702800214290619,0.10941199958324432,0.008600999601185322,0.1953440010547638,0.04883100092411041,-0.022752000018954277,-0.24948300421237946,-0.026820000261068344,0.08867699652910233,0.06992299854755402,-0.04369499906897545,-0.1976580023765564,-0.03408300131559372,-0.06067800149321556,-0.2586210072040558,0.0026179999113082886,0.0345270000398159,0.09957200288772583,-0.048037998378276825,0.028992999345064163,0.14137199521064758,-0.09811100363731384,0.16112199425697327,-0.040794000029563904,-0.03723699972033501,0.06755100190639496,-0.07856299728155136,0.04073600098490715,-0.05284300073981285,0.15323400497436523,0.11980599910020828,0.03770099952816963,-0.15245500206947327,0.07767900079488754,0.12527300417423248,-0.03397800028324127,-0.120899997651577,0.19528299570083618,-0.1501529961824417,-0.043542999774217606,0.05975300073623657,0.2139340043067932,-0.13947199285030365,-0.07755199819803238,0.06074399873614311,0.05667300149798393
空挡,0.017914000898599625,0.03956399857997894,-0.042082998901605606,-0.029256999492645264,0.07596100121736526,-0.015549000352621078,0.002053000032901764,0.0945969969034195,-0.032561998814344406,-0.027992000803351402,-0.03856600075960159,-0.01811799965798855,-0.02546899951994419,-0.0703440010547638,0.02821899950504303,-0.07345499843358994,0.08622799813747406,-0.02979700081050396,-0.06442300230264664,-0.04418899863958359,0.07166600227355957,-0.08255799859762192,0.12413399666547775,0.08621600270271301,-0.013110999949276447,0.06612200289964676,-0.029322000220417976,0.048190001398324966,-0.02155200019478798,-0.07034599781036377,-0.059751998633146286,0.019708000123500824,-0.03195900097489357,-0.09868499636650085,0.08497600257396698,-0.05851899832487106,0.020237000659108162,-0.037303000688552856,0.10550999641418457,0.022606000304222107,-0.02877799980342388,0.01706700026988983,-0.08952999860048294,0.11715000122785568,-0.013590999878942966,-0.030726000666618347,0.008705000393092632,-0.0149959996342659,0.046863000839948654,0.009061000309884548,-0.09697400033473969,0.01536799967288971,0.057312000542879105,0.05991100147366524,0.07451099902391434,0.01863200031220913,-0.04079600051045418,0.001690999954007566,-0.06720200181007385,0.10538300126791,0.07568100094795227,0.03896600008010864,-0.017653999850153923,0.010898999869823456,0.03442300111055374,0.027567999437451363,0.009677999652922153,-0.020733999088406563,0.13796299695968628,0.02531599998474121,-0.05454900115728378,0.017659999430179596,-0.010526999831199646,-0.024289000779390335,0.06100599840283394,-0.062345001846551895,-0.04453599825501442,0.07948199659585953,0.07662200182676315,0.02876099944114685,0.0682850033044815,-0.1328440010547638,-0.07177700102329254,-0.061455998569726944,-0.0774490013718605,-0.05901100113987923,0.04102800041437149,0.10301700234413147,-0.04384699836373329,-0.02102700062096119,0.05685700103640556,0.030097000300884247,0.030835000798106194,-0.010697999969124794,-0.06123099848628044,-0.08410800248384476,-0.006835999898612499,-0.07190799713134766,0.07034800201654434,-0.03437900170683861,-0.02383499965071678,-0.004360000137239695,0.008914000354707241,-0.002706000115722418,0.03554899990558624,0.004910999909043312,-0.0073090000078082085,0.005638000089675188,0.004422999918460846,0.07658799737691879,0.12025400251150131,0.07763499766588211,0.022133000195026398,0.019130999222397804,0.048496998846530914,-0.018174000084400177,-0.030293000862002373,-0.006029999814927578,-0.046220000833272934,0.1530359983444214,-0.06448099762201309,0.12690599262714386,-0.1108739972114563,0.014700000174343586,-0.02237899973988533,0.12199799716472626,-0.08174499869346619,0.044256001710891724,0.13033799827098846,0.010301000438630581,0.023159999400377274,0.027629999443888664,0.1732030063867569,0.004002000205218792,-0.14379499852657318,-0.03900200128555298,0.02089099958539009,0.004201999865472317,-0.10198800265789032,0.12304200232028961,0.019373999908566475,0.11888299882411957,0.12449199706315994,-0.10447899997234344,-0.06406699866056442,-0.054030001163482666,-0.06237100064754486,0.052129000425338745,-0.036719001829624176,-0.055907998234033585,-0.10673800110816956,-0.050916001200675964,-0.00609100004658103,0.06817899644374847,0.1010499969124794,-0.015135000459849834,-0.0030060000717639923,-0.023361999541521072,0.035002999007701874,-0.018518000841140747,-0.06579700112342834,-0.061918001621961594,-0.047203000634908676,-0.04326599836349487,0.001294999965466559,0.03237399831414223,-0.02760699950158596,0.047363001853227615,0.009970000013709068,0.0147280003875494,-0.0031419999431818724,0.15658000111579895,-0.08261500298976898,0.07873199880123138,-0.06103599816560745,-0.011025000363588333,-0.21020199358463287,0.0654359981417656,0.0389069989323616,0.016787000000476837,0.025645999237895012,-0.1183290034532547,-0.21413299441337585,0.1007779985666275,-0.10149899870157242,-0.05764700099825859,0.1261100023984909,0.04167399927973747,0.1580210030078888,0.1295730024576187,0.12081000208854675,0.07956299930810928,-0.020898999646306038,0.05494299903512001,-0.05340899899601936,-0.14560499787330627,0.04711100086569786,0.004982999991625547,-0.1114329993724823,-0.07785800099372864,-0.02832699939608574,-0.041064999997615814,0.028843000531196594,-0.08261799812316895,-0.07308900356292725,-0.10523799806833267,0.14859700202941895,0.007584999781101942,0.12954699993133545,-0.034556999802589417,0.02213899977505207,-0.024477999657392502,-0.07496699690818787,-0.03516700118780136,0.004920999985188246,0.00445799995213747,0.016614999622106552,-0.07861100137233734,0.035617999732494354,-0.017660999670624733,-0.06035299971699715,-0.007209000177681446,-0.06495899707078934,-0.13989800214767456,-0.00916100014001131,0.08956000208854675,0.041701000183820724,-0.0032770000398159027,0.04120500013232231,0.06173599883913994,-0.10972599685192108,-0.08021099865436554,0.07364600151777267,0.04279100149869919,0.02562200091779232,-0.05981599912047386,-0.08902599662542343,0.054930999875068665,-0.1094919964671135,-0.10835999995470047,-0.0808039978146553,0.0142639996483922,-0.03459399938583374,-0.08296699821949005,0.08235400170087814,-0.012880000285804272,-0.014303999952971935,-0.039117999374866486,-0.04356899857521057,0.003232999937608838,0.1537099927663803,-0.07178200036287308,0.018118999898433685,0.11833599954843521,-0.10171400010585785,0.025412000715732574,-0.010861000046133995,0.046108998358249664,0.039142001420259476,0.12313199788331985,-0.028558000922203064,0.034304000437259674,0.024757999926805496,-0.004724999889731407,-0.09181199967861176,-0.040883999317884445,-0.0009519999730400741,-0.0008769999840296805,-0.12479700148105621,0.05373699963092804,0.019791999831795692,0.0404990017414093,0.004786000121384859,0.060297999531030655,-0.020360000431537628,0.010652000084519386,0.01690700091421604,0.12079600244760513,0.027746999636292458,-0.028650999069213867,0.057534001767635345,0.06546899676322937,0.02043600007891655,-0.03680500015616417,0.08926799893379211,0.042785000056028366,0.02980699948966503,-0.06343899667263031,0.11110199987888336,-0.007333000190556049,0.07942400127649307,-0.12358800321817398,0.05822499841451645,-0.13416500389575958,0.0768280029296875,-0.07330399751663208,-0.03050200082361698,-0.019603999331593513,0.07922399789094925,-0.05364999920129776,0.02605699934065342,0.21994200348854065,0.17535600066184998,-0.06579499691724777,0.12552900612354279,0.05691099911928177,-0.021815000101923943,0.006304000038653612,-0.08302599936723709,0.005154000129550695,0.11754799634218216,0.0935019999742508,-0.05722999945282936,0.06277099996805191,0.003220000071451068,-0.029009999707341194,-0.023293999955058098,-0.03479300066828728,-0.11864999681711197,-0.07179799675941467,0.031106999143958092,0.044071998447179794,0.007701999973505735,-0.1354130059480667,0.007000000216066837,0.10095400363206863,0.01846499927341938,0.05618999898433685,0.04153899848461151,0.09557200223207474,0.14280399680137634,-0.03714099898934364,-0.06222299858927727,-0.06642799824476242,0.09667500108480453,0.05649400129914284,0.028341000899672508,-0.02400599978864193,-0.09501799941062927,-0.032016001641750336,-0.05301399901509285,-0.014070999808609486,0.02522899955511093,-0.1130720004439354,0.05739999935030937,0.022998999804258347,0.09690999984741211,0.044856999069452286,0.017237000167369843,-0.053589001297950745,-0.013790999539196491,0.18242999911308289,-0.0279339998960495,0.08055900037288666,0.16259999573230743,0.05313799902796745,0.06154999881982803,0.12296599894762039,0.01775900088250637,0.13051100075244904,0.12847800552845,0.08371400088071823,-0.06688400357961655,0.040483999997377396,-0.07442999631166458,-0.09982500225305557,-0.0324690006673336,-0.022350000217556953,-0.074863001704216,-0.048406001180410385,-0.1543319970369339,-0.06335499882698059,0.05665399879217148,-0.10905899852514267,-0.020368000492453575,0.0002969999914057553,-0.10061600059270859,-0.007455999962985516,-0.029951000586152077,-0.007100999820977449,0.01955600082874298,-0.010838000103831291,-0.017057999968528748,0.07824700325727463,0.05416100099682808,0.00979899987578392,-0.007160999812185764,0.09779500216245651,0.044509999454021454,0.007275000214576721,0.03996000066399574,0.10303500294685364,-0.07705199718475342,0.05117100104689598,0.009379000402987003,0.05714000016450882,-0.044881001114845276,0.05860399827361107,0.0192709993571043,-0.10601799935102463
操作,0.06412000209093094,0.10400400310754776,0.10052300244569778,-0.058260999619960785,0.08901000022888184,0.04121999815106392,0.1229339987039566,0.27865299582481384,-0.21730199456214905,0.020705999806523323,0.14895200729370117,0.03356499969959259,-0.05317600071430206,0.16195200383663177,-0.19215600192546844,-0.09213899821043015,0.17082999646663666,0.16783399879932404,-0.13718000054359436,-0.19212999939918518,0.013811999931931496,-0.15612800419330597,0.02573299966752529,0.1088389977812767,0.24969500303268433,0.028588000684976578,0.03779599815607071,-0.07002600282430649,-0.20448799431324005,0.047961000353097916,-0.07802099734544754,0.048225000500679016,-0.04163900017738342,-0.12429600208997726,0.08863499760627747,-0.15548300743103027,0.11782000213861465,-0.17534799873828888,0.2111770063638687,-0.00636200001463294,0.034407999366521835,-0.11010400205850601,-0.051867999136447906,0.14947199821472168,-0.05154399946331978,0.08993499726057053,-0.11414700001478195,-0.17284199595451355,0.14568400382995605,-0.007224999833852053,0.050324998795986176,-0.020754000172019005,0.011899000033736229,-0.15328800678253174,0.08433199673891068,0.07091499865055084,-0.286981999874115,0.0876849964261055,0.25075000524520874,0.16550800204277039,0.1562730073928833,0.068852998316288,-0.15825000405311584,0.0832500010728836,0.148935005068779,-0.0039019999094307423,0.04334300011396408,0.07781299948692322,0.14036999642848969,-0.03810499981045723,-0.1996999979019165,0.028880000114440918,-0.22261999547481537,-0.2732209861278534,0.1921290010213852,-0.0978040024638176,0.11416500061750412,0.09808900207281113,0.2376919984817505,0.09483300149440765,0.04060100018978119,-0.4274739921092987,-0.01272599957883358,-0.08124499768018723,0.0036879999097436666,-0.04320500046014786,-0.09972400218248367,0.1348160058259964,-0.21025699377059937,-0.12460099905729294,-0.06633400171995163,-0.10611899942159653,-0.10762599855661392,-0.14684399962425232,0.08050400018692017,-0.15097400546073914,0.11494600027799606,-0.018014999106526375,-0.053971998393535614,-0.05977899953722954,0.10448800027370453,-0.041673000901937485,0.005177000071853399,-0.10316500067710876,-0.22543799877166748,0.1778469979763031,-0.1564120054244995,0.00035099999513477087,-0.021510999649763107,-0.03892099857330322,0.02587299980223179,0.0568230003118515,0.01191799994558096,-0.16848400235176086,0.1630290001630783,0.1271049976348877,-0.13437199592590332,0.1296059936285019,0.09974700212478638,0.06667599827051163,-0.045885998755693436,0.016300000250339508,-0.08098900318145752,0.07059399783611298,0.2863059937953949,-0.068121999502182,-0.03696899861097336,-0.06960999965667725,-0.04382200166583061,0.00444599986076355,0.0068339998833835125,-0.0881740003824234,0.09167999774217606,0.14237700402736664,0.19427600502967834,-0.03226900100708008,0.15771600604057312,0.004300999920815229,-0.18535299599170685,0.014201000332832336,-0.12001899629831314,0.08412499725818634,0.20448000729084015,0.07375200092792511,-0.2863070070743561,-0.07020699977874756,-0.3215300142765045,-0.1486469954252243,-0.20791299641132355,-0.10335200279951096,-0.2256229966878891,-0.039048001170158386,0.02064399980008602,0.022252000868320465,0.036263998597860336,0.06789500266313553,0.14841100573539734,-0.06489799916744232,0.011335999704897404,0.0715700015425682,-0.10373199731111526,-0.024601999670267105,0.09732399880886078,0.029326999559998512,-0.041884999722242355,0.09387700259685516,0.062609001994133,0.029603999108076096,0.04862700030207634,-0.08124099671840668,0.12594899535179138,0.21285699307918549,-0.09780199825763702,-0.11962900310754776,0.058281999081373215,-0.08996699750423431,0.04299600049853325,-0.050755999982357025,0.112807996571064,-0.03074299916625023,-0.06450100243091583,-0.16853199899196625,-0.2433529943227768,0.08386299759149551,-0.10322000086307526,0.03653300181031227,0.23132899403572083,0.06715100258588791,0.0659089982509613,0.10761299729347229,0.2089579999446869,-0.07270900160074234,-0.09961000084877014,0.010412000119686127,-0.112015001475811,-0.060263000428676605,0.07324700057506561,-0.14039400219917297,-0.258092999458313,-0.07009399682283401,0.14159899950027466,-0.0017519999528303742,-0.042851999402046204,0.15203000605106354,0.08764199912548065,-0.13381899893283844,0.06902100145816803,0.024903999641537666,-0.16877999901771545,0.038152001798152924,-0.0759119987487793,0.2161179929971695,-0.053651999682188034,0.25709599256515503,0.0709730014204979,-0.07015399634838104,0.17535200715065002,-0.20688499510288239,0.46443501114845276,-0.166935995221138,0.1330379992723465,0.15831899642944336,-0.09822700172662735,0.13396799564361572,-0.023212000727653503,-0.2809770107269287,-0.08325199782848358,-0.012116000056266785,0.12089399993419647,0.03103799931704998,-0.01191799994558096,0.02438499964773655,0.09760399907827377,0.1191060021519661,0.12491299957036972,0.05985499918460846,0.02435299940407276,0.057346999645233154,-0.25113800168037415,-0.05561799928545952,-0.052441999316215515,-0.06528499722480774,-0.09631700068712234,-0.03892600163817406,-0.061622001230716705,-0.04100700095295906,-0.13155899941921234,-0.04938000068068504,0.002747999969869852,-0.13681499660015106,0.03207699954509735,-0.26891401410102844,-0.04710400104522705,0.015219000168144703,-0.16184499859809875,-0.12138699740171432,-0.10040099918842316,-0.15694500505924225,0.20972000062465668,0.10683400183916092,0.29807600378990173,0.15288199484348297,0.18824000656604767,-0.08916600048542023,0.04119100049138069,-0.20611800253391266,0.2526940107345581,-0.040623001754283905,-0.11517900228500366,0.08116500079631805,-0.09356000274419785,-0.072782002389431,0.12367399781942368,0.014690999872982502,0.22768999636173248,0.1485230028629303,0.04053499922156334,-0.07002799957990646,-0.08603300154209137,0.01232299953699112,0.11413399875164032,-0.10481300204992294,-0.010875999927520752,0.11073599755764008,-0.06785599887371063,-0.09068900346755981,0.06068800017237663,-0.017904000356793404,0.18321600556373596,-0.1532450020313263,0.08184099942445755,-0.09268199652433395,0.2542249858379364,-0.2233089953660965,0.08259599655866623,-0.4875339865684509,0.01155600044876337,0.21927699446678162,0.2123979926109314,0.14348900318145752,0.06630600243806839,0.26482298970222473,-0.027736999094486237,-0.29943498969078064,-0.10605599731206894,-0.007036999799311161,-0.09556200355291367,0.056630998849868774,-0.18133099377155304,-0.1101830005645752,0.12202899903059006,-0.054370999336242676,0.18041600286960602,0.127687007188797,-0.13449600338935852,0.08004800230264664,0.00278700003400445,-0.22719700634479523,-0.13673999905586243,-0.17322200536727905,-0.11564400047063828,-0.038224998861551285,0.12465400248765945,-0.13792100548744202,0.0069670001976192,-0.04168200120329857,0.2452709972858429,-0.13314999639987946,-0.07282300293445587,0.04918000102043152,0.1833830028772354,-0.0783429965376854,0.03643200173974037,-0.2286520004272461,0.12002000212669373,0.23603500425815582,-0.1971219927072525,-0.27716198563575745,-0.18039999902248383,-0.06440900266170502,0.005272999871522188,-0.046973999589681625,-0.07624000310897827,0.25847500562667847,-0.06444799900054932,4.099999932805076e-05,0.21139200031757355,0.048252999782562256,0.14711999893188477,0.13052299618721008,0.03342600166797638,-0.05832599848508835,-0.12139999866485596,0.1709430068731308,0.08639299869537354,0.1751910001039505,-0.15583999454975128,0.3550809919834137,0.05208799988031387,0.04175499826669693,0.0559069998562336,0.009166999720036983,0.114376001060009,0.09808500111103058,-0.013384999707341194,-0.10018400102853775,-0.03835200145840645,-0.025539999827742577,-0.14718200266361237,-0.024508999660611153,-0.166034996509552,-0.15120400488376617,-0.04195199906826019,0.15139399468898773,-0.019435999915003777,-0.07381600141525269,-0.13644300401210785,-0.11841200292110443,0.06639400124549866,-0.0061519998125731945,0.19418300688266754,-0.03307799994945526,-0.11875200271606445,0.07551699876785278,0.272801011800766,-0.07270999997854233,-0.016780000180006027,0.05316099897027016,-0.08126100152730942,0.1166670024394989,-0.06205900013446808,0.0679830014705658,-0.1662600040435791,-0.034949999302625656,0.005574999842792749,0.19636599719524384,-0.11406999826431274,-0.06223300099372864,-0.11696299910545349,-0.05514699965715408
停转,0.1294649988412857,-0.0831959992647171,0.003364000003784895,-0.23806899785995483,0.12429700046777725,-0.06865700334310532,-0.0973839983344078,0.08958200365304947,0.0521170012652874,0.09919299930334091,-0.03786800056695938,0.08538699895143509,0.12568299472332,-0.06447199732065201,0.08200900256633759,-0.02071099914610386,0.18699200451374054,0.07062900066375732,-0.1894640028476715,-0.02696800045669079,0.005113000050187111,-0.011524000205099583,-0.06650900095701218,0.2957639992237091,-0.06694400310516357,-0.09281600266695023,0.22242000699043274,0.01508300006389618,-0.022373000159859657,-0.014034000225365162,0.1069360002875328,-0.034147001802921295,-0.10911200195550919,-0.06241900101304054,0.04360499978065491,-0.279803991317749,-0.00811699964106083,-0.07050199806690216,0.17755599319934845,-0.11393799632787704,-0.01790899969637394,-0.07909999787807465,-0.044484999030828476,-0.23345699906349182,-0.2162719964981079,-0.0032140000257641077,0.011556999757885933,-0.03275600075721741,-0.0705609992146492,-0.2800860106945038,0.04659999907016754,0.020742999389767647,-0.11757399886846542,0.1140810027718544,0.09109800308942795,-0.07867199927568436,-0.2954789996147156,0.18216200172901154,-0.0007350000087171793,-0.19059200584888458,0.23306900262832642,0.11330299824476242,-0.11923299729824066,-0.033702999353408813,-0.1947139948606491,-0.4555889964103699,-0.13147799670696259,-0.2407049983739853,0.2619970142841339,0.09655299782752991,-0.018768999725580215,-0.09935799986124039,0.06363499909639359,0.0769829973578453,0.009194999933242798,-0.10436499863862991,-0.1341940015554428,-0.029749000445008278,0.09489099681377411,0.21024799346923828,-0.09400700032711029,0.05688399821519852,0.016513999551534653,0.07738099992275238,0.07324100285768509,-0.16811999678611755,-0.11222399771213531,0.18045799434185028,0.14643000066280365,0.29434001445770264,0.24374200403690338,0.21493199467658997,0.09301400184631348,0.006560999900102615,0.07176999747753143,-0.08364599943161011,-0.023175999522209167,0.05757800117135048,-0.0640999972820282,0.02373499982059002,-0.10889100283384323,0.036614999175071716,0.07628300040960312,0.10731499642133713,0.008526000194251537,0.07193899899721146,-0.1115180030465126,0.2249629944562912,-0.09672500193119049,0.29466700553894043,0.04335099831223488,0.1251560002565384,0.07386499643325806,0.00992599967867136,-0.11567900329828262,0.0036440000403672457,0.08701200038194656,-0.11722400039434433,0.011858000420033932,0.13915500044822693,0.01588200032711029,0.10238199681043625,-0.06339000165462494,-0.08767300099134445,0.04883100092411041,0.06967400014400482,0.01561999972909689,0.2756800055503845,0.0912569984793663,0.10200800001621246,0.1888740062713623,-0.0498029999434948,0.023632999509572983,0.03423700109124184,0.12285099923610687,-0.03870899975299835,-0.029745999723672867,0.15530499815940857,-0.08242800086736679,-0.04608900099992752,0.20996800065040588,0.2149759978055954,-0.006448000203818083,0.11258299648761749,-0.016533000394701958,-0.0002410000015515834,0.056412000209093094,0.16099999845027924,0.1115799993276596,-0.052087001502513885,0.0020910000894218683,-0.022721000015735626,-0.13769899308681488,0.16572900116443634,0.1182669997215271,0.04718000069260597,-0.04935599863529205,0.0011480000102892518,0.03731900081038475,-0.107635997235775,-0.3211359977722168,0.09336099773645401,0.22321699559688568,-0.004776999820023775,0.031075000762939453,0.006752000190317631,-0.09705299884080887,-0.05104200169444084,-0.08812599629163742,0.030223000794649124,-0.18351300060749054,-0.01203600037842989,-0.11213599890470505,0.11598599702119827,0.04376799985766411,0.10730399936437607,-0.32688701152801514,-0.2081419974565506,0.009170000441372395,0.19942399859428406,0.03017999976873398,0.047683000564575195,-0.006723999977111816,0.0790880024433136,-0.09362299740314484,0.13107599318027496,-0.11133900284767151,-0.040532998740673065,0.07717899978160858,0.03783300146460533,0.012609000317752361,0.03263700008392334,0.059950001537799835,0.19894100725650787,-0.0660099983215332,0.021988000720739365,0.2637160122394562,0.23386700451374054,-0.05372000113129616,-0.22663800418376923,-0.08503200113773346,0.09581799805164337,0.07528799772262573,0.031348999589681625,-0.26265498995780945,0.12475600093603134,0.14359000325202942,-0.08428099751472473,0.002681999932974577,-0.0829479992389679,0.10380300134420395,-0.05262399837374687,0.044429000467061996,-0.1010579988360405,-0.023802999407052994,0.0004180000105407089,0.03488700091838837,0.16958299279212952,-0.029023999348282814,0.09112600237131119,-0.19399400055408478,-0.052411999553442,0.0757170021533966,0.010583000257611275,0.03810099884867668,-0.10445799678564072,0.0711200013756752,0.0716409981250763,0.09161800146102905,-0.013524999842047691,-0.08194699883460999,-0.13173699378967285,-0.04303700104355812,0.17980100214481354,0.047988999634981155,0.14984899759292603,0.004517000168561935,-0.11596500128507614,-0.005005999933928251,0.2391120046377182,0.017712000757455826,-0.15952299535274506,-0.06548299640417099,-0.3140900135040283,0.10739599913358688,0.11004900187253952,-0.024454999715089798,-0.10091599822044373,-0.013956000097095966,0.03154899924993515,0.0980129987001419,-0.1961210072040558,-0.05664199963212013,-0.09121400117874146,0.17041699588298798,0.005994000006467104,0.14602699875831604,-0.06371500343084335,-0.15429900586605072,0.13243399560451508,-0.04670700058341026,-0.07936300337314606,-0.23374700546264648,-0.00622900016605854,-0.19311000406742096,0.16342200338840485,0.12609900534152985,0.07975400239229202,0.04969000071287155,0.026559000834822655,0.1919029951095581,0.05188800022006035,-0.11156299710273743,0.006391000002622604,0.01768600009381771,0.044879000633955,-0.0003429999924264848,0.015242000110447407,-0.08325599879026413,0.137473002076149,0.04758400097489357,0.12333200126886368,-0.1755550056695938,0.062123000621795654,0.16043700277805328,0.10840299725532532,0.09318699687719345,0.03712699934840202,0.12952099740505219,0.09677200019359589,-0.024602999910712242,-0.07983999699354172,0.1041330024600029,-0.3271619975566864,-0.1351190060377121,0.1893569976091385,-0.043327998369932175,0.002256999956443906,0.07450400292873383,0.2472659945487976,0.1706639975309372,0.11159999668598175,-0.18829600512981415,-0.04700300097465515,-0.13892899453639984,0.028884999454021454,0.13843999803066254,0.01655000075697899,0.041026998311281204,-0.08685100078582764,0.13542799651622772,0.19504299759864807,-0.04327400028705597,-0.07338599860668182,0.1300249993801117,-0.1611659973859787,0.1037219986319542,-0.06528700143098831,-0.11366699635982513,0.13695299625396729,-0.09101700037717819,0.23440800607204437,0.14028500020503998,0.0013559999642893672,0.19515100121498108,0.000645000021904707,0.09140700101852417,-0.054882001131772995,-0.16662999987602234,0.05387699976563454,0.31850600242614746,0.01913199946284294,0.0893779993057251,-0.1300020068883896,0.099651999771595,-0.2347549945116043,0.053637001663446426,0.1940079927444458,0.07431700080633163,0.014082999899983406,0.09404599666595459,-0.13616099953651428,0.0624920018017292,-0.19798900187015533,0.07824800163507462,0.087567999958992,-0.08580800145864487,-0.112185999751091,0.06517700105905533,-0.013109000399708748,-0.020299000665545464,0.12669800221920013,-0.19837799668312073,0.01038500014692545,-0.046581998467445374,-0.11808899790048599,0.008488999679684639,-0.00092299998505041,0.09916000068187714,0.27490100264549255,0.23205000162124634,0.018706999719142914,-0.009448000229895115,-0.3754270076751709,-0.04618600010871887,-0.15768100321292877,0.17408399283885956,-0.26424700021743774,-0.20390799641609192,-0.004879999905824661,-0.13921299576759338,-0.11823099851608276,-0.03817399963736534,0.07834699749946594,0.08094099909067154,-0.06815200299024582,-0.21153199672698975,0.02115499973297119,0.2690570056438446,-0.26520198583602905,-0.2573559880256653,-0.12034899741411209,0.27376601099967957,-0.17464999854564667,-0.11602599918842316,0.24312099814414978,0.037845999002456665,-0.07799900323152542,0.10224500298500061,0.03912400081753731,0.13725300133228302,-0.0029279999434947968,0.06825099885463715,-0.16780300438404083,0.019332999363541603,0.03793000057339668,-0.20338700711727142,-0.07557100057601929,0.05276300013065338,-0.11208000034093857
行驶,-0.019518999382853508,0.17375800013542175,0.27929800748825073,0.18211600184440613,0.23836199939250946,-0.18751099705696106,0.1507049947977066,0.13271500170230865,-0.02650200016796589,-0.11238200217485428,-0.15398800373077393,-0.1471949964761734,0.040029000490903854,0.055410001426935196,-0.14656700193881989,0.27827298641204834,0.10461500287055969,0.30625298619270325,0.07403100281953812,0.06985600292682648,-0.39393699169158936,-0.22636200487613678,-0.11947999894618988,0.2080720067024231,0.00494900019839406,0.19878900051116943,0.15497399866580963,-0.0003000000142492354,0.03709099814295769,0.015713000670075417,0.1702529937028885,0.12375599890947342,0.10138099640607834,0.10632900148630142,-0.29712000489234924,-0.03770099952816963,0.07863499969244003,0.1809680014848709,0.3306649923324585,-0.12305799871683121,-0.218967005610466,-0.049795001745224,0.15175600349903107,0.00033599999733269215,0.19093799591064453,-0.05613800138235092,0.26379600167274475,0.18085899949073792,0.14037999510765076,-0.04432300105690956,-0.21728099882602692,0.050884999334812164,-0.21923500299453735,-0.0880969986319542,-0.09108799695968628,0.14367200434207916,-0.011226000264286995,0.16138200461864471,0.125792995095253,-0.027417000383138657,-0.011900000274181366,-0.10852199792861938,-0.4611479938030243,-0.05218600109219551,-0.06000100076198578,0.07120899856090546,-0.43369901180267334,-0.11970099806785583,0.03450800105929375,-0.11191499978303909,-0.057420000433921814,0.13041700422763824,-0.0984949991106987,0.0866049975156784,0.2405499964952469,-0.2314859926700592,-0.1739410012960434,0.06884100288152695,-0.2029390037059784,-0.28045201301574707,0.37825900316238403,-0.2484550029039383,0.16608799993991852,0.2798829972743988,0.048914000391960144,-0.30172300338745117,0.045813001692295074,0.015592999756336212,-0.014929999597370625,0.010786999948322773,0.017935000360012054,0.11013100296258926,0.11249099671840668,-0.1682800054550171,0.1441980004310608,-0.15321500599384308,0.24304500222206116,0.1832759976387024,-0.3234109878540039,-0.310683012008667,0.10191500186920166,0.12475000321865082,0.1672780066728592,-0.22091999650001526,0.2997870147228241,0.08418499678373337,0.1456409990787506,-0.20723000168800354,-0.1812169998884201,0.10544399917125702,0.14522899687290192,-0.07987800240516663,-0.11706099659204483,0.044613998383283615,-0.09349700063467026,-0.15983200073242188,-0.10710100084543228,-0.24235199391841888,0.00965800043195486,0.038763999938964844,0.21288099884986877,0.0953110009431839,-0.0467509999871254,-0.3094469904899597,0.1553180068731308,-0.05456700176000595,-0.07805299758911133,0.10573100298643112,0.10121999680995941,0.05573499947786331,0.09554500132799149,-0.1678750067949295,0.16320699453353882,0.25148800015449524,-0.12739799916744232,0.2661980092525482,-0.11394999921321869,-0.06379099935293198,0.10594700276851654,0.1507759988307953,0.017222000285983086,0.08625400066375732,-0.02012000046670437,0.274848997592926,0.09962499886751175,0.03311299905180931,-0.01355700008571148,-0.4605970084667206,0.10672800242900848,0.22605299949645996,0.005489999894052744,-0.18689200282096863,-0.03481199964880943,-0.08972500264644623,0.03872400149703026,-0.2252179980278015,0.1402920037508011,0.3947339951992035,0.2717300057411194,-0.0055959997698664665,-0.18132300674915314,-0.19679200649261475,-0.28028199076652527,0.2781839966773987,-0.264504998922348,-0.09998799860477448,0.46292901039123535,-0.1218620017170906,-0.023124000057578087,-0.016681000590324402,-0.05141400173306465,0.02117599919438362,0.16512100398540497,0.11961299926042557,-0.06569299846887589,-0.0496629998087883,0.05802299827337265,-0.021105999127030373,-0.07512900233268738,-0.06586000323295593,-0.25445300340652466,-0.05057699978351593,0.17802900075912476,-0.06555899977684021,-0.14170600473880768,0.013523999601602554,-0.09776899963617325,0.047449998557567596,0.009461999870836735,0.1996919959783554,-0.10597699880599976,0.2104090005159378,-0.13676199316978455,-0.06466100364923477,-0.3035770058631897,0.05721399933099747,0.07566700130701065,-0.07941900193691254,0.1806730031967163,0.15767799317836761,0.09599500149488449,-0.1911499947309494,-0.17485900223255157,-0.032182998955249786,-0.003967000171542168,-0.35648098587989807,0.14265500009059906,0.08207999914884567,0.1595650017261505,-0.1249149963259697,0.1633100062608719,-0.04737899824976921,0.031849998980760574,0.16838599741458893,-0.015007000416517258,-0.16058899462223053,0.1594340056180954,-0.036251001060009,0.24191400408744812,-0.469184011220932,0.17365799844264984,-0.20245100557804108,0.015716999769210815,-0.24365900456905365,0.10408999770879745,0.3520660102367401,0.2187899947166443,0.23190900683403015,0.37080100178718567,0.1523430049419403,-0.16408699750900269,0.17813700437545776,-0.26977699995040894,-0.2163960039615631,-0.10756800323724747,0.004966000095009804,-0.12190300226211548,-0.0321820005774498,0.08390600234270096,0.05995099991559982,-0.017340999096632004,-0.5990369915962219,-0.06520599871873856,-0.18809500336647034,0.09244000166654587,-0.08650799840688705,0.11121799796819687,-0.2158759981393814,0.0739390030503273,0.2684440016746521,0.11378999799489975,-0.09987899661064148,-0.1486539989709854,-0.1882379949092865,-0.04357500001788139,-0.010099999606609344,-0.20368200540542603,0.0842289999127388,-0.039896998554468155,0.12045799940824509,0.2871040105819702,0.021974999457597733,0.020222999155521393,-0.029040999710559845,-0.18785099685192108,-0.28909000754356384,0.22925099730491638,0.2635039985179901,0.08173800259828568,-0.03268900141119957,-0.006732999812811613,-0.3062720000743866,0.16506299376487732,-0.08970700204372406,-0.00407399982213974,0.23254099488258362,0.11971700191497803,0.21139100193977356,-0.17864300310611725,-0.07047999650239944,0.03796499967575073,-0.20802100002765656,0.13923600316047668,-0.1910579949617386,-0.13371099531650543,-0.0032190000638365746,0.2141920030117035,0.1775279939174652,0.19342400133609772,0.20029500126838684,0.07667399942874908,-0.16414999961853027,-0.04313800111413002,-0.4548499882221222,0.08130200207233429,0.17643499374389648,0.01964700035750866,-0.1358869969844818,0.16137200593948364,0.21850499510765076,0.0763930007815361,0.08790799975395203,-0.09770599752664566,-0.08895999938249588,-0.015320999547839165,0.3023430109024048,0.07705800235271454,-0.001851000008173287,-0.06763900071382523,0.38492101430892944,-0.23035599291324615,0.11560899764299393,0.15133799612522125,0.18049100041389465,-0.06441400200128555,0.15502700209617615,0.39007899165153503,-0.32301101088523865,-0.3406260013580322,-0.16641999781131744,-0.06633199751377106,-0.21859100461006165,-0.08580899983644485,0.259786993265152,0.26207199692726135,0.14448200166225433,0.21318699419498444,-0.35005900263786316,-0.18025200068950653,-0.13675500452518463,0.16150900721549988,-0.07805400341749191,-0.14870299398899078,-0.3105410039424896,-0.11493100225925446,0.17666299641132355,-0.0002589999930933118,0.2159689962863922,-0.3504459857940674,0.10985899716615677,-0.015876999124884605,0.06719700247049332,0.0351330004632473,-0.07182600349187851,0.24767500162124634,-0.17192299664020538,0.061076998710632324,-0.03206599876284599,-0.07576700299978256,-0.3966349959373474,0.06444399803876877,0.297758013010025,-0.2380400002002716,0.16304099559783936,0.048468999564647675,-0.16621699929237366,-0.11803500354290009,0.5988140106201172,0.16234999895095825,0.28246501088142395,-0.1076980009675026,-0.17458100616931915,0.028341999277472496,-0.005929999984800816,-0.3065820038318634,0.16564500331878662,-0.19776299595832825,0.2630879878997803,-0.1114950031042099,0.2411859929561615,-0.05685900151729584,0.12251300364732742,-0.04947499930858612,-0.3447520136833191,0.09660100191831589,-0.33530300855636597,0.20150700211524963,0.15133899450302124,0.0265670008957386,-0.07466199994087219,0.04870900139212608,-0.17796799540519714,-0.09312800318002701,0.13407599925994873,0.08998800069093704,0.37745600938796997,-0.21747200191020966,0.18860100209712982,-0.05801200121641159,-0.28926101326942444,-0.023461999371647835,-0.20106500387191772,-0.016811000183224678,0.08154100179672241,-0.04838100075721741,0.30745598673820496,-0.0017810000572353601,-0.21093100309371948,-0.15753300487995148,-0.050315000116825104
条件,-0.05161599814891815,0.1487099975347519,-0.06226300075650215,-0.06712199747562408,-0.017542999237775803,0.05819299817085266,0.17145699262619019,0.23563000559806824,-0.20359300076961517,0.13196100294589996,0.024244999513030052,-0.12914100289344788,0.18604199588298798,-0.06650300323963165,0.014010000042617321,-0.2271050065755844,-0.05719900131225586,0.06593900173902512,-0.3375590145587921,-0.046601999551057816,0.07048600167036057,-0.21088500320911407,-0.13468800485134125,0.056963998824357986,0.061041999608278275,0.07253000140190125,-0.041884999722242355,-0.04876000061631203,0.10871700197458267,0.01875299960374832,0.10682299733161926,-0.019238999113440514,0.006095999851822853,0.03241100162267685,-0.14290699362754822,-0.09153799712657928,0.02434599958360195,-0.12761099636554718,0.07582200318574905,0.02539600059390068,-0.1503099948167801,-0.09821200370788574,0.08526299893856049,0.06151600182056427,0.055431999266147614,0.07979100197553635,0.12252199649810791,-0.08395899832248688,-0.30766400694847107,-0.030880000442266464,-0.11432000249624252,-0.10518199950456619,0.1066180020570755,0.026962000876665115,0.037960998713970184,0.103302001953125,-0.04244900122284889,0.028676999732851982,0.18240800499916077,0.11387299746274948,0.14734399318695068,-0.11112300306558609,-0.024470999836921692,-0.050259001553058624,0.06939399987459183,-0.18265099823474884,-0.013836000114679337,0.04616999998688698,-0.09790399670600891,-0.1076119989156723,0.03590000048279762,0.07996899634599686,0.028793999925255775,-0.10569100081920624,0.09291499853134155,-0.18490900099277496,-0.12498299777507782,0.027674000710248947,-0.03351600095629692,-0.09695500135421753,-0.21536800265312195,-0.0936719998717308,-0.0922430008649826,-0.023948999121785164,-0.061820000410079956,0.048889998346567154,0.07052700221538544,-0.013701999559998512,-0.1484369933605194,0.03718600049614906,-0.051277000457048416,-0.14590999484062195,-0.027729999274015427,-0.01628199964761734,-0.19809900224208832,0.035124000161886215,-0.08947200328111649,-0.044071998447179794,-0.14282099902629852,0.0521869994699955,0.15218499302864075,0.10458599776029587,-0.01743599958717823,-0.19067500531673431,-0.003871999913826585,0.1692180037498474,-0.14467699825763702,0.04073699936270714,-0.16575700044631958,-0.08896099776029587,0.055977001786231995,-0.009883999824523926,-0.19125500321388245,-0.1113239973783493,-0.2575930058956146,0.1289770007133484,-0.23841999471187592,-0.08017899841070175,-0.08760199695825577,-0.06544200330972672,-0.04623299837112427,-0.015180000104010105,0.04060300067067146,-0.06228800117969513,-0.0057069999165833,0.2133139967918396,0.1647460013628006,0.1485770046710968,-0.11043599992990494,-0.06394899636507034,-0.052896998822689056,-0.026343999430537224,0.06431800127029419,0.07221200317144394,0.02465900033712387,0.00953999999910593,0.1743829995393753,0.014355000108480453,-0.08016300201416016,0.04343299940228462,0.06212100014090538,-0.05339900031685829,0.08645100146532059,-0.20155200362205505,-0.018868999555706978,-0.13542599976062775,-0.13843600451946259,0.11142300069332123,-0.06169399991631508,-0.028102999553084373,-0.01923999935388565,0.039361000061035156,-0.06259500235319138,-0.14769600331783295,-0.206385999917984,0.1300089955329895,-0.052806999534368515,-0.006446999963372946,-0.10058599710464478,0.1755020022392273,0.08926600217819214,-0.15699100494384766,-0.11566600203514099,0.02362699992954731,-0.15043799579143524,0.06713200360536575,-0.1338610053062439,-0.002372999908402562,-0.12371300160884857,-0.14413000643253326,-0.19303099811077118,0.2637229859828949,-0.11958400160074234,0.2022089958190918,0.010998999699950218,0.22426199913024902,-0.05281899869441986,0.244951993227005,-0.12098400294780731,-0.03171100094914436,0.061574000865221024,-0.18787500262260437,-0.2292889952659607,0.19398100674152374,-0.09004200249910355,0.02583100087940693,0.13346299529075623,0.17120599746704102,0.1901710033416748,0.1442369967699051,0.07217899709939957,-0.03554299846291542,0.1452690064907074,0.21145099401474,0.11381000280380249,0.003541999962180853,0.036430999636650085,0.04676400125026703,0.00024399999529123306,-0.0735979974269867,0.003418999956920743,-0.12431000173091888,0.02895200066268444,0.06365399807691574,-0.16577300429344177,-0.22477899491786957,0.005568999797105789,-0.23639699816703796,-0.17516200244426727,-0.059126999229192734,0.05658400058746338,0.06282500177621841,-0.1319590061903,-0.03596000000834465,0.13207599520683289,-0.18432000279426575,0.13125300407409668,-0.08183799684047699,0.1324079930782318,-0.05494600161910057,-0.05746300145983696,0.021516000851988792,-0.052420999854803085,0.268667995929718,0.08934800326824188,-0.17930500209331512,-0.20393399894237518,-0.02439199946820736,-0.011233000084757805,0.25842899084091187,0.10171099752187729,0.029985999688506126,-0.06589200347661972,0.022350000217556953,0.24899399280548096,0.09008999913930893,-0.08155100047588348,-0.07759500294923782,-0.10740300267934799,-0.05095899850130081,-0.08058500289916992,-0.06296700239181519,-0.05025799944996834,0.11321700364351273,0.04639799892902374,0.0765250027179718,0.016776999458670616,0.10281399637460709,0.09168499708175659,-0.07757899910211563,0.1853020042181015,-0.06962499767541885,-0.04178899899125099,0.1015930026769638,-0.2185799926519394,0.07559999823570251,-0.0669270008802414,0.16147400438785553,0.09881199896335602,0.1570259928703308,0.008995000272989273,0.14103299379348755,0.05578799918293953,-0.027499999850988388,0.09467300027608871,-0.07621300220489502,0.13378499448299408,-0.09905199706554413,0.05181000009179115,0.07499100267887115,-0.11396200209856033,-0.10620000213384628,-0.038460999727249146,0.053745001554489136,-0.12638700008392334,-0.012969999574124813,0.04802099987864494,0.05760699883103371,-0.08613800257444382,-0.02761800028383732,0.00621700007468462,-0.16427099704742432,0.03683999925851822,-0.010468999855220318,0.10225799679756165,0.09190700203180313,0.12315700203180313,-0.20567399263381958,0.12659700214862823,0.15779300034046173,0.034074001014232635,-0.23424799740314484,0.24503199756145477,0.05177899822592735,0.153330996632576,-0.06622400134801865,0.013380000367760658,0.07077600061893463,0.05100400000810623,-0.1426820009946823,0.10949300229549408,0.05457700043916702,0.16147400438785553,0.021824000403285027,0.036768000572919846,-0.0703589990735054,0.0018889999482780695,0.15650300681591034,-0.015619000419974327,-0.08026400208473206,0.17610600590705872,0.015107999555766582,-0.2416509985923767,-0.03263299912214279,-0.015984000638127327,0.07188499718904495,0.04602900147438049,-0.032871998846530914,-0.09418799728155136,-0.040084999054670334,-0.2444480061531067,0.0022799998987466097,0.02771100029349327,-0.09433700144290924,-0.1574620008468628,0.10390400141477585,0.05285099893808365,0.026784999296069145,0.014423999935388565,-0.017775999382138252,0.06145000085234642,-0.09565900266170502,-0.09511400014162064,0.09482800215482712,0.19432799518108368,0.160862997174263,0.0959319993853569,-0.2675960063934326,-0.0457179993391037,-0.050898000597953796,-0.1251700073480606,-0.15018600225448608,0.09766999632120132,-0.034742001444101334,-0.07135599851608276,0.17551399767398834,0.13756899535655975,0.1122250035405159,-0.13846200704574585,-0.026883000507950783,-0.00558099988847971,-0.020306000486016273,0.09302400052547455,-0.046863000839948654,0.13471299409866333,0.004038999788463116,-0.018897000700235367,0.15894100069999695,0.06139900162816048,0.1210549995303154,0.05502200126647949,0.08321099728345871,0.18584099411964417,0.24237899482250214,-0.003973000217229128,-0.20269200205802917,0.014840999618172646,-0.13291500508785248,-0.2918280065059662,-0.08903200179338455,-0.05545800179243088,0.05111600086092949,0.08448400348424911,-0.1232450008392334,-0.1102989986538887,-0.10198300331830978,0.056338999420404434,-0.15651099383831024,-0.027441000565886497,0.016834000125527382,0.19863900542259216,0.15352599322795868,0.06813900172710419,0.0840969979763031,0.1325879991054535,-0.005849000066518784,-0.19536100327968597,-0.08327999711036682,0.1640470027923584,-0.2824920117855072,-0.21368999779224396,0.07830700278282166,-0.10639599710702896,0.024281000718474388,0.04931100085377693,0.04731399938464165,-0.05761700123548508,-0.060669999569654465,-0.05364299938082695,0.23985199630260468
驱动,-0.05715499818325043,0.33780598640441895,0.06227000057697296,-0.015287999995052814,0.011021999642252922,-0.14618800580501556,-0.0402970016002655,0.18879500031471252,-0.08373499661684036,0.009364999830722809,0.09861399978399277,0.1358020007610321,-0.1981939971446991,-0.1663540005683899,0.03372099995613098,-0.3796280026435852,-0.15873999893665314,0.09409300237894058,-0.27554601430892944,-0.23599599301815033,-0.05418999865651131,-0.35670900344848633,0.027643000707030296,0.11356399953365326,0.13392500579357147,0.4390319883823395,0.121288001537323,0.015592999756336212,-0.05811699852347374,0.35345301032066345,-0.10068199783563614,0.16642600297927856,0.3010829985141754,-0.2880780100822449,-0.07678800076246262,-0.0489719994366169,0.15961599349975586,-0.08974800258874893,0.36098799109458923,-0.0005499999970197678,0.017878999933600426,-0.03562000021338463,0.028234999626874924,0.2326190024614334,0.12181799858808517,-0.05141200125217438,-0.1277880072593689,-0.13961000740528107,0.4557740092277527,-0.2967419922351837,-0.143996000289917,0.19504700601100922,0.054673001170158386,-0.00980599969625473,-0.04397999867796898,0.05115300044417381,-0.32958999276161194,0.1843159943819046,0.01438899990171194,0.1800529956817627,-0.04705699905753136,-0.19522400200366974,0.08352799713611603,0.046783000230789185,-0.18378299474716187,-0.10214299708604813,-0.05139400064945221,-0.27337801456451416,0.3216649889945984,0.02177800051867962,-0.2283869981765747,-0.19123700261116028,-0.009062999859452248,-0.12846800684928894,0.14934900403022766,-0.10505499690771103,0.0027030000928789377,0.3083750009536743,0.2968679964542389,0.5100359916687012,-0.07974199950695038,-0.3762980103492737,-0.09257800132036209,0.021064000204205513,-0.2052289992570877,0.027191000059247017,0.11113999783992767,-0.004953000228852034,-0.36830300092697144,0.03134499862790108,-0.3418940007686615,0.12200900167226791,0.03568800166249275,-0.025395000353455544,0.08145499974489212,-0.09749499708414078,0.0030159999150782824,-0.07309500128030777,-0.13985900580883026,-0.0271380003541708,-0.008000999689102173,0.019391000270843506,0.5033609867095947,0.015231999568641186,0.024772999808192253,0.07369700074195862,0.033247001469135284,0.2624790072441101,-0.4438509941101074,-0.26113399863243103,-0.016307000070810318,0.15609699487686157,0.46434101462364197,0.1715400069952011,0.06357300281524658,0.14657799899578094,0.01912499964237213,-0.2778890132904053,-0.03769899904727936,0.21783599257469177,0.08400499820709229,-0.07789800316095352,-0.1790349930524826,0.05626700073480606,0.3453890085220337,0.11463599652051926,-0.32749098539352417,-0.03612000122666359,0.13453799486160278,-0.056136999279260635,0.0396450012922287,0.0930429995059967,0.48788100481033325,-0.08381900191307068,-0.35007500648498535,0.10391700267791748,0.0405610017478466,-0.0409110002219677,-0.45208001136779785,0.20917899906635284,-0.26437199115753174,-0.060145001858472824,0.01882999949157238,0.012257000431418419,-0.355800986289978,0.09172700345516205,-0.13229499757289886,-0.196384996175766,-0.1670839935541153,0.2605780065059662,0.24557599425315857,-0.3237299919128418,0.06176000088453293,-0.2241310030221939,0.24477200210094452,0.21174800395965576,0.04219900071620941,0.21511100232601166,0.07128500193357468,-0.3515709936618805,-0.16778799891471863,0.23008400201797485,0.02419999986886978,0.04394000023603439,-0.029242999851703644,-0.17748300731182098,-0.015174999833106995,0.003558000084012747,-0.14034999907016754,-0.137364000082016,0.016498999670147896,0.33372899889945984,-0.002107999986037612,-0.0025770000647753477,0.04151599854230881,-0.05935800075531006,-0.10474099963903427,-0.008356000296771526,-0.13898000121116638,-0.1561560034751892,0.09403900057077408,-0.04153899848461151,-0.49602898955345154,0.029725000262260437,-0.08802100270986557,0.2413879930973053,0.0837780013680458,-0.07094699889421463,0.48573800921440125,-0.012718000449240208,-0.1756100058555603,0.20905399322509766,-0.13485699892044067,0.1582060009241104,-0.0033990000374615192,0.24624300003051758,-0.02932400070130825,-0.04235000163316727,0.11636099964380264,-0.10687900334596634,0.024466000497341156,0.029854999855160713,-0.2888279855251312,0.22337499260902405,0.12437299638986588,-0.32506999373435974,0.38937199115753174,-0.17672699689865112,0.3311069905757904,-0.08867800235748291,-0.020173000171780586,-0.00215000007301569,0.2102299928665161,0.22049500048160553,-0.06426700204610825,-0.1511249989271164,0.24866700172424316,-0.3764500021934509,0.5181630253791809,-0.00820900034159422,0.025272000581026077,0.17223100364208221,0.10247699916362762,-0.22309400141239166,-0.15370100736618042,0.23117800056934357,-0.08848399668931961,-0.20908699929714203,0.03583800047636032,0.17751799523830414,-0.5421180129051208,0.11359699815511703,-0.30980798602104187,0.033803001046180725,0.015212999656796455,0.08880899846553802,0.06261099874973297,-0.1355459988117218,0.2617909908294678,0.06597600132226944,0.11758100241422653,-0.18122300505638123,0.1571979969739914,0.14631900191307068,0.18727000057697296,-0.18681199848651886,-0.23808300495147705,0.15481099486351013,0.02140899933874607,-0.3614780008792877,-0.2215919941663742,0.007445999886840582,-0.2327059954404831,0.1029760017991066,-0.18303899466991425,-0.242125004529953,0.1019970029592514,-0.17109400033950806,0.13169999420642853,-0.12257900089025497,0.08706100285053253,0.04734500125050545,-0.062084000557661057,-0.2737810015678406,-0.11787600070238113,-0.0067369998432695866,0.030053000897169113,0.09984699636697769,-0.17513999342918396,-0.20244599878787994,0.06535399705171585,0.1314609944820404,-0.25669899582862854,-0.250326007604599,0.1614619940519333,-0.06427399814128876,-0.07106299698352814,0.3498220145702362,0.07255399972200394,0.022700000554323196,0.29291701316833496,-0.05341799929738045,0.0505170002579689,-0.1830890029668808,-0.3375230133533478,0.3508340120315552,-0.15089300274848938,0.21335799992084503,-0.031977999955415726,-0.49050500988960266,0.1851159930229187,-0.3723739981651306,0.010041999630630016,-0.3118929862976074,0.09418799728155136,-0.35795900225639343,0.4714060127735138,0.1870180070400238,0.2632969915866852,0.10736799985170364,0.05223799869418144,0.3588680028915405,-0.005073000211268663,-0.1847749948501587,0.186272993683815,-0.021849999204277992,-0.18804000318050385,0.2242330014705658,-0.4583260118961334,-0.13012200593948364,0.2894290089607239,0.1496949940919876,0.14544999599456787,-0.22959700226783752,-0.028660999611020088,0.0649769976735115,0.001069999998435378,-0.12952500581741333,-0.11291100084781647,-0.13101400434970856,-0.054113999009132385,-0.08319500088691711,-0.27349600195884705,-0.1167059987783432,0.12989400327205658,-0.11614400148391724,0.39810898900032043,-0.2327129989862442,0.20758399367332458,-0.14549300074577332,0.02860499918460846,-0.014661000110208988,-0.16427500545978546,-0.11993599683046341,0.03339499980211258,-0.13128699362277985,-0.5786579847335815,-0.16821600496768951,0.02160000056028366,0.1296679973602295,0.118197001516819,0.017199000343680382,-0.2977310121059418,0.25750699639320374,0.29935601353645325,0.1162709966301918,0.37659499049186707,0.22768600285053253,-0.11954700201749802,-0.2194029986858368,-0.25823500752449036,-0.07814899832010269,-0.29039299488067627,0.06248899921774864,0.12821899354457855,-0.33194500207901,-0.0827149972319603,0.15034200251102448,0.2506999969482422,0.04308899864554405,0.26575401425361633,0.26068198680877686,0.05240799859166145,-0.008454999886453152,-0.18867599964141846,0.09375400096178055,-0.19863399863243103,-0.18174900114536285,-0.4199340045452118,-0.1925099939107895,-0.2033189982175827,-0.2825709879398346,-0.08393500000238419,-0.0759190022945404,0.1895419955253601,0.2607229948043823,-0.0625159963965416,-0.05962799862027168,-0.07974600046873093,-0.16829200088977814,-0.1143060028553009,0.014930999837815762,-0.03521899878978729,-0.11395499855279922,0.28261399269104004,0.04995400086045265,-0.1813569962978363,0.10460399836301804,0.32028600573539734,0.16421200335025787,-0.06265299767255783,0.0462380014359951,-0.2170179933309555,0.31318700313568115,0.1495479941368103,0.47673600912094116,-0.4692299962043762,0.23724499344825745,0.022784000262618065,0.17167599499225616
信号,-0.14090099930763245,0.08975400030612946,0.05825300142168999,0.32311201095581055,-0.11667799949645996,-0.09800700098276138,0.18729500472545624,0.15819700062274933,0.09826699644327164,0.1829099953174591,0.1433510035276413,-0.10741300135850906,0.27709200978279114,0.16263000667095184,0.020416000857949257,0.4021880030632019,-0.13836899399757385,-0.040550000965595245,0.01746699959039688,-0.20489799976348877,0.07235900312662125,-0.12862899899482727,0.07490699738264084,-0.16449899971485138,0.015177000313997269,-0.2060369998216629,-0.40654000639915466,0.055337000638246536,0.07297399640083313,-0.04969099909067154,0.015569999814033508,-0.23786799609661102,0.010023999959230423,-0.07815799862146378,-0.04327499866485596,-0.0816589966416359,0.39426299929618835,-0.16409799456596375,0.18836499750614166,-0.49608099460601807,0.3443329930305481,-0.24342800676822662,-0.2049659937620163,0.19500300288200378,-0.04539899900555611,-0.02977900020778179,-0.22000400722026825,-0.049001000821590424,-0.14982900023460388,-0.23954500257968903,-0.09272699803113937,0.05507500097155571,0.10261400043964386,-0.18817700445652008,0.21581999957561493,0.15807299315929413,-0.1768999993801117,0.21221700310707092,-0.26114600896835327,0.028648000210523605,0.10655800253152847,0.37893399596214294,-0.23716600239276886,-0.16420400142669678,0.26392099261283875,-0.06792700290679932,0.26447099447250366,0.2659569978713989,-0.1408820003271103,0.00521400012075901,0.10733100026845932,-0.3845280110836029,0.10997399687767029,-0.22325700521469116,0.28092899918556213,0.0414390005171299,0.04357299953699112,0.06642600148916245,0.4877060055732727,0.21312099695205688,0.23050600290298462,0.21627900004386902,0.07139500230550766,0.050234001129865646,0.050939999520778656,-0.48127099871635437,0.2510319948196411,-0.13285599648952484,0.3263629972934723,0.0020169999916106462,-0.3523690104484558,-0.4058150053024292,-0.35465601086616516,-0.09727700054645538,-0.2422959953546524,-0.23880399763584137,0.11749900132417679,0.13060900568962097,-0.5970659852027893,0.13757100701332092,0.17104500532150269,0.2468159943819046,-0.06193099915981293,-0.24910500645637512,-0.16806800663471222,0.11228799819946289,0.1779949963092804,-0.19286200404167175,-0.2677850127220154,-0.5659559965133667,0.012362999841570854,0.026441000401973724,-0.19736699759960175,-0.17705899477005005,-0.016759999096393585,-0.2556610107421875,-0.19994500279426575,0.28187599778175354,0.16000600159168243,0.19287699460983276,0.03826700150966644,0.09297499805688858,-0.13708600401878357,0.01951500028371811,0.08884900063276291,-0.2165990024805069,-0.4390360116958618,0.05273199826478958,0.4375790059566498,-0.013116000220179558,0.0263420008122921,-0.029916999861598015,-0.09747300297021866,0.35312798619270325,-0.352728009223938,-0.030254000797867775,0.12287499755620956,0.009176000021398067,0.04525500163435936,0.15334400534629822,0.201433002948761,-0.22337600588798523,0.012466000393033028,-0.07966800034046173,-0.09811899811029434,0.0380139984190464,0.24550800025463104,-0.19945800304412842,-0.014042999595403671,-0.28136199712753296,0.6687260270118713,-0.578548014163971,0.020028000697493553,-0.2953850030899048,0.04374700039625168,-0.143995001912117,0.2113790065050125,-0.10289599746465683,0.1840369999408722,-0.3542419970035553,-0.20063799619674683,0.02332800067961216,-0.10239800065755844,-0.05703999847173691,-0.2130029946565628,-0.11031199991703033,-0.11675699800252914,-0.05426599830389023,0.1777929961681366,0.018559999763965607,-0.2032269984483719,-0.07133699953556061,0.23794199526309967,-0.16905200481414795,-0.33087998628616333,-0.05886000022292137,0.2569510042667389,-0.15745599567890167,0.5510540008544922,0.09949900209903717,-0.09954600036144257,-0.12442199885845184,-0.17647500336170197,0.14045800268650055,-0.048333000391721725,0.01641800068318844,0.16957199573516846,-0.039096999913454056,-0.001433999976143241,-0.1666409969329834,0.4456459879875183,0.07221200317144394,-0.18384599685668945,-0.3217169940471649,0.050356000661849976,0.06627000123262405,0.05549800023436546,0.06204500049352646,-0.20669999718666077,0.005311000160872936,-0.18458999693393707,-0.25342899560928345,-0.07276300340890884,0.22765600681304932,-0.07446099817752838,-0.04902200028300285,0.2329609990119934,0.1498579978942871,0.2814750075340271,0.10004600137472153,0.044776998460292816,0.29589399695396423,0.007573000155389309,-0.16908599436283112,-0.006492000073194504,0.11822400242090225,0.30545398592948914,-0.06735800206661224,0.26395300030708313,0.06269600242376328,0.2758530080318451,-0.11241400241851807,-0.2607870101928711,-0.04604699835181236,-0.010761000216007233,0.08726999908685684,-0.08238700032234192,0.0038610000628978014,0.22299900650978088,0.1865610033273697,-0.2876279950141907,0.055341001600027084,0.1854500025510788,-0.1701119989156723,-0.2896279990673065,-0.3797680139541626,0.025761999189853668,0.242807999253273,0.08208400011062622,-0.10938099771738052,-0.3829270005226135,0.12514199316501617,0.04222499951720238,-0.1315319985151291,0.19319100677967072,0.18606500327587128,0.025929000228643417,0.19122399389743805,-0.0044109998270869255,0.0005099999834783375,-0.08737099915742874,-0.06301700323820114,-0.10180199891328812,0.1944040060043335,-0.12291999906301498,0.09718099981546402,0.2711330056190491,0.3483960032463074,0.093019999563694,0.2032659947872162,-0.2838500142097473,0.24528899788856506,-0.07382699847221375,0.029054999351501465,0.1844480037689209,-0.04177900031208992,-0.09396100044250488,0.1360969990491867,0.09057100117206573,-0.5081040263175964,0.030609000474214554,-0.41264599561691284,0.18646499514579773,-0.24376699328422546,-0.07689700275659561,0.1843229979276657,0.014619999565184116,-0.01231400016695261,-0.0038330000825226307,0.3077709972858429,0.23428599536418915,-0.1470469981431961,0.27125099301338196,0.17647500336170197,0.03609500080347061,0.4579150080680847,0.046271998435258865,0.29119399189949036,-0.048962000757455826,-0.34007298946380615,0.12113700062036514,-0.3225579857826233,-0.08754400163888931,-0.1777070015668869,-0.1879889965057373,0.1707340031862259,0.0066200001165270805,0.14572399854660034,-0.12835200130939484,0.12184199690818787,0.07804100215435028,0.5250629782676697,-0.015201999805867672,-0.3737049996852875,0.056210000067949295,0.17859099805355072,0.2698419988155365,0.11757399886846542,-0.002148000057786703,-0.006417000200599432,0.03046800009906292,-0.44011199474334717,0.03255699947476387,-0.03367200121283531,0.061496999114751816,0.429735004901886,0.18661899864673615,-0.09056100249290466,-0.19197000563144684,-0.2936359941959381,0.049302998930215836,0.31078699231147766,0.07044900208711624,0.041370999068021774,-0.05961599946022034,-0.1178940013051033,0.07262100279331207,-0.5098469853401184,-0.1104540005326271,-0.38600099086761475,-0.20391400158405304,-0.027300000190734863,0.21021400392055511,0.08259499818086624,0.40927401185035706,0.15376000106334686,-0.24622699618339539,-0.002355000004172325,-0.11382699757814407,-0.2026969939470291,-0.0817599967122078,0.0021750000305473804,0.09591499716043472,0.08711899816989899,0.22191399335861206,-0.19381099939346313,-0.22357900440692902,0.2983019948005676,-0.22047699987888336,0.18642599880695343,-0.3583900034427643,0.0019130000146105886,-0.4402469992637634,-0.19769200682640076,0.15109699964523315,-0.34033700823783875,0.2182600051164627,0.2066590040922165,-0.15383900701999664,0.09279700368642807,-0.1490830034017563,-0.20622199773788452,-0.18959300220012665,-0.48818299174308777,0.04036099836230278,0.1807820051908493,0.09499499946832657,-0.3856320083141327,-0.06389100104570389,0.03901499882340431,0.09542900323867798,0.039462000131607056,-0.01987599954009056,-0.028920000419020653,0.07834599912166595,-0.25607699155807495,0.0974230021238327,-0.10646499693393707,0.27642199397087097,0.3596700131893158,0.3142789900302887,-0.23455600440502167,0.05210699886083603,0.05758700147271156,0.061698999255895615,-0.10388100147247314,-0.46809300780296326,0.40809398889541626,-0.11171700060367584,-0.34808799624443054,0.250450998544693,0.3102149963378906,0.0348379984498024,0.34594500064849854,-0.0194690003991127,0.2771430015563965,0.04913900047540665,-0.1948069930076599,0.09511899948120117,-0.11846499890089035
运行,0.03751999884843826,0.271028995513916,0.016745999455451965,0.1883780062198639,-0.06280200183391571,-0.21612200140953064,0.011572999879717827,0.22228699922561646,0.13745400309562683,0.02826699987053871,-0.06501200050115585,-0.3077299892902374,-0.19537700712680817,0.017514999955892563,-0.1910420060157776,0.09682899713516235,5.2999999752501026e-05,-0.06919299811124802,-0.08874399960041046,-0.19275400042533875,-0.14481200277805328,-0.1494539976119995,-0.10477499663829803,0.14323100447654724,0.06446599960327148,-0.034060999751091,0.04051100090146065,-0.09713400155305862,0.0006799999973736703,0.006697000004351139,0.23254899680614471,-0.08736500144004822,0.08368200063705444,0.2764340043067932,-0.16050800681114197,-0.07155700027942657,-0.0002859999949578196,-0.00879599992185831,0.17951799929141998,-0.13094300031661987,-0.16192500293254852,0.23620900511741638,0.2866550087928772,0.08014599978923798,0.27521899342536926,-0.061184000223875046,-0.06165099889039993,-0.046330999583005905,0.10013200342655182,-0.2124059945344925,-0.3831599950790405,0.0845090001821518,-0.016133999451994896,0.14710800349712372,0.008744999766349792,-0.19687700271606445,-0.3689979910850525,0.07452400028705597,0.14864900708198547,-0.0009629999985918403,0.01222699973732233,0.07506100088357925,-0.07416599988937378,-0.03432000055909157,-0.17028899490833282,0.009343000128865242,-0.41298699378967285,0.2502099871635437,-0.07321999967098236,-0.011095000430941582,-0.3930610120296478,-0.10341200232505798,-0.03251900151371956,0.1504479944705963,0.19546400010585785,-0.11561799794435501,0.0181099995970726,0.27229100465774536,0.24599699676036835,-0.00493700010702014,0.2362000048160553,-0.22326700389385223,0.2540389895439148,0.1570259928703308,-0.15690399706363678,-0.11982200294733047,-0.21706800162792206,-0.1370130032300949,-0.08746100217103958,-0.12906600534915924,-0.11910299956798553,-0.21087700128555298,-0.1375190019607544,-0.3268339931964874,0.3370969891548157,0.16396500170230865,-0.043848998844623566,-0.1048090010881424,-0.28109800815582275,-0.006597000174224377,0.2682630121707916,0.17343899607658386,-0.11604300141334534,-0.3471969962120056,-0.0538409985601902,0.14831699430942535,0.004819999914616346,0.14647400379180908,-0.16734999418258667,0.16175200045108795,0.017681999132037163,-0.007199999876320362,-0.2786029875278473,0.1342180073261261,-0.18316799402236938,-0.1455419957637787,0.06703200191259384,-0.23749199509620667,0.21493299305438995,0.2959060072898865,0.1507910043001175,0.0014280000468716025,-0.22104300558567047,0.07942499965429306,0.37217000126838684,-0.027699999511241913,-0.5662180185317993,-0.10585000365972519,0.21716099977493286,-0.16824199259281158,-0.1157590001821518,-0.28839099407196045,-0.0728679969906807,-0.13960500061511993,0.1562110036611557,-0.2827939987182617,0.03968900069594383,0.34716299176216125,0.04402900114655495,0.14285700023174286,0.3269819915294647,0.08919800072908401,-0.05509699881076813,0.23396599292755127,-0.055844999849796295,0.15577100217342377,0.07012200355529785,-0.15641500055789948,-0.07685399800539017,-0.24566799402236938,-0.048537999391555786,-0.4352569878101349,0.014359000138938427,-0.08209100365638733,-0.2770189940929413,0.20035000145435333,0.10597799718379974,-0.06750400364398956,0.07999599725008011,-0.34543800354003906,-0.15563400089740753,0.1088080033659935,0.1483979970216751,0.19662199914455414,-0.14500899612903595,0.004172999877482653,0.18104800581932068,-0.4126940071582794,0.17964600026607513,-0.4449709951877594,-0.14899900555610657,0.03741399943828583,0.1163880005478859,0.12667299807071686,0.041505999863147736,-0.24311600625514984,-0.04122199863195419,-0.31203600764274597,-0.10478899627923965,0.03970399871468544,-0.02538199909031391,0.0011220000451430678,-0.09404899924993515,0.07003699988126755,-0.037092000246047974,0.09446799755096436,0.2860899865627289,0.04432599991559982,-0.0070489998906850815,0.05211000144481659,0.08320499956607819,0.06826599687337875,-0.31043100357055664,0.13195599615573883,-0.2582570016384125,-0.052685000002384186,0.01484999991953373,-0.04697899892926216,-0.07410100102424622,0.07777900248765945,-0.05046899989247322,-0.08903700113296509,-0.19888900220394135,-0.19155000150203705,-0.030274000018835068,-0.042892999947071075,0.012443999759852886,0.06741999834775925,0.06535600125789642,-0.42197999358177185,-0.06495299935340881,-0.00043200000072829425,0.10283300280570984,0.040144000202417374,-0.10693500190973282,-0.14782699942588806,-0.26436400413513184,-0.3941799998283386,0.1352829933166504,-0.21930399537086487,0.17099100351333618,0.15290099382400513,0.18745599687099457,-0.15944799780845642,0.12032400071620941,0.08894799649715424,0.07098600268363953,0.2505509853363037,0.201897993683815,0.046953000128269196,-0.310373991727829,-0.03849500045180321,-0.0874980017542839,0.12367899715900421,-0.08597099781036377,-0.16756799817085266,-0.13675999641418457,-0.3021079897880554,0.2709439992904663,-0.25833800435066223,-0.05021199956536293,-0.42999300360679626,-0.046863000839948654,-0.18334899842739105,0.1148189976811409,0.03915499895811081,0.22318999469280243,-0.22263100743293762,-0.03168800100684166,0.19418400526046753,0.062313999980688095,0.04577900096774101,0.11695100367069244,-0.15821999311447144,-0.04520300030708313,0.12157700210809708,-0.04657299816608429,-0.18111400306224823,0.10782600194215775,0.18461200594902039,0.09438599646091461,-0.3606890141963959,-0.1941480040550232,0.037404999136924744,-0.20445199310779572,-0.04094399884343147,0.21033599972724915,0.28253400325775146,0.07071000337600708,0.14339299499988556,0.1124730035662651,-0.004075000062584877,0.2067590057849884,0.3815859854221344,0.051621001213788986,-0.09741999953985214,0.35839200019836426,0.10639700293540955,-0.30588099360466003,-0.06277800351381302,-0.030256999656558037,0.14216800034046173,-0.052313998341560364,0.01312899962067604,-0.17276600003242493,-0.10818299651145935,-0.1587419956922531,0.374889999628067,0.3489370048046112,0.5793129801750183,-0.09298299998044968,-0.22615599632263184,0.12764500081539154,-0.3534710109233856,-0.27146899700164795,0.011500000022351742,0.3668859899044037,-0.1105789989233017,-0.045166999101638794,0.1499830037355423,0.16970999538898468,0.14622899889945984,0.01658800058066845,0.12310600280761719,0.12116099894046783,0.19035400450229645,0.11539100110530853,0.19091999530792236,-0.04281499981880188,-0.07822299748659134,0.10801000148057938,0.18537800014019012,0.006666999775916338,0.25578799843788147,0.008198999799787998,0.2876049876213074,0.010750999674201012,-0.1872369945049286,0.16799399256706238,-0.12952600419521332,-0.13087600469589233,-0.10534700006246567,-0.1260180026292801,0.03720699995756149,0.159169003367424,0.1259869933128357,0.07155399769544601,-0.15199600160121918,0.004951000213623047,-0.5300570130348206,0.2657870054244995,-0.16110199689865112,0.004852999933063984,0.26742398738861084,0.21358400583267212,0.24559199810028076,-0.2834300100803375,0.010351000353693962,-0.17058700323104858,0.017247000709176064,-0.1536259949207306,-0.2793459892272949,0.05884899944067001,0.28836798667907715,0.23499399423599243,-0.03140600025653839,0.10567999631166458,0.3673520088195801,-0.01078999973833561,-0.09388499706983566,0.189860999584198,0.016905000433325768,0.04541600123047829,0.03214799985289574,0.06077500060200691,-0.38613200187683105,-0.39517199993133545,0.416592001914978,0.18369700014591217,0.22889700531959534,-0.109375,-0.30524900555610657,0.18751099705696106,0.16203300654888153,-0.26487699151039124,0.13367100059986115,-0.31781500577926636,-0.0638120025396347,0.05381999909877777,0.1326189935207367,-0.10926800221204758,0.10820700228214264,-0.09129100292921066,-0.03336099907755852,0.0694890022277832,-0.24879799783229828,-0.059436000883579254,0.04969999939203262,0.1362760066986084,0.06138499826192856,-0.06206199899315834,-0.3416700065135956,-0.10801199823617935,0.09604500234127045,0.12377399951219559,-0.29119399189949036,-0.22958500683307648,-0.17497499287128448,-0.10308700054883957,-0.029905999079346657,-0.14215900003910065,0.03258499875664711,0.11695700138807297,0.012586000375449657,-0.3106420040130615,0.5768359899520874,-0.20403699576854706,-0.13293300569057465,-0.06625500321388245,-0.050179000943899155
监测,0.16796700656414032,0.12147500365972519,0.26914700865745544,-0.20507599413394928,-0.02168699912726879,-0.075654998421669,-0.0827609971165657,0.11850100010633469,-0.016481000930070877,-0.08067800104618073,-0.0683320015668869,-0.04929099977016449,-0.07236699759960175,-0.01816299930214882,0.04919299855828285,-0.15622200071811676,-0.19162599742412567,-0.02403699979186058,-0.02600100077688694,-0.3128719925880432,0.07329700142145157,-0.24782900512218475,0.07823000103235245,-0.014608999714255333,0.15896999835968018,0.16387000679969788,-0.22913199663162231,0.05557199940085411,-0.03987099975347519,0.3553999960422516,0.22777299582958221,0.23522800207138062,0.1446869969367981,0.188167005777359,-0.19979999959468842,-0.3943670094013214,0.11322099715471268,-0.26172998547554016,-0.06113100051879883,-0.014919999986886978,-0.1471630036830902,-0.5515210032463074,0.001879999996162951,0.2087859958410263,0.02618500031530857,0.023868000134825706,-0.06832999736070633,-0.10594400018453598,-0.04720799997448921,-0.08630000054836273,0.19420599937438965,-0.1935189962387085,0.2236589938402176,-0.27967599034309387,0.08271799981594086,-0.230772003531456,-0.021452000364661217,0.253275990486145,0.19807499647140503,0.07754500210285187,-0.0034570000134408474,0.0899450033903122,-0.24644899368286133,-0.20799100399017334,-0.11484599858522415,-0.12890100479125977,0.10893800109624863,-0.10083500295877457,0.09945499897003174,0.24430599808692932,-0.28036901354789734,-0.013387000188231468,0.1278039962053299,0.16815300285816193,-0.15524999797344208,-0.2922210097312927,0.058049000799655914,-0.026771999895572662,0.05064399912953377,0.06154000014066696,0.03515600040555,0.2921989858150482,0.09218599647283554,0.0086899995803833,-0.10987800359725952,0.22021499276161194,0.1310890018939972,0.10994099825620651,-0.07389199733734131,0.14280100166797638,0.08459100127220154,-0.02388099953532219,-0.24121400713920593,0.1317880004644394,-0.0611799992620945,-0.033245999366045,-0.07831399887800217,0.07409700006246567,-0.18348200619220734,0.09460499882698059,0.07467400282621384,0.11055800318717957,0.3127659857273102,-0.1245570033788681,-0.002474999986588955,0.06891000270843506,-0.13948599994182587,-0.07158300280570984,0.15497800707817078,-0.2381500005722046,0.05762999877333641,0.10484500229358673,0.03390999883413315,0.15345999598503113,0.0847179964184761,0.006378999911248684,0.1225380003452301,0.010815000161528587,-0.014533000066876411,0.07723700255155563,0.025692999362945557,0.0053170002065598965,0.17976100742816925,-0.0157260000705719,0.12156099826097488,0.0981689989566803,-0.19156000018119812,-0.030873000621795654,0.048165999352931976,-0.011859999969601631,0.2028059959411621,0.15547199547290802,-0.18528799712657928,-0.14136099815368652,0.030215999111533165,-0.0762609988451004,0.150518998503685,-0.011773999780416489,-0.10673400014638901,0.07311899960041046,-0.2209549993276596,0.003734000027179718,-0.04933999851346016,0.06839299947023392,-0.1523820012807846,-0.10255400091409683,-0.08496099710464478,0.17110399901866913,-0.12021999806165695,-0.09683699905872345,0.0663679987192154,-0.24905599653720856,-0.3417370021343231,0.08175700157880783,0.10781999677419662,-0.030307000502943993,0.060986001044511795,0.00964100006967783,0.4064759910106659,-0.10379000008106232,0.03497999906539917,0.20003199577331543,0.2598020136356354,-0.028310000896453857,-0.20009200274944305,0.16320699453353882,0.06686300039291382,-0.09650299698114395,0.10812299698591232,0.058122001588344574,-0.12354499846696854,-0.1446000039577484,-0.28937798738479614,0.20838500559329987,-0.2651210129261017,-0.05791499838232994,-0.03143800050020218,-0.06786199659109116,0.329135000705719,0.1373320072889328,0.3635520040988922,0.09749999642372131,-0.13123199343681335,-0.1626950055360794,0.09301300346851349,-0.019190000370144844,0.16812799870967865,0.031072000041604042,0.20781299471855164,-0.06314100325107574,0.20306099951267242,0.11891999840736389,0.3352690041065216,-0.0039470000192523,0.1153469979763031,-0.027992000803351402,0.01104000024497509,-0.015320000238716602,-0.19714899361133575,-0.10103700309991837,-0.007457000203430653,-0.1296740025281906,-0.11873699724674225,0.04897100105881691,-0.06913600116968155,-0.0756480023264885,0.25007399916648865,-0.11326800286769867,-0.002641000086441636,0.20854100584983826,-0.08344600349664688,0.1188419982790947,-0.008779999800026417,0.10638999938964844,0.23608100414276123,0.07999300211668015,0.27307799458503723,-0.01144499983638525,0.16332300007343292,-0.00843099970370531,-0.0041680000722408295,-0.11878000199794769,0.059606000781059265,-0.0438620001077652,-0.06687600165605545,-0.1633789986371994,0.023336000740528107,-0.12268199771642685,-0.06949400156736374,0.18699400126934052,-0.020914999768137932,-0.1143689975142479,0.16713300347328186,0.2598710060119629,-0.05874500051140785,-0.03149800002574921,-0.1608549952507019,0.29719799757003784,-0.1273690015077591,-0.2390040010213852,-0.11891499906778336,0.011772999539971352,-0.28631600737571716,0.06410299986600876,0.05419100075960159,-0.022954000160098076,0.05759799852967262,-0.0030350000597536564,0.0766180008649826,0.011207999661564827,-0.013472000136971474,0.015418999828398228,0.020128000527620316,0.06624600291252136,-0.08117400109767914,0.0023139999248087406,0.08077599853277206,0.20438499748706818,0.18927200138568878,-0.11296399682760239,-0.0284269992262125,-0.022033000364899635,0.30600300431251526,0.033201999962329865,0.013296999968588352,-0.12626799941062927,-0.09920000284910202,0.09085000306367874,0.06718900054693222,-0.2854579985141754,-0.23792600631713867,-0.05091699957847595,0.11449400335550308,-0.013779999688267708,0.17188499867916107,0.1547120064496994,-0.023986000567674637,0.11263299733400345,-0.1922360062599182,0.10210999846458435,-0.0724869966506958,-0.20955100655555725,-0.047481000423431396,0.08241400122642517,-0.19272500276565552,-0.28714001178741455,0.03922300040721893,-0.049178000539541245,0.07748399674892426,-0.11648000031709671,-0.226842001080513,0.09081300348043442,0.1599929928779602,-0.0495540015399456,0.05621299892663956,-0.08155900239944458,0.25184500217437744,0.029330000281333923,-0.21830900013446808,0.376477986574173,-0.10251399874687195,0.01622300036251545,0.2545810043811798,0.012457000091671944,-0.08909600228071213,0.05728299915790558,-0.09867999702692032,0.1824759989976883,-0.02562600001692772,0.18802200257778168,0.09769800305366516,-0.05630100145936012,0.11466600000858307,-0.09506499767303467,-0.034175001084804535,0.3077160120010376,0.07303500175476074,-0.2352920025587082,0.16814500093460083,-0.20605699717998505,0.02737800031900406,-0.10394400358200073,0.17684799432754517,0.07777000218629837,0.03678400069475174,0.03587999939918518,-0.05800199881196022,-0.3749389946460724,-0.20292599499225616,-0.16602599620819092,0.07314399629831314,0.025232000276446342,0.1084659993648529,0.10635200142860413,0.32685399055480957,0.04364899918437004,0.04604300111532211,-0.08082699775695801,-0.3047249913215637,-0.009169000200927258,-0.16162599623203278,-0.21791599690914154,-0.15545399487018585,0.010282999835908413,0.01040900032967329,-0.16098999977111816,0.06362300366163254,-0.0970269963145256,-0.22273500263690948,-0.017994999885559082,-0.026909999549388885,-0.35380300879478455,-0.11242099851369858,0.06353200227022171,0.1854030042886734,0.19244399666786194,-0.1587979942560196,0.479777991771698,-0.05876399949193001,-0.03001300059258938,0.005541999824345112,0.2082349956035614,0.09346900135278702,-0.1666489988565445,-0.11469200253486633,-0.3347800076007843,0.17616599798202515,-0.31678399443626404,-0.38495901226997375,-0.03349100053310394,0.2712169885635376,-0.17429900169372559,0.28304100036621094,-0.4134339988231659,-0.08132900297641754,-0.317782998085022,0.0558600015938282,-0.04386100172996521,-0.07671800255775452,0.1601710021495819,-0.11165100336074829,0.002423000056296587,0.11559899896383286,-0.021317999809980392,0.1803870052099228,0.09386599808931351,-0.20491500198841095,-0.14506299793720245,0.17098499834537506,-0.037831999361515045,-0.22935199737548828,0.20941400527954102,0.05639300122857094,-0.07407700270414352,-0.07441800087690353,0.43747198581695557,-0.23276899755001068,-0.03170600160956383,0.14390400052070618,-0.4025630056858063
速度,0.00038400001358240843,0.24695700407028198,0.03162800148129463,0.11352899670600891,0.1406179964542389,-0.042319998145103455,-0.1381089985370636,0.29072999954223633,0.07574000209569931,0.21696899831295013,-0.014045000076293945,0.10661700367927551,0.05820700153708458,-0.14195699989795685,-0.1861640065908432,0.19583599269390106,0.0018370000179857016,-0.087117999792099,-0.45564499497413635,-0.07701999694108963,-0.1833219975233078,0.03307899832725525,0.14538800716400146,0.12380500137805939,0.006794000044465065,-0.028720999136567116,-0.08816500008106232,-0.015502999536693096,0.06962800025939941,-0.3591580092906952,-0.08805699646472931,-0.03278300166130066,0.06355399638414383,0.10238199681043625,-0.18521900475025177,0.009564000181853771,0.10739199817180634,-0.32174500823020935,0.5010169744491577,0.1662909984588623,-0.17123299837112427,-0.18781399726867676,0.06829100102186203,0.5551689863204956,0.04487700015306473,0.05972500145435333,0.07592300325632095,-0.24797099828720093,0.18407300114631653,-0.060837000608444214,0.154448002576828,-0.2319830060005188,-0.007526999805122614,-0.06992799788713455,-0.052223000675439835,0.060614001005887985,-0.20343400537967682,-0.1646759957075119,0.07741499692201614,0.03440599888563156,0.026629000902175903,0.04044799879193306,-0.17909300327301025,0.02071099914610386,-0.10166499763727188,0.06314399838447571,-0.16893500089645386,0.17623400688171387,-0.08941199630498886,-0.1105630025267601,-0.21749700605869293,-0.09477400034666061,0.12612999975681305,-0.053178999572992325,-0.08762799948453903,-0.4424229860305786,-0.187718003988266,0.12145499885082245,0.04506500065326691,-0.09089100360870361,0.1721850037574768,-0.2672399878501892,0.19502200186252594,0.18074899911880493,-0.20418399572372437,-0.1943420022726059,0.002715999959036708,-0.022066999226808548,-0.06729400157928467,-0.08769600093364716,-0.23908600211143494,0.08839800208806992,-0.0320420004427433,-0.11915799975395203,0.286765992641449,-0.19674399495124817,-0.09119399636983871,0.28867700695991516,-0.07150000333786011,-0.11569199711084366,0.16184499859809875,0.3563289940357208,-0.06958000361919403,-0.169854998588562,-0.047805000096559525,0.029095999896526337,-0.060405999422073364,0.12321999669075012,-0.1824129968881607,-0.15257099270820618,0.3864549994468689,0.17566099762916565,-0.12577800452709198,-0.06507200002670288,-0.2915169894695282,-0.1996619999408722,-0.20005899667739868,-0.25405898690223694,-0.22856199741363525,0.3229359984397888,-0.012474000453948975,-0.14061999320983887,-0.3604939877986908,-0.3301909863948822,0.2606459856033325,0.18185700476169586,-0.0658240020275116,0.09634800255298615,0.21718600392341614,-0.056425001472234726,0.12448900192975998,0.12373600155115128,-0.017573999240994453,0.044783998280763626,0.0639910027384758,-0.06950300186872482,0.06447000056505203,-0.1301259994506836,-0.31666699051856995,0.12780599296092987,-0.014426000416278839,0.15505200624465942,0.013067999854683876,-0.04953400045633316,-0.09314700216054916,-0.057693999260663986,-0.15468299388885498,-0.07205899804830551,0.017076000571250916,-0.07793500274419785,0.029291000217199326,-0.029895000159740448,-0.15744100511074066,0.2925350069999695,-0.03419800102710724,0.03731200098991394,0.14445500075817108,-0.1377429962158203,0.09063199907541275,-0.1242619976401329,0.039030998945236206,0.038986001163721085,0.04315900057554245,-0.14008399844169617,0.009057000279426575,-0.1320990025997162,-0.010102000087499619,-0.22424200177192688,-0.09180700033903122,0.013811999931931496,-0.38019898533821106,0.2768220007419586,0.08757399767637253,-0.04543000087141991,-0.17288599908351898,-0.08229699730873108,-0.08914399892091751,-0.18331800401210785,0.15140999853610992,-0.026201000437140465,0.10660599917173386,0.05943400040268898,-0.19881699979305267,0.05600700154900551,-0.1402209997177124,-0.04193999990820885,0.07917699962854385,-0.054402001202106476,0.08219499886035919,0.03758399933576584,0.1393660008907318,0.2673949897289276,-0.12667199969291687,0.07914599776268005,0.02186400070786476,0.004867000039666891,0.23429900407791138,0.10492300242185593,-0.03636299818754196,0.019311999902129173,0.18759499490261078,-0.2173749953508377,-0.4763540029525757,0.04055299982428551,-0.30790698528289795,-0.18922899663448334,0.2133760005235672,-0.2568509876728058,0.046723999083042145,-0.1353590041399002,-0.02792000025510788,-0.24295400083065033,0.1440339982509613,0.02718699909746647,0.06193900108337402,-0.198184996843338,0.06137099862098694,-0.1759990006685257,0.0661420002579689,-0.02874399907886982,-0.08974800258874893,0.007104000076651573,0.01825300045311451,-0.06530000269412994,0.23829099535942078,0.12710699439048767,0.44669100642204285,0.09651000052690506,-0.05119600147008896,0.04462600126862526,-0.3001909852027893,-0.28296101093292236,0.06190799921751022,0.1467059999704361,-0.015845999121665955,-0.30730000138282776,-0.10498300194740295,0.04324899986386299,-0.15786799788475037,0.19875499606132507,-0.01699800044298172,-0.16442500054836273,0.12045899778604507,-0.29653099179267883,0.1710990071296692,-0.05401400104165077,-0.10483399778604507,-0.16974300146102905,-0.023530999198555946,0.0018100000452250242,-0.09465199708938599,-0.08642300218343735,-0.1764409989118576,0.030226999893784523,-0.38381901383399963,-0.1209309995174408,-0.29698100686073303,-0.11352799832820892,0.16062000393867493,-0.03486499935388565,0.09113699942827225,-0.06192899867892265,-0.04402700066566467,0.00545499986037612,-0.08737900108098984,0.061181001365184784,0.010324000380933285,0.12856200337409973,0.05091499909758568,0.016637999564409256,0.024153999984264374,0.1266389936208725,-0.11141099780797958,0.042451001703739166,0.20184700191020966,0.1374489963054657,0.1168769970536232,0.2376749962568283,-0.09010899811983109,-0.07628799974918365,-0.10071399807929993,0.18147100508213043,0.046702999621629715,0.04207700118422508,-0.1444150060415268,-0.04832499846816063,-0.16269999742507935,0.12394300103187561,-0.02906700037419796,0.17998699843883514,-0.021044999361038208,-0.47879600524902344,-0.03716599941253662,-0.14601700007915497,-0.04073299840092659,-0.1947370022535324,0.07386399805545807,-0.03708000108599663,0.18902899324893951,-0.2974880039691925,-0.036552999168634415,-0.03215600177645683,0.17053799331188202,-0.2190680056810379,0.007699999958276749,-0.09234800189733505,-0.1222819983959198,0.02898699976503849,-0.19224700331687927,-0.09652700275182724,0.24536100029945374,-0.23103700578212738,-0.09221100062131882,0.3272629976272583,0.13189299404621124,0.09866700321435928,-0.021505000069737434,-0.15216000378131866,-0.23255600035190582,-0.38417500257492065,-0.019558999687433243,-0.11949799954891205,-0.10868799686431885,-0.09429799765348434,-0.1345209926366806,-0.25578799843788147,0.11393599957227707,-0.011611999943852425,0.03999499976634979,-0.03843899816274643,0.23548400402069092,-0.002429000101983547,-0.05837399885058403,-0.4068300127983093,0.05325800180435181,0.1446170061826706,-0.279105007648468,-0.04411200061440468,-0.028158999979496002,0.01790899969637394,-0.055755000561475754,-0.3030189871788025,-0.02181299962103367,-0.026142999529838562,0.20628300309181213,0.15941399335861206,-0.14109499752521515,0.23575299978256226,-0.0033569999504834414,-0.08609399944543839,0.1562269926071167,0.1290840059518814,-0.21603600680828094,0.16023999452590942,0.1941950023174286,-0.249766007065773,-0.0891679972410202,0.07978799939155579,-0.05776600167155266,0.23862700164318085,0.07037000358104706,-0.13156400620937347,0.12002599984407425,-0.06969200074672699,-0.09022600203752518,0.0002589999930933118,0.17622700333595276,0.024524999782443047,-0.10160599648952484,0.08924800157546997,-0.17586100101470947,-0.3808949887752533,-0.27650201320648193,-0.08969499915838242,-0.06743799895048141,-0.2816469967365265,-0.08595000207424164,0.1046300008893013,-0.09452299773693085,-0.25120800733566284,0.0950080007314682,-0.12026800215244293,-0.012546000070869923,-0.029472999274730682,0.19427399337291718,0.10620100051164627,-0.027602000162005424,-0.09604500234127045,0.3466329872608185,0.14392800629138947,0.1786240041255951,0.24385599792003632,-0.061875998973846436,-0.027349000796675682,-0.011996000073850155,0.6543560028076172,-0.03244100138545036,-0.08065800368785858,0.15000300109386444,-0.05916300043463707
过程,-0.025008000433444977,-0.016387000679969788,0.07908699661493301,0.0812000036239624,0.12265700101852417,0.02618899941444397,0.053557999432086945,0.23920699954032898,-0.0945340022444725,0.10475999861955643,0.046512000262737274,-0.1197419986128807,0.0653349980711937,-0.29372599720954895,-0.07536300271749496,-0.02186400070786476,-0.02374500036239624,-0.03283600136637688,-0.09384500235319138,-0.14666500687599182,-0.03202399984002113,-0.061149999499320984,0.0017989999614655972,0.1434199959039688,0.07574699819087982,0.18333999812602997,-0.11190800368785858,-0.033897001296281815,0.08941999822854996,0.21629999577999115,0.01231400016695261,0.00659500015899539,-0.10458700358867645,0.014062999747693539,0.03569599986076355,0.1007160022854805,-0.014453999698162079,-0.2299319952726364,-0.027137000113725662,-0.02575100027024746,0.1256369948387146,-0.03329699859023094,-0.12967200577259064,0.07728199660778046,0.0610480010509491,0.06293299794197083,-0.01738700084388256,-0.1425890028476715,0.054944999516010284,0.10050199925899506,-0.10582400113344193,0.008433000184595585,0.07067699730396271,0.005241999868303537,0.0480789989233017,-0.1592170000076294,-0.03380599990487099,-0.04437899962067604,-0.05399699881672859,0.06656999886035919,0.039737001061439514,-0.05946499854326248,0.09768799692392349,-0.07116299867630005,0.12535500526428223,0.019355999305844307,0.019874999299645424,0.12186799943447113,0.029572999104857445,0.03141399845480919,0.006556999869644642,-0.021703999489545822,-0.010866000317037106,-0.22508099675178528,0.04240800067782402,-0.0046270000748336315,0.12451999634504318,-0.004011000040918589,0.08729899674654007,-0.008836999535560608,-0.149058997631073,-0.17417800426483154,-0.15848299860954285,0.027226999402046204,-0.17335399985313416,-0.02869899943470955,0.021467000246047974,0.08020099997520447,-0.009235999546945095,0.09817499667406082,0.0010509999701753259,-0.0782800018787384,-0.22748200595378876,-0.022646000608801842,-0.10037200152873993,-0.1742440015077591,0.10316099971532822,0.005291000008583069,-0.15925399959087372,-0.051128000020980835,0.046796999871730804,-0.05874500051140785,0.13703399896621704,0.051451001316308975,0.08518899977207184,0.12576599419116974,-0.014945999719202518,0.00887299980968237,0.02585200034081936,-0.14399699866771698,-0.1108269989490509,0.27561599016189575,-0.06075799837708473,-0.07862500101327896,-0.13267000019550323,0.14056000113487244,-0.064970001578331,0.04562399908900261,0.018862999975681305,0.04869699850678444,-0.061138998717069626,0.09213099628686905,-0.07128699868917465,0.06841299682855606,0.0570559985935688,0.09823500365018845,-0.17793700098991394,-0.003657999914139509,-0.18028299510478973,-0.06315899640321732,0.03423900157213211,-0.2540149986743927,-0.002930999966338277,0.2328519970178604,0.0047160000540316105,0.024188000708818436,0.09960400313138962,-0.0928409993648529,-0.011060000397264957,-0.06500200182199478,0.007627000100910664,0.09180799871683121,0.03483099862933159,-0.05603700131177902,0.014587000012397766,0.07591500133275986,-0.1945289969444275,0.17660099267959595,0.046386998146772385,0.08205100148916245,-0.01837800070643425,-0.12289399653673172,0.08624300360679626,-0.15471400320529938,-0.04058000072836876,0.028699999675154686,0.025520000606775284,0.05970099940896034,0.05286100134253502,0.038499001413583755,-0.044488001614809036,-0.12733100354671478,-0.04790100082755089,-0.005758000072091818,-0.016062000766396523,0.03448700159788132,0.03972100093960762,0.09342800080776215,0.10242000222206116,0.0436910018324852,-0.14344699680805206,0.20300500094890594,-0.18993599712848663,0.017240000888705254,-0.030479000881314278,-0.06571300327777863,-0.10960599780082703,0.11185900121927261,0.06682000309228897,0.027865000069141388,0.07944100350141525,-0.024058999493718147,0.007857000455260277,0.010579000227153301,0.058685000985860825,-0.010286999866366386,0.1973540037870407,0.05677799880504608,0.05669499933719635,0.0942469984292984,0.07473599910736084,0.08479399979114532,-0.06461799889802933,0.046560999006032944,0.06583099812269211,-0.2742669880390167,0.1203790009021759,0.05162400007247925,-0.21634900569915771,0.014448000118136406,0.19472800195217133,-0.033247001469135284,0.043303001672029495,0.14387600123882294,-0.20466099679470062,-0.20215800404548645,0.2665790021419525,-0.024515999481081963,-0.05605600029230118,0.04062400013208389,0.020665999501943588,-0.05423400178551674,0.08408500254154205,0.08389600366353989,0.013267000205814838,-0.1022230014204979,-0.05593699961900711,0.0327330008149147,0.040667999535799026,-0.10394600033760071,-0.03596000000834465,-0.10546500235795975,-0.046250998973846436,-0.11112599819898605,0.15985099971294403,-0.20226000249385834,0.015622000209987164,0.022306999191641808,-0.053739000111818314,0.1304740011692047,-0.08785399794578552,0.051249001175165176,-0.07831600308418274,-0.01460800040513277,0.07258699834346771,0.025637000799179077,0.02356800064444542,0.1124970018863678,0.03589100018143654,-0.026145000010728836,0.06400600075721741,0.06208600103855133,-0.1525299996137619,0.05713900178670883,-0.13366200029850006,0.025668000802397728,-0.01158399973064661,0.006843999959528446,0.07205700129270554,0.08269400149583817,0.012900000438094139,-0.1582999974489212,-0.055344000458717346,-0.08987399935722351,-0.12157999724149704,-0.007996000349521637,0.0287919994443655,-0.028264999389648438,0.01631299965083599,0.19908100366592407,0.04890500009059906,0.1764950007200241,0.014953999780118465,0.020904000848531723,0.14334799349308014,0.10705400258302689,0.0946040004491806,-0.04549400135874748,-0.13312800228595734,0.05593299865722656,-0.15946300327777863,-0.025880999863147736,0.06536299735307693,0.1531369984149933,0.14322799444198608,-0.03147999942302704,-0.1205729991197586,-0.08907400071620941,-0.1986510008573532,0.04941000044345856,-0.009240999817848206,0.02379399910569191,-0.04161899909377098,0.07777799665927887,0.10797999799251556,0.08442900329828262,0.04417499899864197,-0.055302999913692474,-0.08900000154972076,-0.05643700063228607,-0.03058999963104725,0.10027699917554855,-0.05159100145101547,-0.21589000523090363,0.16032999753952026,-0.01381400041282177,0.15478800237178802,0.021987000480294228,0.0065460000187158585,-0.1424030065536499,0.10090000182390213,-0.03064900077879429,0.18176700174808502,-0.0823500007390976,0.10235200077295303,-0.1358650028705597,0.019938999786973,0.059282999485731125,-0.0435510016977787,-0.01948400028049946,-0.03129100054502487,0.047922998666763306,-0.21509699523448944,0.01942499913275242,0.07761500030755997,0.03370000049471855,-0.021904999390244484,0.02780500054359436,-0.023222999647259712,-0.11924900114536285,0.0005469999741762877,0.12066300213336945,0.03205899894237518,-0.1001259982585907,-0.16844800114631653,0.09617000073194504,0.0010130000300705433,-0.2598310112953186,0.07780300080776215,-0.04335499927401543,0.0668879970908165,0.04701000079512596,-0.0841749981045723,-0.18924200534820557,0.15424099564552307,0.08206400275230408,0.1403609961271286,-0.1722410023212433,-0.08701399713754654,-0.05589200183749199,-0.060881998389959335,-0.035023000091314316,-0.11897899955511093,-0.04374700039625168,0.03645399957895279,-0.027310000732541084,0.04881900176405907,0.05765699967741966,-0.11269800364971161,0.26428401470184326,-0.04151799902319908,-0.04963500052690506,-0.06554199755191803,-0.10709500312805176,0.23609699308872223,0.097850002348423,-0.1925009936094284,0.3670249879360199,0.06505200266838074,0.1730560064315796,-0.17288100719451904,0.09296400099992752,0.1873379945755005,0.03798599913716316,-0.07260099798440933,-0.17468500137329102,0.06944199651479721,0.008527999743819237,-0.11484699696302414,-0.03728900104761124,-0.18262100219726562,-0.08932899683713913,0.038353998214006424,-0.047874998301267624,0.06206899881362915,-0.12603600323200226,-0.10749199986457825,-0.023845000192523003,0.11303099989891052,0.1447799950838089,-0.17513300478458405,-0.03319400176405907,0.12968599796295166,0.08206000179052353,0.011090000160038471,0.05821000039577484,-0.0702349990606308,-0.04248199984431267,0.05623700097203255,0.04642000049352646,-0.014853999949991703,0.17284800112247467,0.09356699883937836,-0.09077999740839005,0.016651999205350876,-0.044996000826358795,0.0008960000122897327,-0.0453529991209507,0.052427999675273895,-0.002394000068306923
