word,0,1,2,3,4,5,6,7,8,9,10,11,12,13,14,15,16,17,18,19,20,21,22,23,24,25,26,27,28,29,30,31,32,33,34,35,36,37,38,39,40,41,42,43,44,45,46,47,48,49,50,51,52,53,54,55,56,57,58,59,60,61,62,63,64,65,66,67,68,69,70,71,72,73,74,75,76,77,78,79,80,81,82,83,84,85,86,87,88,89,90,91,92,93,94,95,96,97,98,99,100,101,102,103,104,105,106,107,108,109,110,111,112,113,114,115,116,117,118,119,120,121,122,123,124,125,126,127,128,129,130,131,132,133,134,135,136,137,138,139,140,141,142,143,144,145,146,147,148,149,150,151,152,153,154,155,156,157,158,159,160,161,162,163,164,165,166,167,168,169,170,171,172,173,174,175,176,177,178,179,180,181,182,183,184,185,186,187,188,189,190,191,192,193,194,195,196,197,198,199,200,201,202,203,204,205,206,207,208,209,210,211,212,213,214,215,216,217,218,219,220,221,222,223,224,225,226,227,228,229,230,231,232,233,234,235,236,237,238,239,240,241,242,243,244,245,246,247,248,249,250,251,252,253,254,255,256,257,258,259,260,261,262,263,264,265,266,267,268,269,270,271,272,273,274,275,276,277,278,279,280,281,282,283,284,285,286,287,288,289,290,291,292,293,294,295,296,297,298,299,300,301,302,303,304,305,306,307,308,309,310,311,312,313,314,315,316,317,318,319,320,321,322,323,324,325,326,327,328,329,330,331,332,333,334,335,336,337,338,339,340,341,342,343,344,345,346,347,348,349,350,351,352,353,354,355,356,357,358,359,360,361,362,363,364,365,366,367,368,369,370,371,372,373,374,375,376,377,378,379,380,381,382,383,384,385,386,387,388,389,390,391,392,393,394,395,396,397,398,399
整车,0.06125599890947342,0.2623780071735382,0.0325700007379055,0.20774699747562408,0.055142998695373535,-0.4340510070323944,0.10359500348567963,0.15279099345207214,0.17983900010585785,0.09557799994945526,-0.007400000002235174,0.3023490011692047,0.08259599655866623,-0.060816001147031784,-0.12771500647068024,-0.15971499681472778,-0.1978050023317337,0.20289699733257294,-0.011606000363826752,-0.0789249986410141,0.07479599863290787,-0.1959269940853119,-0.11924300342798233,0.23404499888420105,0.011281000450253487,0.19394800066947937,0.15939100086688995,-0.12422899901866913,-0.0716790035367012,0.28654301166534424,0.24985599517822266,-0.24739399552345276,0.06150899827480316,-0.10473600029945374,-0.2625710070133209,-0.14386199414730072,-0.06123499944806099,-0.05844699963927269,0.33513200283050537,0.10600700229406357,-0.4359709918498993,0.10041400045156479,-0.03798900172114372,0.21299199759960175,-0.0019580000080168247,0.06035799905657768,0.18011300265789032,0.06201300024986267,0.13484899699687958,-0.5762699842453003,-0.5749920010566711,0.14088000357151031,0.09935799986124039,0.09503000229597092,-0.023482000455260277,0.4075770080089569,0.16360799968242645,0.0052200001664459705,-0.22775499522686005,0.10632400214672089,0.04904400184750557,0.09407699853181839,-0.5471540093421936,-0.12856100499629974,-0.053984999656677246,-0.07705999910831451,-0.14098100364208221,0.3840920031070709,0.09034799784421921,0.07146900147199631,-0.22038500010967255,-0.10492099821567535,0.10778799653053284,-0.09248600155115128,0.36622199416160583,-0.04643300175666809,-0.09023399651050568,-0.1813039928674698,0.12830699980258942,-0.028977999463677406,0.3284200131893158,0.07694300264120102,0.03861600160598755,-0.0011909999884665012,-0.1265230029821396,0.29185599088668823,0.1763180047273636,-0.11949200183153152,-0.2167239934206009,-0.06335499882698059,-0.19192300736904144,0.22405600547790527,0.04887000098824501,-0.07465700060129166,-0.18043899536132812,0.1388320028781891,-0.15396499633789062,0.15185600519180298,-0.4256629943847656,0.34540098905563354,-0.208514004945755,0.09980800002813339,0.10383500158786774,0.07913699746131897,-0.15303100645542145,0.07631000131368637,0.05946499854326248,-0.36839601397514343,-0.3201009929180145,-0.40882599353790283,-0.10218200087547302,0.37196099758148193,0.3042660057544708,-0.10981199890375137,0.2232930064201355,-0.002005999907851219,-0.016719000414013863,-0.061990998685359955,0.15917499363422394,0.22032299637794495,-0.21699300408363342,0.20283199846744537,-0.0740789994597435,0.2184620052576065,0.3482840061187744,0.14479200541973114,0.035948000848293304,0.08850999921560287,0.13425099849700928,-0.25244298577308655,0.05944199860095978,-0.13918200135231018,0.536188006401062,0.1655530035495758,0.17993900179862976,0.11393100023269653,-0.24523000419139862,-0.12649600207805634,-0.08362899720668793,0.13250699639320374,-0.026815000921487808,0.1437699943780899,0.07520399987697601,0.23769399523735046,-0.22621500492095947,0.11876499652862549,-0.0040699997916817665,-0.018580999225378036,-0.19045600295066833,0.03220599889755249,0.15780499577522278,-0.2561259865760803,0.23520800471305847,-0.0048039997927844524,-0.07630500197410583,-0.005030999891459942,0.06556999683380127,-0.20708400011062622,-0.025296999141573906,-0.3105669915676117,-0.15696099400520325,0.11420799791812897,0.029992999508976936,0.3360069990158081,0.11496900022029877,-0.08571600168943405,-0.3561969995498657,-0.395020991563797,-0.1195869967341423,0.07211200147867203,0.1385290026664734,-0.06509499996900558,0.2397020012140274,-0.04541600123047829,-0.15979799628257751,0.1636810004711151,-0.15101300179958344,0.14943699538707733,-0.2555220127105713,-0.028700999915599823,0.004639000166207552,-0.06515300273895264,-0.25223299860954285,-0.06235099956393242,-0.22545099258422852,0.40209901332855225,0.20038500428199768,0.08709099888801575,0.016819000244140625,0.29021599888801575,0.10135400295257568,-0.05090799927711487,-0.24405300617218018,0.0812230035662651,0.16220200061798096,0.016888000071048737,-0.1789810061454773,-0.15310899913311005,-0.018749000504612923,-0.16329699754714966,0.009282000362873077,-0.2777140140533447,0.00431900005787611,0.054611001163721085,0.09425599873065948,-0.2703230082988739,0.10111899673938751,-0.07037399709224701,0.4253230094909668,-0.1358029991388321,-0.07227099686861038,-0.21243199706077576,-0.30241501331329346,-0.10926699638366699,0.010790999978780746,0.004991000052541494,-0.07753899693489075,-0.20851999521255493,0.2807439863681793,0.133651003241539,-0.2231229990720749,-0.1213420033454895,0.0798960030078888,-0.4876970052719116,-0.08707000315189362,0.13977999985218048,0.13478699326515198,-0.20414599776268005,0.1499200016260147,0.28543001413345337,-0.46372300386428833,-0.3112899959087372,0.04935299977660179,0.21151499450206757,0.21413999795913696,-0.07062699645757675,0.043175000697374344,-0.21263599395751953,0.2127780020236969,-0.366923987865448,-0.03917500004172325,-0.43719398975372314,-0.04053699970245361,-0.46496498584747314,0.1834069937467575,-0.09267999976873398,0.03615200147032738,-0.33898401260375977,0.039666999131441116,0.0600849986076355,-0.010273000225424767,-0.06717099994421005,-0.1048400029540062,0.10485599935054779,0.21897299587726593,0.05687600001692772,0.048496998846530914,0.30119800567626953,-0.019751999527215958,-0.13348600268363953,-0.1342180073261261,0.0033160001039505005,-0.1393209993839264,0.013849000446498394,-0.3289330005645752,-0.2409529983997345,0.04175499826669693,0.16735899448394775,0.062456000596284866,0.13066299259662628,-0.08679699897766113,-0.02852099947631359,0.0160559993237257,-0.17781999707221985,0.22176499664783478,-0.14271199703216553,-0.07584600150585175,-0.19151200354099274,0.07233399897813797,0.05866700038313866,-0.12040100246667862,0.058768000453710556,0.6211770176887512,-0.21660099923610687,-0.27039000391960144,-0.10687299817800522,-0.13923299312591553,0.13277199864387512,-0.15216299891471863,0.1632779985666275,-0.04944499954581261,-0.2001670002937317,-0.36354199051856995,-0.2586219906806946,-0.16089299321174622,0.015021000057458878,0.3798829913139343,0.32973501086235046,0.22832199931144714,0.13705399632453918,-0.30019399523735046,-0.12253399938344955,-0.04835499823093414,-0.30207398533821106,-0.05615299940109253,0.02085700072348118,-0.12454699724912643,-0.2706820070743561,-0.2302660048007965,0.29777801036834717,-0.1518310010433197,0.31777000427246094,0.09291700273752213,0.09481699764728546,-0.16938699781894684,0.03723200038075447,0.09116200357675552,-0.25486600399017334,-0.04929399862885475,-0.03668300062417984,-0.23333600163459778,-0.22229300439357758,-0.06013200059533119,-0.32265201210975647,0.10527099668979645,0.08777499943971634,0.09400500357151031,-0.13465900719165802,0.22053100168704987,-0.05923699960112572,0.3707810044288635,-0.06799899786710739,-0.2764109969139099,0.0073009999468922615,0.09021700173616409,0.4285010099411011,-0.6400370001792908,-0.3388279974460602,-0.11840000003576279,-0.04938900098204613,-0.2685920000076294,0.0459120012819767,0.16225600242614746,0.02816000021994114,0.09910599887371063,-0.003435000078752637,0.44467899203300476,0.19763800501823425,-0.11538700014352798,-0.3116700053215027,-0.3632130026817322,0.19671599566936493,0.15489399433135986,-0.10689599812030792,0.07092499732971191,-0.2410449981689453,-0.3924010097980499,0.28504401445388794,-0.22708499431610107,-0.09644299745559692,-0.007193999830633402,-0.02636300027370453,0.022921999916434288,0.1134599968791008,-0.08371999859809875,-0.16136300563812256,0.18094000220298767,-0.11599999666213989,0.012261999770998955,-0.16467499732971191,-0.3793799877166748,-0.18852700293064117,-0.1894579976797104,-0.02782999910414219,0.05603700131177902,0.011656999588012695,0.3917500078678131,-0.15124200284481049,-0.3844259977340698,0.04092499986290932,0.19171899557113647,0.09071700274944305,-0.08293800055980682,0.20247900485992432,-0.06796500086784363,0.05716999992728233,-0.24120500683784485,-0.022835999727249146,0.12734100222587585,-0.01867000013589859,-0.33209100365638733,0.1359730064868927,-0.05728000029921532,0.1765570044517517,-0.15383300185203552,0.27884700894355774,-0.34426701068878174,0.2870120108127594,0.21798400580883026,-0.22070899605751038
处于,-0.4163089990615845,0.056598000228405,-0.010844999924302101,0.03145100176334381,-0.08285599946975708,0.01838099956512451,-0.14659300446510315,-0.07313399761915207,-0.2164279967546463,0.235726997256279,0.1521269977092743,-0.3416759967803955,-0.11404000222682953,0.038252998143434525,-0.031197000294923782,-0.08629699796438217,-0.09730400145053864,-0.08958300203084946,-0.1398089975118637,-0.08358500152826309,-0.0536470003426075,0.0007929999846965075,-0.0008479999960400164,0.12275400012731552,-0.18638299405574799,-0.11938200145959854,-0.1156029999256134,0.08117599785327911,0.008867000229656696,0.29119598865509033,-0.1938139945268631,0.12324599921703339,-0.051316000521183014,0.11920300126075745,0.014644999988377094,-0.21859599649906158,0.25046899914741516,-0.25247400999069214,0.1719450056552887,0.07337699830532074,0.11831600219011307,-0.13595500588417053,-0.03891399875283241,0.047853998839855194,0.18328699469566345,0.01640699990093708,0.15961900353431702,0.08585800230503082,-0.06610000133514404,-0.1725109964609146,-0.07302699983119965,-0.15147200226783752,0.15685200691223145,-0.10698699951171875,-0.10338599979877472,-0.12382999807596207,0.02427300065755844,-0.051235999912023544,0.10998699814081192,-0.12985600531101227,-0.002899999963119626,-0.01798900030553341,-0.08971899747848511,-0.27256301045417786,0.06160299852490425,0.006029999814927578,-0.065761998295784,0.05240299925208092,0.02519500069320202,0.23959599435329437,-0.03206200152635574,-0.03798900172114372,0.21579399704933167,0.05499099940061569,-0.09426700323820114,-0.25213998556137085,-0.1626189947128296,0.03686600178480148,-0.12521900236606598,0.02906700037419796,0.1419299989938736,-0.08758600056171417,0.058125998824834824,0.0935399979352951,-0.08623400330543518,0.05827999860048294,-0.08246699720621109,-0.04459699988365173,-0.22179600596427917,0.040192000567913055,-0.031557999551296234,0.06034399941563606,0.1711450070142746,-0.26746198534965515,-0.0425879992544651,-0.030401000753045082,-0.18487699329853058,-0.06514699757099152,0.006289000157266855,0.015087000094354153,-0.10115599632263184,0.005506000015884638,-0.011226999573409557,-0.05741199851036072,-0.11386799812316895,0.032340001314878464,-0.045295000076293945,0.08419699966907501,-0.09483399987220764,0.14868000149726868,0.06557399779558182,0.1592389941215515,-0.09077700227499008,0.10435999929904938,0.08259999752044678,-0.17932499945163727,-0.1270119994878769,0.027153000235557556,-0.15416400134563446,0.2549169957637787,-0.185466006398201,0.08202999830245972,-0.11971800029277802,-0.14547400176525116,0.03631199896335602,0.014104999601840973,-0.12820099294185638,0.18707899749279022,-0.13994799554347992,0.012900000438094139,0.07210399955511093,0.09419099986553192,-0.03843899816274643,-0.18989500403404236,-0.049991998821496964,-0.04128599911928177,0.026026999577879906,-0.02812900021672249,-0.02339399978518486,0.10029900074005127,0.08654599636793137,-0.07601899653673172,-0.014557000249624252,0.14361800253391266,-0.015971999615430832,0.13328300416469574,-0.0018759999657049775,0.010049000382423401,0.07929400354623795,0.04282199963927269,0.08149799704551697,-0.2158229947090149,-0.08303199708461761,0.021913999691605568,0.013674000278115273,-0.38604098558425903,-0.16376900672912598,0.16107699275016785,-0.010378999635577202,0.023793000727891922,-0.0994189977645874,0.15625199675559998,-0.2277120053768158,0.013836000114679337,0.01146399974822998,0.13329100608825684,-0.1590380072593689,0.12277299910783768,-0.17226499319076538,-0.10227400064468384,-0.1941169947385788,0.13236699998378754,-0.2760249972343445,-0.02701600082218647,0.20198799669742584,0.06835900247097015,0.035422999411821365,0.0716710016131401,0.20168299973011017,0.15304699540138245,0.07681400328874588,-0.1747259944677353,0.06886599957942963,-0.002094999887049198,0.0967940017580986,-0.15000000596046448,0.0008590000215917826,-0.010219000279903412,-0.0030610000248998404,0.09437499940395355,0.1877630054950714,0.050887998193502426,0.023282000795006752,-0.057165998965501785,-0.09063299745321274,0.16457599401474,0.22553600370883942,-0.11470100283622742,-0.3434930145740509,0.015382999554276466,-0.06932900100946426,0.12343999743461609,-0.054069001227617264,-0.011126999743282795,0.04950400069355965,-0.14531700313091278,-0.1298770010471344,-0.0744979977607727,8.499999967170879e-05,-0.25707799196243286,0.04343000054359436,0.09200400114059448,0.11046399921178818,-0.06460300087928772,-0.11613500118255615,-0.024647999554872513,-0.03412700071930885,-0.11702699959278107,0.1573379933834076,-0.14071600139141083,0.04118100181221962,0.14730200171470642,-0.339154988527298,-0.06624799966812134,0.027347000315785408,-0.10466299951076508,0.07146299630403519,0.04886399954557419,-0.0037120000924915075,-0.009145000018179417,-0.08587399870157242,0.24841800332069397,-0.09544599801301956,0.21907800436019897,0.3259100019931793,0.16231100261211395,-0.13474500179290771,0.07946900278329849,-0.2962839901447296,-0.146029993891716,-0.028912000358104706,-0.20291200280189514,-0.038694001734256744,0.17352299392223358,-0.020924000069499016,-0.11628500372171402,0.1882759928703308,0.01964999921619892,0.11865299940109253,-0.12032900005578995,0.15502500534057617,0.0013500000350177288,-0.06945499777793884,-0.17525100708007812,-0.13722500205039978,-0.19801999628543854,0.16980400681495667,0.06226800009608269,-0.014977999962866306,0.07040700316429138,0.2481829971075058,-0.05980899930000305,-0.015724999830126762,0.008921000175178051,0.1605519950389862,-0.009922999888658524,-0.030321000143885612,0.08038300275802612,-0.1851930022239685,-0.03614699840545654,-0.008698999881744385,-0.2441519945859909,-0.016465000808238983,0.05127200111746788,-0.10017500072717667,-0.026177000254392624,-0.26202699542045593,0.039009999483823776,0.04692300036549568,-0.011158999986946583,0.16262100636959076,0.015475000254809856,0.07617499679327011,-0.09992899745702744,0.09441299736499786,-0.01840599998831749,0.1331540048122406,-0.03111499920487404,-0.12078399956226349,0.1876779943704605,0.05167499929666519,0.10410299897193909,-0.03655799850821495,-0.02800999954342842,0.06285099685192108,-0.1931609958410263,-0.1304520070552826,0.26529601216316223,-0.06976599991321564,-0.04516199976205826,0.03669299930334091,0.08701600134372711,0.33331000804901123,-0.18763600289821625,-0.053043000400066376,0.2115270048379898,-0.08481000363826752,0.0235580001026392,-0.013496000319719315,0.15446799993515015,0.1719609946012497,-0.06732399761676788,-0.015845000743865967,0.20965300500392914,-0.12055899947881699,0.016681000590324402,-0.01684900000691414,-0.2149370014667511,0.1294800043106079,-0.31189700961112976,-0.036963000893592834,0.11366499960422516,0.16313199698925018,-0.12234900146722794,0.028474999591708183,0.0854329988360405,0.09550700336694717,-0.040782999247312546,0.05590200051665306,-0.15549799799919128,0.04770100116729736,-0.023576999083161354,-0.015018000267446041,-0.02969600073993206,0.18327000737190247,0.22735300660133362,-0.1162009984254837,-0.08556099981069565,-0.06703999638557434,0.05290500074625015,0.09117499738931656,0.12534399330615997,-0.1702899932861328,-0.04818199947476387,-0.1322070062160492,-0.16309000551700592,0.1918729990720749,0.24583299458026886,0.13300999999046326,0.053220998495817184,-0.1745239943265915,0.057137999683618546,0.07663699984550476,0.21401900053024292,0.1677040010690689,0.023364000022411346,-0.20549499988555908,0.2555699944496155,-0.07036899775266647,0.2612740099430084,0.05181799829006195,-0.07277300208806992,0.07277499884366989,0.19415000081062317,0.03246400132775307,-0.19986900687217712,-0.07310999929904938,-0.08238600194454193,-0.010714000090956688,0.031785998493433,-0.1744070053100586,-0.05632400140166283,0.02499699965119362,-0.3323259949684143,-0.04336199909448624,-0.002899999963119626,-0.15936699509620667,0.03403500095009804,-0.06927499920129776,0.0519849993288517,0.05320499837398529,0.06738899648189545,0.02180499956011772,0.029301999136805534,-0.2998239994049072,-0.003918000031262636,0.06910300254821777,0.17278599739074707,0.11774999648332596,0.0992640033364296,-0.042858999222517014,0.08218800276517868,-0.08684299886226654,0.13048799335956573,-0.06524299830198288,0.3881379961967468,0.02025499939918518,0.005299000069499016,-0.09795200079679489,-0.11470299959182739
小于,0.12647199630737305,0.17346900701522827,-0.054864998906850815,-0.03295300155878067,0.17592300474643707,-0.20265699923038483,-0.03773599863052368,-0.058010000735521317,-0.0024590000975877047,-0.28613099455833435,-0.29990699887275696,-0.01275699958205223,0.06084499880671501,0.052661001682281494,-0.3139539957046509,-0.04927099868655205,-0.23916099965572357,-0.023132000118494034,-0.1401509940624237,-0.13839100301265717,0.2502799928188324,0.06289999932050705,-0.03359299898147583,-0.35652899742126465,-0.20949499309062958,-0.10736300051212311,-0.010621000081300735,-0.04631099849939346,0.0972990021109581,-0.008417000062763691,-0.05251799896359444,-0.02476700022816658,0.03519299998879433,0.18438999354839325,0.11027900129556656,-0.13121800124645233,0.20059199631214142,-0.005231000017374754,0.06438899785280228,0.15391899645328522,-0.018535999581217766,-0.048163000494241714,-0.28094300627708435,0.08100400120019913,-0.04645799845457077,-0.1138639971613884,-0.16617999970912933,-0.18095199763774872,0.06582500040531158,-0.01372199971228838,0.10503999888896942,-0.1235240027308464,0.02969300001859665,-0.09447599947452545,-0.06868000328540802,0.2594130039215088,0.17778100073337555,0.18104499578475952,0.10086899995803833,-0.03819600120186806,0.13747000694274902,-0.08836399763822556,-0.08288200199604034,-0.3965350091457367,-0.11704300343990326,0.10048999637365341,-0.12952999770641327,0.03490300104022026,-0.10103800147771835,-0.09527300298213959,0.10851699858903885,-0.22433200478553772,-0.01694200001657009,-0.17882099747657776,0.1647389978170395,-0.24199099838733673,0.2656539976596832,-0.03187600150704384,0.03813000023365021,-0.030713999643921852,0.07974400371313095,-0.09589400142431259,0.08145400136709213,-0.14207200706005096,-0.0409649983048439,0.13744500279426575,-0.03356799855828285,-0.16499699652194977,-0.3241940140724182,-0.06462299823760986,0.03596999868750572,0.05792099982500076,-0.1509920060634613,0.14847800135612488,-0.09511400014162064,-0.15543800592422485,0.0059819999150931835,0.1267780065536499,0.11290500313043594,-0.09182199835777283,0.0458189994096756,-0.06805499643087387,0.029431000351905823,-0.07656499743461609,-0.19826200604438782,0.1274310052394867,-0.2775590121746063,0.25561898946762085,0.009468999691307545,0.22050000727176666,-0.020315999165177345,0.10979899764060974,-0.030519999563694,-0.035471998155117035,0.1047779992222786,-0.2658340036869049,-0.045775000005960464,-0.08570700138807297,-0.14920799434185028,0.032221000641584396,0.17377300560474396,-0.14045099914073944,-0.1905200034379959,-0.31477001309394836,0.18947499990463257,0.24829499423503876,0.0181489996612072,0.3730979859828949,-0.1639699935913086,0.049667999148368835,0.3861669898033142,0.18048200011253357,-0.03657599911093712,-0.1355070024728775,0.10676199942827225,-0.1847269982099533,0.03335700184106827,-0.0110489996150136,0.0031870000530034304,0.04401100054383278,0.0773020014166832,0.4133250117301941,0.07661499828100204,-0.09310799837112427,0.07639899849891663,-0.15183599293231964,-0.07212100178003311,0.011832999996840954,0.07136300206184387,-0.06344100087881088,-0.07075999677181244,0.23415300250053406,-0.13395899534225464,0.15005500614643097,-0.10229799896478653,0.020075000822544098,-0.353863000869751,0.08326400071382523,0.15851299464702606,-0.19342899322509766,0.19686000049114227,0.04913400113582611,-0.013632000423967838,-0.171207994222641,-0.16700400412082672,0.33856201171875,-0.06648600101470947,0.09714800119400024,-0.040240999311208725,-0.1977970004081726,-0.2906160056591034,0.3983300030231476,-0.14296899735927582,-0.032148998230695724,-0.011308999732136726,0.010072999633848667,-0.2557240128517151,0.1265529990196228,0.1339160054922104,0.041345998644828796,0.07134900242090225,-0.08493299782276154,-0.3266499936580658,0.13300000131130219,-0.20421099662780762,0.09203299880027771,0.048687998205423355,0.00394799979403615,0.12658199667930603,0.34341099858283997,0.06634800136089325,0.21050900220870972,0.15850399434566498,0.013886000029742718,-0.059282999485731125,-0.14902900159358978,0.16752499341964722,-0.06911899894475937,-0.22735999524593353,0.08314599841833115,0.1274529993534088,-0.21598699688911438,-0.08602999895811081,0.032614998519420624,-0.1606229990720749,-0.1835789978504181,0.21986700594425201,-0.12479399889707565,-0.12175499647855759,-0.0674860030412674,0.012539999559521675,-0.0022819999139755964,-0.17983999848365784,0.1466829925775528,0.2762190103530884,0.006045000161975622,-0.07611600309610367,-0.05555199831724167,0.31860700249671936,0.18890300393104553,-0.21077600121498108,0.03542400151491165,0.12076999992132187,0.007253999821841717,-0.16952399909496307,0.2550869882106781,0.13924099504947662,-0.174795001745224,-0.012388000264763832,-0.16895300149917603,0.06996899843215942,-0.044530000537633896,0.15150399506092072,0.15875500440597534,0.025251999497413635,-0.051617998629808426,-0.2654320001602173,0.1542930006980896,-0.2374590039253235,0.09416300058364868,-0.36934900283813477,-0.032005999237298965,-0.367808997631073,-0.02694999985396862,0.11014699935913086,0.09416399896144867,0.09822499752044678,0.2641400098800659,-0.15668900310993195,-0.08966600149869919,0.31166398525238037,0.044714998453855515,0.04039200022816658,0.22162899374961853,-0.13213500380516052,-0.03663099929690361,-0.023283999413251877,-0.07314399629831314,0.18331299722194672,0.29397499561309814,0.0819379985332489,0.17142100632190704,0.299454003572464,-0.008558999747037888,-0.29224199056625366,-0.07511100172996521,-0.11561600118875504,0.0011759999906644225,0.05057600140571594,-0.16228899359703064,-0.22597800195217133,-0.2592799961566925,-0.3510890007019043,-0.010731000453233719,0.24424000084400177,0.26490598917007446,0.00850799959152937,0.2651689946651459,-0.17406100034713745,0.06677500158548355,-0.027338000014424324,-0.2521759867668152,0.008985999971628189,-0.23228700459003448,0.016889000311493874,0.041547998785972595,0.2409989982843399,-0.043359000235795975,-0.1755249947309494,0.22350400686264038,-0.13653400540351868,-0.405815988779068,-0.096949003636837,0.017454000189900398,-0.20011499524116516,-0.1914830058813095,0.43991801142692566,0.1824530065059662,0.371196985244751,-0.22714200615882874,-0.25799500942230225,-0.04879499971866608,0.13224999606609344,-0.11303400248289108,-0.022043999284505844,-0.305433988571167,0.07855100184679031,0.1786389946937561,-0.026413999497890472,-0.3127569854259491,0.16724100708961487,0.10483799874782562,-0.12723900377750397,0.07863499969244003,-0.02896999940276146,-0.05666099861264229,0.015301999635994434,-0.07177600264549255,-0.11611499637365341,-0.09577000141143799,0.01144499983638525,-0.15347300469875336,-0.062178999185562134,0.20189699530601501,-0.3618049919605255,0.15666499733924866,-0.14275500178337097,-0.014287999831140041,0.16604000329971313,0.09907300025224686,0.33094900846481323,0.007571000140160322,-0.06997299939393997,-0.359497994184494,0.20838099718093872,0.16701999306678772,0.23436999320983887,-0.15994100272655487,0.028934000059962273,0.05679899826645851,0.225272998213768,-0.3357900083065033,0.08068300038576126,-0.2664499878883362,0.16698400676250458,-0.14732800424098969,0.2132740020751953,0.0820309966802597,0.05951099842786789,-0.3300760090351105,-0.08823700249195099,0.08577000349760056,-0.04456299915909767,-0.10577999800443649,0.2185409963130951,0.05926800146698952,-0.009541000239551067,0.4429660141468048,-0.19187599420547485,0.1550779938697815,-0.07618000358343124,0.11939699947834015,0.033344998955726624,0.1788029968738556,-0.3472599983215332,-0.007300000172108412,0.06595200300216675,-0.26808100938796997,-0.39458000659942627,-0.23644399642944336,-0.1261419951915741,-0.3255879878997803,0.07615000009536743,-0.2725670039653778,-0.0774030014872551,-0.3730289936065674,0.22586999833583832,-0.023327000439167023,-0.15050700306892395,0.1230200007557869,0.14954699575901031,0.07385300099849701,-0.03846900165081024,0.0944179967045784,0.10122200101613998,0.03244299814105034,-0.06388500332832336,0.16192199289798737,-0.15468600392341614,-0.14221599698066711,-0.06299500167369843,0.09906399995088577,-0.2073500007390976,0.032402001321315765,0.0953650027513504,0.37536799907684326,-0.1886260062456131,-0.0012240000069141388,0.2687489986419678,-0.3401080071926117
目的,0.08416000008583069,-0.040922001004219055,0.026319999247789383,0.08223699778318405,0.013120999559760094,0.17877799272537231,0.018495000898838043,0.0832189992070198,-0.20967300236225128,-0.26343899965286255,-0.00621799984946847,-0.18651899695396423,-0.012496000155806541,-0.30842599272727966,0.14975200593471527,-0.15652500092983246,0.04295999929308891,0.032326001673936844,-0.22061799466609955,0.1779879927635193,-0.06381600350141525,-0.0548270009458065,0.1452990025281906,0.014178999699652195,0.07848100364208221,0.0854019969701767,0.02637699991464615,0.16084599494934082,0.1391019970178604,0.15860599279403687,0.042587000876665115,-0.06248699873685837,-0.1352110058069229,-0.026079000905156136,-0.15161000192165375,0.03822299838066101,-0.005807999987155199,-0.11279100179672241,0.019471000880002975,0.035721998661756516,0.024103999137878418,-0.008775000460445881,0.16000400483608246,0.09729400277137756,0.000506000011228025,0.03228199854493141,0.06852900236845016,0.07794799655675888,0.060472000390291214,-0.017813999205827713,-0.06041400134563446,-0.2994309961795807,-0.04236000031232834,-0.1124970018863678,0.18475399911403656,0.023245999589562416,-0.06321699917316437,0.07045400142669678,0.02869199961423874,0.07315699756145477,0.08143600076436996,-0.04666300117969513,0.07660900056362152,-0.042472001165151596,0.04092799872159958,-0.06562499701976776,0.09947499632835388,0.17682099342346191,-0.12201400101184845,-0.02391500025987625,-0.09564299881458282,0.15974600613117218,0.04415300115942955,-0.06677500158548355,0.007666999939829111,-0.12233400344848633,-0.04234600067138672,-0.08177699893712997,0.10822500288486481,-0.11161299794912338,0.023235000669956207,-0.0659400001168251,-0.015985999256372452,-0.029155999422073364,-0.10616400092840195,0.12920400500297546,0.06390500068664551,0.09103900194168091,0.08636000007390976,-0.047568999230861664,0.037282999604940414,-0.07183100283145905,-0.07362599670886993,-0.02717299945652485,-0.019137000665068626,-0.01827000081539154,0.06424900144338608,0.11946800351142883,-0.21234600245952606,-0.11077500134706497,0.04352499917149544,0.05971900001168251,0.08681900054216385,-0.08346299827098846,0.016061000525951385,0.15444399416446686,-0.11141999810934067,0.07663200050592422,0.16051000356674194,-0.20850400626659393,-0.044672999531030655,0.09021300077438354,-0.1030460000038147,0.07216700166463852,0.07276800274848938,0.18330499529838562,-0.3261370062828064,0.020409999415278435,0.07151000201702118,0.11158700287342072,-0.09763900190591812,0.09731700271368027,0.06090100109577179,0.10467199981212616,-0.06267499923706055,0.08526299893856049,-0.24154800176620483,-0.013946999795734882,0.06396999955177307,-0.051513999700546265,-0.11366699635982513,0.0007309999782592058,0.08149000257253647,-0.07285799831151962,-0.11855699867010117,-0.0884770005941391,-0.021526999771595,-0.061312999576330185,0.07358399778604507,0.06443700194358826,0.04897399991750717,0.046424999833106995,0.054235998541116714,-0.004100999794900417,-0.13547900319099426,0.04733400046825409,-0.0011630000080913305,0.176269993185997,-0.062950000166893,-0.10937400162220001,-0.042608000338077545,0.1356009989976883,0.18222300708293915,-0.08754699677228928,-0.10201100260019302,0.08493100106716156,0.007631999906152487,-0.017544999718666077,0.06920400261878967,-0.12488500028848648,0.027143999934196472,-0.0442270003259182,0.034359999001026154,-0.22874100506305695,0.09499599784612656,-0.16764500737190247,-0.05620599910616875,0.06629200279712677,-0.16412800550460815,-0.06786499917507172,-0.09815599769353867,-0.02041199989616871,0.017371000722050667,-0.0073020001873373985,-0.1023930013179779,-0.08204799890518188,-0.05530799925327301,0.12985800206661224,0.13578200340270996,-0.18876199424266815,0.005109999794512987,-0.049056001007556915,-0.1540450006723404,0.23861700296401978,-0.14696800708770752,-0.03000600077211857,0.06286200135946274,0.05070599913597107,0.0012839999981224537,0.1260180026292801,-0.09490799903869629,-0.1653120070695877,0.09008599817752838,0.19910100102424622,0.018219999969005585,-0.15964999794960022,0.10730399936437607,0.07805600017309189,-0.08968699723482132,-0.08220600336790085,0.052501000463962555,0.08638100326061249,-0.023739999160170555,-0.1933169960975647,-0.17375299334526062,-0.24646300077438354,0.2173919975757599,-0.003794000018388033,0.17251700162887573,-0.06596200168132782,0.031491998583078384,0.14416199922561646,0.10368599742650986,-0.016300000250339508,0.013518000021576881,-0.13809600472450256,0.07168299704790115,0.02807299979031086,0.19031499326229095,0.08565700054168701,0.07464899867773056,-0.1332930028438568,0.2873780131340027,-0.009061000309884548,0.044130001217126846,-0.11268500238656998,0.05168300122022629,0.08031900227069855,-0.009836999699473381,0.1193000003695488,-0.023621000349521637,0.06696800142526627,-0.0942310020327568,0.04489099979400635,0.026872999966144562,0.03044000081717968,-0.21015599370002747,-0.07524300366640091,-0.08190999925136566,-0.14094500243663788,-0.011483999900519848,0.026023000478744507,-0.10878200083971024,-0.1091030016541481,-0.09593000262975693,0.02079799957573414,-0.0028729999903589487,-0.021707000210881233,0.11117800325155258,0.05477499961853027,-0.01546700019389391,-0.3970319926738739,0.031505998224020004,0.08482400327920914,-0.1586350053548813,0.07754799723625183,0.1151299998164177,-0.07660900056362152,-0.07992800325155258,-0.14099599421024323,-0.07364600151777267,-0.0017559999832883477,-0.11701600253582001,-0.12408500164747238,0.08357600122690201,-0.08589299768209457,-0.0908529981970787,0.08163899928331375,0.21177799999713898,0.0485990010201931,-0.05526699870824814,0.10486099869012833,0.09589900076389313,0.043692998588085175,0.06186399981379509,-0.11369799822568893,-0.0454230010509491,-0.07804799824953079,-0.2183929979801178,0.03422499820590019,0.08628299832344055,0.3371819853782654,-0.16414399445056915,-0.032262999564409256,0.02187100052833557,0.16384699940681458,-0.220877006649971,-0.20227199792861938,0.01759999990463257,0.10893499851226807,0.11346600204706192,0.0897039994597435,-0.1284009963274002,0.08878099918365479,0.11163900047540665,-0.012431999668478966,0.014241999946534634,0.15595300495624542,0.104264996945858,0.188277006149292,0.03258499875664711,0.016971999779343605,0.024204999208450317,-0.049486998468637466,-0.1594489961862564,0.003621000098064542,0.13074299693107605,-0.039788998663425446,-0.1210630014538765,0.2224009931087494,-0.13253800570964813,-0.0031330001074820757,-0.11076000332832336,0.14522600173950195,0.12487900257110596,0.04575999826192856,0.003396000014618039,0.08970300108194351,-0.12741899490356445,-0.05823900178074837,-0.1530669927597046,0.19271999597549438,-0.15872900187969208,-0.02105800062417984,0.09168499708175659,0.045288000255823135,-0.09324300289154053,-0.05673699826002121,0.0003800000122282654,0.09319499880075455,-0.0833209976553917,-0.12528899312019348,-0.04461999982595444,0.07311300188302994,0.05013199895620346,0.19735600054264069,0.20961299538612366,-0.23776599764823914,-0.055052001029253006,-0.08806400001049042,-0.018259000033140182,0.09773200005292892,0.1242159977555275,0.07418599724769592,-0.1953510046005249,0.09924399852752686,0.0882520005106926,-0.014008999802172184,-0.04408600181341171,0.10201700031757355,-0.07442300021648407,-0.1001570001244545,-0.05001299828290939,0.1505029946565628,0.28484898805618286,-0.12195300310850143,-0.08190400153398514,0.05856499820947647,0.15379300713539124,0.11841999739408493,-0.17163699865341187,-0.04022800177335739,0.16702599823474884,0.10029999911785126,0.01563500054180622,-0.03779299929738045,0.11348699778318405,-0.18152299523353577,-0.21503399312496185,-0.0900769978761673,-0.0874280035495758,-0.1582919955253601,0.02297299914062023,0.025022000074386597,0.04970400035381317,-0.0743430033326149,0.09157200157642365,-0.06382700055837631,0.1817850023508072,-0.08672700077295303,0.04325300082564354,0.11608099937438965,0.1102909967303276,0.09374599903821945,0.13168400526046753,0.24871300160884857,-0.1426980048418045,-0.10555999726057053,0.04543500021100044,-0.12682600319385529,-0.1406019926071167,0.04276299849152565,-0.020563999190926552,-0.11993800103664398,0.17885799705982208,0.026259999722242355,-0.043891001492738724,-0.1692180037498474,0.06518200039863586,-0.0031210000161081553
踏板,0.0681610032916069,0.23709699511528015,-0.07631299644708633,-0.06711500138044357,0.36827701330184937,-0.054572999477386475,0.0073910001665353775,0.4104439914226532,0.2563149929046631,-0.027806000784039497,0.027029000222682953,0.20055100321769714,-0.0203000009059906,-0.03203599900007248,-0.17670999467372894,-0.21644200384616852,-0.11157099902629852,0.06272599846124649,0.06362199783325195,0.06528399884700775,-0.019843000918626785,-0.19498799741268158,0.392659991979599,0.022089000791311264,0.32773199677467346,0.02353600040078163,0.1390260010957718,0.057172998785972595,0.15041600167751312,-0.01812399923801422,0.06798800081014633,0.24408699572086334,0.1073089987039566,-0.014613999985158443,-0.11768899857997894,0.15414699912071228,-0.05256899818778038,-0.14658799767494202,0.4812859892845154,0.11129599809646606,0.08962099999189377,-0.10011699795722961,0.13795900344848633,0.1156110018491745,-0.045134998857975006,-0.1325950026512146,0.10616599768400192,-0.353083997964859,0.26680099964141846,-0.26218101382255554,-0.08369600027799606,-0.1194629967212677,-0.05313299968838692,-0.03403099998831749,0.13831500709056854,0.2658190131187439,-0.12996099889278412,0.2024890035390854,0.012149999849498272,0.3894070088863373,0.11434400081634521,0.15513400733470917,0.09661699831485748,0.12900300323963165,-0.0117419995367527,0.10107800364494324,0.009719000197947025,-0.01475599966943264,0.3733009994029999,0.02796199917793274,-0.5606809854507446,0.2718139886856079,-0.008830999955534935,0.02954299934208393,0.16960500180721283,-0.043081000447273254,-0.056331999599933624,0.4629780054092407,0.1800220012664795,0.13765999674797058,-0.2820749878883362,-0.4198470115661621,-0.27932998538017273,-0.061438001692295074,-0.006543000228703022,-0.40755999088287354,-0.21695399284362793,0.1513810008764267,0.13830099999904633,0.28825199604034424,0.07384499907493591,0.31999799609184265,0.022979000583291054,0.22718900442123413,-0.0701809972524643,-0.2210959941148758,-0.02927199937403202,-0.14308799803256989,0.1643040031194687,-0.021990999579429626,-0.06043900176882744,0.3811179995536804,-0.034331999719142914,0.17852500081062317,-0.2782979905605316,0.06735800206661224,0.15115100145339966,0.08352500200271606,0.01080700010061264,-0.019208999350667,0.09113500267267227,0.02989399991929531,0.11629900336265564,0.023680999875068665,0.16603900492191315,-0.16805799305438995,-0.1422799974679947,-0.11362899839878082,0.19121100008487701,0.08466800302267075,-0.26221799850463867,0.20631100237369537,0.05642800033092499,0.08451200276613235,0.10967999696731567,0.09376300126314163,0.045882001519203186,-0.2427700012922287,0.015877999365329742,-0.05791600048542023,0.18882599472999573,0.19697199761867523,0.23876799643039703,-0.09551499783992767,0.045499999076128006,-0.011357000097632408,-0.2379249930381775,-0.2602519989013672,-0.22174400091171265,0.33990898728370667,-0.2568269968032837,-0.03248300030827522,0.3402470052242279,0.10067100077867508,-0.11047700047492981,0.141744002699852,-0.13831299543380737,0.1846490055322647,-0.14209400117397308,-0.021291999146342278,0.049483999609947205,0.04447900131344795,-0.12126900255680084,-0.023545000702142715,0.21273399889469147,0.19665099680423737,0.06652799993753433,-0.2307630032300949,0.10365299880504608,-0.05341599881649017,-0.22859999537467957,0.2461709976196289,-0.06057500094175339,0.004635999910533428,-0.14927299320697784,-0.07954800128936768,0.25593098998069763,0.0032949999440461397,-0.21645799279212952,0.04816899821162224,0.021164000034332275,0.16533799469470978,-0.1804019957780838,0.023298000916838646,-0.11793900281190872,-0.1360049992799759,0.17643900215625763,0.23949399590492249,-0.22835999727249146,0.11682300269603729,0.12240400165319443,-0.06485900282859802,-0.2650179862976074,-0.009774000383913517,-0.2706870138645172,-0.10345099866390228,0.09412699937820435,0.4175170063972473,0.044429998844861984,-0.13482999801635742,0.15117000043392181,0.04227599874138832,-0.18822799623012543,-0.1102449968457222,-0.1407189965248108,0.001538999960757792,-0.17092500627040863,-0.04138699918985367,-0.12425799667835236,-0.025823000818490982,0.17359399795532227,-0.1749580055475235,-0.31894800066947937,0.11614800244569778,-0.04737300053238869,-0.3554440140724182,0.10198000073432922,-0.07853999733924866,0.36006098985671997,0.07069499790668488,-0.11230500042438507,-0.17680500447750092,-0.23600099980831146,0.10142800211906433,-0.006027999799698591,0.0784899964928627,-0.04253600165247917,-0.07154300063848495,0.1925009936094284,-0.4081760048866272,-0.022892000153660774,0.4116719961166382,-0.04380200058221817,-0.11534799635410309,0.04010700061917305,0.18705199658870697,-0.07203000038862228,0.1728309988975525,-0.20220699906349182,-0.028095999732613564,-0.0532350018620491,-0.13151699304580688,-0.2535240054130554,0.07441499829292297,0.14514699578285217,-0.0817900002002716,-0.09454400092363358,0.05475499853491783,-0.06510300189256668,-0.24129000306129456,0.035280000418424606,-0.13624200224876404,0.25785401463508606,-0.1952040046453476,-0.1695220023393631,0.07722300291061401,-0.1778540015220642,0.08662199974060059,0.022523000836372375,-0.19906100630760193,0.08782000094652176,-0.06402900069952011,-0.08601299673318863,0.03423000127077103,-0.4274190068244934,0.12525500357151031,0.03980199992656708,0.08144400268793106,0.2922370135784149,-0.1014069989323616,0.0896340012550354,-0.13630299270153046,0.11301399767398834,-0.21909399330615997,-0.232915997505188,-0.0254139993339777,0.02538999915122986,0.04904700070619583,-0.14098599553108215,0.22294899821281433,-0.022422000765800476,-0.06881699711084366,-0.11392100155353546,-0.19295600056648254,-0.004774000030010939,-0.0015030000358819962,-0.15346300601959229,0.21207299828529358,-0.31905901432037354,0.08259599655866623,-0.1647080034017563,-0.15364299714565277,-0.03857199847698212,0.10259599983692169,-0.15834100544452667,0.08854199945926666,0.03478400036692619,0.27134600281715393,-0.16262200474739075,-0.1971679925918579,-0.15862199664115906,-0.28603100776672363,-0.27180901169776917,-0.26888900995254517,0.16203300654888153,-0.3667919933795929,-0.11623699963092804,0.10635600239038467,0.36604198813438416,0.005601000040769577,-0.01955999992787838,0.38081300258636475,0.21488399803638458,-0.11726900190114975,0.12304099649190903,-0.13312099874019623,-0.0677580013871193,0.06460300087928772,-0.11692699790000916,-0.03258400037884712,0.11940799653530121,-0.021794000640511513,0.19092899560928345,0.29277199506759644,0.09742899984121323,-0.15865999460220337,0.18365700542926788,-0.26535099744796753,-0.37029600143432617,-0.09842400252819061,0.21004800498485565,-0.06982500106096268,0.038364000618457794,0.1200380027294159,-0.036343999207019806,-0.048875000327825546,0.2798599898815155,-0.21655899286270142,-0.16336500644683838,-0.022198999300599098,0.07091499865055084,-0.06350100040435791,-0.02875100076198578,0.02953300066292286,-0.2949419915676117,0.26135799288749695,-0.3633759915828705,0.14820100367069244,0.19888800382614136,0.028860000893473625,0.20408999919891357,-0.018880000337958336,-0.3287709951400757,0.12387800216674805,-0.1578419953584671,0.281017005443573,0.14927899837493896,0.011105000041425228,0.23403699696063995,-0.10989800095558167,-0.045559998601675034,0.03871399909257889,0.06620199978351593,0.18560199439525604,0.18752700090408325,-0.08106300234794617,0.00037299998803064227,0.1022770032286644,0.2379170060157776,0.05095500126481056,-0.056752000004053116,-0.07840099930763245,0.05530000105500221,0.2827349901199341,-0.17739099264144897,-0.04915900155901909,-0.12816299498081207,-0.15176500380039215,-0.2118069976568222,-0.027473000809550285,-0.1571969985961914,-0.3150689899921417,-0.076494000852108,-0.05069499835371971,0.0255149994045496,0.3002699911594391,-0.2225019931793213,0.08802399784326553,-0.19431999325752258,-0.041634999215602875,0.05289199948310852,-0.003068000078201294,0.13387100398540497,0.09094999730587006,0.02295999974012375,0.4078750014305115,-0.26129698753356934,0.3320229947566986,-0.1321679949760437,0.10433699935674667,0.11612900346517563,0.04011400043964386,0.03448700159788132,-0.02768000029027462,0.018376000225543976,0.07801300287246704,-0.053954001516103745,0.2692689895629883,-0.16577400267124176,-0.08025199919939041
坡道,-0.06431999802589417,0.23664599657058716,-0.012783000245690346,0.1287810057401657,0.08175300061702728,-0.17465199530124664,-0.2789379954338074,0.22155800461769104,0.16205300390720367,0.03839699923992157,0.14934700727462769,0.00035700001171790063,0.047697000205516815,0.12650300562381744,-0.043946001678705215,-0.1884779930114746,-0.11708399653434753,0.13562500476837158,-0.11761400103569031,-0.23984099924564362,-0.2449750006198883,-0.10046199709177017,-0.06796000152826309,0.21292099356651306,0.11904300004243851,0.03476300090551376,0.13000500202178955,-0.10286799818277359,0.03714499995112419,0.09724999964237213,0.04465499892830849,-0.11547999829053879,0.11812599748373032,0.15800300240516663,-0.1800290048122406,-0.054558999836444855,0.15806899964809418,0.10120599716901779,0.15866699814796448,0.5030390024185181,-0.23530100286006927,-0.03304599970579147,0.23081600666046143,0.13669399917125702,-0.019473999738693237,-0.165134996175766,0.20013299584388733,-0.01257800031453371,-0.019940000027418137,-0.2717680037021637,-0.22123199701309204,0.04946799948811531,0.13201600313186646,0.10809600353240967,-0.1658480018377304,0.23500899970531464,0.13665199279785156,0.017481999471783638,-0.0420369990170002,0.07937999814748764,-0.04913000017404556,-0.17330500483512878,-0.26275599002838135,-0.20689700543880463,-0.14179199934005737,0.08621899783611298,-0.19479399919509888,0.0003349999897181988,-0.10416299849748611,0.033263999968767166,-0.027029000222682953,0.2756989896297455,0.2122959941625595,0.0219310000538826,-0.042750000953674316,0.08451399952173233,-0.1817300021648407,0.15556600689888,-0.00559299997985363,0.2469400018453598,0.14455699920654297,-0.2296839952468872,-0.06208600103855133,0.12703099846839905,-0.10025099664926529,-0.016273999586701393,-0.013929000124335289,0.21803799271583557,0.1816900074481964,-0.1151759997010231,0.26350900530815125,-0.16380499303340912,0.05789700150489807,-0.15970100462436676,0.1515589952468872,-0.07453300058841705,-0.007298000156879425,0.29003798961639404,-0.20760299265384674,0.1325570046901703,0.026179999113082886,0.041919998824596405,0.03359699994325638,-0.1578110009431839,-0.12533700466156006,0.14451800286769867,-0.08512099832296371,0.3502790033817291,-0.0605509988963604,0.09617999941110611,0.2851620018482208,-0.12918399274349213,-0.0320420004427433,-0.21152900159358978,-0.19578400254249573,-0.08725299686193466,-0.06679599732160568,-0.2275650054216385,-0.0334319993853569,0.13820600509643555,-0.05377199873328209,0.0473489984869957,0.01621999964118004,0.05162699893116951,0.08027300238609314,-0.15402300655841827,0.16040199995040894,0.22747300565242767,-0.06370200216770172,-0.05555399879813194,-0.018844999372959137,-0.07255200296640396,0.058740001171827316,-0.08631099760532379,-0.11397700011730194,0.17570899426937103,0.03309600055217743,-0.1339530050754547,-0.06086299940943718,0.13535399734973907,-0.16182200610637665,-0.14545199275016785,0.3003779947757721,0.20549200475215912,-0.06463299691677094,0.10842899978160858,-0.02266800031065941,-0.44186800718307495,-0.12444499880075455,0.21344700455665588,0.0019109999993816018,-0.435932993888855,0.17325599491596222,-0.07095800340175629,0.03950800001621246,-0.22590099275112152,0.008275999687612057,-0.18845400214195251,0.2885819971561432,-0.2433059960603714,-0.22554300725460052,0.29536399245262146,-0.1214509978890419,-0.2787970006465912,0.07218600064516068,-0.07587400078773499,0.10845799744129181,-0.29824599623680115,-0.24005700647830963,0.0465020015835762,-0.4027960002422333,0.10653200000524521,-0.054308000952005386,0.02895599976181984,-0.026145000010728836,-0.10972800105810165,-0.10107699781656265,0.05214200168848038,-0.02454500086605549,0.2031089961528778,0.261896014213562,0.0070859999395906925,-0.005470000207424164,-0.0817129984498024,-0.057486001402139664,-0.2138800024986267,-0.050686001777648926,-0.12220899760723114,0.0970579981803894,0.1294270008802414,-0.39800500869750977,0.03489600121974945,0.0027890000492334366,-0.08448600023984909,-0.15699100494384766,0.16819599270820618,-0.05753500014543533,-0.20955100655555725,0.009083000011742115,0.08278799802064896,0.1210549995303154,-0.09925500303506851,-0.21790200471878052,0.0777290016412735,-0.024546999484300613,-0.40525099635124207,0.09038399904966354,0.0178459994494915,-0.24293099343776703,-0.1330229938030243,-0.10057800263166428,-0.21604999899864197,-0.09186200052499771,0.1925169974565506,0.0401419997215271,0.1293639987707138,-0.31877100467681885,-0.34245800971984863,0.14118599891662598,0.07995600253343582,0.10201100260019302,0.042837999761104584,0.0871329978108406,-0.293520987033844,0.20658299326896667,-0.03122900053858757,0.00824199989438057,-0.04805300012230873,0.13970400393009186,0.3346390128135681,0.14730499684810638,-0.09499099850654602,0.1494320034980774,-0.048976000398397446,0.09604399651288986,-0.093470998108387,0.04777299985289574,0.369702011346817,0.05593699961900711,-0.20513300597667694,-0.21744999289512634,-0.26139798760414124,-0.1444219946861267,-0.2703860104084015,0.22728900611400604,-0.04558299854397774,0.08964800089597702,-0.14972400665283203,-0.007842999882996082,0.04876499995589256,0.22391900420188904,0.10435900092124939,-0.23530299961566925,-0.10258600115776062,0.06458999961614609,-0.25335898995399475,-0.020447999238967896,-0.0632769986987114,0.07162199914455414,0.06073499843478203,0.2788810133934021,0.17330099642276764,-0.008988000452518463,-0.11766300350427628,-0.26013800501823425,-0.3454189896583557,-0.019739000126719475,0.24337999522686005,-0.12151800096035004,-0.11018200218677521,-0.12371999770402908,0.08417599648237228,0.08759299665689468,0.03714099898934364,0.11072900146245956,0.24789099395275116,0.11949899792671204,-0.054308999329805374,-0.09922900050878525,0.10902699828147888,-0.1417270004749298,-0.15939100086688995,0.27865299582481384,-0.3781769871711731,-0.3188770115375519,-0.16253900527954102,-0.3469099998474121,0.1432349979877472,0.14637599885463715,0.022200999781489372,0.14221300184726715,-0.12977099418640137,0.087957002222538,-0.23103299736976624,0.05024300143122673,0.14089900255203247,0.015281000174582005,0.12609000504016876,0.21853800117969513,-0.19774200022220612,0.08392299711704254,0.29777300357818604,0.006289999932050705,0.14540700614452362,0.10862699896097183,-0.045743998140096664,-0.12790699303150177,0.2064869999885559,-0.2091369926929474,0.11144000291824341,0.2179509997367859,-0.14271500706672668,0.12029600143432617,0.04081200063228607,-0.08274099975824356,-0.04013099893927574,-0.05903699994087219,0.044103000313043594,-0.40023499727249146,0.06663200259208679,0.20973700284957886,0.0018820000113919377,0.12514600157737732,0.08787299692630768,-0.011282999999821186,-0.0037150001153349876,-0.04882200062274933,0.1593089997768402,-0.07785099744796753,0.012538000009953976,0.14888399839401245,-0.15761800110340118,0.056345000863075256,-0.10470999777317047,0.19703899323940277,0.19780200719833374,-0.4371890127658844,-0.06642799824476242,-0.052018001675605774,0.028818000108003616,0.0504859983921051,0.08709300309419632,0.08522000163793564,0.03399600088596344,0.38484498858451843,0.13968299329280853,0.35917600989341736,0.26121699810028076,0.015197999775409698,-0.044544998556375504,-0.12684999406337738,-0.031996000558137894,0.06256899982690811,-0.00659500015899539,0.16367700695991516,-0.14209599792957306,-0.05134899914264679,0.3568919897079468,0.11130499839782715,0.04815100133419037,0.07757700234651566,-0.02969600073993206,0.06791800260543823,0.09700500220060349,-0.18112899363040924,0.02150999940931797,-0.22558799386024475,-0.14374500513076782,-0.3155910074710846,-0.1624789983034134,-0.30748501420021057,-0.023300999775528908,0.16822600364685059,-0.20075500011444092,0.2087859958410263,-0.01843699999153614,0.4266729950904846,0.08794800192117691,-0.05440700054168701,0.36622700095176697,-0.07478400319814682,0.017100000753998756,0.12071900069713593,0.06902100145816803,0.045111000537872314,0.017183000221848488,-0.1533219963312149,-0.08653800189495087,0.13429099321365356,-0.06194299831986427,0.03443799912929535,0.020594000816345215,-0.2405409961938858,0.16279299557209015,0.2696860134601593,-0.04152600094676018,-0.24190300703048706,-0.04680800065398216,-0.10863599926233292,-0.008848000317811966
添加,0.03961800038814545,0.15501900017261505,0.00891099963337183,0.2440129965543747,0.2035519927740097,-0.04185499995946884,0.009998999536037445,0.23795300722122192,-0.06751500070095062,-0.0324850007891655,0.12607499957084656,0.08825500309467316,0.08123999834060669,0.07912400364875793,-0.09195899963378906,0.10613299906253815,-0.20329199731349945,0.1412850022315979,-0.15842600166797638,-0.07825600355863571,-0.07412300258874893,-0.01462399959564209,-0.13355199992656708,-0.10244499891996384,0.05656899884343147,-0.12730500102043152,-0.05923299863934517,-0.23941899836063385,0.020762000232934952,-0.18544399738311768,0.11532299965620041,-0.05924300104379654,0.26940199732780457,-0.1383180022239685,-0.05717900022864342,0.06193999946117401,-0.03343399986624718,-0.3384450078010559,0.06741099804639816,0.028224000707268715,0.024826999753713608,-0.11228299885988235,-0.16568200290203094,0.1837099939584732,-0.058639999479055405,0.07829800248146057,-0.11659400165081024,-0.03373900055885315,-0.23230299353599548,-0.14944399893283844,-0.2114800065755844,0.17373600602149963,0.18504400551319122,-0.26045501232147217,-0.006672999821603298,-0.0843999981880188,-0.06757500022649765,0.12705299258232117,0.10262300074100494,0.3314720094203949,0.17869099974632263,-0.03151800110936165,-0.02573000080883503,0.039531998336315155,0.052361998707056046,-0.0020639998838305473,-0.03859400004148483,0.09324999898672104,0.19961799681186676,0.013535000383853912,-0.1530510038137436,-0.08145199716091156,-0.018536999821662903,0.07097599655389786,0.06134700030088425,-0.15880900621414185,0.20244500041007996,0.1576640009880066,0.20181399583816528,-0.061354998499155045,0.14354099333286285,-0.138481006026268,-0.09166999906301498,0.04910099878907204,-0.04023599997162819,-0.2242940068244934,0.08366899937391281,0.0061530000530183315,-0.19000600278377533,-0.05609099939465523,0.042973000556230545,-0.07533899694681168,-0.1435060054063797,0.046560999006032944,0.06332399696111679,-0.12126000225543976,0.126910001039505,-0.16729700565338135,-0.04663100093603134,-0.07452400028705597,0.12679100036621094,0.22162899374961853,0.0207700002938509,0.03559599816799164,-0.07529299706220627,0.24940699338912964,-0.08329199999570847,0.08971399813890457,-0.069923996925354,0.21536999940872192,0.11136700212955475,0.2479189932346344,0.10634300112724304,-0.03463999927043915,0.2238759994506836,-0.016454000025987625,-0.11266999691724777,0.06835100054740906,0.04169199988245964,0.005510999821126461,-0.044054001569747925,0.08190400153398514,0.03273399919271469,-0.0061980001628398895,-0.03706200048327446,-0.017450999468564987,-0.1639620065689087,-0.050937000662088394,0.2699959874153137,-0.08877299726009369,0.05175299942493439,0.07500100135803223,-0.12320300191640854,0.093190997838974,0.008631999604403973,0.031043000519275665,0.11861000210046768,-0.08040100336074829,0.062456000596284866,0.09996899962425232,-0.05133099853992462,0.20215600728988647,-0.040410999208688736,0.07979699969291687,-0.13948200643062592,0.053665000945329666,-0.08976999670267105,0.25073501467704773,-0.05376499891281128,0.05657900124788284,0.08396700024604797,-0.15344800055027008,-0.017566999420523643,-0.060486000031232834,-0.004238999914377928,0.01947600021958351,-0.12273000180721283,-0.3213619887828827,-0.1284710019826889,0.11255499720573425,-0.09839300066232681,0.011622999794781208,0.07314399629831314,-0.0029730000533163548,0.08962400257587433,-0.03187299892306328,-0.12182500213384628,0.0066019999794662,0.16081400215625763,-0.10784900188446045,0.08035799860954285,0.062456000596284866,0.025760000571608543,-0.05466800183057785,0.11778199672698975,0.052292998880147934,0.13130299746990204,0.1734209954738617,-0.04849100112915039,-0.05863200128078461,0.07426399737596512,-0.216170996427536,0.0769369974732399,0.09009800106287003,-0.033075001090765,0.06074900180101395,0.305664986371994,-0.17193099856376648,-0.0037799999117851257,0.1841689944267273,0.08964399993419647,0.08952099829912186,-0.16267900168895721,0.016630999743938446,0.18605099618434906,-0.14002400636672974,-0.15435299277305603,0.071492999792099,-0.32067298889160156,-0.14658600091934204,-0.016836000606417656,-0.17055200040340424,0.07248400151729584,0.029340000823140144,-0.2971610128879547,-0.1725039929151535,0.08473200350999832,0.05242700129747391,-0.13729000091552734,0.24161900579929352,0.01567400060594082,0.10212499648332596,-0.20919300615787506,-0.03115599974989891,-0.022105999290943146,0.028302999213337898,0.22167900204658508,-0.14133299887180328,0.17758099734783173,-0.31439799070358276,-0.07059899717569351,0.30401599407196045,0.18073900043964386,0.09459800273180008,-0.036072999238967896,0.008895999751985073,0.09772399812936783,-0.16301199793815613,-0.037992000579833984,0.07349199801683426,-0.04839799925684929,-0.19841399788856506,0.06033400073647499,-0.07031799852848053,0.04371299967169762,-0.2536340057849884,0.039583999663591385,0.07793500274419785,-0.08345799893140793,-0.08353599905967712,-0.016909999772906303,-0.011044999584555626,-0.029983000829815865,0.042497001588344574,-0.398360013961792,-0.1437149941921234,0.16922999918460846,0.0823419988155365,0.06917800009250641,-0.10862299799919128,0.0822950005531311,0.0004239999980200082,-0.09626200050115585,-0.20713600516319275,0.2282000035047531,-0.06797199696302414,-0.14324499666690826,0.09903600066900253,0.048562001436948776,0.11825399845838547,0.03156299889087677,0.2357809990644455,0.20247499644756317,-0.08545300364494324,-0.07925999909639359,-0.3829430043697357,0.040157999843358994,0.05834599956870079,-0.11336799710988998,0.1157039999961853,-0.2855890095233917,-0.037099000066518784,0.07671800255775452,0.051316998898983,0.20416100323200226,0.11641000211238861,0.08599899709224701,-0.06746400147676468,-0.03854399919509888,0.1380770057439804,0.06349000334739685,-0.0035510000307112932,-0.23391500115394592,-0.012803000397980213,-0.009693000465631485,-0.06749200075864792,-0.04574799910187721,-0.09893299639225006,0.019480999559164047,-0.060263000428676605,0.12918299436569214,0.059774000197649,0.10925699770450592,-0.24438899755477905,0.22963100671768188,-0.20081600546836853,-0.04766499996185303,0.14669400453567505,0.20100699365139008,0.03513199836015701,-0.015390000306069851,-0.011238000355660915,-0.18305599689483643,0.018439000472426414,0.12342800199985504,0.04679799824953079,0.18483500182628632,0.09832300245761871,-0.17134900391101837,-0.0014359999913722277,0.005423000082373619,-0.029823999851942062,-0.01091300044208765,-0.04022200033068657,-0.06041000038385391,0.14753200113773346,0.07709500193595886,-0.07026900351047516,-0.21538999676704407,0.18817199766635895,0.06484600156545639,0.08694600313901901,-0.06804999709129333,-0.0542059987783432,0.19779899716377258,0.1376810073852539,0.26613399386405945,-0.07080800086259842,0.025074999779462814,0.17912699282169342,-0.0017389999702572823,-0.01384000014513731,-0.09054800122976303,-0.20419800281524658,-0.0710119977593422,-0.11839800328016281,0.19712099432945251,0.004889000207185745,0.049010999500751495,-0.17736899852752686,-0.06877599656581879,0.07394199818372726,-0.07839599996805191,-0.17172899842262268,0.001521000056527555,-0.04259499907493591,0.1088550016283989,0.18394799530506134,0.03205199912190437,0.19116100668907166,-0.08826500177383423,-0.08409500122070312,0.02251500077545643,0.11724600195884705,0.08774600178003311,0.39289799332618713,0.07988499850034714,0.052260998636484146,0.1206350028514862,0.033403001725673676,-0.15324799716472626,0.02652899920940399,0.03570700064301491,0.2866609990596771,-0.06855099648237228,0.038752999156713486,0.060607001185417175,-0.0299919992685318,-0.21974299848079681,0.00495600001886487,-0.11093299835920334,-0.22264499962329865,0.061358001083135605,0.12291300296783447,0.003102000104263425,-0.13164399564266205,0.009759999811649323,-0.24078699946403503,-0.1270579993724823,-0.02672800049185753,-0.15794700384140015,0.2621830105781555,0.04287999868392944,0.220537006855011,0.17427699267864227,-0.10738799721002579,-0.021198999136686325,0.08810599893331528,-0.14257599413394928,0.22754600644111633,0.1434590071439743,-0.02218499965965748,0.10215599834918976,0.0449259988963604,-0.22759099304676056,0.18800300359725952,-0.23340900242328644,-0.044502001255750656,-0.06749100238084793,-0.04075099900364876
结构,-0.10387799888849258,0.19047999382019043,0.007884999737143517,0.23587100207805634,-0.07377900183200836,0.07393199950456619,0.12839099764823914,0.03238299861550331,0.02906000055372715,0.13836699724197388,0.10149600356817245,0.016200000420212746,-0.1070299968123436,-0.007094999775290489,-0.11910299956798553,-0.19546900689601898,-0.12357799708843231,-0.21452899277210236,0.06391900032758713,-0.07276500016450882,-0.11603400111198425,-0.1465959995985031,0.2909800112247467,0.041012998670339584,0.23337900638580322,-0.007526000030338764,-0.11818099766969681,-0.0301900003105402,0.009575000032782555,0.1315930038690567,-0.030402999371290207,-0.040251001715660095,0.08240500092506409,-0.08298499882221222,0.012647000141441822,0.08403600007295609,0.1283629983663559,-0.007619999814778566,-0.0037070000544190407,0.15565699338912964,-0.06659100204706192,0.07191099971532822,-0.055410001426935196,0.06673700362443924,-0.09569499641656876,-0.16024400293827057,-0.05352399870753288,-0.008918000385165215,-0.0827770009636879,-0.1192530021071434,0.08794700354337692,7.300000288523734e-05,0.04438700154423714,-0.05553999915719032,0.12155400216579437,-0.03711400181055069,-0.11902199685573578,0.020646000280976295,-0.12375099956989288,0.08680900186300278,-0.020339999347925186,0.09387099742889404,-0.19592000544071198,-0.03541199862957001,0.08448299765586853,0.04224099963903427,-0.15518200397491455,0.06519799679517746,0.12429399788379669,0.22128300368785858,-0.22972600162029266,-0.09946499764919281,0.24435199797153473,-0.14662499725818634,0.1324000060558319,-0.22610700130462646,0.1992730051279068,-0.15137599408626556,0.09254200011491776,0.03675999864935875,0.033163998275995255,-0.2429399937391281,-0.059425000101327896,0.0114139998331666,-0.10440299659967422,0.0020240000449121,0.05067700147628784,-0.07207699865102768,-0.02884400077164173,0.2591240108013153,0.02319600060582161,-0.154898002743721,-0.2189989984035492,-0.21241599321365356,-0.12033600360155106,-0.08506699651479721,-0.010367999784648418,-0.06106200069189072,-0.1591310054063797,0.08631599694490433,0.17983099818229675,0.12513099610805511,-0.09564000368118286,0.16106000542640686,0.0075079998932778835,-0.04838699847459793,-0.038256000727415085,0.1771019995212555,-0.11774300038814545,-0.15312400460243225,0.06698399782180786,-0.0015950000379234552,-0.12154600024223328,-0.12143900245428085,0.17367799580097198,-0.17521199584007263,-0.27675899863243103,-0.07982999831438065,-0.15218199789524078,0.02615799941122532,0.12071199715137482,0.09132900089025497,0.18736900389194489,-0.032283999025821686,-0.24444499611854553,-0.058079998940229416,-0.35445499420166016,0.21758699417114258,-0.3086960017681122,-0.04879999905824661,0.06468299776315689,-0.09585099667310715,-0.12592999637126923,-0.09738700091838837,-0.03620300069451332,0.15463599562644958,0.014392999932169914,-0.27619999647140503,-0.03669299930334091,-0.11776500195264816,-0.1912669986486435,-0.0454769991338253,0.2966899871826172,0.07730899751186371,-0.14033900201320648,0.008061000145971775,-0.15071600675582886,-0.030598999932408333,-0.15188799798488617,-0.24206799268722534,0.19924600422382355,-0.27371901273727417,-0.2247229963541031,-0.07770200073719025,-0.06662900000810623,0.18659499287605286,-0.045462001115083694,0.11180999875068665,0.04298900067806244,-0.09106600284576416,0.047242000699043274,-0.006324999965727329,-0.06456899642944336,-0.17736800014972687,-0.05916899815201759,-0.224262997508049,-0.06805700063705444,0.07549700140953064,-0.007368999999016523,-0.002234000014141202,-0.08775799721479416,0.06348499655723572,-0.20086100697517395,0.1490669995546341,-0.13011600077152252,0.003452999982982874,0.14226199686527252,0.10008999705314636,0.06135400012135506,-0.23638500273227692,-0.20663100481033325,-0.10427100211381912,-0.021681999787688255,0.25183698534965515,-0.12553399801254272,-0.009180000051856041,0.0924139991402626,-0.14368000626564026,0.24244199693202972,0.2101999968290329,0.060770999640226364,0.2329780012369156,-0.09478099644184113,0.1469620019197464,0.08917699754238129,-0.051709000021219254,0.05651700124144554,-0.23735499382019043,-0.29229098558425903,0.06762199848890305,0.0982460007071495,0.09869600087404251,0.011487999930977821,0.2658360004425049,-0.005394000094383955,-0.3262070119380951,0.10465600341558456,-0.12680600583553314,0.12814299762248993,-0.026153000071644783,0.03730100020766258,-0.15775400400161743,-0.02248300053179264,-0.015506000258028507,-0.0706230029463768,0.0812079980969429,-0.01689000055193901,-0.1977510005235672,0.2633419930934906,-0.31321901082992554,0.03158999979496002,0.07498600333929062,0.0373230017721653,-0.05232999846339226,-0.011938000097870827,-0.17496299743652344,0.042298998683691025,-0.1462630033493042,-0.03561199828982353,0.06908199936151505,-0.22721999883651733,-0.03407200053334236,-0.09256400167942047,-0.010352999903261662,0.19079400599002838,0.06291399896144867,0.00660100020468235,0.12742699682712555,-0.01472499966621399,0.06554099917411804,-0.034616000950336456,0.01232299953699112,-0.03248300030827522,-0.0879959985613823,-0.17198899388313293,-0.021201999858021736,-0.1073869988322258,-0.07915700227022171,0.004567000083625317,-0.09053800255060196,0.07756199687719345,0.19401000440120697,-0.3614419996738434,0.11694300174713135,-0.08389399945735931,-0.19610899686813354,-0.04224399849772453,-0.047467999160289764,0.10668499767780304,0.2253189980983734,-0.01129900012165308,0.00020199999562464654,0.042906999588012695,-0.16061000525951385,-0.19081799685955048,-0.09408800303936005,-0.01942799985408783,0.12352699786424637,-0.2818849980831146,-0.17748500406742096,-0.16217300295829773,-0.14891600608825684,-0.24388399720191956,0.2445569932460785,0.08282499760389328,0.0874750018119812,-0.18144600093364716,-0.246411994099617,0.024764999747276306,-0.0021730000153183937,0.0011739999754354358,-0.21557499468326569,-0.14358100295066833,-0.06771299988031387,0.004062999971210957,-0.11117299646139145,-0.004234000109136105,0.009685000404715538,0.024514000862836838,-0.2417439967393875,0.06337600201368332,-0.16319400072097778,-0.1178169995546341,-0.004133000038564205,0.13326899707317352,-0.10305000096559525,0.07445599883794785,-0.3130039870738983,-0.02558699995279312,0.02637699991464615,0.04400999844074249,0.35801199078559875,0.23281699419021606,-0.02539999969303608,-0.05590000003576279,-0.10066600143909454,-0.08584199845790863,-0.01934799924492836,-0.10924500226974487,-0.1992889940738678,0.07553000003099442,0.13243499398231506,0.1373700052499771,-0.2013929933309555,-0.05343399941921234,0.14123399555683136,-0.041687000542879105,0.10322300344705582,-0.12714000046253204,0.001554999966174364,0.0935870036482811,0.17427200078964233,0.2654849886894226,-0.014592999592423439,-0.07353100180625916,0.16568000614643097,-0.05539499968290329,-0.10043200105428696,0.005177999846637249,-0.20380300283432007,-0.01231599971652031,0.15119799971580505,-0.05559200048446655,-0.07869599759578705,-0.004102000035345554,-0.011467999778687954,-0.0591760016977787,-0.12193600088357925,-0.12757299840450287,-0.08956900238990784,0.022153999656438828,-0.01405400037765503,-0.013131000101566315,0.022577999159693718,-0.052035000175237656,0.10606499761343002,0.3076370060443878,0.00915099959820509,-0.131181001663208,0.1622290015220642,0.048183001577854156,-0.09982799738645554,0.026093000546097755,0.025178000330924988,0.23737700283527374,-0.024080999195575714,0.13921800255775452,0.10886599868535995,-0.18140800297260284,-0.15930700302124023,0.03172300010919571,-0.1193849965929985,0.07578399777412415,0.06995099782943726,-0.25532200932502747,0.15534600615501404,-0.22662299871444702,-0.4506779909133911,-0.17705799639225006,-0.09722600132226944,-0.26242899894714355,-0.24496200680732727,0.14813299477100372,-0.24658800661563873,-0.0341930016875267,-0.16801400482654572,0.14407500624656677,-0.31435298919677734,-0.14970499277114868,-0.22102999687194824,0.231345996260643,0.14876200258731842,-0.25106701254844666,-0.0675709992647171,-0.03264300152659416,0.12041699886322021,-0.13175800442695618,-0.06503300368785858,0.06751099973917007,0.018641000613570213,-0.19486300647258759,0.09323199838399887,-0.009050000458955765,0.11298800259828568,-0.11795900017023087,0.18568600714206696,-0.14773499965667725,-0.2097810059785843,0.04362399876117706,-0.17069600522518158
功能,0.03336400166153908,0.2886370122432709,0.2394690066576004,-0.01769999973475933,0.2181510031223297,-0.1485159993171692,0.03396499902009964,0.27577298879623413,-0.014820000156760216,-0.1050029993057251,0.06262899935245514,0.045584000647068024,-0.12291699647903442,-0.16478000581264496,-0.1358889937400818,-0.15078400075435638,-0.054138001054525375,0.3408690094947815,-0.12412799894809723,-0.15865300595760345,0.04905100166797638,-0.1874990016222,0.06302399933338165,0.08955200016498566,0.21612399816513062,0.1957940012216568,-0.22105799615383148,0.0064929998479783535,-0.12338200211524963,-0.01586499996483326,0.1482360064983368,-0.11932799965143204,0.13567599654197693,0.018542999401688576,-0.0812000036239624,-0.22329899668693542,-0.06763099879026413,-0.41985198855400085,0.10363999754190445,-0.0072189997881650925,-0.12399400025606155,-0.1743060052394867,-0.10347499698400497,0.20229600369930267,-0.11831200122833252,-0.1277640014886856,-0.2518700063228607,0.09490399807691574,0.08473099768161774,-0.05073399841785431,-0.019385000690817833,0.17493200302124023,-0.008582999929785728,-0.08305899798870087,0.042789001017808914,-0.17655299603939056,-0.21515999734401703,0.11712200194597244,0.07486599683761597,0.2366359978914261,0.07374700158834457,0.11671999841928482,-0.15581299364566803,-0.2127469927072525,0.13634799420833588,0.010963999666273594,-0.09240999817848206,-0.09173999726772308,0.36734700202941895,0.21033699810504913,-0.23059900104999542,0.004416000097990036,0.021323999390006065,-0.08677200227975845,0.11137200146913528,-0.07334999740123749,0.19143499433994293,-0.013788999989628792,0.29227301478385925,-0.009479999542236328,-0.10525999963283539,-0.27105799317359924,-0.1845480054616928,0.046709999442100525,0.07356400042772293,0.012625999748706818,0.05222199857234955,-0.03316200152039528,-0.1405089944601059,0.06554999947547913,-0.23194600641727448,-0.05307300016283989,-0.08130600303411484,-0.18170200288295746,0.03792700171470642,-0.05451799929141998,-0.04651699960231781,0.04508199915289879,-0.08471299707889557,0.04103599861264229,0.28020501136779785,0.022597000002861023,-0.10452599823474884,-0.06921199709177017,-0.020688999444246292,-0.009855999611318111,-0.12411300092935562,-0.18708500266075134,-0.0778530016541481,-0.06443300098180771,-0.060387998819351196,0.10208000242710114,0.10277300328016281,-0.0401110015809536,0.1637279987335205,0.03811199963092804,-0.0064650001004338264,0.058556001633405685,-0.13248099386692047,0.028378000482916832,-0.17558400332927704,0.0510220006108284,0.08851700276136398,0.04720500111579895,0.04529599845409393,0.030396999791264534,-0.3064599931240082,-0.09674999862909317,0.2509239912033081,-0.04224900156259537,-0.03202600032091141,-0.11983700096607208,-0.08168300241231918,0.0906509980559349,0.014670999720692635,0.030928999185562134,0.25727200508117676,0.016006000339984894,-0.09233000129461288,0.005295999813824892,-0.15129399299621582,-0.08634199947118759,0.10534899681806564,0.030247999355196953,-0.2626180052757263,-0.0860069990158081,-0.3782089948654175,0.10186800360679626,-0.2557309865951538,-0.23031599819660187,0.08591800183057785,-0.16119199991226196,0.019999999552965164,-0.06443700194358826,-0.12443900108337402,-0.09826499968767166,-0.006149999797344208,-0.10609500110149384,0.1078919991850853,-0.031254999339580536,0.004556000232696533,0.01334299985319376,0.01937899924814701,0.12455800175666809,-0.06830599904060364,0.11999200284481049,-0.15188199281692505,-0.10726500302553177,0.12030400335788727,0.07181599736213684,-0.009510000236332417,0.18028900027275085,-0.1709969937801361,-0.016791999340057373,-0.016201000660657883,-0.11453399807214737,0.17568999528884888,-0.1197889968752861,-0.09395299851894379,-0.14699199795722961,0.12520000338554382,-0.12375800311565399,0.005588000174611807,0.10167700052261353,0.17743800580501556,-0.03317100182175636,0.35991498827934265,-0.11226999759674072,0.22626499831676483,-0.04391400143504143,0.03637799993157387,0.016586000099778175,-0.17713899910449982,0.16760499775409698,-0.11392199993133545,-0.1318109929561615,-0.0312460009008646,-0.003120000008493662,-0.03497700020670891,-0.11096899956464767,0.021734999492764473,-0.1634950041770935,-0.055587999522686005,0.033142998814582825,-0.24704299867153168,-0.12144199758768082,0.17917999625205994,-0.10248199850320816,0.050725001841783524,-0.005869000218808651,-0.008163000456988811,0.255950003862381,0.06207599863409996,0.05741500109434128,0.03211500123143196,-0.17699700593948364,-0.03250399976968765,-0.12019100040197372,0.2452470064163208,-0.13768500089645386,0.11876600235700607,0.22686800360679626,-0.0012359999818727374,0.046594999730587006,-0.11287499964237213,-0.26140400767326355,0.005948999896645546,-0.10885799676179886,0.02236800082027912,-0.04402400180697441,-0.0027799999807029963,0.195592001080513,-0.10019800066947937,0.08382099866867065,0.03371699899435043,-0.34988999366760254,0.04126499965786934,0.22728599607944489,-0.09612800180912018,-0.20416200160980225,0.01079300045967102,-0.14433999359607697,0.03567500039935112,0.1003429964184761,-0.20542700588703156,-0.07665000110864639,-0.13917399942874908,0.0496550016105175,0.10626699775457382,-0.18258599936962128,-0.022408999502658844,-0.02798300050199032,-0.19221000373363495,-0.05513399839401245,-0.034341998398303986,0.09060800075531006,0.02526400052011013,-0.1763329952955246,0.04530100151896477,0.1669050008058548,0.2058980017900467,0.20827999711036682,0.08948399871587753,0.008911999873816967,0.14554700255393982,-0.30972498655319214,0.1252869963645935,-0.10644099861383438,-0.0078039998188614845,0.09130500257015228,-0.21157300472259521,0.06694400310516357,0.07599200308322906,-0.011500000022351742,0.16201700270175934,0.056515999138355255,0.019502999261021614,0.06594900041818619,0.09792400151491165,0.08974699676036835,-0.08895199745893478,-0.05221100151538849,0.00418699998408556,-0.10269200056791306,-0.14883199334144592,0.04971899837255478,0.055045999586582184,-0.023533999919891357,0.09216299653053284,0.007275000214576721,0.22583100199699402,-0.04055500030517578,0.13077199459075928,-0.1413940042257309,0.22144299745559692,-0.05860099941492081,0.034299999475479126,0.16046999394893646,0.022470999509096146,0.018062999472022057,-0.04417499899864197,0.21607400476932526,0.046884000301361084,-0.25330600142478943,0.034967999905347824,-0.051934000104665756,-0.030937999486923218,-0.047947000712156296,-0.01961500011384487,-0.21945500373840332,0.04892300069332123,0.060148000717163086,0.013749999925494194,-0.03574100136756897,-0.21078699827194214,0.13545799255371094,-0.008120999671518803,-0.2110999971628189,0.0005409999866969883,-0.03610999882221222,0.04757000133395195,0.03426399827003479,0.06357800215482712,-0.025011999532580376,-0.02435999922454357,-0.041099000722169876,0.025624999776482582,-0.13346700370311737,-0.02286200039088726,0.057778000831604004,-0.06220899894833565,-0.027646999806165695,-0.22054199874401093,-0.15642499923706055,0.16804300248622894,0.08297300338745117,0.025256000459194183,-0.11178900301456451,-0.07619199901819229,-0.09553200006484985,-0.19652900099754333,-0.028095999732613564,0.02154799923300743,0.008934999816119671,-0.06415600329637527,-0.04060899838805199,0.13527999818325043,0.21043099462985992,-0.02781200036406517,0.0911720022559166,0.06481300294399261,-0.09285999834537506,-0.21706600487232208,0.014063999988138676,-0.043407998979091644,0.24418200552463531,-0.027302000671625137,0.016714999452233315,0.027002999559044838,-0.13493600487709045,0.10749299824237823,-0.004168999847024679,0.009019000455737114,0.012420999817550182,-0.02423899993300438,0.08476299792528152,-0.12361399829387665,-0.3399890065193176,-0.1835940033197403,0.002397000091150403,-0.23242999613285065,-0.15655699372291565,0.021480999886989594,0.07427900284528732,0.08517500013113022,-0.3427700102329254,0.023561999201774597,-0.09944900125265121,0.004087999928742647,-0.0843459963798523,-0.05302499979734421,0.3262239992618561,0.08883900195360184,0.2533619999885559,0.24398499727249146,0.06706199795007706,0.047370001673698425,-0.09236399829387665,-0.011122999712824821,-0.030121000483632088,-0.09181900322437286,0.05975399911403656,0.008710999973118305,0.05080400034785271,-0.09000899642705917,0.4166620075702667,-0.2176010012626648,-0.05044599995017052,-0.07894200086593628,0.031063999980688095
策略,0.029860999435186386,0.09212999790906906,-0.05609000101685524,-0.1591549962759018,0.022773999720811844,0.03635599836707115,0.0969260036945343,0.12355200201272964,-0.03606700152158737,-0.07755299657583237,-0.004201000090688467,-0.15103000402450562,0.04056999832391739,-0.07916100323200226,-0.10212799906730652,0.11522100120782852,-0.03830699995160103,-0.211557999253273,-0.17157399654388428,0.04965599998831749,-0.18295800685882568,-0.23721599578857422,-0.03685599938035011,0.15434899926185608,0.18728099763393402,0.16896499693393707,0.06305500119924545,-0.20629499852657318,0.08517500013113022,0.1633789986371994,-0.06233900040388107,-0.25755399465560913,0.10075700283050537,0.15627899765968323,0.04571099951863289,-0.01921599917113781,-0.0683870017528534,-0.12281700223684311,-0.09920399636030197,-0.014078999869525433,-0.12822599709033966,-0.06689299643039703,0.02633100003004074,0.13578100502490997,0.08179499953985214,-0.040713999420404434,0.06562499701976776,0.07201799750328064,0.14259199798107147,-0.2310660034418106,0.046355001628398895,0.06707900017499924,0.22574999928474426,-0.05872200056910515,0.12676499783992767,-0.12685400247573853,-0.04663899913430214,0.01778700016438961,0.09926199913024902,-0.04735700041055679,-0.14588099718093872,-0.2633279860019684,0.006668000016361475,-0.04294599965214729,0.13168400526046753,0.11118999868631363,0.0779310017824173,-0.018223000690340996,0.18673500418663025,-0.0008609999786131084,-0.19643400609493256,0.0647910013794899,0.06411399692296982,0.044520001858472824,0.0391400009393692,-0.41854599118232727,-0.13064000010490417,0.09271000325679779,-0.049247000366449356,0.05843200162053108,-0.11597199738025665,-0.24070699512958527,-0.22175399959087372,-0.13563500344753265,-0.1037990003824234,-0.015602000057697296,0.1406860053539276,0.07037600129842758,0.15219999849796295,-0.07022800296545029,-0.19391199946403503,-0.054200999438762665,-0.21670499444007874,0.017726000398397446,-0.08359000086784363,-0.07475300133228302,-0.0005810000002384186,-0.07956899702548981,-0.18908199667930603,-0.02978000044822693,-0.03728799894452095,-0.01872199960052967,0.03523299843072891,-0.1814350038766861,-0.27560800313949585,0.08283399790525436,0.1002189964056015,-0.02463199943304062,0.17136399447917938,-0.005090999882668257,-0.0797320008277893,0.05584099888801575,0.009425999596714973,-0.02525399997830391,-0.12922200560569763,0.28813499212265015,0.09413500130176544,-0.1492989957332611,0.07115799933671951,0.11855799704790115,-0.0440559983253479,0.2556140124797821,-0.04711100086569786,-0.11871200054883957,-0.04228699952363968,0.18929600715637207,-0.09853100031614304,-0.10162699967622757,-0.0019379999721422791,0.00041199999395757914,-0.06536299735307693,-0.046946000307798386,0.02453799918293953,0.3137640058994293,0.023138999938964844,-0.04128599911928177,0.04792200028896332,-0.20271000266075134,0.046445999294519424,-0.05428500100970268,0.1133200004696846,0.022278999909758568,-0.08157800137996674,-0.1174200028181076,-0.13282200694084167,-0.18877799808979034,-0.11862599849700928,0.14761100709438324,-0.1444060057401657,-0.059268999844789505,0.025906000286340714,-0.12640799582004547,0.10166700184345245,-0.3180379867553711,-0.00901000015437603,-0.03568999841809273,0.04224399849772453,-0.017815999686717987,-0.09095499664545059,-0.008581000380218029,0.01114100031554699,-0.022288000211119652,-0.0995820015668869,0.01566999964416027,-0.20065799355506897,-0.07191099971532822,-0.021011000499129295,-0.016361000016331673,0.18500900268554688,-0.08794800192117691,-0.15671899914741516,0.0006120000034570694,-0.19974899291992188,0.20476900041103363,-0.058313000947237015,-0.11499500274658203,-0.008669000118970871,0.05998999997973442,-0.09126999974250793,-0.2112250030040741,-0.004075000062584877,0.0792279988527298,-0.15678299963474274,0.09562599658966064,0.04766499996185303,0.005073999986052513,-0.11741500347852707,0.09732499718666077,-0.17732499539852142,0.08272600173950195,-0.11923199892044067,-0.04172400012612343,-0.09227199852466583,-0.12996500730514526,-0.0625389963388443,-0.14665600657463074,0.11519599705934525,-0.015598000027239323,-0.23020799458026886,0.0723079964518547,0.021282000467181206,0.03722500056028366,-0.032124001532793045,-0.07826299965381622,-0.07497099786996841,-0.1892320066690445,0.08350200206041336,-0.1291770040988922,0.0012929999502375722,-0.14245100319385529,-0.057711999863386154,0.15820099413394928,0.0034370000939816236,0.22097699344158173,0.12515999376773834,0.055254001170396805,0.12380500137805939,-0.03680400177836418,0.11650700122117996,0.2176090031862259,0.0920180007815361,0.06756199896335602,0.03215499967336655,-0.36019501090049744,0.07645999640226364,-0.26512598991394043,-0.06868399679660797,-0.09237200021743774,-0.07022300362586975,0.16440999507904053,0.08372200280427933,0.05132700130343437,0.04649199917912483,0.20507700741291046,0.07438299804925919,-0.036775000393390656,-0.12295600026845932,-0.024330999702215195,-0.017302999272942543,-0.08790799975395203,0.06983300298452377,0.036336999386548996,-0.048427000641822815,0.15401099622249603,-0.11949899792671204,-0.07591699808835983,0.0913119986653328,0.0011490000179037452,0.0736209973692894,0.15532100200653076,0.10132700204849243,-0.23871900141239166,-0.12462399899959564,0.09501499682664871,-0.10516200214624405,0.17368300259113312,-0.16333599388599396,-0.05640700086951256,0.05408100038766861,-0.027187999337911606,0.003022999968379736,-0.129054993391037,-0.03116000071167946,-0.28676000237464905,0.21141499280929565,0.03991900011897087,-0.0018619999755173922,-0.10301399976015091,0.003109999932348728,0.17228400707244873,-0.15268899500370026,0.20250500738620758,0.005497000180184841,0.2923330068588257,-0.00622900016605854,-0.07670000195503235,-0.24619700014591217,-0.051461998373270035,-0.0888260006904602,-0.0006539999740198255,0.004391999915242195,0.12722399830818176,-0.2657549977302551,0.1264840066432953,0.18541400134563446,0.02914699912071228,0.06095600128173828,-0.14198000729084015,0.04539100080728531,-0.005408999975770712,0.06476700305938721,-0.04176799952983856,0.03505399823188782,0.09301000088453293,0.01670200005173683,-0.16353200376033783,0.06526199728250504,0.030470000579953194,0.04326700046658516,0.08194100111722946,-0.268981009721756,0.22894200682640076,-0.07767199724912643,-0.16243499517440796,-0.16346299648284912,0.16289900243282318,0.11322599649429321,-0.04759500175714493,-0.13168199360370636,0.10051699727773666,0.044252000749111176,0.09431300312280655,0.05509600043296814,-0.02698500081896782,0.010866999626159668,0.06389299780130386,-0.07346399873495102,0.013845999725162983,-0.07162400335073471,-0.2340870052576065,0.09606499969959259,0.023427000269293785,-0.0030900000128895044,0.09412399679422379,0.00863800011575222,0.09045600146055222,-0.041753001511096954,-0.18676799535751343,0.05473100021481514,0.10210700333118439,0.08607800304889679,-0.10830800235271454,-0.043435998260974884,-0.040344998240470886,0.03346899896860123,0.4337159991264343,0.06715399771928787,-0.010630999691784382,-0.10488700121641159,0.006823999807238579,-0.2838340103626251,-0.018938999623060226,0.06312800198793411,-0.05031900107860565,-0.12113899737596512,-0.043421998620033264,0.15466000139713287,0.02996799908578396,-0.2518770098686218,-0.0023870000150054693,0.12043599784374237,-0.14619100093841553,0.11867000162601471,-0.07191099971532822,0.26481500267982483,-0.3078640103340149,-0.026798000559210777,0.16412200033664703,-0.07566499710083008,0.19760900735855103,0.12919700145721436,0.230771005153656,-0.11208400130271912,0.05376800149679184,-0.03356900066137314,-0.11631599813699722,0.25819098949432373,-0.11126799881458282,-0.11129900068044662,-0.13601499795913696,0.0009420000133104622,0.04609600082039833,-0.08687199652194977,-0.06679899990558624,0.03810099884867668,0.1418839991092682,-0.032377999275922775,0.0782800018787384,-0.10234999656677246,0.11906599998474121,0.05593499913811684,0.1730870008468628,-0.07362300157546997,-0.018098000437021255,0.16388900578022003,0.20938900113105774,0.1041790023446083,-0.12778300046920776,0.1838030070066452,-0.05587099865078926,0.10682400315999985,0.1598619967699051,0.07422400265932083,0.018861999735236168,-0.07331299781799316,0.04709799960255623,-0.11841599643230438,-0.053752999752759933,-0.2075359970331192,-0.03018300049006939
刹车,0.3965499997138977,0.14210300147533417,0.06522499769926071,0.02425600029528141,0.43158799409866333,0.09361399710178375,0.008132999762892723,0.15213799476623535,0.4359540045261383,-0.1220489963889122,0.07874199748039246,-0.027660999447107315,0.1193460002541542,-0.10864800214767456,0.002220999915152788,0.06491900235414505,0.14331600069999695,0.31561699509620667,0.09205999970436096,-0.14697499573230743,-0.11329600214958191,-0.19154800474643707,0.2170020043849945,0.027456000447273254,0.2863830029964447,0.14680300652980804,-0.13207300007343292,0.007455000188201666,0.11714199930429459,0.12770399451255798,0.05103499814867973,0.21816599369049072,0.15157699584960938,-0.19760100543498993,-0.12391100078821182,0.05078800022602081,0.043845001608133316,-0.10276699811220169,0.27915099263191223,0.1658809930086136,0.012978999875485897,-0.07195799797773361,-0.18215599656105042,0.3129560053348541,-0.06884399801492691,0.002704000100493431,-0.06234699860215187,-0.16701999306678772,0.30882200598716736,-0.2945530116558075,-0.03926600143313408,-0.19277900457382202,0.09598799794912338,-0.06408800184726715,-0.04938900098204613,0.2670170068740845,-0.19550000131130219,0.04891600087285042,0.016603000462055206,0.4619140028953552,0.21201400458812714,-0.017309999093413353,0.09440899640321732,0.0021520000882446766,-0.1179639995098114,0.09091799706220627,-0.042419999837875366,-0.12534500658512115,0.4870299994945526,0.011785999871790409,-0.1654449999332428,0.19302299618721008,0.29348498582839966,-0.21666400134563446,0.06421300023794174,0.07900399714708328,0.1275400072336197,0.3929919898509979,0.09015800058841705,0.38937899470329285,-0.007722000125795603,-0.12225800007581711,-0.0963200032711029,0.0020910000894218683,-0.08424299955368042,0.08636000007390976,-0.2903670072555542,0.10651899874210358,-0.15263499319553375,-0.1250230073928833,-0.15193599462509155,0.07035399973392487,-0.314859002828598,-0.19192099571228027,-0.04945699870586395,0.12911100685596466,-0.13623300194740295,-0.16189700365066528,-0.07285500317811966,0.12051499634981155,-0.07618799805641174,0.15258699655532837,0.2904379963874817,0.12330099940299988,-0.2025279998779297,0.18303599953651428,-0.026616999879479408,-0.08308299630880356,-0.0748400017619133,-0.48976001143455505,0.13808800280094147,0.06872600317001343,0.31192898750305176,0.18437400460243225,0.08675400167703629,-0.03357600048184395,-0.19529399275779724,-0.13799899816513062,0.02637699991464615,0.1604059934616089,-0.13979899883270264,0.1981389969587326,-0.19940799474716187,0.1438719928264618,0.37358999252319336,0.10994300246238708,-0.3291989862918854,-0.03341300040483475,0.03031899966299534,-0.006876000203192234,0.3225480020046234,-0.012331999838352203,0.22445599734783173,-0.021049000322818756,-0.24647100269794464,-0.13364200294017792,-0.2171580046415329,-0.16246700286865234,-0.5706580281257629,0.16934600472450256,-0.4342939853668213,-0.2334900051355362,0.1257150024175644,-0.18118299543857574,-0.1579889953136444,-0.08772800117731094,-0.1187169998884201,0.18196700513362885,-0.26209399104118347,-0.34454700350761414,0.16154800355434418,-0.09074000269174576,0.011361000128090382,0.1797659993171692,0.3469730019569397,0.11195100098848343,0.2101600021123886,-0.19042499363422394,0.11020299792289734,-0.1924149990081787,-0.10880299657583237,0.18882699310779572,-0.0643410012125969,-0.048958998173475266,-0.2871350049972534,-0.13218599557876587,0.1469240039587021,-0.15114299952983856,-0.26326000690460205,0.08547700196504593,-0.24971899390220642,0.2519899904727936,-0.027451999485492706,0.12439099699258804,0.03232099860906601,0.11232300102710724,0.024042999371886253,0.15836499631404877,-0.09836599975824356,0.19853800535202026,0.27061399817466736,-0.013674999587237835,-0.5455089807510376,0.003194000106304884,-0.18997099995613098,0.10614699870347977,0.043248001486063004,-0.03577899932861328,0.23943300545215607,0.13496999442577362,0.12261100113391876,0.08054699748754501,0.0030300000216811895,0.09173800051212311,-0.0412760004401207,0.018631000071763992,-0.3338730037212372,0.008092000149190426,0.13978900015354156,0.023798000067472458,-0.05372000113129616,-0.3164519965648651,-0.31969600915908813,0.10717300325632095,0.08225700259208679,-0.4881030023097992,0.25832599401474,-0.19132199883460999,0.4977729916572571,0.10516700148582458,-0.10412199795246124,0.03087400086224079,-0.0925310030579567,0.11218199878931046,0.2533099949359894,-0.07736700028181076,0.22710800170898438,-0.3278979957103729,0.25321701169013977,-0.0009490000084042549,0.22915099561214447,-0.005284999962896109,-0.19452600181102753,-0.3328399956226349,0.15852700173854828,0.21633000671863556,0.06347499787807465,-0.14339900016784668,-0.05122800171375275,-0.19875499606132507,-0.47186198830604553,0.19838599860668182,0.0174809992313385,0.08565100282430649,-0.00660100020468235,-0.18953900039196014,-0.19111600518226624,-0.22089900076389313,-0.09728699922561646,-0.06769999861717224,-0.17497199773788452,-0.2601200044155121,0.13905100524425507,-0.4173330068588257,0.08259399980306625,0.0018789999885484576,-0.07640500366687775,0.016892999410629272,-0.3041659891605377,-0.09279199689626694,0.1278029978275299,-0.018401000648736954,-0.084586001932621,-0.08669999986886978,-0.1106799989938736,-0.1499669998884201,0.1809149980545044,-0.009755999781191349,-0.03698199987411499,0.020214000716805458,0.25890499353408813,-0.003002000041306019,-0.06332699954509735,-0.010018999688327312,-0.15203000605106354,-0.16478100419044495,0.08466300368309021,0.4317750036716461,-0.37823501229286194,0.013346999883651733,0.0015790000325068831,0.01882600039243698,-0.14537599682807922,-0.17612099647521973,0.07932499796152115,-0.03763800114393234,-0.12648600339889526,0.19415800273418427,-0.009983999654650688,0.031300000846385956,0.12374699860811234,-0.32576900720596313,0.23377299308776855,-0.06571599841117859,-0.23803099989891052,0.03122599981725216,-0.1570570021867752,0.23525899648666382,-0.06295900046825409,-0.07500100135803223,0.11033699661493301,-0.32812801003456116,-0.07646399736404419,-0.31272000074386597,-0.028376000002026558,-0.31541699171066284,0.15621699392795563,0.02674500085413456,0.3506709933280945,0.06260400265455246,0.09944900125265121,0.34893500804901123,-0.03357899934053421,-0.18915100395679474,0.21351000666618347,0.0047889999113976955,0.054728999733924866,-0.05007199943065643,-0.5587329864501953,0.07202699780464172,0.32425400614738464,-0.028320999816060066,0.3314020037651062,0.2061849981546402,0.16530899703502655,-0.03689499944448471,0.2344519942998886,-0.2790130078792572,-0.08118399977684021,-0.054065998643636703,0.042768001556396484,-0.18091599643230438,-0.2579280138015747,-0.06893400102853775,0.10025600343942642,0.15655399858951569,0.3071810007095337,-0.27681198716163635,-0.0773639976978302,0.27445098757743835,0.20856399834156036,-0.005774000193923712,-0.03184499964118004,-0.27368399500846863,0.04347199946641922,-0.03137100115418434,-0.4868209958076477,-0.000493000028654933,0.10669700056314468,0.1697230041027069,-0.2939540147781372,-0.1549919992685318,-0.1336199939250946,0.3427470028400421,0.005297000054270029,0.10709699988365173,0.12049499899148941,-0.07571300119161606,-0.06124600023031235,-0.40946799516677856,-0.20934799313545227,-0.06922099739313126,-0.05167900025844574,0.1433510035276413,0.3865100145339966,-0.18612700700759888,-0.17902299761772156,0.19194699823856354,0.0628260001540184,-0.05086300149559975,0.01165900006890297,0.24999099969863892,-0.32460901141166687,0.18312899768352509,-0.16564899682998657,-0.1855030059814453,-0.13902799785137177,-0.02913999930024147,-0.07156799733638763,-0.08955900371074677,-0.11244100332260132,-0.3383980095386505,-0.29476699233055115,-0.21618099510669708,-0.03791999816894531,-0.050850000232458115,-0.09713699668645859,0.3897860050201416,0.07826399803161621,-0.022640999406576157,0.14219599962234497,-0.16476699709892273,0.2163269966840744,-0.06817500293254852,0.1850769966840744,0.31664299964904785,-0.206496000289917,-0.2953450083732605,0.17932599782943726,-0.042691998183727264,0.05296099931001663,0.17539900541305542,-0.22717499732971191,0.142426997423172,0.17383399605751038,0.45296499133110046,-0.038095999509096146,0.36404600739479065,-0.041905999183654785,0.0635489970445633
输出,0.04789299890398979,0.08344600349664688,-0.18476900458335876,-0.09772399812936783,-0.10466399788856506,-0.21803200244903564,-0.2835580110549927,0.08042600005865097,0.07154499739408493,0.16456900537014008,0.10856100171804428,0.19887599349021912,0.1770869940519333,0.033925000578165054,-0.14002999663352966,-0.30243000388145447,-0.16779500246047974,0.15260499715805054,-0.2291709929704666,-0.3026849925518036,0.12058699876070023,-0.33820998668670654,0.03579999879002571,-0.07440000027418137,0.03592799976468086,-0.1969359964132309,-0.3608730137348175,-0.21135100722312927,0.052032001316547394,-0.050641000270843506,0.07001499831676483,0.00924300029873848,0.0732790008187294,-0.22140799462795258,-0.012772000394761562,-0.06946899741888046,0.04192600026726723,-0.18357299268245697,0.222802996635437,-0.22716599702835083,0.032590001821517944,-0.4927099943161011,-0.013057000003755093,0.3812130093574524,-0.07637900114059448,0.10334300249814987,-0.2188190072774887,-0.12095600366592407,0.21474899351596832,-0.07220499962568283,-0.5567899942398071,0.005038999952375889,-0.11917900294065475,-0.5985000133514404,-0.1166749969124794,0.14764900505542755,-0.16069699823856354,-0.11492200195789337,-0.015123999677598476,0.19310399889945984,0.19016499817371368,-0.12604700028896332,-0.41091200709342957,0.005133000202476978,0.1335110068321228,0.011793999932706356,-0.11945100128650665,-0.24479299783706665,0.2097180038690567,-0.04810899868607521,0.03125600144267082,-0.265082985162735,-0.09943199902772903,-0.31917598843574524,0.07228899747133255,-0.14285700023174286,0.0477290004491806,0.1753939986228943,0.16731199622154236,0.11518500000238419,0.0246140006929636,-0.3057509958744049,0.1028280034661293,0.14996500313282013,-0.03517499938607216,-0.1094679981470108,0.009926999919116497,-0.010954000055789948,-0.2917940020561218,-0.10713300108909607,-0.15806299448013306,0.0061980001628398895,0.1903820037841797,0.07438100129365921,0.08536200225353241,-0.1758909970521927,0.10521700233221054,-0.009895999915897846,0.14992499351501465,-0.07958800345659256,-0.01872199960052967,-0.029882000759243965,0.07047999650239944,-0.12215399742126465,-0.18516600131988525,0.11767400056123734,-0.11703299731016159,0.03928999975323677,-0.3620679974555969,0.06595700234174728,0.06197400018572807,0.3994379937648773,0.20770500600337982,0.09762199968099594,-0.24275800585746765,-0.035606998950242996,0.05159100145101547,-0.3020780086517334,-0.2490680068731308,0.041429001837968826,0.45128899812698364,-0.5131490230560303,-0.05248500034213066,0.05631899833679199,0.21309800446033478,0.1274469941854477,-0.1443919986486435,-0.0583840012550354,0.08083999902009964,-0.09862100332975388,0.09316200017929077,0.028821999207139015,0.011974000371992588,-0.017834000289440155,-0.16514599323272705,0.022871000692248344,0.19731800258159637,0.139491006731987,-0.4772590100765228,0.015652000904083252,0.07756999880075455,0.18150199949741364,0.06811700016260147,0.17191800475120544,-0.30047500133514404,-0.05393499881029129,0.05794699862599373,-0.11165200173854828,-0.29679200053215027,0.19039100408554077,0.12079399824142456,-0.10379999876022339,0.07362700253725052,0.29864099621772766,0.15808400511741638,0.28901100158691406,0.28166401386260986,0.0011680000461637974,0.3362100124359131,-0.25211000442504883,-0.1309179961681366,0.08297500014305115,-0.28736698627471924,0.23088499903678894,0.17933399975299835,0.05186599865555763,-0.434688001871109,-0.17845499515533447,0.23010000586509705,0.1606220006942749,-0.20152400434017181,0.26370200514793396,-0.2816700041294098,-0.13553500175476074,0.054395001381635666,-0.23115600645542145,-0.26366400718688965,0.04220199957489967,-0.034616999328136444,-0.3743619918823242,-0.042764998972415924,-0.2621529996395111,-0.595533013343811,-0.060245998203754425,-0.140064999461174,0.3701289892196655,0.14999499917030334,-0.15291400253772736,0.3395540118217468,-0.013019000180065632,0.23880299925804138,0.0935949981212616,-0.10971800237894058,0.09444300085306168,0.11147599667310715,-0.004385000094771385,-0.09025000035762787,-0.027481000870466232,0.1897449940443039,0.16515100002288818,0.03941899910569191,0.01256799977272749,-0.223798006772995,0.21061600744724274,-0.06534100323915482,-0.18629300594329834,0.13300099968910217,-0.012409999966621399,0.15030699968338013,-0.16378800570964813,0.05946600064635277,0.18283000588417053,0.1817300021648407,0.16565899550914764,0.2096329927444458,-0.13528500497341156,0.3121820092201233,-0.5288320183753967,0.3916130065917969,0.1891160011291504,-0.2410379946231842,0.13091999292373657,0.2320290058851242,0.11411900073289871,-0.03090599924325943,0.004941999912261963,0.1784680038690567,0.028932999819517136,-0.061108000576496124,0.24467499554157257,-0.3253310024738312,-0.09797000139951706,-0.24861900508403778,-0.06362300366163254,-0.5439590215682983,-0.04810100048780441,-0.15261800587177277,-0.015068000182509422,-0.08717600256204605,-0.10383400321006775,-0.05113599821925163,0.023548999801278114,0.29645100235939026,0.07674500346183777,0.26034799218177795,-0.0614439994096756,0.10884799808263779,0.31386399269104004,0.24308599531650543,-0.435465008020401,-0.03328099846839905,-0.4034560024738312,-0.0005499999970197678,0.18333099782466888,-0.21636700630187988,-0.0780860036611557,-0.2139499932527542,-0.06378400325775146,0.4106540083885193,0.1458899974822998,-0.06459300220012665,0.45943599939346313,0.10080999881029129,-0.1055309996008873,0.012621000409126282,0.1284639984369278,0.07695300132036209,-0.09053999930620193,-0.23587100207805634,-0.06504800170660019,-0.3090539872646332,0.011849000118672848,-0.05822499841451645,-0.2846490144729614,0.25482499599456787,0.11482799798250198,0.11731500178575516,0.45093798637390137,-0.049306999891996384,0.07295700162649155,-0.031332001090049744,0.11604800075292587,-0.028648000210523605,-0.2686479985713959,-0.1777530014514923,0.11968199908733368,0.05977899953722954,0.15381599962711334,-0.1467359960079193,-0.12177100032567978,0.15504300594329834,-0.1982879936695099,-0.2658349871635437,-0.2814429998397827,0.22657500207424164,-0.5476930141448975,0.15176700055599213,0.44595399498939514,0.43968701362609863,-0.07762300223112106,-0.14433899521827698,0.24594399333000183,-0.02351200021803379,-0.2700510025024414,-0.24596600234508514,-0.11913499981164932,-0.013415999710559845,0.05226999893784523,-0.032687000930309296,-0.4123300015926361,0.15134300291538239,-0.10922399908304214,-0.05770000070333481,-0.038839999586343765,-0.2683190107345581,0.08007899671792984,-0.01410400029271841,-0.33382299542427063,-0.19329099357128143,-0.32735899090766907,-0.5771359801292419,-0.0772159993648529,-0.15382400155067444,-0.09240599721670151,0.17229199409484863,-0.33977198600769043,0.23848800361156464,0.14527900516986847,-0.040240999311208725,0.037087999284267426,-0.0772479996085167,0.00662099989131093,-0.11609899997711182,-0.11839199811220169,0.23816899955272675,-0.01750200055539608,0.05081100016832352,-0.040254998952150345,-0.13967500627040863,0.22853399813175201,-0.04902299866080284,0.21817100048065186,-0.016459999606013298,0.2168630063533783,0.010094000026583672,0.1732410043478012,0.14510899782180786,0.5853090286254883,-0.14808599650859833,-0.12402699887752533,-0.1539209932088852,0.02536199986934662,-0.140051007270813,-0.09929700195789337,0.20879200100898743,-0.0013419999741017818,-0.227509006857872,0.20215900242328644,0.015957999974489212,-0.027574999257922173,0.034168001264333725,-0.20038600265979767,-0.13339899480342865,-0.2679949998855591,-0.04355600103735924,0.03620599955320358,-0.12125600129365921,-0.2168859988451004,-0.0972210019826889,0.14829300343990326,-0.07728199660778046,-0.37540099024772644,0.1151840016245842,-0.05445399880409241,0.20119500160217285,-0.08847499638795853,-0.07952199876308441,0.3377310037612915,-0.0003440000000409782,-0.020274000242352486,0.3458169996738434,0.28627100586891174,-0.2215449959039688,0.30305299162864685,0.16807599365711212,0.01806499995291233,-0.1401890069246292,0.11373600363731384,-0.02005700021982193,0.052907999604940414,-0.056745000183582306,0.2128179967403412,-0.20819400250911713,0.06385699659585953,-0.21527999639511108,0.6042360067367554,-0.23448200523853302,0.22796300053596497,0.014457999728620052,-0.11074399948120117
