word,0,1,2,3,4,5,6,7,8,9,10,11,12,13,14,15,16,17,18,19,20,21,22,23,24,25,26,27,28,29,30,31,32,33,34,35,36,37,38,39,40,41,42,43,44,45,46,47,48,49,50,51,52,53,54,55,56,57,58,59,60,61,62,63,64,65,66,67,68,69,70,71,72,73,74,75,76,77,78,79,80,81,82,83,84,85,86,87,88,89,90,91,92,93,94,95,96,97,98,99,100,101,102,103,104,105,106,107,108,109,110,111,112,113,114,115,116,117,118,119,120,121,122,123,124,125,126,127,128,129,130,131,132,133,134,135,136,137,138,139,140,141,142,143,144,145,146,147,148,149,150,151,152,153,154,155,156,157,158,159,160,161,162,163,164,165,166,167,168,169,170,171,172,173,174,175,176,177,178,179,180,181,182,183,184,185,186,187,188,189,190,191,192,193,194,195,196,197,198,199,200,201,202,203,204,205,206,207,208,209,210,211,212,213,214,215,216,217,218,219,220,221,222,223,224,225,226,227,228,229,230,231,232,233,234,235,236,237,238,239,240,241,242,243,244,245,246,247,248,249,250,251,252,253,254,255,256,257,258,259,260,261,262,263,264,265,266,267,268,269,270,271,272,273,274,275,276,277,278,279,280,281,282,283,284,285,286,287,288,289,290,291,292,293,294,295,296,297,298,299,300,301,302,303,304,305,306,307,308,309,310,311,312,313,314,315,316,317,318,319,320,321,322,323,324,325,326,327,328,329,330,331,332,333,334,335,336,337,338,339,340,341,342,343,344,345,346,347,348,349,350,351,352,353,354,355,356,357,358,359,360,361,362,363,364,365,366,367,368,369,370,371,372,373,374,375,376,377,378,379,380,381,382,383,384,385,386,387,388,389,390,391,392,393,394,395,396,397,398,399
邻接,-0.42038899660110474,0.23055300116539001,-0.1474120020866394,0.027851000428199768,-0.022662000730633736,-0.3982129991054535,-0.22346900403499603,0.06953699886798859,-0.47006699442863464,-0.22769199311733246,0.3491930067539215,-0.0675870031118393,-0.27640900015830994,-0.09067100286483765,0.20656900107860565,0.0743269994854927,-0.15730400383472443,-0.08610899746417999,0.23081299662590027,-0.060881998389959335,0.39535900950431824,0.05218999832868576,-0.14751000702381134,0.1537960022687912,0.07715900242328644,-0.42837798595428467,-0.3013629913330078,-0.12308000028133392,0.23476499319076538,-0.05454700067639351,0.03484399989247322,-0.12353099882602692,0.07079300284385681,0.31244200468063354,-0.23629599809646606,0.07718999683856964,0.12042500078678131,0.4409329891204834,0.2629770040512085,-0.12549300491809845,0.05905900150537491,-0.267518013715744,-0.31154298782348633,-0.04738600179553032,0.08438800275325775,-0.22996699810028076,-0.06889499723911285,-0.25345098972320557,0.19905300438404083,-0.11146699637174606,-0.17180399596691132,-0.21217699348926544,0.15249499678611755,-0.025381000712513924,0.30742600560188293,0.26361000537872314,0.14527900516986847,-0.02744700014591217,0.04823699966073036,-0.056122999638319016,-0.04915999993681908,0.3336920142173767,-0.044456999748945236,0.1395920068025589,0.04809499904513359,-0.06908900290727615,0.13297900557518005,0.1366569995880127,-0.00014000000373926014,-0.13135899603366852,0.21416200697422028,0.15265199542045593,0.020614000037312508,-0.1463409960269928,-0.12917600572109222,0.2626650035381317,-0.03677299991250038,-0.20892000198364258,-0.1329219937324524,-0.3165540099143982,0.566448986530304,-0.2663570046424866,0.07878100126981735,0.1942799985408783,0.010811000131070614,0.06337899714708328,-0.033876001834869385,-0.14739200472831726,-0.2506369948387146,-0.46801599860191345,0.03145600110292435,-0.18653200566768646,0.3592739999294281,-0.06657099723815918,-0.013410000130534172,0.07159300148487091,-0.0028699999675154686,-0.06205600127577782,0.09274300187826157,0.681236982345581,0.4197179973125458,-0.0037609999999403954,0.30187299847602844,0.18744200468063354,0.0806019976735115,0.01992199942469597,0.20967599749565125,0.29828301072120667,0.07532999664545059,-0.3108980059623718,-0.2341119945049286,-0.24217799305915833,0.1640550047159195,-0.0388370007276535,0.047825999557971954,-0.038957998156547546,-0.2580980062484741,0.13255999982357025,-0.1917019933462143,0.23251500725746155,0.1678449958562851,0.22167600691318512,0.3286469876766205,0.2911820113658905,-0.17445600032806396,0.16443200409412384,-0.08601199835538864,0.1383659988641739,0.04051699861884117,0.2602120041847229,0.03887699916958809,-0.12002100050449371,0.3348749876022339,-0.32293298840522766,-0.08006200194358826,0.18627800047397614,-0.07893899828195572,-0.06612899899482727,0.37290701270103455,0.2980020046234131,0.06368999928236008,-0.3124549984931946,0.21133099496364594,0.23031799495220184,-0.01461500022560358,-0.05428599938750267,-0.0972210019826889,-0.17941899597644806,0.2445320039987564,-0.41746601462364197,0.18067200481891632,-0.3385089933872223,0.146588996052742,0.1414009928703308,-0.08738700300455093,0.1726360023021698,-0.012756000272929668,-0.009763999842107296,0.09670499712228775,-0.1157429963350296,-0.3531320095062256,0.11515499651432037,0.07030999660491943,-0.342521995306015,-0.2576160132884979,-0.19437600672245026,0.056366998702287674,-0.36831599473953247,0.19928400218486786,0.16077899932861328,-0.22339999675750732,-0.1105860024690628,-0.00025400001322850585,0.17290300130844116,0.2976349890232086,-0.27023500204086304,-0.01719599962234497,0.11002500355243683,0.15574400126934052,-0.2647339999675751,0.1270039975643158,-0.07968100160360336,0.2763209939002991,-0.061496999114751816,0.07150600105524063,-0.170647993683815,-0.07646500319242477,-0.10740800201892853,-0.384674996137619,-0.25791001319885254,0.0014830000000074506,-0.015499000437557697,-0.13803400099277496,-0.10504700243473053,-0.09319700300693512,-0.30837899446487427,-0.23382100462913513,-0.15618500113487244,-0.06936600059270859,-0.5542389750480652,-0.12145499885082245,-0.051702000200748444,-0.09420499950647354,0.00928799994289875,0.35717499256134033,-0.20730799436569214,-0.5104640126228333,0.300370991230011,0.10158099979162216,-0.4852150082588196,-0.031182000413537025,-0.16065199673175812,-0.07110100239515305,0.16648200154304504,-0.261339008808136,0.03169399872422218,-0.1132349967956543,0.12150900065898895,0.09584300220012665,-0.37612301111221313,0.11447399854660034,-0.007466000039130449,-0.019759999588131905,-0.1844629943370819,-0.32500600814819336,0.03850699961185455,0.02227099984884262,0.13260500133037567,0.2591859996318817,-0.18414199352264404,0.11037299782037735,-0.040918998420238495,-0.2031569927930832,0.1558700054883957,-0.1403149962425232,-0.11543799936771393,-0.0778689980506897,-0.2680929899215698,-0.011594999581575394,0.060159001499414444,-0.253695011138916,-0.027966000139713287,-0.2795490026473999,-0.43726399540901184,0.00955899991095066,0.17140300571918488,-0.17112800478935242,-0.02804899960756302,0.05672600120306015,0.11575300246477127,-0.24114300310611725,0.16238999366760254,0.3815850019454956,-0.3844060003757477,-0.07270900160074234,0.14197200536727905,0.3249340057373047,0.06562600284814835,0.06922399997711182,-0.027766000479459763,-0.4357460141181946,-0.009564000181853771,0.05775199830532074,0.02311900071799755,-0.1420769989490509,0.0748559981584549,0.008740999735891819,0.45555999875068665,-0.004557999782264233,0.003971999976783991,-0.2479729950428009,0.08815199881792068,-0.2702929973602295,0.2894339859485626,0.013710999861359596,-0.04612400010228157,-0.3163999915122986,-0.06445600092411041,-0.003135999897494912,-0.10679800063371658,-0.12018799781799316,-0.45673200488090515,-0.3780219852924347,0.09935799986124039,-0.2185470014810562,-0.08308800309896469,-0.01976500079035759,-0.018411999568343163,0.4631879925727844,0.3416779935359955,-0.23762699961662292,-0.16108299791812897,-0.2886680066585541,0.04845099896192551,-0.1575479954481125,-0.07861199975013733,0.1358329951763153,-0.1180419996380806,-0.1503860056400299,-0.13764600455760956,0.012517999857664108,0.2949970066547394,-0.009341999888420105,0.004230999853461981,-0.026148999109864235,0.09657599776983261,0.25481700897216797,-0.2883239984512329,-0.31251299381256104,-0.05445199832320213,-0.1522510051727295,-0.11398900300264359,0.38189899921417236,0.3975540101528168,-0.1267479956150055,0.3151269853115082,-0.07096300274133682,-0.08862899988889694,-0.26323801279067993,-0.009335000067949295,-0.19129100441932678,0.33041098713874817,0.29623401165008545,-0.143544003367424,0.21180599927902222,-0.012130999937653542,0.2549090087413788,-0.09137199819087982,-0.0796390026807785,-0.18288199603557587,-0.1421460062265396,0.013976000249385834,-0.0550759993493557,0.11635500192642212,-0.1054999977350235,-0.21036599576473236,0.13303999602794647,-0.2552509903907776,-0.06228100135922432,0.0014560000272467732,-0.33608800172805786,-0.11748199909925461,-0.06529500335454941,0.03758100047707558,0.03967899829149246,-0.3903129994869232,-0.06019800156354904,-0.09030500054359436,-0.2806609869003296,-0.3619160056114197,0.0700099989771843,0.2051980048418045,0.029349999502301216,-0.22349700331687927,0.38258200883865356,0.44533300399780273,-0.017920000478625298,-0.08982700109481812,0.18666799366474152,-0.1898220032453537,-0.2284490019083023,0.06763499975204468,-0.17530199885368347,0.13738800585269928,-0.12456700205802917,0.1291079968214035,-0.22143200039863586,-0.1793690025806427,-0.2784479856491089,0.060187000781297684,0.08286300301551819,0.008426999673247337,0.05424699932336807,-0.3547079861164093,-0.1977269947528839,0.10555399954319,0.3592210114002228,0.06024400144815445,0.029312999919056892,0.17217899858951569,0.07205499708652496,0.06134499981999397,-0.12760800123214722,0.3826259970664978,-0.26794400811195374,-0.5460730195045471,-0.02910500019788742,0.04768599942326546,-0.1690099984407425,-0.09533999860286713,-0.14983899891376495,-0.0034310000482946634,0.06587100028991699,-0.029975999146699905,-0.23819099366664886,0.1462700068950653,0.31408101320266724,-0.28154000639915466,0.09033799916505814,0.08950799703598022
表面,0.016276000067591667,-0.021208999678492546,0.018046999350190163,0.10136500000953674,0.13369199633598328,-0.07977300137281418,-0.22508299350738525,0.08390200138092041,0.11160600185394287,-0.02891100011765957,-0.023725999519228935,0.08664000034332275,-0.20549499988555908,0.03318199887871742,0.04168099910020828,-0.16539299488067627,-0.015332999639213085,-0.001066999975591898,0.12013699859380722,-0.07076600193977356,-0.08082400262355804,-0.24256299436092377,0.17844000458717346,0.10938099771738052,0.05725900083780289,-0.14954699575901031,0.002725000027567148,-0.152988001704216,-0.1336970031261444,-0.005816000048071146,0.15333899855613708,0.21081000566482544,-0.029513999819755554,-0.20378300547599792,-0.0008880000095814466,-0.10964599996805191,0.21793599426746368,-0.12321899831295013,0.03210199996829033,0.022523000836372375,-0.1213890016078949,-0.08239500224590302,-0.1407500058412552,-0.0947830006480217,0.15029700100421906,0.11485999822616577,0.04353199899196625,0.039503999054431915,-0.08955100178718567,-0.07213199883699417,-0.09435500204563141,-0.08863399922847748,-0.04000600054860115,0.03281399980187416,0.16722099483013153,-0.008818999864161015,0.0028570001013576984,0.030009999871253967,-0.20017799735069275,0.18010500073432922,0.17067599296569824,0.021750999614596367,-0.07661700248718262,0.015838999301195145,0.04391999915242195,0.07753299921751022,-0.044367000460624695,0.4018529951572418,0.23257200419902802,0.3421480059623718,-0.15022200345993042,-0.20007799565792084,-0.021918000653386116,-0.10392899811267853,0.1694290041923523,-0.1692350059747696,0.3370850086212158,0.2048490047454834,0.08817300200462341,0.15109199285507202,-0.12844699621200562,-0.1859769970178604,-0.058049000799655914,-0.09367100149393082,-0.13880200684070587,0.03237500041723251,0.15730999410152435,0.041923001408576965,0.043136999011039734,0.14567899703979492,0.04522499814629555,0.015867000445723534,-0.21178799867630005,-0.14941300451755524,0.06844600290060043,-0.15619400143623352,0.2148440033197403,-0.03648500144481659,-0.15396000444889069,0.2041260004043579,0.2675130069255829,0.023267000913619995,-0.3174839913845062,0.1225769966840744,0.14245499670505524,-0.062022000551223755,0.06936000287532806,0.32232099771499634,-0.08373399823904037,0.14696399867534637,0.21928299963474274,0.14271700382232666,-0.1307159960269928,-0.02202400006353855,0.23567800223827362,-0.41633298993110657,-0.21445299685001373,0.12500999867916107,-0.16845999658107758,0.23127299547195435,-0.11406099796295166,0.06801000237464905,-0.09554799646139145,-0.10143200308084488,0.06978700309991837,-0.037328001111745834,-0.1343429982662201,0.26690399646759033,-0.08140599727630615,0.026074999943375587,0.14703699946403503,0.3432770073413849,0.04277399927377701,0.07715699821710587,0.04996800050139427,0.12724199891090393,-0.13617700338363647,0.016692999750375748,0.17617900669574738,0.23923000693321228,-0.04144600033760071,0.21056100726127625,-0.06356299668550491,0.19240300357341766,0.15911899507045746,-0.10333000123500824,-0.02303900010883808,0.06416299939155579,0.012741999700665474,-0.11699599772691727,0.0236820001155138,-0.11361599713563919,0.11816799640655518,-0.014773000031709671,-0.14090999960899353,0.10042600333690643,0.07787899672985077,0.008906999602913857,-0.1978359967470169,0.1071460023522377,0.06003300100564957,-0.027502000331878662,-0.16867199540138245,-0.19683900475502014,0.0077599999494850636,-0.14459800720214844,0.14105799794197083,0.32272499799728394,-0.16355399787425995,-0.14469200372695923,-0.1245110034942627,0.1693740040063858,-0.06416799873113632,0.06030099838972092,0.2094389945268631,0.021786000579595566,-0.02658800035715103,0.14475199580192566,0.0029559999238699675,-0.2666949927806854,-0.10011400282382965,-0.1546200066804886,-0.26789700984954834,0.026078000664711,-0.15659800171852112,-0.014615999534726143,0.14268800616264343,-0.06307899951934814,0.22230100631713867,0.3540489971637726,0.02880599908530712,0.28064998984336853,-0.11426299810409546,-0.032554998993873596,-0.08304399996995926,-0.13356000185012817,0.11299700289964676,-0.13536100089550018,-0.25353899598121643,-0.19212600588798523,0.040376998484134674,0.05418799817562103,-0.06423100084066391,0.23605099320411682,-0.2629680037498474,-0.06598100066184998,0.0931679978966713,-0.14477300643920898,0.028054000809788704,0.20780199766159058,-0.09790900349617004,-0.2559239864349365,-0.2519499957561493,-0.0017869999865069985,0.12080100178718567,0.1443530023097992,-0.04300900176167488,-0.02729400061070919,0.31545400619506836,-0.10388399660587311,-0.014027999714016914,-0.015643000602722168,0.1338679939508438,-0.04839799925684929,-0.1969670057296753,0.06221900135278702,0.11979400366544724,-0.08393800258636475,-0.17420199513435364,0.007958999834954739,-0.02606000006198883,-0.04257500171661377,0.03087100014090538,-0.010166999883949757,6.800000119255856e-05,0.3568679988384247,-0.009038000367581844,0.25779199600219727,-0.08983200043439865,-0.0442500002682209,-0.1421789973974228,-0.09039299935102463,0.030076000839471817,-0.4491260051727295,0.31487399339675903,-0.05067700147628784,-0.026318000629544258,-0.14259499311447144,-0.17983700335025787,-0.28514501452445984,0.1444700062274933,0.1661359965801239,-0.19341999292373657,0.15523900091648102,-0.12786899507045746,-0.10076899826526642,-0.12062499672174454,0.06920000165700912,0.0287299994379282,0.273717999458313,0.1002499982714653,-0.04973100125789642,0.16510500013828278,-0.19127200543880463,-0.011382999829947948,-0.028610000386834145,-0.05870800092816353,0.17187200486660004,-0.045396000146865845,-0.13181999325752258,-0.2453490048646927,-0.16481700539588928,-0.058750998228788376,0.22797900438308716,0.22559499740600586,0.0777439996600151,-0.013780999928712845,-0.2000489979982376,0.030894000083208084,-0.13095000386238098,-0.08486100286245346,-0.15465299785137177,0.10524599999189377,0.08847899734973907,0.12661300599575043,-0.21304400265216827,0.16210100054740906,-0.08729299902915955,0.3175790011882782,-0.16680599749088287,-0.005212000105530024,-0.08088099956512451,0.12153399735689163,-0.03100699931383133,-0.07151000201702118,-0.17312900722026825,-0.3036240041255951,-0.022874999791383743,-0.08532100170850754,-0.06482700258493423,-0.06806600093841553,0.13053299486637115,0.15642300248146057,-0.15942999720573425,-0.007600999902933836,0.07906600087881088,-0.08799199759960175,0.11343000084161758,-0.10590299963951111,-0.18947499990463257,0.04095400124788284,0.017938999459147453,-0.05132000148296356,-0.027912000194191933,0.13390499353408813,-0.18784800171852112,-0.024632999673485756,-0.03388499841094017,0.0006799999973736703,-0.03982999920845032,-0.08614599704742432,-0.005167999770492315,0.3273789882659912,1.5999999959603883e-05,-0.13234999775886536,-0.17006200551986694,-0.025779999792575836,0.046852000057697296,0.09385299682617188,0.12086399644613266,0.14434200525283813,-0.09059599786996841,-0.15207600593566895,-0.17781700193881989,-0.09176599979400635,-0.20168599486351013,0.08230900019407272,-0.4135249853134155,-0.0520239993929863,-0.11907400190830231,0.022088000550866127,-0.1399729996919632,-0.05521100014448166,-0.2576259970664978,0.06773699820041656,0.041992999613285065,0.21585999429225922,0.00318100000731647,-0.06492800265550613,0.10625199973583221,-0.016973000019788742,-0.05465700104832649,-0.023716000840067863,0.15052099525928497,0.12756800651550293,-0.05306499823927879,0.10736999660730362,0.05670100077986717,0.06531800329685211,-0.09079799801111221,-0.1383959949016571,0.14645299315452576,0.13374100625514984,0.21957799792289734,-0.2525160014629364,-0.22237199544906616,-0.044585999101400375,-0.23799699544906616,-0.2324330061674118,-0.1991489976644516,-0.0440559983253479,-0.27436500787734985,-0.06597000360488892,-0.4718419909477234,-0.10403800010681152,-0.3091759979724884,-0.08647400140762329,-0.39981400966644287,-0.10789600014686584,0.0020840000361204147,-0.1690009981393814,0.1229420006275177,-0.06322699785232544,0.13531099259853363,-0.1500830054283142,0.28202199935913086,-0.0027089999057352543,0.029701000079512596,0.24073000252246857,-0.08481600135564804,-0.2540290057659149,0.12555399537086487,-0.014680000022053719,-0.07567399740219116,-0.08835499733686447,0.16227899491786957,-0.2657569944858551,0.03786100074648857,0.16597199440002441,-0.16231299936771393
导引,-0.1401599943637848,-0.07469300180673599,0.08963900059461594,-0.11256200075149536,0.024178000167012215,-0.15187199413776398,0.09668900072574615,0.15178200602531433,0.1448030024766922,-0.02934800088405609,-0.14546899497509003,-0.06630899757146835,0.26870301365852356,-0.24851199984550476,-0.16310399770736694,0.000455000001238659,-0.10654500126838684,0.12372700124979019,0.0160559993237257,0.04930200055241585,-0.035861000418663025,-0.30140700936317444,0.1763480007648468,0.27559900283813477,0.27357301115989685,0.10255900025367737,0.06859000027179718,-0.17238600552082062,-0.3385390043258667,-0.0554720014333725,-0.0972599983215332,-0.23976700007915497,0.20645000040531158,-0.04254499822854996,-0.018598999828100204,-0.13776199519634247,0.277554988861084,-0.22180700302124023,0.06996600329875946,0.15336300432682037,0.03451099991798401,-0.2973180115222931,-0.21541400253772736,0.23446199297904968,-0.059484999626874924,0.21378199756145477,-0.04795299842953682,-0.14660100638866425,0.0011810000287368894,0.3895930051803589,0.35113099217414856,0.06547799706459045,0.21962499618530273,-0.14588400721549988,-0.016743000596761703,0.07643300294876099,-0.08086100220680237,0.021316999569535255,0.296314001083374,-0.17822499573230743,-0.05541500076651573,0.08511099964380264,0.1376419961452484,-0.21039099991321564,-0.03116299957036972,0.053011998534202576,-0.13420699536800385,-0.09410099685192108,0.07738400250673294,-0.010645999573171139,-0.21352800726890564,-0.06912600249052048,-0.07156799733638763,-0.03677000105381012,-0.23301200568675995,0.053289998322725296,-0.09425099939107895,-0.16720299422740936,0.3066520094871521,0.32173898816108704,0.1486559957265854,-0.10298699885606766,-0.12199799716472626,-0.23902200162410736,-0.08406099677085876,0.1676570028066635,0.11534100025892258,0.33327698707580566,0.04368399828672409,-0.1200840026140213,0.015768999233841896,0.04841399937868118,-0.24095399677753448,0.18753600120544434,-0.10655999928712845,0.2675060033798218,-0.2522130012512207,-0.004329000134021044,-0.1010890007019043,-0.011753000319004059,-0.06264899671077728,0.05125899985432625,-0.18415799736976624,0.40557700395584106,-0.26237401366233826,-0.3280009925365448,-0.07872699946165085,-0.01190400030463934,-0.16101300716400146,-0.08845099806785583,-0.144118994474411,-0.22524400055408478,-0.10023599863052368,0.26484599709510803,0.0982389971613884,0.08514700084924698,-0.2670480012893677,-0.0032279998995363712,0.0700870007276535,-0.03488200157880783,0.10812000185251236,0.016891000792384148,0.032809000462293625,-0.18857499957084656,0.23192499577999115,-0.0013520000502467155,0.05799100175499916,-0.018890999257564545,-0.09237399697303772,-0.18183499574661255,-0.12890799343585968,0.14778299629688263,0.09666399657726288,0.2470110058784485,-0.2381639927625656,-0.10255499929189682,0.05139999836683273,0.18171200156211853,-0.009952000342309475,0.21761900186538696,-0.29030901193618774,-0.19381800293922424,0.01613200083374977,0.4223819971084595,0.1524530053138733,-0.057909999042749405,-0.11577700078487396,0.3711700141429901,-0.09273900091648102,-0.10240600258111954,0.1316079944372177,0.1237189993262291,0.20054200291633606,0.05911000072956085,0.03544300049543381,0.008495000191032887,-0.08997800201177597,0.19980399310588837,0.4672679901123047,0.3135710060596466,-0.06693000346422195,-0.06878100335597992,0.10286500304937363,0.08972299844026566,0.13694199919700623,-0.17714600265026093,0.18920600414276123,-0.395006000995636,-0.354654997587204,-0.19177399575710297,0.23001499474048615,0.13020600378513336,-0.0038060001097619534,0.01381400041282177,-0.003398000029847026,-0.07714500278234482,0.04695399850606918,0.22204500436782837,0.3723900020122528,0.21856799721717834,-0.1118289977312088,-0.34347400069236755,0.11704400181770325,0.29716798663139343,0.0664530023932457,-0.19236700236797333,0.1179559975862503,0.18424299359321594,0.08650700002908707,-0.045111000537872314,0.19436299800872803,0.20098300278186798,-0.08864200115203857,0.014263000339269638,0.03355199843645096,0.05337199941277504,0.34702199697494507,-0.2608200013637543,0.07502099871635437,0.007579999975860119,0.29109901189804077,0.0034129999112337828,0.25440898537635803,0.226950004696846,-0.19398200511932373,-0.29892900586128235,0.09694399684667587,-0.08675599843263626,0.29018500447273254,-0.0548739992082119,0.08372899889945984,0.010723999701440334,0.013713999651372433,-0.044530998915433884,0.200081005692482,0.13427899777889252,0.026938999071717262,-0.3920559883117676,0.2716040015220642,-0.06067299842834473,0.06427200138568878,0.038391999900341034,0.1492139995098114,0.1625799983739853,0.06279999762773514,0.04666399955749512,-0.028017999604344368,0.004273000173270702,0.16701699793338776,0.12821899354457855,-0.20213699340820312,0.031160999089479446,-0.15498599410057068,0.4138129949569702,0.1939460039138794,-0.1398099958896637,0.21860100328922272,-0.1659490019083023,-0.2863210141658783,-0.1650950014591217,0.22393199801445007,-0.27113500237464905,-0.11460600048303604,-0.138946995139122,0.0005849999724887311,0.06773699820041656,-0.1590230017900467,-0.2823370099067688,-0.18976999819278717,0.043954998254776,-0.006258000154048204,0.180417001247406,0.24118800461292267,0.058775000274181366,-0.009050000458955765,0.3294470012187958,0.10160999745130539,-0.2025890052318573,0.26900699734687805,-0.34547799825668335,-0.022758999839425087,0.2310660034418106,0.07174400240182877,-0.10154499858617783,0.07851500064134598,-0.35732200741767883,0.03463999927043915,0.10744699835777283,-0.2558630108833313,-0.00395999988541007,-0.14897899329662323,-0.02585900016129017,-0.25158700346946716,-0.39924100041389465,0.22182799875736237,0.07551699876785278,-0.022686000913381577,-0.06002600118517876,-0.026993000879883766,0.023440999910235405,0.14086799323558807,-0.10920699685811996,-0.008457999676465988,0.13022199273109436,-0.24788400530815125,-0.018056999891996384,-0.003662999952211976,0.1318410038948059,-0.11280299723148346,-0.21363799273967743,0.10013800114393234,-0.3772520124912262,0.1305840015411377,-0.4241679906845093,-0.027293000370264053,-0.14211499691009521,0.017183000221848488,-0.04120799899101257,-0.08459799736738205,-0.015061999671161175,0.13831999897956848,-0.027437999844551086,-0.24002599716186523,-0.1255359947681427,-0.5098310112953186,0.08147499710321426,0.15767399966716766,0.05083800107240677,-0.3878670036792755,0.1238270029425621,0.18144899606704712,-0.3354020118713379,0.04950900003314018,0.2551180124282837,0.2992970049381256,0.23068900406360626,-0.09989599883556366,-0.17076900601387024,-0.21625499427318573,-0.3243669867515564,0.2827650010585785,-0.04068500176072121,-0.10690800100564957,-0.010634999722242355,0.09444999694824219,-0.21496200561523438,0.28907299041748047,-0.03198999911546707,-0.028622999787330627,0.21799500286579132,-0.33504900336265564,0.0925310030579567,0.47484099864959717,0.04256699979305267,0.15377399325370789,0.140843003988266,-0.028707999736070633,-0.13081499934196472,-0.07366400212049484,-0.006169999949634075,-0.05367099866271019,-0.3860520124435425,-0.07012200355529785,-0.33493199944496155,0.06055299937725067,0.24343900382518768,0.2129870057106018,-0.039416998624801636,-0.002985999919474125,-0.13398300111293793,-0.026753000915050507,-0.06815999746322632,-0.19777600467205048,0.25334998965263367,-0.00016500000492669642,0.07314799726009369,-0.22535300254821777,0.18076199293136597,0.03695499897003174,0.02252200059592724,0.012368000112473965,0.4323500096797943,0.08889999985694885,0.09715499728918076,0.09000100195407867,-0.23148199915885925,0.13871799409389496,0.15385599434375763,-0.008692000061273575,-0.10973899811506271,-0.33379998803138733,-0.25871598720550537,-0.450886994600296,0.12539200484752655,0.056074000895023346,-0.1434749960899353,0.15765200555324554,-0.2796669900417328,-0.11202699691057205,-0.02634499967098236,-0.0631989985704422,-0.0968170017004013,-0.01706399954855442,0.05385100096464157,-0.14942200481891632,0.3296220004558563,0.3188549876213074,0.19409799575805664,0.22857600450515747,-0.19284899532794952,-0.006670000031590462,-0.03694399818778038,-0.10933300107717514,-0.04024200141429901,0.15035399794578552,0.28768399357795715,0.15571999549865723,-0.08376099914312363,-0.2707650065422058,-0.4230070114135742
方向,-0.313387006521225,0.172202005982399,-0.043466001749038696,0.37601199746131897,0.01722699962556362,-0.00897900015115738,-0.04977300018072128,0.20059800148010254,0.009751000441610813,-0.026165999472141266,0.08977500349283218,-0.08917400240898132,0.053433001041412354,0.08449999988079071,0.05614300072193146,0.1592629998922348,-0.08600399643182755,0.07111400365829468,0.28295600414276123,0.02998100034892559,0.18960699439048767,-0.17530900239944458,0.038245998322963715,0.17129500210285187,-0.16252000629901886,0.1759909987449646,-0.34062400460243225,0.18921099603176117,-0.23367999494075775,0.2870669960975647,0.06187700107693672,-0.2485329955816269,0.13445399701595306,-0.1489419937133789,-0.018854999914765358,-0.17035900056362152,0.08556000143289566,0.43249601125717163,0.2862760126590729,0.14647600054740906,-0.23475000262260437,-0.05425899848341942,-0.23722299933433533,-0.0143649997189641,0.32158198952674866,-0.039840999990701675,0.10530900210142136,0.04396500065922737,0.31565800309181213,0.05747099965810776,-0.08567000180482864,-0.14473199844360352,0.06773199886083603,-0.10943400114774704,-0.06480199843645096,-0.36456701159477234,0.0752590000629425,0.4799950122833252,0.20182600617408752,0.03450699895620346,-0.057711999863386154,0.130172997713089,-0.19947099685668945,-0.01830499991774559,0.037762001156806946,0.1569499969482422,-0.012883000075817108,0.004900000058114529,-0.049598999321460724,0.2028229981660843,0.0003589999978430569,-0.16951699554920197,0.09947100281715393,0.366923987865448,-0.07733599841594696,-0.08974500000476837,0.006310999859124422,0.32418501377105713,0.010494000278413296,-0.11726099997758865,0.5078740119934082,-0.10452499985694885,-0.07343199849128723,-0.16597099602222443,0.04222400113940239,0.21439999341964722,0.1122789978981018,0.06449700146913528,0.07624199986457825,0.0058929999358952045,0.11922799795866013,0.20441900193691254,-0.06479399651288986,-0.11828000098466873,-0.08768299967050552,-0.13011600077152252,-0.09712400287389755,-0.20223000645637512,-0.3328459858894348,0.17881299555301666,0.12808699905872345,0.06864800304174423,0.2865050137042999,-0.10930900275707245,0.027115000411868095,0.13180799782276154,0.23864899575710297,0.2028619945049286,-0.07347399741411209,-0.21003100275993347,0.3409160077571869,-0.4643470048904419,-0.41850098967552185,-0.1846410036087036,-0.2195499986410141,-0.04652800038456917,-0.1986819952726364,-0.03553299978375435,-0.08908600360155106,0.24848300218582153,0.034421999007463455,0.02719699963927269,0.10121600329875946,-0.21403299272060394,-0.2870590090751648,0.18849100172519684,-0.15193599462509155,-0.1013989970088005,0.032228000462055206,0.2575969994068146,-0.28276801109313965,-0.005049999803304672,0.12314499914646149,-0.07500199973583221,0.018456999212503433,0.14781899750232697,0.08419699966907501,-0.13408400118350983,-0.03299200162291527,0.16696399450302124,-0.03112499974668026,-0.2027519941329956,0.2865790128707886,0.21682900190353394,0.13401100039482117,0.08399300277233124,-0.07802099734544754,-0.31683000922203064,0.047127000987529755,-0.15531699359416962,0.2901270091533661,-0.4673979878425598,0.11901800334453583,-0.18447700142860413,-0.28084900975227356,-0.06794600188732147,0.02863200008869171,0.19880899786949158,0.3450919985771179,-0.3518350124359131,-0.2547129988670349,-0.04079100117087364,-0.112745001912117,0.26770299673080444,-0.3141550123691559,-0.05229699984192848,0.5074570178985596,0.07222700119018555,-0.14069299399852753,0.2336689978837967,-0.2535339891910553,-0.19572199881076813,-0.1104929968714714,0.1708579957485199,-0.005801000166684389,-0.2858780026435852,0.16383899748325348,-0.07904600352048874,0.19526000320911407,0.03375599905848503,-0.09232000261545181,-0.17525899410247803,0.11866699904203415,-0.10917399823665619,-0.3734700083732605,0.028464000672101974,-0.015832999721169472,-0.28226199746131897,0.03269900009036064,0.06925100088119507,0.01877499930560589,0.25861799716949463,-0.21834099292755127,-0.18300099670886993,0.10676500201225281,-0.2693060040473938,-0.08440600335597992,-0.37540701031684875,0.04729900136590004,-0.07833000272512436,0.11850599944591522,0.021379999816417694,-0.5630720257759094,-0.09332399815320969,-0.07889699935913086,-0.16800400614738464,0.23521900177001953,0.21089600026607513,0.36456298828125,-0.144678995013237,0.12347699701786041,-0.16767899692058563,-0.22285999357700348,-0.11939699947834015,-0.1608940064907074,0.00021899999410379678,0.10212600231170654,0.02759600058197975,0.016950000077486038,-0.34316200017929077,0.023222999647259712,-0.2108609974384308,0.007526999805122614,-0.026440000161528587,0.21166099607944489,0.19792599976062775,-0.09012799710035324,0.2239599972963333,0.09890100359916687,-0.1671990007162094,0.07549300044775009,-0.022377999499440193,0.013844000175595284,0.10221300274133682,-0.36613398790359497,-0.23398299515247345,0.003561000106856227,0.06905700266361237,-0.23287999629974365,0.24982599914073944,-0.01710199937224388,-0.31453800201416016,-0.13110600411891937,0.04037899896502495,-0.23390600085258484,-0.017301000654697418,-0.0975859984755516,0.034380000084638596,-0.026643000543117523,0.248880997300148,-0.004313999786973,-0.0016580000519752502,0.11358299851417542,-0.2346709966659546,-0.23571999371051788,0.013544999994337559,-0.05143100023269653,0.039972998201847076,0.07259000092744827,0.0953259989619255,-0.10520999878644943,-0.18546800315380096,-0.2803950011730194,-0.017828000709414482,0.06026399880647659,-0.1392029970884323,0.0987749993801117,0.3849020004272461,0.09842099994421005,0.012272000312805176,-0.04493099823594093,-0.18358099460601807,0.03782400116324425,0.23406299948692322,-0.029099000617861748,0.29695799946784973,-0.3035160005092621,-0.06410200148820877,-0.1345369964838028,-0.3177500069141388,0.1312440037727356,0.024886999279260635,-0.20054100453853607,-0.058083999902009964,-0.16651000082492828,0.2608970105648041,-0.14753499627113342,0.20871299505233765,-0.008116000331938267,0.012403000146150589,-0.016889000311493874,-0.4736599922180176,-0.10017000138759613,-0.11255700141191483,-0.08816300332546234,-0.05378999933600426,0.1286350041627884,-0.09464800357818604,-0.038516998291015625,-0.039257001131772995,0.13835899531841278,0.07662100344896317,-0.07801199704408646,-0.04419799894094467,0.0462380014359951,0.016145000234246254,-0.06949499994516373,-0.12400499731302261,0.05424699932336807,0.04938200116157532,0.17499500513076782,-0.08503799885511398,0.17935599386692047,0.0019000000320374966,-0.025652000680565834,0.43772900104522705,0.07370100170373917,0.15547700226306915,-0.43053901195526123,-0.28143200278282166,-0.010556000284850597,0.20150800049304962,-0.056171998381614685,-0.12547600269317627,0.07583700120449066,-0.06870999932289124,0.25047001242637634,-0.12763400375843048,0.02748199924826622,-0.015375000424683094,-0.09644100069999695,-0.0037720000836998224,0.13711099326610565,-0.06264899671077728,-0.11717499792575836,0.5036450028419495,-0.010707000270485878,-0.04478999972343445,-0.09557799994945526,-0.10002700239419937,0.055677998811006546,-0.05515899881720543,0.005332000087946653,-0.20099900662899017,-0.2642810046672821,-0.03242100030183792,0.2597390115261078,-0.0616610012948513,-0.41859400272369385,-0.29763299226760864,0.0866440013051033,0.18587499856948853,-0.02266000024974346,-0.010746999643743038,0.26354900002479553,-0.38269999623298645,-0.12338799983263016,0.19260799884796143,0.3343369960784912,0.03755300119519234,0.11075799912214279,-0.14164499938488007,-0.14558100700378418,0.3099130094051361,-0.2090979963541031,-0.011458000168204308,0.17730900645256042,-0.17577099800109863,-0.1550389975309372,-0.0073379999957978725,-0.21263200044631958,-0.40249601006507874,0.01909700036048889,-0.5048009753227234,-0.014550999738276005,-0.1628039926290512,-0.12548300623893738,0.03476100042462349,0.004441000055521727,0.27188000082969666,0.51944500207901,-0.004625000059604645,-0.11420799791812897,0.20041699707508087,0.05574199929833412,0.153671994805336,-0.239764004945755,0.38230299949645996,-0.1377449929714203,-0.1657789945602417,-0.2074889987707138,0.09298600256443024,0.07462099939584732,-0.004217000212520361,-0.08985599875450134,-0.05243999883532524,0.2709139883518219,-0.07541400194168091,-0.30137598514556885,0.10421299934387207
结构,-0.10387799888849258,0.19047999382019043,0.007884999737143517,0.23587100207805634,-0.07377900183200836,0.07393199950456619,0.12839099764823914,0.03238299861550331,0.02906000055372715,0.13836699724197388,0.10149600356817245,0.016200000420212746,-0.1070299968123436,-0.007094999775290489,-0.11910299956798553,-0.19546900689601898,-0.12357799708843231,-0.21452899277210236,0.06391900032758713,-0.07276500016450882,-0.11603400111198425,-0.1465959995985031,0.2909800112247467,0.041012998670339584,0.23337900638580322,-0.007526000030338764,-0.11818099766969681,-0.0301900003105402,0.009575000032782555,0.1315930038690567,-0.030402999371290207,-0.040251001715660095,0.08240500092506409,-0.08298499882221222,0.012647000141441822,0.08403600007295609,0.1283629983663559,-0.007619999814778566,-0.0037070000544190407,0.15565699338912964,-0.06659100204706192,0.07191099971532822,-0.055410001426935196,0.06673700362443924,-0.09569499641656876,-0.16024400293827057,-0.05352399870753288,-0.008918000385165215,-0.0827770009636879,-0.1192530021071434,0.08794700354337692,7.300000288523734e-05,0.04438700154423714,-0.05553999915719032,0.12155400216579437,-0.03711400181055069,-0.11902199685573578,0.020646000280976295,-0.12375099956989288,0.08680900186300278,-0.020339999347925186,0.09387099742889404,-0.19592000544071198,-0.03541199862957001,0.08448299765586853,0.04224099963903427,-0.15518200397491455,0.06519799679517746,0.12429399788379669,0.22128300368785858,-0.22972600162029266,-0.09946499764919281,0.24435199797153473,-0.14662499725818634,0.1324000060558319,-0.22610700130462646,0.1992730051279068,-0.15137599408626556,0.09254200011491776,0.03675999864935875,0.033163998275995255,-0.2429399937391281,-0.059425000101327896,0.0114139998331666,-0.10440299659967422,0.0020240000449121,0.05067700147628784,-0.07207699865102768,-0.02884400077164173,0.2591240108013153,0.02319600060582161,-0.154898002743721,-0.2189989984035492,-0.21241599321365356,-0.12033600360155106,-0.08506699651479721,-0.010367999784648418,-0.06106200069189072,-0.1591310054063797,0.08631599694490433,0.17983099818229675,0.12513099610805511,-0.09564000368118286,0.16106000542640686,0.0075079998932778835,-0.04838699847459793,-0.038256000727415085,0.1771019995212555,-0.11774300038814545,-0.15312400460243225,0.06698399782180786,-0.0015950000379234552,-0.12154600024223328,-0.12143900245428085,0.17367799580097198,-0.17521199584007263,-0.27675899863243103,-0.07982999831438065,-0.15218199789524078,0.02615799941122532,0.12071199715137482,0.09132900089025497,0.18736900389194489,-0.032283999025821686,-0.24444499611854553,-0.058079998940229416,-0.35445499420166016,0.21758699417114258,-0.3086960017681122,-0.04879999905824661,0.06468299776315689,-0.09585099667310715,-0.12592999637126923,-0.09738700091838837,-0.03620300069451332,0.15463599562644958,0.014392999932169914,-0.27619999647140503,-0.03669299930334091,-0.11776500195264816,-0.1912669986486435,-0.0454769991338253,0.2966899871826172,0.07730899751186371,-0.14033900201320648,0.008061000145971775,-0.15071600675582886,-0.030598999932408333,-0.15188799798488617,-0.24206799268722534,0.19924600422382355,-0.27371901273727417,-0.2247229963541031,-0.07770200073719025,-0.06662900000810623,0.18659499287605286,-0.045462001115083694,0.11180999875068665,0.04298900067806244,-0.09106600284576416,0.047242000699043274,-0.006324999965727329,-0.06456899642944336,-0.17736800014972687,-0.05916899815201759,-0.224262997508049,-0.06805700063705444,0.07549700140953064,-0.007368999999016523,-0.002234000014141202,-0.08775799721479416,0.06348499655723572,-0.20086100697517395,0.1490669995546341,-0.13011600077152252,0.003452999982982874,0.14226199686527252,0.10008999705314636,0.06135400012135506,-0.23638500273227692,-0.20663100481033325,-0.10427100211381912,-0.021681999787688255,0.25183698534965515,-0.12553399801254272,-0.009180000051856041,0.0924139991402626,-0.14368000626564026,0.24244199693202972,0.2101999968290329,0.060770999640226364,0.2329780012369156,-0.09478099644184113,0.1469620019197464,0.08917699754238129,-0.051709000021219254,0.05651700124144554,-0.23735499382019043,-0.29229098558425903,0.06762199848890305,0.0982460007071495,0.09869600087404251,0.011487999930977821,0.2658360004425049,-0.005394000094383955,-0.3262070119380951,0.10465600341558456,-0.12680600583553314,0.12814299762248993,-0.026153000071644783,0.03730100020766258,-0.15775400400161743,-0.02248300053179264,-0.015506000258028507,-0.0706230029463768,0.0812079980969429,-0.01689000055193901,-0.1977510005235672,0.2633419930934906,-0.31321901082992554,0.03158999979496002,0.07498600333929062,0.0373230017721653,-0.05232999846339226,-0.011938000097870827,-0.17496299743652344,0.042298998683691025,-0.1462630033493042,-0.03561199828982353,0.06908199936151505,-0.22721999883651733,-0.03407200053334236,-0.09256400167942047,-0.010352999903261662,0.19079400599002838,0.06291399896144867,0.00660100020468235,0.12742699682712555,-0.01472499966621399,0.06554099917411804,-0.034616000950336456,0.01232299953699112,-0.03248300030827522,-0.0879959985613823,-0.17198899388313293,-0.021201999858021736,-0.1073869988322258,-0.07915700227022171,0.004567000083625317,-0.09053800255060196,0.07756199687719345,0.19401000440120697,-0.3614419996738434,0.11694300174713135,-0.08389399945735931,-0.19610899686813354,-0.04224399849772453,-0.047467999160289764,0.10668499767780304,0.2253189980983734,-0.01129900012165308,0.00020199999562464654,0.042906999588012695,-0.16061000525951385,-0.19081799685955048,-0.09408800303936005,-0.01942799985408783,0.12352699786424637,-0.2818849980831146,-0.17748500406742096,-0.16217300295829773,-0.14891600608825684,-0.24388399720191956,0.2445569932460785,0.08282499760389328,0.0874750018119812,-0.18144600093364716,-0.246411994099617,0.024764999747276306,-0.0021730000153183937,0.0011739999754354358,-0.21557499468326569,-0.14358100295066833,-0.06771299988031387,0.004062999971210957,-0.11117299646139145,-0.004234000109136105,0.009685000404715538,0.024514000862836838,-0.2417439967393875,0.06337600201368332,-0.16319400072097778,-0.1178169995546341,-0.004133000038564205,0.13326899707317352,-0.10305000096559525,0.07445599883794785,-0.3130039870738983,-0.02558699995279312,0.02637699991464615,0.04400999844074249,0.35801199078559875,0.23281699419021606,-0.02539999969303608,-0.05590000003576279,-0.10066600143909454,-0.08584199845790863,-0.01934799924492836,-0.10924500226974487,-0.1992889940738678,0.07553000003099442,0.13243499398231506,0.1373700052499771,-0.2013929933309555,-0.05343399941921234,0.14123399555683136,-0.041687000542879105,0.10322300344705582,-0.12714000046253204,0.001554999966174364,0.0935870036482811,0.17427200078964233,0.2654849886894226,-0.014592999592423439,-0.07353100180625916,0.16568000614643097,-0.05539499968290329,-0.10043200105428696,0.005177999846637249,-0.20380300283432007,-0.01231599971652031,0.15119799971580505,-0.05559200048446655,-0.07869599759578705,-0.004102000035345554,-0.011467999778687954,-0.0591760016977787,-0.12193600088357925,-0.12757299840450287,-0.08956900238990784,0.022153999656438828,-0.01405400037765503,-0.013131000101566315,0.022577999159693718,-0.052035000175237656,0.10606499761343002,0.3076370060443878,0.00915099959820509,-0.131181001663208,0.1622290015220642,0.048183001577854156,-0.09982799738645554,0.026093000546097755,0.025178000330924988,0.23737700283527374,-0.024080999195575714,0.13921800255775452,0.10886599868535995,-0.18140800297260284,-0.15930700302124023,0.03172300010919571,-0.1193849965929985,0.07578399777412415,0.06995099782943726,-0.25532200932502747,0.15534600615501404,-0.22662299871444702,-0.4506779909133911,-0.17705799639225006,-0.09722600132226944,-0.26242899894714355,-0.24496200680732727,0.14813299477100372,-0.24658800661563873,-0.0341930016875267,-0.16801400482654572,0.14407500624656677,-0.31435298919677734,-0.14970499277114868,-0.22102999687194824,0.231345996260643,0.14876200258731842,-0.25106701254844666,-0.0675709992647171,-0.03264300152659416,0.12041699886322021,-0.13175800442695618,-0.06503300368785858,0.06751099973917007,0.018641000613570213,-0.19486300647258759,0.09323199838399887,-0.009050000458955765,0.11298800259828568,-0.11795900017023087,0.18568600714206696,-0.14773499965667725,-0.2097810059785843,0.04362399876117706,-0.17069600522518158
附,0.09480699896812439,-0.16220299899578094,0.043873000890016556,0.11964000016450882,0.07756000012159348,-0.34047698974609375,0.09135600179433823,0.19337600469589233,0.15635399520397186,0.03995199874043465,0.17056800425052643,0.1321759968996048,0.020445000380277634,0.2730329930782318,0.030903000384569168,0.01670300029218197,-0.06625200062990189,0.12187500298023224,0.1860080063343048,-0.19222700595855713,0.13741500675678253,-0.011698000133037567,0.1122250035405159,0.0529480017721653,0.1434600055217743,-0.09383799880743027,0.020323999226093292,-0.010204000398516655,-0.21541400253772736,-0.06026199832558632,0.0528080016374588,0.1783050000667572,0.09662599861621857,-0.007127000018954277,0.004654000047594309,0.3192650079727173,-0.04181100055575371,-0.10330300033092499,-0.07128500193357468,0.22404000163078308,0.03369000181555748,-0.14584000408649445,0.10784400254487991,0.0291959997266531,-0.1463010013103485,-0.031144000589847565,0.11574400216341019,0.151078999042511,0.23721900582313538,-0.008181000128388405,0.02501400001347065,-0.03458999842405319,-0.0042860000394284725,0.006889999844133854,-0.09231700003147125,0.044263001531362534,0.030640000477433205,0.2577170133590698,-0.05864100158214569,0.0373929999768734,-0.02395400032401085,-0.2668209969997406,-0.19503100216388702,-0.04669899865984917,-0.19258299469947815,-0.15377800166606903,0.04300599917769432,-0.12381900101900101,0.05575000122189522,0.20655199885368347,0.16735300421714783,0.2082190066576004,0.006353000178933144,-0.15684999525547028,0.04235599935054779,0.0701259970664978,0.11285699903964996,-0.008553000167012215,0.08433599770069122,-0.13240200281143188,0.05305200070142746,-0.01387299969792366,0.0602709986269474,-0.1897680014371872,-0.09924300014972687,0.10955300182104111,-0.0888729989528656,-0.0003440000000409782,-0.11650200188159943,-0.05341999977827072,-0.07113999873399734,0.0780320018529892,0.2460239976644516,-0.08477699756622314,0.1055390015244484,-0.005535000003874302,0.1224140003323555,-0.0027920000720769167,0.15685099363327026,0.09122700244188309,-0.20479600131511688,-0.05103699862957001,0.018449999392032623,-0.015248999930918217,0.12967300415039062,-0.09013400226831436,-0.18841400742530823,-0.012528999708592892,-0.16118000447750092,-0.028466999530792236,-0.015204000286757946,0.03573000058531761,0.036184001713991165,-0.10483500361442566,0.1094679981470108,0.2973859906196594,-0.117637999355793,0.2510479986667633,-0.05035199970006943,-0.02418600022792816,-0.02098800055682659,0.07597000151872635,-0.0030529999639838934,-0.06497500091791153,0.0188400000333786,0.11145299673080444,-0.10563600063323975,0.09212899953126907,0.032274000346660614,-0.09244299679994583,-0.232231006026268,-0.19360600411891937,-0.04707200080156326,0.0352259986102581,0.12984199821949005,0.13695700466632843,-0.05659100040793419,0.0842449963092804,-0.018498999997973442,0.11783599853515625,0.1135609969496727,0.09373600035905838,-0.01830499991774559,-0.16054899990558624,0.19875699281692505,0.05486699938774109,-0.034377001225948334,-0.09526299685239792,0.059755001217126846,-0.000371000001905486,0.07682500034570694,0.03043000027537346,0.305294007062912,-0.036844998598098755,-0.059953998774290085,-0.1552630066871643,0.06569399684667587,0.17160600423812866,0.14421500265598297,-0.08556800335645676,-0.14930999279022217,0.03492400050163269,-0.034949999302625656,-0.06995200365781784,0.06303200125694275,-0.1475919932126999,0.05885300040245056,-0.07267399877309799,-0.03407499939203262,0.2090110033750534,0.2564069926738739,-0.06506600230932236,0.10724399983882904,-0.08612199872732162,0.1539350003004074,0.012396999634802341,0.11385100334882736,-0.21071800589561462,-0.01994599960744381,-0.08284600079059601,0.021191999316215515,-0.05514699965715408,0.15311600267887115,-0.14914299547672272,0.038398999720811844,-0.2339169979095459,0.1507910043001175,0.0036830001045018435,-0.07764700055122375,0.11034800112247467,-0.022703999653458595,-0.12187699973583221,-0.0127379996702075,0.024253999814391136,-0.023869000375270844,0.055590998381376266,-0.10040900111198425,0.04583900049328804,-0.13998199999332428,-0.10714399814605713,0.04096800088882446,-0.22042599320411682,-0.03621400147676468,0.021890999749302864,-0.12360800057649612,-0.08146700263023376,-0.08045999705791473,-0.0036059999838471413,-0.04063599929213524,-0.03272600099444389,0.34970399737358093,0.1359959989786148,0.027045000344514847,0.0983780026435852,0.04566900059580803,-0.1680150032043457,0.11400000005960464,-0.21932999789714813,0.17971700429916382,-0.07670000195503235,-0.1972550004720688,0.34243300557136536,-0.18841400742530823,0.061684999614953995,-0.1147800013422966,-0.12768599390983582,0.08179199695587158,-0.14491599798202515,-0.0003980000037699938,0.19978700578212738,-0.13063199818134308,0.04035700112581253,-0.1074180006980896,0.24749499559402466,-0.1534550040960312,0.13092799484729767,-0.11772400140762329,0.044783998280763626,-0.14897799491882324,-0.3169040083885193,-0.19446800649166107,-0.05776499956846237,-0.08208400011062622,-0.10310500115156174,-0.12093900144100189,-0.06234300136566162,-0.07210300117731094,0.19068700075149536,0.03210499882698059,-0.1000949963927269,-0.0469449982047081,0.2773909866809845,-0.11794699728488922,0.07670799642801285,0.03604999929666519,0.03185199946165085,-0.03860500082373619,0.1504400074481964,-0.005681000184267759,0.19873599708080292,-0.06454700231552124,0.030773000791668892,0.0738150030374527,-0.19879400730133057,0.007482999935746193,-0.011781999841332436,-0.070421002805233,0.06681700050830841,-0.16860899329185486,0.06681399792432785,-0.04496899992227554,0.21379099786281586,-0.006465999875217676,-0.16597700119018555,0.12357199937105179,0.14496199786663055,0.201664000749588,-0.2938289940357208,-0.02225000038743019,-0.0696370005607605,0.046128999441862106,-0.0670899972319603,-0.04628799855709076,0.2514199912548065,-0.04704900085926056,-0.04362199828028679,0.23887300491333008,0.006697000004351139,-0.13864099979400635,-0.24665099382400513,0.1193540021777153,-0.009819000028073788,-0.0822099968791008,0.016475999727845192,0.1445460021495819,0.00904799997806549,-0.07112099975347519,-0.000375000003259629,0.15264299511909485,-0.25193899869918823,0.01271700020879507,0.14955000579357147,-0.03818099945783615,0.039948999881744385,0.09139599651098251,0.05132199823856354,0.05970799922943115,0.04399999976158142,-0.11287999898195267,-0.039455000311136246,-0.1481270045042038,-0.06270100176334381,0.09069400280714035,0.11869999766349792,0.044697001576423645,0.16270999610424042,0.003587000072002411,0.0636340007185936,-0.02434599958360195,-0.09838700294494629,0.0764710009098053,-0.019310999661684036,0.0036770000588148832,-0.02771499939262867,-0.0012919999426230788,0.2288140058517456,0.15368300676345825,0.12080699950456619,0.15469999611377716,0.23808200657367706,-0.27352699637413025,0.052643001079559326,-0.22347499430179596,0.030410999432206154,-0.20842799544334412,-0.09052000194787979,-0.27361398935317993,-0.0032969999592751265,0.2025430053472519,0.20922499895095825,-0.11350400000810623,-0.12579800188541412,-0.1622910052537918,0.009922999888658524,0.13999299705028534,-0.07000900059938431,0.1641010046005249,0.05138000100851059,-0.023403000086545944,0.12271299958229065,0.1829340010881424,0.17086899280548096,0.052733998745679855,-0.09984999895095825,0.037723999470472336,-0.044652000069618225,-0.09046600013971329,-0.022120000794529915,0.08231700211763382,0.15718699991703033,0.03541700169444084,-0.15894299745559692,-0.018696000799536705,0.020587999373674393,-0.058031000196933746,0.17267100512981415,-0.11702600121498108,0.0035290000960230827,-0.1223910003900528,-0.1976349949836731,0.02861800044775009,-0.09775099903345108,-0.036010999232530594,0.14138799905776978,-0.1227869987487793,-0.10345300287008286,-0.1270820051431656,-0.24436700344085693,0.0036460000555962324,-0.10254299640655518,0.1143919974565506,-0.022924000397324562,0.13688799738883972,0.06172399967908859,0.022491000592708588,0.10432200133800507,0.14714999496936798,-0.05195000022649765,-0.21105000376701355,0.048583999276161194,0.004873000085353851,0.2239290028810501,0.05801999941468239,-0.06759600341320038,-0.020163999870419502,0.10760000348091125,0.059668999165296555,0.15000100433826447,0.032232001423835754,-0.05350299924612045
面板,0.03716500103473663,0.21502399444580078,0.12362100183963776,-0.01959500089287758,0.2275180071592331,0.0788709968328476,-0.34046000242233276,0.12902900576591492,0.23127199709415436,0.009049000218510628,0.2811659872531891,0.1101280003786087,-0.13921399414539337,-0.27077698707580566,0.0021699999924749136,-0.22762399911880493,-0.3178800046443939,0.10682100057601929,0.062417998909950256,0.028301000595092773,-0.06747700273990631,-0.22966699302196503,0.016811000183224678,0.10457199811935425,0.34345200657844543,0.10026299953460693,0.0698390007019043,-0.1520790010690689,-0.029924999922513962,-0.10369200259447098,0.09339799731969833,-0.01830499991774559,0.25704801082611084,0.2644670009613037,-0.0963520035147667,-0.42942699790000916,0.1830659955739975,-0.1122329980134964,-0.009087000042200089,-0.10091699659824371,-0.023120999336242676,-0.10081599652767181,0.09886199980974197,0.08805900067090988,-0.35480499267578125,-0.13542799651622772,-0.1298850029706955,-0.021266000345349312,-0.059147000312805176,0.13485999405384064,-0.13971500098705292,0.0746299996972084,0.1914059966802597,-0.34591999650001526,-0.008438999764621258,-0.03494900092482567,-0.2756209969520569,0.03694799914956093,0.10325100272893906,0.022551000118255615,0.2498369961977005,0.18098099529743195,-0.22202199697494507,0.02893799915909767,-0.17064599692821503,0.15184499323368073,-0.04858899861574173,0.014266000129282475,0.443668007850647,0.3222790062427521,-0.030917000025510788,-0.0051750000566244125,-0.03196899965405464,-0.0465489998459816,-0.08862999826669693,-0.06951099634170532,0.07296299934387207,0.300803005695343,0.3827509880065918,0.3170109987258911,-0.0012260000221431255,-0.22620899975299835,-0.13292600214481354,-0.04349200055003166,0.026117999106645584,-0.08862199634313583,-0.1635739952325821,0.10757400095462799,0.10119300335645676,0.06692799925804138,0.21398399770259857,0.13620199263095856,-0.08607199788093567,-0.11362499743700027,-0.058786001056432724,-0.2566849887371063,0.36036399006843567,-0.4058670103549957,0.0881199985742569,0.35602399706840515,-0.004358999896794558,0.03550399839878082,-0.4969249963760376,0.13381299376487732,-0.021019000560045242,-0.37042099237442017,0.041404999792575836,-0.14026199281215668,-0.08883500099182129,-0.10205700248479843,0.09708300232887268,0.11801999807357788,-0.1175990030169487,0.08551699668169022,0.2372789978981018,-0.03299900144338608,-0.03967199847102165,-0.004412999842315912,-0.07998599857091904,0.019871000200510025,-0.17287400364875793,-0.12444499880075455,0.04318000003695488,0.02888300083577633,0.024545999243855476,0.18786300718784332,-0.08341500163078308,-0.03672099858522415,0.05716999992728233,0.40086498856544495,0.25052300095558167,0.02508999966084957,-0.11076299846172333,-0.0003640000068116933,0.016248999163508415,0.06400600075721741,-0.030321000143885612,-0.2172439992427826,-0.09403499960899353,0.014779999852180481,-0.09384399652481079,0.1507679969072342,0.04212599992752075,0.22561299800872803,-0.0450420007109642,-0.08776900172233582,0.10094399750232697,-0.0620109997689724,-0.208965003490448,-0.37897199392318726,0.06332399696111679,-0.41307899355888367,0.10714700073003769,0.0358549989759922,0.08091899752616882,-0.008616000413894653,-0.07283300161361694,0.07103200256824493,0.1941480040550232,-0.1036510020494461,0.098580002784729,0.026688000187277794,0.18904000520706177,-0.12447100132703781,0.34702399373054504,0.08092500269412994,-0.06415800005197525,0.05804000049829483,-0.09959699958562851,-0.07710699737071991,0.13585999608039856,0.0007609999738633633,-0.1915079951286316,-0.1940390020608902,0.09239500015974045,-0.09455200284719467,0.22096900641918182,0.05272499844431877,-0.08514700084924698,0.24732300639152527,0.09161199629306793,-0.189410999417305,-0.04608700051903725,0.05763600021600723,-0.15035100281238556,-0.12505300343036652,0.44280099868774414,0.16162100434303284,0.1957399994134903,0.18342900276184082,-0.06321100145578384,0.2698279917240143,-0.1379999965429306,0.18552200496196747,-0.09290599822998047,0.03526400029659271,-0.2786700129508972,-0.09274999797344208,-0.3108150064945221,0.05239599943161011,0.10929899662733078,-0.10871399939060211,0.027688000351190567,0.21646800637245178,-0.18749499320983887,-0.3374449908733368,0.23505699634552002,0.1483359932899475,0.36555901169776917,0.08299200236797333,-0.23953600227832794,0.04972299933433533,-0.013499000109732151,-0.16963399946689606,0.16845600306987762,-0.28384101390838623,0.1944890022277832,-0.5603039860725403,0.06954900175333023,-0.21212099492549896,-0.18927399814128876,0.3601270020008087,0.01940999925136566,-0.20305000245571136,-0.228303000330925,-0.0998459979891777,0.21202099323272705,-0.052841998636722565,-0.0429299995303154,0.10006199777126312,0.12933099269866943,-0.03658200055360794,-0.11330799758434296,0.05859600007534027,-0.06786499917507172,-0.09286999702453613,0.10130000114440918,0.05901399999856949,0.11340499669313431,-0.15754400193691254,-0.05193899944424629,-0.4029020071029663,-0.05524599924683571,-0.10647399723529816,-0.04284299910068512,-0.17285999655723572,-0.1797409951686859,0.08284799754619598,0.028186999261379242,-0.38513800501823425,-0.19676600396633148,-0.3374969959259033,-0.35920700430870056,0.02323400042951107,-0.037762999534606934,0.03610699996352196,-0.19746500253677368,-0.023917000740766525,0.32047799229621887,0.10763400048017502,0.13951100409030914,0.2796199917793274,-0.042093001306056976,-0.21058499813079834,0.027269000187516212,-0.3081749975681305,0.11410100013017654,0.021980000659823418,-0.21392199397087097,0.17558500170707703,-0.06935500353574753,0.04876000061631203,0.12443500012159348,-0.16035400331020355,0.15339000523090363,0.1562349945306778,0.08775199949741364,0.24166899919509888,-0.12047000229358673,0.22538000345230103,0.045635998249053955,-0.22350500524044037,0.23914800584316254,-0.0892380028963089,-0.22040599584579468,-0.22223000228405,0.06825599819421768,0.22096699476242065,0.13124099373817444,0.15885500609874725,0.021609999239444733,-0.011323999613523483,0.12290599942207336,-0.13791200518608093,0.12187500298023224,-0.2996309995651245,-0.13750199973583221,0.30139800906181335,-0.061218999326229095,0.21478000283241272,-0.032451000064611435,-0.0762849971652031,0.05728499963879585,-0.09348300099372864,0.04444599896669388,-0.18074199557304382,-0.24089600145816803,0.2865679860115051,0.10984499752521515,-0.280241996049881,0.32339000701904297,-0.04816500097513199,0.22271400690078735,-0.08856499940156937,0.2945359945297241,0.07772699743509293,-0.030484000220894814,-0.4273790121078491,-0.053957000374794006,-0.05912800133228302,-0.2132990062236786,-0.07747899740934372,0.29074400663375854,0.09794700145721436,0.3373970091342926,-0.2611759901046753,0.3187220096588135,-0.001256000017747283,0.018472999334335327,-0.10616999864578247,-0.15758100152015686,0.021827999502420425,-0.08513200283050537,-0.22400499880313873,0.051940999925136566,0.3321850001811981,-0.20363299548625946,-0.12882199883460999,-0.33949199318885803,0.2787170112133026,-0.13747000694274902,0.05259200185537338,-0.1822579950094223,0.01650499925017357,-0.16798199713230133,0.02230999991297722,0.1589290052652359,0.5212399959564209,-0.07552000135183334,0.3021079897880554,0.07333900034427643,-0.24435299634933472,-0.10657600313425064,-0.05476599931716919,0.03043000027537346,0.07460899651050568,0.19483700394630432,0.22037500143051147,0.002217999892309308,-0.11942899972200394,-0.275534987449646,0.11568000167608261,0.13095000386238098,0.1508219987154007,0.08353199809789658,0.08789099752902985,-0.1502149999141693,0.06311800330877304,-0.173785999417305,-0.2901119887828827,-0.14493000507354736,-0.12598399817943573,0.06356800347566605,-0.12618300318717957,-0.17151199281215668,-0.12098199874162674,0.04026399925351143,-0.09083600342273712,-0.28499600291252136,-0.22253499925136566,0.037769999355077744,0.20517399907112122,-0.12525500357151031,0.5401149988174438,0.1700260043144226,0.35394200682640076,0.09878399968147278,0.34681999683380127,-0.1616010069847107,0.24079999327659607,0.141866996884346,0.1421629935503006,-0.32040899991989136,-0.2713080048561096,-0.054274000227451324,0.1802469938993454,-0.4256350100040436,-0.10843899846076965,0.10108800232410431,0.0731320008635521
定位,-0.022780999541282654,0.1308159977197647,0.025220999494194984,-0.012196999974548817,-0.0816349983215332,-0.12825700640678406,0.25210899114608765,0.19870300590991974,0.07895500212907791,0.0496320016682148,-0.1016170009970665,0.03894000127911568,-0.02940399944782257,0.026357000693678856,-0.11888200044631958,-0.000653000024612993,-0.03802499920129776,-0.07843899726867676,0.002104999963194132,-0.17065000534057617,-0.014538999646902084,-0.13802100718021393,0.11520600318908691,0.14222200214862823,0.17493699491024017,0.05491900071501732,-0.1052979975938797,0.03446999937295914,-0.16552899777889252,0.11747299879789352,0.18705099821090698,-0.10600300133228302,-0.0690850019454956,0.02147899940609932,-0.02252800017595291,-0.34198498725891113,0.006688000168651342,-0.14537200331687927,0.1686909943819046,0.13864900171756744,0.03617300093173981,-0.00849200040102005,-0.04121299833059311,0.2138970047235489,-0.1638610064983368,-0.28224098682403564,0.014696000143885612,-0.2490440011024475,0.06749700009822845,-0.043765999376773834,0.1433890014886856,0.29123198986053467,0.15211600065231323,0.06859199702739716,0.2461639940738678,0.0162189994007349,-0.18812699615955353,0.06978700309991837,0.050620999187231064,-0.21884100139141083,-0.03066300041973591,0.11054600030183792,-0.010611999779939651,0.04326700046658516,0.03206900134682655,0.0759200006723404,-0.17707499861717224,-0.0937110036611557,0.041774000972509384,0.3768090009689331,-0.3039439916610718,0.11846400052309036,0.14867499470710754,0.005373999942094088,0.12410899996757507,-0.11554499715566635,-0.02907400019466877,-0.04235199838876724,0.18794399499893188,-0.005198999773710966,0.1610489934682846,-0.13197100162506104,-0.1466200053691864,0.01425699982792139,0.10332600027322769,-0.02840300090610981,-0.1758269965648651,0.2015949934720993,0.035273000597953796,0.2579059898853302,0.03350900113582611,0.05716300010681152,-0.25487300753593445,-0.06725499778985977,0.0891290009021759,-0.0974700003862381,-0.09877900034189224,0.07287099957466125,-0.2227270007133484,-0.06698799878358841,0.004902999848127365,0.11197300255298615,0.06505800038576126,0.16315799951553345,-0.04916299879550934,0.09750200062990189,-0.022979000583291054,0.04102800041437149,-0.20205999910831451,-0.19727300107479095,0.09375199675559998,0.0002840000088326633,-0.04862299934029579,0.08526600152254105,-0.06901299953460693,0.11288399994373322,-0.0807190015912056,-0.03048199974000454,0.010255999863147736,0.04284000024199486,-0.07060100138187408,0.056821998208761215,-0.19916899502277374,0.048298999667167664,0.11518300324678421,0.07757099717855453,-0.04301699995994568,0.04271399974822998,-0.14604400098323822,-0.10617899894714355,0.07929500192403793,-0.041877999901771545,-0.2263849973678589,-0.0812629982829094,-0.08258800208568573,-0.10453099757432938,0.13747799396514893,-0.05331899970769882,-0.2290859967470169,0.018218999728560448,-0.38711100816726685,-0.21279199421405792,0.014287999831140041,0.13070499897003174,-0.22074900567531586,-0.06334199756383896,-0.2051060050725937,0.09890100359916687,-0.02287299931049347,-0.23699699342250824,0.0669649988412857,-0.17841500043869019,0.05702799931168556,-0.14281399548053741,-0.17642800509929657,0.02015399932861328,0.06297899782657623,0.014417000114917755,0.2727389931678772,-0.07137300074100494,-0.04050600156188011,0.1410049945116043,0.1581750065088272,0.049508001655340195,0.037004001438617706,0.12922799587249756,-0.20979399979114532,-0.0331839993596077,-0.2558720111846924,0.23395299911499023,0.0059899999760091305,0.17876900732517242,0.011284000240266323,-0.10880900174379349,0.03178099915385246,-0.159170001745224,0.17099900543689728,-0.04721900075674057,-0.09535100311040878,-0.026045000180602074,-0.0071000000461936,0.060419999063014984,-0.06334000080823898,0.04376799985766411,-0.0667169988155365,-0.02794400043785572,0.2600730061531067,0.06581100076436996,0.2099660038948059,0.06100599840283394,-0.12045300006866455,0.0036140000447630882,-0.15825000405311584,0.026151999831199646,0.02981100045144558,-0.010587000288069248,0.21054600179195404,-0.1024240031838417,-0.4756380021572113,-0.1708579957485199,0.009844999760389328,-0.10602699965238571,-0.06696800142526627,0.11391700059175491,-0.1320520043373108,-0.19998300075531006,0.20824900269508362,-0.04985100030899048,-0.02299799956381321,0.053661998361349106,-0.06609100103378296,0.11685699969530106,0.021617000922560692,0.16591200232505798,0.15192699432373047,0.04556800052523613,0.16262899339199066,-0.06809700280427933,0.34599998593330383,-0.23792000114917755,0.24458099901676178,0.06308499723672867,0.07705800235271454,-0.09032800048589706,-0.20586200058460236,-0.118306003510952,-0.005541000049561262,-0.019843999296426773,-0.1041949987411499,0.08809900283813477,-0.2846730053424835,0.10840900242328644,0.20348699390888214,0.24450799822807312,0.07159599661827087,0.0007249999907799065,0.02890400029718876,0.03153799846768379,-0.17927800118923187,-0.08982899785041809,-0.04308199882507324,-0.04127800092101097,-0.05258600041270256,0.11515399813652039,-0.045497000217437744,0.12251400202512741,-0.27170801162719727,-0.04466800019145012,0.14309899508953094,-0.012972000055015087,0.08443400263786316,-0.0010710000060498714,-0.11983499675989151,0.20064300298690796,-0.223129004240036,-0.030678000301122665,0.12997500598430634,0.0025889999233186245,0.20927099883556366,-0.1016869992017746,-0.027319999411702156,-0.05263900011777878,0.11193899810314178,-0.18148699402809143,-0.07656899839639664,-0.0868690013885498,0.0088900001719594,0.0015610000118613243,0.05981599912047386,0.10609100013971329,-0.10671400278806686,0.281794011592865,-0.21297599375247955,0.059978000819683075,0.19507800042629242,-0.13254700601100922,-0.2088949978351593,0.13637399673461914,-0.05087000131607056,0.051330000162124634,0.08673299849033356,-0.0678270012140274,-0.09937900304794312,-0.051396001130342484,0.04161600023508072,-0.025415999814867973,0.4277240037918091,-0.0036810000892728567,0.09717600047588348,-0.28787699341773987,0.06979499757289886,-0.04392800107598305,-0.192454993724823,0.08500999957323074,0.09043599665164948,-0.1336210072040558,0.03316599875688553,0.09399499744176865,-0.16233299672603607,0.027719000354409218,-0.08749199658632278,0.18176600337028503,-0.06762000173330307,-0.07785899937152863,0.01658100076019764,-0.017482999712228775,-0.021950000897049904,0.18382099270820618,0.1920129954814911,-0.17272700369358063,0.10234499722719193,-0.025059999898076057,0.21005000174045563,0.0780780017375946,-0.20917299389839172,-0.017721999436616898,-0.11573199927806854,-0.14055399596691132,-0.2985129952430725,-0.007203000131994486,0.07240799814462662,0.2851549983024597,-0.04856399819254875,0.1434980034828186,0.03917599841952324,-0.13568100333213806,0.11015299707651138,-0.30166101455688477,-0.022506000474095345,-0.012725000269711018,-0.03451700136065483,-0.0586480014026165,0.15248599648475647,-0.007400000002235174,-0.23530900478363037,0.09858199954032898,-0.2749910056591034,-0.2131430059671402,-0.20749899744987488,-0.010068999603390694,-0.1589049994945526,-0.031108999624848366,0.032030001282691956,0.14798800647258759,-0.16072599589824677,0.09841600060462952,0.21183699369430542,0.010840999893844128,-0.03723900020122528,0.09214600175619125,0.015065999701619148,-0.3323749899864197,-0.0299260001629591,0.14668600261211395,0.25370100140571594,-0.09743999689817429,0.04177900031208992,0.17090299725532532,-0.021005000919103622,-0.06615400314331055,0.1452849954366684,0.08296400308609009,-0.06965500116348267,-0.08148699998855591,-0.11339999735355377,0.055114999413490295,-0.09012100100517273,-0.34800300002098083,-0.18028700351715088,-0.20199599862098694,-0.252362996339798,-0.3354859948158264,0.00928299967199564,-0.09757199883460999,-0.032517001032829285,-0.16416999697685242,0.02249700017273426,-0.05889299884438515,-0.0641700029373169,-0.17690600454807281,-0.0024510000366717577,0.33474698662757874,0.2539510130882263,-0.05900400131940842,-0.08323000371456146,0.2740060091018677,0.10371100157499313,0.21118800342082977,0.06518399715423584,-0.0330360010266304,0.06832800060510635,0.162648007273674,-0.1385429948568344,0.16607199609279633,0.00443999981507659,0.2722089886665344,-0.016491999849677086,-0.008409000001847744,-0.17779499292373657,-0.05955100059509277
支架,-0.10469499975442886,0.29019901156425476,0.13070300221443176,0.05055199936032295,0.1235480010509491,0.011807000264525414,0.09178400039672852,0.17295800149440765,0.2194100022315979,-0.02281700074672699,-0.01637200079858303,0.35745900869369507,-0.09919100254774094,-0.19430600106716156,-0.08639399707317352,-0.2896760106086731,-0.21693000197410583,0.23494799435138702,0.04110899940133095,0.007538999896496534,0.28552401065826416,-0.32336899638175964,0.38760700821876526,-0.1445779949426651,0.0346749983727932,0.19392099976539612,0.1587350070476532,-0.1740500032901764,-0.1055079996585846,-9.600000339560211e-05,0.13878199458122253,0.1819310039281845,0.29096999764442444,-0.05418400093913078,-0.35248300433158875,0.029972000047564507,0.2801699936389923,0.03731599822640419,0.249876007437706,0.29401901364326477,0.0030879999976605177,0.11952900141477585,-0.3823769986629486,-0.048409998416900635,-0.14431500434875488,-0.1536320000886917,0.1353369951248169,-0.11826399713754654,-0.042897000908851624,-0.038669999688863754,-0.009700000286102295,0.07599200308322906,0.3009270131587982,-0.05730700120329857,-0.055188000202178955,0.04225900024175644,-0.227634996175766,-0.10019399970769882,0.07953900098800659,0.30180999636650085,0.26159900426864624,0.2264769971370697,-0.292959988117218,0.16844600439071655,-0.08253999799489975,-0.08161000162363052,0.13429699838161469,-0.12706300616264343,0.5775319933891296,0.29100701212882996,-0.06215199828147888,0.19316600263118744,0.010641000233590603,0.2566229999065399,0.3139890134334564,-0.15157699584960938,0.09791799634695053,0.07994599640369415,0.15302899479866028,0.016240999102592468,0.05043699964880943,-0.19306600093841553,-0.12480399757623672,-0.11565999686717987,0.03893499821424484,0.26289400458335876,0.03134699910879135,0.05824299901723862,-0.07573500275611877,0.034797001630067825,-0.02454099990427494,0.2775059938430786,-0.06889600306749344,-0.14139899611473083,-0.26522600650787354,0.09490200132131577,0.1401049941778183,-0.08682999759912491,0.14956000447273254,-0.029996000230312347,0.1841990053653717,0.06730200350284576,-0.15116499364376068,0.1983480006456375,-0.11222200095653534,0.05985499918460846,0.03519299998879433,0.16905200481414795,0.2212270051240921,-0.11382199823856354,0.21222999691963196,0.11462999880313873,0.11927200108766556,0.046459000557661057,0.16358399391174316,-0.036616001278162,-0.14409400522708893,-0.18182000517845154,-0.04775499925017357,0.06314899772405624,-0.033257998526096344,0.1438789963722229,0.013570000417530537,0.20632800459861755,0.19675800204277039,-0.3056899905204773,-0.47529101371765137,0.016860000789165497,-0.2638869881629944,0.05253300070762634,0.13110299408435822,0.08988399803638458,0.09384699910879135,0.13649700582027435,-0.1206509992480278,0.07769300043582916,-0.04804899916052818,-0.15438400208950043,-0.20369400084018707,0.13569100201129913,-0.09187600016593933,0.03623899817466736,-0.017872000113129616,0.11449199914932251,-0.09935099631547928,-0.1281139999628067,-0.06282199919223785,-0.07546199858188629,-0.20976999402046204,-0.14450600743293762,-0.015564999543130398,-0.08506099879741669,0.08956299722194672,0.13655799627304077,0.2292969971895218,0.179407998919487,0.0407710000872612,0.1406099945306778,0.10497000068426132,0.06283500045537949,0.041854001581668854,-0.1247130036354065,-0.06268899887800217,-0.06825099885463715,-0.06921699643135071,-0.06163400039076805,0.1690330058336258,0.05878100171685219,-0.08797600120306015,-0.019114000722765923,-0.08626600354909897,0.33725398778915405,0.11248999834060669,0.10688400268554688,0.15579399466514587,-0.01634399965405464,0.045490000396966934,-0.057374998927116394,0.018168000504374504,0.21549199521541595,0.21957099437713623,-0.10201200097799301,-0.19388900697231293,0.034637000411748886,-0.2248079925775528,-0.10768599808216095,0.2513880133628845,-0.06838800013065338,0.3908950090408325,0.2117380052804947,0.21560999751091003,-0.24256999790668488,0.013314999639987946,0.05547099933028221,0.09129299968481064,-0.20399299263954163,-0.13500599563121796,-0.21420399844646454,-0.08227799832820892,-0.13664400577545166,0.173908993601799,-0.06447699666023254,-0.09837000072002411,0.2462500035762787,0.005061000119894743,-0.38614100217819214,0.18876799941062927,0.18495100736618042,0.20581300556659698,-0.13416899740695953,-0.1851309984922409,-0.22602200508117676,-0.24737000465393066,-0.05862699821591377,0.09879499673843384,0.4230169951915741,0.04381600022315979,-0.31459200382232666,0.19231100380420685,-0.23387299478054047,-0.20450599491596222,0.13242200016975403,0.040681999176740646,-0.05745700001716614,-0.027249999344348907,0.04936499893665314,-0.0031950001139193773,-0.05200900137424469,-0.01351999957114458,0.27836498618125916,-0.16370099782943726,-0.456028014421463,0.10496900230646133,0.033914998173713684,0.3283790051937103,0.18973200023174286,0.2115509957075119,0.2189529985189438,0.05782699957489967,-0.1468989998102188,-0.14424599707126617,-0.24515999853610992,-0.05539200082421303,-0.3539139926433563,0.15869799256324768,0.05118300020694733,-0.19045600295066833,-0.14923900365829468,0.10081499814987183,-0.2011909931898117,-0.18080200254917145,0.02748199924826622,-0.3233560025691986,-0.03701400011777878,-0.02261199988424778,-0.17980800569057465,0.03867899999022484,-0.12525099515914917,0.11710099875926971,0.11170200258493423,0.2085449993610382,-0.0047439998015761375,0.0011699999449774623,-0.26385998725891113,-0.4291149973869324,-0.3319680094718933,0.019920000806450844,0.13850699365139008,-0.18583300709724426,0.021774999797344208,-0.04044700041413307,-0.004505999851971865,0.003756999969482422,0.1415410041809082,0.23942799866199493,0.38858699798583984,-0.07180699706077576,-0.02992900088429451,0.0029349999967962503,0.10308399796485901,-0.004647000227123499,-0.4257420003414154,0.2069309949874878,-0.042281001806259155,-0.4122759997844696,-0.08087600022554398,-0.12220200151205063,-0.06063200160861015,0.041152000427246094,-0.29006099700927734,-0.05563899874687195,-0.2719529867172241,-0.10352899879217148,-0.19688700139522552,0.14152300357818604,-0.5090720057487488,-0.14951400458812714,0.036747001111507416,0.14917799830436707,0.06332000344991684,0.06616400182247162,0.306863009929657,-0.043974000960588455,-0.34492799639701843,0.10236799716949463,0.04302100092172623,-0.08219999819993973,0.25356799364089966,-0.196384996175766,-0.18050600588321686,0.07524900138378143,-0.1640769988298416,0.37474799156188965,0.04362000152468681,-0.16878899931907654,0.11816100031137466,-0.01355000026524067,-0.15174899995326996,0.11118000000715256,0.26008298993110657,-0.09087199717760086,0.20119699835777283,0.05038600042462349,-0.01513999979943037,-0.031690001487731934,0.1284089982509613,-0.03863399848341942,0.004631999880075455,-0.04182000085711479,-0.0016589999431744218,-0.04077799990773201,0.0680989995598793,-0.2713080048561096,-0.13854999840259552,-0.07098100334405899,0.010584999807178974,-0.3076939880847931,-0.11061300337314606,-0.12817099690437317,0.01332200039178133,-0.043434999883174896,-0.09137900173664093,-0.10387200117111206,-0.003410999896004796,-0.014875000342726707,-0.03602200001478195,0.20895899832248688,0.20169100165367126,-0.17571300268173218,-0.12159200012683868,0.08369799703359604,-0.3506399989128113,0.054687999188899994,0.08408399671316147,0.43375200033187866,0.1327030062675476,0.12339600175619125,-0.13148599863052368,0.14858299493789673,0.03834399953484535,-0.17213399708271027,0.13687700033187866,0.06642899662256241,-0.02240700088441372,-0.5542269945144653,-0.28919699788093567,0.04778999835252762,-0.12564699351787567,0.08988700062036514,-0.2087779939174652,-0.26555299758911133,-0.3689509928226471,0.18724100291728973,-0.019102999940514565,0.06465700268745422,-0.23093600571155548,-0.044684998691082,-0.2080010026693344,0.05531900003552437,-0.1962990015745163,-0.13585500419139862,-0.0062500000931322575,-0.3464660048484802,-0.07269799709320068,0.17553099989891052,0.4119659960269928,-0.13306699693202972,0.1657409965991974,-0.1753160059452057,-0.09554299712181091,0.004623000044375658,0.2698479890823364,-0.0694810003042221,-0.04298499971628189,0.00027200000477023423,0.14615899324417114,-0.16563600301742554,-0.0222609993070364,0.24342399835586548,-0.3500109910964966
偏压,-0.008937999606132507,0.07129199802875519,-0.10671599954366684,0.10085900127887726,-0.045986998826265335,-0.1151299998164177,-0.03896600008010864,0.048406001180410385,-0.07719399780035019,0.2122430056333542,-0.07284200191497803,-0.05666700005531311,-0.05944199860095978,-0.08087799698114395,-0.29374000430107117,-0.35756200551986694,-0.040004998445510864,0.10405900329351425,-0.14287899434566498,0.06564799696207047,0.19632700085639954,-0.2759459912776947,0.040720000863075256,-0.06440799683332443,-0.00926900003105402,0.05793200060725212,-0.013667000457644463,-0.10913900285959244,-0.012164000421762466,0.04292700067162514,0.09901099652051926,-0.08058899641036987,-0.07740800082683563,-0.009282000362873077,-0.43646499514579773,-0.17050200700759888,0.1702129989862442,-0.1438010036945343,-0.0797709971666336,-0.08222100138664246,0.06991499662399292,-0.10681799799203873,-0.31797799468040466,0.21352599561214447,-0.0711050033569336,-0.003978000022470951,-0.18611499667167664,-0.2780100107192993,0.14930899441242218,-0.14225000143051147,-0.14267200231552124,-0.21140600740909576,-0.10807599872350693,-0.3259350061416626,-0.03111100010573864,-0.12406899780035019,-0.15966500341892242,-0.18053799867630005,-0.09118399769067764,0.11707299947738647,-0.05066300183534622,-0.00467800023034215,0.25712698698043823,-0.21827900409698486,0.20730599761009216,0.02860400080680847,-0.06854599714279175,0.17199000716209412,0.3856070041656494,0.10398299992084503,-0.26704299449920654,-0.18297100067138672,-0.13055099546909332,-0.19630500674247742,0.18881100416183472,-0.007962999865412712,-0.04062899947166443,0.10549899935722351,0.18599599599838257,0.3273780047893524,0.10895700007677078,-0.051047999411821365,-0.021745000034570694,-0.033020999282598495,0.09121000021696091,-0.17554500699043274,-0.009189999662339687,0.12588199973106384,-0.055424999445676804,0.19097700715065002,-0.04188400134444237,-0.21536700427532196,-0.28290700912475586,0.22246499359607697,-0.09509100019931793,-0.2348169982433319,-0.006333000026643276,0.19440500438213348,-0.04894400015473366,0.09947799891233444,0.024519000202417374,-0.049247998744249344,0.09085000306367874,-0.1841530054807663,0.24660000205039978,-0.005814000032842159,-0.10524400323629379,-0.0392099991440773,-0.27176201343536377,-0.02453099936246872,0.09646499902009964,0.19118499755859375,-0.12434100359678268,-0.0013040000339969993,0.049508001655340195,-0.1681549996137619,0.09977799654006958,-0.33637699484825134,-0.09202200174331665,0.013160999864339828,0.06264500319957733,-0.09633699804544449,-0.396450012922287,-0.3553909957408905,0.05897999927401543,0.14811000227928162,0.023917999118566513,0.28114598989486694,0.12669500708580017,0.03589100018143654,0.10824199765920639,0.24766600131988525,-0.15471400320529938,-0.0529480017721653,-0.4424790143966675,0.18358999490737915,0.17920200526714325,-0.12656499445438385,-0.30719301104545593,0.13588200509548187,-0.010983999818563461,0.06333400309085846,-0.07202699780464172,0.1402450054883957,-0.0038590000476688147,0.08945199847221375,0.4104509949684143,0.07976800203323364,-0.0415010005235672,-0.003452999982982874,0.09020400047302246,-0.37883299589157104,-0.11253000050783157,-0.08751700073480606,0.02496900036931038,0.11425700038671494,-0.10660400241613388,0.02795100025832653,0.32488200068473816,-0.3091059923171997,-0.026316000148653984,-0.03724300116300583,-0.33842799067497253,-0.03796499967575073,0.008766000159084797,0.08695299923419952,0.010091000236570835,0.17558200657367706,-0.022554999217391014,0.07381699979305267,-0.10345400124788284,0.24787700176239014,-0.2693159878253937,0.07248499989509583,0.2427860051393509,-0.04862400144338608,-0.005809000227600336,0.19110499322414398,0.09771600365638733,0.045531999319791794,-0.17698299884796143,-0.09502200037240982,-0.2732999920845032,0.03426700085401535,-0.06193799898028374,0.1810069978237152,0.27368301153182983,0.15880100429058075,0.21386800706386566,0.06750799715518951,0.35431599617004395,0.35455501079559326,-0.07948900014162064,0.22706399857997894,-0.10068900138139725,-0.1236879974603653,0.19154299795627594,-0.14769500494003296,-0.14873600006103516,0.08879800140857697,-0.005098999943584204,0.08984600007534027,-0.2554830014705658,0.2781969904899597,-0.08763500303030014,-0.15253399312496185,0.22035600244998932,0.01768999919295311,0.2079000025987625,-0.16941000521183014,-0.04148000106215477,-0.11729700118303299,-0.027413999661803246,0.26058900356292725,0.04215700179338455,-0.20777300000190735,0.19511699676513672,-0.3359149992465973,0.15102000534534454,0.1212640032172203,-0.12909799814224243,0.2049340009689331,-0.023879000917077065,0.233256995677948,-0.39480701088905334,0.263592004776001,-0.18267899751663208,-0.054520998150110245,0.06757500022649765,0.33612900972366333,-0.3208650052547455,-0.11226999759674072,-0.19745199382305145,0.04889199882745743,-0.10909199714660645,-0.07158300280570984,0.055399999022483826,0.31294700503349304,-0.07718899846076965,-0.1706549972295761,-0.31242799758911133,0.020089000463485718,0.1418830007314682,0.08731699734926224,0.16429999470710754,-0.29695600271224976,0.019852999597787857,0.33713498711586,-0.19936199486255646,-0.509086012840271,-0.15706099569797516,-0.13015399873256683,-0.09059400111436844,0.3407779932022095,-0.10397499799728394,-0.1465200036764145,-0.24820199608802795,0.013969000428915024,0.551826000213623,-0.024759000167250633,-0.14743199944496155,0.2374570071697235,0.19739499688148499,0.3207550048828125,-0.012490999884903431,-0.10892300307750702,0.15016500651836395,0.19338999688625336,-0.05303899943828583,-0.2790850102901459,-0.33817100524902344,-0.20446400344371796,-0.44433701038360596,-0.3476639986038208,0.30011799931526184,-0.013772999867796898,0.022273000329732895,0.03222699835896492,-0.07387399673461914,0.024660000577569008,-0.29803600907325745,-0.1922360062599182,0.30036601424217224,-0.1232220008969307,-0.028030000627040863,0.16378800570964813,0.3595049977302551,0.28906598687171936,0.300258994102478,-0.12354200333356857,-0.02504800073802471,-0.31393399834632874,-0.22619499266147614,-0.4749090075492859,0.0467119999229908,-0.38567501306533813,-0.05666400119662285,0.22202999889850616,0.37830498814582825,0.11880400031805038,0.1529739946126938,0.3200399875640869,0.37428900599479675,-0.3744339942932129,-0.09950900077819824,0.012374999932944775,0.21700699627399445,0.22577700018882751,0.01668200083076954,-0.22911299765110016,0.21389499306678772,-0.102183997631073,0.03156000003218651,0.016519000753760338,0.029789000749588013,0.012041999958455563,-0.10636000335216522,-0.2003829926252365,-0.09138000011444092,-0.33724600076675415,0.06325200200080872,-0.017566999420523643,-0.16890700161457062,0.21219800412654877,0.17352299392223358,-0.08784999698400497,-0.071212999522686,-0.06664100289344788,0.19290399551391602,0.11169400066137314,0.2841759920120239,-0.1507119983434677,-0.1924940049648285,-0.08556099981069565,0.1610269993543625,0.09249400347471237,0.2219190001487732,-0.19710099697113037,-0.15663999319076538,0.07784000039100647,0.02012999914586544,-0.10958600044250488,-0.07833199948072433,-0.11654400080442429,-0.06560999900102615,0.11862099915742874,0.14820800721645355,0.38123899698257446,-0.16300800442695618,-0.2318899929523468,0.04380200058221817,0.04343099892139435,-0.23555700480937958,0.38679298758506775,0.3070099949836731,-0.1738400012254715,0.07124999910593033,0.3115909993648529,0.051500000059604645,0.09192699939012527,-0.027881000190973282,0.020219000056385994,-0.05688200145959854,0.07062199711799622,-0.19059200584888458,-0.019418999552726746,-0.1925549954175949,-0.017643999308347702,-0.29588499665260315,0.06447099894285202,-0.043428000062704086,-0.22322799265384674,0.03876199945807457,-0.2683199942111969,0.059647999703884125,-0.3439219892024994,-0.022247999906539917,0.07141699641942978,-0.05688000097870827,-0.011134999804198742,0.026799000799655914,0.026774000376462936,-0.11792100220918655,0.27602800726890564,-0.09271900355815887,0.29221200942993164,-0.02012299932539463,0.1951570063829422,0.08592800050973892,-0.040553998202085495,-0.11939900368452072,0.24872499704360962,-0.065420001745224,-0.15288600325584412,0.1886810064315796,0.13404099643230438,-0.3683370053768158,-0.09216800332069397,0.45572900772094727,-0.1684190034866333
接到,0.06813299655914307,-0.014227000065147877,-0.10882800072431564,0.0502300001680851,0.13712599873542786,0.12988099455833435,0.0336420014500618,-0.024303000420331955,0.09185799956321716,-0.22068899869918823,0.14330799877643585,-0.010120999999344349,0.03013000078499317,-0.1597210019826889,0.08935599774122238,0.3008680045604706,0.05689400061964989,0.09972699731588364,0.01246699970215559,-0.12475699931383133,0.13405300676822662,-0.07604599744081497,0.013807999901473522,0.0640840008854866,-0.07842200249433517,0.09489600360393524,-0.22279700636863708,0.09447800368070602,0.042938001453876495,0.20255500078201294,0.19836799800395966,0.06419000029563904,-0.053530000150203705,-0.08485099673271179,0.11777999997138977,-0.24648700654506683,0.02127999998629093,-0.15634000301361084,-0.2037779986858368,-0.010588999837636948,0.09621799737215042,-0.21045400202274323,0.05260699987411499,0.07610300183296204,0.05350499972701073,0.005506000015884638,-0.09606099873781204,0.14113099873065948,0.006273000035434961,-0.09189999848604202,-0.08519800007343292,-0.027067000046372414,0.19417600333690643,-0.00482900021597743,0.009165000170469284,0.07608900219202042,-0.22033199667930603,0.01733200065791607,0.11321000009775162,0.3320080041885376,-0.005444000009447336,0.0010110000148415565,0.14486399292945862,-0.05872099846601486,0.04808399826288223,-0.1090409979224205,-0.025033000856637955,0.08010999858379364,0.19095300137996674,0.21300899982452393,0.0011940000113099813,-0.1634960025548935,0.06959500163793564,-0.19334900379180908,0.06625500321388245,-0.010251999832689762,-0.08992899954319,-0.20158599317073822,0.12235800176858902,-0.05834599956870079,-0.020620999857783318,0.13835899531841278,0.07326299697160721,0.03903299942612648,-0.1984110027551651,0.11362700164318085,-0.04114599898457527,-0.005371999926865101,0.1342869997024536,0.015944000333547592,0.07511500269174576,-0.044349998235702515,-0.04037800058722496,-0.024728000164031982,0.029357999563217163,-0.03373600170016289,0.017988000065088272,0.09355100244283676,-0.1060200035572052,-0.03144500032067299,-0.11354000121355057,-0.05626299977302551,-0.01566999964416027,-0.021317999809980392,-0.2744069993495941,-0.07036300003528595,0.04185099899768829,0.07617200165987015,0.04855800047516823,-0.09606499969959259,0.2706190049648285,-0.0012929999502375722,-0.21371400356292725,-0.0946429967880249,0.04917699843645096,0.13061699271202087,-0.045903000980615616,0.10049299895763397,-0.21591100096702576,-0.07842999696731567,-0.1533370018005371,-0.03454099968075752,0.07885199785232544,0.017229000106453896,0.09342300146818161,0.15532200038433075,-0.18972499668598175,0.07516299933195114,0.23209400475025177,0.078575998544693,0.18049299716949463,-0.03370099887251854,0.2033730000257492,0.046810999512672424,-0.04688899964094162,-0.09285499900579453,-0.10263899713754654,0.1380160003900528,-0.050328001379966736,0.02459999918937683,0.1447950005531311,0.12647099792957306,0.18679100275039673,-0.06101899966597557,0.14248700439929962,0.005665000062435865,-0.055605001747608185,0.020791999995708466,0.018177000805735588,0.004466999787837267,-0.1964769959449768,0.06681200116872787,0.15666800737380981,0.09190600365400314,-0.04076800122857094,0.03448700159788132,-0.11355700343847275,-0.17809799313545227,-0.12203700095415115,-0.00024199999461416155,-0.14588700234889984,0.0070329997688531876,0.026020999997854233,-0.21932099759578705,0.013509999960660934,0.31777098774909973,-0.14762799441814423,-0.17656299471855164,-0.17108100652694702,-0.11352899670600891,-0.00967399962246418,0.019478000700473785,0.01333600003272295,-0.06382200121879578,-0.08891800045967102,-0.05013199895620346,-0.08850300312042236,0.08093199878931046,-0.041099000722169876,0.21416500210762024,-0.015831999480724335,-0.034081000834703445,-0.036841001361608505,0.0685880035161972,-0.10905300080776215,0.04640800133347511,-0.0440329983830452,0.009998000226914883,0.030114000663161278,-0.10457800328731537,0.20380400121212006,-0.07916499674320221,0.09907300025224686,0.09196999669075012,0.010293999686837196,-0.1540289968252182,-0.04319699853658676,-0.11507900059223175,-0.2620849907398224,0.05251700058579445,-0.24533799290657043,-0.05463799834251404,-0.11778700351715088,0.10875800251960754,-0.004120000172406435,-0.33096298575401306,0.14764399826526642,-0.03691200166940689,0.32132700085639954,0.04453900083899498,-0.022809000685811043,0.1259620040655136,0.012924999929964542,-0.12660300731658936,-0.05839499831199646,0.21901600062847137,0.009585999883711338,0.034627001732587814,0.025603000074625015,-0.0603719986975193,-0.02776999957859516,-0.2302349954843521,-0.12432300299406052,-0.0847340002655983,-0.007431000005453825,-0.020114000886678696,0.06066900119185448,0.04589499905705452,-0.004894999787211418,0.057652998715639114,-0.0933070033788681,-0.1659179925918579,0.12284699827432632,-0.0008689999813213944,0.03258800134062767,0.26920199394226074,-0.08089400082826614,0.12546199560165405,-0.19668899476528168,-0.2180429995059967,0.14087699353694916,-0.14358100295066833,-0.024707000702619553,-0.07125099748373032,-0.1443829983472824,0.010564999654889107,-0.0002800000074785203,-0.03186199814081192,0.1543470025062561,0.008485999889671803,0.0011859999503940344,-0.37017300724983215,0.077845998108387,-0.14570599794387817,0.050269998610019684,0.12657900154590607,-0.11465500295162201,0.09255500137805939,0.017650000751018524,0.05185199901461601,-0.010948999784886837,0.13384999334812164,-0.026897000148892403,-0.056595999747514725,-0.1421789973974228,-0.045145999640226364,0.136695995926857,-0.0823889970779419,-0.04666600003838539,-0.04848400130867958,-0.01789500005543232,-0.07765799760818481,0.10872799903154373,0.052414000034332275,0.11776900291442871,0.07210200279951096,0.24691200256347656,-0.028238000348210335,-0.028643999248743057,0.01729400083422661,0.07942699640989304,0.2156289964914322,0.026148000732064247,0.21318599581718445,-0.06530699878931046,0.10887400060892105,-0.008236000314354897,0.03851500153541565,-0.012451999820768833,-0.11127500236034393,-0.18132300674915314,0.06267599761486053,0.0002770000137388706,-0.1112309992313385,0.16395099461078644,0.01977499946951866,0.027799999341368675,0.044105999171733856,-0.15571199357509613,0.019605999812483788,-0.05401900038123131,0.1573449969291687,0.038895998150110245,-0.10594300180673599,0.11807800084352493,-0.027659999206662178,-0.179640993475914,0.34084799885749817,0.03312699869275093,-0.04371500015258789,0.03892999887466431,-0.02993299998342991,0.09719900041818619,-0.05466200038790703,0.008923999965190887,0.1025800034403801,0.22539299726486206,-0.02148200012743473,-0.12191899865865707,-0.036786001175642014,-0.07413300126791,0.1689389944076538,0.04430299997329712,0.017351999878883362,-0.0803849995136261,0.03371899947524071,0.021098000928759575,-0.4703499972820282,-0.0032259998843073845,-0.029185999184846878,-0.1579039990901947,0.17417000234127045,0.15814299881458282,-0.18426300585269928,-0.13976499438285828,-0.01651199907064438,-0.16677799820899963,-0.17157499492168427,0.05011599883437157,0.005836000200361013,0.04193799942731857,0.11265099793672562,-0.05464300140738487,-0.06303299963474274,-0.054361000657081604,-0.011907000094652176,-0.10113599896430969,0.04898399859666824,0.023615999147295952,0.10885000228881836,0.0442579984664917,0.061129000037908554,0.04217100143432617,-0.03558199852705002,0.20351600646972656,-0.2569279968738556,-0.031191999092698097,0.10335200279951096,-0.013296999968588352,0.3421260118484497,0.06984200328588486,0.05693800002336502,0.04217199981212616,-0.35567599534988403,-0.005257000215351582,-0.22762499749660492,-0.14343500137329102,0.23472300171852112,0.1648460030555725,0.036538999527692795,-0.1287669986486435,-0.0027650000993162394,0.24669000506401062,-0.004391000140458345,-0.24422800540924072,0.013910000212490559,0.08109799772500992,0.04771900177001953,0.14755399525165558,0.07117799669504166,0.1464730054140091,0.09944099932909012,0.07252400368452072,0.0444910004734993,-0.1759829968214035,0.20314499735832214,-0.10165499895811081,-0.015706999227404594,0.19869600236415863,-0.24887099862098694,0.01497500017285347,-0.03412099927663803,-0.16119800508022308,0.04952000081539154,-0.15683600306510925,0.034724000841379166,0.27407199144363403,-0.23807300627231598,-0.27407199144363403,0.12415800243616104
车厢,-0.06281299889087677,-0.20919300615787506,-0.09377100318670273,0.5233330130577087,-0.28970998525619507,-0.18792100250720978,-0.21378399431705475,0.28824999928474426,0.31261101365089417,0.04653000086545944,-0.33321601152420044,0.4325079917907715,0.0057219997979700565,-0.07769899815320969,-0.03574199974536896,0.11080899834632874,-0.26422300934791565,0.2809630036354065,-0.0925849974155426,0.05481399968266487,-0.15972499549388885,-0.138031005859375,0.15111799538135529,0.230881005525589,0.19975100457668304,0.29746100306510925,0.1251939982175827,0.06032299995422363,-0.326449990272522,-0.11949100345373154,0.3230299949645996,0.2303050011396408,0.16980500519275665,0.00120900000911206,-0.28065600991249084,-0.17778299748897552,-0.055792998522520065,-0.25359100103378296,0.6191149950027466,0.4643990099430084,-0.2379080057144165,0.19899800419807434,0.2656019926071167,0.32798001170158386,0.5288709998130798,0.05819299817085266,0.19051000475883484,0.3213900029659271,0.12820099294185638,-0.4340749979019165,-0.6404250264167786,-0.3600980043411255,0.0028059999458491802,0.12425100058317184,0.19337600469589233,0.5386080145835876,-0.14113500714302063,-0.19447000324726105,0.21678100526332855,0.24295899271965027,0.09779199957847595,0.1780869960784912,-0.5361660122871399,-0.09344500303268433,0.08275599777698517,-0.1449899971485138,-0.04808799922466278,0.1186780035495758,0.12847900390625,-0.09020200371742249,0.08866900205612183,0.29346299171447754,0.03576600179076195,-0.3158920109272003,0.06964000314474106,-0.007540000136941671,0.3219810128211975,0.053077999502420425,0.4296739995479584,0.4540489912033081,0.2779589891433716,0.14558400213718414,-0.36939600110054016,0.09597299993038177,-0.04597799852490425,-0.13983899354934692,0.06376399844884872,0.3855940103530884,0.01252800039947033,-0.1284160017967224,0.09206700325012207,0.10076099634170532,0.3257339894771576,-0.05119000002741814,0.05518899857997894,0.2075680047273636,-0.5950989723205566,-0.053210001438856125,-0.2983289957046509,0.11818099766969681,0.29879501461982727,0.05032699927687645,0.1261489987373352,-0.2859959900379181,-0.12090300023555756,0.04801199957728386,0.07967299968004227,-0.5756959915161133,-0.1363610029220581,0.05293099954724312,0.28568199276924133,-0.10177499800920486,-0.2361149936914444,0.12814900279045105,0.14099499583244324,0.07529299706220627,0.1569799929857254,-0.2888050079345703,-0.01843300089240074,0.2674109935760498,-0.02932400070130825,0.2121790051460266,-0.12906299531459808,0.10814300179481506,0.10614799708127975,-0.028470000252127647,-0.10403099656105042,0.23611900210380554,-0.05579499900341034,-0.006818000227212906,0.00534699996933341,-0.2937079966068268,0.07031600177288055,0.05966100096702576,0.11909600347280502,-0.08912999927997589,-0.032926999032497406,0.23232899606227875,0.07144100219011307,0.15490899980068207,0.09378000348806381,-0.09906700253486633,0.22419600188732147,-0.08303199708461761,0.06628800183534622,0.053578998893499374,-0.08354999870061874,0.09270299971103668,0.061142001301050186,-0.3109230101108551,-0.1851709932088852,-0.41444799304008484,-0.04500599950551987,-0.35895800590515137,-0.05853300169110298,-0.15670600533485413,0.027761999517679214,0.2837890088558197,0.2084590047597885,-0.41352298855781555,-0.22566400468349457,0.03413800150156021,0.009932000190019608,0.022231999784708023,0.07546599954366684,-0.1619659960269928,0.17431999742984772,-0.16186900436878204,-0.24889500439167023,-0.14900000393390656,0.17344799637794495,-0.3426220118999481,0.024810999631881714,-0.10118900239467621,0.27155500650405884,-0.02135000005364418,-0.15797799825668335,-0.06522200256586075,-0.4332740008831024,0.22316400706768036,-0.1388159990310669,-0.20730599761009216,-0.39371299743652344,0.07050999999046326,0.005863000173121691,0.36693501472473145,0.2586610019207001,0.06579899787902832,-0.00607800018042326,0.4109779894351959,-0.36094701290130615,0.028423000127077103,0.012671000324189663,0.31912100315093994,-0.1628209948539734,0.29257598519325256,-0.31856799125671387,-0.1272840052843094,0.18280300498008728,-0.008999000303447247,-0.13316500186920166,-0.32843899726867676,-0.39886900782585144,0.17656299471855164,0.11810299754142761,-0.21677599847316742,0.05252600088715553,-0.015884999185800552,-0.19556599855422974,-0.2857910096645355,-0.3170819878578186,-0.12040100246667862,0.11318100243806839,0.23767699301242828,0.004497999791055918,0.03899399936199188,-0.06872600317001343,-0.3185200095176697,0.08685799688100815,-0.17396900057792664,0.0726889967918396,0.4156000018119812,0.4827499985694885,-0.07878000289201736,0.16096700727939606,0.2265080064535141,0.06717400252819061,-0.36351901292800903,0.07748199999332428,0.052156999707221985,0.06870900094509125,-0.011506999842822552,-0.11148100346326828,0.14345400035381317,0.2933880090713501,-0.06860200315713882,-0.0769679993391037,-0.026612000539898872,0.17513999342918396,-0.12448100000619888,0.06190799921751022,-0.06525000184774399,0.1919119954109192,-0.410396009683609,-0.12024500221014023,-0.14213399589061737,-0.08041399717330933,0.25591200590133667,-0.12709200382232666,-0.19897900521755219,-0.03717999905347824,0.0373850017786026,0.009623999707400799,-0.4597580134868622,-0.020193999633193016,0.1725659966468811,-0.18032300472259521,0.2967210114002228,0.19005200266838074,0.11207500100135803,-0.0647910013794899,0.0410350002348423,-0.26319900155067444,0.31191501021385193,-0.6750339865684509,-0.6246579885482788,-0.2782459855079651,0.19020800292491913,-0.14451900124549866,0.30300500988960266,-0.11080700159072876,-0.2520959973335266,0.2631950080394745,0.18232400715351105,0.10091099888086319,0.40748199820518494,0.26716700196266174,-0.21876700222492218,-0.4302290081977844,-0.0500820018351078,0.22839300334453583,-0.2480199933052063,0.35309600830078125,-0.39361900091171265,-0.032882001250982285,-0.3641839921474457,-0.11116799712181091,0.21447399258613586,0.04788200184702873,0.30513501167297363,-0.15237900614738464,-0.31948399543762207,-0.4543370008468628,-0.48281601071357727,-0.2309200018644333,-0.2036689966917038,0.14107799530029297,0.20869700610637665,0.10040400177240372,0.0026660000439733267,0.02392200008034706,0.49430200457572937,0.06292299926280975,-0.10921400040388107,0.24482600390911102,0.09505899995565414,-0.1762710064649582,0.15516799688339233,0.21342599391937256,-0.006459999829530716,-0.10044900327920914,0.18589499592781067,0.06272300332784653,0.4899669885635376,-0.1113089993596077,-0.07758700102567673,0.2892949879169464,-0.4430600106716156,0.07289700210094452,0.13038299977779388,-0.05318399891257286,0.022335000336170197,0.259768009185791,0.27219900488853455,0.2874799966812134,0.3076989948749542,0.06800000369548798,0.12260700017213821,-0.35996800661087036,-0.23019899427890778,0.12306100130081177,-0.14309899508953094,-0.03308099880814552,-0.20967499911785126,-0.05372399836778641,0.19860099256038666,-0.27197301387786865,0.1932010054588318,-0.1591069996356964,-0.24852900207042694,-0.2506040036678314,-0.24585799872875214,-0.37920600175857544,-0.15220999717712402,0.165476992726326,0.22519099712371826,0.3108760118484497,0.24891799688339233,-0.015472999773919582,0.11418399959802628,-0.2505669891834259,-0.1279039978981018,0.18727299571037292,-0.260003000497818,0.20387299358844757,-0.17590700089931488,0.030396999791264534,0.11411300301551819,0.2993350028991699,0.15484899282455444,-0.1888750046491623,-0.47321900725364685,0.3533949851989746,0.05082999914884567,-0.22055499255657196,0.2887110114097595,-0.07399900257587433,-0.10046599805355072,0.15646299719810486,-0.06893999874591827,-0.08486899733543396,-0.11163999885320663,0.10273399949073792,-0.004838000051677227,0.22770999372005463,0.014911999925971031,0.29917699098587036,0.03881800174713135,-0.22458499670028687,-0.16142499446868896,-0.1560250073671341,-0.5293650031089783,0.12136100232601166,-0.09633199870586395,0.20951299369335175,0.09990300238132477,-0.36716899275779724,0.45412901043891907,-0.1855420023202896,-0.03082600049674511,0.17071600258350372,0.12645499408245087,-0.14761300384998322,0.2438330054283142,-0.027365000918507576,0.13932999968528748,0.018339000642299652,-0.24027499556541443,-0.09923899918794632,-0.160630002617836
