word,0,1,2,3,4,5,6,7,8,9,10,11,12,13,14,15,16,17,18,19,20,21,22,23,24,25,26,27,28,29,30,31,32,33,34,35,36,37,38,39,40,41,42,43,44,45,46,47,48,49,50,51,52,53,54,55,56,57,58,59,60,61,62,63,64,65,66,67,68,69,70,71,72,73,74,75,76,77,78,79,80,81,82,83,84,85,86,87,88,89,90,91,92,93,94,95,96,97,98,99,100,101,102,103,104,105,106,107,108,109,110,111,112,113,114,115,116,117,118,119,120,121,122,123,124,125,126,127,128,129,130,131,132,133,134,135,136,137,138,139,140,141,142,143,144,145,146,147,148,149,150,151,152,153,154,155,156,157,158,159,160,161,162,163,164,165,166,167,168,169,170,171,172,173,174,175,176,177,178,179,180,181,182,183,184,185,186,187,188,189,190,191,192,193,194,195,196,197,198,199,200,201,202,203,204,205,206,207,208,209,210,211,212,213,214,215,216,217,218,219,220,221,222,223,224,225,226,227,228,229,230,231,232,233,234,235,236,237,238,239,240,241,242,243,244,245,246,247,248,249,250,251,252,253,254,255,256,257,258,259,260,261,262,263,264,265,266,267,268,269,270,271,272,273,274,275,276,277,278,279,280,281,282,283,284,285,286,287,288,289,290,291,292,293,294,295,296,297,298,299,300,301,302,303,304,305,306,307,308,309,310,311,312,313,314,315,316,317,318,319,320,321,322,323,324,325,326,327,328,329,330,331,332,333,334,335,336,337,338,339,340,341,342,343,344,345,346,347,348,349,350,351,352,353,354,355,356,357,358,359,360,361,362,363,364,365,366,367,368,369,370,371,372,373,374,375,376,377,378,379,380,381,382,383,384,385,386,387,388,389,390,391,392,393,394,395,396,397,398,399
主体,-0.07553599774837494,0.06279999762773514,-0.06612800061702728,-0.02123199962079525,0.03317999839782715,-0.03902500122785568,0.05078100040555,-0.16085800528526306,-0.15705600380897522,0.23800599575042725,-0.10006699711084366,-0.12881499528884888,-0.09176699817180634,-0.13112500309944153,0.05764999985694885,-0.009073000401258469,-0.2514660060405731,-0.1121629998087883,0.09528700262308121,-0.1128930002450943,-0.15062899887561798,-0.20181100070476532,0.17942799627780914,0.18056799471378326,0.03780899941921234,-0.020983999595046043,-0.09848199784755707,-0.11546400189399719,-0.01433200016617775,0.06429799646139145,-0.06369800120592117,0.01969599910080433,0.08014199882745743,0.2337310016155243,-0.10434400290250778,-0.0006309999735094607,-0.007038000039756298,0.005024999845772982,0.01482400018721819,0.09294699877500534,0.010645999573171139,-0.027739999815821648,-0.024404000490903854,-0.10225600004196167,-0.19438199698925018,-0.17690999805927277,0.04417499899864197,-0.2104170024394989,-0.09968599677085876,0.08264899998903275,0.020750999450683594,-0.0075969998724758625,-0.0790489986538887,-0.1454329937696457,0.01102800015360117,-0.051920998841524124,-0.04145900160074234,0.10509900003671646,-0.0023509999737143517,0.0621270015835762,0.1491049975156784,0.19924099743366241,0.03965799883008003,-0.03869900107383728,0.02315800078213215,-0.12435100227594376,-0.021741999313235283,-0.1784999966621399,-0.08959399908781052,-0.034547001123428345,-0.02589300088584423,0.10262099653482437,0.24351699650287628,-0.14270299673080444,0.11182600259780884,-0.31824401021003723,-0.07712399959564209,-0.08834099769592285,0.014546999707818031,0.03512199968099594,0.2712410092353821,-0.2019679993391037,0.12041500210762024,0.0584460012614727,-0.08931899815797806,0.0018779999809339643,0.0346359983086586,-0.11041399836540222,-0.12995800375938416,0.11636699736118317,-0.09328500181436539,-0.40021899342536926,0.012044999748468399,-0.10287299752235413,-0.08548499643802643,-0.1163259968161583,0.15925000607967377,0.12833699584007263,-0.023506000638008118,-0.05490899831056595,-0.0038330000825226307,0.07784800231456757,-0.15685899555683136,0.033378999680280685,0.15624000132083893,-0.04145200178027153,0.11090599745512009,0.10488300025463104,0.15090599656105042,-0.09469299763441086,0.1124109998345375,0.0686269998550415,0.07112400233745575,0.015007000416517258,0.14923399686813354,-0.04890900105237961,-0.12327700108289719,0.024814000353217125,0.005022000055760145,0.0559919998049736,-0.048781998455524445,0.13105300068855286,0.09572699666023254,0.033730000257492065,-0.3175249993801117,-0.25383999943733215,-0.24807700514793396,0.08115000277757645,-0.11067900061607361,0.006523000076413155,-0.06963100284337997,-0.3203279972076416,-0.189752995967865,0.02366800047457218,0.07794500142335892,0.09010600298643112,0.04612699896097183,-0.08718399703502655,0.12764599919319153,-0.07761699706315994,-0.24332299828529358,0.20888499915599823,0.21650899946689606,0.0014130000490695238,-0.2214139997959137,0.07319500297307968,-0.04478200152516365,0.1826770007610321,-0.16467000544071198,-0.11352500319480896,0.014918999746441841,0.02118000015616417,-0.010917999781668186,-0.29589200019836426,-0.2368910014629364,0.09836500138044357,-0.12161900103092194,0.012002999894320965,0.06906799972057343,0.04390000179409981,-0.08627299964427948,0.1875,-0.152319997549057,-0.16163299977779388,-0.044909000396728516,-0.07926400005817413,-0.22331100702285767,-0.03285500034689903,0.0773639976978302,-0.02058199979364872,0.1641629934310913,-0.06754499673843384,-0.073014996945858,-0.029590999707579613,0.15789100527763367,0.36583301424980164,0.011862999759614468,0.035666998475790024,-0.18225300312042236,-0.05404999852180481,-0.19693100452423096,-0.059755001217126846,0.05270500108599663,0.020709000527858734,-0.12933899462223053,0.0010079999919980764,0.0351720005273819,0.025358999148011208,0.0940530002117157,0.09751799702644348,-0.1098489984869957,-0.11222600191831589,0.027746999636292458,0.21842899918556213,0.043104998767375946,-0.01284400001168251,0.1300780028104782,0.011584999971091747,-0.19627900421619415,-0.1201929971575737,0.07694099843502045,0.1348550021648407,0.041425999253988266,0.08947800099849701,0.1633629947900772,-0.29990699887275696,-0.04931800067424774,-0.04538999870419502,-0.10294999927282333,-0.006407999899238348,-0.024070000275969505,-0.03784000128507614,0.019713999703526497,-0.018211999908089638,0.003587000072002411,-0.16512799263000488,-0.09375199675559998,-0.0982770025730133,0.07765600085258484,-0.23196500539779663,-0.19647400081157684,0.2620590031147003,0.15507100522518158,-0.07536300271749496,0.06451000273227692,-0.09201999753713608,-0.014875000342726707,-0.13970400393009186,0.16880600154399872,-0.04473499953746796,0.05496999993920326,-0.20059700310230255,-0.10860099643468857,0.06361400336027145,0.15791800618171692,-0.03900500014424324,0.015863999724388123,0.14737099409103394,-0.07905600219964981,0.021580999717116356,-0.013229000382125378,-0.05292600020766258,-0.2691900134086609,-0.10647200047969818,-0.1511940062046051,-0.04689199849963188,-0.1480640023946762,-0.16718900203704834,0.08220700174570084,-0.08481000363826752,0.13178999722003937,0.1886570006608963,-0.07700599730014801,-0.1932400017976761,-0.0669580027461052,-0.07718200236558914,0.046209000051021576,0.02144400030374527,-0.0761680006980896,0.10117600113153458,0.08095700293779373,0.05266600102186203,-0.09156599640846252,-0.02053700014948845,-0.15525299310684204,-0.14284400641918182,0.14284999668598175,0.03469900041818619,0.013092000037431717,-0.0592849999666214,-0.18341100215911865,0.09380900114774704,-0.1443440020084381,0.24294599890708923,0.17185799777507782,-0.11403200030326843,-0.21314099431037903,-0.02503800019621849,0.04157400131225586,-0.03878200054168701,0.10231299698352814,-0.012368000112473965,-0.07917500287294388,0.1300020068883896,-0.006676000077277422,-0.01286999974399805,-0.24327099323272705,-0.16284799575805664,0.10239499807357788,-0.1864670068025589,0.12010099738836288,-0.07676299661397934,-0.12609100341796875,0.06094200164079666,0.289777010679245,-0.12608499825000763,-0.21609899401664734,-0.15783999860286713,-0.09764699637889862,0.05215200036764145,0.06775300204753876,0.2295829951763153,0.035868000239133835,0.040862999856472015,-0.21386699378490448,0.019920000806450844,-0.07794299721717834,-0.03359000012278557,0.09822099655866623,-0.08247599750757217,0.01165200024843216,-0.06832800060510635,0.1465349942445755,-0.10883799940347672,-0.12472700327634811,0.13403399288654327,0.027501000091433525,0.14269199967384338,-0.21595799922943115,-0.3346169888973236,0.1647139936685562,0.46417900919914246,0.06497500091791153,0.11328999698162079,-0.2409690022468567,0.12021899968385696,-0.05408800020813942,0.00420599989593029,0.25120899081230164,-0.13816499710083008,-0.002208000048995018,-0.20362700521945953,-0.06347999721765518,-0.0015259999781847,0.019719000905752182,-0.014467000029981136,-0.09007299691438675,-0.15987500548362732,0.014457999728620052,-0.07570700347423553,-0.20573100447654724,0.018736999481916428,-0.037735000252723694,0.15284299850463867,-0.25478899478912354,0.20247399806976318,0.12763500213623047,0.04988599941134453,-0.07775299996137619,0.11933600157499313,-0.07164599746465683,-0.1796949952840805,0.1294270008802414,-0.22195099294185638,0.05349100008606911,0.11776299774646759,0.07484199851751328,0.14084500074386597,-0.011164999566972256,-0.0073910001665353775,-0.09632500261068344,-0.01608400046825409,0.11148999631404877,-0.007880999706685543,-0.031057000160217285,-0.011575999669730663,-0.15000100433826447,-0.3941429853439331,-0.17083099484443665,0.033055998384952545,-0.2011840045452118,-0.08579300343990326,0.008772999979555607,-0.17112599313259125,0.12981900572776794,-0.20920899510383606,0.12701299786567688,-0.20436100661754608,0.0042929998598992825,-0.2802320122718811,0.2515760064125061,0.12945400178432465,0.1567080020904541,0.04220300167798996,0.0598829984664917,-0.027773000299930573,0.05003200098872185,-0.09371399879455566,-0.11281599849462509,-0.0902940034866333,-0.1592250019311905,0.05747700110077858,-0.2615549862384796,0.06511499732732773,-0.20841099321842194,-0.020462999120354652,-0.15772999823093414,-0.09386099874973297,-0.10581400245428085,-0.04249100014567375
侧,0.01423600036650896,-0.19258500635623932,-0.019430000334978104,-0.13308100402355194,0.21832500398159027,0.025985000655055046,0.16247700154781342,0.037335000932216644,-0.02596599981188774,0.0957920029759407,0.03084000013768673,0.06168600171804428,-0.1713559925556183,-0.20300500094890594,-0.14295899868011475,-0.12605899572372437,-0.07132899761199951,0.1347150057554245,0.2793090045452118,0.20237599313259125,-0.04502499848604202,-0.3089500069618225,0.07009799778461456,0.05774199962615967,-0.15266500413417816,-0.13774700462818146,-0.42546799778938293,0.16957299411296844,-0.4275510013103485,0.46446898579597473,-0.12462200224399567,-0.04154599830508232,0.3039959967136383,0.0050119999796152115,0.039765000343322754,0.02416200004518032,0.04202299937605858,0.347790002822876,0.3966839909553528,0.25641700625419617,-0.10631400346755981,-0.3023799955844879,0.08395200222730637,-0.05327000096440315,0.047129999846220016,-0.3772610127925873,-0.05830100178718567,-0.027840999886393547,-0.017146000638604164,-0.10249499976634979,-0.022975999861955643,-0.24975399672985077,0.2333970069885254,0.04327100142836571,0.0005830000154674053,0.11370600014925003,-0.14902199804782867,0.15036000311374664,-0.11261100322008133,-0.0816819965839386,0.2501800060272217,0.06838999688625336,0.019161999225616455,0.018084999173879623,-0.3906489908695221,0.061657000333070755,-0.12680000066757202,0.16087299585342407,0.015153000131249428,0.17603699862957,-0.06288500130176544,0.26435598731040955,0.25665101408958435,0.018138999119400978,-0.1809699982404709,0.20993299782276154,0.28945499658584595,-0.0314750000834465,0.1155959963798523,-0.057551998645067215,0.10734999924898148,-0.23466899991035461,-0.32950499653816223,0.13960599899291992,-0.12162099778652191,-0.0021989999804645777,-0.08163399994373322,0.0019280000124126673,0.10356499999761581,0.26996201276779175,0.3108290135860443,0.17474600672721863,0.12251599878072739,-0.21005700528621674,0.05073700100183487,-0.29365798830986023,-0.08958899974822998,0.01126800011843443,-0.1492069959640503,0.28321099281311035,0.1421010047197342,0.33378100395202637,-0.10970199853181839,-0.03974800184369087,-0.0038660001009702682,0.2069309949874878,0.2466209977865219,0.003957999870181084,0.20403599739074707,-0.08338599652051926,-0.038975998759269714,-0.32751500606536865,-0.36983999609947205,-0.03137800097465515,0.08861800283193588,-0.17095200717449188,-0.17506399750709534,-0.008651000447571278,-0.06160400062799454,0.29952600598335266,-0.0003060000017285347,0.03999299928545952,0.15313099324703217,0.038325000554323196,-0.13095399737358093,0.09532800316810608,-0.1571809947490692,-0.16532400250434875,-0.3012790083885193,0.041861001402139664,0.20622199773788452,0.19990800321102142,0.3263700008392334,-0.14496299624443054,0.10809200257062912,0.1888349950313568,0.09213799983263016,-0.2053530067205429,0.08633100241422653,0.22021299600601196,-0.29860201478004456,-0.47620800137519836,0.33650699257850647,-0.1627350002527237,0.011624000035226345,0.09607700258493423,0.011525999754667282,0.08809799700975418,0.3372899889945984,-0.3997209966182709,0.29026299715042114,-0.22062599658966064,-0.030688999220728874,-0.17948099970817566,-0.06841900199651718,-0.038001999258995056,-0.21437999606132507,0.17879900336265564,0.3114050030708313,-0.08937299996614456,0.2870909869670868,0.052386000752449036,-0.11469700187444687,0.17756199836730957,0.0007350000087171793,-0.07204599678516388,0.09747699648141861,-0.13719899952411652,0.016256000846624374,0.10527800023555756,0.0338129997253418,-0.07329700142145157,-0.12429899722337723,-0.11413899809122086,0.07676400244235992,-0.21555200219154358,0.13524800539016724,-0.04769600182771683,0.010897999629378319,-0.019361000508069992,-0.06413400173187256,-0.05052400007843971,0.05855000019073486,0.0020039998926222324,-0.27595800161361694,-0.09606900066137314,-0.11993400007486343,-0.19966599345207214,-0.10538800060749054,-0.11083599925041199,0.05693100020289421,0.09974300116300583,-0.26524800062179565,0.09458500146865845,0.23069100081920624,0.08942800015211105,-0.24068200588226318,-0.4427570104598999,0.1809449940919876,-0.3126029968261719,0.15664400160312653,0.01459600031375885,-0.3672490119934082,0.24647000432014465,0.07366299629211426,-0.2104319930076599,-0.10354699939489365,0.21265999972820282,-0.09220899641513824,-0.3516339957714081,0.07699300348758698,-0.06126600131392479,-0.12458399683237076,0.19752199947834015,-0.33233800530433655,0.026489000767469406,-0.16296899318695068,-0.3062419891357422,0.2588059902191162,0.33479800820350647,0.0800430029630661,0.2573859989643097,-0.02597999945282936,-0.3405910134315491,-0.09369300305843353,0.14784899353981018,0.03277700021862984,-0.2930150032043457,-0.06064600124955177,0.36861899495124817,-0.21065600216388702,0.08668500185012817,0.15892399847507477,0.29279398918151855,-0.03353700041770935,0.037073999643325806,-0.0007999999797903001,0.13553300499916077,-0.34578800201416016,0.10765600204467773,-0.4503600001335144,-0.17274999618530273,0.28177499771118164,-0.3224110007286072,0.09056200087070465,-0.1358100026845932,-0.2601790130138397,0.2158229947090149,0.005805999971926212,-0.04938400164246559,0.25368601083755493,-0.20864999294281006,-0.15954500436782837,-0.15566900372505188,-0.15636800229549408,-0.4816550016403198,-0.038669999688863754,-0.03418099880218506,0.40602201223373413,-0.017903000116348267,0.15624600648880005,-0.030451999977231026,-0.12982699275016785,0.03233199939131737,-0.43091899156570435,-0.16457900404930115,-0.3439309895038605,0.4976060092449188,-0.19133900105953217,-0.06993500143289566,-0.29992300271987915,0.17702899873256683,-0.2457669973373413,-0.10139299929141998,-0.12370499968528748,0.1862179934978485,-0.1255439966917038,-0.23716500401496887,-0.20650599896907806,0.06162500008940697,0.007160999812185764,-0.35887300968170166,0.32839301228523254,-0.1957319974899292,-0.13317599892616272,0.005363000091165304,-0.1773969978094101,0.23100900650024414,0.055041998624801636,-0.17537300288677216,-0.04265899956226349,-0.4054279923439026,-0.4157539904117584,-0.13080599904060364,0.18438400328159332,-0.09885100275278091,-0.21082699298858643,-0.06052299961447716,0.13488399982452393,-0.11905200034379959,-0.0026489999145269394,0.09610699862241745,-0.19489000737667084,0.03555399924516678,0.04427700117230415,0.4455699920654297,-0.16667799651622772,0.020197000354528427,0.11533799767494202,0.1120539978146553,0.25679001212120056,0.01155299972742796,0.4574750065803528,0.24814599752426147,0.1393740028142929,-0.1206739991903305,0.22536499798297882,-0.15339499711990356,-0.1489419937133789,0.0845789983868599,0.11256299912929535,0.4238379895687103,0.42036300897598267,0.1880279928445816,0.06611700356006622,0.07390400022268295,0.20722900331020355,-0.1858389973640442,0.04373199865221977,0.14901499450206757,0.07626499980688095,-0.05919500067830086,0.002509000012651086,0.021717000752687454,-0.6649100184440613,0.330951988697052,-0.16511300206184387,0.10822200030088425,0.07340499758720398,-0.1813109964132309,0.014162000268697739,0.19640399515628815,0.05348299816250801,0.14591200649738312,-0.08955699950456619,0.24531899392604828,0.4250679910182953,-0.08074399828910828,-0.1667660027742386,-0.1270499974489212,0.4549880027770996,-0.1454170048236847,-0.017371999099850655,-0.05980699881911278,-0.03458100184798241,-0.1423960030078888,0.4801110029220581,-0.04993399977684021,0.13128699362277985,0.036076001822948456,0.14597399532794952,-0.1759980022907257,-0.38969698548316956,-0.11059500277042389,-0.08030500262975693,0.1671060025691986,-0.43929100036621094,-0.061420001089572906,-0.09575600177049637,-0.21187199652194977,-0.2729560136795044,-0.10487700253725052,0.39704200625419617,-0.4015749990940094,0.034345000982284546,-0.3279930055141449,-0.037122998386621475,0.1341239959001541,-0.07748299837112427,-0.138387992978096,0.28438299894332886,-0.04261799901723862,0.04679099842905998,-0.010389000177383423,-0.2091280072927475,0.22980700433254242,-0.22834299504756927,0.2970300018787384,-0.10860899835824966,0.14508000016212463,0.06269799917936325,-0.13213400542736053,-0.16699999570846558,0.3161199986934662,-0.00101500004529953,-0.004273000173270702,0.06482499837875366,-0.1786540001630783,0.23587800562381744,0.09519100189208984
织物,0.08770699799060822,0.2855220139026642,-0.05674999952316284,0.26224198937416077,-0.26515498757362366,-0.29912498593330383,-0.17217600345611572,-0.18324099481105804,0.0659089982509613,0.07820499688386917,-0.10815899819135666,0.007230000104755163,-0.22724999487400055,-0.16693100333213806,-0.13336299359798431,-0.02153800055384636,-0.1683109998703003,0.13863399624824524,0.21184700727462769,-0.2244960069656372,-0.059404000639915466,-0.23715299367904663,0.23292000591754913,0.03070399910211563,0.09580899775028229,0.15475399792194366,-0.21484999358654022,0.10566899925470352,-0.1973479986190796,0.07147900015115738,0.004916999954730272,-0.024452999234199524,0.14954300224781036,0.029983999207615852,-0.2365729957818985,0.13439500331878662,0.026593999937176704,0.25861701369285583,0.0883290022611618,0.12273699790239334,-0.20816700160503387,0.18826299905776978,-0.3463970124721527,-0.08736100047826767,0.10073400288820267,0.2135390043258667,0.017846999689936638,-0.18171599507331848,-0.19141800701618195,-0.3796199858188629,-0.20205099880695343,0.11695200204849243,0.36919400095939636,0.6611379981040955,-0.07681900262832642,0.16569699347019196,-0.11606699973344803,-0.25640401244163513,-0.22504599392414093,0.1527159959077835,0.26932498812675476,-0.17711299657821655,-0.32568201422691345,0.10628300160169601,-0.2615950107574463,0.2374269962310791,-0.11242199689149857,0.2961060106754303,0.23303699493408203,-0.1292169988155365,0.10556600242853165,0.19992400705814362,0.24246099591255188,0.20778200030326843,0.27216699719429016,-0.02438100054860115,0.36758899688720703,0.4731920063495636,0.08973299711942673,-0.07789400219917297,0.00022499999613501132,-0.2890560030937195,0.0832810029387474,0.24514800310134888,-0.36222898960113525,-0.09070199728012085,0.147830992937088,-0.28785601258277893,-0.2583029866218567,0.11214900016784668,0.012322000227868557,0.014018000103533268,-0.06562399864196777,0.5214890241622925,-0.3692089915275574,0.33766499161720276,0.33584100008010864,0.031259000301361084,-0.0510919988155365,-0.22283600270748138,-0.023646999150514603,0.008817000314593315,-0.01423100009560585,0.08749900013208389,0.269428014755249,-0.14515000581741333,0.15494200587272644,0.10165899991989136,0.2686389982700348,-0.17517900466918945,-0.15570999681949615,0.10170300304889679,0.09747999906539917,-0.00013600000238511711,0.2956230044364929,0.033514998853206635,0.18012699484825134,-0.19315700232982635,0.048399001359939575,0.23457500338554382,0.1549919992685318,-0.033167000859975815,0.4020729959011078,0.1125049963593483,-0.07168599963188171,-0.03096099942922592,-0.1288529932498932,-0.2998169958591461,-0.15440300107002258,-0.44827800989151,0.010254000313580036,-0.049612000584602356,-0.19879299402236938,-0.0596579983830452,0.26530399918556213,-0.23580899834632874,0.05126100033521652,-0.10031499713659286,-0.02114900015294552,0.06260599941015244,0.17871199548244476,-0.015581999905407429,-0.09384600073099136,-0.09780299663543701,0.06174999848008156,-0.04351300001144409,-0.3730739951133728,-0.2558389902114868,-0.026133999228477478,0.1274150013923645,-0.22450099885463715,-0.051683999598026276,0.003992999903857708,-0.14830699563026428,-0.07087399810552597,0.17114800214767456,0.2312909960746765,-0.16094200313091278,-0.30513298511505127,0.027860000729560852,-0.007524999789893627,-0.13922899961471558,0.2231370061635971,0.16248199343681335,0.04567300155758858,-0.26490500569343567,-0.11274900287389755,0.03926499933004379,0.0532739982008934,0.3625450134277344,0.27317899465560913,-0.2248540073633194,0.48604801297187805,0.0628499984741211,0.19170400500297546,0.037223998457193375,0.21684199571609497,0.1512490063905716,-0.1379529982805252,0.025839999318122864,-0.04551300033926964,-0.23668700456619263,0.12555299699306488,-0.0071829999797046185,-0.33357399702072144,-0.29647600650787354,-0.002247000113129616,-0.45934200286865234,-0.20408500730991364,-0.15903399884700775,-0.023535000160336494,-0.16391900181770325,-0.2268110066652298,0.010498999617993832,0.14324699342250824,-0.08606799691915512,-0.44615501165390015,0.0879800021648407,-0.48179200291633606,0.018564999103546143,-0.047015998512506485,0.07921499758958817,-0.10778900235891342,0.3551110029220581,-0.2619430124759674,-0.07496900111436844,-0.04238399863243103,0.1471399962902069,-0.25613000988960266,-0.013415000401437283,0.1271190047264099,-0.12281999737024307,-0.10611200332641602,0.016154000535607338,0.16768300533294678,0.11444900184869766,0.23823100328445435,0.002742999931797385,0.055438000708818436,0.1789419949054718,-0.4029810130596161,-0.08508100360631943,0.5099200010299683,0.21528099477291107,0.12375900149345398,0.2058899998664856,0.063960000872612,-0.1871899962425232,0.014223000034689903,0.06569600105285645,0.09956599771976471,-0.14256399869918823,0.030753999948501587,-0.28923898935317993,0.07128400355577469,0.3214370012283325,0.25347700715065,0.03960699960589409,-0.03405100107192993,-0.04577599838376045,0.031092999503016472,-0.031610000878572464,-0.04848099872469902,-0.16304300725460052,0.10631400346755981,-0.2156520038843155,-0.05760300159454346,-0.164000004529953,0.07790499925613403,-0.12219200283288956,-0.3044309914112091,0.4547649919986725,-0.2991029918193817,-0.026978999376296997,0.06787600368261337,0.2914299964904785,0.1435209959745407,-0.07134400308132172,0.3681049942970276,0.1518319994211197,-0.18017199635505676,0.2716050148010254,0.3955079913139343,-0.28022199869155884,-0.11754799634218216,0.20932799577713013,-0.15664400160312653,0.1497579962015152,0.03050599992275238,0.20196999609470367,-0.20665499567985535,-0.3989810049533844,-0.42359399795532227,-0.02697400003671646,-0.13944199681282043,0.036421999335289,0.12505899369716644,-0.17024800181388855,0.03921699896454811,-0.19302700459957123,-0.10948300361633301,-0.2991040050983429,0.28922900557518005,0.16942599415779114,-0.16180600225925446,-0.014937999658286572,-0.11815699934959412,-0.23057399690151215,0.1288740038871765,-0.11169400066137314,0.2343759983778,0.06659899652004242,-0.14090800285339355,0.026928000152111053,0.24377499520778656,-0.5618529915809631,-0.23091299831867218,0.07353100180625916,0.29149699211120605,-0.4140540063381195,-0.1274079978466034,0.28415900468826294,-0.09963499754667282,-0.17175300419330597,-0.3534039855003357,0.3051050007343292,-0.2828409969806671,-0.4484899938106537,0.060412000864744186,0.14067299664020538,-0.2379940003156662,-0.14323100447654724,-0.06214899942278862,-0.12620200216770172,0.16660399734973907,-0.12943099439144135,-0.006787999998778105,-0.20058299601078033,0.23075999319553375,0.25638899207115173,-0.16262300312519073,-0.14258000254631042,0.27014800906181335,0.4737899899482727,0.11490900069475174,-0.07476399838924408,-0.09075000137090683,0.14306199550628662,-0.39591100811958313,-0.008208000101149082,-0.29388201236724854,0.09753099828958511,-0.27154800295829773,-0.09040199965238571,-0.1433420032262802,-0.3865790069103241,-0.12949499487876892,-0.31296101212501526,0.0983470007777214,0.012311000376939774,0.2672080099582672,-0.1465590000152588,-0.24549800157546997,-0.07721299678087234,0.06381600350141525,0.23107300698757172,0.33755001425743103,0.39024999737739563,0.01482400018721819,0.10015799850225449,0.14540599286556244,-0.15045399963855743,0.18386399745941162,-0.10370499640703201,-0.32239198684692383,0.11788400262594223,-0.14533300697803497,0.1236179992556572,-0.011688999831676483,0.20502200722694397,-0.5056139826774597,0.39925500750541687,-0.1564980000257492,0.3464690148830414,-0.2114039957523346,-0.19488300383090973,0.10434599965810776,0.3917669951915741,-0.35631999373435974,-0.300711989402771,-0.0871879979968071,-0.23051899671554565,0.09334400296211243,-0.2184540033340454,-0.1625179946422577,0.21799999475479126,-0.0038920000661164522,-0.4956989884376526,-0.32106199860572815,0.5869060158729553,-0.4034990072250366,0.008407999761402607,0.06263799965381622,0.13845199346542358,0.4051640033721924,0.13008199632167816,-0.04441500082612038,-0.18403199315071106,0.08137699961662292,0.2610589861869812,0.07113000005483627,0.24049599468708038,-0.013628000393509865,-0.3106450140476227,0.10810600221157074,0.1567779928445816,0.06849899888038635,0.021144000813364983,0.005572000052779913,-0.16639499366283417
使该,-0.21618400514125824,0.057130999863147736,0.03300600126385689,-0.10262099653482437,0.28632399439811707,0.037519000470638275,0.1570969969034195,-0.07072599977254868,-0.06271500140428543,-0.031755998730659485,0.22978700697422028,-0.2844200134277344,-0.13989000022411346,-0.05743600055575371,-0.069023996591568,0.013907000422477722,0.10343199968338013,-0.07574299722909927,-0.14265699684619904,0.06937400251626968,0.12124799937009811,-0.037911999970674515,0.1664469987154007,-0.007189999800175428,-0.021648000925779343,0.10183499753475189,0.13061200082302094,-0.1854349970817566,0.0335329994559288,-0.183911994099617,-0.20118099451065063,-0.09455899894237518,0.033959999680519104,0.025103000923991203,-0.01793299987912178,0.026866000145673752,0.051601000130176544,-0.3701780140399933,-0.07473800331354141,0.16454799473285675,0.02948400005698204,-0.09251199662685394,-0.15816199779510498,0.15157799422740936,-0.03515499830245972,-0.011332999914884567,0.04933299869298935,-0.04569799825549126,-0.18596899509429932,0.06942000240087509,0.04958999902009964,0.06680600345134735,-0.02754800021648407,-0.06022199988365173,0.12371599674224854,-0.134224995970726,0.06614299863576889,-0.040137000381946564,0.011390999890863895,0.06314300000667572,-0.014282000251114368,0.04531000182032585,-0.034481000155210495,-0.014948000200092793,0.12397100031375885,-0.07190600037574768,0.10271699726581573,-0.0809750035405159,0.13390399515628815,-0.002420000033453107,-0.25841400027275085,0.2001670002937317,-0.1273300051689148,0.14779900014400482,0.017312999814748764,-0.2744089961051941,-0.03595399856567383,0.15936900675296783,-0.08726999908685684,-0.14870299398899078,0.12339100241661072,-0.2095790058374405,-0.08154500275850296,0.004515000153332949,0.012258999980986118,0.08011099696159363,0.027919000014662743,0.019146999344229698,-0.11491300165653229,0.13831700384616852,-0.16485899686813354,0.10353799909353256,0.22848400473594666,-0.06315500289201736,-0.10679399967193604,-0.0004769999941345304,0.033511001616716385,-0.05637799948453903,-0.04797599837183952,0.011770999990403652,0.018756000325083733,0.10790900141000748,0.09468500316143036,-0.031300999224185944,0.14977799355983734,0.036063000559806824,-0.21300700306892395,-0.047568999230861664,-0.11295399814844131,0.03724300116300583,-0.04150199890136719,-0.010083000175654888,0.004619999788701534,-0.10415399819612503,0.05126500129699707,-0.06837800145149231,0.2253199964761734,-0.05017700046300888,-0.16838900744915009,0.006593999918550253,-0.3155739903450012,-0.10858999937772751,-0.14274899661540985,0.03932100161910057,-0.021391000598669052,0.08975200355052948,0.11935299634933472,-0.08006899803876877,-0.004515000153332949,0.10184899717569351,0.2555609941482544,-0.18232400715351105,-0.020541999489068985,-0.20326100289821625,-0.01722400076687336,0.09586700052022934,-0.20407000184059143,-0.13717499375343323,-0.23086999356746674,0.08484599739313126,-0.023058999329805374,-0.11397299915552139,0.07359399646520615,-0.025763999670743942,-0.11205600202083588,0.0412059985101223,-0.10820499807596207,-0.05367099866271019,-0.07648500055074692,-0.12227600067853928,0.15564300119876862,-0.019876999780535698,-0.12567999958992004,0.012941000051796436,-0.0951630026102066,0.06770499795675278,-0.1310410052537918,0.004302999936044216,0.10840699821710587,0.03316099941730499,-0.0633779987692833,0.13179899752140045,-0.058802999556064606,-0.17851300537586212,0.025901999324560165,0.05323699861764908,-0.21126900613307953,-0.20061799883842468,-0.168831005692482,0.1909549981355667,0.13600799441337585,0.0519849993288517,0.16078299283981323,-0.1423249989748001,0.018657999113202095,0.12115799635648727,-0.1837179958820343,0.08212099969387054,-0.1006769984960556,-0.1956149935722351,-0.08360099792480469,-0.24090200662612915,-0.3238750100135803,0.023229999467730522,-0.1813270002603531,0.08302100002765656,0.1456030011177063,0.09603899717330933,0.3332349956035614,0.09849999845027924,0.04166100174188614,-0.13117100298404694,-0.13689400255680084,0.16023099422454834,-0.15023000538349152,-0.1780499964952469,0.11963199824094772,-0.054388001561164856,-0.20980699360370636,0.007002000231295824,-0.08531799912452698,0.14508500695228577,0.06490900367498398,0.15459899604320526,-0.2994590103626251,-0.3136579990386963,0.20977799594402313,-0.037615999579429626,-0.0277670007199049,0.037310998886823654,-0.09415200352668762,0.05684800073504448,-0.06819099932909012,0.05593099817633629,-0.019043000414967537,-0.005626999773085117,-0.023308999836444855,-0.10296999663114548,0.11208599805831909,-0.1049249991774559,0.014223000034689903,0.04136300086975098,0.21253299713134766,0.23145000636577606,0.008220000192523003,0.024320999160408974,0.11330900341272354,-0.07480599731206894,-0.1218319982290268,0.2802389860153198,-0.1585869938135147,0.09132499992847443,-0.10794100165367126,0.023886000737547874,0.1871889978647232,0.0005709999823011458,-0.1290760040283203,-0.027382999658584595,-0.19979600608348846,-0.049685999751091,0.06950599700212479,-0.14169800281524658,-0.3571470081806183,-0.1293489933013916,-0.05467800050973892,0.03558899834752083,0.061149001121520996,-0.1981630027294159,0.003378999885171652,-0.1425040066242218,0.005787999834865332,0.057735998183488846,0.0021329999435693026,0.22699999809265137,-0.11766199767589569,-0.16874699294567108,-0.03897799924015999,0.060554999858140945,0.07925000041723251,0.029680000618100166,0.0806260034441948,0.10219600051641464,0.03867200016975403,0.09657599776983261,-0.20628899335861206,-0.16035699844360352,0.13291800022125244,-0.052025001496076584,0.028377000242471695,0.03789599984884262,-0.3254849910736084,-0.018293999135494232,-0.06089299917221069,-0.06096399948000908,0.001310999970883131,-0.034085001796483994,0.06070899963378906,-0.1731799989938736,-0.08081900328397751,0.02627900056540966,-0.0946040004491806,-0.002616999903693795,-0.03942300006747246,-0.11416500061750412,0.04193900153040886,0.03605400025844574,0.02266800031065941,-0.26829999685287476,0.15173999965190887,0.2403309941291809,-0.09483899921178818,-0.10730999708175659,0.01710600033402443,-0.20867599546909332,0.10338699817657471,0.03938699886202812,-0.030236000195145607,0.023300999775528908,-0.09906300157308578,-0.005750000011175871,-0.05250899866223335,0.14571499824523926,0.35800901055336,-0.035287998616695404,0.11890300363302231,0.007877999916672707,0.034752000123262405,-0.16182300448417664,-0.23925499618053436,0.21333999931812286,-0.0480090007185936,-0.021834999322891235,-0.12017499655485153,0.04861599951982498,-0.044109001755714417,0.247857004404068,-0.12571999430656433,-0.11615400016307831,0.11579900234937668,-0.004728999920189381,0.0934009999036789,0.0213639996945858,-0.017653999850153923,0.010414999909698963,-0.12408600002527237,0.15519100427627563,-0.064519003033638,0.008024999871850014,-0.02191700041294098,-0.024630999192595482,0.2997890114784241,-0.2947559952735901,0.22947800159454346,-0.022702999413013458,0.13876299560070038,0.11618299782276154,-0.23440900444984436,-0.03645699843764305,0.1150979995727539,-0.04171700030565262,-0.034269001334905624,-0.04986700043082237,-0.10855399817228317,0.06272199749946594,0.004658999852836132,-0.19238300621509552,0.05206499993801117,0.1475210040807724,0.09998200088739395,0.18072199821472168,-0.03242399916052818,0.04275599867105484,-0.04589400067925453,0.17300699651241302,0.32151201367378235,-0.10997500270605087,-0.10820800065994263,0.025544000789523125,0.033525001257658005,0.1736609935760498,-0.06833100318908691,-0.020371999591588974,0.28129398822784424,-0.06889200210571289,-0.07510100305080414,0.015270000323653221,0.025474000722169876,-0.18612800538539886,-0.16897499561309814,-0.03320800140500069,-0.34461700916290283,-0.055326998233795166,0.16415099799633026,-0.11839400231838226,0.008422000333666801,0.009708999656140804,0.012688999995589256,0.017256999388337135,0.025307999923825264,0.05647300183773041,0.008716000244021416,0.12413199990987778,-0.08047399669885635,0.23045499622821808,0.21610799431800842,0.03641900047659874,0.0038219999987632036,-0.09833499789237976,-0.16429899632930756,0.015936000272631645,0.060332998633384705,0.03408300131559372,-0.1884949952363968,-0.103131003677845,0.05586500093340874,-0.04683399945497513,-0.06026399880647659,-0.05287199839949608,-0.06558799743652344,-0.18649999797344208
结构,-0.10387799888849258,0.19047999382019043,0.007884999737143517,0.23587100207805634,-0.07377900183200836,0.07393199950456619,0.12839099764823914,0.03238299861550331,0.02906000055372715,0.13836699724197388,0.10149600356817245,0.016200000420212746,-0.1070299968123436,-0.007094999775290489,-0.11910299956798553,-0.19546900689601898,-0.12357799708843231,-0.21452899277210236,0.06391900032758713,-0.07276500016450882,-0.11603400111198425,-0.1465959995985031,0.2909800112247467,0.041012998670339584,0.23337900638580322,-0.007526000030338764,-0.11818099766969681,-0.0301900003105402,0.009575000032782555,0.1315930038690567,-0.030402999371290207,-0.040251001715660095,0.08240500092506409,-0.08298499882221222,0.012647000141441822,0.08403600007295609,0.1283629983663559,-0.007619999814778566,-0.0037070000544190407,0.15565699338912964,-0.06659100204706192,0.07191099971532822,-0.055410001426935196,0.06673700362443924,-0.09569499641656876,-0.16024400293827057,-0.05352399870753288,-0.008918000385165215,-0.0827770009636879,-0.1192530021071434,0.08794700354337692,7.300000288523734e-05,0.04438700154423714,-0.05553999915719032,0.12155400216579437,-0.03711400181055069,-0.11902199685573578,0.020646000280976295,-0.12375099956989288,0.08680900186300278,-0.020339999347925186,0.09387099742889404,-0.19592000544071198,-0.03541199862957001,0.08448299765586853,0.04224099963903427,-0.15518200397491455,0.06519799679517746,0.12429399788379669,0.22128300368785858,-0.22972600162029266,-0.09946499764919281,0.24435199797153473,-0.14662499725818634,0.1324000060558319,-0.22610700130462646,0.1992730051279068,-0.15137599408626556,0.09254200011491776,0.03675999864935875,0.033163998275995255,-0.2429399937391281,-0.059425000101327896,0.0114139998331666,-0.10440299659967422,0.0020240000449121,0.05067700147628784,-0.07207699865102768,-0.02884400077164173,0.2591240108013153,0.02319600060582161,-0.154898002743721,-0.2189989984035492,-0.21241599321365356,-0.12033600360155106,-0.08506699651479721,-0.010367999784648418,-0.06106200069189072,-0.1591310054063797,0.08631599694490433,0.17983099818229675,0.12513099610805511,-0.09564000368118286,0.16106000542640686,0.0075079998932778835,-0.04838699847459793,-0.038256000727415085,0.1771019995212555,-0.11774300038814545,-0.15312400460243225,0.06698399782180786,-0.0015950000379234552,-0.12154600024223328,-0.12143900245428085,0.17367799580097198,-0.17521199584007263,-0.27675899863243103,-0.07982999831438065,-0.15218199789524078,0.02615799941122532,0.12071199715137482,0.09132900089025497,0.18736900389194489,-0.032283999025821686,-0.24444499611854553,-0.058079998940229416,-0.35445499420166016,0.21758699417114258,-0.3086960017681122,-0.04879999905824661,0.06468299776315689,-0.09585099667310715,-0.12592999637126923,-0.09738700091838837,-0.03620300069451332,0.15463599562644958,0.014392999932169914,-0.27619999647140503,-0.03669299930334091,-0.11776500195264816,-0.1912669986486435,-0.0454769991338253,0.2966899871826172,0.07730899751186371,-0.14033900201320648,0.008061000145971775,-0.15071600675582886,-0.030598999932408333,-0.15188799798488617,-0.24206799268722534,0.19924600422382355,-0.27371901273727417,-0.2247229963541031,-0.07770200073719025,-0.06662900000810623,0.18659499287605286,-0.045462001115083694,0.11180999875068665,0.04298900067806244,-0.09106600284576416,0.047242000699043274,-0.006324999965727329,-0.06456899642944336,-0.17736800014972687,-0.05916899815201759,-0.224262997508049,-0.06805700063705444,0.07549700140953064,-0.007368999999016523,-0.002234000014141202,-0.08775799721479416,0.06348499655723572,-0.20086100697517395,0.1490669995546341,-0.13011600077152252,0.003452999982982874,0.14226199686527252,0.10008999705314636,0.06135400012135506,-0.23638500273227692,-0.20663100481033325,-0.10427100211381912,-0.021681999787688255,0.25183698534965515,-0.12553399801254272,-0.009180000051856041,0.0924139991402626,-0.14368000626564026,0.24244199693202972,0.2101999968290329,0.060770999640226364,0.2329780012369156,-0.09478099644184113,0.1469620019197464,0.08917699754238129,-0.051709000021219254,0.05651700124144554,-0.23735499382019043,-0.29229098558425903,0.06762199848890305,0.0982460007071495,0.09869600087404251,0.011487999930977821,0.2658360004425049,-0.005394000094383955,-0.3262070119380951,0.10465600341558456,-0.12680600583553314,0.12814299762248993,-0.026153000071644783,0.03730100020766258,-0.15775400400161743,-0.02248300053179264,-0.015506000258028507,-0.0706230029463768,0.0812079980969429,-0.01689000055193901,-0.1977510005235672,0.2633419930934906,-0.31321901082992554,0.03158999979496002,0.07498600333929062,0.0373230017721653,-0.05232999846339226,-0.011938000097870827,-0.17496299743652344,0.042298998683691025,-0.1462630033493042,-0.03561199828982353,0.06908199936151505,-0.22721999883651733,-0.03407200053334236,-0.09256400167942047,-0.010352999903261662,0.19079400599002838,0.06291399896144867,0.00660100020468235,0.12742699682712555,-0.01472499966621399,0.06554099917411804,-0.034616000950336456,0.01232299953699112,-0.03248300030827522,-0.0879959985613823,-0.17198899388313293,-0.021201999858021736,-0.1073869988322258,-0.07915700227022171,0.004567000083625317,-0.09053800255060196,0.07756199687719345,0.19401000440120697,-0.3614419996738434,0.11694300174713135,-0.08389399945735931,-0.19610899686813354,-0.04224399849772453,-0.047467999160289764,0.10668499767780304,0.2253189980983734,-0.01129900012165308,0.00020199999562464654,0.042906999588012695,-0.16061000525951385,-0.19081799685955048,-0.09408800303936005,-0.01942799985408783,0.12352699786424637,-0.2818849980831146,-0.17748500406742096,-0.16217300295829773,-0.14891600608825684,-0.24388399720191956,0.2445569932460785,0.08282499760389328,0.0874750018119812,-0.18144600093364716,-0.246411994099617,0.024764999747276306,-0.0021730000153183937,0.0011739999754354358,-0.21557499468326569,-0.14358100295066833,-0.06771299988031387,0.004062999971210957,-0.11117299646139145,-0.004234000109136105,0.009685000404715538,0.024514000862836838,-0.2417439967393875,0.06337600201368332,-0.16319400072097778,-0.1178169995546341,-0.004133000038564205,0.13326899707317352,-0.10305000096559525,0.07445599883794785,-0.3130039870738983,-0.02558699995279312,0.02637699991464615,0.04400999844074249,0.35801199078559875,0.23281699419021606,-0.02539999969303608,-0.05590000003576279,-0.10066600143909454,-0.08584199845790863,-0.01934799924492836,-0.10924500226974487,-0.1992889940738678,0.07553000003099442,0.13243499398231506,0.1373700052499771,-0.2013929933309555,-0.05343399941921234,0.14123399555683136,-0.041687000542879105,0.10322300344705582,-0.12714000046253204,0.001554999966174364,0.0935870036482811,0.17427200078964233,0.2654849886894226,-0.014592999592423439,-0.07353100180625916,0.16568000614643097,-0.05539499968290329,-0.10043200105428696,0.005177999846637249,-0.20380300283432007,-0.01231599971652031,0.15119799971580505,-0.05559200048446655,-0.07869599759578705,-0.004102000035345554,-0.011467999778687954,-0.0591760016977787,-0.12193600088357925,-0.12757299840450287,-0.08956900238990784,0.022153999656438828,-0.01405400037765503,-0.013131000101566315,0.022577999159693718,-0.052035000175237656,0.10606499761343002,0.3076370060443878,0.00915099959820509,-0.131181001663208,0.1622290015220642,0.048183001577854156,-0.09982799738645554,0.026093000546097755,0.025178000330924988,0.23737700283527374,-0.024080999195575714,0.13921800255775452,0.10886599868535995,-0.18140800297260284,-0.15930700302124023,0.03172300010919571,-0.1193849965929985,0.07578399777412415,0.06995099782943726,-0.25532200932502747,0.15534600615501404,-0.22662299871444702,-0.4506779909133911,-0.17705799639225006,-0.09722600132226944,-0.26242899894714355,-0.24496200680732727,0.14813299477100372,-0.24658800661563873,-0.0341930016875267,-0.16801400482654572,0.14407500624656677,-0.31435298919677734,-0.14970499277114868,-0.22102999687194824,0.231345996260643,0.14876200258731842,-0.25106701254844666,-0.0675709992647171,-0.03264300152659416,0.12041699886322021,-0.13175800442695618,-0.06503300368785858,0.06751099973917007,0.018641000613570213,-0.19486300647258759,0.09323199838399887,-0.009050000458955765,0.11298800259828568,-0.11795900017023087,0.18568600714206696,-0.14773499965667725,-0.2097810059785843,0.04362399876117706,-0.17069600522518158
室,-0.023252999410033226,-0.028291000053286552,-0.11641199886798859,0.010010999627411366,-0.17396999895572662,0.2796039879322052,-0.05795300006866455,0.038642000406980515,0.2110919952392578,0.11225499957799911,-0.2767220139503479,0.23565000295639038,-0.049164000898599625,0.07058600336313248,0.08854100108146667,0.01790199987590313,-0.033681999891996384,-0.07559400051832199,-0.10327199846506119,-0.30329498648643494,-0.009193000383675098,0.02550400048494339,-0.005563999991863966,0.16090300679206848,-0.16451400518417358,0.0873199999332428,-0.23934300243854523,-0.05651099979877472,-0.26172301173210144,-0.0014750000555068254,0.2941240072250366,0.1415809988975525,-0.028975000604987144,0.01410400029271841,-0.12273900210857391,0.06383199989795685,0.032419998198747635,-0.15152500569820404,-0.32081401348114014,0.09463199973106384,0.09504800289869308,0.07529299706220627,0.21587400138378143,0.11037799715995789,0.11453399807214737,-0.29380398988723755,0.1597760021686554,-0.05134499818086624,-0.3825420141220093,0.050133999437093735,0.08009599894285202,-0.20416100323200226,-0.13090699911117554,0.15074999630451202,0.1372620016336441,0.24726499617099762,-0.3857179880142212,-0.15188199281692505,-0.08666300028562546,0.3435649871826172,-0.25751200318336487,0.2191859930753708,-0.009496999904513359,0.16493099927902222,-0.1576869934797287,-0.07410000264644623,0.16771200299263,-0.01960200071334839,0.15827399492263794,0.18496200442314148,0.2518469989299774,0.20988400280475616,0.16461700201034546,-0.11740999668836594,-0.008333999663591385,0.02131900005042553,0.22607900202274323,0.09198100119829178,0.07871700078248978,0.04713299870491028,-0.15702499449253082,-0.16290399432182312,0.056836001574993134,0.04967400059103966,0.04517899826169014,0.23570699989795685,0.06681200116872787,-0.051210999488830566,0.21451599895954132,-0.025590000674128532,-0.09446100145578384,-0.21316300332546234,0.16226699948310852,-0.24274800717830658,0.12304099649190903,-0.06701699644327164,-0.12264599651098251,-0.33801499009132385,0.04250900074839592,0.3508850038051605,0.005446999799460173,0.11931200325489044,0.008427999913692474,-0.26682499051094055,0.05448000133037567,-0.09915900230407715,-0.16739100217819214,-0.1287429928779602,0.11866500228643417,-0.0199350006878376,-0.07748500257730484,-0.19093500077724457,0.1412220001220703,-0.09587100148200989,0.2546910047531128,0.06751400232315063,0.12697100639343262,0.17647500336170197,0.09414400160312653,-0.09592600166797638,-0.3512420058250427,0.1246199980378151,0.03793900087475777,-0.007224000059068203,0.1393360048532486,0.06499899923801422,0.14910900592803955,-0.065932996571064,0.03748700022697449,0.1787099987268448,-0.1128000020980835,-0.2540630102157593,-0.017385000362992287,-0.0019480000482872128,0.13925200700759888,0.2050659954547882,-0.08413100242614746,-0.21563300490379333,-0.18414799869060516,0.140625,0.06872399896383286,-0.26993900537490845,0.0665379986166954,0.10601799935102463,-0.08361800014972687,-0.08894100040197372,0.07444500178098679,-0.07902699708938599,0.2312770038843155,-0.07111500203609467,-0.1903350055217743,0.020385000854730606,-0.046911001205444336,-0.00948300026357174,0.24418200552463531,-0.1416810005903244,0.05206599831581116,-0.10553199797868729,0.29825299978256226,-0.2990590035915375,0.028362000361084938,-0.1684260070323944,0.0630439966917038,0.1340249925851822,0.019850999116897583,-0.19867199659347534,-0.004362000152468681,-0.09321200102567673,-0.058549001812934875,0.04812899976968765,0.20640599727630615,0.02436700090765953,0.07440699636936188,-0.008488999679684639,-0.08787000179290771,-0.15933600068092346,0.18491800129413605,-0.04701099917292595,-0.13637499511241913,-0.059971000999212265,0.20388199388980865,-0.31085601449012756,-0.3615350127220154,0.1450989991426468,-0.1476919949054718,-0.10525599867105484,-0.13316699862480164,0.2767010033130646,0.18519100546836853,-0.034905001521110535,-0.08875799924135208,0.10312999784946442,0.17033399641513824,-0.27679601311683655,-0.08556299656629562,0.08053799718618393,-0.2525239884853363,-0.07595700025558472,0.15870900452136993,-0.1630679965019226,-0.1303589940071106,-0.5089750289916992,-0.05348699912428856,0.18624000251293182,0.174002006649971,0.032235998660326004,-0.3383699953556061,0.08189699798822403,0.1479959934949875,-0.2352139949798584,0.08040100336074829,0.012494999915361404,0.11478099972009659,0.08823800086975098,0.13769100606441498,-0.019571999087929726,0.019043000414967537,-0.11592499911785126,0.2064650058746338,0.05284399911761284,-0.17416200041770935,0.1602730005979538,-0.2040809988975525,-0.14913800358772278,-0.08464200049638748,0.002983999904245138,0.23180200159549713,0.12071400135755539,-0.15951399505138397,-0.10971099883317947,-0.1363150030374527,-0.1246270015835762,0.2393060028553009,0.24603399634361267,-0.27500200271606445,-0.10549300163984299,0.10644300282001495,0.18149900436401367,-0.17328999936580658,-0.08562900125980377,0.03154100105166435,0.040869999676942825,-0.17914800345897675,0.10113299638032913,0.12213200330734253,-0.17755499482154846,-0.13393299281597137,0.19024699926376343,-0.0943169966340065,-0.07391200214624405,-0.17501200735569,-0.07157699763774872,-0.20858700573444366,0.046344999223947525,0.0646589994430542,-0.1936430037021637,0.24494999647140503,-0.19346800446510315,0.04458700120449066,0.34380000829696655,0.2232159972190857,0.3202640116214752,0.0010189999593421817,-0.21013100445270538,-0.2228969931602478,-0.033681001514196396,-0.026843000203371048,0.21011200547218323,-0.046959999948740005,-0.24490900337696075,-0.20951099693775177,-0.2606309950351715,0.004077000077813864,0.12530499696731567,-0.20273500680923462,0.18095499277114868,-0.024003999307751656,-0.4025239944458008,0.34686800837516785,-0.16759799420833588,0.006111000198870897,-0.0353039987385273,-0.06449200212955475,-0.11842299997806549,-0.13363200426101685,0.15512099862098694,-0.2011290043592453,0.15115299820899963,-0.26072800159454346,-0.10762999951839447,-0.006395999807864428,0.08888799697160721,0.15989500284194946,-0.24950499832630157,0.21044300496578217,0.03607499971985817,-0.15288500487804413,0.21819299459457397,-0.09993000328540802,0.012130999937653542,-0.013751000165939331,0.09508000314235687,-0.06510999798774719,-0.16687799990177155,0.21597899496555328,0.1210860013961792,-0.21150599420070648,0.02284899912774563,0.20938099920749664,0.010617000050842762,0.015038999728858471,0.14473100006580353,-0.060812998563051224,0.31464099884033203,-0.11387600004673004,-0.1456660032272339,0.1784130036830902,0.21629300713539124,0.06151700019836426,0.12178599834442139,-0.23563799262046814,0.08639399707317352,0.42162200808525085,-0.06471599638462067,-0.2412710040807724,0.23132500052452087,0.016499999910593033,-0.17268599569797516,-0.022518999874591827,0.13303899765014648,-0.20528599619865417,0.19969899952411652,-0.032290998846292496,-0.0799729973077774,-0.3566820025444031,0.12088699638843536,-0.363768994808197,0.07401999831199646,0.023271000012755394,0.005200000014156103,0.28461501002311707,-0.14801999926567078,-0.1193540021777153,0.08799999952316284,-0.16760799288749695,0.051382001489400864,0.2770879864692688,0.024946000427007675,-0.48294299840927124,-0.3975130021572113,-0.488974004983902,0.07618699967861176,0.3594279885292053,-0.36947301030158997,0.3160940110683441,0.16278299689292908,0.08278200030326843,0.19654099643230438,-0.024821000173687935,-0.02840599976480007,-0.13293300569057465,0.06492400169372559,-0.0834830030798912,0.40953201055526733,0.05822800099849701,0.16010800004005432,-0.27076199650764465,0.09955699741840363,-0.14021700620651245,-0.32694798707962036,-0.19432200491428375,0.03633999824523926,0.1075970008969307,-0.2580989897251129,-0.08421800285577774,-0.4444440007209778,0.1077210009098053,-0.2634739875793457,0.10287000238895416,-0.15549400448799133,-0.20372599363327026,-0.16460999846458435,0.1648080050945282,-0.07742899656295776,0.20799799263477325,0.23184899985790253,0.15192100405693054,0.10597699880599976,-0.23018300533294678,-0.1980690062046051,0.22848999500274658,-0.1361979991197586,-0.03298399969935417,0.025925999507308006,-0.10530000180006027,-0.14911499619483948,0.26093900203704834,-0.0572660006582737,-0.17053699493408203,0.18102599680423737
内管,0.005499999970197678,0.08970700204372406,0.12163600325584412,0.05519900098443031,0.0540120005607605,-0.09617099910974503,0.11548300087451935,-0.08798900246620178,-0.03291900083422661,0.07444299757480621,-0.0234570000320673,0.02582699991762638,-0.004767999984323978,-0.1631069928407669,-0.02196500077843666,-0.17607200145721436,-0.0894239991903305,0.051405999809503555,-0.09272699803113937,-0.21492999792099,-0.006794999819248915,-0.1533699929714203,0.2246209979057312,0.030222000554203987,0.06962800025939941,0.01926499977707863,-0.10927099734544754,-0.13119299709796906,-0.1460230052471161,-0.052873000502586365,-0.013031999580562115,-0.038763001561164856,-0.016220999881625175,-9.100000170292333e-05,0.0227230004966259,0.12093199789524078,0.055918000638484955,0.05030899867415428,0.0032870001159608364,0.04877400025725365,0.03680900111794472,-0.012897999957203865,-0.25471600890159607,0.1724880039691925,0.10334499925374985,-0.14497900009155273,0.005989000201225281,-0.011667000129818916,-0.01424499973654747,-0.11266700178384781,0.023471999913454056,0.016090000048279762,0.07254300266504288,0.052765000611543655,0.0006469999789260328,-0.12158100306987762,-0.021174000576138496,-0.07011599838733673,-0.04177600145339966,0.11790800094604492,0.15193800628185272,0.10948900133371353,-0.06915099918842316,0.019892999902367592,0.03030399978160858,-0.03306800127029419,-0.046247001737356186,0.013392999768257141,0.17803500592708588,0.030581999570131302,-0.13255099952220917,-0.021069999784231186,-0.02224699966609478,-0.06733199954032898,0.008407999761402607,-0.1289689987897873,0.08039499819278717,0.0902009978890419,0.08495999872684479,0.018502000719308853,-0.07699599862098694,-0.07947000116109848,0.029465999454259872,-0.09859800338745117,-0.05221499875187874,-0.034015998244285583,-0.014062000438570976,0.08167500048875809,0.05217599868774414,-0.07866500318050385,0.11124499887228012,-0.08367300033569336,-0.15410499274730682,0.08293499797582626,-0.04145200178027153,-0.06071700155735016,0.01720600016415119,-0.10682100057601929,-0.06365200132131577,0.15401799976825714,0.07196100056171417,-0.07450799643993378,-0.15282300114631653,0.14364899694919586,0.09331200271844864,-0.07179900258779526,-0.08550599962472916,0.17056700587272644,-0.03184700012207031,-0.025185000151395798,-0.018188999965786934,0.10954800248146057,-0.06551200151443481,0.007302999962121248,0.15693899989128113,-0.09564799815416336,0.1399099975824356,-0.1266240030527115,-0.002644000109285116,0.10631699860095978,-0.031741999089717865,-0.08573099970817566,-0.06366600096225739,-0.02639699913561344,0.13815799355506897,0.025140000507235527,-0.07711400091648102,0.02654300071299076,0.05156800150871277,-0.059602998197078705,-0.030740000307559967,0.013522000052034855,-0.029921000823378563,0.04103099927306175,-0.0012499999720603228,0.060148000717163086,0.0007329999934881926,-0.012334000319242477,-0.14801399409770966,0.18994300067424774,-0.017149999737739563,-0.0031659998930990696,-0.15388800203800201,0.1651030033826828,0.021524999290704727,-0.07663500308990479,-0.17644700407981873,0.18784500658512115,-0.04241500049829483,-0.048427000641822815,0.015877999365329742,-0.09091400355100632,0.021376000717282295,-0.03497700020670891,0.03631399944424629,0.027868999168276787,-0.053672999143600464,-0.08545500040054321,0.05256099998950958,0.02413400076329708,-0.1315689980983734,-0.049612998962402344,-0.03979500010609627,-0.11335399746894836,-0.06816300004720688,0.004495999775826931,-0.030402999371290207,0.08526399731636047,0.060058001428842545,0.034501999616622925,0.020778000354766846,0.06772299855947495,-0.10830900073051453,0.024865999817848206,0.13608099520206451,0.07447300106287003,0.09460499882698059,0.08333399891853333,0.09972699731588364,0.12812800705432892,-0.07397300004959106,-0.08913099765777588,-0.09374299645423889,0.10671000182628632,-0.1714639961719513,-0.1422400027513504,0.24862700700759888,0.11031100153923035,0.04142000153660774,0.14742499589920044,0.08177100121974945,0.06783399730920792,-0.07004900276660919,-0.010888000018894672,-0.015886999666690826,0.007949000224471092,0.06214199960231781,-0.010118000209331512,-0.1583230048418045,-0.02241699956357479,-0.006190999876707792,0.02213899977505207,-0.19728200137615204,0.06588699668645859,-0.08863600343465805,-0.08590000122785568,0.24661900103092194,0.03373099863529205,0.014569000340998173,0.030998000875115395,-0.017992999404668808,0.013233000412583351,-0.1448660045862198,0.1341859996318817,0.07950200140476227,0.014183999970555305,0.07207900285720825,-0.2021459937095642,0.07926800101995468,0.09711500257253647,-0.030386000871658325,0.21139100193977356,0.028171999379992485,0.015022999607026577,-0.059443000704050064,0.26890701055526733,-0.02477799914777279,0.039997998625040054,-0.052476998418569565,0.09813900291919708,-0.12722299993038177,-0.06533999741077423,-0.07518800348043442,0.06779400259256363,0.17911000549793243,0.01537800021469593,-0.005812999792397022,0.02681799978017807,-0.05505499988794327,-0.08627799898386002,-0.09405799955129623,-0.02004699967801571,-0.02057100087404251,-0.17786699533462524,0.08951500058174133,0.004838999826461077,-0.15418000519275665,-0.07111699879169464,-0.10812400281429291,-0.17988599836826324,-0.0986810028553009,0.10998500138521194,-0.038238998502492905,0.13002599775791168,-0.0071749999187886715,-0.1473339945077896,-0.06149100139737129,-0.15928399562835693,0.13879799842834473,0.07851900160312653,1.2999999853491317e-05,0.03548099845647812,0.05499099940061569,0.019764000549912453,-0.003160000080242753,-0.2908490002155304,0.10677599906921387,0.050133999437093735,-0.1699099987745285,-0.12999500334262848,-0.0848269984126091,-0.18709999322891235,-0.04128099977970123,-0.007720999885350466,0.14776299893856049,0.1897449940443039,0.006047000177204609,0.02694600075483322,0.0558990016579628,-0.050825998187065125,-0.10372799634933472,-0.007447999902069569,0.13521400094032288,0.09241200238466263,-0.07532799988985062,-0.13494500517845154,0.0746769979596138,-0.01797799952328205,-0.016915999352931976,-0.16855600476264954,0.15336300432682037,-0.27275899052619934,-0.07065100222826004,-0.22287100553512573,0.12843799591064453,-0.05805499851703644,-0.14256399869918823,0.03275100141763687,0.055977001786231995,-0.1342719942331314,-0.022414999082684517,0.23121799528598785,0.1427219957113266,-0.20281200110912323,0.01764800027012825,0.12333100289106369,-0.22699099779129028,-0.028447000309824944,-0.06425599753856659,0.051840998232364655,0.12298399955034256,-0.0708099976181984,0.020872000604867935,0.07518099993467331,-0.02709300071001053,0.028485000133514404,0.006717999931424856,-0.025456000119447708,-0.09928999841213226,-0.08085600286722183,-0.034439001232385635,-0.04807300120592117,0.05200999975204468,-0.04400999844074249,-0.03895600140094757,0.019821999594569206,0.05590499937534332,0.08001700043678284,0.04498999938368797,0.09072499722242355,0.18407699465751648,0.04827500134706497,-0.17589500546455383,-0.1911890059709549,-0.00871300045400858,-0.06092200055718422,0.08695899695158005,-0.020527999848127365,-0.020515000447630882,-0.004538999870419502,0.02122499980032444,-0.17873899638652802,-0.1168380007147789,-0.13183900713920593,0.04326200112700462,-0.028423000127077103,0.1829259991645813,0.12492299824953079,0.024147000163793564,0.007439000066369772,-0.05281100049614906,0.11545799672603607,-0.06726200133562088,-0.022471999749541283,0.14848299324512482,-0.03302700072526932,0.02143000066280365,0.21567800641059875,0.1360500007867813,-0.14859600365161896,-0.16483600437641144,0.090208999812603,0.041196998208761215,0.042458001524209976,-0.1841759979724884,-0.07825800031423569,-0.13784800469875336,-0.04789799824357033,-0.1070299968123436,0.0018739999504759908,-0.10184600204229355,-0.1408499926328659,0.0614360012114048,-0.1474580019712448,-0.01620600000023842,-0.19331899285316467,-0.11801999807357788,-0.26796600222587585,0.06122500076889992,0.018431000411510468,-0.09181799739599228,0.10856900364160538,-0.0460520014166832,0.10806500166654587,-0.038492001593112946,0.020248999819159508,0.08435799926519394,0.09249000251293182,0.0348070003092289,-0.007567999884486198,-0.13521400094032288,0.22309599816799164,-0.1774909943342209,-0.08812200278043747,-0.04704400151968002,0.1500999927520752,-0.015682000666856766,-0.10080300271511078,0.02465599961578846,-0.04492399841547012
设置,-0.24219299852848053,-0.003386999946087599,-0.017250999808311462,-0.16090600192546844,0.027705000713467598,-0.06530000269412994,0.0937810018658638,0.13781599700450897,0.13665400445461273,0.0601079985499382,0.07525099813938141,-0.12111800163984299,0.05291000008583069,-0.1245419979095459,0.11925499886274338,-0.004226999823004007,-0.3014650046825409,0.14162400364875793,0.09326200187206268,0.15757599472999573,0.08017099648714066,-0.013817000202834606,0.013612000271677971,0.19095200300216675,0.05414700135588646,-0.1459379941225052,-0.2377530038356781,-0.028053000569343567,-0.13364499807357788,0.21267899870872498,0.17875799536705017,0.11381500214338303,0.3395810127258301,0.01704300008714199,-0.09262800216674805,-0.0408950001001358,-0.07787100225687027,-0.2195039987564087,-0.07176099717617035,0.17216500639915466,0.03164700046181679,-0.08211600035429001,0.03771800175309181,0.20202499628067017,-0.19272899627685547,-0.12656700611114502,0.21924400329589844,-0.044791001826524734,0.008449999615550041,-0.14957700669765472,0.009789000265300274,0.017400000244379044,-0.0628649964928627,-0.1464949995279312,0.09599100053310394,0.08431100100278854,-0.1522749960422516,-0.0880730003118515,0.08643899857997894,0.15208299458026886,-0.12092000246047974,-0.180417999625206,-0.15861399471759796,-0.0754380002617836,-0.13749900460243225,-0.09912899881601334,-0.01911799982190132,-0.09533199667930603,0.21074099838733673,0.009410999715328217,0.18221400678157806,0.08403699845075607,0.2560200095176697,-0.16892200708389282,0.22686800360679626,-0.07566600292921066,0.06780900061130524,-0.180308997631073,-0.04087800160050392,-0.10499999672174454,0.0073379999957978725,-0.04626699909567833,-0.05695300176739693,0.1267250031232834,-0.05477700009942055,0.14632700383663177,0.007319999858736992,0.0648529976606369,-0.08350999653339386,0.1390649974346161,-0.17472900450229645,-0.11455799639225006,0.03670400008559227,-0.02530200034379959,-0.024799000471830368,-0.1730480045080185,0.04098299890756607,0.021942000836133957,-0.11040099710226059,0.07857699692249298,0.23943200707435608,0.30651599168777466,0.1375190019607544,0.2032189965248108,0.024267999455332756,-0.0704910010099411,0.0729139968752861,-0.03860300034284592,0.14065299928188324,-0.08459299802780151,0.19492599368095398,0.016781000420451164,0.029968999326229095,-0.19666600227355957,0.12292499840259552,-0.17699900269508362,-0.07004199922084808,0.07158999890089035,-0.005303000099956989,-0.09079600125551224,0.07355599850416183,-0.04769200086593628,0.3420589864253998,0.029270999133586884,0.09280499815940857,-0.03990299999713898,-0.07219800353050232,-0.042128998786211014,-0.007999000139534473,0.16699600219726562,-0.007942000404000282,0.0266759991645813,-0.01119299978017807,0.11165499687194824,-0.009665999561548233,-0.06383699923753738,-0.004908999893814325,-0.024383999407291412,-0.136913001537323,0.2023800015449524,-0.10977499932050705,-0.1117509976029396,-0.0817210003733635,0.019968999549746513,-0.14014999568462372,-0.01069399993866682,-0.13897299766540527,-0.1719380021095276,0.010216999799013138,-0.10702600330114365,-0.06701900064945221,-0.21649900078773499,0.3285680115222931,0.1162090003490448,-0.11869800090789795,0.16008399426937103,0.010610000230371952,0.00811500009149313,0.11700300127267838,-0.33688101172447205,-0.19071799516677856,0.04253799840807915,0.12101700156927109,0.1592240035533905,-0.15244600176811218,0.04196999967098236,0.0058929999358952045,-0.23082199692726135,0.10821499675512314,0.08273199945688248,0.03282599896192551,0.005861999932676554,-0.1577250063419342,-0.12123899906873703,-0.021584000438451767,0.02925500087440014,0.04303300008177757,0.067330002784729,-0.11168599873781204,-0.16793300211429596,0.10984800010919571,-0.08254999667406082,0.1807740032672882,-0.062118999660015106,-0.09626299887895584,-0.15424099564552307,0.057976000010967255,-0.07269900292158127,0.0435510016977787,0.23272399604320526,0.1815900057554245,0.09914900362491608,0.011783000081777573,0.04378800094127655,-0.05028200149536133,0.021810000762343407,-0.19525299966335297,-0.024041999131441116,-0.3110620081424713,-0.04922199994325638,0.1218940019607544,-0.11207699775695801,0.1718209981918335,0.11335500329732895,0.3266980051994324,-0.4339419901371002,-0.022915000095963478,0.24120299518108368,0.09135500341653824,-0.3060469925403595,0.17890499532222748,-0.10893800109624863,-0.013252000324428082,0.14868299663066864,0.04461300000548363,0.14285099506378174,0.023669999092817307,-0.25714099407196045,0.13013699650764465,-0.07840800285339355,-0.07916499674320221,0.13832299411296844,0.233801007270813,-0.011157000437378883,0.1322679966688156,-0.12770700454711914,0.07618600130081177,-0.07867699861526489,0.01380900014191866,-0.15228499472141266,-0.13018600642681122,-0.15996600687503815,0.04286300018429756,0.3628160059452057,0.1316089928150177,-0.0020230000372976065,-0.02249399945139885,0.27586400508880615,-0.2019059956073761,-0.09580700099468231,-0.21956099569797516,-0.12138500064611435,-0.05606900155544281,0.06232300028204918,-0.03468199819326401,-0.0050570000894367695,-0.1314219981431961,-0.14954699575901031,0.015838999301195145,0.0008299999753944576,-0.04173799976706505,0.04731599986553192,0.1546269953250885,-0.11399699747562408,0.01685599982738495,-0.0054870001040399075,0.09171400219202042,-0.1942799985408783,0.05149099975824356,0.09930100291967392,-0.0744590014219284,0.13896900415420532,0.045333001762628555,-0.010821999981999397,-0.09602899849414825,-0.23184999823570251,0.004137999843806028,0.2003919929265976,0.05372599884867668,-0.04914899915456772,-0.0068060001358389854,0.17780199646949768,-0.030628999695181847,0.1661970019340515,0.1278340071439743,0.28681498765945435,-0.09423299878835678,0.0012649999698624015,-0.09825800359249115,0.09377399832010269,-0.12553200125694275,0.011013999581336975,0.028780000284314156,0.08418100327253342,-0.2381110042333603,-0.06743299961090088,-0.11106500029563904,-0.11270999908447266,0.07512100040912628,0.11179400235414505,-0.018712999299168587,-0.29552799463272095,-0.024949999526143074,0.06447000056505203,0.026784000918269157,0.024202000349760056,-0.18198099732398987,-0.10134600102901459,-0.06425099819898605,-3.999999989900971e-06,-0.1370069980621338,0.29740598797798157,0.060857001692056656,-0.06467799842357635,0.13082699477672577,0.22677700221538544,-0.3297649919986725,-0.19866499304771423,-0.1364150047302246,0.007613999769091606,0.035447001457214355,-0.16842299699783325,0.3384940028190613,0.06619399785995483,-0.12757200002670288,0.23801399767398834,-0.09294600039720535,-0.021340999752283096,-0.172885000705719,-0.11546900123357773,0.060867998749017715,-0.014960000291466713,0.24453499913215637,-0.03746199980378151,-0.00036100001307204366,0.15299999713897705,0.2295610010623932,-0.11073599755764008,0.00227600010111928,0.029503000900149345,-0.2344059944152832,0.029523000121116638,-0.041832998394966125,0.1633719950914383,-0.057294998317956924,0.17483900487422943,-0.08604100346565247,-0.0843610018491745,-0.08840099722146988,0.1386449933052063,-0.21788500249385834,0.12256599962711334,-0.08934199810028076,-0.03948400169610977,-0.11228100210428238,-0.0007719999994151294,0.2299100011587143,0.13965299725532532,-0.02387399971485138,-0.046581998467445374,-0.3276979923248291,-0.20399999618530273,0.011455000378191471,-0.06024400144815445,0.15821799635887146,0.01547900028526783,-0.0016220000106841326,0.21072900295257568,0.23059499263763428,-0.018782999366521835,-0.01076200045645237,-0.031863000243902206,-0.06780599802732468,0.025231000036001205,-0.021093999966979027,0.01281999982893467,-0.2746640145778656,-0.018681000918149948,-0.26636001467704773,-0.08741199970245361,-0.026381000876426697,-0.14244399964809418,0.21720099449157715,-0.19802600145339966,-0.11454100161790848,-0.1791680008172989,0.019254999235272408,0.1701429933309555,0.20169800519943237,-0.049810998141765594,0.07662300020456314,-0.026573000475764275,0.08296900242567062,0.07705199718475342,0.05678499862551689,-0.1337359994649887,-0.18575400114059448,0.10924600064754486,-0.23072600364685059,-0.05025799944996834,0.004534000065177679,0.005779999773949385,-0.09378000348806381,0.02805200032889843,0.03698199987411499,0.01682399958372116,-0.010920999571681023,-0.06812900304794312,-0.1664469987154007,0.1548209935426712
相交,0.042837001383304596,0.3069419860839844,-0.021568000316619873,-0.2818250060081482,0.06876599788665771,-0.02168099954724312,0.07953000068664551,-0.13340799510478973,0.273842990398407,0.20803199708461761,0.15420599281787872,-0.006597999949008226,-0.13792799413204193,0.16461700201034546,-0.06986799836158752,-0.13011999428272247,0.19646799564361572,0.24977099895477295,-0.16428500413894653,0.007096000015735626,-0.23395399749279022,0.004476999863982201,-0.005481000058352947,0.046613000333309174,-0.0795070007443428,-0.14235900342464447,0.1443610042333603,-0.16846199333667755,-0.2719379961490631,0.16766199469566345,-0.18172800540924072,-0.2095309942960739,-0.026859000325202942,-0.04307200014591217,0.16061300039291382,-0.2801539897918701,0.23508800566196442,0.06176700070500374,-0.017311999574303627,0.1488330066204071,0.059172000735998154,0.03263799846172333,-0.17643199861049652,0.05574600026011467,0.017875000834465027,-0.18289700150489807,0.004275999963283539,-0.14628000557422638,0.3938950002193451,0.10633700340986252,-0.3537119925022125,-0.02294199913740158,-0.27335700392723083,-0.017128000035881996,0.027935000136494637,-0.06730099767446518,0.19003500044345856,-0.07859499752521515,-0.17689299583435059,-0.1369439959526062,0.010820000432431698,0.12005099654197693,-0.060238998383283615,-0.0882750004529953,-0.4821609854698181,0.2063640058040619,0.07274200022220612,-0.21071499586105347,-0.06993500143289566,0.1772560030221939,-0.14111900329589844,0.35630398988723755,0.09468500316143036,-0.14981600642204285,0.02999899908900261,-0.24577400088310242,0.14782699942588806,0.2183080017566681,-0.19685499370098114,0.10097900032997131,0.06411200016736984,-0.3025070130825043,0.012666000053286552,-0.0010349999647587538,0.1329910010099411,0.058896999806165695,-0.06521700322628021,-0.15980300307273865,-0.26374199986457825,-0.03311900049448013,0.083856001496315,0.00020500000391621143,0.12115900218486786,0.1512400060892105,-0.1919569969177246,-0.10973100364208221,-0.006692000199109316,-0.13786399364471436,0.03271099925041199,-0.19166100025177002,0.05481399968266487,-0.03588100150227547,0.06665399670600891,-0.003536999924108386,0.007455999962985516,-0.18785500526428223,-0.03919599950313568,0.4206089973449707,-0.0103150000795722,0.18636000156402588,0.12028700113296509,0.0294950008392334,-0.09526100009679794,-0.09165400266647339,-0.12276600301265717,-0.28022900223731995,-0.20052100718021393,0.08138299733400345,-0.16696900129318237,0.151295006275177,-0.030734000727534294,0.005142999812960625,0.263280987739563,-0.04583299905061722,-0.2594810128211975,-0.02188500016927719,-0.04842500016093254,-0.033914998173713684,0.11607799679040909,0.006238000001758337,0.06508199870586395,0.23167499899864197,-0.012798000127077103,-0.10303899645805359,0.1955460011959076,0.12662699818611145,-0.09902500361204147,-0.10557900369167328,0.07985000312328339,0.2995389997959137,0.13059499859809875,0.20001499354839325,0.06739600002765656,0.21800200641155243,0.10180799663066864,0.042493999004364014,0.11549700051546097,-0.2626200020313263,-0.07080300152301788,0.19484299421310425,-0.12621699273586273,0.14702199399471283,0.22671200335025787,-0.2876240015029907,-0.24814799427986145,0.17490899562835693,-0.15843699872493744,-0.15167400240898132,0.08549699932336807,0.2670769989490509,-0.17995800077915192,-0.11984799802303314,-0.3736239969730377,-0.3342230021953583,0.06354399770498276,-0.02029000036418438,0.13758499920368195,-0.1921910047531128,-0.07700400054454803,-0.3415740132331848,-0.27932700514793396,0.13754400610923767,-0.17847700417041779,0.0027409999165683985,0.013055000454187393,-0.17678900063037872,-0.28657999634742737,0.11616600304841995,0.0516199991106987,0.4031200110912323,-0.06480500102043152,0.1520709991455078,0.08584900200366974,0.028192000463604927,-0.16176000237464905,0.16521699726581573,0.1317799985408783,0.029913999140262604,0.13348500430583954,0.08663199841976166,-0.3526409864425659,0.20481200516223907,0.03245199844241142,-0.18283599615097046,0.0732790008187294,-0.07020799815654755,-0.04485899955034256,0.20002500712871552,0.11510299891233444,0.4596860110759735,0.23467999696731567,0.13865399360656738,0.12045200169086456,0.1864279955625534,-0.32240599393844604,-0.10655800253152847,-0.14436399936676025,-0.08645900338888168,-0.061608001589775085,-0.015734000131487846,-0.029267000034451485,0.1725189983844757,-0.17403599619865417,0.21368199586868286,0.013472000136971474,0.34942299127578735,-0.0029869999270886183,-0.14602600038051605,0.21362100541591644,0.08479899913072586,-0.05249600112438202,0.0895799994468689,0.011327000334858894,0.14181199669837952,-0.028382999822497368,0.29189300537109375,0.051851000636816025,0.1276780068874359,-0.21661099791526794,0.1921820044517517,0.11280100047588348,-0.14876599609851837,0.1494860053062439,-0.029218999668955803,-0.02299400046467781,0.04127499833703041,0.025429999455809593,0.1391730010509491,0.09466099739074707,0.1483439952135086,-0.4166640043258667,0.08656100183725357,-0.19046199321746826,-0.3204300105571747,0.3782149851322174,0.0916379988193512,-0.21720999479293823,-0.2638849914073944,0.0436209999024868,-0.24379299581050873,-0.0590520016849041,0.11578500270843506,0.21874499320983887,-0.08427999913692474,0.15270699560642242,-0.057270001620054245,-0.11246699839830399,-0.34121501445770264,-0.24077899754047394,0.18625099956989288,-0.2417130023241043,-0.1401659995317459,0.17152099311351776,-0.18289099633693695,-0.03819900006055832,-0.06791699677705765,-0.22366900742053986,0.32003700733184814,-0.2377920001745224,-0.03449400141835213,-0.03104499913752079,-0.09629300236701965,-0.24646499752998352,0.023617999628186226,-0.11377199739217758,0.03255100175738335,-0.01256600022315979,0.05088600143790245,-0.03452499955892563,0.09240499883890152,-0.10762300342321396,0.04973100125789642,-0.026778999716043472,-0.14978699386119843,0.2656239867210388,0.0013909999979659915,0.10136500000953674,0.0009169999975711107,0.2765269875526428,0.16537199914455414,0.23974399268627167,-0.47365298867225647,0.10056199878454208,-0.12044800072908401,0.22831299901008606,-0.2756139934062958,0.15570199489593506,-0.29239100217819214,-0.05685000121593475,-0.02058899961411953,0.04154299944639206,0.1382099986076355,0.13767600059509277,-0.06273099780082703,0.018448999151587486,0.5310140252113342,0.08339300006628036,0.27745598554611206,-0.03174100071191788,-0.2515619993209839,-0.010320999659597874,-0.14907999336719513,-0.30226200819015503,0.2210260033607483,-0.08277600258588791,-0.028481999412178993,0.026241999119520187,0.05197799950838089,-0.11617200076580048,-0.23914000391960144,0.0907829999923706,0.08840300142765045,-0.12383300065994263,0.1544249951839447,0.12258200347423553,-0.013644999824464321,-0.09887299686670303,0.15855500102043152,-0.15432099997997284,-0.000539999979082495,-0.002836999949067831,0.0787310004234314,-0.28079700469970703,-0.044318001717329025,-0.04359399899840355,0.0776899978518486,0.22544200718402863,0.029569000005722046,0.02195899933576584,-0.055282000452280045,0.0035170000046491623,-0.008647000417113304,0.03162999823689461,-0.12655900418758392,0.1401280015707016,-0.25829198956489563,0.2312680035829544,0.1513880044221878,-0.020356999710202217,-0.009451000019907951,-1.8000000636675395e-05,0.042642999440431595,-0.21083800494670868,0.18310800194740295,-0.15131999552249908,-0.3262520134449005,0.14308999478816986,0.33020201325416565,-0.03968000039458275,0.31786999106407166,0.2634269893169403,-0.08325500041246414,0.14386700093746185,0.35763999819755554,-0.11018200218677521,-0.11573600023984909,-0.07359199970960617,0.20796500146389008,-0.3494279980659485,-0.21954800188541412,-0.10708999633789062,0.05047500133514404,0.17770099639892578,-0.5155839920043945,0.05291299894452095,-0.10669499635696411,0.14375099539756775,-0.002761000068858266,0.35881200432777405,0.08222799748182297,0.2196269929409027,0.19126200675964355,0.060416001826524734,0.09326399862766266,-0.24646900594234467,0.3195050060749054,0.05143300071358681,0.3882260024547577,-0.23245500028133392,-0.38054999709129333,-0.02964700013399124,0.1952199935913086,-0.10265400260686874,-0.1797800064086914,-0.2883000075817108,-0.1586579978466034,-0.04718700051307678,-0.1720770001411438,-0.15880799293518066,-0.11844100058078766
延伸,-0.18801100552082062,0.04947099834680557,0.09835100173950195,0.050673000514507294,0.2714489996433258,-0.10579600185155869,-0.27337199449539185,-0.2304150015115738,-0.0025760000571608543,0.03235900029540062,0.028862999752163887,0.041110001504421234,0.01720700040459633,-0.018501000478863716,-0.041923001408576965,-0.06413400173187256,-0.05597500130534172,-0.13098299503326416,0.011668999679386616,0.181660994887352,-0.11137200146913528,0.06331799924373627,-0.18961499631404877,0.11705300211906433,0.025730999186635017,-0.07632900029420853,0.0032599999103695154,-7.599999662488699e-05,0.11385300010442734,-0.03777800127863884,0.09411399811506271,-0.15589100122451782,0.05952699854969978,0.05412000045180321,-0.28928500413894653,-0.13108499348163605,0.0954969972372055,0.11768700182437897,-0.06260400265455246,0.3625600039958954,0.05299999937415123,-0.19979700446128845,-0.18033599853515625,0.08965899795293808,-0.05723699927330017,-0.17581099271774292,0.2860809862613678,-0.04776899889111519,-0.07041200250387192,-0.1392810046672821,-0.06270000338554382,0.12445700168609619,0.039535000920295715,-0.23456299304962158,-0.09320899844169617,0.09516499936580658,0.05815799906849861,0.05215499922633171,-0.14344799518585205,0.215721994638443,0.02592400088906288,0.1613679975271225,-0.2400750070810318,0.00609100004658103,0.056324999779462814,-0.01338099967688322,0.03636699914932251,-0.1533679962158203,0.07336100190877914,-0.12403900176286697,-0.009038999676704407,0.06321299821138382,-0.14337100088596344,-0.15988600254058838,0.022305000573396683,-0.06679700314998627,-0.07352600246667862,-0.04580499976873398,-0.0018080000299960375,0.1254969984292984,0.1910810023546219,-0.03976299986243248,-0.16635100543498993,-0.10718300193548203,0.11275999993085861,-0.09818600118160248,-0.09097699820995331,-0.34811800718307495,0.3204460144042969,0.061041999608278275,0.29312801361083984,-0.13844500482082367,-0.1655460000038147,-0.019138000905513763,0.13220000267028809,-0.040619999170303345,-0.17273400723934174,-0.16087700426578522,-0.08296699821949005,0.16495999693870544,-0.03961800038814545,-0.217630997300148,0.1791590005159378,-0.08719799667596817,-0.1286109983921051,0.058416999876499176,-0.06554599851369858,0.18031099438667297,-0.07254400104284286,0.057062000036239624,0.08846200257539749,-0.02912599965929985,-0.09546300023794174,0.18762999773025513,-0.2627669870853424,-0.12925800681114197,-0.15903900563716888,-0.05249200016260147,-0.017184000462293625,-0.014922999776899815,-0.03371400013566017,0.07321500033140182,0.2639400064945221,0.07359199970960617,-0.15864700078964233,0.08466000109910965,-0.24720199406147003,0.09899400174617767,-0.04683300107717514,-0.11979600042104721,0.0069519998505711555,0.08579300343990326,0.30997100472450256,0.11117099970579147,0.10551799833774567,-0.04281499981880188,-0.06985899806022644,-0.11588899791240692,-0.087909996509552,0.0548349991440773,0.20488199591636658,-0.36619699001312256,0.11182399839162827,0.4099220037460327,0.2279829978942871,-0.038701001554727554,0.24342000484466553,-0.055702999234199524,-0.1707330048084259,-0.28253400325775146,0.09334799647331238,-0.2795340120792389,-0.019985999912023544,-0.036587998270988464,-0.4011960029602051,0.21800899505615234,-0.25828298926353455,-0.11628899723291397,0.07181999832391739,-0.12746700644493103,-0.10042600333690643,0.20014800131320953,-0.2337699979543686,-0.22918400168418884,-0.1168380007147789,-0.18530499935150146,0.053881000727415085,-0.00076299998909235,-0.11509499698877335,0.11307600140571594,-0.21187399327754974,0.24922500550746918,0.14609700441360474,0.07664000242948532,-0.10887300223112106,-0.092010997235775,0.09237799793481827,0.056067999452352524,0.08426400274038315,-0.03359900042414665,0.11290600150823593,-0.1908469945192337,-0.018660999834537506,-0.1634950041770935,-0.08171500265598297,0.055723000317811966,0.08184900134801865,-0.13376900553703308,0.1850620061159134,0.11463899910449982,0.019175000488758087,-0.15449300408363342,0.0461140014231205,0.07089299708604813,-0.19882899522781372,-0.2140119969844818,0.0007350000087171793,-0.11629600077867508,-0.004147000145167112,0.2181449979543686,-0.046278998255729675,0.01756400056183338,-0.11774899810552597,0.21164999902248383,-0.1638139933347702,-0.09752199798822403,0.13183100521564484,0.01815200038254261,-0.04987499862909317,-0.18978600203990936,0.2193470001220703,-0.039879001677036285,-0.05313599854707718,0.08677200227975845,-0.25447699427604675,0.03597800061106682,0.21255899965763092,-0.009277000091969967,-0.038203999400138855,-0.12665699422359467,0.02511500008404255,0.050540000200271606,0.12289000302553177,0.05405300110578537,-0.05675100162625313,0.07475999742746353,-0.009042000398039818,-0.07180500030517578,0.18295599520206451,-0.1701209992170334,-0.06138800084590912,-0.11619400233030319,-0.2558499872684479,-0.09090299904346466,0.06724300235509872,-0.13462699949741364,0.1338289976119995,-0.018140999600291252,0.1888280063867569,0.06587100028991699,0.0920799970626831,-0.11037600040435791,-0.1748179942369461,-0.2620820105075836,0.013376999646425247,0.06662199646234512,-0.1863979995250702,0.16449999809265137,0.01537800021469593,0.08590500056743622,0.13114799559116364,0.21923500299453735,-0.01655600033700466,-0.08300500363111496,-0.05983699858188629,-0.053766001015901566,-0.1942709982395172,0.053564999252557755,-0.09888199716806412,-0.07336799800395966,0.10208600014448166,0.0354669988155365,-0.09519200026988983,-0.39840200543403625,0.34274399280548096,-0.12342800199985504,-0.09666900336742401,-0.14980599284172058,0.05908700078725815,0.11226899921894073,0.03692600131034851,0.07426100224256516,-0.07750499993562698,-0.03359200060367584,0.19224700331687927,0.2629140019416809,-0.252020001411438,-0.011349000036716461,-0.04719800129532814,-0.16049499809741974,-0.11448000371456146,-0.2337300032377243,0.09668300300836563,0.008684000000357628,-0.18961599469184875,-0.04861599951982498,0.2775999903678894,0.02294600009918213,-0.04618600010871887,0.2114430069923401,0.11645299941301346,-0.16073399782180786,-0.06729099899530411,-0.12514400482177734,-0.11913999915122986,-0.25293898582458496,0.08322799950838089,-0.3467699885368347,-0.16859599947929382,0.23628999292850494,-0.043650999665260315,-0.02508299984037876,0.027706999331712723,-0.2169950008392334,0.16527099907398224,0.30505499243736267,0.11128199845552444,0.15132899582386017,-0.09005899727344513,-0.03649299964308739,-0.05243900045752525,0.11809899657964706,-0.1239510029554367,0.10537199676036835,-0.2981700003147125,0.05448399856686592,-0.09682799875736237,0.09993699938058853,-0.029851000756025314,0.0734729990363121,0.11997199803590775,0.29653400182724,-0.016208000481128693,-0.21208499372005463,0.29129400849342346,0.1181349977850914,0.25030601024627686,-0.12313500046730042,-0.02918899990618229,-0.13943199813365936,0.07489699870347977,0.03239699825644493,-0.13357700407505035,0.19211800396442413,-0.12626099586486816,0.1910730004310608,-0.0311879999935627,0.21567299962043762,-0.10839299857616425,0.12215600162744522,0.06782200187444687,0.07845500111579895,0.0724719986319542,0.031638000160455704,-0.13871599733829498,-0.10902799665927887,-0.10385999828577042,0.14978599548339844,-0.029146000742912292,-0.20940199494361877,-0.05345499888062477,-0.07798399776220322,0.2414499968290329,0.1603669971227646,0.0782179981470108,-0.0700950026512146,-0.13004900515079498,0.253356009721756,-0.015070999972522259,-0.011986000463366508,0.10004200041294098,0.06139200180768967,-0.211899995803833,0.17570899426937103,-0.03221699967980385,-0.029146000742912292,0.07130999863147736,0.20944400131702423,-0.05826700106263161,0.01963300071656704,-0.25145798921585083,0.12393800169229507,-0.12338799983263016,-0.050443001091480255,0.029772000387310982,-0.24037499725818634,0.14397799968719482,0.006415999960154295,-0.015155999921262264,0.08053000271320343,-0.16790799796581268,0.0958079993724823,-0.056418001651763916,-0.013136999681591988,0.08481500297784805,-0.07542099803686142,0.09996599704027176,-0.3607189953327179,0.09273400157690048,-0.024734999984502792,0.038683000952005386,0.04419200122356415,0.2743209898471832,-0.1980160027742386,0.024656999856233597,0.09806200116872787,0.15667599439620972,-0.17899000644683838,0.057735998183488846,0.048872001469135284
使,-0.0446229986846447,-0.023435000330209732,0.09886299818754196,-0.0533440001308918,0.11155299842357635,-0.0004070000140927732,0.14585499465465546,0.09240999817848206,-0.09372899681329727,-0.05056700110435486,0.0881040021777153,-0.030466999858617783,0.08080700039863586,-0.0047599999234080315,-0.002669000066816807,0.023653000593185425,-0.07487300038337708,0.020036999136209488,-0.06603600084781647,-0.11282700300216675,0.1351429969072342,-0.05563399940729141,0.001269000000320375,0.046939998865127563,-0.049229998141527176,0.04913000017404556,0.07429800182580948,-0.07538799941539764,0.024538999423384666,0.017319999635219574,-0.042805999517440796,0.1379300057888031,0.06315899640321732,-0.16177499294281006,-0.0007740000146441162,0.04408400133252144,0.04230500012636185,-0.1879359930753708,0.09263499826192856,0.11978600174188614,0.008634000085294247,-0.07905100286006927,-0.07077399641275406,0.09388899803161621,-0.12026699632406235,-0.0189410001039505,0.0005859999801032245,0.0450269989669323,-0.035829998552799225,-0.02035900019109249,0.04622400179505348,-0.019200999289751053,0.037494998425245285,-0.0746230036020279,0.06291700154542923,0.06573300063610077,0.014871999621391296,-0.05189099907875061,0.1359120011329651,0.15813900530338287,0.06804099678993225,-0.009974000044167042,-0.040192000567913055,-0.017518000677227974,-0.020044999197125435,-0.0745140016078949,-0.08257400244474411,0.04048699885606766,0.16505299508571625,-0.04329400137066841,-0.11879000067710876,-0.008187999948859215,0.00445100013166666,0.14306899905204773,-0.011730000376701355,-0.13232199847698212,0.0018680000212043524,0.05646499991416931,-0.035464998334646225,-0.09513500332832336,-0.09610600024461746,-0.11591999977827072,6.399999983841553e-05,0.024042999371886253,-0.019051000475883484,0.053706999868154526,0.058837998658418655,0.013422000221908092,-0.03477700054645538,-0.006994000170379877,0.06448899954557419,-0.04882499948143959,0.034605998545885086,-0.02187800034880638,-0.07400800287723541,-0.14266100525856018,-0.02231699973344803,0.044495001435279846,-0.047773998230695724,0.02369300089776516,-0.004124999977648258,-0.056092001497745514,-0.07008499652147293,0.07579699903726578,-0.05666299909353256,0.09288699924945831,-0.05316200107336044,-0.1449970006942749,0.11909099668264389,-0.03365800157189369,0.03184400126338005,0.01066100038588047,0.0763159990310669,0.050755999982357025,-0.0006200000061653554,-0.18838199973106384,0.028111999854445457,0.0013150000013411045,-0.0830719992518425,-0.07519800215959549,-0.04185900092124939,0.1016170009970665,-0.11325599998235703,-0.09962999820709229,0.042743001133203506,0.1181040033698082,-0.02342900075018406,-0.0505170002579689,0.07899300009012222,0.032255999743938446,0.05208100005984306,0.0927949994802475,0.07413599640130997,-0.06437700241804123,-0.015564000234007835,0.1314699947834015,-0.02733200043439865,-0.052195001393556595,-0.16960999369621277,-0.034589000046253204,-0.03495800122618675,-0.0692719966173172,-0.16107100248336792,-0.1388069987297058,-0.04632300138473511,0.06035200133919716,-0.05657900124788284,0.10374400019645691,-0.05787200108170509,-0.06088399887084961,0.047155000269412994,-0.025485999882221222,-0.040052998811006546,-0.03621400147676468,0.02180499956011772,-0.033705998212099075,-0.059154998511075974,-0.06660600006580353,0.05824200063943863,-0.03466600179672241,-0.11786399781703949,-0.00035200000274926424,-0.013038000091910362,-0.04585599899291992,0.1104860007762909,0.025498000904917717,0.11164899915456772,0.00431900005787611,-0.0850759968161583,-0.07636299729347229,-0.10774800181388855,0.09047199785709381,-0.06941000372171402,-0.051003001630306244,0.006506000179797411,-0.029030999168753624,-0.0954350009560585,0.06161800026893616,0.0316770002245903,-0.013624999672174454,0.111735999584198,-0.051851000636816025,-0.027545999735593796,0.07543499767780304,-0.0030429998878389597,0.03568200021982193,0.11667799949645996,0.17348900437355042,0.18308700621128082,0.03698800131678581,0.025560999289155006,-0.09409099817276001,-0.0611100010573864,0.07378099858760834,0.03294000029563904,-0.09980800002813339,0.040389999747276306,-0.002193999942392111,-0.05421600118279457,-0.05587900057435036,0.17173899710178375,0.12503400444984436,0.014174999669194221,0.03334299847483635,-0.2272379994392395,-0.1305769979953766,0.0032969999592751265,-0.022540999576449394,0.0026650000363588333,-0.04099699854850769,0.05086899921298027,-0.07306600362062454,-0.04275200143456459,-0.009007999673485756,0.09687899798154831,0.006556999869644642,0.01745700091123581,-0.14031299948692322,0.026798000559210777,-0.11112099885940552,0.016332000494003296,0.00455200020223856,0.037264999002218246,-0.01566700078547001,-0.08666499704122543,-0.0641079992055893,0.057013001292943954,0.015990000218153,0.05087700113654137,0.12487299740314484,-0.1831350028514862,0.12551400065422058,-0.12514300644397736,0.09799700230360031,0.06662900000810623,-0.002059000078588724,-0.028193999081850052,0.0955130010843277,-0.14549100399017334,-0.16837599873542786,-0.08741699904203415,-0.07479199767112732,-0.19880199432373047,0.03965900093317032,-0.09924899786710739,0.04096300154924393,0.025642000138759613,-0.014774000272154808,0.07605800032615662,0.004786999896168709,0.06926000118255615,-0.024483000859618187,-0.17591899633407593,0.06457199901342392,-0.026782000437378883,-0.07231999933719635,0.01377199962735176,0.0974470004439354,0.1471319943666458,0.044794999063014984,0.033323001116514206,0.17598499357700348,0.100211001932621,-0.038343001157045364,0.009557000361382961,0.06096300110220909,0.027187999337911606,-0.030122000724077225,-0.018485000357031822,-0.024984000250697136,-0.07057300209999084,-0.07814999669790268,0.06341800093650818,0.003957999870181084,-0.019593000411987305,0.0013879999751225114,-0.14928600192070007,-0.02350500039756298,-0.08714299649000168,0.01793299987912178,0.09968700259923935,0.11112099885940552,0.14007799327373505,0.017729999497532845,0.13087399303913116,-0.00029299999005161226,0.09300699830055237,0.05305900052189827,0.06096699833869934,0.056550998240709305,0.23436999320983887,-0.0710809975862503,-0.02132299914956093,-0.0822179988026619,0.005274999886751175,-0.11075100302696228,-0.012755000032484531,0.00648100022226572,-0.10382000356912613,0.006374000106006861,-0.04973100125789642,0.009159999899566174,0.09101799875497818,-0.19634200632572174,-0.06737799942493439,-0.0467430017888546,0.009265000000596046,-0.047766998410224915,-0.08027499914169312,0.02933800034224987,0.0685809999704361,0.025969000533223152,-0.03256399929523468,0.09185100346803665,0.015650000423192978,-0.09651099890470505,0.07246799767017365,-0.1890770047903061,0.015908999368548393,-0.06012900173664093,0.06078699976205826,-0.11433999985456467,0.13822999596595764,0.043522998690605164,-0.03220200166106224,-0.045233000069856644,-0.20521199703216553,-0.07203800231218338,0.049233000725507736,0.022113999351859093,0.10045599937438965,-0.11781100183725357,0.01856900006532669,-0.1321689933538437,0.1151290014386177,0.02323400042951107,-0.15822100639343262,-0.139832004904747,0.014116000384092331,-0.06979099661111832,-0.16478699445724487,0.0017810000572353601,-0.0911249965429306,-0.002887000096961856,-0.028325999155640602,0.011401000432670116,0.19899000227451324,0.04194999858736992,0.019669000059366226,-0.010103000327944756,-0.05984700098633766,0.004519999958574772,0.06073400005698204,0.05708799883723259,0.2600719928741455,-0.08466500043869019,-0.19878099858760834,0.19770799577236176,0.10163500159978867,0.1657010018825531,0.06716600060462952,0.014182999730110168,0.13145099580287933,0.04307800158858299,-0.029299000278115273,-0.1984270066022873,0.055865999311208725,-0.07764700055122375,-0.1821880042552948,-0.041058000177145004,-0.14035899937152863,-0.09735599905252457,0.015545000322163105,-0.13136300444602966,-0.15296700596809387,0.08018899708986282,-0.011390999890863895,-0.16277499496936798,0.03319700062274933,0.14125800132751465,0.024304000660777092,-0.058038000017404556,-0.0432329997420311,0.05152599886059761,0.01645199954509735,0.1288989931344986,0.06561200320720673,-0.05890699848532677,0.1944350004196167,-0.03979700058698654,-0.01811799965798855,0.0006280000088736415,-0.03376400098204613,-0.05578399822115898,0.07074499875307083,0.18517500162124634,-0.055309999734163284,-0.14897499978542328,-0.10503199696540833,-0.034915998578071594
