word,0,1,2,3,4,5,6,7,8,9,10,11,12,13,14,15,16,17,18,19,20,21,22,23,24,25,26,27,28,29,30,31,32,33,34,35,36,37,38,39,40,41,42,43,44,45,46,47,48,49,50,51,52,53,54,55,56,57,58,59,60,61,62,63,64,65,66,67,68,69,70,71,72,73,74,75,76,77,78,79,80,81,82,83,84,85,86,87,88,89,90,91,92,93,94,95,96,97,98,99,100,101,102,103,104,105,106,107,108,109,110,111,112,113,114,115,116,117,118,119,120,121,122,123,124,125,126,127,128,129,130,131,132,133,134,135,136,137,138,139,140,141,142,143,144,145,146,147,148,149,150,151,152,153,154,155,156,157,158,159,160,161,162,163,164,165,166,167,168,169,170,171,172,173,174,175,176,177,178,179,180,181,182,183,184,185,186,187,188,189,190,191,192,193,194,195,196,197,198,199,200,201,202,203,204,205,206,207,208,209,210,211,212,213,214,215,216,217,218,219,220,221,222,223,224,225,226,227,228,229,230,231,232,233,234,235,236,237,238,239,240,241,242,243,244,245,246,247,248,249,250,251,252,253,254,255,256,257,258,259,260,261,262,263,264,265,266,267,268,269,270,271,272,273,274,275,276,277,278,279,280,281,282,283,284,285,286,287,288,289,290,291,292,293,294,295,296,297,298,299,300,301,302,303,304,305,306,307,308,309,310,311,312,313,314,315,316,317,318,319,320,321,322,323,324,325,326,327,328,329,330,331,332,333,334,335,336,337,338,339,340,341,342,343,344,345,346,347,348,349,350,351,352,353,354,355,356,357,358,359,360,361,362,363,364,365,366,367,368,369,370,371,372,373,374,375,376,377,378,379,380,381,382,383,384,385,386,387,388,389,390,391,392,393,394,395,396,397,398,399
竖直,-0.20096200704574585,0.20332400500774384,-0.1789660006761551,0.042180001735687256,0.13300299644470215,0.03613800182938576,-0.24780499935150146,-0.05540600046515465,0.22845600545406342,0.1978919953107834,-0.14862099289894104,0.09214100241661072,-0.09606000036001205,-0.13641099631786346,-0.04264099895954132,-0.19178800284862518,0.013303999789059162,0.03564099967479706,-0.1137399971485138,0.0887100026011467,-0.0843610018491745,-0.12133999913930893,0.0521869994699955,0.011491999961435795,0.12033800035715103,-0.1908780038356781,-0.1530659943819046,-0.04964900016784668,-0.42286598682403564,0.04504299908876419,-0.028989000245928764,0.15325100719928741,0.15121600031852722,0.10987900197505951,0.02028300054371357,-0.15640400350093842,0.24836499989032745,-0.04961000010371208,0.4807629883289337,0.19789500534534454,-0.0022279999684542418,-0.018355999141931534,-0.31617701053619385,-0.04783700034022331,-0.05594100058078766,-0.1031619980931282,0.020194999873638153,-0.04093499854207039,0.15848399698734283,0.029729999601840973,-0.22283299267292023,0.10669799894094467,0.0022529999259859324,0.2624880075454712,-0.0779699981212616,-0.06454800069332123,0.0034409998916089535,-0.21090300381183624,-0.10008200258016586,-0.03963200002908707,0.15429499745368958,0.01197499968111515,0.13307799398899078,-0.12051399797201157,-0.19030700623989105,-0.043512001633644104,-0.10789000242948532,-0.05715100094676018,0.32653000950813293,0.37554100155830383,-0.16840200126171112,0.1278659999370575,0.009983999654650688,-0.1251620054244995,0.11733800172805786,0.008806999772787094,0.22288399934768677,0.15627099573612213,0.13330699503421783,0.05986399948596954,0.27173998951911926,-0.47635599970817566,-0.1680070012807846,0.04913000017404556,0.15694400668144226,-0.022908000275492668,-0.006668000016361475,0.12472199648618698,0.04875899851322174,0.0838870033621788,0.34355801343917847,0.19416800141334534,0.11907699704170227,-0.0597120001912117,0.0752979964017868,-0.12530699372291565,-0.0448249988257885,-0.00850799959152937,0.0016880000475794077,0.11148899793624878,0.3097819983959198,-0.13448399305343628,-0.07887899875640869,0.23256400227546692,0.07267600297927856,-0.0577550008893013,0.14729799330234528,0.3678880035877228,-0.21750900149345398,-0.08609600365161896,0.22348199784755707,-0.21570099890232086,-0.047680001705884933,-0.06043099984526634,0.20154400169849396,-0.17740799486637115,0.06366200000047684,0.04879600182175636,0.12966999411582947,0.28335100412368774,0.12592799961566925,0.018792999908328056,-0.0914120003581047,-0.24481099843978882,0.24258799850940704,-0.06869299709796906,-0.09489300101995468,0.2172510027885437,0.14229099452495575,0.0632070004940033,-0.005206999834626913,0.17551399767398834,-0.19878099858760834,0.02936599962413311,-0.045069001615047455,0.23123399913311005,-0.03146899864077568,-0.06932699680328369,-0.3395079970359802,0.03509899973869324,0.1572449952363968,0.5064690113067627,-0.0567299984395504,0.06752999871969223,-0.22119499742984772,-0.08271600306034088,-0.19713500142097473,-0.0034390001092106104,0.090208999812603,0.0862639993429184,-0.018511999398469925,-0.013031000271439552,-0.07370200008153915,-0.21476000547409058,-0.26478999853134155,0.1904889941215515,-0.21598699688911438,-0.04995200037956238,0.3255879878997803,0.17656399309635162,-0.07606100291013718,-5.8000001445179805e-05,-0.2496110051870346,-0.18227200210094452,-0.05937900021672249,0.11688599735498428,0.10445400327444077,0.19158799946308136,-0.16505500674247742,0.024323999881744385,-0.3652839958667755,0.31009000539779663,0.07520899921655655,-0.01963300071656704,0.08288600295782089,-0.11711599677801132,-0.013937000185251236,0.1659799963235855,-0.00965300016105175,0.1823039948940277,0.007046000100672245,-0.20222100615501404,-0.03258100152015686,-0.030574999749660492,-0.7205640077590942,0.06190099939703941,0.33504098653793335,-0.12810799479484558,0.12045200169086456,0.4659140110015869,-0.030218999832868576,0.06981000304222107,-0.07556299865245819,-0.15277500450611115,0.08951900154352188,-0.06474100053310394,-0.05299599841237068,-0.21875500679016113,-0.20588700473308563,-0.18408800661563873,0.1309259980916977,-0.009015999734401703,-0.2859320044517517,0.1257449984550476,-0.11027699708938599,-0.3713639974594116,0.20165599882602692,0.22412799298763275,-0.12272000312805176,0.14596599340438843,0.01606299914419651,-0.2942039966583252,-0.3746899962425232,0.29780301451683044,0.05936900153756142,0.21843299269676208,-0.02772199921309948,-0.3027389943599701,-0.1780419945716858,0.0406779982149601,-0.14041200280189514,0.15024900436401367,-0.011489000171422958,0.2275400012731552,-0.08752000331878662,0.41791900992393494,0.1114249974489212,-0.041120000183582306,-0.16562800109386444,-0.08769399672746658,-0.14761699736118317,-0.2051829993724823,-0.026916999369859695,-0.08956299722194672,0.05441400036215782,0.11752700060606003,0.0058929999358952045,0.16389299929141998,-0.1340630054473877,-0.15773099660873413,-0.22963300347328186,0.08592300117015839,-0.01670200005173683,-0.24583800137043,0.03394399955868721,-0.16234000027179718,-0.17086799442768097,0.01321099977940321,-0.05068099871277809,-0.2121649980545044,-0.020395999774336815,0.08096399903297424,-0.14445699751377106,0.04075099900364876,-0.1595660001039505,-0.045329999178647995,-0.013911999762058258,-0.16324099898338318,0.21186700463294983,0.3416379988193512,-0.17194800078868866,-0.24486799538135529,0.12901100516319275,-0.29305100440979004,-0.311039000749588,-0.30472099781036377,-0.07325199991464615,0.18998999893665314,-0.10686500370502472,-0.4548630118370056,-0.15017099678516388,-0.23558799922466278,-0.2462179958820343,-0.2003280073404312,0.16576099395751953,0.3031579852104187,0.046491000801324844,0.17975500226020813,0.015421999618411064,-0.05901100113987923,-0.17886599898338318,-0.23539799451828003,0.06874100118875504,0.3195669949054718,-0.22755999863147736,0.1590300053358078,0.13820399343967438,-0.0892610028386116,0.04360299929976463,-0.022494999691843987,-0.06746599823236465,-0.3326219916343689,-0.1714629977941513,-0.2646639943122864,-0.043866001069545746,-0.34689098596572876,-0.21908600628376007,-0.027851000428199768,0.10542099922895432,-0.3010239899158478,0.0027729999274015427,0.2647790014743805,0.006641000043600798,-0.39413899183273315,0.059112001210451126,-0.0024800000246614218,-0.06717400252819061,0.10160999745130539,-0.029673999175429344,-0.28474101424217224,0.06272400170564651,-0.2898159921169281,0.18445299565792084,0.0683479979634285,-0.12683099508285522,-0.10146299749612808,-0.1747249960899353,-0.14000099897384644,-0.1791429966688156,-0.21245700120925903,0.012969999574124813,0.1721770018339157,0.09693700075149536,-0.016638999804854393,0.1181889995932579,-0.14245200157165527,-0.06906600296497345,0.1060749962925911,0.15064699947834015,-0.0034749999176710844,0.11592700332403183,0.055667001754045486,-0.12994900345802307,-0.14818499982357025,0.08086200058460236,0.1359270066022873,0.14616699516773224,-0.058205001056194305,-0.09287600219249725,-0.1986130028963089,-0.07257500290870667,-0.24752399325370789,-0.09776700288057327,-0.0675949975848198,-0.043905001133680344,0.2786259949207306,0.1504479944705963,0.10738100111484528,-0.2863439917564392,0.021541999652981758,-0.059748999774456024,-0.07730299979448318,-0.060221001505851746,0.03903700038790703,0.05975300073623657,-0.07969500124454498,0.2983720004558563,0.2552509903907776,0.2418459951877594,0.18070100247859955,0.08149100095033646,0.1151219978928566,-0.08867400139570236,0.39678600430488586,-0.19621700048446655,-0.16176900267601013,-0.04160499945282936,-0.035096000880002975,-0.3611240088939667,-0.05262799933552742,-0.24334900081157684,-0.19258800148963928,0.36083200573921204,-0.53301602602005,-0.09266699850559235,-0.5772219896316528,-0.0021550001110881567,-0.24613399803638458,0.06925100088119507,0.2619929909706116,0.2181510031223297,0.052080001682043076,-0.2731280028820038,0.05877799913287163,-0.12607499957084656,0.3412710130214691,-0.15798600018024445,0.13096199929714203,0.011788000352680683,0.13201799988746643,-0.19585299491882324,0.2618750035762787,-0.14043599367141724,-0.03604400157928467,-0.2151689976453781,0.10481400042772293,0.06451600044965744,0.06950800120830536,0.17444400489330292,-0.06730899959802628
侧,0.01423600036650896,-0.19258500635623932,-0.019430000334978104,-0.13308100402355194,0.21832500398159027,0.025985000655055046,0.16247700154781342,0.037335000932216644,-0.02596599981188774,0.0957920029759407,0.03084000013768673,0.06168600171804428,-0.1713559925556183,-0.20300500094890594,-0.14295899868011475,-0.12605899572372437,-0.07132899761199951,0.1347150057554245,0.2793090045452118,0.20237599313259125,-0.04502499848604202,-0.3089500069618225,0.07009799778461456,0.05774199962615967,-0.15266500413417816,-0.13774700462818146,-0.42546799778938293,0.16957299411296844,-0.4275510013103485,0.46446898579597473,-0.12462200224399567,-0.04154599830508232,0.3039959967136383,0.0050119999796152115,0.039765000343322754,0.02416200004518032,0.04202299937605858,0.347790002822876,0.3966839909553528,0.25641700625419617,-0.10631400346755981,-0.3023799955844879,0.08395200222730637,-0.05327000096440315,0.047129999846220016,-0.3772610127925873,-0.05830100178718567,-0.027840999886393547,-0.017146000638604164,-0.10249499976634979,-0.022975999861955643,-0.24975399672985077,0.2333970069885254,0.04327100142836571,0.0005830000154674053,0.11370600014925003,-0.14902199804782867,0.15036000311374664,-0.11261100322008133,-0.0816819965839386,0.2501800060272217,0.06838999688625336,0.019161999225616455,0.018084999173879623,-0.3906489908695221,0.061657000333070755,-0.12680000066757202,0.16087299585342407,0.015153000131249428,0.17603699862957,-0.06288500130176544,0.26435598731040955,0.25665101408958435,0.018138999119400978,-0.1809699982404709,0.20993299782276154,0.28945499658584595,-0.0314750000834465,0.1155959963798523,-0.057551998645067215,0.10734999924898148,-0.23466899991035461,-0.32950499653816223,0.13960599899291992,-0.12162099778652191,-0.0021989999804645777,-0.08163399994373322,0.0019280000124126673,0.10356499999761581,0.26996201276779175,0.3108290135860443,0.17474600672721863,0.12251599878072739,-0.21005700528621674,0.05073700100183487,-0.29365798830986023,-0.08958899974822998,0.01126800011843443,-0.1492069959640503,0.28321099281311035,0.1421010047197342,0.33378100395202637,-0.10970199853181839,-0.03974800184369087,-0.0038660001009702682,0.2069309949874878,0.2466209977865219,0.003957999870181084,0.20403599739074707,-0.08338599652051926,-0.038975998759269714,-0.32751500606536865,-0.36983999609947205,-0.03137800097465515,0.08861800283193588,-0.17095200717449188,-0.17506399750709534,-0.008651000447571278,-0.06160400062799454,0.29952600598335266,-0.0003060000017285347,0.03999299928545952,0.15313099324703217,0.038325000554323196,-0.13095399737358093,0.09532800316810608,-0.1571809947490692,-0.16532400250434875,-0.3012790083885193,0.041861001402139664,0.20622199773788452,0.19990800321102142,0.3263700008392334,-0.14496299624443054,0.10809200257062912,0.1888349950313568,0.09213799983263016,-0.2053530067205429,0.08633100241422653,0.22021299600601196,-0.29860201478004456,-0.47620800137519836,0.33650699257850647,-0.1627350002527237,0.011624000035226345,0.09607700258493423,0.011525999754667282,0.08809799700975418,0.3372899889945984,-0.3997209966182709,0.29026299715042114,-0.22062599658966064,-0.030688999220728874,-0.17948099970817566,-0.06841900199651718,-0.038001999258995056,-0.21437999606132507,0.17879900336265564,0.3114050030708313,-0.08937299996614456,0.2870909869670868,0.052386000752449036,-0.11469700187444687,0.17756199836730957,0.0007350000087171793,-0.07204599678516388,0.09747699648141861,-0.13719899952411652,0.016256000846624374,0.10527800023555756,0.0338129997253418,-0.07329700142145157,-0.12429899722337723,-0.11413899809122086,0.07676400244235992,-0.21555200219154358,0.13524800539016724,-0.04769600182771683,0.010897999629378319,-0.019361000508069992,-0.06413400173187256,-0.05052400007843971,0.05855000019073486,0.0020039998926222324,-0.27595800161361694,-0.09606900066137314,-0.11993400007486343,-0.19966599345207214,-0.10538800060749054,-0.11083599925041199,0.05693100020289421,0.09974300116300583,-0.26524800062179565,0.09458500146865845,0.23069100081920624,0.08942800015211105,-0.24068200588226318,-0.4427570104598999,0.1809449940919876,-0.3126029968261719,0.15664400160312653,0.01459600031375885,-0.3672490119934082,0.24647000432014465,0.07366299629211426,-0.2104319930076599,-0.10354699939489365,0.21265999972820282,-0.09220899641513824,-0.3516339957714081,0.07699300348758698,-0.06126600131392479,-0.12458399683237076,0.19752199947834015,-0.33233800530433655,0.026489000767469406,-0.16296899318695068,-0.3062419891357422,0.2588059902191162,0.33479800820350647,0.0800430029630661,0.2573859989643097,-0.02597999945282936,-0.3405910134315491,-0.09369300305843353,0.14784899353981018,0.03277700021862984,-0.2930150032043457,-0.06064600124955177,0.36861899495124817,-0.21065600216388702,0.08668500185012817,0.15892399847507477,0.29279398918151855,-0.03353700041770935,0.037073999643325806,-0.0007999999797903001,0.13553300499916077,-0.34578800201416016,0.10765600204467773,-0.4503600001335144,-0.17274999618530273,0.28177499771118164,-0.3224110007286072,0.09056200087070465,-0.1358100026845932,-0.2601790130138397,0.2158229947090149,0.005805999971926212,-0.04938400164246559,0.25368601083755493,-0.20864999294281006,-0.15954500436782837,-0.15566900372505188,-0.15636800229549408,-0.4816550016403198,-0.038669999688863754,-0.03418099880218506,0.40602201223373413,-0.017903000116348267,0.15624600648880005,-0.030451999977231026,-0.12982699275016785,0.03233199939131737,-0.43091899156570435,-0.16457900404930115,-0.3439309895038605,0.4976060092449188,-0.19133900105953217,-0.06993500143289566,-0.29992300271987915,0.17702899873256683,-0.2457669973373413,-0.10139299929141998,-0.12370499968528748,0.1862179934978485,-0.1255439966917038,-0.23716500401496887,-0.20650599896907806,0.06162500008940697,0.007160999812185764,-0.35887300968170166,0.32839301228523254,-0.1957319974899292,-0.13317599892616272,0.005363000091165304,-0.1773969978094101,0.23100900650024414,0.055041998624801636,-0.17537300288677216,-0.04265899956226349,-0.4054279923439026,-0.4157539904117584,-0.13080599904060364,0.18438400328159332,-0.09885100275278091,-0.21082699298858643,-0.06052299961447716,0.13488399982452393,-0.11905200034379959,-0.0026489999145269394,0.09610699862241745,-0.19489000737667084,0.03555399924516678,0.04427700117230415,0.4455699920654297,-0.16667799651622772,0.020197000354528427,0.11533799767494202,0.1120539978146553,0.25679001212120056,0.01155299972742796,0.4574750065803528,0.24814599752426147,0.1393740028142929,-0.1206739991903305,0.22536499798297882,-0.15339499711990356,-0.1489419937133789,0.0845789983868599,0.11256299912929535,0.4238379895687103,0.42036300897598267,0.1880279928445816,0.06611700356006622,0.07390400022268295,0.20722900331020355,-0.1858389973640442,0.04373199865221977,0.14901499450206757,0.07626499980688095,-0.05919500067830086,0.002509000012651086,0.021717000752687454,-0.6649100184440613,0.330951988697052,-0.16511300206184387,0.10822200030088425,0.07340499758720398,-0.1813109964132309,0.014162000268697739,0.19640399515628815,0.05348299816250801,0.14591200649738312,-0.08955699950456619,0.24531899392604828,0.4250679910182953,-0.08074399828910828,-0.1667660027742386,-0.1270499974489212,0.4549880027770996,-0.1454170048236847,-0.017371999099850655,-0.05980699881911278,-0.03458100184798241,-0.1423960030078888,0.4801110029220581,-0.04993399977684021,0.13128699362277985,0.036076001822948456,0.14597399532794952,-0.1759980022907257,-0.38969698548316956,-0.11059500277042389,-0.08030500262975693,0.1671060025691986,-0.43929100036621094,-0.061420001089572906,-0.09575600177049637,-0.21187199652194977,-0.2729560136795044,-0.10487700253725052,0.39704200625419617,-0.4015749990940094,0.034345000982284546,-0.3279930055141449,-0.037122998386621475,0.1341239959001541,-0.07748299837112427,-0.138387992978096,0.28438299894332886,-0.04261799901723862,0.04679099842905998,-0.010389000177383423,-0.2091280072927475,0.22980700433254242,-0.22834299504756927,0.2970300018787384,-0.10860899835824966,0.14508000016212463,0.06269799917936325,-0.13213400542736053,-0.16699999570846558,0.3161199986934662,-0.00101500004529953,-0.004273000173270702,0.06482499837875366,-0.1786540001630783,0.23587800562381744,0.09519100189208984
操作,0.06412000209093094,0.10400400310754776,0.10052300244569778,-0.058260999619960785,0.08901000022888184,0.04121999815106392,0.1229339987039566,0.27865299582481384,-0.21730199456214905,0.020705999806523323,0.14895200729370117,0.03356499969959259,-0.05317600071430206,0.16195200383663177,-0.19215600192546844,-0.09213899821043015,0.17082999646663666,0.16783399879932404,-0.13718000054359436,-0.19212999939918518,0.013811999931931496,-0.15612800419330597,0.02573299966752529,0.1088389977812767,0.24969500303268433,0.028588000684976578,0.03779599815607071,-0.07002600282430649,-0.20448799431324005,0.047961000353097916,-0.07802099734544754,0.048225000500679016,-0.04163900017738342,-0.12429600208997726,0.08863499760627747,-0.15548300743103027,0.11782000213861465,-0.17534799873828888,0.2111770063638687,-0.00636200001463294,0.034407999366521835,-0.11010400205850601,-0.051867999136447906,0.14947199821472168,-0.05154399946331978,0.08993499726057053,-0.11414700001478195,-0.17284199595451355,0.14568400382995605,-0.007224999833852053,0.050324998795986176,-0.020754000172019005,0.011899000033736229,-0.15328800678253174,0.08433199673891068,0.07091499865055084,-0.286981999874115,0.0876849964261055,0.25075000524520874,0.16550800204277039,0.1562730073928833,0.068852998316288,-0.15825000405311584,0.0832500010728836,0.148935005068779,-0.0039019999094307423,0.04334300011396408,0.07781299948692322,0.14036999642848969,-0.03810499981045723,-0.1996999979019165,0.028880000114440918,-0.22261999547481537,-0.2732209861278534,0.1921290010213852,-0.0978040024638176,0.11416500061750412,0.09808900207281113,0.2376919984817505,0.09483300149440765,0.04060100018978119,-0.4274739921092987,-0.01272599957883358,-0.08124499768018723,0.0036879999097436666,-0.04320500046014786,-0.09972400218248367,0.1348160058259964,-0.21025699377059937,-0.12460099905729294,-0.06633400171995163,-0.10611899942159653,-0.10762599855661392,-0.14684399962425232,0.08050400018692017,-0.15097400546073914,0.11494600027799606,-0.018014999106526375,-0.053971998393535614,-0.05977899953722954,0.10448800027370453,-0.041673000901937485,0.005177000071853399,-0.10316500067710876,-0.22543799877166748,0.1778469979763031,-0.1564120054244995,0.00035099999513477087,-0.021510999649763107,-0.03892099857330322,0.02587299980223179,0.0568230003118515,0.01191799994558096,-0.16848400235176086,0.1630290001630783,0.1271049976348877,-0.13437199592590332,0.1296059936285019,0.09974700212478638,0.06667599827051163,-0.045885998755693436,0.016300000250339508,-0.08098900318145752,0.07059399783611298,0.2863059937953949,-0.068121999502182,-0.03696899861097336,-0.06960999965667725,-0.04382200166583061,0.00444599986076355,0.0068339998833835125,-0.0881740003824234,0.09167999774217606,0.14237700402736664,0.19427600502967834,-0.03226900100708008,0.15771600604057312,0.004300999920815229,-0.18535299599170685,0.014201000332832336,-0.12001899629831314,0.08412499725818634,0.20448000729084015,0.07375200092792511,-0.2863070070743561,-0.07020699977874756,-0.3215300142765045,-0.1486469954252243,-0.20791299641132355,-0.10335200279951096,-0.2256229966878891,-0.039048001170158386,0.02064399980008602,0.022252000868320465,0.036263998597860336,0.06789500266313553,0.14841100573539734,-0.06489799916744232,0.011335999704897404,0.0715700015425682,-0.10373199731111526,-0.024601999670267105,0.09732399880886078,0.029326999559998512,-0.041884999722242355,0.09387700259685516,0.062609001994133,0.029603999108076096,0.04862700030207634,-0.08124099671840668,0.12594899535179138,0.21285699307918549,-0.09780199825763702,-0.11962900310754776,0.058281999081373215,-0.08996699750423431,0.04299600049853325,-0.050755999982357025,0.112807996571064,-0.03074299916625023,-0.06450100243091583,-0.16853199899196625,-0.2433529943227768,0.08386299759149551,-0.10322000086307526,0.03653300181031227,0.23132899403572083,0.06715100258588791,0.0659089982509613,0.10761299729347229,0.2089579999446869,-0.07270900160074234,-0.09961000084877014,0.010412000119686127,-0.112015001475811,-0.060263000428676605,0.07324700057506561,-0.14039400219917297,-0.258092999458313,-0.07009399682283401,0.14159899950027466,-0.0017519999528303742,-0.042851999402046204,0.15203000605106354,0.08764199912548065,-0.13381899893283844,0.06902100145816803,0.024903999641537666,-0.16877999901771545,0.038152001798152924,-0.0759119987487793,0.2161179929971695,-0.053651999682188034,0.25709599256515503,0.0709730014204979,-0.07015399634838104,0.17535200715065002,-0.20688499510288239,0.46443501114845276,-0.166935995221138,0.1330379992723465,0.15831899642944336,-0.09822700172662735,0.13396799564361572,-0.023212000727653503,-0.2809770107269287,-0.08325199782848358,-0.012116000056266785,0.12089399993419647,0.03103799931704998,-0.01191799994558096,0.02438499964773655,0.09760399907827377,0.1191060021519661,0.12491299957036972,0.05985499918460846,0.02435299940407276,0.057346999645233154,-0.25113800168037415,-0.05561799928545952,-0.052441999316215515,-0.06528499722480774,-0.09631700068712234,-0.03892600163817406,-0.061622001230716705,-0.04100700095295906,-0.13155899941921234,-0.04938000068068504,0.002747999969869852,-0.13681499660015106,0.03207699954509735,-0.26891401410102844,-0.04710400104522705,0.015219000168144703,-0.16184499859809875,-0.12138699740171432,-0.10040099918842316,-0.15694500505924225,0.20972000062465668,0.10683400183916092,0.29807600378990173,0.15288199484348297,0.18824000656604767,-0.08916600048542023,0.04119100049138069,-0.20611800253391266,0.2526940107345581,-0.040623001754283905,-0.11517900228500366,0.08116500079631805,-0.09356000274419785,-0.072782002389431,0.12367399781942368,0.014690999872982502,0.22768999636173248,0.1485230028629303,0.04053499922156334,-0.07002799957990646,-0.08603300154209137,0.01232299953699112,0.11413399875164032,-0.10481300204992294,-0.010875999927520752,0.11073599755764008,-0.06785599887371063,-0.09068900346755981,0.06068800017237663,-0.017904000356793404,0.18321600556373596,-0.1532450020313263,0.08184099942445755,-0.09268199652433395,0.2542249858379364,-0.2233089953660965,0.08259599655866623,-0.4875339865684509,0.01155600044876337,0.21927699446678162,0.2123979926109314,0.14348900318145752,0.06630600243806839,0.26482298970222473,-0.027736999094486237,-0.29943498969078064,-0.10605599731206894,-0.007036999799311161,-0.09556200355291367,0.056630998849868774,-0.18133099377155304,-0.1101830005645752,0.12202899903059006,-0.054370999336242676,0.18041600286960602,0.127687007188797,-0.13449600338935852,0.08004800230264664,0.00278700003400445,-0.22719700634479523,-0.13673999905586243,-0.17322200536727905,-0.11564400047063828,-0.038224998861551285,0.12465400248765945,-0.13792100548744202,0.0069670001976192,-0.04168200120329857,0.2452709972858429,-0.13314999639987946,-0.07282300293445587,0.04918000102043152,0.1833830028772354,-0.0783429965376854,0.03643200173974037,-0.2286520004272461,0.12002000212669373,0.23603500425815582,-0.1971219927072525,-0.27716198563575745,-0.18039999902248383,-0.06440900266170502,0.005272999871522188,-0.046973999589681625,-0.07624000310897827,0.25847500562667847,-0.06444799900054932,4.099999932805076e-05,0.21139200031757355,0.048252999782562256,0.14711999893188477,0.13052299618721008,0.03342600166797638,-0.05832599848508835,-0.12139999866485596,0.1709430068731308,0.08639299869537354,0.1751910001039505,-0.15583999454975128,0.3550809919834137,0.05208799988031387,0.04175499826669693,0.0559069998562336,0.009166999720036983,0.114376001060009,0.09808500111103058,-0.013384999707341194,-0.10018400102853775,-0.03835200145840645,-0.025539999827742577,-0.14718200266361237,-0.024508999660611153,-0.166034996509552,-0.15120400488376617,-0.04195199906826019,0.15139399468898773,-0.019435999915003777,-0.07381600141525269,-0.13644300401210785,-0.11841200292110443,0.06639400124549866,-0.0061519998125731945,0.19418300688266754,-0.03307799994945526,-0.11875200271606445,0.07551699876785278,0.272801011800766,-0.07270999997854233,-0.016780000180006027,0.05316099897027016,-0.08126100152730942,0.1166670024394989,-0.06205900013446808,0.0679830014705658,-0.1662600040435791,-0.034949999302625656,0.005574999842792749,0.19636599719524384,-0.11406999826431274,-0.06223300099372864,-0.11696299910545349,-0.05514699965715408
化,-0.39198601245880127,-0.2444320023059845,-0.050673000514507294,0.0024709999561309814,0.14624999463558197,-0.04226600006222725,-0.0015119999879971147,-0.01588599942624569,-0.08839499950408936,-0.10094399750232697,-0.001917000045068562,0.09647999703884125,-0.14142300188541412,0.062463998794555664,-0.049942001700401306,0.10911300033330917,-0.02420100010931492,0.11151500046253204,-0.041767001152038574,-0.20644399523735046,-0.1552010029554367,-0.1565839946269989,-0.004426999948918819,0.14122900366783142,-0.1232369989156723,0.06078200042247772,-0.05509600043296814,-0.17099499702453613,-0.06242100149393082,0.033204998821020126,-0.001171999960206449,-0.14190399646759033,0.23918099701404572,-0.1442430019378662,-0.22977299988269806,0.17118500173091888,0.16548199951648712,-0.03628399968147278,0.15383200347423553,-0.01780799962580204,0.08110000193119049,0.009321999736130238,-0.08266399800777435,-0.12762300670146942,0.011924000456929207,0.14984099566936493,0.018038999289274216,-0.1512169986963272,0.21769000589847565,-0.06965400278568268,-0.014445999637246132,-0.17244300246238708,0.1994670033454895,-0.10817699879407883,0.1966180056333542,-0.07882300019264221,-0.033337999135255814,-0.04440300166606903,-0.1978060007095337,-0.10237699747085571,0.16743099689483643,-0.067951999604702,0.014189000241458416,-0.253603994846344,-0.03206399828195572,-0.2415280044078827,0.02140600048005581,0.1730169951915741,-0.0859059989452362,0.05577100068330765,-0.05683699995279312,-0.0352259986102581,0.06880100071430206,-0.03355799987912178,0.040516000241041183,-0.16456300020217896,0.009936000220477581,-0.03371899947524071,-0.08529800176620483,-0.17265300452709198,0.18022200465202332,0.123819999396801,0.04651699960231781,0.1757490038871765,-0.2286819964647293,-0.12103399634361267,-0.01734899915754795,-0.012570000253617764,-0.013268999755382538,0.13828299939632416,0.18882599472999573,-0.2412319928407669,0.04708800092339516,-0.03585899993777275,-0.06364099681377411,-0.0627639964222908,0.011203999631106853,0.011769000440835953,-0.3457840085029602,0.09815900027751923,-0.07650700211524963,0.048048000782728195,-0.009724999777972698,-0.016909999772906303,0.10850399732589722,0.033723000437021255,-0.06891100108623505,-0.07642599940299988,0.22658899426460266,0.0005249999812804163,-0.10459599643945694,-0.004176999907940626,-0.07585100084543228,0.1012049987912178,-0.1422020047903061,0.23216800391674042,-0.1317790001630783,0.00803299993276596,-0.0469140000641346,-0.0540819987654686,0.10593300312757492,-0.13667699694633484,-0.2084359973669052,-0.06909800320863724,-0.06364399939775467,-0.09157899767160416,-0.03957400098443031,-0.09857500344514847,-0.06036100164055824,0.06231499835848808,-0.1647309958934784,-0.07409299910068512,0.2892000079154968,-0.0036669999826699495,-0.053321998566389084,0.102913998067379,-0.05161599814891815,-0.15557600557804108,-0.05353099852800369,0.12275999784469604,-0.059491001069545746,-0.16659599542617798,-0.03330099955201149,0.12261199951171875,0.10051599889993668,0.006519999820739031,-0.060366999357938766,0.09829200059175491,0.10771399736404419,-0.30118700861930847,0.13466300070285797,-0.04763200134038925,0.08240699768066406,-0.06718099862337112,-0.30113399028778076,-0.02833399921655655,0.0695979967713356,-0.14690400660037994,-0.09175500273704529,-0.018107999116182327,0.15690100193023682,0.06395699828863144,0.0787229984998703,0.09799899905920029,-0.07355800271034241,-0.3855299949645996,0.04960300028324127,-0.10857100039720535,-0.038419000804424286,-0.013562999665737152,0.08599700033664703,-0.00737100001424551,0.04200199991464615,0.04039100185036659,-0.21425199508666992,-0.03428899869322777,0.0020699999295175076,0.005268000066280365,0.021158000454306602,-0.07339199632406235,-0.01181500032544136,-0.052414000034332275,-0.02783999964594841,-0.09032899886369705,-0.07907100021839142,0.11914599686861038,0.007207000162452459,0.07742299884557724,-0.028010999783873558,0.020965000614523888,0.01270500011742115,0.24651099741458893,-0.07542499899864197,-0.08861300349235535,0.058302998542785645,-0.012760000303387642,-0.10642500221729279,0.021259000524878502,-0.0018690000288188457,0.014169000089168549,0.14938600361347198,0.12284599989652634,0.09063500165939331,0.14034299552440643,0.03550099954009056,-0.07790999859571457,0.018353000283241272,0.11746799945831299,0.1490660011768341,-0.21500100195407867,0.020687000826001167,-0.07507599890232086,0.08082100003957748,0.11779800057411194,0.040316998958587646,0.07401300221681595,-0.06187399849295616,0.15449999272823334,0.2315330058336258,0.15456999838352203,0.0010319999419152737,0.2438890039920807,0.05461899936199188,0.12613800168037415,-0.055316001176834106,0.01720999926328659,-0.0042929998598992825,0.17055800557136536,0.2616659998893738,0.1534850001335144,-0.237296000123024,-0.010312000289559364,-0.1225380003452301,0.10708600282669067,-0.1470479965209961,-0.07286500185728073,-0.026593999937176704,-0.12286300212144852,-0.09301400184631348,-0.07656899839639664,-0.06683800369501114,-0.1278350055217743,-0.09872899949550629,-0.06579200178384781,0.02287600003182888,0.27299898862838745,-0.019825000315904617,-0.15122400224208832,0.2493389993906021,0.11715199798345566,-0.016018999740481377,0.2883850038051605,0.2008499950170517,0.14874699711799622,-0.24923600256443024,-0.05352700129151344,-0.11782599985599518,0.11906500160694122,0.2051839977502823,0.025157000869512558,0.08812499791383743,0.01375299971550703,0.28674599528312683,-0.16574299335479736,-0.06368199735879898,-0.13390299677848816,0.03505999967455864,0.12188299745321274,0.06575699895620346,0.15004399418830872,-0.2354850023984909,0.025604000315070152,0.11203499883413315,0.15954600274562836,0.02575100027024746,0.044888999313116074,-0.0425259992480278,-0.22640299797058105,-0.022331999614834785,-0.20159900188446045,0.007091000210493803,-0.010154999792575836,-0.09170299768447876,-0.057985998690128326,-0.015464999713003635,-0.08948300033807755,0.03646799921989441,-0.1045060008764267,0.03881499916315079,0.02088800072669983,0.3380959928035736,-0.18945500254631042,0.06143299862742424,-0.19595199823379517,0.14242100715637207,-0.10772799700498581,0.01889600045979023,-0.08361300081014633,-0.012128000147640705,0.053585998713970184,0.010080999694764614,-0.1135530024766922,0.024785000830888748,-0.1622290015220642,0.01960100047290325,0.1664540022611618,-0.22834500670433044,0.08496200293302536,0.14463700354099274,0.04300500079989433,0.03086400032043457,0.09268499910831451,-0.021291999146342278,0.041331999003887177,-0.11156599968671799,-0.09508100152015686,0.022787999361753464,-0.07928500324487686,-0.048548001796007156,0.14372700452804565,-0.17102299630641937,0.1802469938993454,0.2163580060005188,-0.1093209981918335,-0.01307700015604496,0.003346000099554658,0.01875999942421913,0.05731699988245964,0.22341300547122955,-0.11580199748277664,0.20447200536727905,0.09064500033855438,0.10537000000476837,-0.06089000031352043,0.022474000230431557,0.09478200227022171,-0.03667899966239929,-0.000770999991800636,0.038933999836444855,-0.09597499668598175,-0.2163199931383133,0.1787080019712448,-0.1674409955739975,0.07298199832439423,0.23854200541973114,-0.3680180013179779,0.12429100275039673,0.062394000589847565,0.051569998264312744,0.11022700369358063,-0.08592800050973892,-0.009072000160813332,0.06892000138759613,0.07453600317239761,0.07440599799156189,0.09680300205945969,0.16945600509643555,-0.03977299854159355,-0.25441598892211914,0.08094199746847153,-0.07259500026702881,-0.10145299881696701,0.04086200147867203,-0.03209500014781952,0.09618200361728668,-0.036017000675201416,-0.058458998799324036,0.020194999873638153,-0.17715999484062195,0.06765200197696686,-0.20896799862384796,0.08476699888706207,-0.07548400014638901,0.1288589984178543,0.0405689999461174,0.11348000168800354,0.1824129968881607,-0.13883699476718903,0.12950800359249115,-0.0318170003592968,0.014879999682307243,-0.013344000093638897,-0.18046900629997253,-0.0756630003452301,0.2892720103263855,0.0052999998442828655,0.03790400177240372,-0.16688500344753265,-0.1965550035238266,-0.16939499974250793,0.0062409997917711735,-0.14062899351119995,-0.04382700100541115,-0.06713899970054626,-0.1460600048303604,0.3312720060348511,-0.05420700088143349,-0.13322299718856812,-0.01071999967098236,-0.06345199793577194
斜倚,-0.06726600229740143,0.010351999662816525,0.05043699964880943,0.05584599822759628,0.004129999782890081,-0.022213999181985855,-0.014186999760568142,-0.01295700017362833,0.03144000098109245,-0.0250450000166893,0.07138899713754654,0.0814250037074089,0.09216099977493286,-0.019557999446988106,-0.033691998571157455,0.06383199989795685,-0.16013699769973755,0.05395900085568428,0.05334499850869179,0.062445998191833496,-0.09197799861431122,-0.11475999653339386,0.1597920060157776,0.13270099461078644,0.041503001004457474,0.07868699729442596,-0.058177001774311066,-0.003504999913275242,-0.04283599928021431,0.056446000933647156,-0.05676700174808502,0.057854000478982925,0.20596399903297424,0.0061969999223947525,-0.10981599986553192,0.04844899848103523,0.055580999702215195,-0.0397690013051033,0.17353199422359467,0.20727400481700897,-0.01926499977707863,0.06160299852490425,0.021494999527931213,0.22227999567985535,-0.10895299911499023,-0.18718500435352325,0.0723709985613823,-0.10375499725341797,0.04665900021791458,-0.096001997590065,-0.04616300016641617,0.003664999967440963,0.1373009979724884,-0.012090999633073807,0.08902499824762344,0.09133400022983551,0.05183799937367439,-0.16763700544834137,0.10952199995517731,0.08517500013113022,0.11823900043964386,0.08553499728441238,-0.03793400153517723,-0.09445600211620331,0.05275899916887283,0.026163000613451004,-0.09891200065612793,0.020778000354766846,0.14903700351715088,0.06789900362491608,-0.07312999665737152,0.23433400690555573,0.015856999903917313,-0.023837000131607056,0.10575299710035324,-0.029563000425696373,0.1712229996919632,0.06031699851155281,0.05568400025367737,0.08170299977064133,0.2429479956626892,-0.1947769969701767,-0.09826900064945221,0.035808999091386795,-0.06887000054121017,-0.062233999371528625,-0.008352000266313553,0.06685200333595276,0.058761999011039734,0.030615000054240227,0.1108660027384758,0.08730600029230118,0.1720380038022995,-0.20832300186157227,0.09693299978971481,0.10412000119686127,-0.11606600135564804,-0.0179469995200634,-0.025138000026345253,0.03234799951314926,-0.05174599960446358,0.13370099663734436,-0.13554300367832184,0.07083100080490112,-0.13446000218391418,-0.09170500189065933,-0.05889400094747543,0.05141700059175491,0.026298999786376953,0.10082399845123291,0.06741400063037872,-0.08228400349617004,0.07439599931240082,-0.011261999607086182,0.1647389978170395,-0.02271600067615509,-0.03353499993681908,-0.0047519998624920845,-0.03413499891757965,-0.0003129999968223274,0.05820799991488457,-0.05767599865794182,-0.002219999907538295,0.07148800045251846,-0.02447500079870224,-0.07743900269269943,-0.1564899981021881,-0.03521300107240677,-0.11526600271463394,0.0020129999611526728,-0.01607299968600273,-0.0361270010471344,-0.0024999999441206455,-0.0774570032954216,0.05493000149726868,0.10410699993371964,0.07461100071668625,-0.03924600034952164,-0.15995199978351593,-0.0758339986205101,-0.03878699988126755,-0.0818139985203743,0.019015999510884285,0.12137600034475327,-0.028679000213742256,0.02453400008380413,-0.12335900217294693,-0.0489719994366169,0.0008019999950192869,0.00800700020045042,-0.10984300076961517,0.03116000071167946,-0.06746599823236465,-0.12337999790906906,-0.014791999943554401,-0.03682300075888634,-0.005274000111967325,0.013642000034451485,0.15213699638843536,-0.1586569994688034,-0.10289900004863739,-0.047710999846458435,-0.17600800096988678,0.06577400118112564,0.0783189982175827,-0.20305100083351135,-0.09868299961090088,-0.05594800040125847,-0.016853999346494675,0.03284800052642822,-0.005034000147134066,0.08303000032901764,0.04092999920248985,0.0036520001012831926,0.08933000266551971,0.045864999294281006,-0.21636900305747986,0.14766399562358856,-0.004759000148624182,-0.053008999675512314,-0.011460999958217144,0.02796100080013275,-0.18898700177669525,0.017896000295877457,-0.21359699964523315,-0.11228399723768234,0.15551699697971344,-0.026489999145269394,0.06575199961662292,0.050815001130104065,-0.0536080002784729,-0.10432399809360504,0.022199999541044235,0.10899700224399567,0.12537699937820435,0.04384100064635277,-0.131182000041008,-0.0462150014936924,-0.006643000058829784,0.04811700060963631,0.1817220002412796,0.03785799816250801,-0.003232999937608838,0.20875300467014313,-0.07710199803113937,-0.12572899460792542,-0.012376000173389912,0.03584200143814087,0.04478999972343445,-0.006206999998539686,0.041377998888492584,-0.15792100131511688,-0.07005400210618973,0.15208999812602997,0.07058999687433243,0.05881299823522568,-0.028595000505447388,-0.19399400055408478,0.0440329983830452,-0.13776099681854248,-0.18985499441623688,0.193464994430542,0.056099001318216324,-0.030473999679088593,-0.05416199937462807,0.30296099185943604,0.17489099502563477,0.06684300303459167,0.0740009993314743,0.08889199793338776,-0.0012910000514239073,-0.09075800329446793,-0.0768050029873848,-0.04038900136947632,0.04371900111436844,0.017580000683665276,-0.03119100071489811,0.17315800487995148,0.01425199955701828,-0.12377800047397614,0.007934999652206898,-0.04349900037050247,-0.061918001621961594,-0.17698800563812256,-0.0584850013256073,-0.052893999963998795,-0.08252599835395813,0.03182800114154816,-0.06729000061750412,0.05496399849653244,-0.058281999081373215,-0.04626400023698807,-0.1398880034685135,-0.13050100207328796,-0.0691709965467453,-0.03713500127196312,0.02846500091254711,-0.10042499750852585,0.09000100195407867,0.17890700697898865,0.10537800192832947,0.12615999579429626,-0.13441799581050873,-0.025505000725388527,-0.211340993642807,-0.17783600091934204,0.1068739965558052,0.06763199716806412,-0.11747000366449356,-0.027536999434232712,0.019634999334812164,0.11194100230932236,-0.0677649974822998,-0.01682800054550171,-0.033080000430345535,0.26995599269866943,0.034157998859882355,-0.14721399545669556,-0.14495599269866943,0.09058500081300735,0.12461800128221512,-0.10196000337600708,0.03049200028181076,-0.14402000606060028,-0.12033499777317047,0.118927001953125,-0.08263999968767166,0.06307800114154816,-0.08004199713468552,0.09513299912214279,-0.03603700175881386,-0.1381790041923523,-0.04903300106525421,-0.20802100002765656,0.09696000069379807,0.036570001393556595,-0.10999000072479248,0.014325999654829502,0.13774900138378143,-0.06564699858427048,0.03632599860429764,0.1941699981689453,-0.11025399714708328,-0.03565699979662895,-0.01789899915456772,-0.04198500141501427,-0.20740999281406403,0.09839600324630737,-0.09845899790525436,-0.014929999597370625,0.06941399723291397,-0.020179999992251396,0.12517599761486053,0.17900000512599945,-0.039712999016046524,-0.08589699864387512,0.025126000866293907,-0.06592100113630295,-0.08329199999570847,0.07229000329971313,-0.051222000271081924,0.03565799817442894,0.056216999888420105,0.10657799988985062,0.013050000183284283,0.04794299975037575,0.23220999538898468,-0.0159939993172884,-0.04328799992799759,0.07237900048494339,0.06543900072574615,0.13567699491977692,-0.11157900094985962,-0.06940499693155289,-0.15778300166130066,0.0198730006814003,-0.11645600199699402,-0.10089299827814102,0.12739300727844238,0.048461999744176865,-0.040787000209093094,-0.034021999686956406,-0.08079499751329422,0.004676999989897013,-0.008615000173449516,0.13021400570869446,0.0786610022187233,0.3263550102710724,0.05118799954652786,0.021257000043988228,0.08231499791145325,-0.009871000424027443,-0.023391999304294586,0.016340000554919243,-0.11796800047159195,-0.05693599954247475,0.038290999829769135,0.062036000192165375,-0.026235999539494514,-0.06358200311660767,-0.08504299819469452,0.0104179996997118,0.0633850023150444,0.1480409950017929,-0.10664600133895874,0.004720000084489584,-0.1096699982881546,-0.012227999977767467,-0.06866899877786636,0.043056000024080276,-0.16133099794387817,-0.17384199798107147,0.06428500264883041,-0.09746500104665756,0.0316770002245903,-0.1279979944229126,0.058956000953912735,-0.16180899739265442,-0.10088799893856049,-0.08930099755525589,-5.2999999752501026e-05,0.11733800172805786,0.07352700084447861,0.10051599889993668,-0.0444829985499382,0.10480500012636185,-0.05398299917578697,0.015469999983906746,-0.09966199845075607,0.0949850007891655,0.07824499905109406,0.16554699838161469,-0.18549099564552307,-0.05995199829339981,-0.1650560051202774,0.13018399477005005,-0.04764600098133087,0.04578299820423126,-0.03538300096988678,-0.09416799992322922
结构,-0.10387799888849258,0.19047999382019043,0.007884999737143517,0.23587100207805634,-0.07377900183200836,0.07393199950456619,0.12839099764823914,0.03238299861550331,0.02906000055372715,0.13836699724197388,0.10149600356817245,0.016200000420212746,-0.1070299968123436,-0.007094999775290489,-0.11910299956798553,-0.19546900689601898,-0.12357799708843231,-0.21452899277210236,0.06391900032758713,-0.07276500016450882,-0.11603400111198425,-0.1465959995985031,0.2909800112247467,0.041012998670339584,0.23337900638580322,-0.007526000030338764,-0.11818099766969681,-0.0301900003105402,0.009575000032782555,0.1315930038690567,-0.030402999371290207,-0.040251001715660095,0.08240500092506409,-0.08298499882221222,0.012647000141441822,0.08403600007295609,0.1283629983663559,-0.007619999814778566,-0.0037070000544190407,0.15565699338912964,-0.06659100204706192,0.07191099971532822,-0.055410001426935196,0.06673700362443924,-0.09569499641656876,-0.16024400293827057,-0.05352399870753288,-0.008918000385165215,-0.0827770009636879,-0.1192530021071434,0.08794700354337692,7.300000288523734e-05,0.04438700154423714,-0.05553999915719032,0.12155400216579437,-0.03711400181055069,-0.11902199685573578,0.020646000280976295,-0.12375099956989288,0.08680900186300278,-0.020339999347925186,0.09387099742889404,-0.19592000544071198,-0.03541199862957001,0.08448299765586853,0.04224099963903427,-0.15518200397491455,0.06519799679517746,0.12429399788379669,0.22128300368785858,-0.22972600162029266,-0.09946499764919281,0.24435199797153473,-0.14662499725818634,0.1324000060558319,-0.22610700130462646,0.1992730051279068,-0.15137599408626556,0.09254200011491776,0.03675999864935875,0.033163998275995255,-0.2429399937391281,-0.059425000101327896,0.0114139998331666,-0.10440299659967422,0.0020240000449121,0.05067700147628784,-0.07207699865102768,-0.02884400077164173,0.2591240108013153,0.02319600060582161,-0.154898002743721,-0.2189989984035492,-0.21241599321365356,-0.12033600360155106,-0.08506699651479721,-0.010367999784648418,-0.06106200069189072,-0.1591310054063797,0.08631599694490433,0.17983099818229675,0.12513099610805511,-0.09564000368118286,0.16106000542640686,0.0075079998932778835,-0.04838699847459793,-0.038256000727415085,0.1771019995212555,-0.11774300038814545,-0.15312400460243225,0.06698399782180786,-0.0015950000379234552,-0.12154600024223328,-0.12143900245428085,0.17367799580097198,-0.17521199584007263,-0.27675899863243103,-0.07982999831438065,-0.15218199789524078,0.02615799941122532,0.12071199715137482,0.09132900089025497,0.18736900389194489,-0.032283999025821686,-0.24444499611854553,-0.058079998940229416,-0.35445499420166016,0.21758699417114258,-0.3086960017681122,-0.04879999905824661,0.06468299776315689,-0.09585099667310715,-0.12592999637126923,-0.09738700091838837,-0.03620300069451332,0.15463599562644958,0.014392999932169914,-0.27619999647140503,-0.03669299930334091,-0.11776500195264816,-0.1912669986486435,-0.0454769991338253,0.2966899871826172,0.07730899751186371,-0.14033900201320648,0.008061000145971775,-0.15071600675582886,-0.030598999932408333,-0.15188799798488617,-0.24206799268722534,0.19924600422382355,-0.27371901273727417,-0.2247229963541031,-0.07770200073719025,-0.06662900000810623,0.18659499287605286,-0.045462001115083694,0.11180999875068665,0.04298900067806244,-0.09106600284576416,0.047242000699043274,-0.006324999965727329,-0.06456899642944336,-0.17736800014972687,-0.05916899815201759,-0.224262997508049,-0.06805700063705444,0.07549700140953064,-0.007368999999016523,-0.002234000014141202,-0.08775799721479416,0.06348499655723572,-0.20086100697517395,0.1490669995546341,-0.13011600077152252,0.003452999982982874,0.14226199686527252,0.10008999705314636,0.06135400012135506,-0.23638500273227692,-0.20663100481033325,-0.10427100211381912,-0.021681999787688255,0.25183698534965515,-0.12553399801254272,-0.009180000051856041,0.0924139991402626,-0.14368000626564026,0.24244199693202972,0.2101999968290329,0.060770999640226364,0.2329780012369156,-0.09478099644184113,0.1469620019197464,0.08917699754238129,-0.051709000021219254,0.05651700124144554,-0.23735499382019043,-0.29229098558425903,0.06762199848890305,0.0982460007071495,0.09869600087404251,0.011487999930977821,0.2658360004425049,-0.005394000094383955,-0.3262070119380951,0.10465600341558456,-0.12680600583553314,0.12814299762248993,-0.026153000071644783,0.03730100020766258,-0.15775400400161743,-0.02248300053179264,-0.015506000258028507,-0.0706230029463768,0.0812079980969429,-0.01689000055193901,-0.1977510005235672,0.2633419930934906,-0.31321901082992554,0.03158999979496002,0.07498600333929062,0.0373230017721653,-0.05232999846339226,-0.011938000097870827,-0.17496299743652344,0.042298998683691025,-0.1462630033493042,-0.03561199828982353,0.06908199936151505,-0.22721999883651733,-0.03407200053334236,-0.09256400167942047,-0.010352999903261662,0.19079400599002838,0.06291399896144867,0.00660100020468235,0.12742699682712555,-0.01472499966621399,0.06554099917411804,-0.034616000950336456,0.01232299953699112,-0.03248300030827522,-0.0879959985613823,-0.17198899388313293,-0.021201999858021736,-0.1073869988322258,-0.07915700227022171,0.004567000083625317,-0.09053800255060196,0.07756199687719345,0.19401000440120697,-0.3614419996738434,0.11694300174713135,-0.08389399945735931,-0.19610899686813354,-0.04224399849772453,-0.047467999160289764,0.10668499767780304,0.2253189980983734,-0.01129900012165308,0.00020199999562464654,0.042906999588012695,-0.16061000525951385,-0.19081799685955048,-0.09408800303936005,-0.01942799985408783,0.12352699786424637,-0.2818849980831146,-0.17748500406742096,-0.16217300295829773,-0.14891600608825684,-0.24388399720191956,0.2445569932460785,0.08282499760389328,0.0874750018119812,-0.18144600093364716,-0.246411994099617,0.024764999747276306,-0.0021730000153183937,0.0011739999754354358,-0.21557499468326569,-0.14358100295066833,-0.06771299988031387,0.004062999971210957,-0.11117299646139145,-0.004234000109136105,0.009685000404715538,0.024514000862836838,-0.2417439967393875,0.06337600201368332,-0.16319400072097778,-0.1178169995546341,-0.004133000038564205,0.13326899707317352,-0.10305000096559525,0.07445599883794785,-0.3130039870738983,-0.02558699995279312,0.02637699991464615,0.04400999844074249,0.35801199078559875,0.23281699419021606,-0.02539999969303608,-0.05590000003576279,-0.10066600143909454,-0.08584199845790863,-0.01934799924492836,-0.10924500226974487,-0.1992889940738678,0.07553000003099442,0.13243499398231506,0.1373700052499771,-0.2013929933309555,-0.05343399941921234,0.14123399555683136,-0.041687000542879105,0.10322300344705582,-0.12714000046253204,0.001554999966174364,0.0935870036482811,0.17427200078964233,0.2654849886894226,-0.014592999592423439,-0.07353100180625916,0.16568000614643097,-0.05539499968290329,-0.10043200105428696,0.005177999846637249,-0.20380300283432007,-0.01231599971652031,0.15119799971580505,-0.05559200048446655,-0.07869599759578705,-0.004102000035345554,-0.011467999778687954,-0.0591760016977787,-0.12193600088357925,-0.12757299840450287,-0.08956900238990784,0.022153999656438828,-0.01405400037765503,-0.013131000101566315,0.022577999159693718,-0.052035000175237656,0.10606499761343002,0.3076370060443878,0.00915099959820509,-0.131181001663208,0.1622290015220642,0.048183001577854156,-0.09982799738645554,0.026093000546097755,0.025178000330924988,0.23737700283527374,-0.024080999195575714,0.13921800255775452,0.10886599868535995,-0.18140800297260284,-0.15930700302124023,0.03172300010919571,-0.1193849965929985,0.07578399777412415,0.06995099782943726,-0.25532200932502747,0.15534600615501404,-0.22662299871444702,-0.4506779909133911,-0.17705799639225006,-0.09722600132226944,-0.26242899894714355,-0.24496200680732727,0.14813299477100372,-0.24658800661563873,-0.0341930016875267,-0.16801400482654572,0.14407500624656677,-0.31435298919677734,-0.14970499277114868,-0.22102999687194824,0.231345996260643,0.14876200258731842,-0.25106701254844666,-0.0675709992647171,-0.03264300152659416,0.12041699886322021,-0.13175800442695618,-0.06503300368785858,0.06751099973917007,0.018641000613570213,-0.19486300647258759,0.09323199838399887,-0.009050000458955765,0.11298800259828568,-0.11795900017023087,0.18568600714206696,-0.14773499965667725,-0.2097810059785843,0.04362399876117706,-0.17069600522518158
限定,0.06157099828124046,-0.16343599557876587,0.05364000052213669,0.19797100126743317,-0.2546809911727905,-0.203452005982399,0.14073899388313293,0.4025450050830841,0.4944170117378235,0.015668999403715134,0.2720850110054016,0.04543500021100044,0.1135689988732338,-0.0021470000501722097,-0.27685898542404175,0.009297999553382397,0.24498499929904938,-0.18757599592208862,-0.14040499925613403,0.010855999775230885,-0.0007239999831654131,-0.228970006108284,-0.016496000811457634,0.07656899839639664,-0.10233800113201141,-0.019625000655651093,0.04582500085234642,-0.14823399484157562,-0.28919801115989685,-0.12151999771595001,-0.14663900434970856,-0.06763000041246414,0.20034100115299225,-0.05017700046300888,0.36408698558807373,0.30115199089050293,0.12529399991035461,-0.2674170136451721,0.06337500363588333,0.0921659991145134,0.20981599390506744,-0.06141500174999237,-0.07482600212097168,0.01756799966096878,0.19533400237560272,0.24935300648212433,0.3889949917793274,-0.08728799968957901,0.20472300052642822,0.05640599876642227,-0.0856660008430481,0.15930700302124023,0.07157599925994873,-0.0692799985408783,0.0824500024318695,0.18531499803066254,-0.0711980015039444,0.21749499440193176,-0.28817299008369446,0.14261899888515472,0.13683800399303436,0.014787999913096428,-0.20047500729560852,-0.05681300163269043,0.09907300025224686,-0.06868699938058853,-0.10019399970769882,-0.14791199564933777,-0.18587499856948853,0.20350199937820435,0.2739900052547455,-0.030734000727534294,-0.08584100008010864,-0.2330940067768097,0.28002700209617615,-0.28288400173187256,0.08856099843978882,0.08963300287723541,0.1576630026102066,-0.06645900011062622,0.18234199285507202,0.1821810007095337,0.04230299964547157,-0.16659000515937805,-0.23977099359035492,-0.32992300391197205,-0.09719999879598618,-0.04144600033760071,-0.013724000193178654,0.18219199776649475,-0.6550549864768982,0.06341200321912766,0.33065199851989746,0.08466199785470963,-0.020569000393152237,-0.1666249930858612,0.07847800105810165,-0.05678499862551689,0.09791299700737,-0.13673600554466248,0.15205000340938568,-0.10054799914360046,0.16439500451087952,0.07276000082492828,0.11570700258016586,-0.21043899655342102,-0.16131900250911713,0.27367401123046875,-0.386898010969162,0.05080299824476242,-0.045935001224279404,0.3620719909667969,-0.10475999861955643,-0.2539980113506317,0.10314500331878662,0.3916360139846802,-0.11807099729776382,0.01558000035583973,-0.015084000304341316,0.17774200439453125,-0.09560299664735794,0.0661809965968132,0.2385289967060089,-0.19982600212097168,0.06262999773025513,0.17827700078487396,-0.13790999352931976,0.18867500126361847,-0.01593800075352192,-0.03189399838447571,0.012232000008225441,-0.21029500663280487,-0.10327299684286118,-0.13311900198459625,-0.05332599952816963,0.21205900609493256,-0.07659299671649933,-0.1444309949874878,0.16556300222873688,0.3330039978027344,-0.12568500638008118,0.15980400145053864,-0.1257600039243698,-0.2202569991350174,-0.32196998596191406,0.07608199864625931,-0.1144540011882782,0.16143399477005005,0.19096100330352783,-0.025536999106407166,-0.2907400131225586,0.0576619990170002,0.032343000173568726,-0.03378700092434883,-0.06252200156450272,-0.16956299543380737,-0.14135199785232544,0.16397500038146973,0.17931899428367615,-0.14574100077152252,-0.17850899696350098,-0.20284999907016754,-0.10864599794149399,-0.08928900212049484,-0.05212000012397766,-0.010882000438869,-0.21543900668621063,-0.30844101309776306,-0.170074000954628,0.13548000156879425,0.21542899310588837,0.22317099571228027,-0.4101540148258209,-0.4270020127296448,-0.028950000181794167,-0.12054499983787537,0.022458000108599663,-0.17481599748134613,0.036414001137018204,-0.22103600203990936,-0.20434899628162384,-0.011726999655365944,0.16523399949073792,-0.019213000312447548,-0.21103399991989136,-0.3908039927482605,-0.03821900114417076,0.22548499703407288,0.015773000195622444,-0.01970200054347515,-0.023713000118732452,-0.18396499752998352,0.07281699776649475,0.264723002910614,-0.19316500425338745,-0.09071999788284302,0.1638849973678589,0.24051900207996368,-0.2787100076675415,0.2852419912815094,-0.42527899146080017,-0.07661899924278259,0.12618200480937958,-0.0058200000785291195,-0.09216699749231339,0.21526899933815002,0.2793410122394562,0.2409999966621399,0.16247299313545227,-0.27586600184440613,0.2692979872226715,0.16407400369644165,0.1433199942111969,0.004011000040918589,-0.17312699556350708,-0.18896199762821198,0.2532840073108673,0.027262000367045403,0.07333000004291534,-0.39779600501060486,-0.3572700023651123,0.35790199041366577,-0.15866699814796448,-0.0020069999154657125,0.09916099905967712,-0.36414799094200134,-0.21488699316978455,0.08729799836874008,0.17823000252246857,0.2561799883842468,0.26697298884391785,0.015457999892532825,0.5776379704475403,0.09926500171422958,-0.09835799783468246,0.08649499714374542,0.038012001663446426,0.08203499764204025,-0.02273700013756752,-0.29556599259376526,0.2169400006532669,-0.40769898891448975,0.028245000168681145,0.15504799783229828,-0.13488300144672394,-0.0053969998843967915,-0.11301899701356888,0.19350799918174744,0.1702210009098053,-0.19902899861335754,0.039225999265909195,-0.07588200271129608,-0.2627260088920593,0.16245600581169128,-0.10198300331830978,-0.2955780029296875,-0.15742500126361847,0.32701900601387024,-0.24659299850463867,0.0716250017285347,0.11224900186061859,0.3061690032482147,0.08258099853992462,0.07162199914455414,-0.09035900235176086,-0.186272993683815,-0.07841499894857407,-0.04737300053238869,0.09184599667787552,0.272693008184433,-0.21513700485229492,0.11610099673271179,0.2795979976654053,-0.023618999868631363,0.053697001188993454,-0.039921000599861145,0.04467599838972092,0.15832200646400452,-0.18431900441646576,0.19499899446964264,-0.06330200284719467,0.15520299971103668,0.0564970001578331,0.44509100914001465,-0.2686069905757904,0.16183100640773773,-0.0246799997985363,-0.06629099696874619,0.31434598565101624,-0.11062599718570709,0.20972900092601776,-0.20599700510501862,-0.011345000006258488,0.14122900366783142,-0.018735000863671303,-0.14752599596977234,0.20613999664783478,0.046174000948667526,0.01318500004708767,-0.1177000030875206,-0.4030269980430603,0.06829500198364258,0.2055480033159256,0.27511700987815857,0.15193399786949158,0.014526000246405602,0.2872140109539032,-0.08008699864149094,-0.04057599976658821,-0.43920499086380005,0.04842400178313255,0.14734899997711182,0.11933200061321259,0.148049995303154,0.1707720011472702,0.29801100492477417,0.3800959885120392,-0.02053700014948845,-0.0772939994931221,0.20081299543380737,-0.07636799663305283,-0.19150499999523163,-0.21719299256801605,-0.2890239953994751,0.05055300146341324,0.3112809956073761,-0.08742599934339523,0.578794002532959,0.05654999986290932,-0.3782140016555786,0.01732500083744526,-0.11364699900150299,-0.27663999795913696,0.14214999973773956,0.11605899780988693,-0.27933499217033386,0.13639000058174133,0.1210319995880127,-0.24301999807357788,-0.007818000391125679,-0.3001759946346283,-0.24396899342536926,-0.14098000526428223,-0.023372000083327293,0.2590219974517822,-0.19667500257492065,0.1872600018978119,-0.10336799919605255,0.06421899795532227,-0.15841500461101532,0.34216898679733276,0.34977400302886963,0.001234999974258244,0.1976030021905899,-0.18429900705814362,-0.012029999867081642,-0.3215639889240265,0.09927500039339066,-0.16961300373077393,0.258762001991272,-0.03092700056731701,0.13369299471378326,-0.3219119906425476,0.15821999311447144,-0.2023169994354248,-0.014512999914586544,-0.05197500064969063,0.03083300031721592,0.03549300134181976,-0.15532700717449188,-0.06448599696159363,-0.10987500101327896,-0.2790850102901459,0.0942630022764206,-0.40153199434280396,-0.19014999270439148,-0.04293200001120567,-0.005394000094383955,0.1833290010690689,0.0934780016541481,-0.2125519961118698,0.1833759993314743,0.08098699897527695,0.3978419899940491,-0.05486200004816055,0.26556000113487244,-0.12487699836492538,-0.4024899899959564,-0.14888200163841248,0.02071399986743927,-0.2064869999885559,-0.19597400724887848,0.24392899870872498,-0.18880100548267365,-0.0652410015463829,-0.028010999783873558,-0.23545600473880768,-0.07579799741506577,0.1621280014514923,0.16739900410175323
系统,0.03576900064945221,0.1622759997844696,0.0007880000048317015,0.05579200014472008,0.2878429889678955,-0.26772698760032654,0.15590700507164001,0.27757900953292847,-0.07878299802541733,-0.07411199808120728,0.2781650125980377,-0.099993996322155,-0.08483800292015076,0.3455129861831665,0.08061599731445312,0.04310400038957596,-0.17145299911499023,-0.014445999637246132,-0.15311199426651,-0.36299198865890503,-0.24104300141334534,-0.163659006357193,0.36739298701286316,-0.008156999945640564,0.02902499958872795,0.19664199650287628,-0.039342001080513,-0.03620000183582306,0.21417200565338135,0.1461780071258545,0.04198100045323372,-0.042883001267910004,0.30945101380348206,-0.05529699847102165,-0.07813499867916107,-0.03924499824643135,0.15867500007152557,-0.3209269940853119,-0.12800100445747375,0.07167000323534012,-0.08310499787330627,-0.08066499978303909,-0.06720399856567383,0.3141550123691559,0.14695100486278534,-0.12432800233364105,-0.07625500112771988,-0.20142200589179993,0.13315199315547943,-0.140733003616333,-0.10143999755382538,0.22969700396060944,0.2797519862651825,-0.10589499771595001,-0.0007009999826550484,-0.08600299805402756,-0.005005999933928251,0.23718999326229095,-0.08778200298547745,0.07245899736881256,-0.15596899390220642,0.13887199759483337,-0.13530799746513367,0.08531100302934647,-0.11126700043678284,0.12691299617290497,0.16151699423789978,-0.21496200561523438,0.012993000447750092,0.26809000968933105,-0.3158999979496002,-0.17262299358844757,0.1812710016965866,-0.12313999980688095,-0.029850000515580177,-0.21027299761772156,0.12623600661754608,0.16880300641059875,0.17319700121879578,-0.031877998262643814,0.007732999976724386,-0.15377099812030792,-0.02847200073301792,-0.1524379998445511,-0.38816800713539124,-0.11207599937915802,0.02850399911403656,0.08016599714756012,-0.11229199916124344,0.01159099955111742,-0.0061240000650286674,0.18229800462722778,-0.3360919952392578,-0.0845159962773323,0.23718500137329102,0.03372599929571152,-0.08997000008821487,-0.21212199330329895,-0.24647900462150574,0.09616400301456451,0.02439800091087818,0.2843700051307678,0.17276699841022491,0.1581750065088272,-0.13367199897766113,0.06928300112485886,-0.21540600061416626,0.07349599897861481,-0.16899999976158142,-0.19683800637722015,-0.18151399493217468,0.034331001341342926,0.020867999643087387,0.01508800033479929,0.10788899660110474,0.005834000185132027,-0.04709099978208542,0.20799599587917328,-0.1685750037431717,-0.012067999690771103,0.12501299381256104,0.32047298550605774,-0.027070000767707825,-0.14479100704193115,0.1323930025100708,0.01012600027024746,-0.24821999669075012,0.08022800087928772,-0.1070529967546463,-0.27222898602485657,0.3284519910812378,-0.14460599422454834,0.1332789957523346,0.22758300602436066,0.08280900120735168,-0.09686499834060669,0.3481529951095581,-0.024430999532341957,-0.05140399932861328,-0.06670500338077545,-0.022283999249339104,-0.11444500088691711,0.13049699366092682,0.13831299543380737,-0.4026400148868561,0.15985000133514404,-0.11777099967002869,-0.13604199886322021,0.029562000185251236,-0.11935299634933472,0.27679699659347534,-0.21223199367523193,0.0030189999379217625,-0.025394000113010406,-0.03272499889135361,0.07591299712657928,0.29497599601745605,0.23239000141620636,-0.05976700037717819,-0.18845699727535248,0.22269000113010406,-0.01941699907183647,-0.17077399790287018,0.1864749938249588,-0.08286000043153763,-0.1350570023059845,0.14573200047016144,0.1547349989414215,-0.15727099776268005,0.09877800196409225,-0.013690999709069729,0.13030099868774414,0.01749200001358986,-0.024677999317646027,-0.0750650018453598,-0.18609599769115448,0.22234100103378296,0.15661700069904327,0.06868500262498856,0.11952599883079529,0.17345599830150604,-0.13180099427700043,-0.26370200514793396,0.1885180026292801,0.08196199685335159,-0.019368000328540802,0.4263029992580414,-0.19171899557113647,0.03383199870586395,-0.15059100091457367,-0.019816000014543533,0.17609600722789764,-0.08640799671411514,0.12370800226926804,0.05674400180578232,0.08045800030231476,0.10825899988412857,-0.012702000327408314,-0.2254049926996231,-0.3037790060043335,0.2471030056476593,-0.11219099909067154,-0.02518399991095066,0.3470500111579895,-0.0998309999704361,-0.1462080031633377,0.17498299479484558,-0.1727450042963028,0.18072499334812164,-0.10170000046491623,0.09973199665546417,0.037882000207901,0.10435499995946884,0.07060900330543518,-0.24090799689292908,0.04955200105905533,0.19653700292110443,0.039110999554395676,0.4491960108280182,-0.032917000353336334,0.26819899678230286,0.07420899718999863,-0.07974600046873093,-0.01459600031375885,0.10016900300979614,-0.22590699791908264,-0.21195000410079956,0.12437000125646591,-0.023892000317573547,-0.22439099848270416,-0.18309299647808075,0.17953400313854218,-0.06988599896430969,0.34936898946762085,-0.3718239963054657,-0.3767240047454834,-0.053665999323129654,0.061560001224279404,-0.0616299994289875,-0.1614619940519333,-0.06723099946975708,-0.14718300104141235,-0.15410900115966797,0.12689299881458282,-0.2888540029525757,-0.04636500030755997,-0.1339460015296936,-0.011033999733626842,-0.048615001142024994,-0.27049899101257324,-0.07769200205802917,-0.05702599883079529,-0.006647999864071608,0.02658900059759617,-0.09686700254678726,0.21865800023078918,0.041850000619888306,-0.01298999972641468,0.0032760000322014093,0.019192000851035118,-0.030511999502778053,0.12628799676895142,0.07535099983215332,0.14769800007343292,-0.02762800082564354,-0.4786120057106018,0.16489699482917786,0.35739800333976746,-0.07665400207042694,-0.26995399594306946,-0.06327100098133087,0.039267998188734055,-0.04605000093579292,-0.03073599934577942,0.19582499563694,-0.03945700079202652,-0.14615100622177124,0.2359520047903061,-0.1603669971227646,0.14872300624847412,0.10211300104856491,-0.03281800076365471,0.06842199712991714,-0.042879000306129456,0.05775900185108185,0.08843900263309479,-0.11252299696207047,0.22328899800777435,0.043515000492334366,-0.05818000063300133,-0.009279999881982803,-0.24310599267482758,0.42384201288223267,-0.14905999600887299,-0.1083260029554367,-0.03761500120162964,0.34116798639297485,-0.037710998207330704,-0.19097599387168884,-0.22217200696468353,0.07766299694776535,0.3689259886741638,0.18681499361991882,-0.2709850072860718,-0.14285700023174286,-0.13079699873924255,-0.06405100226402283,-0.011215999722480774,-0.2491150051355362,0.0599530003964901,0.19674600660800934,0.034961000084877014,0.1115259975194931,-0.05314299836754799,-0.29804301261901855,-0.12800900638103485,0.10988900065422058,0.03318699821829796,0.10833600163459778,-0.18192000687122345,-0.2231529951095581,-0.131413996219635,0.03354800119996071,0.14701400697231293,0.10294900089502335,-0.16680000722408295,0.4407149851322174,-0.2811090052127838,-0.06669799983501434,-0.2736000120639801,0.07377699762582779,0.1732410043478012,0.03499099984765053,-0.26838499307632446,0.05192999914288521,-0.01001300010830164,-0.03503800183534622,0.1290780007839203,-0.21845600008964539,-0.0009599999757483602,-0.20951800048351288,-0.18129600584506989,-0.11893600225448608,0.01280600018799305,-0.19905999302864075,-0.10137800127267838,-0.011528000235557556,0.28786200284957886,-0.09778100252151489,-0.04324299842119217,0.08382900059223175,0.046316999942064285,-0.2275719940662384,0.2274080067873001,0.16213400661945343,-0.18988999724388123,-0.2606160044670105,0.3509329855442047,0.046452999114990234,-0.19113999605178833,0.14343099296092987,0.00964600034058094,-0.23051699995994568,-0.197625994682312,-0.047463998198509216,-0.09319300204515457,0.1922679990530014,-0.2909500002861023,-0.2084449976682663,-0.10633700340986252,0.1324310004711151,-0.23059199750423431,-0.11530599743127823,-0.03283600136637688,0.08026500046253204,0.06364099681377411,-0.06502299755811691,0.07145500183105469,-0.1694680005311966,-0.11677099764347076,-0.10128799825906754,0.023461999371647835,0.09307000041007996,-0.08856300264596939,-0.02120400033891201,0.3532150089740753,0.15003399550914764,-0.19794400036334991,0.19982300698757172,-0.043939001858234406,-0.3011229932308197,0.10812299698591232,0.16010400652885437,0.06160299852490425,-0.05113000050187111,0.28325599431991577,-0.29485899209976196,-0.06914299726486206,0.055674001574516296,-0.18412700295448303
组件,-0.15410099923610687,0.20815399289131165,0.13605700433254242,0.13604900240898132,-0.0015480000292882323,-0.0362199991941452,-0.2371249943971634,-0.022238999605178833,0.2545759975910187,0.013721000403165817,0.21309000253677368,0.19955000281333923,-0.07794900238513947,0.13516999781131744,-0.23409199714660645,-0.3575519919395447,0.09243399649858475,0.24003300070762634,-0.22461900115013123,-0.36949700117111206,0.1942490041255951,-0.2570900022983551,0.2124200016260147,-0.13837799429893494,0.16215400397777557,0.16680899262428284,0.13385799527168274,-0.1813810020685196,-0.21136300265789032,-0.12568099796772003,0.08015400171279907,0.051732998341321945,0.1353140026330948,-0.022092999890446663,-0.33422601222991943,-0.3703019917011261,-0.06241700053215027,-0.3940330147743225,0.1848219931125641,0.17259499430656433,0.060378000140190125,0.1430560052394867,-0.09482099860906601,-0.06929700076580048,0.04453900083899498,-0.13308300077915192,-0.19048799574375153,0.12967200577259064,-0.003745000110939145,-0.1069749966263771,-0.17870000004768372,0.16832900047302246,0.04822700098156929,-0.23792800307273865,0.31609100103378296,-0.016642000526189804,-0.26510998606681824,0.13932499289512634,0.2167000025510788,0.5254769921302795,-0.04047999903559685,0.155117005109787,-0.12857800722122192,0.236967995762825,0.0331990011036396,0.15300899744033813,-0.12387000024318695,-0.09259899705648422,0.21076300740242004,-0.03521399945020676,-0.3079119920730591,-0.09009999781847,-0.24897800385951996,0.12472400069236755,0.20261600613594055,-0.4473640024662018,0.4369789958000183,0.3017849922180176,0.3965109884738922,0.292169988155365,0.1768060028553009,-0.2574880123138428,-0.11776100099086761,0.01867000013589859,-0.027931999415159225,0.08898799866437912,-0.06470700353384018,0.05965900048613548,-0.14150799810886383,0.01830900087952614,0.02834399975836277,-0.175913006067276,0.034605998545885086,-0.26774799823760986,0.21134600043296814,-0.04192399978637695,0.2341260015964508,0.05373099818825722,0.003487000009045005,0.18415400385856628,-0.00036100001307204366,-0.0704289972782135,-0.04365500062704086,0.057068001478910446,-0.022683000192046165,0.12068799883127213,-0.11486499756574631,0.046424999833106995,-0.08100800216197968,-0.1070370003581047,-0.048273999243974686,0.11816500127315521,0.1325719952583313,0.048510998487472534,0.2746489942073822,0.07264400273561478,-0.09791000187397003,0.24086600542068481,-0.07710299640893936,0.282507985830307,0.02290700003504753,0.12979400157928467,-0.06768599897623062,0.16793300211429596,0.21916499733924866,-0.06394399702548981,-0.0007249999907799065,-0.05606300011277199,-0.07722000032663345,-0.07700099796056747,-0.09982699900865555,-0.12755300104618073,0.11925599724054337,0.10899999737739563,0.18341000378131866,0.0704990029335022,0.0070039997808635235,0.08628100156784058,-0.10344000160694122,0.09558799862861633,-0.08454100042581558,0.2629910111427307,0.09845200181007385,0.1041869968175888,-0.33630698919296265,-0.3122349977493286,-0.3395330011844635,0.018800999969244003,-0.09316900372505188,-0.15310199558734894,-0.06292500346899033,-0.11106999963521957,-0.003819999983534217,0.18832500278949738,0.2994239926338196,0.09993399679660797,-0.16413800418376923,-0.027821000665426254,-0.018820999190211296,-0.24709099531173706,-0.16614100337028503,-0.0609159991145134,0.2074120044708252,0.15816499292850494,-0.15482600033283234,-0.049341000616550446,0.054019998759031296,0.2995930016040802,-0.030161000788211823,0.02753099985420704,0.0926010012626648,0.2153960019350052,-0.22532899677753448,-0.14611199498176575,0.32071399688720703,-0.09380300343036652,0.23378099501132965,0.20000700652599335,-0.013620000332593918,-0.1257449984550476,-0.13354800641536713,-0.35280299186706543,-0.1967960000038147,0.02624399960041046,0.07822500169277191,0.11817999929189682,0.33987200260162354,-0.08525100350379944,0.1762090027332306,0.2618739902973175,0.10151799768209457,0.0005530000198632479,-0.2548980116844177,-0.1802860051393509,-0.06409099698066711,-0.12457499653100967,0.06294099986553192,-0.26044198870658875,-0.4276539981365204,-0.183569997549057,-0.03847699984908104,-0.012381999753415585,0.14418600499629974,0.22998599708080292,-0.10130900144577026,-0.37543201446533203,0.06763800233602524,-0.0433490015566349,-0.111455999314785,-0.1664070039987564,-0.11853200197219849,0.07774899899959564,-0.07703299820423126,0.10535500198602676,0.04093300178647041,-0.26085400581359863,0.22863000631332397,-0.4338169991970062,0.397816002368927,-0.2841230034828186,-0.033865999430418015,0.19766899943351746,-0.06099199876189232,0.025533000007271767,-0.122748002409935,0.015434999950230122,-0.17751599848270416,-0.06889700144529343,0.24648700654506683,0.08146599680185318,-0.20565199851989746,-0.1661510020494461,0.031626999378204346,-0.00018600000475998968,0.08367100358009338,0.1145699992775917,0.2887119948863983,0.14557400345802307,0.03586500138044357,-0.12075299769639969,0.12641499936580658,-0.20137900114059448,-0.048245999962091446,-0.07435200363397598,-0.025590000674128532,-0.16801300644874573,0.008551999926567078,-0.15355700254440308,0.17675399780273438,-0.07456400245428085,-0.014952999539673328,-0.15936000645160675,-0.04950999841094017,0.2879190146923065,-0.052241001278162,-0.017324000597000122,-0.2328770011663437,-0.03005800023674965,0.010445999912917614,0.2271369993686676,0.3014959990978241,-0.2245279997587204,-0.1587969958782196,-0.0350940003991127,-0.08831900358200073,-0.2533850073814392,0.22301700711250305,0.024560000747442245,-0.19383999705314636,-0.13613100349903107,0.09158799797296524,0.059463001787662506,-0.09324000030755997,-0.2860890030860901,0.15587499737739563,0.3413099944591522,0.22834999859333038,0.05239599943161011,-0.09209500253200531,0.08323799818754196,0.26231399178504944,-0.3377920091152191,0.14172400534152985,-0.09194300323724747,-0.21741999685764313,-0.0937270000576973,-0.04855399951338768,-0.13888700306415558,0.21888700127601624,-0.2493250072002411,0.12248899787664413,-0.11892300099134445,0.13609400391578674,-0.08633200079202652,0.03235999867320061,-0.49586600065231323,-0.23949000239372253,0.019061999395489693,0.25523999333381653,0.45799100399017334,0.07401999831199646,0.5109919905662537,-0.21060000360012054,-0.23395000398159027,-0.07712399959564209,0.010142999701201916,-0.01355000026524067,0.048406001180410385,-0.19014599919319153,-0.2184399962425232,0.2268799990415573,0.07257799804210663,0.2782039940357208,-0.07295800000429153,-0.306427001953125,0.21323800086975098,-0.0376180000603199,-0.06721200048923492,-0.05140899866819382,-0.035523999482393265,-0.24743600189685822,0.027123000472784042,-0.19533699750900269,0.08950799703598022,-0.08408699929714203,-0.1668889969587326,0.12492699921131134,-0.0009560000034980476,-0.026781000196933746,-0.25133100152015686,0.3505060076713562,-0.12886400520801544,-0.26794201135635376,-0.041186001151800156,-0.21534399688243866,0.15963099896907806,-0.3486729860305786,-0.6137710213661194,-0.276854008436203,0.0774959996342659,0.35420098900794983,0.2097810059785843,-0.20419499278068542,-0.12192899733781815,0.09659899771213531,-0.03221200034022331,0.2847200036048889,0.17535999417304993,0.15059900283813477,0.20313000679016113,-0.012853999622166157,-0.28266599774360657,-0.023793000727891922,-0.023566000163555145,-0.13246500492095947,0.0070130000822246075,-0.20667800307273865,0.21503899991512299,0.42420101165771484,0.08762399852275848,0.11154299974441528,-0.007770000025629997,0.19776399433612823,-0.15961900353431702,-0.3375430107116699,-0.016259999945759773,-0.18998299539089203,-0.32062700390815735,0.04231499880552292,-0.23875799775123596,-0.16771799325942993,-0.36132699251174927,-0.09442900121212006,0.05550999939441681,5.999999848427251e-05,0.10546799749135971,-0.06651999801397324,-0.4331449866294861,0.1377120018005371,0.10554800182580948,-0.08289600163698196,-0.0945649966597557,-0.15388399362564087,0.022312000393867493,0.23690299689769745,0.014011000283062458,0.014228999614715576,0.09129200130701065,-0.22137300670146942,0.15652300417423248,0.06823500245809555,0.15729999542236328,0.14892500638961792,-0.015893999487161636,-0.04406299814581871,-0.09192000329494476,-0.24074800312519073,0.4301289916038513,-0.21544300019741058,-0.08920100331306458
间隙,-0.06480800360441208,0.4005489945411682,0.0018570000538602471,-0.0705529972910881,0.04491699859499931,-0.1615390032529831,0.21088199317455292,0.16301600635051727,0.016860000789165497,0.028258999809622765,0.07619299739599228,0.19816899299621582,0.015776999294757843,-0.1020750030875206,-0.1471939980983734,-0.03412200137972832,-0.1054999977350235,0.13804300129413605,-0.014181000180542469,0.06468500196933746,0.030070999637246132,-0.052299000322818756,-0.005133999977260828,-0.007073999848216772,-0.20073099434375763,0.18759599328041077,-0.35245901346206665,-0.14260199666023254,-0.15457099676132202,-0.045673999935388565,0.13948799669742584,-0.08348599821329117,-0.19360600411891937,0.03661400079727173,-0.051895998418331146,-0.20502300560474396,0.12575200200080872,-0.06858000159263611,0.2739950120449066,0.20927700400352478,-0.34561899304389954,-0.058820001780986786,-0.42219099402427673,0.04122599959373474,0.17947199940681458,-0.04705499857664108,0.10716299712657928,0.0769369974732399,0.1599300056695938,-0.12423600256443024,0.046914998441934586,0.008178000338375568,-0.21809400618076324,0.023742999881505966,0.19748499989509583,0.11090400069952011,0.03583899885416031,-0.15510700643062592,0.10380499809980392,0.005257000215351582,-0.08856599777936935,0.07619699835777283,0.013240999542176723,-0.0243500005453825,-0.01839499920606613,-0.04061099886894226,0.06583099812269211,0.05175299942493439,0.1946599930524826,0.12544800341129303,-0.21417999267578125,0.04638500139117241,-0.011966000311076641,0.07174500077962875,0.07376699894666672,0.16630999743938446,-0.00861200038343668,-0.10716799646615982,0.01401199959218502,0.11488799750804901,-0.09099800139665604,0.020508000627160072,-0.17170999944210052,-0.020256999880075455,-0.10422199964523315,0.11932200193405151,0.4328039884567261,0.09532500058412552,-0.05845100060105324,0.02111699990928173,0.1754159927368164,-0.13329200446605682,0.09015800058841705,0.08751299977302551,-0.14263400435447693,-0.013094999827444553,-0.1748420000076294,-0.07607000321149826,0.014820000156760216,0.027679000049829483,0.12104800343513489,0.06877700239419937,-0.0898900032043457,0.32722699642181396,0.20157399773597717,0.06756000220775604,-0.1769780069589615,0.19817900657653809,-0.09464800357818604,0.04766999930143356,0.12305600196123123,-0.05843700096011162,0.11897599697113037,0.0880580022931099,0.1867779940366745,0.054023999720811844,0.15316399931907654,0.08310200273990631,-0.0433179996907711,0.1632619947195053,0.24257700145244598,-0.0041680000722408295,-0.05171399936079979,0.09725599735975266,0.18009400367736816,0.3201330006122589,-0.14226700365543365,0.10501600056886673,0.04057399928569794,-0.06406199932098389,0.254381000995636,-0.10027600079774857,-0.054722998291254044,0.15481199324131012,-0.028131000697612762,0.05894500017166138,-0.07440699636936188,0.04695500060915947,-0.13701100647449493,0.20808400213718414,0.006568000186234713,0.0983550027012825,-0.019209999591112137,-0.05159299820661545,0.002457000082358718,-0.10228099673986435,-0.19056600332260132,0.13238799571990967,-0.1871899962425232,-0.14631099998950958,0.17363500595092773,-0.25064098834991455,0.021669000387191772,-0.13084900379180908,-0.1376899927854538,-0.11222200095653534,-0.11154299974441528,0.2813909947872162,0.14593499898910522,-0.11063700169324875,0.038107000291347504,0.21929599344730377,0.03667199984192848,-0.2242880016565323,-0.06270399689674377,-0.14334499835968018,-0.15524700284004211,0.17698100209236145,0.05785499885678291,0.10426799952983856,-0.2852810025215149,0.337116003036499,-0.2065410017967224,0.011002999730408192,-0.19013799726963043,-0.17420999705791473,0.12626400589942932,0.027899999171495438,0.004466999787837267,0.12444499880075455,0.06740999966859818,-0.04252900183200836,-0.3346000015735626,-0.07702499628067017,-0.2405879944562912,-0.16368600726127625,0.06025499850511551,-0.054455000907182693,0.5145260095596313,0.15346099436283112,-0.02781599946320057,-0.17092199623584747,-0.11898499727249146,0.007011000066995621,-0.007222999818623066,-0.18327400088310242,-0.10673200339078903,-0.2601050138473511,-0.024080000817775726,0.021635999903082848,-0.00837399996817112,0.04636700078845024,-0.1950480043888092,0.15409399569034576,-0.047579001635313034,-0.2522459924221039,0.06623700261116028,-0.020679999142885208,0.06633699685335159,-0.04718700051307678,-0.10843999683856964,-0.3753249943256378,0.028015999123454094,0.08074499666690826,0.19015799462795258,0.024264000356197357,0.14064399898052216,-0.2165369987487793,0.21817000210285187,-0.07959999889135361,0.10910200327634811,0.18729400634765625,-0.14476600289344788,-0.06218399852514267,-0.20612700283527374,0.2905530035495758,-0.00013800000306218863,-0.0902400016784668,-0.05382499843835831,0.06637000292539597,-0.05982600152492523,-0.2535110116004944,-0.058031998574733734,0.13085900247097015,0.32013699412345886,0.23158299922943115,-0.21909099817276,0.26744699478149414,-0.04872399941086769,0.04304400086402893,-0.16176800429821014,-0.13058899343013763,0.062130000442266464,-0.29260900616645813,-0.017342999577522278,-0.0006929999799467623,-0.1645430028438568,0.13977600634098053,-0.27000999450683594,-0.3317599892616272,0.09227900207042694,-0.05116900056600571,-0.29848599433898926,0.20270399749279022,-0.06970799714326859,-0.14345400035381317,-0.10899899899959564,-0.02552100084722042,-0.04297899827361107,0.09783399850130081,0.07285899668931961,0.14004699885845184,0.058014001697301865,-0.19949300587177277,0.2922869920730591,-0.011934000067412853,-0.09790600091218948,0.09198299795389175,-0.4721289873123169,-0.10765299946069717,-0.21791599690914154,-0.2215230017900467,-0.20556199550628662,0.13923700153827667,0.08099299669265747,0.40262100100517273,-0.040001001209020615,-0.007724999915808439,0.1231900006532669,0.07995200157165527,-0.26547500491142273,-0.047878000885248184,0.15656299889087677,-0.020471999421715736,-0.1162479966878891,-0.09641599655151367,0.20458799600601196,-0.10363099724054337,-0.15197999775409698,0.06420200318098068,-0.09321899712085724,-0.320948988199234,0.20810499787330627,-0.17516300082206726,-0.012281999923288822,0.0788780003786087,0.023520000278949738,0.28176799416542053,0.1651179939508438,-0.0342090018093586,0.162664994597435,0.4304719865322113,0.07373999804258347,-0.27720001339912415,0.13672900199890137,-0.06236900016665459,0.0013249999610707164,0.12369100004434586,0.08167999982833862,-0.13779599964618683,0.0685959979891777,0.07932700216770172,0.06008699908852577,0.0435979999601841,-0.10544700175523758,-0.19463500380516052,-0.041315000504255295,-0.06311599910259247,0.0037410000804811716,-0.04583200067281723,0.29010000824928284,-0.027187999337911606,0.1785690039396286,0.23753300309181213,-0.15661199390888214,-0.05502999946475029,-0.08174300193786621,0.040456000715494156,-0.02115900069475174,0.02174600027501583,0.04386400058865547,0.05183200165629387,-0.13412100076675415,-0.13395699858665466,-0.03187200054526329,0.028328999876976013,0.1183990016579628,-0.20044200122356415,0.09789899736642838,-0.09778299927711487,-0.06430400162935257,-0.17208099365234375,-0.24863199889659882,-0.012536000460386276,0.22157999873161316,0.0011070000473409891,0.19367200136184692,0.14700600504875183,-0.08219099789857864,0.17126600444316864,-0.012035000137984753,-0.10754600167274475,0.056655000895261765,-0.016898000612854958,0.2262360006570816,-0.20966899394989014,0.15349599719047546,0.2935259938240051,-0.08073300123214722,0.0068259998224675655,-0.16540899872779846,-0.05601400136947632,-0.16049200296401978,0.27714499831199646,-0.33904799818992615,0.03946400061249733,-0.24928799271583557,-0.1188800036907196,-0.10607700049877167,-0.1027270033955574,-0.5034120082855225,0.04227200150489807,0.23246000707149506,-0.19201500713825226,-0.0021410000044852495,-0.00021499999274965376,-0.05123699828982353,-0.14295199513435364,-0.08541899919509888,0.003963000141084194,-0.0030930000357329845,-0.011459999717772007,0.030348999425768852,-0.08998700231313705,0.021904999390244484,0.23069900274276733,-0.05842500180006027,0.35752201080322266,0.05634799972176552,0.11866600066423416,-0.27588599920272827,0.1748960018157959,0.0039029999170452356,0.016922999173402786,-0.04524099826812744,0.02112100087106228,-0.26653799414634705,-0.042114999145269394,0.012045999988913536,-0.21563300490379333
设置,-0.24219299852848053,-0.003386999946087599,-0.017250999808311462,-0.16090600192546844,0.027705000713467598,-0.06530000269412994,0.0937810018658638,0.13781599700450897,0.13665400445461273,0.0601079985499382,0.07525099813938141,-0.12111800163984299,0.05291000008583069,-0.1245419979095459,0.11925499886274338,-0.004226999823004007,-0.3014650046825409,0.14162400364875793,0.09326200187206268,0.15757599472999573,0.08017099648714066,-0.013817000202834606,0.013612000271677971,0.19095200300216675,0.05414700135588646,-0.1459379941225052,-0.2377530038356781,-0.028053000569343567,-0.13364499807357788,0.21267899870872498,0.17875799536705017,0.11381500214338303,0.3395810127258301,0.01704300008714199,-0.09262800216674805,-0.0408950001001358,-0.07787100225687027,-0.2195039987564087,-0.07176099717617035,0.17216500639915466,0.03164700046181679,-0.08211600035429001,0.03771800175309181,0.20202499628067017,-0.19272899627685547,-0.12656700611114502,0.21924400329589844,-0.044791001826524734,0.008449999615550041,-0.14957700669765472,0.009789000265300274,0.017400000244379044,-0.0628649964928627,-0.1464949995279312,0.09599100053310394,0.08431100100278854,-0.1522749960422516,-0.0880730003118515,0.08643899857997894,0.15208299458026886,-0.12092000246047974,-0.180417999625206,-0.15861399471759796,-0.0754380002617836,-0.13749900460243225,-0.09912899881601334,-0.01911799982190132,-0.09533199667930603,0.21074099838733673,0.009410999715328217,0.18221400678157806,0.08403699845075607,0.2560200095176697,-0.16892200708389282,0.22686800360679626,-0.07566600292921066,0.06780900061130524,-0.180308997631073,-0.04087800160050392,-0.10499999672174454,0.0073379999957978725,-0.04626699909567833,-0.05695300176739693,0.1267250031232834,-0.05477700009942055,0.14632700383663177,0.007319999858736992,0.0648529976606369,-0.08350999653339386,0.1390649974346161,-0.17472900450229645,-0.11455799639225006,0.03670400008559227,-0.02530200034379959,-0.024799000471830368,-0.1730480045080185,0.04098299890756607,0.021942000836133957,-0.11040099710226059,0.07857699692249298,0.23943200707435608,0.30651599168777466,0.1375190019607544,0.2032189965248108,0.024267999455332756,-0.0704910010099411,0.0729139968752861,-0.03860300034284592,0.14065299928188324,-0.08459299802780151,0.19492599368095398,0.016781000420451164,0.029968999326229095,-0.19666600227355957,0.12292499840259552,-0.17699900269508362,-0.07004199922084808,0.07158999890089035,-0.005303000099956989,-0.09079600125551224,0.07355599850416183,-0.04769200086593628,0.3420589864253998,0.029270999133586884,0.09280499815940857,-0.03990299999713898,-0.07219800353050232,-0.042128998786211014,-0.007999000139534473,0.16699600219726562,-0.007942000404000282,0.0266759991645813,-0.01119299978017807,0.11165499687194824,-0.009665999561548233,-0.06383699923753738,-0.004908999893814325,-0.024383999407291412,-0.136913001537323,0.2023800015449524,-0.10977499932050705,-0.1117509976029396,-0.0817210003733635,0.019968999549746513,-0.14014999568462372,-0.01069399993866682,-0.13897299766540527,-0.1719380021095276,0.010216999799013138,-0.10702600330114365,-0.06701900064945221,-0.21649900078773499,0.3285680115222931,0.1162090003490448,-0.11869800090789795,0.16008399426937103,0.010610000230371952,0.00811500009149313,0.11700300127267838,-0.33688101172447205,-0.19071799516677856,0.04253799840807915,0.12101700156927109,0.1592240035533905,-0.15244600176811218,0.04196999967098236,0.0058929999358952045,-0.23082199692726135,0.10821499675512314,0.08273199945688248,0.03282599896192551,0.005861999932676554,-0.1577250063419342,-0.12123899906873703,-0.021584000438451767,0.02925500087440014,0.04303300008177757,0.067330002784729,-0.11168599873781204,-0.16793300211429596,0.10984800010919571,-0.08254999667406082,0.1807740032672882,-0.062118999660015106,-0.09626299887895584,-0.15424099564552307,0.057976000010967255,-0.07269900292158127,0.0435510016977787,0.23272399604320526,0.1815900057554245,0.09914900362491608,0.011783000081777573,0.04378800094127655,-0.05028200149536133,0.021810000762343407,-0.19525299966335297,-0.024041999131441116,-0.3110620081424713,-0.04922199994325638,0.1218940019607544,-0.11207699775695801,0.1718209981918335,0.11335500329732895,0.3266980051994324,-0.4339419901371002,-0.022915000095963478,0.24120299518108368,0.09135500341653824,-0.3060469925403595,0.17890499532222748,-0.10893800109624863,-0.013252000324428082,0.14868299663066864,0.04461300000548363,0.14285099506378174,0.023669999092817307,-0.25714099407196045,0.13013699650764465,-0.07840800285339355,-0.07916499674320221,0.13832299411296844,0.233801007270813,-0.011157000437378883,0.1322679966688156,-0.12770700454711914,0.07618600130081177,-0.07867699861526489,0.01380900014191866,-0.15228499472141266,-0.13018600642681122,-0.15996600687503815,0.04286300018429756,0.3628160059452057,0.1316089928150177,-0.0020230000372976065,-0.02249399945139885,0.27586400508880615,-0.2019059956073761,-0.09580700099468231,-0.21956099569797516,-0.12138500064611435,-0.05606900155544281,0.06232300028204918,-0.03468199819326401,-0.0050570000894367695,-0.1314219981431961,-0.14954699575901031,0.015838999301195145,0.0008299999753944576,-0.04173799976706505,0.04731599986553192,0.1546269953250885,-0.11399699747562408,0.01685599982738495,-0.0054870001040399075,0.09171400219202042,-0.1942799985408783,0.05149099975824356,0.09930100291967392,-0.0744590014219284,0.13896900415420532,0.045333001762628555,-0.010821999981999397,-0.09602899849414825,-0.23184999823570251,0.004137999843806028,0.2003919929265976,0.05372599884867668,-0.04914899915456772,-0.0068060001358389854,0.17780199646949768,-0.030628999695181847,0.1661970019340515,0.1278340071439743,0.28681498765945435,-0.09423299878835678,0.0012649999698624015,-0.09825800359249115,0.09377399832010269,-0.12553200125694275,0.011013999581336975,0.028780000284314156,0.08418100327253342,-0.2381110042333603,-0.06743299961090088,-0.11106500029563904,-0.11270999908447266,0.07512100040912628,0.11179400235414505,-0.018712999299168587,-0.29552799463272095,-0.024949999526143074,0.06447000056505203,0.026784000918269157,0.024202000349760056,-0.18198099732398987,-0.10134600102901459,-0.06425099819898605,-3.999999989900971e-06,-0.1370069980621338,0.29740598797798157,0.060857001692056656,-0.06467799842357635,0.13082699477672577,0.22677700221538544,-0.3297649919986725,-0.19866499304771423,-0.1364150047302246,0.007613999769091606,0.035447001457214355,-0.16842299699783325,0.3384940028190613,0.06619399785995483,-0.12757200002670288,0.23801399767398834,-0.09294600039720535,-0.021340999752283096,-0.172885000705719,-0.11546900123357773,0.060867998749017715,-0.014960000291466713,0.24453499913215637,-0.03746199980378151,-0.00036100001307204366,0.15299999713897705,0.2295610010623932,-0.11073599755764008,0.00227600010111928,0.029503000900149345,-0.2344059944152832,0.029523000121116638,-0.041832998394966125,0.1633719950914383,-0.057294998317956924,0.17483900487422943,-0.08604100346565247,-0.0843610018491745,-0.08840099722146988,0.1386449933052063,-0.21788500249385834,0.12256599962711334,-0.08934199810028076,-0.03948400169610977,-0.11228100210428238,-0.0007719999994151294,0.2299100011587143,0.13965299725532532,-0.02387399971485138,-0.046581998467445374,-0.3276979923248291,-0.20399999618530273,0.011455000378191471,-0.06024400144815445,0.15821799635887146,0.01547900028526783,-0.0016220000106841326,0.21072900295257568,0.23059499263763428,-0.018782999366521835,-0.01076200045645237,-0.031863000243902206,-0.06780599802732468,0.025231000036001205,-0.021093999966979027,0.01281999982893467,-0.2746640145778656,-0.018681000918149948,-0.26636001467704773,-0.08741199970245361,-0.026381000876426697,-0.14244399964809418,0.21720099449157715,-0.19802600145339966,-0.11454100161790848,-0.1791680008172989,0.019254999235272408,0.1701429933309555,0.20169800519943237,-0.049810998141765594,0.07662300020456314,-0.026573000475764275,0.08296900242567062,0.07705199718475342,0.05678499862551689,-0.1337359994649887,-0.18575400114059448,0.10924600064754486,-0.23072600364685059,-0.05025799944996834,0.004534000065177679,0.005779999773949385,-0.09378000348806381,0.02805200032889843,0.03698199987411499,0.01682399958372116,-0.010920999571681023,-0.06812900304794312,-0.1664469987154007,0.1548209935426712
总成,-0.03861699998378754,0.39506199955940247,0.06069700047373772,0.153998002409935,0.10813699662685394,-0.14538800716400146,-0.0874439999461174,0.21286000311374664,0.1838349997997284,0.18011799454689026,-0.1546040028333664,0.3027859926223755,0.06701400130987167,-0.1190280020236969,-0.40231698751449585,-0.1585109978914261,-0.06161599978804588,-0.03073599934577942,-0.25473201274871826,-0.0873119980096817,0.051357001066207886,-0.14387699961662292,0.08792799711227417,-0.02569499984383583,0.13690400123596191,0.2050980031490326,0.20405100286006927,-0.15347400307655334,-0.20633499324321747,0.002725000027567148,-0.03665899857878685,-0.028071999549865723,0.1852940022945404,-0.0724480003118515,-0.008170999586582184,0.003108999924734235,0.06298000365495682,-0.1010190024971962,0.3420720100402832,0.14817799627780914,-0.01671699993312359,-0.023943999782204628,-0.14783400297164917,0.0749950036406517,-0.0018489999929443002,-0.13352400064468384,0.03082999959588051,-0.12865200638771057,0.009593999944627285,-0.2781519889831543,-0.021201999858021736,0.06814700365066528,0.07410100102424622,0.061539001762866974,0.15089699625968933,0.20784300565719604,-0.07155700027942657,0.003396000014618039,0.038975998759269714,0.05648199841380119,-0.157150998711586,0.09401000291109085,-0.040435001254081726,0.1096000000834465,-0.051398999989032745,0.07893200218677521,-0.2251800000667572,-0.0013340000296011567,0.13086700439453125,-0.07776899635791779,-0.15297000110149384,-0.0964369997382164,0.003476999932900071,-0.11510100215673447,0.23189300298690796,-0.1464499980211258,0.020552000030875206,0.17478600144386292,0.23809200525283813,0.19013799726963043,-0.015929000452160835,-0.25844600796699524,-0.0053400001488626,-0.10368700325489044,0.046177998185157776,0.2569960057735443,0.13813799619674683,0.22477200627326965,-0.118648000061512,0.04696900025010109,0.20688700675964355,-0.0840890035033226,-0.017849000170826912,-0.031980000436306,0.083406001329422,0.0836540013551712,0.18753699958324432,-0.27945199608802795,0.18763700127601624,0.08768899738788605,-0.22370800375938416,0.001993000041693449,0.16214799880981445,0.01169199962168932,-0.036348000168800354,0.11035499721765518,-0.07219699770212173,0.09063699841499329,-0.15235400199890137,-0.19402599334716797,0.13561399281024933,0.09542500227689743,0.19145900011062622,-0.0169840008020401,-0.014267999678850174,0.2341880053281784,0.01474899984896183,-0.10798600316047668,-0.10283699631690979,-0.011748000048100948,0.04003800079226494,-0.0038920000661164522,-0.01928599923849106,0.13232499361038208,0.35462498664855957,-0.17462100088596344,-0.1649640053510666,-0.1351190060377121,-0.06361600011587143,-0.0911329984664917,-0.06371200084686279,-0.10802499949932098,0.13992199301719666,0.029097000136971474,-0.003120000008493662,0.010626000352203846,0.0314750000834465,-0.07447499781847,-0.1287039965391159,0.01650499925017357,-0.030084000900387764,0.08177100121974945,0.06278499960899353,-0.06108099967241287,-0.34912899136543274,0.044746000319719315,-0.202674001455307,0.0014199999859556556,0.1301800012588501,0.10867200046777725,0.14877299964427948,-0.27772098779678345,0.08497399836778641,-0.06559400260448456,0.18022599816322327,0.014035999774932861,0.06469099968671799,-0.10128100216388702,0.165584996342659,-0.2394929975271225,0.07057099789381027,0.06351900100708008,-0.18394100666046143,0.23428699374198914,-0.056370001286268234,-0.08207099884748459,-0.19003599882125854,-0.01971299946308136,-0.17034000158309937,0.1052279993891716,0.07882499694824219,0.07281900197267532,0.05168600007891655,0.04883899912238121,-0.018100999295711517,-0.00019200000679120421,-0.16586700081825256,0.10864599794149399,-0.06395699828863144,-0.18782900273799896,-0.03553900122642517,0.0244159996509552,-0.09895200282335281,-0.05323600023984909,-0.05918100103735924,0.17778700590133667,-0.04183200001716614,0.04706700146198273,0.11226800084114075,0.0002840000088326633,-0.07181700319051743,-0.11722899973392487,-0.20893700420856476,0.13797299563884735,0.1442819982767105,-0.1551560014486313,0.09874700009822845,-0.07681900262832642,-0.2104330062866211,-0.107744000852108,0.18340399861335754,-0.09262000024318695,0.09843999892473221,0.2919510006904602,0.22961600124835968,-0.5087760090827942,0.2840830087661743,-0.1843309998512268,0.01282500009983778,-0.035509999841451645,-0.3015489876270294,-0.06380899995565414,-0.005896999966353178,0.07526399940252304,0.047644998878240585,-0.19091400504112244,0.16134999692440033,-0.1670749932527542,0.3583019971847534,0.1800280064344406,-0.1704230010509491,0.08198600262403488,0.1584790050983429,-0.16519099473953247,-0.014216000214219093,0.12901900708675385,-0.014917000196874142,0.012232000008225441,-0.08076199889183044,0.07881200313568115,-0.11948999762535095,0.10082200169563293,0.009418999776244164,-0.04434699937701225,0.03130900114774704,-0.020375000312924385,0.056713998317718506,0.08412399888038635,0.2199449986219406,-0.14103500545024872,0.13771900534629822,-0.2908659875392914,-0.12863799929618835,0.014932000078260899,0.14207200706005096,0.025939999148249626,-0.09977500140666962,0.09579599648714066,-0.016217000782489777,0.03086799941956997,0.07381799817085266,0.06660299748182297,-0.043595001101493835,-0.041708000004291534,-0.03159699961543083,0.023320000618696213,-0.041430000215768814,0.0770139992237091,0.20746800303459167,0.014844000339508057,0.17859600484371185,0.06484600156545639,0.030086999759078026,0.04468600079417229,-0.08192399889230728,-0.3315179944038391,0.1117900013923645,0.09119399636983871,-0.3110699951648712,0.10122200101613998,-0.20145800709724426,0.019561000168323517,-0.1413159966468811,0.059721000492572784,0.09328699856996536,0.048914000391960144,-0.007993999868631363,-0.1375409960746765,-0.0028589998837560415,0.0214610006660223,0.11932700127363205,-0.33083799481391907,0.10126300156116486,-0.2638680040836334,-0.14119799435138702,-0.06567300111055374,0.13221700489521027,0.026724999770522118,0.1771859973669052,-0.06845399737358093,0.2054789960384369,-0.13882599771022797,-0.11490900069475174,-0.28438299894332886,0.046209000051021576,-0.20486800372600555,0.06778299808502197,-0.09753599762916565,0.17357900738716125,0.1561640053987503,-0.0006050000083632767,0.22511400282382965,0.021178999915719032,-0.07241799682378769,0.0014949999749660492,-0.20557500422000885,-0.07438699901103973,0.07685799896717072,-0.13213199377059937,0.2855739891529083,0.13817700743675232,0.044397998601198196,0.05362299829721451,-0.09111800044775009,0.07304400205612183,0.17619900405406952,-0.07207600027322769,-0.1854189932346344,0.03804299980401993,0.0893620029091835,-0.0662740021944046,-0.23360399901866913,-0.22991099953651428,-0.08290500193834305,0.1353839933872223,-0.0034630000591278076,0.30493998527526855,-0.03718100115656853,-0.03599900007247925,-0.06297799944877625,0.07376699894666672,0.03336700052022934,-0.13130700588226318,0.03670100122690201,-0.0886240005493164,-0.12041399627923965,-0.38376298546791077,-0.31565698981285095,-0.09341300278902054,0.1779939979314804,0.024007000029087067,-0.00863100029528141,-0.17649100720882416,0.1876859962940216,-0.13819099962711334,0.08317100256681442,0.26086199283599854,0.2612850069999695,0.04855399951338768,-0.0941620022058487,-0.05692800134420395,-0.12388700246810913,-3.5000000934815034e-05,-0.14083200693130493,0.1662829965353012,0.007821000181138515,-0.09544400125741959,0.38816800713539124,0.09627799689769745,0.15903499722480774,-0.07980599999427795,0.05044399946928024,0.22144199907779694,-0.04641599953174591,-0.2459300011396408,-0.3260140120983124,0.08222900331020355,-0.20497900247573853,0.14026400446891785,-0.3023580014705658,0.008821000345051289,-0.17570899426937103,-0.07389499992132187,0.09499099850654602,0.0027119999285787344,-0.1946689933538437,0.06802099943161011,-0.007114000152796507,-0.21881499886512756,-0.11863499879837036,0.018664000555872917,0.05022300034761429,0.04524099826812744,-0.11108800023794174,0.0678350031375885,0.22453099489212036,0.10891799628734589,-0.028074000030755997,-0.022179000079631805,-0.06995899975299835,-0.1145239993929863,0.016971999779343605,-0.06586799770593643,0.19324399530887604,0.12965500354766846,-0.015879999846220016,-0.2412160038948059,0.3499859869480133,-0.0032319999299943447,-0.2497130036354065
