word,0,1,2,3,4,5,6,7,8,9,10,11,12,13,14,15,16,17,18,19,20,21,22,23,24,25,26,27,28,29,30,31,32,33,34,35,36,37,38,39,40,41,42,43,44,45,46,47,48,49,50,51,52,53,54,55,56,57,58,59,60,61,62,63,64,65,66,67,68,69,70,71,72,73,74,75,76,77,78,79,80,81,82,83,84,85,86,87,88,89,90,91,92,93,94,95,96,97,98,99,100,101,102,103,104,105,106,107,108,109,110,111,112,113,114,115,116,117,118,119,120,121,122,123,124,125,126,127,128,129,130,131,132,133,134,135,136,137,138,139,140,141,142,143,144,145,146,147,148,149,150,151,152,153,154,155,156,157,158,159,160,161,162,163,164,165,166,167,168,169,170,171,172,173,174,175,176,177,178,179,180,181,182,183,184,185,186,187,188,189,190,191,192,193,194,195,196,197,198,199,200,201,202,203,204,205,206,207,208,209,210,211,212,213,214,215,216,217,218,219,220,221,222,223,224,225,226,227,228,229,230,231,232,233,234,235,236,237,238,239,240,241,242,243,244,245,246,247,248,249,250,251,252,253,254,255,256,257,258,259,260,261,262,263,264,265,266,267,268,269,270,271,272,273,274,275,276,277,278,279,280,281,282,283,284,285,286,287,288,289,290,291,292,293,294,295,296,297,298,299,300,301,302,303,304,305,306,307,308,309,310,311,312,313,314,315,316,317,318,319,320,321,322,323,324,325,326,327,328,329,330,331,332,333,334,335,336,337,338,339,340,341,342,343,344,345,346,347,348,349,350,351,352,353,354,355,356,357,358,359,360,361,362,363,364,365,366,367,368,369,370,371,372,373,374,375,376,377,378,379,380,381,382,383,384,385,386,387,388,389,390,391,392,393,394,395,396,397,398,399
联接,0.06750699877738953,0.042406000196933746,0.13851000368595123,0.11991699784994125,0.05239899829030037,0.18839000165462494,-0.21763600409030914,-0.1060589998960495,0.04486599937081337,0.12740999460220337,-0.08885800093412399,0.06817899644374847,0.012140999548137188,-0.1502629965543747,-0.07950299978256226,-0.05807799845933914,-0.22159500420093536,0.0223229993134737,-0.1718370020389557,-0.17900699377059937,0.015668999403715134,-0.25145500898361206,0.028832999989390373,0.2833859920501709,-0.09980999678373337,0.13717199862003326,-0.062116000801324844,-0.19028300046920776,-0.3281480073928833,0.06413300335407257,0.042583998292684555,0.04578400030732155,-0.07142800092697144,-0.03923200070858002,-0.18118800222873688,-0.17282800376415253,0.3060309886932373,-0.035050999373197556,0.4239259958267212,0.1453150063753128,0.23594999313354492,0.12777799367904663,-0.023693999275565147,0.3446129858493805,0.42963600158691406,-0.051068998873233795,0.06391099840402603,0.15067000687122345,0.11749500036239624,-0.1566080003976822,-0.047857001423835754,-0.13917599618434906,0.09721600264310837,0.04119199886918068,-0.011110000312328339,-0.18588800728321075,-0.1403989940881729,0.04308599978685379,-0.1831900030374527,-0.05967700108885765,-0.07501000165939331,-0.23898400366306305,-0.012614999897778034,0.1076740026473999,-0.17285899817943573,0.30040401220321655,0.08091100305318832,-0.012612000107765198,0.11374399811029434,0.06623899936676025,-0.2742860019207001,0.07315099984407425,-0.23306499421596527,-0.054910000413656235,0.2851249873638153,0.06189100071787834,0.31143999099731445,0.13509899377822876,0.27270400524139404,0.16379299759864807,0.10473400354385376,-0.3184419870376587,-0.3172779977321625,0.09892699867486954,0.1829569935798645,-0.020038999617099762,0.042148999869823456,0.17609800398349762,-0.01812399923801422,-0.03308900073170662,-0.17191900312900543,-0.17876699566841125,-0.01398400031030178,0.29425400495529175,0.30045199394226074,0.30876898765563965,-0.04578400030732155,-0.24696700274944305,-0.11062899976968765,-0.16158699989318848,0.17607000470161438,0.0013909999979659915,0.3173559904098511,-0.2257090061903,0.042128998786211014,0.24043700098991394,-0.21332600712776184,0.34160101413726807,0.0456480011343956,0.19024799764156342,-0.03384099900722504,0.16299700736999512,0.05001699924468994,-0.01118099968880415,-0.03781900182366371,-0.2732439935207367,-0.023847000673413277,0.003544999985024333,0.15138599276542664,0.311708003282547,0.09125199913978577,0.00215999991632998,-0.039305999875068665,0.07798200100660324,0.046720001846551895,0.17860999703407288,0.023303000256419182,-0.08184199780225754,0.05459100008010864,0.05347900092601776,0.0971279963850975,-0.09756799787282944,0.1264519989490509,-0.10221999883651733,0.08883900195360184,-0.010995999909937382,-0.058715999126434326,-0.21344199776649475,-0.1951490044593811,0.2685849964618683,0.058963000774383545,-0.08660899847745895,0.10510800033807755,0.22719000279903412,-0.3632790148258209,0.00786300003528595,-0.2048559933900833,-0.027807999402284622,-0.08924199640750885,0.048514001071453094,0.15755900740623474,0.07946000248193741,-0.32887300848960876,-0.055762000381946564,-0.1212960034608841,0.03575899824500084,0.1601569950580597,-0.009736999869346619,0.11926200240850449,-0.053449999541044235,-0.2049179971218109,0.21196599304676056,-0.03355700150132179,-0.06086599826812744,0.0412059985101223,0.047832001000642776,-0.1349789947271347,0.0650779977440834,-0.2511569857597351,-0.05250599980354309,-0.18724699318408966,0.22325900197029114,-0.24963100254535675,-0.31271201372146606,0.16775399446487427,-0.0442579984664917,0.07529699802398682,0.11281699687242508,-0.09720700234174728,0.25883999466896057,-0.21195100247859955,-0.042153000831604004,-0.09889800101518631,-0.15081800520420074,-0.02608099952340126,0.1634960025548935,0.14358599483966827,0.07131700217723846,0.16202500462532043,0.10578899830579758,0.1303739994764328,0.08517400175333023,-0.14426200091838837,0.12766699492931366,-0.19004400074481964,-0.004370999988168478,0.07277300208806992,-0.20224499702453613,-0.0867059975862503,0.05790099874138832,0.0468829981982708,0.10766399651765823,-0.22888199985027313,0.2683719992637634,-0.17578700184822083,-0.436942994594574,0.1725189983844757,0.21743300557136536,0.19682000577449799,-0.33053600788116455,-0.15922699868679047,0.0818450003862381,-0.047446999698877335,0.37745198607444763,0.10336899757385254,0.043202001601457596,0.1966319978237152,-0.3193179965019226,0.12764500081539154,0.04895399883389473,0.16722099483013153,0.051451001316308975,0.17807799577713013,0.08264899998903275,-0.03901299834251404,0.1581140011548996,0.18645800650119781,0.007052999921143055,0.0049959998577833176,0.3307969868183136,-0.2993040084838867,0.21670399606227875,-0.10419999808073044,0.13630500435829163,-0.017735999077558517,-0.18839000165462494,0.10270000249147415,-0.0798719972372055,0.04665900021791458,-0.0033970000222325325,-0.18262900412082672,-0.10597699880599976,-0.05820100009441376,0.15125499665737152,0.22592699527740479,-0.04812699928879738,-0.01792600005865097,0.03776099905371666,0.16311100125312805,-0.43192899227142334,-0.2694840133190155,-0.07087700068950653,-0.2687099874019623,0.22993899881839752,0.16469499468803406,0.19295699894428253,-0.01675499975681305,-0.3386699855327606,0.184907004237175,-0.06708499789237976,0.17347699403762817,0.19178999960422516,-0.038474999368190765,-0.2200700044631958,-0.07744999974966049,0.09561599791049957,-0.17375600337982178,0.21775999665260315,-0.18640699982643127,-0.048277001827955246,-0.08862199634313583,-0.12718799710273743,-0.15387900173664093,0.11201299726963043,0.16701200604438782,0.31199100613594055,0.31949201226234436,0.05769599974155426,-0.15677599608898163,0.28794801235198975,0.01512099988758564,-0.19271600246429443,-0.08543500304222107,-0.29412901401519775,-0.1920199990272522,-0.027103999629616737,0.12775300443172455,-0.029458999633789062,0.4961389899253845,0.02131200022995472,-0.06267099827528,-0.38821500539779663,-0.18864800035953522,-0.2642129957675934,0.29134300351142883,-0.5833449959754944,-0.07643099874258041,0.024817999452352524,0.07829099893569946,-0.031939998269081116,-0.05869999900460243,0.16392900049686432,0.0036619999445974827,-0.2597219944000244,0.1842299997806549,0.12187100201845169,-0.24112799763679504,0.3394489884376526,-0.26572099328041077,-0.15042300522327423,-0.11034800112247467,-0.005625999998301268,-0.018357999622821808,0.24347999691963196,-0.19225500524044037,0.2660810053348541,0.16563500463962555,-0.1266240030527115,-0.31095901131629944,-0.00034100000630132854,0.015842000022530556,0.1110450029373169,-0.09597799926996231,-0.05687699839472771,0.04063300043344498,0.08443400263786316,-0.03859499841928482,0.008913000114262104,-0.18202699720859528,-0.2624000012874603,0.08182500302791595,0.12511299550533295,-0.29423099756240845,-0.035898998379707336,0.1610639989376068,0.08370699733495712,-0.07671800255775452,-0.24525199830532074,-0.18161100149154663,0.1799599975347519,-0.13428600132465363,-0.3307250142097473,0.015807000920176506,-0.06402099877595901,0.08860000222921371,-0.05572500079870224,0.39106500148773193,0.33903300762176514,-0.007501000072807074,0.16547800600528717,-0.10505200177431107,-0.38955599069595337,0.02360299974679947,-0.03783800080418587,0.030615000054240227,-0.05219399929046631,0.09514100104570389,0.42887499928474426,0.12054900079965591,0.26559901237487793,0.1293189972639084,-0.17895899713039398,0.0534369982779026,0.12599200010299683,-0.21884499490261078,0.06554300338029861,-0.43588000535964966,-0.18271100521087646,-0.10696499794721603,-0.09789200127124786,-0.17024700343608856,-0.29708901047706604,0.4094789922237396,-0.3051599860191345,0.0001939999929163605,-0.37904998660087585,0.03980199992656708,0.10397999733686447,0.20118999481201172,0.04148099943995476,-0.08960399776697159,0.158952996134758,-0.20484399795532227,-0.11272499710321426,-0.031143000349402428,-0.0480940006673336,-0.13637900352478027,0.33298900723457336,-0.2235189974308014,-0.02327900007367134,-0.11052200198173523,0.3135150074958801,-0.015626000240445137,-0.09168799966573715,0.07043100148439407,0.07756099849939346,-0.08361399918794632,0.11540400236845016,-0.08179999887943268,0.10674399882555008
驱动器,0.07583899796009064,0.015783000737428665,0.07971099764108658,0.1446859985589981,0.2758379876613617,-0.029326999559998512,-0.017784999683499336,0.1286199986934662,0.0892459973692894,-0.24335800111293793,0.23325000703334808,0.24267099797725677,-0.019819000735878944,-0.19311699271202087,-0.012240000069141388,-0.1943719983100891,-0.10929500311613083,0.3737890124320984,-0.2609649896621704,-0.21783800423145294,-0.06842699646949768,-0.11568199843168259,0.3663260042667389,0.2879660129547119,0.040807999670505524,0.0535379983484745,-0.45466700196266174,-0.06904900074005127,-0.26789700984954834,0.061037998646497726,-0.06559500098228455,0.04729900136590004,-0.019241999834775925,-0.16370299458503723,-0.2540780007839203,-0.0902549996972084,-0.04409100115299225,-0.29238200187683105,0.18075700104236603,-0.1349550038576126,0.15331900119781494,-0.08823800086975098,-0.17291800677776337,0.29134300351142883,0.017656000331044197,0.16406899690628052,-0.21371600031852722,0.07240500301122665,0.1731259971857071,-0.09518600255250931,-0.1821579933166504,-0.02741900086402893,0.017354000359773636,-0.08321800082921982,-0.036779001355171204,0.04307999834418297,-0.2869639992713928,0.1321530044078827,-0.044913001358509064,-0.05344700068235397,0.1325960010290146,0.012807999737560749,-0.2968820035457611,0.35760998725891113,0.18441499769687653,0.028124000877141953,-0.1290079951286316,-0.3597460091114044,0.22560100257396698,0.26386401057243347,-0.08285299688577652,-0.26651400327682495,-0.23974600434303284,-0.47655799984931946,-0.1697780042886734,-0.37335801124572754,0.3467409908771515,0.4367240071296692,0.08551300317049026,0.31833499670028687,-0.20663200318813324,-0.41957101225852966,0.02762399986386299,0.0038219999987632036,-0.23079699277877808,-0.0672840029001236,-0.06623300164937973,0.10178499668836594,-0.35260599851608276,0.13734300434589386,0.05905599892139435,-0.24374599754810333,0.49878400564193726,-0.1931609958410263,0.030974000692367554,-0.0944330021739006,0.15561899542808533,0.05350600183010101,0.17240500450134277,-0.2872219979763031,-0.0029170000925660133,-0.046448998153209686,-0.09853299707174301,-0.11094100028276443,0.18922799825668335,0.04175800085067749,-0.010890999808907509,0.12105099856853485,0.13264599442481995,-0.027567999437451363,0.0937340036034584,-0.023896999657154083,-0.19313199818134308,-0.006347999908030033,0.07449399679899216,0.14518199861049652,0.1425900012254715,-0.3286449909210205,-0.2473219931125641,0.19714100658893585,0.30096301436424255,-0.07863699644804001,-0.046073999255895615,-0.12592199444770813,0.06752800196409225,0.4912790060043335,0.009216000325977802,0.07841599732637405,-0.0014700000174343586,-0.04704900085926056,0.005714999977499247,0.19680699706077576,0.11735899746417999,0.0542679987847805,-0.3474830090999603,0.1385129988193512,-0.10700999945402145,0.11470700055360794,-0.2668209969997406,0.4795700013637543,-0.059487998485565186,0.23625299334526062,-0.04083799943327904,0.3998839855194092,-0.6048259735107422,-0.1603820025920868,0.0704990029335022,0.2586739957332611,-0.1471019983291626,-0.11167100071907043,0.0437140017747879,-0.3448219895362854,0.07785099744796753,-0.0032919999212026596,0.2769089937210083,0.25510498881340027,0.18984299898147583,0.07770100235939026,0.3180469870567322,-0.08862899988889694,0.007861999794840813,-0.14742900431156158,0.13072000443935394,0.413563996553421,-0.2348940074443817,0.28758299350738525,0.06400799751281738,-0.3390190005302429,0.02623800002038479,-0.08818800002336502,0.3010050058364868,0.28550300002098083,-0.2652350068092346,-0.0883369967341423,0.41822001338005066,-0.21518400311470032,-0.0631600022315979,-0.1325709968805313,-0.2660369873046875,-0.26642701029777527,0.13337500393390656,-0.38355499505996704,-0.5432369709014893,-0.02762800082564354,-0.1242230013012886,-0.010622999630868435,0.1637430042028427,0.14050300419330597,0.14049799740314484,-0.1899150013923645,0.2405710071325302,0.018782999366521835,-0.28741899132728577,0.15462400019168854,-0.1698009967803955,0.008960000239312649,-0.05266999825835228,0.3958820104598999,0.02702300064265728,-0.13643600046634674,-0.3523539900779724,0.09773000329732895,-0.398824006319046,0.1082020029425621,-0.059783998876810074,-0.2531200051307678,0.4887099862098694,0.09505899995565414,0.09800799936056137,0.1501930058002472,-0.2537809908390045,0.1743289977312088,0.09415200352668762,-0.012366999872028828,-0.20181399583816528,-0.19952599704265594,0.3063200116157532,-0.4449230134487152,0.2564980089664459,-0.17533400654792786,-0.12189599871635437,0.3591429889202118,0.03597399964928627,-0.006211999803781509,-0.0020729999523609877,-0.1434430032968521,-0.0034779999405145645,0.2280759960412979,0.24321599304676056,0.009348999708890915,0.01745700091123581,0.31506800651550293,-0.167821004986763,0.10894600301980972,-0.09414900094270706,-0.15705899894237518,0.2625100016593933,0.12626199424266815,-0.004648000001907349,-0.528124988079071,-0.13740099966526031,-0.15697699785232544,-0.09073500335216522,0.19455699622631073,0.04426399990916252,-0.3227919936180115,-0.18628500401973724,-0.04891499876976013,0.11224000155925751,-0.20568999648094177,-0.37477999925613403,-0.14579200744628906,-0.13387200236320496,0.17624199390411377,-0.17890900373458862,-5.999999848427251e-05,-0.03862199932336807,-0.1911109983921051,0.2709270119667053,-0.18784500658512115,0.02216400019824505,0.1978369951248169,0.018561000004410744,-0.07269400358200073,0.07767000049352646,0.07821399718523026,0.3753820061683655,0.10591699928045273,0.08425399661064148,0.3716990053653717,-0.08396600186824799,0.17821499705314636,-0.11626400053501129,-0.3015640079975128,0.25729599595069885,0.14163799583911896,-0.1741109937429428,0.3318299949169159,-0.18900099396705627,0.10343900322914124,-0.01559200044721365,0.2309339940547943,0.06542599946260452,0.06019299849867821,-0.0534369982779026,0.1435600072145462,0.2942189872264862,0.007402000017464161,0.2008419930934906,0.144336998462677,0.18729199469089508,-0.07629500329494476,0.10136400163173676,0.2030239999294281,0.2644810080528259,-0.3745410144329071,0.05927100032567978,0.42644599080085754,0.05232600122690201,-0.012656000442802906,0.3175170123577118,0.4094560146331787,0.37008801102638245,0.017165999859571457,0.5089380145072937,0.23586300015449524,0.06814199686050415,0.2936899960041046,0.24224500358104706,-0.2802959978580475,0.4959529936313629,-0.07906900346279144,-0.03313300013542175,0.28862500190734863,0.06438100337982178,0.20764699578285217,0.3008059859275818,-0.08534500002861023,0.26491600275039673,-0.01687600091099739,-0.06434299796819687,0.0465020015835762,0.06448099762201309,0.07324499636888504,0.05665399879217148,-0.43299201130867004,0.37701401114463806,0.16711699962615967,-0.010572000406682491,-0.13789799809455872,-0.1526940017938614,-0.17110399901866913,-0.12376300245523453,-0.4110789895057678,0.10368099808692932,-0.11093500256538391,-0.14096899330615997,-0.027184000238776207,-0.40064600110054016,-0.03553000092506409,0.07114800065755844,-0.016069000586867332,-0.06320399791002274,-0.03876100108027458,0.19069500267505646,-0.14473900198936462,0.3327910006046295,0.44661301374435425,-0.03404900059103966,-0.2715969979763031,0.03459399938583374,0.11292199790477753,-0.40086400508880615,0.358938992023468,0.009127000346779823,0.2731170058250427,0.015376999974250793,0.177715003490448,0.122980996966362,0.057395998388528824,0.0036279999185353518,-0.06949000060558319,-0.245046004652977,-0.14083300530910492,0.14878599345684052,0.20340700447559357,-0.37117698788642883,-0.3384459912776947,0.16086600720882416,0.03612599894404411,0.003751999931409955,-0.24092599749565125,-0.1969289928674698,0.15997500717639923,0.32870298624038696,-0.23572200536727905,0.056988999247550964,0.046073999255895615,-0.10871999710798264,-0.01996999979019165,0.42840200662612915,0.011873000301420689,-0.09373100101947784,0.3108530044555664,-0.050693999975919724,-0.060201000422239304,0.03619199991226196,0.07428999990224838,0.05337600037455559,-0.10940399765968323,-0.06842699646949768,0.33134299516677856,0.08536899834871292,0.17392100393772125,-0.0027459999546408653,0.41521400213241577,-0.14748400449752808,0.027507999911904335,-0.20087000727653503,-0.022122999653220177
结构,-0.10387799888849258,0.19047999382019043,0.007884999737143517,0.23587100207805634,-0.07377900183200836,0.07393199950456619,0.12839099764823914,0.03238299861550331,0.02906000055372715,0.13836699724197388,0.10149600356817245,0.016200000420212746,-0.1070299968123436,-0.007094999775290489,-0.11910299956798553,-0.19546900689601898,-0.12357799708843231,-0.21452899277210236,0.06391900032758713,-0.07276500016450882,-0.11603400111198425,-0.1465959995985031,0.2909800112247467,0.041012998670339584,0.23337900638580322,-0.007526000030338764,-0.11818099766969681,-0.0301900003105402,0.009575000032782555,0.1315930038690567,-0.030402999371290207,-0.040251001715660095,0.08240500092506409,-0.08298499882221222,0.012647000141441822,0.08403600007295609,0.1283629983663559,-0.007619999814778566,-0.0037070000544190407,0.15565699338912964,-0.06659100204706192,0.07191099971532822,-0.055410001426935196,0.06673700362443924,-0.09569499641656876,-0.16024400293827057,-0.05352399870753288,-0.008918000385165215,-0.0827770009636879,-0.1192530021071434,0.08794700354337692,7.300000288523734e-05,0.04438700154423714,-0.05553999915719032,0.12155400216579437,-0.03711400181055069,-0.11902199685573578,0.020646000280976295,-0.12375099956989288,0.08680900186300278,-0.020339999347925186,0.09387099742889404,-0.19592000544071198,-0.03541199862957001,0.08448299765586853,0.04224099963903427,-0.15518200397491455,0.06519799679517746,0.12429399788379669,0.22128300368785858,-0.22972600162029266,-0.09946499764919281,0.24435199797153473,-0.14662499725818634,0.1324000060558319,-0.22610700130462646,0.1992730051279068,-0.15137599408626556,0.09254200011491776,0.03675999864935875,0.033163998275995255,-0.2429399937391281,-0.059425000101327896,0.0114139998331666,-0.10440299659967422,0.0020240000449121,0.05067700147628784,-0.07207699865102768,-0.02884400077164173,0.2591240108013153,0.02319600060582161,-0.154898002743721,-0.2189989984035492,-0.21241599321365356,-0.12033600360155106,-0.08506699651479721,-0.010367999784648418,-0.06106200069189072,-0.1591310054063797,0.08631599694490433,0.17983099818229675,0.12513099610805511,-0.09564000368118286,0.16106000542640686,0.0075079998932778835,-0.04838699847459793,-0.038256000727415085,0.1771019995212555,-0.11774300038814545,-0.15312400460243225,0.06698399782180786,-0.0015950000379234552,-0.12154600024223328,-0.12143900245428085,0.17367799580097198,-0.17521199584007263,-0.27675899863243103,-0.07982999831438065,-0.15218199789524078,0.02615799941122532,0.12071199715137482,0.09132900089025497,0.18736900389194489,-0.032283999025821686,-0.24444499611854553,-0.058079998940229416,-0.35445499420166016,0.21758699417114258,-0.3086960017681122,-0.04879999905824661,0.06468299776315689,-0.09585099667310715,-0.12592999637126923,-0.09738700091838837,-0.03620300069451332,0.15463599562644958,0.014392999932169914,-0.27619999647140503,-0.03669299930334091,-0.11776500195264816,-0.1912669986486435,-0.0454769991338253,0.2966899871826172,0.07730899751186371,-0.14033900201320648,0.008061000145971775,-0.15071600675582886,-0.030598999932408333,-0.15188799798488617,-0.24206799268722534,0.19924600422382355,-0.27371901273727417,-0.2247229963541031,-0.07770200073719025,-0.06662900000810623,0.18659499287605286,-0.045462001115083694,0.11180999875068665,0.04298900067806244,-0.09106600284576416,0.047242000699043274,-0.006324999965727329,-0.06456899642944336,-0.17736800014972687,-0.05916899815201759,-0.224262997508049,-0.06805700063705444,0.07549700140953064,-0.007368999999016523,-0.002234000014141202,-0.08775799721479416,0.06348499655723572,-0.20086100697517395,0.1490669995546341,-0.13011600077152252,0.003452999982982874,0.14226199686527252,0.10008999705314636,0.06135400012135506,-0.23638500273227692,-0.20663100481033325,-0.10427100211381912,-0.021681999787688255,0.25183698534965515,-0.12553399801254272,-0.009180000051856041,0.0924139991402626,-0.14368000626564026,0.24244199693202972,0.2101999968290329,0.060770999640226364,0.2329780012369156,-0.09478099644184113,0.1469620019197464,0.08917699754238129,-0.051709000021219254,0.05651700124144554,-0.23735499382019043,-0.29229098558425903,0.06762199848890305,0.0982460007071495,0.09869600087404251,0.011487999930977821,0.2658360004425049,-0.005394000094383955,-0.3262070119380951,0.10465600341558456,-0.12680600583553314,0.12814299762248993,-0.026153000071644783,0.03730100020766258,-0.15775400400161743,-0.02248300053179264,-0.015506000258028507,-0.0706230029463768,0.0812079980969429,-0.01689000055193901,-0.1977510005235672,0.2633419930934906,-0.31321901082992554,0.03158999979496002,0.07498600333929062,0.0373230017721653,-0.05232999846339226,-0.011938000097870827,-0.17496299743652344,0.042298998683691025,-0.1462630033493042,-0.03561199828982353,0.06908199936151505,-0.22721999883651733,-0.03407200053334236,-0.09256400167942047,-0.010352999903261662,0.19079400599002838,0.06291399896144867,0.00660100020468235,0.12742699682712555,-0.01472499966621399,0.06554099917411804,-0.034616000950336456,0.01232299953699112,-0.03248300030827522,-0.0879959985613823,-0.17198899388313293,-0.021201999858021736,-0.1073869988322258,-0.07915700227022171,0.004567000083625317,-0.09053800255060196,0.07756199687719345,0.19401000440120697,-0.3614419996738434,0.11694300174713135,-0.08389399945735931,-0.19610899686813354,-0.04224399849772453,-0.047467999160289764,0.10668499767780304,0.2253189980983734,-0.01129900012165308,0.00020199999562464654,0.042906999588012695,-0.16061000525951385,-0.19081799685955048,-0.09408800303936005,-0.01942799985408783,0.12352699786424637,-0.2818849980831146,-0.17748500406742096,-0.16217300295829773,-0.14891600608825684,-0.24388399720191956,0.2445569932460785,0.08282499760389328,0.0874750018119812,-0.18144600093364716,-0.246411994099617,0.024764999747276306,-0.0021730000153183937,0.0011739999754354358,-0.21557499468326569,-0.14358100295066833,-0.06771299988031387,0.004062999971210957,-0.11117299646139145,-0.004234000109136105,0.009685000404715538,0.024514000862836838,-0.2417439967393875,0.06337600201368332,-0.16319400072097778,-0.1178169995546341,-0.004133000038564205,0.13326899707317352,-0.10305000096559525,0.07445599883794785,-0.3130039870738983,-0.02558699995279312,0.02637699991464615,0.04400999844074249,0.35801199078559875,0.23281699419021606,-0.02539999969303608,-0.05590000003576279,-0.10066600143909454,-0.08584199845790863,-0.01934799924492836,-0.10924500226974487,-0.1992889940738678,0.07553000003099442,0.13243499398231506,0.1373700052499771,-0.2013929933309555,-0.05343399941921234,0.14123399555683136,-0.041687000542879105,0.10322300344705582,-0.12714000046253204,0.001554999966174364,0.0935870036482811,0.17427200078964233,0.2654849886894226,-0.014592999592423439,-0.07353100180625916,0.16568000614643097,-0.05539499968290329,-0.10043200105428696,0.005177999846637249,-0.20380300283432007,-0.01231599971652031,0.15119799971580505,-0.05559200048446655,-0.07869599759578705,-0.004102000035345554,-0.011467999778687954,-0.0591760016977787,-0.12193600088357925,-0.12757299840450287,-0.08956900238990784,0.022153999656438828,-0.01405400037765503,-0.013131000101566315,0.022577999159693718,-0.052035000175237656,0.10606499761343002,0.3076370060443878,0.00915099959820509,-0.131181001663208,0.1622290015220642,0.048183001577854156,-0.09982799738645554,0.026093000546097755,0.025178000330924988,0.23737700283527374,-0.024080999195575714,0.13921800255775452,0.10886599868535995,-0.18140800297260284,-0.15930700302124023,0.03172300010919571,-0.1193849965929985,0.07578399777412415,0.06995099782943726,-0.25532200932502747,0.15534600615501404,-0.22662299871444702,-0.4506779909133911,-0.17705799639225006,-0.09722600132226944,-0.26242899894714355,-0.24496200680732727,0.14813299477100372,-0.24658800661563873,-0.0341930016875267,-0.16801400482654572,0.14407500624656677,-0.31435298919677734,-0.14970499277114868,-0.22102999687194824,0.231345996260643,0.14876200258731842,-0.25106701254844666,-0.0675709992647171,-0.03264300152659416,0.12041699886322021,-0.13175800442695618,-0.06503300368785858,0.06751099973917007,0.018641000613570213,-0.19486300647258759,0.09323199838399887,-0.009050000458955765,0.11298800259828568,-0.11795900017023087,0.18568600714206696,-0.14773499965667725,-0.2097810059785843,0.04362399876117706,-0.17069600522518158
开,-0.1287360042333603,-0.02642500028014183,-0.20340000092983246,0.04733100160956383,0.07376600056886673,-0.033142998814582825,0.3033030033111572,0.17577099800109863,-0.0687279999256134,-0.15866300463676453,0.014685000292956829,0.15092599391937256,-0.09101399779319763,-0.1341940015554428,0.26611098647117615,0.11785899847745895,-0.12413100153207779,-0.07414799928665161,0.01148299966007471,-0.08246999979019165,-0.1553640067577362,-0.12038400024175644,-0.21314899623394012,0.09821700304746628,0.19303500652313232,0.1260710060596466,-0.16056600213050842,-0.14784100651741028,-0.06164700165390968,-0.09356699883937836,0.04510200023651123,0.015064000152051449,0.15259599685668945,-0.029736999422311783,0.06406500190496445,0.04773600026965141,-0.06388500332832336,0.08252599835395813,0.04831700026988983,0.20661699771881104,-0.06155899912118912,-0.1852719932794571,-0.1260879933834076,0.09189700335264206,-0.08069100230932236,0.0852390006184578,0.15238800644874573,-0.22597399353981018,0.31057900190353394,-0.051982998847961426,0.2548379898071289,-0.057301998138427734,0.03248799964785576,0.04032500088214874,-0.2151779979467392,-0.1666560024023056,-0.02091200090944767,0.0632219985127449,0.13758300244808197,-0.05635099858045578,0.17892999947071075,0.021229999139904976,0.0803299993276596,0.20171700417995453,-0.37984800338745117,0.04296199977397919,-0.04208200052380562,0.18381400406360626,-0.08892600238323212,0.15670299530029297,0.2289379984140396,0.049876999109983444,-0.07334599643945694,-0.06146100163459778,-0.015275999903678894,0.13313999772071838,-0.028013000264763832,0.056738998740911484,0.2530690133571625,-0.16268600523471832,-0.04841599985957146,-0.0773100033402443,-0.1689240038394928,0.03818799927830696,-0.0681919977068901,0.07245200127363205,0.1338060051202774,0.08962299674749374,0.022144999355077744,-0.08084800094366074,0.06761600077152252,0.01790500059723854,-0.11575400084257126,0.08077900111675262,-0.0681530013680458,-0.06999699771404266,0.0858210027217865,-0.004189999774098396,-0.10788600146770477,0.08580199629068375,-0.0833209976553917,0.23048700392246246,-0.08247099816799164,-0.10249099880456924,0.016899999231100082,-0.062059998512268066,0.05142800137400627,-0.042061999440193176,-0.03381099924445152,0.11551699787378311,0.14537900686264038,0.10822000354528427,0.066600002348423,-0.03432200103998184,0.06662499904632568,0.12483199685811996,-0.006738999858498573,0.023416999727487564,0.06533599644899368,-0.05934799835085869,-0.1889519989490509,0.07256799936294556,0.043602000921964645,-0.06267099827528,0.10182300209999084,0.007741999812424183,-0.13176600635051727,-0.1420779973268509,0.08614999800920486,0.03552599996328354,0.007224000059068203,-0.1006539985537529,0.08467700332403183,-0.12077700346708298,0.0253749992698431,0.19214500486850739,-0.01052900031208992,0.25484499335289,-0.17976699769496918,-0.04634099826216698,-0.028010999783873558,-0.14150500297546387,-0.06878399848937988,-0.18246600031852722,0.16779200732707977,-0.19167500734329224,0.14452199637889862,0.0807889997959137,-0.14598500728607178,-0.1754239946603775,0.12672799825668335,0.07688099890947342,0.031289998441934586,0.057385001331567764,-0.11242599785327911,-0.07363499701023102,0.17806099355220795,0.07150500267744064,0.2953239977359772,-0.09799399971961975,-0.009073999710381031,-0.02094000019133091,-0.20437699556350708,0.03236899897456169,0.004188999999314547,-0.20740200579166412,0.02380800060927868,-0.11928299814462662,-0.020364999771118164,-0.008004000410437584,-0.006949000060558319,-0.13673600554466248,-0.1287049949169159,0.01675100065767765,-0.21270400285720825,0.13434700667858124,-0.002463999902829528,-0.19128499925136566,0.09573200345039368,-0.18561099469661713,-0.02000500075519085,0.05407800152897835,0.0534369982779026,-0.005882999859750271,0.11405500024557114,-0.06412000209093094,0.010343000292778015,-0.039705000817775726,0.044217001646757126,0.10913900285959244,0.19088399410247803,-0.12515400350093842,0.0007949999999254942,0.07832600176334381,-0.19991600513458252,0.08917000144720078,0.04182000085711479,0.12052500247955322,-0.01933700032532215,-0.04757000133395195,-0.08353199809789658,0.2644810080528259,0.2512190043926239,0.029311999678611755,0.12002100050449371,0.025404000654816628,-0.07052300125360489,0.19281400740146637,0.021195000037550926,-0.15588299930095673,0.2250940054655075,0.09833899885416031,-0.15544499456882477,0.17055299878120422,-0.08314099907875061,0.08890599757432938,0.0030620000325143337,-0.03905799984931946,0.0623680017888546,0.022513000294566154,0.15638799965381622,0.055378999561071396,-0.07703100144863129,0.08278799802064896,-0.10415700078010559,0.054910000413656235,-0.11540699750185013,0.2833999991416931,0.15506799519062042,-0.05441100150346756,-0.04353500157594681,-0.014542999677360058,0.07780200242996216,-0.037067998200654984,0.16584700345993042,0.21719500422477722,-0.02899100072681904,-0.01945899985730648,-0.09531000256538391,-0.1366489976644516,-0.05341099947690964,-0.07201000303030014,-0.21495500206947327,-0.029696999117732048,0.14424000680446625,-0.0021989999804645777,0.02633100003004074,-0.12478400021791458,0.11147399991750717,0.019318999722599983,-0.058873001486063004,-0.16826599836349487,-0.042323999106884,-0.11834900081157684,-0.026348000392317772,0.022708000615239143,-0.055358998477458954,0.03484800085425377,-0.1392900049686432,0.2483379989862442,0.09352999925613403,0.016820000484585762,0.03347599878907204,-0.11019100248813629,-0.08334500342607498,-0.056127000600099564,0.06741899996995926,0.11273299902677536,0.082566998898983,-0.025877000764012337,-0.0477680005133152,-0.15770700573921204,-0.07164700329303741,-0.01299699954688549,0.1548600047826767,-0.0700640007853508,-0.08980300277471542,0.02850000001490116,-0.06473200023174286,0.11021099984645844,-0.018535999581217766,0.041071999818086624,-0.00928799994289875,-0.016885999590158463,0.025560999289155006,0.0020639998838305473,0.06831900030374527,0.18673700094223022,0.15488600730895996,0.13374699652194977,0.000522000016644597,0.11666800081729889,-0.06518799811601639,-0.052531998604536057,0.08722800016403198,-0.15533199906349182,-0.10190299898386002,0.06973300129175186,-0.04569600149989128,-0.060628000646829605,-0.11320500075817108,-0.0541829988360405,0.010827000252902508,0.17412200570106506,0.16218799352645874,0.19911900162696838,0.06930500268936157,0.07725799828767776,-0.009526999667286873,0.1586270034313202,0.04782399907708168,0.006291000172495842,0.06212199851870537,0.023816000670194626,-0.12624600529670715,-0.11914599686861038,-0.05468500033020973,-0.07009699940681458,-0.21521499752998352,-0.18599699437618256,-0.08824200183153152,-0.017986999824643135,-0.07699500024318695,-0.004348999820649624,0.13406799733638763,0.05484899878501892,-0.09307499974966049,0.22767099738121033,-0.07430300116539001,0.0399320013821125,-0.006835999898612499,0.009469999931752682,-0.05098100006580353,0.09650299698114395,-0.2347099930047989,-0.09816599637269974,-0.1453080028295517,0.022228000685572624,-0.02972700074315071,0.12252599745988846,0.00597700010985136,0.04475099965929985,-0.07304999977350235,0.017971999943256378,-0.11292099952697754,-0.18052199482917786,-0.15815599262714386,-0.11474400013685226,0.012968000024557114,-0.008871999569237232,0.17662499845027924,0.21221299469470978,0.034942999482154846,-0.1748420000076294,-0.01960100047290325,-0.1633799970149994,0.056731998920440674,0.0773020014166832,-0.070762999355793,0.22093600034713745,-0.23499199748039246,-0.0417260006070137,0.05314299836754799,-0.0678350031375885,-0.2358420044183731,0.07589499652385712,0.028669999912381172,0.14946800470352173,0.11563300341367722,0.013838999904692173,0.06269499659538269,0.06895200163125992,-0.16836799681186676,0.024157000705599785,0.07270699739456177,0.04508500173687935,0.1423809975385666,0.08941400051116943,0.025148000568151474,-0.1921990066766739,0.11833799630403519,-0.19062300026416779,0.08985300362110138,-0.02227799966931343,0.10763300210237503,0.0541829988360405,0.018288999795913696,0.03376200050115585,-0.0718030035495758,-0.033868998289108276,0.0742340013384819,0.03578700125217438,-0.022816000506281853,0.012496000155806541,-0.03626500070095062,-0.05382499843835831,-0.056210000067949295,0.048034001141786575,-0.0008789999992586672,0.2149379998445511
总成,-0.03861699998378754,0.39506199955940247,0.06069700047373772,0.153998002409935,0.10813699662685394,-0.14538800716400146,-0.0874439999461174,0.21286000311374664,0.1838349997997284,0.18011799454689026,-0.1546040028333664,0.3027859926223755,0.06701400130987167,-0.1190280020236969,-0.40231698751449585,-0.1585109978914261,-0.06161599978804588,-0.03073599934577942,-0.25473201274871826,-0.0873119980096817,0.051357001066207886,-0.14387699961662292,0.08792799711227417,-0.02569499984383583,0.13690400123596191,0.2050980031490326,0.20405100286006927,-0.15347400307655334,-0.20633499324321747,0.002725000027567148,-0.03665899857878685,-0.028071999549865723,0.1852940022945404,-0.0724480003118515,-0.008170999586582184,0.003108999924734235,0.06298000365495682,-0.1010190024971962,0.3420720100402832,0.14817799627780914,-0.01671699993312359,-0.023943999782204628,-0.14783400297164917,0.0749950036406517,-0.0018489999929443002,-0.13352400064468384,0.03082999959588051,-0.12865200638771057,0.009593999944627285,-0.2781519889831543,-0.021201999858021736,0.06814700365066528,0.07410100102424622,0.061539001762866974,0.15089699625968933,0.20784300565719604,-0.07155700027942657,0.003396000014618039,0.038975998759269714,0.05648199841380119,-0.157150998711586,0.09401000291109085,-0.040435001254081726,0.1096000000834465,-0.051398999989032745,0.07893200218677521,-0.2251800000667572,-0.0013340000296011567,0.13086700439453125,-0.07776899635791779,-0.15297000110149384,-0.0964369997382164,0.003476999932900071,-0.11510100215673447,0.23189300298690796,-0.1464499980211258,0.020552000030875206,0.17478600144386292,0.23809200525283813,0.19013799726963043,-0.015929000452160835,-0.25844600796699524,-0.0053400001488626,-0.10368700325489044,0.046177998185157776,0.2569960057735443,0.13813799619674683,0.22477200627326965,-0.118648000061512,0.04696900025010109,0.20688700675964355,-0.0840890035033226,-0.017849000170826912,-0.031980000436306,0.083406001329422,0.0836540013551712,0.18753699958324432,-0.27945199608802795,0.18763700127601624,0.08768899738788605,-0.22370800375938416,0.001993000041693449,0.16214799880981445,0.01169199962168932,-0.036348000168800354,0.11035499721765518,-0.07219699770212173,0.09063699841499329,-0.15235400199890137,-0.19402599334716797,0.13561399281024933,0.09542500227689743,0.19145900011062622,-0.0169840008020401,-0.014267999678850174,0.2341880053281784,0.01474899984896183,-0.10798600316047668,-0.10283699631690979,-0.011748000048100948,0.04003800079226494,-0.0038920000661164522,-0.01928599923849106,0.13232499361038208,0.35462498664855957,-0.17462100088596344,-0.1649640053510666,-0.1351190060377121,-0.06361600011587143,-0.0911329984664917,-0.06371200084686279,-0.10802499949932098,0.13992199301719666,0.029097000136971474,-0.003120000008493662,0.010626000352203846,0.0314750000834465,-0.07447499781847,-0.1287039965391159,0.01650499925017357,-0.030084000900387764,0.08177100121974945,0.06278499960899353,-0.06108099967241287,-0.34912899136543274,0.044746000319719315,-0.202674001455307,0.0014199999859556556,0.1301800012588501,0.10867200046777725,0.14877299964427948,-0.27772098779678345,0.08497399836778641,-0.06559400260448456,0.18022599816322327,0.014035999774932861,0.06469099968671799,-0.10128100216388702,0.165584996342659,-0.2394929975271225,0.07057099789381027,0.06351900100708008,-0.18394100666046143,0.23428699374198914,-0.056370001286268234,-0.08207099884748459,-0.19003599882125854,-0.01971299946308136,-0.17034000158309937,0.1052279993891716,0.07882499694824219,0.07281900197267532,0.05168600007891655,0.04883899912238121,-0.018100999295711517,-0.00019200000679120421,-0.16586700081825256,0.10864599794149399,-0.06395699828863144,-0.18782900273799896,-0.03553900122642517,0.0244159996509552,-0.09895200282335281,-0.05323600023984909,-0.05918100103735924,0.17778700590133667,-0.04183200001716614,0.04706700146198273,0.11226800084114075,0.0002840000088326633,-0.07181700319051743,-0.11722899973392487,-0.20893700420856476,0.13797299563884735,0.1442819982767105,-0.1551560014486313,0.09874700009822845,-0.07681900262832642,-0.2104330062866211,-0.107744000852108,0.18340399861335754,-0.09262000024318695,0.09843999892473221,0.2919510006904602,0.22961600124835968,-0.5087760090827942,0.2840830087661743,-0.1843309998512268,0.01282500009983778,-0.035509999841451645,-0.3015489876270294,-0.06380899995565414,-0.005896999966353178,0.07526399940252304,0.047644998878240585,-0.19091400504112244,0.16134999692440033,-0.1670749932527542,0.3583019971847534,0.1800280064344406,-0.1704230010509491,0.08198600262403488,0.1584790050983429,-0.16519099473953247,-0.014216000214219093,0.12901900708675385,-0.014917000196874142,0.012232000008225441,-0.08076199889183044,0.07881200313568115,-0.11948999762535095,0.10082200169563293,0.009418999776244164,-0.04434699937701225,0.03130900114774704,-0.020375000312924385,0.056713998317718506,0.08412399888038635,0.2199449986219406,-0.14103500545024872,0.13771900534629822,-0.2908659875392914,-0.12863799929618835,0.014932000078260899,0.14207200706005096,0.025939999148249626,-0.09977500140666962,0.09579599648714066,-0.016217000782489777,0.03086799941956997,0.07381799817085266,0.06660299748182297,-0.043595001101493835,-0.041708000004291534,-0.03159699961543083,0.023320000618696213,-0.041430000215768814,0.0770139992237091,0.20746800303459167,0.014844000339508057,0.17859600484371185,0.06484600156545639,0.030086999759078026,0.04468600079417229,-0.08192399889230728,-0.3315179944038391,0.1117900013923645,0.09119399636983871,-0.3110699951648712,0.10122200101613998,-0.20145800709724426,0.019561000168323517,-0.1413159966468811,0.059721000492572784,0.09328699856996536,0.048914000391960144,-0.007993999868631363,-0.1375409960746765,-0.0028589998837560415,0.0214610006660223,0.11932700127363205,-0.33083799481391907,0.10126300156116486,-0.2638680040836334,-0.14119799435138702,-0.06567300111055374,0.13221700489521027,0.026724999770522118,0.1771859973669052,-0.06845399737358093,0.2054789960384369,-0.13882599771022797,-0.11490900069475174,-0.28438299894332886,0.046209000051021576,-0.20486800372600555,0.06778299808502197,-0.09753599762916565,0.17357900738716125,0.1561640053987503,-0.0006050000083632767,0.22511400282382965,0.021178999915719032,-0.07241799682378769,0.0014949999749660492,-0.20557500422000885,-0.07438699901103973,0.07685799896717072,-0.13213199377059937,0.2855739891529083,0.13817700743675232,0.044397998601198196,0.05362299829721451,-0.09111800044775009,0.07304400205612183,0.17619900405406952,-0.07207600027322769,-0.1854189932346344,0.03804299980401993,0.0893620029091835,-0.0662740021944046,-0.23360399901866913,-0.22991099953651428,-0.08290500193834305,0.1353839933872223,-0.0034630000591278076,0.30493998527526855,-0.03718100115656853,-0.03599900007247925,-0.06297799944877625,0.07376699894666672,0.03336700052022934,-0.13130700588226318,0.03670100122690201,-0.0886240005493164,-0.12041399627923965,-0.38376298546791077,-0.31565698981285095,-0.09341300278902054,0.1779939979314804,0.024007000029087067,-0.00863100029528141,-0.17649100720882416,0.1876859962940216,-0.13819099962711334,0.08317100256681442,0.26086199283599854,0.2612850069999695,0.04855399951338768,-0.0941620022058487,-0.05692800134420395,-0.12388700246810913,-3.5000000934815034e-05,-0.14083200693130493,0.1662829965353012,0.007821000181138515,-0.09544400125741959,0.38816800713539124,0.09627799689769745,0.15903499722480774,-0.07980599999427795,0.05044399946928024,0.22144199907779694,-0.04641599953174591,-0.2459300011396408,-0.3260140120983124,0.08222900331020355,-0.20497900247573853,0.14026400446891785,-0.3023580014705658,0.008821000345051289,-0.17570899426937103,-0.07389499992132187,0.09499099850654602,0.0027119999285787344,-0.1946689933538437,0.06802099943161011,-0.007114000152796507,-0.21881499886512756,-0.11863499879837036,0.018664000555872917,0.05022300034761429,0.04524099826812744,-0.11108800023794174,0.0678350031375885,0.22453099489212036,0.10891799628734589,-0.028074000030755997,-0.022179000079631805,-0.06995899975299835,-0.1145239993929863,0.016971999779343605,-0.06586799770593643,0.19324399530887604,0.12965500354766846,-0.015879999846220016,-0.2412160038948059,0.3499859869480133,-0.0032319999299943447,-0.2497130036354065
围绕,-0.08959999680519104,0.11105599999427795,-0.06028899922966957,0.10748899728059769,0.12090100347995758,0.06710399687290192,-0.24019299447536469,0.04934300109744072,-0.09579800069332123,-0.027780000120401382,0.08002199977636337,0.08823700249195099,-0.16657300293445587,-0.03379900008440018,0.15491700172424316,0.13307400047779083,0.0332150012254715,-0.07431700080633163,0.029227999970316887,-0.043974000960588455,-0.07240299880504608,-0.037358999252319336,-0.02893500030040741,0.13005299866199493,0.14685800671577454,0.012350000441074371,0.18106399476528168,-0.2248840034008026,-0.0816899985074997,0.09224399924278259,0.04953800141811371,0.06817000359296799,0.052616000175476074,0.03954000025987625,0.003522000042721629,-0.11979799717664719,0.1344110071659088,0.001475999946705997,-0.22407999634742737,0.24636000394821167,-0.14352799952030182,-0.21554799377918243,0.1520709991455078,0.03704499825835228,0.05821999907493591,-0.04835199937224388,0.25409600138664246,-0.0863649994134903,0.06522999703884125,-0.0679979994893074,-0.0853940024971962,-0.04897499829530716,0.1292089968919754,-0.0817909985780716,-0.001576000009663403,0.044119998812675476,-0.001044000033289194,0.0038660001009702682,-0.08727899938821793,0.03005100041627884,0.1845480054616928,0.1685750037431717,-0.006883999798446894,0.14237600564956665,0.03365299850702286,0.07971099764108658,0.10667599737644196,-0.09953399747610092,-0.020855000242590904,0.21048800647258759,-0.08216799795627594,-0.13241200149059296,0.21494899690151215,-0.03895200043916702,0.2205120027065277,-0.12483800202608109,0.0786060020327568,0.2451619952917099,0.09841000288724899,-0.11838799715042114,-0.011394999921321869,-0.05296900123357773,-0.11042600125074387,-0.021889999508857727,-0.0829399973154068,-0.149277001619339,0.1575469970703125,-0.0686739981174469,0.09012199938297272,-0.13182500004768372,0.07317999750375748,-0.10908400267362595,0.0309859998524189,-0.11824200302362442,0.014134000055491924,0.09835900366306305,-0.01683500036597252,0.10059499740600586,0.0739239975810051,-0.07875300198793411,-0.11912000179290771,0.15222600102424622,-0.11723300069570541,0.1602039933204651,0.08840200304985046,0.11247099936008453,-0.054614000022411346,0.3568379878997803,-0.011792000383138657,-0.053509000688791275,0.16480299830436707,-0.019733000546693802,0.023660000413656235,-0.11716999858617783,-0.0759579986333847,0.018043000251054764,0.08923699706792831,-0.12669099867343903,0.0463160015642643,-0.04769499972462654,-0.009104999713599682,0.056901998817920685,0.19101600348949432,-0.2218019962310791,-0.38659700751304626,0.022110000252723694,-0.09595900028944016,0.22486600279808044,-0.13195699453353882,0.012388999573886395,0.038881998509168625,-0.013321000151336193,-0.12071499973535538,0.029395999386906624,-0.004046999849379063,0.10854700207710266,0.07780800014734268,-0.009611999616026878,-0.015588000416755676,-0.11225800216197968,0.0018700000364333391,0.033629000186920166,0.06895600259304047,-0.012729000300168991,0.021018000319600105,0.22507800161838531,-0.12771399319171906,0.03957799822092056,-0.06931400299072266,-0.07661200314760208,0.1416880041360855,0.01049800030887127,-0.07071299850940704,-0.1650560051202774,0.00011700000322889537,-0.015269000083208084,-0.08725599944591522,0.09103900194168091,0.058642998337745667,0.035103000700473785,-0.10549599677324295,0.14602400362491608,-0.010608999989926815,-0.23384499549865723,0.08923300355672836,-0.2332960069179535,-0.25008198618888855,0.15861600637435913,-0.07730299979448318,0.19992099702358246,-0.19987699389457703,0.16191600263118744,0.16471299529075623,-0.08953399956226349,0.06419999897480011,0.021316999569535255,-0.010986999608576298,-0.060784999281167984,-0.054680999368429184,-0.12615300714969635,0.22513799369335175,0.08685900270938873,0.030713999643921852,0.08786500245332718,-0.045301999896764755,0.03654500097036362,0.19994999468326569,0.13120199739933014,0.05760699883103371,-0.009225999936461449,-0.19494600594043732,0.03560899943113327,-0.12823699414730072,0.11508700251579285,0.050252001732587814,-0.021635999903082848,0.07125400006771088,-0.001560000004246831,-0.4105539917945862,-0.09819599986076355,0.04437800124287605,0.25572898983955383,-0.023874999955296516,0.14086799323558807,-0.009716999717056751,-0.17012499272823334,-0.03490300104022026,-0.01673699915409088,-0.22520899772644043,0.015991000458598137,-0.004972999915480614,-0.21299800276756287,-0.04766000062227249,-0.06992299854755402,-0.14600099623203278,-0.03600500151515007,0.07597000151872635,0.07269100099802017,-0.06748100370168686,-0.15563000738620758,-0.11899299919605255,-0.1825069934129715,0.23068200051784515,-0.07372599840164185,-0.15606999397277832,-0.14993299543857574,0.14086100459098816,0.031108999624848366,-0.057062000036239624,0.007619000039994717,0.11647800356149673,-0.06665000319480896,0.09116599708795547,-0.04097599908709526,0.1321209967136383,-0.02326500043272972,-0.1862410008907318,0.1960189938545227,-0.08852499723434448,-0.06960699707269669,0.07644099742174149,-0.020687999203801155,-0.33862999081611633,-0.07603199779987335,0.034706998616456985,0.024462999776005745,-0.16854199767112732,-0.23653100430965424,-0.1037060022354126,-0.050273001194000244,0.06623700261116028,-0.029850000515580177,-0.22530600428581238,-0.15257200598716736,0.004474000073969364,0.00039000000106170774,-0.09481900185346603,0.1338219940662384,-0.012299999594688416,0.1139020025730133,0.014543999917805195,-0.08948200196027756,-0.04739399999380112,-0.14143399894237518,0.0932530015707016,0.0021909999195486307,-0.05425100028514862,0.17135800421237946,-0.16234999895095825,-0.1688999980688095,0.12447000294923782,0.30515098571777344,0.05249200016260147,0.0528080016374588,0.089369997382164,0.24149499833583832,-0.010487000457942486,-0.15157100558280945,-0.19593100249767303,0.09148299694061279,-0.1473580002784729,0.2516539990901947,-0.1366419941186905,0.030851999297738075,0.0028389999642968178,0.12245099991559982,-0.04924999922513962,-0.007098999805748463,0.10676400363445282,0.19340400397777557,0.030520999804139137,-0.16513000428676605,-0.17214800417423248,0.2875100076198578,0.16157099604606628,0.0007600000244565308,-0.07328400015830994,-0.0898519977927208,-0.12300799787044525,-0.008682000450789928,-0.11774899810552597,0.12151700258255005,0.014809999614953995,0.07640200108289719,-0.08152200281620026,-0.03358199819922447,0.01232600025832653,0.02795800007879734,-0.08716300129890442,-0.15648500621318817,0.029665999114513397,0.020862000063061714,-0.14003600180149078,0.08640000224113464,-0.038509998470544815,0.09735000133514404,0.004517000168561935,0.14223100244998932,-0.04311000183224678,-0.021330999210476875,-0.025812000036239624,0.3296799957752228,0.14436399936676025,-0.0024850000627338886,0.005869999993592501,0.10210700333118439,0.14598800241947174,0.07175499945878983,-0.101282998919487,0.035944998264312744,0.06026399880647659,-0.026760999113321304,-0.025993000715970993,-0.011371999979019165,-0.10502099990844727,0.048103999346494675,0.05903499945998192,0.057089000940322876,0.015022999607026577,0.24897000193595886,-0.12280800193548203,0.006984000094234943,-0.0740090012550354,-0.11233600229024887,-0.06368300318717957,0.07008299976587296,-4.400000034365803e-05,0.11486499756574631,-0.10522300004959106,0.03673899918794632,-0.08149400353431702,-0.32833799719810486,-0.09903299808502197,-0.033326998353004456,0.3872250020503998,-0.13849100470542908,-0.07076200097799301,0.11274299770593643,-0.06115400046110153,-0.01006300002336502,0.011133000254631042,0.012807000428438187,-0.013915999792516232,0.16644999384880066,-0.1509069949388504,-0.01723499968647957,0.08910799771547318,-0.18611100316047668,-0.2046159952878952,-0.20046600699424744,-0.29096800088882446,0.019954999908804893,0.09525500237941742,-0.3692060112953186,0.12997500598430634,-0.07915899902582169,-0.18210099637508392,-0.017827000468969345,0.2095710039138794,0.03135199844837189,-0.11259199678897858,-0.06229500100016594,0.17345699667930603,-0.033270999789237976,-0.017542000859975815,0.1523820012807846,0.08324799686670303,-0.08724299818277359,-0.026489000767469406,-0.035211000591516495,-0.11405500024557114,0.07768700271844864,0.023958999663591385,0.03724399954080582,0.009367999620735645,0.02449999935925007,0.013389999978244305,-0.006707000080496073,-0.185931995511055,-0.015948999673128128
旋转,-0.0366859994828701,0.3020560145378113,-0.2005230039358139,0.11839800328016281,0.11550699919462204,0.16568699479103088,-0.34683001041412354,0.23435400426387787,0.3189780116081238,0.3118189871311188,-0.07493700087070465,0.19946199655532837,0.022249000146985054,-0.016827000305056572,-0.11918199807405472,-0.10859499871730804,-0.058017000555992126,0.19554199278354645,-0.12320800125598907,0.1636050045490265,-0.003208999987691641,0.031964000314474106,0.11658000200986862,0.07119099795818329,-0.003780999919399619,-0.06579899787902832,0.19846899807453156,-0.14146600663661957,-0.28522101044654846,-0.14741399884223938,0.029165999963879585,0.1572200059890747,0.0894559994339943,0.047724999487400055,0.06522800028324127,-0.048850998282432556,0.20953799784183502,0.025387000292539597,0.585910975933075,0.2499759942293167,-0.029735999181866646,0.0921109989285469,-0.30275601148605347,0.3013390004634857,-0.07538700103759766,-0.008240999653935432,0.12926200032234192,-0.37071600556373596,0.0031510000117123127,-0.09717100113630295,0.05854500085115433,-0.10921899974346161,-0.09636300057172775,0.16843800246715546,-0.12140099704265594,0.026739999651908875,-0.15836499631404877,-0.1473820060491562,0.24000200629234314,-0.05161599814891815,0.010129000060260296,0.18777400255203247,0.1771789938211441,-0.06740500032901764,-0.04919600114226341,-0.07305499911308289,-0.12313400208950043,-0.06410600244998932,0.3231610059738159,0.39601999521255493,-0.24190199375152588,-0.0545400008559227,0.05022900179028511,-0.18856100738048553,0.20274999737739563,-0.2116599977016449,0.1302890032529831,0.32600000500679016,0.17941699922084808,0.2239059954881668,-0.019352000206708908,-0.4573580026626587,-0.13002699613571167,-0.01343700010329485,-0.010734000243246555,-0.15977300703525543,-0.07418899983167648,0.20699000358581543,0.02145799994468689,0.01584699936211109,-0.04179900139570236,0.16155199706554413,-0.013034000061452389,-0.08593499660491943,0.0003380000125616789,-0.2149450033903122,-0.12321999669075012,-0.04122399911284447,-0.20092999935150146,0.06592699885368347,0.10618200153112411,-0.03408600017428398,0.03215999901294708,0.297109991312027,-0.12066400051116943,0.24559800326824188,0.005063999909907579,0.3046509921550751,-0.030465999618172646,0.029066000133752823,0.2414419949054718,0.05499099940061569,0.10071299970149994,-0.014813999645411968,0.10274899750947952,-0.14033900201320648,-0.1641629934310913,0.18281200528144836,-0.2088959962129593,0.12306000292301178,0.04947499930858612,0.07921600341796875,0.035218000411987305,-0.11348800361156464,0.15120600163936615,0.061785001307725906,-0.10591600090265274,0.11954499781131744,-0.03888100013136864,0.029332000762224197,-0.018686000257730484,0.17734800279140472,-0.009988999925553799,0.14907799661159515,0.058642998337745667,0.06949199736118317,0.0017229999648407102,-0.07284700125455856,-0.2898930013179779,0.18742799758911133,-0.1521179974079132,0.21930299699306488,0.1875849962234497,-0.023924000561237335,-0.12691299617290497,0.20209799706935883,-0.24546900391578674,-0.1558070033788681,-0.07760100066661835,0.02527499943971634,0.18303699791431427,0.1906139999628067,0.11113300174474716,-0.0018400000408291817,0.06811299920082092,0.12934400141239166,0.04940899834036827,0.07182200253009796,0.16849100589752197,0.07080099731683731,0.0050200000405311584,-0.025536999106407166,-0.07371799647808075,-0.03848300129175186,0.019665999338030815,-0.049166999757289886,0.14487400650978088,0.2988460063934326,-0.14236700534820557,-0.03928900137543678,-0.03669999912381172,0.28322499990463257,-0.16219499707221985,-0.023228999227285385,-0.15318100154399872,-0.19496899843215942,0.08463899791240692,-0.13568900525569916,0.10773299634456635,0.11874499917030334,-0.05741899833083153,-0.1856060028076172,-0.09200499951839447,0.017653999850153923,-0.27122101187705994,0.022168999537825584,0.3247080147266388,0.02830900065600872,0.08964300155639648,0.17556099593639374,-0.14704400300979614,0.20943500101566315,-0.18059100210666656,-0.256071001291275,-0.04834999889135361,-0.11587399989366531,-0.03885500133037567,-0.0965690016746521,-0.16410799324512482,-0.06800799816846848,0.20411799848079681,-0.0038499999791383743,-0.016572000458836555,0.0472010001540184,-0.12966899573802948,-0.24653500318527222,0.05364000052213669,0.17901299893856049,-0.03544199839234352,-0.08896200358867645,0.09037400037050247,0.003378999885171652,-0.10633999854326248,0.29367199540138245,0.22199900448322296,-0.015444999560713768,0.10504399985074997,-0.10932300239801407,0.28115999698638916,-0.2207220047712326,-0.20269499719142914,0.17116500437259674,-0.02096799947321415,-0.07313399761915207,-0.21678200364112854,-0.12214100360870361,0.04724299907684326,0.23239000141620636,-0.04104600101709366,0.24501100182533264,0.05872900038957596,-0.1791599988937378,-0.09579399973154068,0.12333200126886368,-0.015230000019073486,0.0642789974808693,0.07538300007581711,0.07220599800348282,-0.11102499812841415,-0.024204999208450317,-0.05150400102138519,-0.08384300023317337,-0.045271001756191254,-0.21704800426959991,0.2889859974384308,0.10104600340127945,-0.22577700018882751,0.1250070035457611,-0.1713850051164627,-0.18683399260044098,-0.21424199640750885,0.08746500313282013,-0.026674000546336174,0.17438599467277527,-0.26744401454925537,0.030243000015616417,-0.10684899985790253,-0.13465699553489685,0.13880300521850586,0.13541699945926666,-0.07304300367832184,0.0377810001373291,-0.11840499937534332,-0.11412300169467926,-0.100662000477314,-0.09013199806213379,0.050342001020908356,-0.10626699775457382,-0.02032800018787384,-0.1416890025138855,-0.08339600265026093,-0.03830299898982048,-0.08212099969387054,-0.10134799778461456,0.11336900293827057,0.26985299587249756,-0.020114000886678696,-0.003926000092178583,-0.02831600047647953,-0.008136999793350697,0.0773169994354248,0.047453999519348145,0.10484600067138672,0.2350980043411255,-0.11231700330972672,0.2301969975233078,0.16960600018501282,0.17238500714302063,0.14032599329948425,0.004629999864846468,0.2310519963502884,-0.1880670040845871,0.07014299929141998,-0.26391300559043884,-0.10640300065279007,-0.3714370131492615,-0.13871200382709503,-0.20266999304294586,0.15212899446487427,-0.07120099663734436,0.10084100067615509,0.07035999745130539,-0.004468999803066254,-0.3494659960269928,0.20065699517726898,-0.09587900340557098,0.05872900038957596,0.13254700601100922,-0.31563299894332886,-0.10341700166463852,0.2116360068321228,-0.11769799888134003,0.17291200160980225,0.10086700320243835,0.016852999106049538,-0.09166599810123444,-0.13537800312042236,0.0229250006377697,-0.22668400406837463,-0.2631619870662689,0.04058999940752983,0.25211301445961,-0.013012000359594822,-0.04431299865245819,0.08486700057983398,0.013000000268220901,0.19916999340057373,0.0859299972653389,-0.05796699970960617,-0.17352299392223358,0.14057999849319458,-0.02880300022661686,-0.07710099965333939,-0.31624698638916016,-0.16686199605464935,0.11619599908590317,-0.023313000798225403,-0.04280199855566025,-0.24616800248622894,0.022038999944925308,0.06025100126862526,-0.19338400661945343,-0.32529500126838684,0.05509499832987785,-0.0835689976811409,0.09226100146770477,0.019627999514341354,0.04527899995446205,-0.06748499721288681,-0.034908998757600784,-0.08145999908447266,0.05703900009393692,-0.2723050117492676,0.16284500062465668,0.34061700105667114,-0.32756099104881287,-0.011075000278651714,0.14142000675201416,0.14643800258636475,0.009170000441372395,-0.08134999871253967,-0.02641499973833561,0.028612999245524406,0.49854499101638794,-0.34431299567222595,0.032722000032663345,0.1288509964942932,0.006492000073194504,-0.2807750105857849,-0.15091200172901154,-0.30187299847602844,-0.1914999932050705,0.0193060003221035,-0.268528014421463,-0.11550900340080261,-0.15967300534248352,-0.3108380138874054,-0.10959000140428543,0.05587000027298927,0.03141200169920921,-0.055952999740839005,-0.06925799697637558,-0.04286700114607811,0.14327800273895264,0.13116900622844696,0.044613998383283615,0.019401000812649727,0.2563540041446686,-0.06327100098133087,-0.03507599979639053,-0.16624799370765686,0.165009006857872,-0.06725899875164032,0.1255970001220703,0.007284000050276518,0.19260700047016144,-0.001373999984934926,-0.11687400192022324,0.04291199892759323,-0.052143000066280365
延伸,-0.18801100552082062,0.04947099834680557,0.09835100173950195,0.050673000514507294,0.2714489996433258,-0.10579600185155869,-0.27337199449539185,-0.2304150015115738,-0.0025760000571608543,0.03235900029540062,0.028862999752163887,0.041110001504421234,0.01720700040459633,-0.018501000478863716,-0.041923001408576965,-0.06413400173187256,-0.05597500130534172,-0.13098299503326416,0.011668999679386616,0.181660994887352,-0.11137200146913528,0.06331799924373627,-0.18961499631404877,0.11705300211906433,0.025730999186635017,-0.07632900029420853,0.0032599999103695154,-7.599999662488699e-05,0.11385300010442734,-0.03777800127863884,0.09411399811506271,-0.15589100122451782,0.05952699854969978,0.05412000045180321,-0.28928500413894653,-0.13108499348163605,0.0954969972372055,0.11768700182437897,-0.06260400265455246,0.3625600039958954,0.05299999937415123,-0.19979700446128845,-0.18033599853515625,0.08965899795293808,-0.05723699927330017,-0.17581099271774292,0.2860809862613678,-0.04776899889111519,-0.07041200250387192,-0.1392810046672821,-0.06270000338554382,0.12445700168609619,0.039535000920295715,-0.23456299304962158,-0.09320899844169617,0.09516499936580658,0.05815799906849861,0.05215499922633171,-0.14344799518585205,0.215721994638443,0.02592400088906288,0.1613679975271225,-0.2400750070810318,0.00609100004658103,0.056324999779462814,-0.01338099967688322,0.03636699914932251,-0.1533679962158203,0.07336100190877914,-0.12403900176286697,-0.009038999676704407,0.06321299821138382,-0.14337100088596344,-0.15988600254058838,0.022305000573396683,-0.06679700314998627,-0.07352600246667862,-0.04580499976873398,-0.0018080000299960375,0.1254969984292984,0.1910810023546219,-0.03976299986243248,-0.16635100543498993,-0.10718300193548203,0.11275999993085861,-0.09818600118160248,-0.09097699820995331,-0.34811800718307495,0.3204460144042969,0.061041999608278275,0.29312801361083984,-0.13844500482082367,-0.1655460000038147,-0.019138000905513763,0.13220000267028809,-0.040619999170303345,-0.17273400723934174,-0.16087700426578522,-0.08296699821949005,0.16495999693870544,-0.03961800038814545,-0.217630997300148,0.1791590005159378,-0.08719799667596817,-0.1286109983921051,0.058416999876499176,-0.06554599851369858,0.18031099438667297,-0.07254400104284286,0.057062000036239624,0.08846200257539749,-0.02912599965929985,-0.09546300023794174,0.18762999773025513,-0.2627669870853424,-0.12925800681114197,-0.15903900563716888,-0.05249200016260147,-0.017184000462293625,-0.014922999776899815,-0.03371400013566017,0.07321500033140182,0.2639400064945221,0.07359199970960617,-0.15864700078964233,0.08466000109910965,-0.24720199406147003,0.09899400174617767,-0.04683300107717514,-0.11979600042104721,0.0069519998505711555,0.08579300343990326,0.30997100472450256,0.11117099970579147,0.10551799833774567,-0.04281499981880188,-0.06985899806022644,-0.11588899791240692,-0.087909996509552,0.0548349991440773,0.20488199591636658,-0.36619699001312256,0.11182399839162827,0.4099220037460327,0.2279829978942871,-0.038701001554727554,0.24342000484466553,-0.055702999234199524,-0.1707330048084259,-0.28253400325775146,0.09334799647331238,-0.2795340120792389,-0.019985999912023544,-0.036587998270988464,-0.4011960029602051,0.21800899505615234,-0.25828298926353455,-0.11628899723291397,0.07181999832391739,-0.12746700644493103,-0.10042600333690643,0.20014800131320953,-0.2337699979543686,-0.22918400168418884,-0.1168380007147789,-0.18530499935150146,0.053881000727415085,-0.00076299998909235,-0.11509499698877335,0.11307600140571594,-0.21187399327754974,0.24922500550746918,0.14609700441360474,0.07664000242948532,-0.10887300223112106,-0.092010997235775,0.09237799793481827,0.056067999452352524,0.08426400274038315,-0.03359900042414665,0.11290600150823593,-0.1908469945192337,-0.018660999834537506,-0.1634950041770935,-0.08171500265598297,0.055723000317811966,0.08184900134801865,-0.13376900553703308,0.1850620061159134,0.11463899910449982,0.019175000488758087,-0.15449300408363342,0.0461140014231205,0.07089299708604813,-0.19882899522781372,-0.2140119969844818,0.0007350000087171793,-0.11629600077867508,-0.004147000145167112,0.2181449979543686,-0.046278998255729675,0.01756400056183338,-0.11774899810552597,0.21164999902248383,-0.1638139933347702,-0.09752199798822403,0.13183100521564484,0.01815200038254261,-0.04987499862909317,-0.18978600203990936,0.2193470001220703,-0.039879001677036285,-0.05313599854707718,0.08677200227975845,-0.25447699427604675,0.03597800061106682,0.21255899965763092,-0.009277000091969967,-0.038203999400138855,-0.12665699422359467,0.02511500008404255,0.050540000200271606,0.12289000302553177,0.05405300110578537,-0.05675100162625313,0.07475999742746353,-0.009042000398039818,-0.07180500030517578,0.18295599520206451,-0.1701209992170334,-0.06138800084590912,-0.11619400233030319,-0.2558499872684479,-0.09090299904346466,0.06724300235509872,-0.13462699949741364,0.1338289976119995,-0.018140999600291252,0.1888280063867569,0.06587100028991699,0.0920799970626831,-0.11037600040435791,-0.1748179942369461,-0.2620820105075836,0.013376999646425247,0.06662199646234512,-0.1863979995250702,0.16449999809265137,0.01537800021469593,0.08590500056743622,0.13114799559116364,0.21923500299453735,-0.01655600033700466,-0.08300500363111496,-0.05983699858188629,-0.053766001015901566,-0.1942709982395172,0.053564999252557755,-0.09888199716806412,-0.07336799800395966,0.10208600014448166,0.0354669988155365,-0.09519200026988983,-0.39840200543403625,0.34274399280548096,-0.12342800199985504,-0.09666900336742401,-0.14980599284172058,0.05908700078725815,0.11226899921894073,0.03692600131034851,0.07426100224256516,-0.07750499993562698,-0.03359200060367584,0.19224700331687927,0.2629140019416809,-0.252020001411438,-0.011349000036716461,-0.04719800129532814,-0.16049499809741974,-0.11448000371456146,-0.2337300032377243,0.09668300300836563,0.008684000000357628,-0.18961599469184875,-0.04861599951982498,0.2775999903678894,0.02294600009918213,-0.04618600010871887,0.2114430069923401,0.11645299941301346,-0.16073399782180786,-0.06729099899530411,-0.12514400482177734,-0.11913999915122986,-0.25293898582458496,0.08322799950838089,-0.3467699885368347,-0.16859599947929382,0.23628999292850494,-0.043650999665260315,-0.02508299984037876,0.027706999331712723,-0.2169950008392334,0.16527099907398224,0.30505499243736267,0.11128199845552444,0.15132899582386017,-0.09005899727344513,-0.03649299964308739,-0.05243900045752525,0.11809899657964706,-0.1239510029554367,0.10537199676036835,-0.2981700003147125,0.05448399856686592,-0.09682799875736237,0.09993699938058853,-0.029851000756025314,0.0734729990363121,0.11997199803590775,0.29653400182724,-0.016208000481128693,-0.21208499372005463,0.29129400849342346,0.1181349977850914,0.25030601024627686,-0.12313500046730042,-0.02918899990618229,-0.13943199813365936,0.07489699870347977,0.03239699825644493,-0.13357700407505035,0.19211800396442413,-0.12626099586486816,0.1910730004310608,-0.0311879999935627,0.21567299962043762,-0.10839299857616425,0.12215600162744522,0.06782200187444687,0.07845500111579895,0.0724719986319542,0.031638000160455704,-0.13871599733829498,-0.10902799665927887,-0.10385999828577042,0.14978599548339844,-0.029146000742912292,-0.20940199494361877,-0.05345499888062477,-0.07798399776220322,0.2414499968290329,0.1603669971227646,0.0782179981470108,-0.0700950026512146,-0.13004900515079498,0.253356009721756,-0.015070999972522259,-0.011986000463366508,0.10004200041294098,0.06139200180768967,-0.211899995803833,0.17570899426937103,-0.03221699967980385,-0.029146000742912292,0.07130999863147736,0.20944400131702423,-0.05826700106263161,0.01963300071656704,-0.25145798921585083,0.12393800169229507,-0.12338799983263016,-0.050443001091480255,0.029772000387310982,-0.24037499725818634,0.14397799968719482,0.006415999960154295,-0.015155999921262264,0.08053000271320343,-0.16790799796581268,0.0958079993724823,-0.056418001651763916,-0.013136999681591988,0.08481500297784805,-0.07542099803686142,0.09996599704027176,-0.3607189953327179,0.09273400157690048,-0.024734999984502792,0.038683000952005386,0.04419200122356415,0.2743209898471832,-0.1980160027742386,0.024656999856233597,0.09806200116872787,0.15667599439620972,-0.17899000644683838,0.057735998183488846,0.048872001469135284
靠背,0.04125199839472771,0.010765999555587769,0.14445200562477112,0.14158299565315247,0.15005800127983093,-0.1124819964170456,-0.18874600529670715,0.16745300590991974,0.03870199993252754,0.015465999953448772,0.1319579929113388,0.1401669979095459,-0.09886600077152252,-0.20605400204658508,-0.10185900330543518,0.09732399880886078,-0.22963300347328186,0.16145199537277222,-0.024855000898241997,0.10573200136423111,0.013671999797224998,-0.07808200269937515,-0.01236599963158369,0.06731300055980682,0.2753559947013855,0.17379899322986603,0.06581500172615051,0.014793000183999538,0.003484999993816018,-0.029075000435113907,-0.0743890032172203,0.11577700078487396,0.1916310042142868,0.1398410052061081,-0.04063500091433525,0.09330900013446808,0.054972998797893524,-0.09130500257015228,0.16127200424671173,0.12555600702762604,-0.024032000452280045,-0.06377100199460983,-0.054683998227119446,0.21948100626468658,-0.03215299919247627,-0.07663299888372421,-0.059335000813007355,0.09895800054073334,0.14097900688648224,-0.006757999770343304,-0.003068000078201294,0.016509000211954117,0.14315800368785858,0.18772000074386597,-0.12081500142812729,0.13889099657535553,0.015248999930918217,-0.17321400344371796,-0.06572599709033966,0.2562829852104187,0.10842999815940857,0.12568500638008118,-0.19996200501918793,0.053860001266002655,-0.04481000080704689,-0.06577099859714508,0.1886810064315796,0.06321799755096436,0.217507004737854,0.16506199538707733,-0.04471400007605553,0.005568999797105789,0.08078999817371368,0.13819900155067444,0.08376999944448471,-0.04797599837183952,0.008410000242292881,0.03381200134754181,0.18876400589942932,0.10595499724149704,0.04231100156903267,-0.2573910057544708,-0.15086700022220612,0.024651000276207924,-0.10263200104236603,0.0072479997761547565,-0.02502799965441227,0.052639998495578766,0.07633800059556961,-0.031106999143958092,0.08242200314998627,-0.01256600022315979,0.12213499844074249,0.09126599878072739,0.05688599869608879,0.06891699880361557,-0.06932500004768372,-0.03865399956703186,0.08050300180912018,-0.030050000175833702,-0.027053000405430794,0.003594999900087714,0.0027779999654740095,0.15266700088977814,-0.11105599999427795,-0.010219000279903412,0.09794600307941437,0.05130099877715111,0.0620339997112751,-0.16350199282169342,-0.10185100138187408,0.024351999163627625,0.2507469952106476,0.07500100135803223,0.22927600145339966,-0.14806300401687622,-0.06603299826383591,-0.08370699733495712,0.1044590026140213,0.028880000114440918,0.029329000040888786,-0.04510600119829178,0.11336600035429001,0.17072799801826477,0.03955499827861786,-0.07599999755620956,-0.14439600706100464,0.056067001074552536,-0.11936300247907639,0.021014999598264694,-0.000455000001238659,-0.08459199965000153,0.026527000591158867,-0.026784999296069145,0.090829998254776,-0.019222000613808632,-0.028676999732851982,-0.06962700188159943,-0.16920900344848633,0.1587039977312088,0.042413998395204544,-0.22838200628757477,-0.15018799901008606,-0.0054790000431239605,-0.0331760011613369,-0.021541999652981758,0.13317599892616272,-0.06581199914216995,-0.13563500344753265,0.22171799838542938,-0.02042200043797493,0.03882899880409241,0.07315099984407425,-0.09297399967908859,0.020035000517964363,0.12241300195455551,0.18600599467754364,0.014798000454902649,0.10952900350093842,0.058437999337911606,-0.17773599922657013,0.1200689971446991,-0.054450999945402145,-0.14371900260448456,0.09148500114679337,-0.3481619954109192,-0.12042199820280075,0.07389699667692184,-0.05602400004863739,-0.029159000143408775,0.004004000220447779,0.02714099921286106,-0.13724499940872192,0.02335900068283081,0.20318299531936646,-0.0364300012588501,0.038001999258995056,-0.017934000119566917,-0.1451440006494522,0.006269000004976988,-0.003748999908566475,0.09906099736690521,0.03510500118136406,0.021970000118017197,-0.17011000216007233,-0.18379899859428406,0.20183899998664856,-0.07013700157403946,0.03215799853205681,-0.038846999406814575,-0.036072999238967896,0.11330100148916245,0.033764999359846115,-0.049559999257326126,-0.11869899928569794,0.07335299998521805,-0.24557599425315857,0.17110399901866913,-0.07537999749183655,-0.10834500193595886,0.13313999772071838,-0.08566100150346756,-0.03781700134277344,0.36719998717308044,0.01657699979841709,-0.21070300042629242,-0.02138799987733364,0.22792799770832062,0.020188000053167343,0.048117998987436295,0.025560999289155006,-0.22477099299430847,-0.1646219938993454,0.09660100191831589,0.1014380007982254,0.06396199762821198,0.24985699355602264,-0.1846500039100647,0.01916399970650673,-0.12287899851799011,-0.04974399879574776,0.17357400059700012,0.15026399493217468,0.08055999875068665,-0.12572599947452545,0.3736329972743988,0.14493800699710846,0.10996799916028976,-0.05251099914312363,-0.07129599899053574,0.03872400149703026,0.14489400386810303,0.0774879977107048,0.033128999173641205,0.1790730059146881,-0.14347399771213531,0.12174099683761597,0.15120099484920502,-0.06918700039386749,-0.22865299880504608,-0.10508199781179428,0.06760700047016144,-0.06547900289297104,0.04097000136971474,0.03245899826288223,-0.16825200617313385,-0.0873659998178482,-0.05557699874043465,-0.07728900015354156,-0.07560300081968307,-0.07090000063180923,-0.08549000322818756,0.021250000223517418,0.15183299779891968,-0.1496960073709488,-0.03488200157880783,0.012489999644458294,0.02684199996292591,0.02882399968802929,0.14904999732971191,0.2528339922428131,0.11337599903345108,0.10792999714612961,-0.15560699999332428,-0.4412649869918823,-0.12551000714302063,0.07031600177288055,0.17284199595451355,-0.35079899430274963,-0.13335399329662323,-0.002650999929755926,0.07233499735593796,-0.047596998512744904,-0.09192699939012527,0.06716299802064896,0.3003700077533722,0.047543998807668686,-0.17732900381088257,-0.07018300145864487,-0.025947999209165573,0.05820000171661377,-0.15118500590324402,0.04367800056934357,0.003782999934628606,-0.1313360035419464,0.07898899912834167,0.12546400725841522,-0.04142199829220772,-0.06765300035476685,-0.06596899777650833,-0.043912000954151154,-0.13104699552059174,-0.14034299552440643,-0.10141900181770325,0.06068599969148636,-0.06424900144338608,-0.29343798756599426,-0.077844999730587,0.20134399831295013,-0.10002999752759933,-0.05670600011944771,0.14940199255943298,0.011331000365316868,-0.1434600055217743,-0.039128001779317856,0.07109100371599197,-0.18894200026988983,0.07128500193357468,-0.08267100155353546,0.03466999903321266,0.12007199972867966,-0.16085700690746307,0.12948299944400787,0.09083499759435654,-0.03412099927663803,0.025829000398516655,0.0751509964466095,-0.0796009972691536,0.08640199899673462,0.05050100013613701,-0.018871000036597252,0.11590900272130966,-0.20056599378585815,-0.0271029993891716,-0.07463599741458893,0.12785199284553528,0.10231000185012817,-0.1617249995470047,-0.07570599764585495,0.05676500126719475,0.08892100304365158,-0.0666700005531311,-0.038314998149871826,0.08925800025463104,-0.09813199937343597,0.12640300393104553,-0.1859399974346161,0.11067099869251251,-0.1361909955739975,0.06570500135421753,0.24324099719524384,-0.29573601484298706,-0.05808600038290024,-0.026512999087572098,-0.08253099769353867,0.10046800225973129,0.06488700211048126,0.07546199858188629,0.013520999811589718,-0.08308299630880356,0.002644000109285116,-0.05581299960613251,-0.07781799882650375,-0.11950699985027313,-0.03604099899530411,0.05394800007343292,-0.0012110000243410468,0.08710599690675735,0.12271600216627121,-0.02007799968123436,-0.1675730049610138,0.1839739978313446,0.0189059991389513,0.17092999815940857,-0.13531999289989471,0.05651300027966499,-0.15311600267887115,-0.0733020007610321,-0.2377299964427948,-0.07241500169038773,-0.22624100744724274,-0.08989500254392624,0.04911800101399422,-0.2781679928302765,-0.06849800050258636,-0.14064699411392212,0.15424300730228424,0.11828699707984924,-0.07761599868535995,0.173893004655838,-0.09923899918794632,-0.18030600249767303,0.024630000814795494,0.05122699961066246,-0.13041900098323822,-0.0004400000034365803,0.009428000077605247,0.21420200169086456,-0.22316700220108032,0.008569000288844109,-0.01584400050342083,0.12063299864530563,-0.0947360023856163,-0.21822600066661835,-0.11687199771404266,0.006041999906301498,-0.031024999916553497,0.02769099920988083,-0.016724999994039536,-0.112124003469944
包围,-0.09651300311088562,0.07231900095939636,0.05193300172686577,0.11501900106668472,0.07080800086259842,-0.09799200296401978,-0.22061100602149963,0.037234000861644745,-0.2000879943370819,-0.04465299844741821,0.09936200082302094,-0.03815999999642372,0.059491999447345734,-0.06549300253391266,-0.0002209999947808683,0.01472300011664629,-0.12688300013542175,0.07882899791002274,0.004770999774336815,-0.22992900013923645,0.11084400117397308,-0.1803780049085617,0.10228300094604492,-0.05053900182247162,0.20018799602985382,0.08455199748277664,0.00419900007545948,0.014851000159978867,0.12050999701023102,0.14630399644374847,0.026108000427484512,-0.08167699724435806,0.19017499685287476,0.054740000516176224,0.08880600333213806,-0.2815299928188324,0.006719000171869993,-0.06453900039196014,-0.25700798630714417,-0.04632300138473511,-0.1338289976119995,0.043515998870134354,0.008182000368833542,-0.11445699632167816,0.1743990033864975,0.2933630049228668,0.07003699988126755,0.2234649956226349,0.026274999603629112,-0.03257099911570549,0.45903199911117554,-0.03930500149726868,0.054933998733758926,0.0445839986205101,0.014601999893784523,-0.07984399795532227,-0.23020300269126892,0.01957700029015541,-0.00355600006878376,0.06950200349092484,-0.18272100389003754,-0.007232999894768,-0.028912000358104706,0.326555997133255,0.010613000020384789,0.03259500116109848,0.14374199509620667,0.04609299823641777,0.11834900081157684,0.325545996427536,-0.009464000351727009,0.2670069932937622,0.1308780014514923,0.028836000710725784,0.010521999560296535,-0.15989500284194946,-0.2438639998435974,-0.06545300036668777,0.1212960034608841,-0.16027599573135376,0.1470479965209961,-0.011513999663293362,0.010490999557077885,-0.020994000136852264,-0.06768599897623062,0.13259899616241455,-0.09346800297498703,0.09300100058317184,0.17552800476551056,0.013376999646425247,0.030811000615358353,-0.04525500163435936,-0.10461299866437912,-0.1241149976849556,-0.382858008146286,-0.1458739936351776,-0.1876000016927719,0.001686000032350421,-0.058706000447273254,0.05060499906539917,0.07236500084400177,0.14753499627113342,-0.14803199470043182,0.05892200022935867,-0.26800599694252014,0.011307000182569027,-0.04904799908399582,-0.12977099418640137,0.06838399916887283,0.13946999609470367,0.05412700027227402,0.03038099966943264,0.10663700103759766,-0.2573249936103821,-0.0762609988451004,-0.14155200123786926,0.04381600022315979,-0.02352200075984001,0.022693000733852386,0.16795499622821808,0.033636000007390976,0.016706999391317368,-0.12161300331354141,0.09505899995565414,-0.22238799929618835,-0.024015000090003014,-0.13105300068855286,0.08986300230026245,-0.09788600355386734,0.14096499979496002,0.10970299690961838,-0.05388600006699562,0.235385000705719,0.17342199385166168,-0.007387000136077404,0.02377600036561489,0.08828400075435638,0.09201599657535553,-0.0026680000592023134,-0.10526599735021591,0.23473000526428223,-0.058765001595020294,-0.0270990002900362,-0.034908998757600784,0.09238599985837936,0.07451199740171432,0.12597499787807465,0.01596900075674057,-0.07177600264549255,0.038961999118328094,-0.10132800042629242,-0.06310199946165085,0.16016900539398193,0.16050300002098083,-0.016543999314308167,-0.11962199956178665,-0.1334889978170395,-0.12259399890899658,0.04286300018429756,0.08957900106906891,0.01814199984073639,-0.05266600102186203,-0.21966899931430817,0.037085000425577164,-0.13500499725341797,0.05347499996423721,-0.08583100140094757,0.07302699983119965,-0.08563099801540375,-0.022799000144004822,-0.13429200649261475,-0.031044000759720802,-0.0856890007853508,-0.0571959987282753,0.02838600054383278,-0.013194000348448753,-0.04920399934053421,-0.08472900092601776,-0.10439100116491318,-0.01683799922466278,-0.11886200308799744,-0.014353999868035316,-0.04123900085687637,0.006056999787688255,0.04539500176906586,-0.028039000928401947,-0.20129899680614471,-0.08923099935054779,0.08083599805831909,0.06713899970054626,0.18012599647045135,-0.029107000678777695,0.15963299572467804,0.26770201325416565,0.07041999697685242,-0.05549899861216545,-0.018389999866485596,-0.13514700531959534,-0.14932100474834442,0.012085000053048134,0.027932999655604362,0.1971289962530136,-0.17150700092315674,0.09855899959802628,-0.043522998690605164,-0.1333959996700287,0.00929300021380186,0.05347499996423721,-0.01632699929177761,-0.10091900080442429,0.013876000419259071,-0.029975000768899918,-0.09287700057029724,0.06614100188016891,0.07431700080633163,0.11557000130414963,-0.08569800108671188,0.019858000800013542,-0.12533099949359894,-0.19206500053405762,-0.15419499576091766,-0.25669801235198975,0.018299000337719917,-0.292493999004364,-0.2208629995584488,0.03364500030875206,0.17669500410556793,-0.06652899831533432,0.07476100325584412,-0.036722999066114426,-0.08857599645853043,-0.06959199905395508,-0.16861799359321594,0.2980029881000519,0.053647998720407486,-0.009820999577641487,0.07155799865722656,-0.0470849983394146,-0.16755999624729156,-0.09558200091123581,-0.01662999950349331,-0.07942800223827362,-0.15791800618171692,-0.08199899643659592,-0.02218800038099289,0.035700999200344086,0.17647400498390198,0.17074500024318695,-0.09846100211143494,-0.12198799848556519,-0.011215999722480774,-0.13375000655651093,-0.007860999554395676,-0.048367999494075775,0.1587730050086975,-0.06196200102567673,-0.20810100436210632,0.26432499289512634,-0.05020499974489212,0.002274000085890293,0.004736000206321478,0.15020400285720825,0.043435998260974884,0.0024659999180585146,0.011188999749720097,0.027997000142931938,0.09133099764585495,-0.1403619945049286,-0.23725000023841858,-0.19029200077056885,-0.24942199885845184,0.0037609999999403954,0.04130600020289421,-0.037264999002218246,0.032990001142024994,0.06938900053501129,-0.0843999981880188,0.08538900315761566,0.1286890059709549,0.10360299795866013,-0.05843700096011162,-0.05936700105667114,-0.04841399937868118,0.15446799993515015,0.05558000132441521,0.004153000190854073,0.14421400427818298,0.07569800317287445,-0.1446159929037094,0.08716800063848495,0.03481699898838997,0.10565099865198135,0.2243569940328598,0.016047999262809753,-0.18859900534152985,-0.1374419927597046,-0.0405689999461174,-0.12674300372600555,0.020597999915480614,-0.1391800045967102,0.04915999993681908,0.1752229928970337,-0.03840300068259239,-0.14242100715637207,0.061128001660108566,-0.17499400675296783,0.11578600108623505,0.021693000569939613,0.06134900078177452,-0.04797099903225899,-0.07011900097131729,-0.014507000334560871,-0.01312199980020523,-0.12026000022888184,0.04660800099372864,-0.11305399984121323,0.1313209980726242,0.06019200012087822,-0.16591699421405792,-0.3197680115699768,0.055077001452445984,0.16693900525569916,-0.039733998477458954,0.0538100004196167,-0.00572599982842803,0.2145799994468689,0.12512099742889404,-0.15011200308799744,0.25678500533103943,0.04933999851346016,-0.1412300020456314,-0.1504179984331131,0.15971599519252777,-0.04183800145983696,-0.23708799481391907,-0.04108399897813797,-0.11647000163793564,0.059491001069545746,-0.03918499872088432,0.06939700245857239,-0.04445299878716469,0.3388949930667877,-0.03987300023436546,-0.15069200098514557,-0.07808300107717514,-0.014276999980211258,0.21269799768924713,0.1841530054807663,0.0528080016374588,0.19916899502277374,0.046358998864889145,0.10774800181388855,0.09923899918794632,0.2013089954853058,0.40595000982284546,-0.07953300327062607,0.18644599616527557,-0.06331399828195572,0.17775799334049225,0.5538010001182556,0.2309979945421219,-0.010130000300705433,0.11281099915504456,-0.18241199851036072,-0.2674199938774109,-0.0380919985473156,-0.03558799996972084,0.3190680146217346,0.11793799698352814,-0.0696529969573021,-0.12826600670814514,0.32560300827026367,-0.028832999989390373,-0.21289899945259094,-0.07136999815702438,0.05926299840211868,-0.01629599928855896,-0.07210800051689148,0.09814199805259705,0.11027099937200546,-0.0321739986538887,0.10731100291013718,0.06064699962735176,0.07824999839067459,-0.16047899425029755,0.06416500359773636,0.08617500215768814,0.06135699898004532,-0.023540999740362167,-0.3835650086402893,0.03034999966621399,-0.03448599949479103,-0.056650999933481216,-0.16415199637413025,-0.28891998529434204,-0.13092699646949768,0.168503999710083,-0.13440999388694763,0.11020100116729736,0.18774199485778809
车辆,-0.12137100100517273,0.12452799826860428,-0.004381000064313412,0.23407399654388428,-0.046438999474048615,-0.26697900891304016,0.15905499458312988,0.28384700417518616,0.15267600119113922,0.06685499846935272,-0.13879500329494476,0.009699000045657158,0.14873400330543518,0.01544100046157837,-0.0764160007238388,-0.17631299793720245,-0.08636099845170975,0.18753400444984436,0.0862250030040741,-0.1963929980993271,-0.136135995388031,-0.083965003490448,0.09100600332021713,0.10124000161886215,0.1570259928703308,0.19717399775981903,0.10725399851799011,0.044213999062776566,0.05253000184893608,-0.03883200138807297,-0.03327000141143799,0.21446099877357483,0.12943899631500244,0.11385499686002731,-0.13495799899101257,-0.21836599707603455,0.17162099480628967,-0.03160199895501137,0.30526700615882874,0.13036400079727173,-0.12500999867916107,-0.12055499851703644,-0.046842001378536224,0.2070769965648651,0.36040300130844116,0.023416999727487564,0.10440800338983536,0.12161000072956085,0.24891600012779236,-0.2228890061378479,-0.1875230073928833,-0.06631600111722946,0.03521899878978729,0.08897899836301804,0.13990800082683563,0.16595099866390228,-0.14040300250053406,0.15772999823093414,0.0881199985742569,-0.04595699906349182,0.018492000177502632,-0.21575799584388733,-0.45986199378967285,0.09978300333023071,0.2868019938468933,-0.013712000101804733,-0.2097260057926178,0.07519800215959549,0.19004499912261963,0.061191998422145844,-0.06632799655199051,0.20653299987316132,-0.008348999544978142,-0.13741600513458252,0.03578000143170357,-0.05716099962592125,0.042040999978780746,-0.03826599940657616,0.08254099637269974,0.07999899983406067,0.32672399282455444,-0.05490399897098541,-0.1954520046710968,-0.032604001462459564,-0.07233300060033798,-0.037671998143196106,0.042465001344680786,-0.0006050000083632767,-0.21830900013446808,-0.29551199078559875,-0.2826850116252899,0.10736600309610367,-0.15191000699996948,0.0841749981045723,0.12229900062084198,0.18879400193691254,-0.06870999932289124,0.23350299894809723,-0.24685600399971008,-0.0842989981174469,-0.005520000122487545,0.08510199934244156,0.15833400189876556,-0.029745999723672867,-0.042392998933792114,0.07285699993371964,0.15474200248718262,-0.3360329866409302,-0.08294499665498734,-0.21253900229930878,-0.09257099777460098,0.08032000064849854,-0.14093899726867676,-0.267535001039505,-0.013677000068128109,-0.2652359902858734,-0.05687699839472771,-0.08271799981594086,0.2831819951534271,0.25059399008750916,-0.056977998465299606,0.1341940015554428,0.10501699894666672,-0.005028999876230955,0.27987200021743774,0.015099000185728073,-0.01308900024741888,0.12254100292921066,0.05892200022935867,-0.04199500009417534,0.2491769939661026,-0.3065429925918579,0.156140998005867,-0.01445700041949749,-0.05962299928069115,0.06285600364208221,0.035937000066041946,-0.1434909999370575,0.20572200417518616,0.28862398862838745,-0.13267600536346436,0.061257001012563705,-0.0009330000029876828,0.06445199996232986,-0.15253500640392303,0.11776000261306763,-0.031644999980926514,-0.1447650045156479,-0.1082879975438118,-0.002836999949067831,0.10374700278043747,-0.22278599441051483,0.016752999275922775,0.014538000337779522,0.20323799550533295,-0.08288399875164032,0.25247299671173096,0.049508001655340195,0.20555900037288666,-0.17595499753952026,-0.1863030046224594,-0.014096000231802464,-0.06744600087404251,0.19364699721336365,-0.24787800014019012,-0.23002000153064728,0.0024999999441206455,-0.04441799968481064,-0.10591500252485275,0.07751400023698807,-0.0602089986205101,-0.033918000757694244,0.22767800092697144,0.054625000804662704,0.11596599966287613,-0.13466200232505798,-0.15193599462509155,0.07791399955749512,-0.3589420020580292,0.007067000027745962,0.0588189996778965,-0.22786399722099304,-0.17471499741077423,-0.08832500129938126,-0.03645399957895279,-0.13744400441646576,-0.07197699695825577,0.14349399507045746,0.11930699646472931,0.04024399816989899,-0.12437999993562698,-0.14947199821472168,0.004523000214248896,0.14703699946403503,-0.2190839946269989,0.12088099867105484,-0.3473230004310608,0.13282500207424164,0.1627029925584793,-0.06077500060200691,0.027532000094652176,-0.3458380103111267,-0.23198500275611877,0.050252001732587814,0.1298460066318512,-0.17793400585651398,0.18201899528503418,0.0676179975271225,0.18602700531482697,0.015747999772429466,-0.22509799897670746,-0.06723300367593765,-0.12537500262260437,0.30182600021362305,-0.10607799887657166,0.06369400024414062,-0.057328000664711,-0.012884999625384808,0.26732999086380005,-0.1862500011920929,-0.025508999824523926,0.23068399727344513,0.17948399484157562,-0.1687850058078766,0.11969099938869476,0.14458900690078735,0.13755300641059875,0.03839400038123131,0.1875319927930832,0.1604679971933365,0.05526300147175789,-0.17546699941158295,0.045577000826597214,-0.04008999839425087,0.010712999850511551,-0.2553110122680664,0.05011599883437157,-0.09668900072574615,0.025171000510454178,-0.14763900637626648,-0.012020000256597996,-0.10186400264501572,-0.15530699491500854,-0.2073419988155365,0.05920200049877167,-0.003379999892786145,-0.04824800044298172,-0.0826679989695549,0.1039080023765564,-0.06252700090408325,0.03777800127863884,-0.00939099956303835,-0.08875799924135208,-0.10677000135183334,0.05154300108551979,-0.07765399664640427,0.07398299872875214,0.12819699943065643,0.14496800303459167,-0.04949500039219856,0.10565900057554245,0.013660999946296215,-0.32641100883483887,0.15650199353694916,-0.49065300822257996,-0.28100699186325073,0.22895300388336182,0.33862900733947754,-0.11486300081014633,0.25437799096107483,-0.19700799882411957,-0.2691830098628998,0.008572000078856945,0.19158199429512024,0.027192000299692154,0.14099499583244324,-0.025709999725222588,0.018184000626206398,-0.13224199414253235,0.15564599633216858,-0.08507200330495834,-0.10126099735498428,0.34080299735069275,-0.12286899983882904,-0.20429299771785736,-0.21483899652957916,-0.1817920058965683,-0.17461200058460236,-0.07245700061321259,0.1578029990196228,-0.0018860000418499112,-0.2393379956483841,0.006839000154286623,-0.4528430104255676,-0.16955800354480743,0.07031799852848053,0.3879750072956085,0.08153700083494186,0.17783699929714203,0.08038000017404556,0.08794800192117691,0.29494398832321167,0.0003589999978430569,-0.2734909951686859,0.06473100185394287,0.1423420011997223,-0.17162899672985077,0.05249200016260147,0.0066189998760819435,0.37619099020957947,0.09523899853229523,0.0043219998478889465,0.02537200041115284,0.022686999291181564,0.308571994304657,0.3090899884700775,0.19404399394989014,-0.09247100353240967,0.07698599994182587,-0.0387520007789135,-0.055573999881744385,-0.03248000144958496,-0.15195800364017487,0.2949169874191284,0.09814400225877762,0.26318299770355225,0.14558100700378418,-0.2995710074901581,-0.05437299981713295,-0.017771000042557716,0.0176170002669096,-0.07961399853229523,-0.16142700612545013,-0.20943500101566315,-0.018285000696778297,0.16395699977874756,-0.22309400141239166,-0.03586700186133385,-0.1761299967765808,0.03601599857211113,-0.08971499651670456,0.05637099966406822,0.1282919943332672,0.13234500586986542,0.1468989998102188,0.086326003074646,-0.0662669986486435,-0.10894600301980972,-0.025346999987959862,0.005249000154435635,-0.07221300154924393,0.05678100138902664,0.06950800120830536,-0.058194998651742935,0.24934199452400208,-0.028598999604582787,-0.18129199743270874,0.3122729957103729,0.011890999972820282,0.2007180005311966,0.06620600074529648,-0.16035600006580353,-0.073014996945858,0.14057999849319458,-0.13815699517726898,-0.07062000036239624,-0.21296100318431854,0.2566649913787842,0.10633599758148193,0.1816370040178299,-0.21299199759960175,-0.028681999072432518,-0.2038699984550476,-0.09278199821710587,0.12592099606990814,-0.006149999797344208,0.18165799975395203,0.03689099848270416,0.2411630004644394,-0.39997598528862,0.06379000097513199,-0.24509400129318237,-0.056366000324487686,0.05865500122308731,0.10068699717521667,0.2969689965248108,0.01858600042760372,0.16399900615215302,-0.0982460007071495,-0.2530199885368347,0.1261260062456131,-0.04944299906492233,-0.1297380030155182,0.2341720014810562,0.14437900483608246,0.3021889925003052,-0.07486999779939651,-0.0856660008430481,0.07672999799251556,-0.0009919999865815043
构件,-0.166252002120018,0.08177900314331055,-0.04542800039052963,0.05265200138092041,0.019533999264240265,0.05490000173449516,-0.18865199387073517,-0.18199099600315094,-0.19937199354171753,0.17699499428272247,0.1953510046005249,0.11260899901390076,-0.18522700667381287,-0.10891799628734589,-0.06686100363731384,-0.057920001447200775,-0.13877500593662262,-0.3273659944534302,-0.015946999192237854,0.08556400239467621,-0.1184379979968071,-0.051353998482227325,0.4719649851322174,0.0857980027794838,0.12666499614715576,0.012218999676406384,-0.07229000329971313,-0.188633993268013,-0.3208549916744232,0.11311899870634079,-0.09612499922513962,-0.03826899826526642,0.3228209912776947,0.029185999184846878,-0.15172399580478668,0.06696400046348572,0.27160200476646423,-0.17249000072479248,0.13198499381542206,-0.08384200185537338,0.048259999603033066,0.20938299596309662,-0.11879400163888931,0.2057259976863861,-0.23672500252723694,-0.296220988035202,-0.13715599477291107,-0.18973399698734283,-0.21431100368499756,-0.013438999652862549,0.13116799294948578,0.1380849927663803,0.579101026058197,0.228301003575325,-0.016863999888300896,-0.13242900371551514,0.26228800415992737,-0.023684000596404076,0.13600000739097595,0.028544999659061432,0.026767000555992126,0.23543000221252441,-0.3364189863204956,0.27028000354766846,0.06124100089073181,0.07260099798440933,-0.10407800227403641,0.36583399772644043,0.14291700720787048,0.08099900186061859,-0.41583600640296936,0.08007299900054932,-0.0709879994392395,0.061121001839637756,0.11579900234937668,-0.03266099840402603,0.13854900002479553,0.12357500195503235,0.38792699575424194,0.01486700028181076,0.2210330069065094,-0.11283200234174728,-0.11114700138568878,-0.1357879936695099,-0.1734119951725006,0.0067529999651014805,-0.11058499664068222,-0.2572849988937378,0.05615200102329254,0.42128199338912964,0.15410800278186798,-0.12731300294399261,0.24733099341392517,-0.007792999967932701,-0.22268499433994293,0.15557800233364105,0.26904699206352234,0.04796700179576874,-0.02465900033712387,0.024271000176668167,0.1597760021686554,0.18399199843406677,0.05193199962377548,0.12333399802446365,0.09763699769973755,-0.23201000690460205,0.15392300486564636,0.3447040021419525,-0.2363789975643158,0.2872070074081421,-0.04905499890446663,-0.0010339999571442604,-0.060315001755952835,0.13869400322437286,0.19242699444293976,-0.14722900092601776,0.021270999684929848,-0.16829699277877808,0.17512699961662292,-0.11288800090551376,-0.012672999873757362,-0.07753200083971024,-0.047940000891685486,-0.06469599902629852,-0.256164014339447,-0.11052999645471573,-0.2519020140171051,0.05623599886894226,-0.17603799700737,-0.26688098907470703,-0.2684909999370575,-0.24487300217151642,-0.3809860050678253,-0.2739329934120178,-0.1563269942998886,0.28375399112701416,0.0749950036406517,-0.4760420024394989,0.04340999945998192,0.10802999883890152,-0.2837589979171753,0.10766399651765823,0.3104580044746399,0.14338499307632446,-0.22594499588012695,-0.0032259998843073845,0.10167299956083298,-0.04313100129365921,-0.28504401445388794,0.003172999946400523,0.05159600079059601,-0.27271899580955505,-0.1501370072364807,-0.08539299666881561,-0.1153469979763031,-0.0386510007083416,0.007859000004827976,0.06442300230264664,-0.10843999683856964,0.1891240030527115,0.07382400333881378,-0.08557000011205673,-0.24933600425720215,-0.15231099724769592,0.061372000724077225,-0.17474499344825745,-0.35042500495910645,0.3045249879360199,-0.08227799832820892,0.06458300352096558,0.04908299818634987,-0.021849000826478004,0.03888799995183945,0.2621360123157501,0.1637440025806427,-0.01684500090777874,0.06595700234174728,0.38060200214385986,-0.2772989869117737,-0.02214900031685829,-0.041544001549482346,-0.2114959955215454,-0.18566399812698364,0.508184015750885,-0.10665100067853928,-0.0345660001039505,0.04661799967288971,-0.2577129900455475,0.043848998844623566,0.14812999963760376,-0.21921400725841522,0.09060999751091003,0.05929899960756302,-0.12301000207662582,0.05481500178575516,0.12091100215911865,-0.26173099875450134,-0.08218099921941757,-0.03887899965047836,0.020462999120354652,0.17899000644683838,0.20202699303627014,-0.08489000052213669,0.30293700098991394,-0.12420599907636642,-0.40055400133132935,0.12449000030755997,0.05215999856591225,0.11515200138092041,-0.15166300535202026,-0.02858399972319603,-0.22219300270080566,-0.2685120105743408,0.06909800320863724,-0.21246899664402008,-0.06432600319385529,0.10291600227355957,-0.47757700085639954,0.17359699308872223,-0.10366400331258774,-0.31059199571609497,0.22578400373458862,0.3509570062160492,0.13236600160598755,-0.03202100098133087,-0.04201100021600723,0.33217400312423706,-0.27320098876953125,0.010883999988436699,0.16331399977207184,-0.01706399954855442,-0.12394999712705612,-0.19820399582386017,0.18387499451637268,0.4111489951610565,0.24004000425338745,0.17371000349521637,0.09543800354003906,0.1950799971818924,-0.21723699569702148,-0.1256749927997589,-0.05880900099873543,0.14329099655151367,-0.15370500087738037,0.002945000072941184,-0.32190200686454773,0.06138100102543831,-0.0224239993840456,0.017965000122785568,-0.11181999742984772,-0.05453399941325188,0.09347900003194809,-0.10799200087785721,0.38856199383735657,0.10432499647140503,0.1387680023908615,-0.1378840059041977,0.012323999777436256,0.30364298820495605,0.38804200291633606,0.09891100227832794,0.00039500001003034413,0.12121900171041489,-0.22001700103282928,-0.220892995595932,-0.15134300291538239,0.06279399991035461,0.06439600139856339,-0.3030039966106415,-0.21396000683307648,-0.07924100011587143,-0.09734900295734406,-0.353875994682312,0.274168998003006,0.073683001101017,0.10143599659204483,0.12928999960422516,-0.246397003531456,0.10142499953508377,0.0787699967622757,-0.024865999817848206,-0.13523699343204498,0.08571399748325348,-0.05478399991989136,-0.1572680026292801,-0.1337279975414276,-0.1161239966750145,0.022218000143766403,-0.23668000102043152,-0.08371300250291824,-0.11895599961280823,-0.25276899337768555,0.011742999777197838,-0.10239599645137787,0.4841249883174896,-0.11131999641656876,-0.1677590012550354,-0.11971499770879745,0.1695840060710907,-0.15248599648475647,-0.10122700035572052,0.4726170003414154,0.18556199967861176,0.29627498984336853,0.2035450041294098,-0.10108800232410431,-0.2281399965286255,0.050769999623298645,-0.019665999338030815,-0.04083599895238876,0.009410999715328217,-0.06475000083446503,0.3902060091495514,-0.23930099606513977,0.17053799331188202,0.07900899648666382,-0.11472799628973007,0.11606799811124802,-0.033661000430583954,-0.1481270045042038,-0.15172800421714783,0.08702900260686874,0.0026950000319629908,0.22285600006580353,-0.08047399669885635,0.28767499327659607,0.1320440024137497,0.06939800083637238,0.09957899898290634,-0.18391700088977814,0.03824799880385399,0.12186100333929062,-0.06201599910855293,-0.07122699916362762,-0.19129599630832672,-0.20532000064849854,-0.026885999366641045,-0.42347198724746704,0.11074300110340118,-0.16778899729251862,0.05826999992132187,-0.23326799273490906,-0.1383029967546463,0.12000100314617157,-0.1592860072851181,0.3051150143146515,0.09928099811077118,0.0943870022892952,0.01117200031876564,0.11344199627637863,0.044321998953819275,-0.13781699538230896,0.15799200534820557,-0.01919100061058998,0.11670500040054321,0.016158999875187874,-0.3224659860134125,0.3852260112762451,-0.26173898577690125,-0.14137999713420868,-0.25635701417922974,-0.003746999893337488,0.038750000298023224,0.0993959978222847,-0.24074000120162964,-0.023267999291419983,-0.14394399523735046,-0.10275900363922119,-0.21337999403476715,-0.149276003241539,-0.49471598863601685,-0.20693199336528778,0.3122110068798065,-0.2493620067834854,0.10109999775886536,-0.10130800306797028,0.0944100022315979,-0.5687410235404968,-0.06275500357151031,-0.12984299659729004,0.0060800001956522465,-0.2276500016450882,-0.1479569971561432,0.08765000104904175,0.24355700612068176,0.2198300063610077,-0.08582200109958649,0.047805000096559525,0.19255900382995605,-0.012602999806404114,0.12076299637556076,0.12712299823760986,-0.2772449851036072,0.13500100374221802,-0.3731989860534668,0.13599300384521484,-0.028411999344825745,-0.11343900114297867,0.011827999725937843,-0.21224699914455414
