word,0,1,2,3,4,5,6,7,8,9,10,11,12,13,14,15,16,17,18,19,20,21,22,23,24,25,26,27,28,29,30,31,32,33,34,35,36,37,38,39,40,41,42,43,44,45,46,47,48,49,50,51,52,53,54,55,56,57,58,59,60,61,62,63,64,65,66,67,68,69,70,71,72,73,74,75,76,77,78,79,80,81,82,83,84,85,86,87,88,89,90,91,92,93,94,95,96,97,98,99,100,101,102,103,104,105,106,107,108,109,110,111,112,113,114,115,116,117,118,119,120,121,122,123,124,125,126,127,128,129,130,131,132,133,134,135,136,137,138,139,140,141,142,143,144,145,146,147,148,149,150,151,152,153,154,155,156,157,158,159,160,161,162,163,164,165,166,167,168,169,170,171,172,173,174,175,176,177,178,179,180,181,182,183,184,185,186,187,188,189,190,191,192,193,194,195,196,197,198,199,200,201,202,203,204,205,206,207,208,209,210,211,212,213,214,215,216,217,218,219,220,221,222,223,224,225,226,227,228,229,230,231,232,233,234,235,236,237,238,239,240,241,242,243,244,245,246,247,248,249,250,251,252,253,254,255,256,257,258,259,260,261,262,263,264,265,266,267,268,269,270,271,272,273,274,275,276,277,278,279,280,281,282,283,284,285,286,287,288,289,290,291,292,293,294,295,296,297,298,299,300,301,302,303,304,305,306,307,308,309,310,311,312,313,314,315,316,317,318,319,320,321,322,323,324,325,326,327,328,329,330,331,332,333,334,335,336,337,338,339,340,341,342,343,344,345,346,347,348,349,350,351,352,353,354,355,356,357,358,359,360,361,362,363,364,365,366,367,368,369,370,371,372,373,374,375,376,377,378,379,380,381,382,383,384,385,386,387,388,389,390,391,392,393,394,395,396,397,398,399
靠近,-0.11831600219011307,-0.04559699818491936,-0.12502500414848328,0.08413700014352798,0.2575240135192871,0.09050799906253815,-0.10232800245285034,0.02954299934208393,-0.059859998524188995,0.07727699726819992,0.0915680006146431,-0.06018799915909767,0.0028019999153912067,-0.04182000085711479,0.046817999333143234,0.07077600061893463,-0.04898900166153908,0.21895000338554382,0.009138000197708607,0.026799999177455902,0.04597099870443344,-0.24140599370002747,-0.06823699921369553,-0.05981900170445442,-0.10410799831151962,-0.0401110015809536,-0.1167910024523735,0.11056599766016006,-0.2309029996395111,0.1500519961118698,0.11284700036048889,0.027798999100923538,0.0897039994597435,0.12436400353908539,0.042139001190662384,-0.1915140002965927,0.19722199440002441,0.04876299947500229,0.02552499994635582,0.14597800374031067,0.026017000898718834,-0.10270299762487411,-0.05324399843811989,0.09446399658918381,-0.061487000435590744,-0.16674700379371643,0.16748400032520294,-0.03528900071978569,0.06280399858951569,-0.06043799966573715,0.043689001351594925,-0.10799899697303772,-0.01689000055193901,-0.06596799939870834,-0.07780399918556213,0.12385199964046478,0.06415800005197525,0.14277100563049316,-0.005708999931812286,0.15596400201320648,0.003745000110939145,-0.052962999790906906,-0.20929299294948578,-0.160629004240036,0.090488001704216,0.00496899988502264,0.00661400007084012,0.06603100150823593,-0.025193000212311745,0.22118400037288666,0.08497700095176697,-0.06807900220155716,0.09830000251531601,-0.045680999755859375,0.050606999546289444,-0.15046599507331848,0.08513499796390533,0.12719300389289856,0.11724899709224701,-0.10589800029993057,0.13167400658130646,-0.13901300728321075,-0.24779699742794037,0.015644999220967293,-0.06025699898600578,0.029253000393509865,0.10627800226211548,-0.01829100027680397,-0.14985300600528717,0.11307000368833542,0.06437099725008011,0.11100299656391144,0.18451200425624847,-0.06035099923610687,-0.040911998599767685,-0.05558700114488602,-0.21096399426460266,0.05337199941277504,-0.02213600091636181,0.3779189884662628,-0.03017299994826317,0.16539500653743744,0.04795899987220764,0.0812079980969429,-0.11048900336027145,-0.10122299939393997,0.08474499732255936,0.09154699742794037,0.026194000616669655,0.08456599712371826,0.24268600344657898,-0.21281500160694122,-0.19397899508476257,-0.1411910057067871,0.028718000277876854,-0.12464600056409836,-0.1497509926557541,0.1693049967288971,0.048291001468896866,0.08132199943065643,0.02037700079381466,0.08712200075387955,0.19120100140571594,-0.10442200303077698,-0.23403100669384003,0.09509100019931793,-0.1983720064163208,0.18170799314975739,-0.07778900116682053,0.3195190131664276,0.017767999321222305,0.18666799366474152,0.18262100219726562,-0.059498000890016556,-0.004149000160396099,0.02865700051188469,0.02993199974298477,-0.027998000383377075,-0.034272998571395874,-0.019308000802993774,-0.011258999817073345,-0.1759980022907257,0.22728900611400604,0.028988000005483627,0.030270999297499657,-0.0431860014796257,-0.03972499817609787,-0.00038499999209307134,0.11478599905967712,-0.2635439932346344,0.04113300144672394,-0.21977099776268005,0.047926999628543854,-0.049042001366615295,0.2170879989862442,-0.118756003677845,-0.13180799782276154,-0.12947900593280792,0.1679069995880127,-0.2401379942893982,0.053814999759197235,0.15100599825382233,-0.21734300255775452,-0.0036359999794512987,0.06400500237941742,-0.001990000018849969,0.18293799459934235,0.1752929985523224,-0.21314199268817902,0.0867919996380806,-0.1832980066537857,0.10213100165128708,0.011861000210046768,-0.010701999999582767,0.09492599964141846,-0.09356299787759781,-0.07329100370407104,0.04747999832034111,0.10743600130081177,0.06627500057220459,0.07093899697065353,-0.23424799740314484,0.049334000796079636,0.05794399976730347,-0.17487099766731262,0.026840999722480774,-0.13526800274848938,-0.057746000587940216,0.03779799863696098,0.21985599398612976,-0.04605000093579292,0.023847000673413277,0.016249999403953552,0.02544800005853176,0.0060629998333752155,-0.010247999802231789,-0.0036100000143051147,-0.10037200152873993,-0.1488720029592514,-0.2222210019826889,0.010178999975323677,0.06886199861764908,-0.21539199352264404,-0.028591999784111977,0.07493100315332413,0.04937300086021423,0.02131900005042553,0.09341999888420105,-0.09732899814844131,0.0287919994443655,0.0749099999666214,-0.01203600037842989,-0.15221700072288513,-0.0018769999733194709,-0.11145400255918503,-0.08330000191926956,-0.11024200171232224,-0.06571800261735916,0.2549459934234619,-0.1350950002670288,0.03353099897503853,0.011955000460147858,-0.05205899849534035,0.02534100040793419,0.07363799959421158,0.0845780000090599,0.12371599674224854,0.017575999721884727,-0.18194900453090668,0.03000899963080883,-0.11807700246572495,0.010192999616265297,-0.24905599653720856,-0.09664899855852127,0.07715000212192535,-0.18016700446605682,-0.05688399821519852,-0.06554699689149857,-0.3147589862346649,-0.010645000264048576,-0.0994660034775734,-0.10023000091314316,-0.11586099863052368,-0.054016999900341034,-0.02852500043809414,-0.08240699768066406,-0.038242001086473465,-0.003645000047981739,-0.09660399705171585,-0.04163900017738342,0.11318700015544891,0.04426499828696251,-0.06735800206661224,-0.2626569867134094,0.042468998581171036,-0.25596699118614197,0.08660300076007843,0.15327200293540955,-0.009610000066459179,0.12853099405765533,0.03899100050330162,-0.09631399810314178,-0.14908799529075623,-0.08309800177812576,-0.06384400278329849,0.029438000172376633,0.03224100172519684,0.10576999932527542,-0.010343999601900578,0.027264000847935677,0.07799399644136429,-0.19741199910640717,-0.13705000281333923,-0.08375799655914307,-0.08770100027322769,0.1722079962491989,-0.1143139973282814,-0.05270100012421608,-0.1359959989786148,0.12472499907016754,0.08727899938821793,0.016860000789165497,-0.03560899943113327,0.03917799890041351,-0.21698999404907227,0.06932900100946426,-0.09640199691057205,0.19719499349594116,0.012911000289022923,0.07379099726676941,-0.04022600129246712,-0.08508399873971939,-0.06959900259971619,-0.02896299958229065,-0.25156500935554504,0.09889599680900574,-0.16801199316978455,-0.13491499423980713,0.017255999147892,-0.15572400391101837,0.04763999953866005,0.21674099564552307,-0.15039199590682983,0.09379100054502487,0.040438998490571976,0.14501400291919708,-0.11625500023365021,0.031578999012708664,-0.08452299982309341,-0.11582600325345993,0.13076399266719818,0.036667998880147934,0.16858899593353271,0.1611039936542511,-0.13960899412631989,0.05887899920344353,0.2005860060453415,-0.016944000497460365,-0.21588000655174255,-0.13387799263000488,0.06593099981546402,0.30712300539016724,0.2081039994955063,-0.24721600115299225,0.0908140018582344,0.2711870074272156,0.23136499524116516,-0.01868700049817562,-0.06270100176334381,0.018523000180721283,0.05096299946308136,-0.13269099593162537,0.08665300160646439,-0.09920100122690201,0.09653399884700775,0.12441900372505188,-0.16491299867630005,-0.06564400345087051,0.13106299936771393,0.0068060001358389854,-0.10689199715852737,0.10592900216579437,-0.11177200078964233,0.06412500143051147,0.1709039956331253,0.01637299917638302,0.004170000087469816,0.038279999047517776,0.0300929993391037,-0.2371249943971634,0.04459499940276146,-0.08713500201702118,-0.03297099843621254,0.061684999614953995,0.20949000120162964,-0.10884600132703781,-0.020948000252246857,0.09082499891519547,0.06199600175023079,0.13590100407600403,0.12968799471855164,-0.09116099774837494,-0.12750299274921417,-0.0007340000011026859,-0.15192300081253052,0.03391199931502342,-0.006754999980330467,-0.22877800464630127,-0.04269099980592728,-0.19132299721240997,-0.29563501477241516,-0.01827099919319153,0.13558000326156616,-0.25924399495124817,-0.030455999076366425,-0.05471299961209297,-0.10538499802350998,0.2377849966287613,0.2005079984664917,0.26627999544143677,0.14111900329589844,-0.003765000030398369,0.04843499884009361,0.1333490014076233,-0.20714299380779266,0.055897001177072525,-0.04421300068497658,0.10125499963760376,0.04339199885725975,-0.1313360035419464,0.05733099952340126,0.11558400094509125,0.008775000460445881,-0.07316199690103531,-0.06028600037097931,0.12109799683094025,0.055994000285863876,-0.15964800119400024,0.07608900219202042,0.13384799659252167
主体,-0.07553599774837494,0.06279999762773514,-0.06612800061702728,-0.02123199962079525,0.03317999839782715,-0.03902500122785568,0.05078100040555,-0.16085800528526306,-0.15705600380897522,0.23800599575042725,-0.10006699711084366,-0.12881499528884888,-0.09176699817180634,-0.13112500309944153,0.05764999985694885,-0.009073000401258469,-0.2514660060405731,-0.1121629998087883,0.09528700262308121,-0.1128930002450943,-0.15062899887561798,-0.20181100070476532,0.17942799627780914,0.18056799471378326,0.03780899941921234,-0.020983999595046043,-0.09848199784755707,-0.11546400189399719,-0.01433200016617775,0.06429799646139145,-0.06369800120592117,0.01969599910080433,0.08014199882745743,0.2337310016155243,-0.10434400290250778,-0.0006309999735094607,-0.007038000039756298,0.005024999845772982,0.01482400018721819,0.09294699877500534,0.010645999573171139,-0.027739999815821648,-0.024404000490903854,-0.10225600004196167,-0.19438199698925018,-0.17690999805927277,0.04417499899864197,-0.2104170024394989,-0.09968599677085876,0.08264899998903275,0.020750999450683594,-0.0075969998724758625,-0.0790489986538887,-0.1454329937696457,0.01102800015360117,-0.051920998841524124,-0.04145900160074234,0.10509900003671646,-0.0023509999737143517,0.0621270015835762,0.1491049975156784,0.19924099743366241,0.03965799883008003,-0.03869900107383728,0.02315800078213215,-0.12435100227594376,-0.021741999313235283,-0.1784999966621399,-0.08959399908781052,-0.034547001123428345,-0.02589300088584423,0.10262099653482437,0.24351699650287628,-0.14270299673080444,0.11182600259780884,-0.31824401021003723,-0.07712399959564209,-0.08834099769592285,0.014546999707818031,0.03512199968099594,0.2712410092353821,-0.2019679993391037,0.12041500210762024,0.0584460012614727,-0.08931899815797806,0.0018779999809339643,0.0346359983086586,-0.11041399836540222,-0.12995800375938416,0.11636699736118317,-0.09328500181436539,-0.40021899342536926,0.012044999748468399,-0.10287299752235413,-0.08548499643802643,-0.1163259968161583,0.15925000607967377,0.12833699584007263,-0.023506000638008118,-0.05490899831056595,-0.0038330000825226307,0.07784800231456757,-0.15685899555683136,0.033378999680280685,0.15624000132083893,-0.04145200178027153,0.11090599745512009,0.10488300025463104,0.15090599656105042,-0.09469299763441086,0.1124109998345375,0.0686269998550415,0.07112400233745575,0.015007000416517258,0.14923399686813354,-0.04890900105237961,-0.12327700108289719,0.024814000353217125,0.005022000055760145,0.0559919998049736,-0.048781998455524445,0.13105300068855286,0.09572699666023254,0.033730000257492065,-0.3175249993801117,-0.25383999943733215,-0.24807700514793396,0.08115000277757645,-0.11067900061607361,0.006523000076413155,-0.06963100284337997,-0.3203279972076416,-0.189752995967865,0.02366800047457218,0.07794500142335892,0.09010600298643112,0.04612699896097183,-0.08718399703502655,0.12764599919319153,-0.07761699706315994,-0.24332299828529358,0.20888499915599823,0.21650899946689606,0.0014130000490695238,-0.2214139997959137,0.07319500297307968,-0.04478200152516365,0.1826770007610321,-0.16467000544071198,-0.11352500319480896,0.014918999746441841,0.02118000015616417,-0.010917999781668186,-0.29589200019836426,-0.2368910014629364,0.09836500138044357,-0.12161900103092194,0.012002999894320965,0.06906799972057343,0.04390000179409981,-0.08627299964427948,0.1875,-0.152319997549057,-0.16163299977779388,-0.044909000396728516,-0.07926400005817413,-0.22331100702285767,-0.03285500034689903,0.0773639976978302,-0.02058199979364872,0.1641629934310913,-0.06754499673843384,-0.073014996945858,-0.029590999707579613,0.15789100527763367,0.36583301424980164,0.011862999759614468,0.035666998475790024,-0.18225300312042236,-0.05404999852180481,-0.19693100452423096,-0.059755001217126846,0.05270500108599663,0.020709000527858734,-0.12933899462223053,0.0010079999919980764,0.0351720005273819,0.025358999148011208,0.0940530002117157,0.09751799702644348,-0.1098489984869957,-0.11222600191831589,0.027746999636292458,0.21842899918556213,0.043104998767375946,-0.01284400001168251,0.1300780028104782,0.011584999971091747,-0.19627900421619415,-0.1201929971575737,0.07694099843502045,0.1348550021648407,0.041425999253988266,0.08947800099849701,0.1633629947900772,-0.29990699887275696,-0.04931800067424774,-0.04538999870419502,-0.10294999927282333,-0.006407999899238348,-0.024070000275969505,-0.03784000128507614,0.019713999703526497,-0.018211999908089638,0.003587000072002411,-0.16512799263000488,-0.09375199675559998,-0.0982770025730133,0.07765600085258484,-0.23196500539779663,-0.19647400081157684,0.2620590031147003,0.15507100522518158,-0.07536300271749496,0.06451000273227692,-0.09201999753713608,-0.014875000342726707,-0.13970400393009186,0.16880600154399872,-0.04473499953746796,0.05496999993920326,-0.20059700310230255,-0.10860099643468857,0.06361400336027145,0.15791800618171692,-0.03900500014424324,0.015863999724388123,0.14737099409103394,-0.07905600219964981,0.021580999717116356,-0.013229000382125378,-0.05292600020766258,-0.2691900134086609,-0.10647200047969818,-0.1511940062046051,-0.04689199849963188,-0.1480640023946762,-0.16718900203704834,0.08220700174570084,-0.08481000363826752,0.13178999722003937,0.1886570006608963,-0.07700599730014801,-0.1932400017976761,-0.0669580027461052,-0.07718200236558914,0.046209000051021576,0.02144400030374527,-0.0761680006980896,0.10117600113153458,0.08095700293779373,0.05266600102186203,-0.09156599640846252,-0.02053700014948845,-0.15525299310684204,-0.14284400641918182,0.14284999668598175,0.03469900041818619,0.013092000037431717,-0.0592849999666214,-0.18341100215911865,0.09380900114774704,-0.1443440020084381,0.24294599890708923,0.17185799777507782,-0.11403200030326843,-0.21314099431037903,-0.02503800019621849,0.04157400131225586,-0.03878200054168701,0.10231299698352814,-0.012368000112473965,-0.07917500287294388,0.1300020068883896,-0.006676000077277422,-0.01286999974399805,-0.24327099323272705,-0.16284799575805664,0.10239499807357788,-0.1864670068025589,0.12010099738836288,-0.07676299661397934,-0.12609100341796875,0.06094200164079666,0.289777010679245,-0.12608499825000763,-0.21609899401664734,-0.15783999860286713,-0.09764699637889862,0.05215200036764145,0.06775300204753876,0.2295829951763153,0.035868000239133835,0.040862999856472015,-0.21386699378490448,0.019920000806450844,-0.07794299721717834,-0.03359000012278557,0.09822099655866623,-0.08247599750757217,0.01165200024843216,-0.06832800060510635,0.1465349942445755,-0.10883799940347672,-0.12472700327634811,0.13403399288654327,0.027501000091433525,0.14269199967384338,-0.21595799922943115,-0.3346169888973236,0.1647139936685562,0.46417900919914246,0.06497500091791153,0.11328999698162079,-0.2409690022468567,0.12021899968385696,-0.05408800020813942,0.00420599989593029,0.25120899081230164,-0.13816499710083008,-0.002208000048995018,-0.20362700521945953,-0.06347999721765518,-0.0015259999781847,0.019719000905752182,-0.014467000029981136,-0.09007299691438675,-0.15987500548362732,0.014457999728620052,-0.07570700347423553,-0.20573100447654724,0.018736999481916428,-0.037735000252723694,0.15284299850463867,-0.25478899478912354,0.20247399806976318,0.12763500213623047,0.04988599941134453,-0.07775299996137619,0.11933600157499313,-0.07164599746465683,-0.1796949952840805,0.1294270008802414,-0.22195099294185638,0.05349100008606911,0.11776299774646759,0.07484199851751328,0.14084500074386597,-0.011164999566972256,-0.0073910001665353775,-0.09632500261068344,-0.01608400046825409,0.11148999631404877,-0.007880999706685543,-0.031057000160217285,-0.011575999669730663,-0.15000100433826447,-0.3941429853439331,-0.17083099484443665,0.033055998384952545,-0.2011840045452118,-0.08579300343990326,0.008772999979555607,-0.17112599313259125,0.12981900572776794,-0.20920899510383606,0.12701299786567688,-0.20436100661754608,0.0042929998598992825,-0.2802320122718811,0.2515760064125061,0.12945400178432465,0.1567080020904541,0.04220300167798996,0.0598829984664917,-0.027773000299930573,0.05003200098872185,-0.09371399879455566,-0.11281599849462509,-0.0902940034866333,-0.1592250019311905,0.05747700110077858,-0.2615549862384796,0.06511499732732773,-0.20841099321842194,-0.020462999120354652,-0.15772999823093414,-0.09386099874973297,-0.10581400245428085,-0.04249100014567375
方法,-0.02370999939739704,0.01142400037497282,0.02790299989283085,-0.06390500068664551,0.13582199811935425,0.11157800257205963,0.12834499776363373,0.09334699809551239,-0.19035999476909637,-0.10729700326919556,-0.007888000458478928,-0.17123299837112427,-0.022275999188423157,-0.07051800191402435,-0.09283699840307236,-0.034258998930454254,0.035287000238895416,-0.07516100257635117,-0.1693820059299469,-0.17639200389385223,0.07132700085639954,-0.13845700025558472,0.11153700202703476,0.16467200219631195,0.05359800159931183,0.028814999386668205,-0.058173999190330505,0.05637500062584877,-0.10795599967241287,0.0894249975681305,-0.002968000015243888,-0.007424000184983015,-0.07428299635648727,-0.06567800045013428,0.04590500146150589,-0.019639000296592712,0.16665099561214447,-0.008502000011503696,0.21191099286079407,-0.236627995967865,0.1322309970855713,-0.038033001124858856,-0.1328669935464859,0.032026998698711395,0.055452000349760056,-0.08637300133705139,-0.08231300115585327,0.0722389966249466,0.005166999995708466,-0.07226099818944931,0.06174999848008156,-0.13074900209903717,0.27921199798583984,-0.06206199899315834,0.037873998284339905,-0.2745569944381714,0.0539730004966259,0.14219099283218384,0.029908999800682068,0.03237500041723251,0.007792999967932701,-0.15175899863243103,0.07679100334644318,-0.09313900023698807,0.02751000039279461,-0.09666500240564346,0.02661599963903427,0.12596599757671356,0.03582800179719925,-0.032749999314546585,-0.08736799657344818,0.06215599924325943,-0.08726400136947632,0.05201900005340576,0.02066200040280819,-0.12874600291252136,0.1092350035905838,0.09507200121879578,0.12842999398708344,0.04549799859523773,0.016527999192476273,-0.03551299870014191,-0.05413400009274483,0.006306000053882599,-0.15010599792003632,-0.12530100345611572,0.16980299353599548,-0.022081999108195305,-0.10711800307035446,0.0018550000386312604,-0.013207999989390373,-0.1665779948234558,-0.13381999731063843,0.040608000010252,-0.08382699638605118,-0.1589599996805191,0.14773200452327728,0.1142750009894371,-0.1606059968471527,0.04836000129580498,0.27729201316833496,-0.04019999876618385,0.2690350115299225,0.013416999951004982,-0.012595999985933304,0.12927000224590302,-0.06291300058364868,0.11392000317573547,0.06332200020551682,-0.07164400070905685,0.01370800007134676,0.10075599700212479,-0.01785000041127205,0.027069000527262688,-0.03364599868655205,0.31790199875831604,-0.12462200224399567,-0.13106299936771393,0.12443400174379349,0.10192400217056274,0.09047699719667435,0.07626499980688095,0.07367700338363647,-0.08724500238895416,-0.15162299573421478,0.10551399737596512,-0.11331400275230408,-0.023930000141263008,-0.011067000217735767,-0.1531669944524765,-0.06482499837875366,0.06901499629020691,0.032329998910427094,0.1811870038509369,0.11351200193166733,-0.11771199852228165,0.02843499928712845,0.002736999886110425,-0.03283800184726715,0.035294000059366226,0.04912000149488449,0.04910700023174286,0.1368129998445511,-0.010350000113248825,-0.06244099885225296,-0.1112160012125969,-0.3278839886188507,0.2444320023059845,-0.06970000267028809,0.12315600365400314,0.011215000413358212,0.0856420025229454,0.15718799829483032,-0.005696999840438366,-0.2020300030708313,0.08238200098276138,-0.006310999859124422,0.08521699905395508,0.03729899972677231,-0.02157999947667122,0.04299499839544296,-0.08475799858570099,-0.11453299969434738,0.003573999973013997,-0.16287900507450104,0.06938900053501129,-0.002113000024110079,0.10904199630022049,0.10467399656772614,-0.165801003575325,-0.09791100025177002,0.20331600308418274,-0.20819500088691711,0.021407000720500946,-0.09759700298309326,-0.15926699340343475,-0.0330829992890358,0.1710900068283081,0.12228599935770035,0.02893799915909767,-0.0026000000070780516,-0.04454699903726578,-0.03410699963569641,0.10267200320959091,-0.1514980047941208,-0.07744699716567993,0.12461800128221512,0.09271399676799774,0.15689000487327576,0.10330399870872498,0.12710000574588776,-0.05955100059509277,-0.02079099975526333,-0.014372999779880047,0.1042179986834526,-0.11512500047683716,-0.1080550029873848,-0.023321999236941338,-0.07901199907064438,0.1504170000553131,0.047839000821113586,-0.019734999164938927,-0.00854399986565113,0.037115998566150665,-0.11560200154781342,-0.2144719958305359,0.23366600275039673,-0.1475829929113388,0.042433001101017,0.17430299520492554,-0.17644700407981873,0.15174500644207,-0.023990999907255173,0.13534599542617798,0.08750200271606445,0.08631400018930435,-0.019693000242114067,-0.07948099821805954,0.2175929993391037,0.09092599898576736,0.15605700016021729,0.12597300112247467,-0.01069399993866682,0.08455699682235718,0.06580399721860886,-0.17000900208950043,-0.1059269979596138,-0.035301998257637024,-0.19356900453567505,0.20213399827480316,-0.010305999778211117,-0.15167899429798126,0.013364000245928764,-0.01921599917113781,0.15851199626922607,-0.0929659977555275,-0.10652200132608414,0.011826000176370144,-0.20570099353790283,-0.14557300508022308,-0.09727200120687485,0.16617099940776825,-0.2280299961566925,0.13638299703598022,-0.29261499643325806,0.0849979966878891,-0.16148200631141663,0.05810699984431267,-0.11990399658679962,0.050930000841617584,0.09438099712133408,-0.32987600564956665,-0.09677299857139587,0.04833399876952171,-0.1865600049495697,0.10989899933338165,-0.012617000378668308,-0.07305099815130234,0.00967899989336729,0.06230099871754646,0.08687199652194977,0.08117599785327911,0.09621500223875046,-0.13200600445270538,0.05519599840044975,-0.09774000197649002,-0.1302659958600998,-0.09314099699258804,-0.036003001034259796,0.056306999176740646,-0.1450279951095581,-0.05255499854683876,0.018470000475645065,0.142084002494812,0.18251100182533264,0.01947700046002865,-0.1368439942598343,-0.05404200032353401,-0.004722000099718571,-0.14792299270629883,-0.1003590002655983,-0.028037000447511673,-0.07499299943447113,-0.022102000191807747,-0.053957998752593994,-0.03693300113081932,0.07817400246858597,-0.13155999779701233,0.005900000222027302,-0.08661500364542007,0.03545499965548515,-0.02196599915623665,0.07948199659585953,-0.13045799732208252,0.19844700396060944,-0.26783299446105957,0.17865100502967834,0.07852499932050705,0.2262679934501648,-0.03913300111889839,-0.12153200060129166,0.07184000313282013,-0.0712210014462471,-0.10776899755001068,-0.0811460018157959,-0.018240999430418015,0.020779000595211983,0.1879960000514984,0.09861700236797333,0.11163999885320663,-0.0587490014731884,-0.03752300143241882,-0.029503000900149345,0.002345999935641885,0.04194999858736992,-0.11756499856710434,-0.0044999998062849045,0.050988998264074326,0.09442199766635895,-0.05962499976158142,-0.06004299968481064,0.09153400361537933,0.013546000234782696,-0.0001740000006975606,-0.01594500057399273,-0.07365600019693375,-0.0055610002018511295,-0.03349899873137474,-0.017952000722289085,-0.038325000554323196,0.052021998912096024,0.11664800345897675,0.03700700029730797,-0.06325100362300873,0.14847800135612488,0.08038999885320663,0.26160499453544617,-0.08724799752235413,-0.17812199890613556,-0.22598400712013245,-0.1516689956188202,-0.09379000216722488,-0.02076300047338009,-0.0885939970612526,-0.05222199857234955,0.10673999786376953,0.20075799524784088,0.061980001628398895,-0.15366700291633606,-0.036931999027729034,-0.23329800367355347,-0.016672000288963318,0.02688400074839592,0.07303699851036072,0.09702800214290619,0.10941199958324432,0.008600999601185322,0.1953440010547638,0.04883100092411041,-0.022752000018954277,-0.24948300421237946,-0.026820000261068344,0.08867699652910233,0.06992299854755402,-0.04369499906897545,-0.1976580023765564,-0.03408300131559372,-0.06067800149321556,-0.2586210072040558,0.0026179999113082886,0.0345270000398159,0.09957200288772583,-0.048037998378276825,0.028992999345064163,0.14137199521064758,-0.09811100363731384,0.16112199425697327,-0.040794000029563904,-0.03723699972033501,0.06755100190639496,-0.07856299728155136,0.04073600098490715,-0.05284300073981285,0.15323400497436523,0.11980599910020828,0.03770099952816963,-0.15245500206947327,0.07767900079488754,0.12527300417423248,-0.03397800028324127,-0.120899997651577,0.19528299570083618,-0.1501529961824417,-0.043542999774217606,0.05975300073623657,0.2139340043067932,-0.13947199285030365,-0.07755199819803238,0.06074399873614311,0.05667300149798393
织物,0.08770699799060822,0.2855220139026642,-0.05674999952316284,0.26224198937416077,-0.26515498757362366,-0.29912498593330383,-0.17217600345611572,-0.18324099481105804,0.0659089982509613,0.07820499688386917,-0.10815899819135666,0.007230000104755163,-0.22724999487400055,-0.16693100333213806,-0.13336299359798431,-0.02153800055384636,-0.1683109998703003,0.13863399624824524,0.21184700727462769,-0.2244960069656372,-0.059404000639915466,-0.23715299367904663,0.23292000591754913,0.03070399910211563,0.09580899775028229,0.15475399792194366,-0.21484999358654022,0.10566899925470352,-0.1973479986190796,0.07147900015115738,0.004916999954730272,-0.024452999234199524,0.14954300224781036,0.029983999207615852,-0.2365729957818985,0.13439500331878662,0.026593999937176704,0.25861701369285583,0.0883290022611618,0.12273699790239334,-0.20816700160503387,0.18826299905776978,-0.3463970124721527,-0.08736100047826767,0.10073400288820267,0.2135390043258667,0.017846999689936638,-0.18171599507331848,-0.19141800701618195,-0.3796199858188629,-0.20205099880695343,0.11695200204849243,0.36919400095939636,0.6611379981040955,-0.07681900262832642,0.16569699347019196,-0.11606699973344803,-0.25640401244163513,-0.22504599392414093,0.1527159959077835,0.26932498812675476,-0.17711299657821655,-0.32568201422691345,0.10628300160169601,-0.2615950107574463,0.2374269962310791,-0.11242199689149857,0.2961060106754303,0.23303699493408203,-0.1292169988155365,0.10556600242853165,0.19992400705814362,0.24246099591255188,0.20778200030326843,0.27216699719429016,-0.02438100054860115,0.36758899688720703,0.4731920063495636,0.08973299711942673,-0.07789400219917297,0.00022499999613501132,-0.2890560030937195,0.0832810029387474,0.24514800310134888,-0.36222898960113525,-0.09070199728012085,0.147830992937088,-0.28785601258277893,-0.2583029866218567,0.11214900016784668,0.012322000227868557,0.014018000103533268,-0.06562399864196777,0.5214890241622925,-0.3692089915275574,0.33766499161720276,0.33584100008010864,0.031259000301361084,-0.0510919988155365,-0.22283600270748138,-0.023646999150514603,0.008817000314593315,-0.01423100009560585,0.08749900013208389,0.269428014755249,-0.14515000581741333,0.15494200587272644,0.10165899991989136,0.2686389982700348,-0.17517900466918945,-0.15570999681949615,0.10170300304889679,0.09747999906539917,-0.00013600000238511711,0.2956230044364929,0.033514998853206635,0.18012699484825134,-0.19315700232982635,0.048399001359939575,0.23457500338554382,0.1549919992685318,-0.033167000859975815,0.4020729959011078,0.1125049963593483,-0.07168599963188171,-0.03096099942922592,-0.1288529932498932,-0.2998169958591461,-0.15440300107002258,-0.44827800989151,0.010254000313580036,-0.049612000584602356,-0.19879299402236938,-0.0596579983830452,0.26530399918556213,-0.23580899834632874,0.05126100033521652,-0.10031499713659286,-0.02114900015294552,0.06260599941015244,0.17871199548244476,-0.015581999905407429,-0.09384600073099136,-0.09780299663543701,0.06174999848008156,-0.04351300001144409,-0.3730739951133728,-0.2558389902114868,-0.026133999228477478,0.1274150013923645,-0.22450099885463715,-0.051683999598026276,0.003992999903857708,-0.14830699563026428,-0.07087399810552597,0.17114800214767456,0.2312909960746765,-0.16094200313091278,-0.30513298511505127,0.027860000729560852,-0.007524999789893627,-0.13922899961471558,0.2231370061635971,0.16248199343681335,0.04567300155758858,-0.26490500569343567,-0.11274900287389755,0.03926499933004379,0.0532739982008934,0.3625450134277344,0.27317899465560913,-0.2248540073633194,0.48604801297187805,0.0628499984741211,0.19170400500297546,0.037223998457193375,0.21684199571609497,0.1512490063905716,-0.1379529982805252,0.025839999318122864,-0.04551300033926964,-0.23668700456619263,0.12555299699306488,-0.0071829999797046185,-0.33357399702072144,-0.29647600650787354,-0.002247000113129616,-0.45934200286865234,-0.20408500730991364,-0.15903399884700775,-0.023535000160336494,-0.16391900181770325,-0.2268110066652298,0.010498999617993832,0.14324699342250824,-0.08606799691915512,-0.44615501165390015,0.0879800021648407,-0.48179200291633606,0.018564999103546143,-0.047015998512506485,0.07921499758958817,-0.10778900235891342,0.3551110029220581,-0.2619430124759674,-0.07496900111436844,-0.04238399863243103,0.1471399962902069,-0.25613000988960266,-0.013415000401437283,0.1271190047264099,-0.12281999737024307,-0.10611200332641602,0.016154000535607338,0.16768300533294678,0.11444900184869766,0.23823100328445435,0.002742999931797385,0.055438000708818436,0.1789419949054718,-0.4029810130596161,-0.08508100360631943,0.5099200010299683,0.21528099477291107,0.12375900149345398,0.2058899998664856,0.063960000872612,-0.1871899962425232,0.014223000034689903,0.06569600105285645,0.09956599771976471,-0.14256399869918823,0.030753999948501587,-0.28923898935317993,0.07128400355577469,0.3214370012283325,0.25347700715065,0.03960699960589409,-0.03405100107192993,-0.04577599838376045,0.031092999503016472,-0.031610000878572464,-0.04848099872469902,-0.16304300725460052,0.10631400346755981,-0.2156520038843155,-0.05760300159454346,-0.164000004529953,0.07790499925613403,-0.12219200283288956,-0.3044309914112091,0.4547649919986725,-0.2991029918193817,-0.026978999376296997,0.06787600368261337,0.2914299964904785,0.1435209959745407,-0.07134400308132172,0.3681049942970276,0.1518319994211197,-0.18017199635505676,0.2716050148010254,0.3955079913139343,-0.28022199869155884,-0.11754799634218216,0.20932799577713013,-0.15664400160312653,0.1497579962015152,0.03050599992275238,0.20196999609470367,-0.20665499567985535,-0.3989810049533844,-0.42359399795532227,-0.02697400003671646,-0.13944199681282043,0.036421999335289,0.12505899369716644,-0.17024800181388855,0.03921699896454811,-0.19302700459957123,-0.10948300361633301,-0.2991040050983429,0.28922900557518005,0.16942599415779114,-0.16180600225925446,-0.014937999658286572,-0.11815699934959412,-0.23057399690151215,0.1288740038871765,-0.11169400066137314,0.2343759983778,0.06659899652004242,-0.14090800285339355,0.026928000152111053,0.24377499520778656,-0.5618529915809631,-0.23091299831867218,0.07353100180625916,0.29149699211120605,-0.4140540063381195,-0.1274079978466034,0.28415900468826294,-0.09963499754667282,-0.17175300419330597,-0.3534039855003357,0.3051050007343292,-0.2828409969806671,-0.4484899938106537,0.060412000864744186,0.14067299664020538,-0.2379940003156662,-0.14323100447654724,-0.06214899942278862,-0.12620200216770172,0.16660399734973907,-0.12943099439144135,-0.006787999998778105,-0.20058299601078033,0.23075999319553375,0.25638899207115173,-0.16262300312519073,-0.14258000254631042,0.27014800906181335,0.4737899899482727,0.11490900069475174,-0.07476399838924408,-0.09075000137090683,0.14306199550628662,-0.39591100811958313,-0.008208000101149082,-0.29388201236724854,0.09753099828958511,-0.27154800295829773,-0.09040199965238571,-0.1433420032262802,-0.3865790069103241,-0.12949499487876892,-0.31296101212501526,0.0983470007777214,0.012311000376939774,0.2672080099582672,-0.1465590000152588,-0.24549800157546997,-0.07721299678087234,0.06381600350141525,0.23107300698757172,0.33755001425743103,0.39024999737739563,0.01482400018721819,0.10015799850225449,0.14540599286556244,-0.15045399963855743,0.18386399745941162,-0.10370499640703201,-0.32239198684692383,0.11788400262594223,-0.14533300697803497,0.1236179992556572,-0.011688999831676483,0.20502200722694397,-0.5056139826774597,0.39925500750541687,-0.1564980000257492,0.3464690148830414,-0.2114039957523346,-0.19488300383090973,0.10434599965810776,0.3917669951915741,-0.35631999373435974,-0.300711989402771,-0.0871879979968071,-0.23051899671554565,0.09334400296211243,-0.2184540033340454,-0.1625179946422577,0.21799999475479126,-0.0038920000661164522,-0.4956989884376526,-0.32106199860572815,0.5869060158729553,-0.4034990072250366,0.008407999761402607,0.06263799965381622,0.13845199346542358,0.4051640033721924,0.13008199632167816,-0.04441500082612038,-0.18403199315071106,0.08137699961662292,0.2610589861869812,0.07113000005483627,0.24049599468708038,-0.013628000393509865,-0.3106450140476227,0.10810600221157074,0.1567779928445816,0.06849899888038635,0.021144000813364983,0.005572000052779913,-0.16639499366283417
结构,-0.10387799888849258,0.19047999382019043,0.007884999737143517,0.23587100207805634,-0.07377900183200836,0.07393199950456619,0.12839099764823914,0.03238299861550331,0.02906000055372715,0.13836699724197388,0.10149600356817245,0.016200000420212746,-0.1070299968123436,-0.007094999775290489,-0.11910299956798553,-0.19546900689601898,-0.12357799708843231,-0.21452899277210236,0.06391900032758713,-0.07276500016450882,-0.11603400111198425,-0.1465959995985031,0.2909800112247467,0.041012998670339584,0.23337900638580322,-0.007526000030338764,-0.11818099766969681,-0.0301900003105402,0.009575000032782555,0.1315930038690567,-0.030402999371290207,-0.040251001715660095,0.08240500092506409,-0.08298499882221222,0.012647000141441822,0.08403600007295609,0.1283629983663559,-0.007619999814778566,-0.0037070000544190407,0.15565699338912964,-0.06659100204706192,0.07191099971532822,-0.055410001426935196,0.06673700362443924,-0.09569499641656876,-0.16024400293827057,-0.05352399870753288,-0.008918000385165215,-0.0827770009636879,-0.1192530021071434,0.08794700354337692,7.300000288523734e-05,0.04438700154423714,-0.05553999915719032,0.12155400216579437,-0.03711400181055069,-0.11902199685573578,0.020646000280976295,-0.12375099956989288,0.08680900186300278,-0.020339999347925186,0.09387099742889404,-0.19592000544071198,-0.03541199862957001,0.08448299765586853,0.04224099963903427,-0.15518200397491455,0.06519799679517746,0.12429399788379669,0.22128300368785858,-0.22972600162029266,-0.09946499764919281,0.24435199797153473,-0.14662499725818634,0.1324000060558319,-0.22610700130462646,0.1992730051279068,-0.15137599408626556,0.09254200011491776,0.03675999864935875,0.033163998275995255,-0.2429399937391281,-0.059425000101327896,0.0114139998331666,-0.10440299659967422,0.0020240000449121,0.05067700147628784,-0.07207699865102768,-0.02884400077164173,0.2591240108013153,0.02319600060582161,-0.154898002743721,-0.2189989984035492,-0.21241599321365356,-0.12033600360155106,-0.08506699651479721,-0.010367999784648418,-0.06106200069189072,-0.1591310054063797,0.08631599694490433,0.17983099818229675,0.12513099610805511,-0.09564000368118286,0.16106000542640686,0.0075079998932778835,-0.04838699847459793,-0.038256000727415085,0.1771019995212555,-0.11774300038814545,-0.15312400460243225,0.06698399782180786,-0.0015950000379234552,-0.12154600024223328,-0.12143900245428085,0.17367799580097198,-0.17521199584007263,-0.27675899863243103,-0.07982999831438065,-0.15218199789524078,0.02615799941122532,0.12071199715137482,0.09132900089025497,0.18736900389194489,-0.032283999025821686,-0.24444499611854553,-0.058079998940229416,-0.35445499420166016,0.21758699417114258,-0.3086960017681122,-0.04879999905824661,0.06468299776315689,-0.09585099667310715,-0.12592999637126923,-0.09738700091838837,-0.03620300069451332,0.15463599562644958,0.014392999932169914,-0.27619999647140503,-0.03669299930334091,-0.11776500195264816,-0.1912669986486435,-0.0454769991338253,0.2966899871826172,0.07730899751186371,-0.14033900201320648,0.008061000145971775,-0.15071600675582886,-0.030598999932408333,-0.15188799798488617,-0.24206799268722534,0.19924600422382355,-0.27371901273727417,-0.2247229963541031,-0.07770200073719025,-0.06662900000810623,0.18659499287605286,-0.045462001115083694,0.11180999875068665,0.04298900067806244,-0.09106600284576416,0.047242000699043274,-0.006324999965727329,-0.06456899642944336,-0.17736800014972687,-0.05916899815201759,-0.224262997508049,-0.06805700063705444,0.07549700140953064,-0.007368999999016523,-0.002234000014141202,-0.08775799721479416,0.06348499655723572,-0.20086100697517395,0.1490669995546341,-0.13011600077152252,0.003452999982982874,0.14226199686527252,0.10008999705314636,0.06135400012135506,-0.23638500273227692,-0.20663100481033325,-0.10427100211381912,-0.021681999787688255,0.25183698534965515,-0.12553399801254272,-0.009180000051856041,0.0924139991402626,-0.14368000626564026,0.24244199693202972,0.2101999968290329,0.060770999640226364,0.2329780012369156,-0.09478099644184113,0.1469620019197464,0.08917699754238129,-0.051709000021219254,0.05651700124144554,-0.23735499382019043,-0.29229098558425903,0.06762199848890305,0.0982460007071495,0.09869600087404251,0.011487999930977821,0.2658360004425049,-0.005394000094383955,-0.3262070119380951,0.10465600341558456,-0.12680600583553314,0.12814299762248993,-0.026153000071644783,0.03730100020766258,-0.15775400400161743,-0.02248300053179264,-0.015506000258028507,-0.0706230029463768,0.0812079980969429,-0.01689000055193901,-0.1977510005235672,0.2633419930934906,-0.31321901082992554,0.03158999979496002,0.07498600333929062,0.0373230017721653,-0.05232999846339226,-0.011938000097870827,-0.17496299743652344,0.042298998683691025,-0.1462630033493042,-0.03561199828982353,0.06908199936151505,-0.22721999883651733,-0.03407200053334236,-0.09256400167942047,-0.010352999903261662,0.19079400599002838,0.06291399896144867,0.00660100020468235,0.12742699682712555,-0.01472499966621399,0.06554099917411804,-0.034616000950336456,0.01232299953699112,-0.03248300030827522,-0.0879959985613823,-0.17198899388313293,-0.021201999858021736,-0.1073869988322258,-0.07915700227022171,0.004567000083625317,-0.09053800255060196,0.07756199687719345,0.19401000440120697,-0.3614419996738434,0.11694300174713135,-0.08389399945735931,-0.19610899686813354,-0.04224399849772453,-0.047467999160289764,0.10668499767780304,0.2253189980983734,-0.01129900012165308,0.00020199999562464654,0.042906999588012695,-0.16061000525951385,-0.19081799685955048,-0.09408800303936005,-0.01942799985408783,0.12352699786424637,-0.2818849980831146,-0.17748500406742096,-0.16217300295829773,-0.14891600608825684,-0.24388399720191956,0.2445569932460785,0.08282499760389328,0.0874750018119812,-0.18144600093364716,-0.246411994099617,0.024764999747276306,-0.0021730000153183937,0.0011739999754354358,-0.21557499468326569,-0.14358100295066833,-0.06771299988031387,0.004062999971210957,-0.11117299646139145,-0.004234000109136105,0.009685000404715538,0.024514000862836838,-0.2417439967393875,0.06337600201368332,-0.16319400072097778,-0.1178169995546341,-0.004133000038564205,0.13326899707317352,-0.10305000096559525,0.07445599883794785,-0.3130039870738983,-0.02558699995279312,0.02637699991464615,0.04400999844074249,0.35801199078559875,0.23281699419021606,-0.02539999969303608,-0.05590000003576279,-0.10066600143909454,-0.08584199845790863,-0.01934799924492836,-0.10924500226974487,-0.1992889940738678,0.07553000003099442,0.13243499398231506,0.1373700052499771,-0.2013929933309555,-0.05343399941921234,0.14123399555683136,-0.041687000542879105,0.10322300344705582,-0.12714000046253204,0.001554999966174364,0.0935870036482811,0.17427200078964233,0.2654849886894226,-0.014592999592423439,-0.07353100180625916,0.16568000614643097,-0.05539499968290329,-0.10043200105428696,0.005177999846637249,-0.20380300283432007,-0.01231599971652031,0.15119799971580505,-0.05559200048446655,-0.07869599759578705,-0.004102000035345554,-0.011467999778687954,-0.0591760016977787,-0.12193600088357925,-0.12757299840450287,-0.08956900238990784,0.022153999656438828,-0.01405400037765503,-0.013131000101566315,0.022577999159693718,-0.052035000175237656,0.10606499761343002,0.3076370060443878,0.00915099959820509,-0.131181001663208,0.1622290015220642,0.048183001577854156,-0.09982799738645554,0.026093000546097755,0.025178000330924988,0.23737700283527374,-0.024080999195575714,0.13921800255775452,0.10886599868535995,-0.18140800297260284,-0.15930700302124023,0.03172300010919571,-0.1193849965929985,0.07578399777412415,0.06995099782943726,-0.25532200932502747,0.15534600615501404,-0.22662299871444702,-0.4506779909133911,-0.17705799639225006,-0.09722600132226944,-0.26242899894714355,-0.24496200680732727,0.14813299477100372,-0.24658800661563873,-0.0341930016875267,-0.16801400482654572,0.14407500624656677,-0.31435298919677734,-0.14970499277114868,-0.22102999687194824,0.231345996260643,0.14876200258731842,-0.25106701254844666,-0.0675709992647171,-0.03264300152659416,0.12041699886322021,-0.13175800442695618,-0.06503300368785858,0.06751099973917007,0.018641000613570213,-0.19486300647258759,0.09323199838399887,-0.009050000458955765,0.11298800259828568,-0.11795900017023087,0.18568600714206696,-0.14773499965667725,-0.2097810059785843,0.04362399876117706,-0.17069600522518158
制造,0.07298299670219421,-0.048868000507354736,-0.037393998354673386,0.18707099556922913,-0.07629899680614471,-0.17248700559139252,0.042973000556230545,0.1099110022187233,0.10585200041532516,-0.058642998337745667,-0.013120000250637531,0.09163299947977066,0.07631699740886688,-0.1717730015516281,-0.025544999167323112,-0.13833799958229065,-0.024411000311374664,-0.0026080000679939985,-0.08969800174236298,0.03482000157237053,0.2808670103549957,-0.1848369985818863,0.11121299862861633,0.15062099695205688,0.04394400119781494,0.16203700006008148,0.20193399488925934,-0.18504199385643005,0.1747180074453354,0.09664600342512131,-0.12837600708007812,0.027675999328494072,-0.06174999848008156,-0.17815299332141876,-0.18253900110721588,-0.08234299719333649,0.0540819987654686,0.060520000755786896,-0.03863599896430969,0.20165899395942688,-0.13242599368095398,-0.08577899634838104,-0.13038299977779388,0.1559319943189621,0.07439500093460083,-0.010226000100374222,-0.09517300128936768,0.0015960000455379486,0.012973999604582787,-0.19564299285411835,-0.15501199662685394,-0.08652400225400925,0.12250299751758575,0.09469900280237198,0.20197799801826477,0.0634400025010109,-0.027058999985456467,0.1644120067358017,-0.02376900054514408,-0.0027970001101493835,-0.11568199843168259,-0.01713000051677227,-0.12848599255084991,0.09011100232601166,0.10459700226783752,0.06110899895429611,-0.15333400666713715,0.1560799926519394,0.09521999955177307,-0.11825600266456604,-0.09376399964094162,-0.08340699970722198,-0.07572399824857712,1.9999999949504854e-06,0.1768839955329895,-0.0004980000085197389,0.08267799764871597,0.11997199803590775,0.1531980037689209,0.05105699971318245,0.10952600091695786,0.01772500015795231,-0.08711399883031845,-0.11461599916219711,-0.13590499758720398,-0.20627500116825104,0.14291499555110931,-0.06998699903488159,-0.16901099681854248,0.042068000882864,0.022359000518918037,0.0475739985704422,-0.07638700306415558,0.16403500735759735,-0.13509100675582886,0.025225000455975533,0.19124899804592133,0.07200299948453903,-0.056891001760959625,-0.14537400007247925,-0.09408199787139893,-0.13630899786949158,0.06663600355386734,0.16204899549484253,0.002558999927714467,-0.01773199997842312,0.20244200527668,0.030100999400019646,0.11916500329971313,-0.017278000712394714,0.12662099301815033,0.3886849880218506,0.037709999829530716,-0.04361199960112572,0.13950799405574799,0.09460499882698059,-0.009410999715328217,0.04567499831318855,0.06893499940633774,0.024159999564290047,-0.13147999346256256,0.11753199994564056,0.005607999861240387,-0.05634300038218498,0.08475200086832047,-0.12444700300693512,-0.12435299903154373,0.0406389981508255,0.0003859999997075647,-0.10273800045251846,0.19570699334144592,-0.21770499646663666,0.15741300582885742,0.029579000547528267,0.20012299716472626,0.007552000228315592,-0.07495000213384628,-0.0985729992389679,0.06977000087499619,0.11054299771785736,0.012643000110983849,0.25191399455070496,0.09062899649143219,0.16879799962043762,-0.2275570034980774,0.04703599959611893,-0.057353999465703964,0.0032730000093579292,-0.09536900371313095,0.17798000574111938,-0.12766699492931366,-0.34876999258995056,0.06913600116968155,-0.09890499711036682,0.03459399938583374,-0.10932999849319458,0.08965600281953812,0.005303999874740839,0.041450001299381256,-0.05467100068926811,-0.035989001393318176,0.10373000055551529,0.14557699859142303,0.14682599902153015,-0.18933799862861633,-0.18930700421333313,-0.07548099756240845,-0.19502900540828705,-0.06918500363826752,-0.015177999623119831,0.10894200205802917,-0.059463001787662506,0.14885400235652924,-0.08103100210428238,0.1887809932231903,-0.06736399978399277,-0.06362000107765198,0.22524400055408478,-0.31121599674224854,-0.16756699979305267,-0.16630400717258453,-0.11928000301122665,-0.2454500049352646,-0.11924099922180176,-0.08812099695205688,0.026314999908208847,-0.016939999535679817,0.07776100188493729,0.11382000148296356,-0.012636000290513039,0.08114100247621536,0.009162000380456448,0.0035550000611692667,0.03317699953913689,0.05226299911737442,-0.12960299849510193,-0.19919100403785706,0.06741099804639816,-0.14115199446678162,-0.06858900189399719,0.20491699874401093,-0.08175700157880783,-0.05554800108075142,0.012873999774456024,0.006752000190317631,-0.186366006731987,0.1918489933013916,0.05084900185465813,0.15624499320983887,0.10793899744749069,-0.17538900673389435,-0.0896259993314743,-0.28032100200653076,0.06884399801492691,0.008371000178158283,0.2070380002260208,0.15605700016021729,0.16822199523448944,0.32753899693489075,0.06699199974536896,-0.25659099221229553,-0.05316700041294098,0.0636110007762909,-0.1868640035390854,-0.05770000070333481,0.05208300054073334,0.20149299502372742,0.0771080031991005,0.05904899910092354,0.24382300674915314,0.06787700206041336,-0.020431000739336014,0.028741000220179558,0.0818760022521019,0.19247600436210632,0.06281600147485733,-0.08693700283765793,0.11980900168418884,-0.049442000687122345,-0.11255499720573425,0.058159999549388885,-0.1097870022058487,-0.1884389966726303,-0.15193800628185272,-0.04709500074386597,-0.10873900353908539,0.06222999840974808,-0.07948900014162064,0.05993400141596794,-0.18385399878025055,0.0973220020532608,-0.13739000260829926,-0.07739199697971344,-0.08570600301027298,-0.0630050003528595,0.0003150000120513141,-0.00015900000289548188,0.056790001690387726,0.15667499601840973,-0.04011400043964386,0.1970919966697693,0.14504699409008026,-0.07988899946212769,-0.07520099729299545,-0.06744399666786194,-0.0334790013730526,0.21800899505615234,0.21575500071048737,-0.044769998639822006,0.3340449929237366,-0.004647000227123499,-0.13615800440311432,-0.06498099863529205,0.0880270004272461,0.09923499822616577,0.04834900051355362,-0.06669999659061432,-0.10950499773025513,-0.08524499833583832,0.1540530025959015,0.07754600048065186,0.10209999978542328,0.07186300307512283,-0.10075200349092484,-0.263359010219574,0.0012890000361949205,-0.08124200254678726,-0.18558399379253387,0.02549700066447258,-0.0263420008122921,0.12287399917840958,0.07354599982500076,-0.1817920058965683,-0.3246220052242279,0.02250799909234047,-0.07164700329303741,0.11882399767637253,0.08783300220966339,0.11039700359106064,0.04332999885082245,-0.05542600154876709,-0.021102000027894974,-0.07377400249242783,-0.130622997879982,-0.043223001062870026,-0.08153499662876129,-0.21163000166416168,0.1506190001964569,-0.11512699723243713,0.17611999809741974,-0.06448200345039368,0.0762299969792366,-0.05737899988889694,-0.0600770004093647,0.006938999984413385,0.17456600069999695,0.051819998770952225,-0.1379610002040863,0.09364300221204758,-0.022059999406337738,-0.0654589980840683,-0.0678350031375885,-0.011644000187516212,0.01671300083398819,-0.060081999748945236,0.17519700527191162,-0.03933899849653244,-0.1290780007839203,-0.13480199873447418,-0.14292800426483154,0.006306000053882599,-0.2782140076160431,-0.12892599403858185,-0.22492900490760803,0.04047999903559685,-0.029777999967336655,-0.33677399158477783,-0.3095259964466095,-0.12388399988412857,0.05575999990105629,-0.017935000360012054,0.031060000881552696,0.04373599961400032,0.023329000920057297,0.01881599985063076,-0.17440100014209747,0.09848099946975708,0.0848350003361702,-0.014898999594151974,0.09241999685764313,-0.2694289982318878,-0.07001899927854538,0.1388150006532669,0.020131999626755714,0.16350699961185455,0.018828999251127243,-0.16633200645446777,0.09087800234556198,0.03007199987769127,0.17962299287319183,-0.02134699933230877,0.006878000218421221,-0.035735998302698135,-0.021128999069333076,-0.10908699780702591,-0.001322000054642558,0.007890000008046627,0.05853800103068352,-0.12022999674081802,-0.0484590008854866,-0.0568620003759861,-0.034703999757766724,-0.08917199820280075,0.08342199772596359,-0.0007520000217482448,0.1131339967250824,-0.1374569982290268,-0.10837499797344208,0.004503000061959028,-0.18750999867916107,0.06022699922323227,0.016728999093174934,-0.03492100164294243,-0.022943999618291855,0.1493609994649887,0.06692799925804138,-0.025265999138355255,-0.030055999755859375,0.05478300154209137,0.12232600152492523,0.12676100432872772,0.05187699943780899,-0.11439300328493118,0.08080700039863586,0.1366250067949295,0.09327899664640427,-0.20865599811077118,0.12033899873495102,0.09282299876213074,0.023452000692486763
方式,-0.05004800111055374,-0.16222600638866425,0.10253500193357468,0.07324499636888504,0.16093799471855164,0.05166900157928467,0.04590800032019615,0.25411900877952576,-0.1748650074005127,0.03134499862790108,-0.10920199751853943,-0.10445400327444077,0.08453100174665451,-0.08614800125360489,-0.06763499975204468,-0.13491599261760712,0.03787200152873993,0.05592700093984604,-0.17410999536514282,-0.13926200568675995,-0.051697999238967896,-0.08565299957990646,0.07535400241613388,0.06715100258588791,-0.03342000022530556,0.10490400344133377,0.06898099929094315,-0.015128999948501587,-0.12720699608325958,0.06361400336027145,-0.10441099852323532,0.030912000685930252,0.03528200089931488,0.031119000166654587,-0.027329999953508377,0.0573589988052845,0.00014200000441633165,-0.007906000129878521,0.14987300336360931,0.05692800134420395,0.13565100729465485,-0.15599699318408966,-0.024460000917315483,0.048023998737335205,0.004875000100582838,0.01361399982124567,0.02306699939072132,-0.07226400077342987,0.14835099875926971,-0.025591999292373657,-0.16953900456428528,0.11572200059890747,0.11337999999523163,-0.048597000539302826,0.03376099839806557,0.01648000068962574,-0.1349180042743683,0.06590399891138077,0.061044998466968536,0.0897890031337738,0.08199000358581543,-0.0885239988565445,0.24623699486255646,-0.1440269947052002,0.013352000154554844,0.042879000306129456,-0.06793300062417984,0.04228200018405914,0.019158000126481056,0.04436499997973442,-0.13589400053024292,0.036354999989271164,0.1138710007071495,-0.07766199856996536,0.04552699998021126,-0.13584700226783752,-0.04632199928164482,-0.045127999037504196,0.09953899681568146,0.03793000057339668,-0.010600999929010868,-0.23226100206375122,-0.03575799986720085,-0.10616999864578247,-0.22389499843120575,-0.0896880030632019,0.21960000693798065,0.05747599899768829,-0.06686100363731384,0.09759700298309326,-0.11959999799728394,0.01054100040346384,-0.13682100176811218,0.005632000043988228,-0.0076299998909235,-0.14659200608730316,0.00995699968189001,0.08864200115203857,-0.2336450070142746,-0.09008999913930893,0.1036520004272461,-0.11961200088262558,0.11016900092363358,-0.12383399903774261,-0.15078599750995636,0.08296100050210953,-0.12031999975442886,0.11430899798870087,-0.08330000191926956,-0.1325010061264038,-0.027607999742031097,0.0029360000044107437,0.09020499885082245,-0.076774001121521,-0.062139999121427536,0.2950519919395447,-0.07610400021076202,-0.0836929976940155,0.010749000124633312,0.057022999972105026,-0.07946400344371796,-0.04760200157761574,-0.0459429994225502,0.09245900064706802,0.15509599447250366,0.017906999215483665,-0.1650490015745163,-0.061131998896598816,-0.08577000349760056,-0.09668800234794617,-0.01759999990463257,-0.14378899335861206,0.07396800071001053,0.0773169994354248,-0.1473339945077896,0.021378999575972557,0.0561549998819828,0.13590000569820404,-0.18335799872875214,-0.0006539999740198255,-0.010258999653160572,-0.1499129980802536,0.021546000614762306,-0.09828700125217438,-0.05001499876379967,0.07029899954795837,-0.25430700182914734,0.09339500218629837,-0.02276100032031536,0.07068900018930435,0.05435800179839134,-0.03939000144600868,0.10034999996423721,-0.043699998408555984,-0.2100140005350113,0.07770299911499023,0.02588300034403801,0.12347900122404099,0.06960199773311615,-0.10589099675416946,0.1367339938879013,-0.1524049937725067,-0.12873399257659912,-0.08822499960660934,-0.09340599924325943,-0.020896999165415764,-0.19940100610256195,-0.06091799959540367,0.0192050002515316,-0.2119619995355606,0.08350399881601334,0.0982780009508133,0.09005700051784515,-0.034662000834941864,0.01686199940741062,-0.13729999959468842,-0.0007689999765716493,0.028929000720381737,-0.05153999850153923,-0.27559399604797363,-0.046588998287916183,-0.041815999895334244,-0.017736999318003654,-0.004614999983459711,-0.03208800032734871,-0.09063199907541275,0.24035899341106415,0.06222200021147728,0.16558000445365906,0.08371999859809875,-0.01070099975913763,-0.07484199851751328,-0.038541000336408615,0.18405500054359436,0.0051380000077188015,-0.08731099963188171,0.04523799940943718,-0.06677799671888351,-0.16501200199127197,-0.03221900016069412,-0.026892999187111855,-0.026448000222444534,0.015607999637722969,0.12050899863243103,0.00939400028437376,-0.23928199708461761,0.34786900877952576,-0.049619000405073166,-0.038284000009298325,-0.0034680000972002745,0.09456700086593628,-0.05432099848985672,0.11425600200891495,0.037025000900030136,-0.016587000340223312,-0.18209899961948395,0.08322300016880035,-0.15100599825382233,0.18351300060749054,-0.3208180069923401,0.17045700550079346,-0.003014999907463789,0.21567599475383759,-0.051107000559568405,0.10693199932575226,-0.03608499839901924,-0.023289000615477562,-0.13591699302196503,-0.10655000060796738,0.12574799358844757,-0.107634998857975,-0.05113200098276138,0.017407000064849854,-0.04490400105714798,0.052935000509023666,-0.14400500059127808,-0.044300999492406845,-0.0562950000166893,-0.10135199874639511,-0.13396300375461578,0.023490000516176224,0.026612000539898872,-0.07976599782705307,0.0857120007276535,-0.008314999751746655,-0.03798399865627289,-0.1267710030078888,-0.011212999932467937,0.0698470026254654,-0.012505000457167625,-0.12729500234127045,-0.13134799897670746,-0.0836620032787323,0.05526899918913841,-0.23003000020980835,-0.13910500705242157,-0.16737699508666992,0.011020000092685223,-0.014251000247895718,0.05271200090646744,0.10908599942922592,0.13813899457454681,0.0479080006480217,-0.1440040022134781,-0.04806799814105034,-0.06730999797582626,0.00520200002938509,0.07368200272321701,0.08735299855470657,0.13196499645709991,-0.13276100158691406,0.02448200061917305,0.016982000321149826,0.027535999193787575,0.06690700352191925,-0.03347799926996231,-0.009151999838650227,0.009421999566257,-0.0917619988322258,-0.09499599784612656,-0.07181199640035629,0.085657998919487,0.014871000312268734,-0.0675560012459755,0.1277969926595688,0.01384199969470501,-0.16264599561691284,-0.09081000089645386,0.025411000475287437,-0.20069700479507446,-0.023548999801278114,-0.046959999948740005,-0.008481999859213829,-0.24549500644207,0.269012987613678,-0.12079799920320511,0.0931050032377243,0.023997999727725983,0.14188599586486816,-0.016644999384880066,-0.021111000329256058,0.10669799894094467,-0.049525000154972076,-0.1651419997215271,0.022050999104976654,-0.05276799947023392,-0.08368600159883499,-0.026545999571681023,-0.27816200256347656,-0.07945799827575684,-0.024057000875473022,-0.038763001561164856,-0.10127700120210648,-0.030510999262332916,-0.12258300185203552,-0.05942299962043762,-0.04669199883937836,-0.06301800161600113,-0.15646299719810486,-0.11279500275850296,-0.03652400150895119,0.2934199869632721,0.03500499948859215,0.03823399916291237,0.18051999807357788,0.00989300012588501,0.06908799707889557,-0.049584001302719116,-0.05615299940109253,-0.061976999044418335,0.08257299661636353,0.052597999572753906,-0.125108003616333,0.038279999047517776,0.0544309988617897,0.08025400340557098,0.0566990002989769,-0.21838299930095673,-0.07456500083208084,-0.11881700158119202,-0.19268499314785004,-0.18011599779129028,-0.08658099919557571,0.00133200001437217,-0.10731799900531769,0.06705799698829651,0.17943300306797028,0.13926799595355988,-0.05559999868273735,-0.08283600211143494,-0.01749200001358986,0.056905001401901245,-0.041411999613046646,0.1198439970612526,0.2667900025844574,0.03523999825119972,0.058949001133441925,0.10780099779367447,0.0445609986782074,0.08609399944543839,0.11797700077295303,0.05695300176739693,-0.05167499929666519,0.055052999407052994,-0.10979799926280975,-0.13429099321365356,-0.11782900243997574,-0.20245100557804108,-0.1571049988269806,-0.11395599693059921,-0.04028499871492386,-0.11665999889373779,0.11468999832868576,-0.10957500338554382,0.016877999529242516,0.002240000059828162,0.1512800008058548,0.04314500093460083,-0.04242999851703644,-0.1477620005607605,-0.05706299841403961,0.08112800121307373,0.03806399926543236,0.06567800045013428,0.17118699848651886,0.1466829925775528,-0.11770399659872055,0.08425699919462204,-0.0707710012793541,0.12455300241708755,0.04160400107502937,0.08401300013065338,-0.19607800245285034,0.045207999646663666,0.09764599800109863,0.039361998438835144,-0.16339899599552155,-0.06526999920606613,-0.11233200132846832,0.0561939999461174
远离,-0.10319200158119202,-0.011075999587774277,-0.04535999894142151,0.11627800017595291,0.13867700099945068,0.16639700531959534,-0.012783999554812908,0.015376999974250793,0.010452000424265862,0.10145299881696701,0.030539000406861305,-0.09400799870491028,-0.015560000203549862,0.04635800048708916,0.07184100151062012,0.023204000666737556,0.034081000834703445,0.06974299997091293,-0.004714000038802624,-0.01781800016760826,-0.03363100066781044,-0.1452459990978241,0.021035000681877136,-0.08058600127696991,-0.13411200046539307,-0.1322679966688156,-0.25478100776672363,0.007511999923735857,0.11653999984264374,0.1418430060148239,0.1107880026102066,-0.06994300335645676,0.10168399661779404,-0.021467000246047974,0.1596509963274002,-0.1791590005159378,0.27991101145744324,-0.07591100037097931,0.14510999619960785,-0.08122699707746506,-0.06476599723100662,-0.19897900521755219,-0.006548999808728695,0.031171999871730804,0.11810799688100815,0.1015319973230362,0.2048570066690445,-0.07967899739742279,0.11630800366401672,-0.04522300139069557,0.0823260024189949,-0.1542620062828064,-0.05597300082445145,-0.06019800156354904,0.08197899907827377,-0.11026199907064438,-0.04836900159716606,0.1953510046005249,-0.2044920027256012,0.0747620016336441,-0.001888000057078898,0.08271200209856033,0.036240000277757645,-0.20843400061130524,0.11259599775075912,-0.07308200001716614,0.04303999990224838,0.14685699343681335,-0.08179199695587158,0.22185799479484558,-0.04973199963569641,-0.14848899841308594,0.12904800474643707,0.2588520050048828,0.11138399690389633,-0.24244199693202972,0.04589100182056427,0.09713000059127808,0.06626199930906296,0.07653599977493286,0.23590900003910065,0.024228999391198158,0.07814200222492218,-0.05185899883508682,-0.10085800290107727,-0.053043000400066376,0.17036400735378265,-0.08911799639463425,-0.002693000016734004,0.0168830007314682,0.016885999590158463,0.05464300140738487,-0.015541999600827694,-0.1873670071363449,-0.2600269913673401,-0.14439299702644348,-0.26828300952911377,0.0754380002617836,-0.10041499882936478,0.23520100116729736,0.11387600004673004,0.09062200039625168,0.10991500318050385,-0.06967800110578537,-0.13502299785614014,0.03161099925637245,-0.04404100030660629,0.08052799850702286,0.10808199644088745,-0.1764180064201355,0.23257200419902802,-0.15557900071144104,-0.22154299914836884,-0.13515500724315643,-0.07966800034046173,-0.14439700543880463,-0.07308100163936615,0.0011599999852478504,0.010366000235080719,0.07857000082731247,-0.02581699937582016,0.0762690007686615,0.2041260004043579,0.18044200539588928,-0.20875400304794312,0.07376600056886673,-0.11245100200176239,0.22478799521923065,-0.03086099959909916,0.2120710015296936,-0.04402599856257439,0.09424500167369843,0.06265400350093842,0.049274999648332596,0.14975200593471527,-0.019363999366760254,-0.035725001245737076,-0.053321998566389084,-0.1324169933795929,-0.035516999661922455,0.003628999926149845,-0.26203298568725586,0.07304900139570236,-0.180075004696846,0.013350999914109707,0.06975100189447403,0.12094999849796295,0.0714000016450882,0.11416099965572357,-0.20424200594425201,0.18973100185394287,-0.2096789926290512,0.00838799960911274,-0.06947600096464157,0.1726289987564087,-0.08817300200462341,-0.07220099866390228,-0.10072799772024155,0.13699199259281158,-0.004368999972939491,-0.07382600009441376,0.23518000543117523,-0.1940149962902069,0.018590999767184258,0.054781001061201096,0.010027999989688396,-0.01863900013267994,0.13402999937534332,-0.27017900347709656,-0.010470000095665455,-0.024372000247240067,0.007170999888330698,0.036421999335289,0.15287500619888306,-0.03778199851512909,0.009279999881982803,-0.04195300117135048,0.031915001571178436,0.06436599791049957,0.007592999842017889,-0.12528100609779358,-0.17454899847507477,0.0036510000936686993,0.14083799719810486,-0.07883699983358383,-0.07771400362253189,-0.07627400010824203,-0.01221999991685152,0.0005179999861866236,0.054972998797893524,0.1929759979248047,0.12623299658298492,-0.11291799694299698,0.02046399936079979,-0.056007999926805496,0.3052079975605011,0.21753600239753723,-0.18181400001049042,-0.17800000309944153,-0.19285400211811066,0.06785299628973007,0.06526400148868561,-0.12274599820375443,0.1932619959115982,-0.18397900462150574,0.10068800300359726,0.07855699956417084,0.12261500209569931,-0.08707399666309357,0.035989001393318176,0.0776979997754097,-0.05543699860572815,-0.1935649961233139,-0.044002000242471695,0.015572999604046345,-0.12571899592876434,0.0670590028166771,0.007964000105857849,0.13463500142097473,-0.22067299485206604,0.03576499968767166,0.003865000093355775,-0.10971599817276001,-0.12040600180625916,0.055063001811504364,-0.02601799927651882,0.13095900416374207,0.042858999222517014,0.04969500005245209,-0.13547900319099426,-0.11953099817037582,-0.09985099732875824,-0.18128900229930878,0.05390600115060806,-0.0383789986371994,-0.22900299727916718,-0.09525199979543686,0.05646200105547905,-0.2451390027999878,0.12165900319814682,-0.014979000203311443,-0.14460699260234833,-0.18889400362968445,-0.022715000435709953,0.03209700062870979,0.06657999753952026,0.08443000167608261,-0.20982900261878967,0.07088799774646759,0.1396860033273697,0.025340000167489052,-0.08157899975776672,-0.11376599967479706,-0.08316600322723389,0.08114200085401535,-0.04947299882769585,0.0869240015745163,0.27056699991226196,0.11185699701309204,0.006262999959290028,0.08483800292015076,-0.012504000216722488,-0.16053299605846405,0.21444900333881378,-0.0879639983177185,0.14602099359035492,-0.04565500095486641,0.0911950021982193,0.020698999986052513,-0.02173900045454502,0.10905099660158157,-0.18772199749946594,-0.10615800321102142,0.007903999648988247,0.0035379999317228794,0.24557499587535858,-0.16837899386882782,0.08893100172281265,-0.04529799893498421,0.008647999726235867,0.165133997797966,0.08186300098896027,-0.09215900301933289,0.00800899975001812,0.1469690054655075,0.058228999376297,0.15801799297332764,0.05208799988031387,0.10711699724197388,0.08952599763870239,0.0015940000303089619,-0.15191900730133057,-0.005400999914854765,0.12051200121641159,-0.13733400404453278,0.13716000318527222,-0.22651700675487518,-0.13174700736999512,-0.20902499556541443,-0.197052001953125,-0.017131000757217407,0.12150099873542786,0.019558999687433243,-0.08900699764490128,-0.15097099542617798,-0.008554999716579914,0.07631699740886688,-0.07565899938344955,-0.15724000334739685,0.2122430056333542,0.1878180056810379,-0.0531810000538826,0.05613800138235092,0.20733700692653656,0.061177000403404236,0.09295500069856644,0.15255700051784515,-0.07814600318670273,-0.22625400125980377,-0.18944799900054932,-0.00964299961924553,0.1439410001039505,0.22064900398254395,-0.13481000065803528,-0.036524999886751175,0.06700900197029114,0.05586899816989899,-0.15609900653362274,0.007443999871611595,0.005419999826699495,0.025157000869512558,-0.010165000334382057,0.29990699887275696,-0.07670799642801285,0.07087299972772598,0.04230700060725212,-0.1495019942522049,0.10838399827480316,0.12022999674081802,-0.08849799633026123,-0.08366300165653229,-0.09562700241804123,0.040337998420000076,-0.22752100229263306,-0.0036669999826699495,-0.06911899894475937,0.04427799955010414,0.09195300191640854,-0.08881299942731857,-0.07065200060606003,-0.14061500132083893,0.1547980010509491,-0.06774300336837769,0.09949900209903717,0.1647769957780838,-0.2797670066356659,-0.08790700137615204,0.044989001005887985,0.04768599942326546,0.297342985868454,0.08066699653863907,0.031582001596689224,-0.014123000204563141,0.052372999489307404,-0.2339559942483902,-0.09386300295591354,0.12801100313663483,-0.06034500151872635,-0.1475210040807724,-0.07640600204467773,-0.1816290020942688,0.01711999997496605,0.11682499945163727,-0.30631500482559204,-0.20627400279045105,-0.06771700084209442,0.03540699928998947,-0.06331200152635574,0.12707899510860443,0.13279999792575836,0.24534599483013153,0.06500600278377533,-0.08134999871253967,0.10299299657344818,-0.15377700328826904,0.06840500235557556,-0.0454769991338253,-0.11582700163125992,0.2279449999332428,-0.16804000735282898,-0.03696500137448311,0.056039001792669296,0.09686200320720673,0.2738009989261627,-0.05505799874663353,0.30138099193573,0.020270999521017075,-0.10623099654912949,-0.12587399780750275,-0.0834290012717247
引到,0.09105300158262253,-0.1345209926366806,-0.09981600195169449,-0.0611720010638237,0.17043599486351013,-0.2161870002746582,-0.01659500040113926,0.18404899537563324,0.20124900341033936,-0.19971899688243866,-0.07898200303316116,0.034664999693632126,0.19596299529075623,-0.07777000218629837,0.02528499998152256,0.0694969967007637,0.05856600031256676,0.094030000269413,-0.11946699768304825,-0.11506500095129013,0.16981500387191772,-0.15491999685764313,0.1613910049200058,0.039250001311302185,0.13161200284957886,0.17244699597358704,-0.025035999715328217,0.23696500062942505,0.05015400052070618,0.08369900286197662,0.11426600068807602,-0.11571100354194641,-0.10349100083112717,-0.013732999563217163,0.12747900187969208,-0.08210600167512894,-0.04670500010251999,-0.14648999273777008,0.11005499958992004,0.13675199449062347,0.1009650006890297,-0.021098999306559563,0.0612029992043972,0.10108400136232376,-0.049671001732349396,0.06729699671268463,0.025320999324321747,-0.05917299911379814,0.15673400461673737,-0.22084900736808777,-0.046838998794555664,-0.15360599756240845,0.09714999794960022,0.020103000104427338,0.09562599658966064,-0.04472099989652634,0.09280700236558914,0.08259599655866623,0.09680800139904022,0.06657099723815918,0.18460099399089813,0.10740599781274796,-0.06313999742269516,-0.04510200023651123,-0.27774301171302795,-0.07291699945926666,0.09073299914598465,0.04087299853563309,0.2188190072774887,0.07817800343036652,-0.04870299994945526,-0.03502500057220459,-0.05721199885010719,0.07301100343465805,-0.02053000032901764,-0.08219199627637863,-0.009109999984502792,-0.014433000236749649,-0.06866800040006638,-0.09425800293684006,0.04681599885225296,-0.10483899712562561,0.022746000438928604,0.15758299827575684,-0.04367800056934357,-0.13283699750900269,0.16689400374889374,0.05900299921631813,0.09246599674224854,0.044819001108407974,0.31334400177001953,0.24443599581718445,0.2493560016155243,-0.24425500631332397,-0.05068900063633919,-0.1456959992647171,-0.07341600209474564,-0.24838800728321075,0.09476400166749954,-0.06535299867391586,0.102122001349926,0.11387600004673004,-0.04199599847197533,0.012728000059723854,-0.03424299880862236,-0.13159500062465668,0.021371999755501747,0.06494200229644775,0.13620400428771973,-0.02703399956226349,0.10944300144910812,0.011411000043153763,0.008836000226438046,0.16893799602985382,-0.010122999548912048,-0.25183698534965515,-0.031571999192237854,-0.024891000241041183,0.18918000161647797,0.14016200602054596,-0.09471599757671356,-0.05907600000500679,0.020445000380277634,0.06379000097513199,0.08177000284194946,-0.05123100057244301,-0.08670700341463089,0.0885540023446083,0.09466200321912766,-0.013016999699175358,0.005251999944448471,0.1109049990773201,0.3101400136947632,0.05988899990916252,-0.09975600242614746,-0.03838599845767021,0.13585899770259857,-0.10368400067090988,0.1496729999780655,0.2067199945449829,-0.16931499540805817,-0.07421299815177917,0.12135300040245056,-0.03873800113797188,0.0486380010843277,0.2159699946641922,0.04952400177717209,0.037716999650001526,-0.007482999935746193,0.0707859992980957,0.17521600425243378,-0.14736700057983398,-0.027910999953746796,-0.04142500087618828,0.08969499915838242,-0.07563000172376633,0.02732899971306324,-0.13369299471378326,0.05819899961352348,-0.08665399998426437,-0.12347300350666046,-0.03770200163125992,-0.06797099858522415,-0.19098000228405,0.022141000255942345,0.10444000363349915,0.15188400447368622,0.2293200045824051,-0.31062600016593933,0.04907200112938881,-0.011152000166475773,0.07889900356531143,-0.22254900634288788,-0.2668190002441406,0.07818300276994705,0.008976999670267105,-0.19818900525569916,0.14009900391101837,-0.05895800143480301,0.012430000118911266,-0.09833099693059921,-0.24331900477409363,0.015744000673294067,0.13530099391937256,-0.2892870008945465,0.011447999626398087,0.06935399770736694,0.21072499454021454,0.019123999401926994,0.15571899712085724,-0.05051900073885918,-0.0383870005607605,0.07839199900627136,0.0831499993801117,0.09829399734735489,0.11092100292444229,0.16409499943256378,0.02526400052011013,-0.038499001413583755,-0.06614899635314941,0.006742999888956547,0.017517000436782837,0.08873599767684937,0.07210899889469147,-0.3111630082130432,-0.040644001215696335,-0.007040000054985285,-0.0953340008854866,0.10106900334358215,-0.07481300085783005,-0.09681600332260132,-0.04232199862599373,-0.2738420069217682,0.005508000031113625,-0.06479699909687042,0.09595999866724014,-0.045524001121520996,-0.1851460039615631,0.15023000538349152,-0.11088299751281738,0.04159799963235855,0.12447100132703781,0.02409300021827221,-0.03446900099515915,-0.08546700328588486,0.007486000191420317,0.07888100296258926,0.10578999668359756,0.019061999395489693,0.11472199857234955,-0.08102100342512131,-0.09336400032043457,-0.17464900016784668,0.09904299676418304,0.04570399969816208,-0.0719589963555336,0.14671100676059723,0.16007399559020996,-0.13401100039482117,-0.16754500567913055,0.13544200360774994,0.0057830000296235085,-0.1037290021777153,0.0058929999358952045,0.0904960036277771,-0.05349300056695938,0.20321600139141083,0.09612700343132019,-0.15154099464416504,-0.06314300000667572,-0.10619399696588516,0.018490999937057495,-0.14250899851322174,-0.03688700124621391,0.02847200073301792,0.04488399997353554,0.07654999941587448,-0.09727799892425537,0.06383900344371796,-0.01895800046622753,0.27863600850105286,0.09763800352811813,-0.08360300213098526,0.21274800598621368,0.03791600093245506,0.024007000029087067,0.13724400103092194,-0.09159599989652634,-0.01297099981456995,-0.008213000372052193,-0.0011780000058934093,0.19521500170230865,0.24719500541687012,-0.17926399409770966,0.028480999171733856,0.20612700283527374,-0.008721999824047089,0.1335660070180893,0.013159999623894691,0.03550200164318085,0.1380629986524582,0.08468300104141235,0.07497400045394897,0.10865899920463562,0.0934550017118454,0.17969800531864166,-0.07423699647188187,-0.07253099977970123,0.23014000058174133,-0.06832300126552582,-0.11258299648761749,-0.030350999906659126,-0.012516000308096409,-0.0532039999961853,0.4818609952926636,0.04531000182032585,-0.060139000415802,0.13603399693965912,0.026419999077916145,0.015525000169873238,0.21064099669456482,0.3255560100078583,0.03191100060939789,0.0913269966840744,-0.13673299551010132,0.09376200288534164,-0.15542499721050262,0.14723199605941772,-0.031201999634504318,0.21060000360012054,0.2084999978542328,-0.08003699779510498,-0.1301800012588501,-0.1027899980545044,-0.24324199557304382,0.13643699884414673,-0.014612999744713306,0.0664839968085289,-0.007530999835580587,0.0014120000414550304,0.07300399988889694,0.17022199928760529,-0.24840399622917175,0.08015099912881851,-0.0665849968791008,0.22543400526046753,0.023731999099254608,-0.03583399951457977,-0.06534100323915482,0.2989659905433655,0.06849599629640579,-0.236968994140625,0.06919900327920914,-0.22220000624656677,0.11058799922466278,0.16421300172805786,0.20277300477027893,-0.029265999794006348,0.008927999995648861,0.2232079952955246,0.010029999539256096,-0.11600299924612045,-0.04148399829864502,-0.03960299864411354,0.12544000148773193,-0.16993600130081177,0.0485679991543293,0.19977599382400513,0.07514099776744843,-0.2028679996728897,-0.11837899684906006,-0.21240200102329254,-0.1444540023803711,0.1441819965839386,0.18197199702262878,-0.059223998337984085,0.008826999925076962,-0.07999499887228012,0.20643700659275055,0.35312598943710327,-0.01296599954366684,0.17480100691318512,0.4066379964351654,0.069862000644207,0.010689999908208847,-0.03883099928498268,0.15639999508857727,0.05003700032830238,0.01618500053882599,-0.11317499727010727,-0.11822699755430222,0.28762099146842957,0.011323999613523483,-0.4947519898414612,-0.005836000200361013,0.11893200129270554,-0.006591999903321266,0.10178100317716599,0.07880900055170059,0.049695998430252075,-0.03121899999678135,-0.011815999634563923,-0.0042409999296069145,0.10495100170373917,-0.20415900647640228,0.09635800123214722,0.07347600162029266,-0.04855300113558769,-0.21415799856185913,-0.10782399773597717,-0.05560300126671791,0.15583400428295135,-0.06502600014209747,-0.129613995552063,-0.1628970056772232,-0.16649900376796722,0.11500900238752365,-0.12886199355125427,-0.11566899716854095,-0.08921000361442566
使,-0.0446229986846447,-0.023435000330209732,0.09886299818754196,-0.0533440001308918,0.11155299842357635,-0.0004070000140927732,0.14585499465465546,0.09240999817848206,-0.09372899681329727,-0.05056700110435486,0.0881040021777153,-0.030466999858617783,0.08080700039863586,-0.0047599999234080315,-0.002669000066816807,0.023653000593185425,-0.07487300038337708,0.020036999136209488,-0.06603600084781647,-0.11282700300216675,0.1351429969072342,-0.05563399940729141,0.001269000000320375,0.046939998865127563,-0.049229998141527176,0.04913000017404556,0.07429800182580948,-0.07538799941539764,0.024538999423384666,0.017319999635219574,-0.042805999517440796,0.1379300057888031,0.06315899640321732,-0.16177499294281006,-0.0007740000146441162,0.04408400133252144,0.04230500012636185,-0.1879359930753708,0.09263499826192856,0.11978600174188614,0.008634000085294247,-0.07905100286006927,-0.07077399641275406,0.09388899803161621,-0.12026699632406235,-0.0189410001039505,0.0005859999801032245,0.0450269989669323,-0.035829998552799225,-0.02035900019109249,0.04622400179505348,-0.019200999289751053,0.037494998425245285,-0.0746230036020279,0.06291700154542923,0.06573300063610077,0.014871999621391296,-0.05189099907875061,0.1359120011329651,0.15813900530338287,0.06804099678993225,-0.009974000044167042,-0.040192000567913055,-0.017518000677227974,-0.020044999197125435,-0.0745140016078949,-0.08257400244474411,0.04048699885606766,0.16505299508571625,-0.04329400137066841,-0.11879000067710876,-0.008187999948859215,0.00445100013166666,0.14306899905204773,-0.011730000376701355,-0.13232199847698212,0.0018680000212043524,0.05646499991416931,-0.035464998334646225,-0.09513500332832336,-0.09610600024461746,-0.11591999977827072,6.399999983841553e-05,0.024042999371886253,-0.019051000475883484,0.053706999868154526,0.058837998658418655,0.013422000221908092,-0.03477700054645538,-0.006994000170379877,0.06448899954557419,-0.04882499948143959,0.034605998545885086,-0.02187800034880638,-0.07400800287723541,-0.14266100525856018,-0.02231699973344803,0.044495001435279846,-0.047773998230695724,0.02369300089776516,-0.004124999977648258,-0.056092001497745514,-0.07008499652147293,0.07579699903726578,-0.05666299909353256,0.09288699924945831,-0.05316200107336044,-0.1449970006942749,0.11909099668264389,-0.03365800157189369,0.03184400126338005,0.01066100038588047,0.0763159990310669,0.050755999982357025,-0.0006200000061653554,-0.18838199973106384,0.028111999854445457,0.0013150000013411045,-0.0830719992518425,-0.07519800215959549,-0.04185900092124939,0.1016170009970665,-0.11325599998235703,-0.09962999820709229,0.042743001133203506,0.1181040033698082,-0.02342900075018406,-0.0505170002579689,0.07899300009012222,0.032255999743938446,0.05208100005984306,0.0927949994802475,0.07413599640130997,-0.06437700241804123,-0.015564000234007835,0.1314699947834015,-0.02733200043439865,-0.052195001393556595,-0.16960999369621277,-0.034589000046253204,-0.03495800122618675,-0.0692719966173172,-0.16107100248336792,-0.1388069987297058,-0.04632300138473511,0.06035200133919716,-0.05657900124788284,0.10374400019645691,-0.05787200108170509,-0.06088399887084961,0.047155000269412994,-0.025485999882221222,-0.040052998811006546,-0.03621400147676468,0.02180499956011772,-0.033705998212099075,-0.059154998511075974,-0.06660600006580353,0.05824200063943863,-0.03466600179672241,-0.11786399781703949,-0.00035200000274926424,-0.013038000091910362,-0.04585599899291992,0.1104860007762909,0.025498000904917717,0.11164899915456772,0.00431900005787611,-0.0850759968161583,-0.07636299729347229,-0.10774800181388855,0.09047199785709381,-0.06941000372171402,-0.051003001630306244,0.006506000179797411,-0.029030999168753624,-0.0954350009560585,0.06161800026893616,0.0316770002245903,-0.013624999672174454,0.111735999584198,-0.051851000636816025,-0.027545999735593796,0.07543499767780304,-0.0030429998878389597,0.03568200021982193,0.11667799949645996,0.17348900437355042,0.18308700621128082,0.03698800131678581,0.025560999289155006,-0.09409099817276001,-0.0611100010573864,0.07378099858760834,0.03294000029563904,-0.09980800002813339,0.040389999747276306,-0.002193999942392111,-0.05421600118279457,-0.05587900057435036,0.17173899710178375,0.12503400444984436,0.014174999669194221,0.03334299847483635,-0.2272379994392395,-0.1305769979953766,0.0032969999592751265,-0.022540999576449394,0.0026650000363588333,-0.04099699854850769,0.05086899921298027,-0.07306600362062454,-0.04275200143456459,-0.009007999673485756,0.09687899798154831,0.006556999869644642,0.01745700091123581,-0.14031299948692322,0.026798000559210777,-0.11112099885940552,0.016332000494003296,0.00455200020223856,0.037264999002218246,-0.01566700078547001,-0.08666499704122543,-0.0641079992055893,0.057013001292943954,0.015990000218153,0.05087700113654137,0.12487299740314484,-0.1831350028514862,0.12551400065422058,-0.12514300644397736,0.09799700230360031,0.06662900000810623,-0.002059000078588724,-0.028193999081850052,0.0955130010843277,-0.14549100399017334,-0.16837599873542786,-0.08741699904203415,-0.07479199767112732,-0.19880199432373047,0.03965900093317032,-0.09924899786710739,0.04096300154924393,0.025642000138759613,-0.014774000272154808,0.07605800032615662,0.004786999896168709,0.06926000118255615,-0.024483000859618187,-0.17591899633407593,0.06457199901342392,-0.026782000437378883,-0.07231999933719635,0.01377199962735176,0.0974470004439354,0.1471319943666458,0.044794999063014984,0.033323001116514206,0.17598499357700348,0.100211001932621,-0.038343001157045364,0.009557000361382961,0.06096300110220909,0.027187999337911606,-0.030122000724077225,-0.018485000357031822,-0.024984000250697136,-0.07057300209999084,-0.07814999669790268,0.06341800093650818,0.003957999870181084,-0.019593000411987305,0.0013879999751225114,-0.14928600192070007,-0.02350500039756298,-0.08714299649000168,0.01793299987912178,0.09968700259923935,0.11112099885940552,0.14007799327373505,0.017729999497532845,0.13087399303913116,-0.00029299999005161226,0.09300699830055237,0.05305900052189827,0.06096699833869934,0.056550998240709305,0.23436999320983887,-0.0710809975862503,-0.02132299914956093,-0.0822179988026619,0.005274999886751175,-0.11075100302696228,-0.012755000032484531,0.00648100022226572,-0.10382000356912613,0.006374000106006861,-0.04973100125789642,0.009159999899566174,0.09101799875497818,-0.19634200632572174,-0.06737799942493439,-0.0467430017888546,0.009265000000596046,-0.047766998410224915,-0.08027499914169312,0.02933800034224987,0.0685809999704361,0.025969000533223152,-0.03256399929523468,0.09185100346803665,0.015650000423192978,-0.09651099890470505,0.07246799767017365,-0.1890770047903061,0.015908999368548393,-0.06012900173664093,0.06078699976205826,-0.11433999985456467,0.13822999596595764,0.043522998690605164,-0.03220200166106224,-0.045233000069856644,-0.20521199703216553,-0.07203800231218338,0.049233000725507736,0.022113999351859093,0.10045599937438965,-0.11781100183725357,0.01856900006532669,-0.1321689933538437,0.1151290014386177,0.02323400042951107,-0.15822100639343262,-0.139832004904747,0.014116000384092331,-0.06979099661111832,-0.16478699445724487,0.0017810000572353601,-0.0911249965429306,-0.002887000096961856,-0.028325999155640602,0.011401000432670116,0.19899000227451324,0.04194999858736992,0.019669000059366226,-0.010103000327944756,-0.05984700098633766,0.004519999958574772,0.06073400005698204,0.05708799883723259,0.2600719928741455,-0.08466500043869019,-0.19878099858760834,0.19770799577236176,0.10163500159978867,0.1657010018825531,0.06716600060462952,0.014182999730110168,0.13145099580287933,0.04307800158858299,-0.029299000278115273,-0.1984270066022873,0.055865999311208725,-0.07764700055122375,-0.1821880042552948,-0.041058000177145004,-0.14035899937152863,-0.09735599905252457,0.015545000322163105,-0.13136300444602966,-0.15296700596809387,0.08018899708986282,-0.011390999890863895,-0.16277499496936798,0.03319700062274933,0.14125800132751465,0.024304000660777092,-0.058038000017404556,-0.0432329997420311,0.05152599886059761,0.01645199954509735,0.1288989931344986,0.06561200320720673,-0.05890699848532677,0.1944350004196167,-0.03979700058698654,-0.01811799965798855,0.0006280000088736415,-0.03376400098204613,-0.05578399822115898,0.07074499875307083,0.18517500162124634,-0.055309999734163284,-0.14897499978542328,-0.10503199696540833,-0.034915998578071594
安装,-0.10312200337648392,0.17804500460624695,0.18633900582790375,-0.0021440000273287296,0.0017259999876841903,0.0378899984061718,-0.13679499924182892,0.1833290010690689,0.04605799913406372,-0.21043799817562103,0.020035000517964363,0.25369900465011597,-0.14134199917316437,-0.2776530086994171,-0.23441599309444427,-0.23505400121212006,0.0083619998767972,0.05485200136899948,-0.2673259973526001,-0.09409800171852112,-0.02178799919784069,-0.2347719967365265,0.1455100029706955,0.1457269936800003,0.17784500122070312,0.20165599882602692,0.07968799769878387,-0.322845995426178,-0.16488899290561676,0.017132999375462532,0.022204000502824783,-0.17009299993515015,0.15865099430084229,-0.11045899987220764,-0.16338999569416046,-0.07460500299930573,0.1509300023317337,-0.1559469997882843,0.1287979930639267,0.23421399295330048,0.09888900071382523,0.05361500009894371,0.0856420025229454,0.2817060053348541,0.16864599287509918,0.10622899979352951,-0.0282639991492033,-0.04379500076174736,0.1486479938030243,-0.17923200130462646,-0.015560000203549862,0.013194999657571316,0.2610839903354645,-0.16841399669647217,0.18754400312900543,-0.03642899915575981,-0.17535200715065002,0.2883029878139496,0.2819649875164032,0.033282000571489334,-0.13328999280929565,-0.09167599678039551,-0.1636189967393875,0.09578800201416016,0.1868000030517578,0.192438006401062,-0.17949500679969788,-0.2036370038986206,0.28139299154281616,0.2600739896297455,-0.24318000674247742,0.016651999205350876,-0.11367999762296677,-0.02056100033223629,0.2669380009174347,-0.038297999650239944,0.07108400017023087,0.10671699792146683,0.3673419952392578,0.18306699395179749,0.11607100069522858,-0.2943269908428192,-0.2494799941778183,-0.1035970002412796,0.02434599958360195,0.038467999547719955,0.02310599945485592,0.15491700172424316,-0.2637900114059448,-0.1331540048122406,0.026816999539732933,0.033073000609874725,0.0931209996342659,-0.2283170074224472,0.1028209999203682,0.0846719965338707,0.06487499922513962,0.04796300083398819,0.11288099735975266,-0.06268099695444107,0.00037900000461377203,0.14103800058364868,-0.023287000134587288,0.12936900556087494,-0.20883400738239288,-0.06044499948620796,-0.02628999948501587,0.04815499857068062,-0.04063500091433525,0.0460049994289875,0.021733000874519348,0.042080000042915344,0.2941420078277588,0.012814999558031559,0.1041169986128807,-0.1121319979429245,-0.44940298795700073,0.04134099930524826,0.09293200075626373,0.20648600161075592,0.19202299416065216,0.075314000248909,0.3069390058517456,0.1379150003194809,0.33030200004577637,0.06084199994802475,-0.14134399592876434,-0.02580999955534935,-0.021669000387191772,0.3210040032863617,0.23659400641918182,-0.1970209926366806,0.07570900022983551,0.16455799341201782,0.046498000621795654,0.16230300068855286,-0.08385899662971497,-0.11796999722719193,0.042438000440597534,-0.08555500209331512,-0.2914470136165619,-0.0036780000664293766,-0.05307599902153015,0.3855130076408386,-0.24281199276447296,-0.11347600072622299,-0.03524700179696083,0.00020199999562464654,0.1443679928779602,-0.24520300328731537,-0.15885600447654724,-0.0068709999322891235,-0.029409000650048256,0.13882799446582794,0.35910698771476746,-0.11266200244426727,0.05404999852180481,0.1933010071516037,0.3231259882450104,0.15788500010967255,-0.10266000032424927,0.019634999334812164,-0.11952800303697586,0.25585100054740906,0.027698999270796776,-0.07909099757671356,-0.07850299775600433,0.02069300040602684,-0.0696059986948967,-0.02490600012242794,0.09232699871063232,0.24806499481201172,0.06311599910259247,0.07225000113248825,0.2529749870300293,-0.2648409903049469,0.15859299898147583,0.05693399906158447,-0.12648800015449524,0.007271000184118748,0.064580999314785,-0.2325969934463501,-0.4201259911060333,0.16174699366092682,-0.0887949988245964,0.12144999951124191,0.40219399333000183,-0.006686000153422356,0.1887650042772293,0.08911599963903427,-0.01686899922788143,-0.044144000858068466,0.016713999211788177,-0.134551003575325,0.0028349999338388443,0.07695399969816208,0.043296001851558685,-0.08036299794912338,-0.29479798674583435,-0.09772899746894836,0.15750999748706818,-0.27894899249076843,0.04696299880743027,0.14336100220680237,0.11048799753189087,-0.38884100317955017,0.14914999902248383,-0.03957200050354004,-0.04618699848651886,-0.011021999642252922,0.11860699951648712,0.023022999987006187,-0.15437500178813934,-0.14442700147628784,0.27859699726104736,0.011024000123143196,0.06396300345659256,-0.48893800377845764,0.49487200379371643,-0.13618400692939758,-0.18748199939727783,0.19158199429512024,-0.07606799900531769,0.13154000043869019,-0.0034290000330656767,0.010943000204861164,0.023228000849485397,0.012451999820768833,0.2061759978532791,0.04810100048780441,-0.39203399419784546,-0.03234099969267845,0.08096799999475479,0.12373299896717072,0.188073992729187,-0.2014950066804886,0.2785930037498474,0.008070000447332859,-0.0956370010972023,-0.25382599234580994,-0.05163300037384033,-0.25435999035835266,-0.060763001441955566,-0.15255899727344513,-0.08537500351667404,-0.02062699943780899,-0.1503800004720688,0.054857999086380005,0.21418599784374237,-0.13213300704956055,-0.046397000551223755,0.10312599688768387,-0.1627199947834015,-0.10066399723291397,-0.04141300171613693,0.06814300268888474,0.10209900140762329,-0.022923000156879425,0.10074199736118317,0.042823001742362976,0.17919400334358215,-0.007375999819487333,-0.18148499727249146,-0.12571200728416443,-0.22189900279045105,-0.27426400780677795,0.09452600032091141,0.11462199687957764,-0.1323300004005432,-0.1733040064573288,-0.06991799920797348,-0.1422470062971115,-0.12850600481033325,-0.11015299707651138,0.2278289943933487,0.37423598766326904,-0.011699000373482704,0.2750050127506256,0.0024939998984336853,0.22801600396633148,0.21134799718856812,0.016606999561190605,0.11052899807691574,-0.10924500226974487,-0.3452419936656952,0.019717000424861908,-0.1696159988641739,0.15286299586296082,0.13944099843502045,0.06597000360488892,0.004267000127583742,-0.12730200588703156,0.10100100189447403,-0.11850100010633469,-0.06378299742937088,-0.10507900267839432,-0.31487101316452026,0.1150989979505539,-0.02492699958384037,0.26198700070381165,0.22664299607276917,0.3829379975795746,0.004528000019490719,-0.19782699644565582,0.0012740000383928418,0.13210800290107727,-0.10488300025463104,0.45762598514556885,-0.29128798842430115,-0.21942000091075897,0.14712099730968475,-0.011667000129818916,0.3394779860973358,-0.3563559949398041,-0.22840900719165802,0.4820359945297241,-0.08128699660301208,-0.06603100150823593,-0.13112099468708038,-0.0009200000204145908,-0.28981998562812805,-0.008337000384926796,0.0019249999895691872,0.22801099717617035,-0.06999699771404266,0.12203700095415115,0.3978689908981323,-0.020597999915480614,0.04296899959445,-0.0450190007686615,0.10224000364542007,-0.046758998185396194,0.004741999786347151,-0.1745160073041916,-0.2186889946460724,0.014066999778151512,-0.5107849836349487,-0.24418500065803528,-0.2177560031414032,0.07049799710512161,0.1352279931306839,-0.10199200361967087,-0.03319400176405907,-0.06735199689865112,-0.026396000757813454,0.08189599961042404,0.22913900017738342,0.21024799346923828,0.028527000918984413,0.20602400600910187,-0.03842899948358536,-0.0037040000315755606,-0.009219000115990639,0.10046300292015076,0.06004299968481064,0.10619799792766571,0.06261300295591354,0.046498000621795654,0.12293700128793716,-0.04098900035023689,-0.09532000124454498,0.12306199967861176,-0.006794000044465065,0.04803000018000603,-0.25180500745773315,0.08167299628257751,-0.17509199678897858,0.012051999568939209,-0.07162199914455414,-0.19943900406360626,-0.3212040066719055,-0.24017499387264252,0.1509609967470169,0.4346129894256592,0.03594699874520302,-0.1411679983139038,0.10219799727201462,-0.1586180031299591,-0.021637000143527985,-0.25255098938941956,-0.1329129934310913,-0.06166199967265129,0.02771100029349327,0.2160079926252365,0.11403600126504898,0.18181200325489044,-0.11114200204610825,0.04168799892067909,0.10509400069713593,0.006769000086933374,0.06361299753189087,-0.11788900196552277,0.0720369964838028,0.06234300136566162,0.12188900262117386,0.19697000086307526,-0.14145800471305847,0.2249159961938858,-0.06598100066184998,0.05081300064921379
